<?xml version="1.0"?>
<opencv_storage>
<shapeML type_id="opencv-ml-ann-mlp">
  <layer_sizes type_id="opencv-matrix">
    <rows>1</rows>
    <cols>3</cols>
    <dt>i</dt>
    <data>
      1600 40 1</data></layer_sizes>
  <activation_function>SIGMOID_SYM</activation_function>
  <f_param1>5.9999999999999998e-01</f_param1>
  <f_param2>1.</f_param2>
  <min_val>-9.4999999999999996e-01</min_val>
  <max_val>9.4999999999999996e-01</max_val>
  <min_val1>-9.7999999999999998e-01</min_val1>
  <max_val1>9.7999999999999998e-01</max_val1>
  <training_params>
    <train_method>BACKPROP</train_method>
    <dw_scale>1.0000000000000001e-01</dw_scale>
    <moment_scale>1.0000000000000001e-01</moment_scale>
    <term_criteria><epsilon>9.9999999747524271e-07</epsilon>
      <iterations>4000</iterations></term_criteria></training_params>
  <input_scale>
    1. 0. 3.3737774527201288e-02 -1.1785113019775793e-01
    3.3737774527201288e-02 -1.1785113019775793e-01
    3.3737774527201288e-02 -1.1785113019775793e-01
    1.9754817973330140e-02 -2.0701966780270628e-01
    1.9754817973330140e-02 -2.0701966780270628e-01
    3.3737774527201288e-02 -1.1785113019775793e-01
    3.3737774527201288e-02 -1.1785113019775793e-01
    2.4023623198297376e-02 -1.6783627165933784e-01
    2.4023623198297376e-02 -1.6783627165933784e-01
    1.7231700539727748e-02 -2.4077170617153840e-01
    1.7231700539727748e-02 -2.4077170617153840e-01
    1.9754817973330140e-02 -2.0701966780270628e-01
    1.5525415118394021e-02 -2.7116307227332026e-01
    1.7231700539727748e-02 -2.4077170617153840e-01
    1.1928104575163398e-02 -3.7500000000000000e-01
    1.1928104575163398e-02 -3.7500000000000000e-01
    2.4023623198297376e-02 -1.6783627165933784e-01
    1.7231700539727748e-02 -2.4077170617153840e-01
    9.4794962809557053e-03 -5.2981294282601754e-01
    8.6630607617299172e-03 -6.3548890930224256e-01
    9.9607641267966951e-03 -4.8712230044745486e-01
    1.2553967727335909e-02 -3.5082320772281173e-01
    1.3318695560605564e-02 -3.2566947363946486e-01 1. 0.
    3.3737774527201288e-02 -1.1785113019775793e-01
    2.4023623198297376e-02 -1.6783627165933784e-01
    1.7231700539727748e-02 -2.4077170617153840e-01
    1.9754817973330140e-02 -2.0701966780270628e-01
    2.4023623198297376e-02 -1.6783627165933784e-01
    1.9754817973330140e-02 -2.0701966780270628e-01
    3.3737774527201288e-02 -1.1785113019775793e-01
    2.4023623198297376e-02 -1.6783627165933784e-01
    3.3737774527201288e-02 -1.1785113019775793e-01
    1.9754817973330140e-02 -2.0701966780270628e-01
    1.9754817973330140e-02 -2.0701966780270628e-01
    3.3737774527201288e-02 -1.1785113019775793e-01
    3.3737774527201288e-02 -1.1785113019775793e-01 1. 0.
    3.3737774527201288e-02 -1.1785113019775793e-01
    3.3737774527201288e-02 -1.1785113019775793e-01
    2.4023623198297376e-02 -1.6783627165933784e-01
    3.3737774527201288e-02 -1.1785113019775793e-01
    2.4023623198297376e-02 -1.6783627165933784e-01
    1.7231700539727748e-02 -2.4077170617153840e-01
    1.7231700539727748e-02 -2.4077170617153840e-01
    1.7231700539727748e-02 -2.4077170617153840e-01
    1.7231700539727748e-02 -2.4077170617153840e-01
    1.7231700539727748e-02 -2.4077170617153840e-01
    1.5525415118394021e-02 -2.7116307227332026e-01
    1.0962017532926725e-02 -4.2121176958711593e-01
    1.1405449474694214e-02 -3.9840953644479793e-01
    1.0581010348957611e-02 -4.4353276257274371e-01
    9.2782101606486284e-03 -5.5097316501933979e-01
    8.9373548033285840e-03 -5.9317101400173966e-01
    8.5464597419484013e-03 -6.5678957742918542e-01
    8.4417747445548960e-03 -6.7823299831252692e-01
    8.0648706660368264e-03 -7.8881063774661564e-01
    8.0648706660368264e-03 -7.8881063774661564e-01
    8.3479342307736706e-03 -6.9985421222376532e-01
    7.9337258175646297e-03 -8.5912469298422467e-01
    8.3479342307736706e-03 -6.9985421222376532e-01
    8.4417747445548960e-03 -6.7823299831252692e-01
    8.7928516723291064e-03 -6.1429511683395133e-01
    9.2782101606486284e-03 -5.5097316501933979e-01
    1.0250271726446785e-02 -4.6547466812563143e-01
    1.3318695560605564e-02 -3.2566947363946486e-01
    1.3318695560605564e-02 -3.2566947363946486e-01
    1.2553967727335909e-02 -3.5082320772281173e-01
    1.3318695560605564e-02 -3.2566947363946486e-01
    1.5525415118394021e-02 -2.7116307227332026e-01
    1.4278074810952394e-02 -2.9925280083228989e-01
    1.3318695560605564e-02 -3.2566947363946486e-01
    1.5525415118394021e-02 -2.7116307227332026e-01
    1.5525415118394021e-02 -2.7116307227332026e-01
    1.7231700539727748e-02 -2.4077170617153840e-01
    2.4023623198297376e-02 -1.6783627165933784e-01
    2.4023623198297376e-02 -1.6783627165933784e-01
    2.4023623198297376e-02 -1.6783627165933784e-01
    2.4023623198297376e-02 -1.6783627165933784e-01 1. 0.
    2.4023623198297376e-02 -1.6783627165933784e-01
    2.4023623198297376e-02 -1.6783627165933784e-01
    2.4023623198297376e-02 -1.6783627165933784e-01
    1.7231700539727748e-02 -2.4077170617153840e-01
    1.4278074810952394e-02 -2.9925280083228989e-01
    1.3318695560605564e-02 -3.2566947363946486e-01
    1.4278074810952394e-02 -2.9925280083228989e-01
    1.0250271726446785e-02 -4.6547466812563143e-01
    9.9607641267966951e-03 -4.8712230044745486e-01
    8.9373548033285840e-03 -5.9317101400173966e-01
    9.0984011784219932e-03 -5.7207755354735546e-01
    8.5464597419484013e-03 -6.5678957742918542e-01
    8.0648706660368264e-03 -7.8881063774661564e-01
    8.0648706660368264e-03 -7.8881063774661564e-01
    7.8615995403567753e-03 -9.3369956184785263e-01
    7.8615995403567753e-03 -9.3369956184785263e-01
    7.8615995403567753e-03 -9.3369956184785263e-01
    7.8438732505170458e-03 -1.0137937550497031e+00
    8.0141477058386992e-03 -8.1184414088598877e-01
    7.8794465543357197e-03 -9.0829510622924770e-01
    7.9705414483232217e-03 -8.3526906958455682e-01
    8.2640332648711134e-03 -7.2168783648703216e-01
    8.2640332648711134e-03 -7.2168783648703216e-01
    7.9337258175646297e-03 -8.5912469298422467e-01
    7.9705414483232217e-03 -8.3526906958455682e-01
    8.9373548033285840e-03 -5.9317101400173966e-01
    9.9607641267966951e-03 -4.8712230044745486e-01
    9.9607641267966951e-03 -4.8712230044745486e-01
    1.1928104575163398e-02 -3.7500000000000000e-01
    1.2553967727335909e-02 -3.5082320772281173e-01
    1.3318695560605564e-02 -3.2566947363946486e-01
    1.1928104575163398e-02 -3.7500000000000000e-01
    1.1928104575163398e-02 -3.7500000000000000e-01
    1.2553967727335909e-02 -3.5082320772281173e-01
    1.2553967727335909e-02 -3.5082320772281173e-01
    1.9754817973330140e-02 -2.0701966780270628e-01
    1.7231700539727748e-02 -2.4077170617153840e-01
    2.4023623198297376e-02 -1.6783627165933784e-01
    3.3737774527201288e-02 -1.1785113019775793e-01 1. 0.
    3.3737774527201288e-02 -1.1785113019775793e-01
    2.4023623198297376e-02 -1.6783627165933784e-01
    1.9754817973330140e-02 -2.0701966780270628e-01
    1.4278074810952394e-02 -2.9925280083228989e-01
    1.3318695560605564e-02 -3.2566947363946486e-01
    1.1928104575163398e-02 -3.7500000000000000e-01
    9.4794962809557053e-03 -5.2981294282601754e-01
    9.2782101606486284e-03 -5.5097316501933979e-01
    8.7928516723291064e-03 -6.1429511683395133e-01
    8.7928516723291064e-03 -6.1429511683395133e-01
    7.9034327484939198e-03 -8.8345220859877249e-01
    7.9705414483232217e-03 -8.3526906958455682e-01
    7.8615995403567753e-03 -9.3369956184785263e-01
    7.8615995403567753e-03 -9.3369956184785263e-01
    7.8497686840817600e-03 -1.0419761445034557e+00
    8.0141477058386992e-03 -1.2317635241028797e+00
    8.0141477058386992e-03 -1.2317635241028797e+00
    7.8438732505170458e-03 -1.0137937550497031e+00
    7.8615995403567753e-03 -9.3369956184785263e-01
    7.9337258175646297e-03 -1.1639753904947561e+00
    7.9034327484939181e-03 -1.1319231422671769e+00
    7.8794465543357197e-03 -1.1009637651263608e+00
    7.8438732505170458e-03 -1.0137937550497031e+00
    7.8497686840817600e-03 -9.5971486993739330e-01
    7.9034327484939198e-03 -8.8345220859877249e-01
    8.1231015353449218e-03 -7.6613087768287380e-01
    7.9337258175646297e-03 -8.5912469298422467e-01
    9.9607641267966951e-03 -4.8712230044745486e-01
    1.0250271726446785e-02 -4.6547466812563143e-01
    9.7056148557488550e-03 -5.0854762771560780e-01
    9.7056148557488550e-03 -5.0854762771560780e-01
    1.1928104575163398e-02 -3.7500000000000000e-01
    1.1928104575163398e-02 -3.7500000000000000e-01
    1.1405449474694214e-02 -3.9840953644479793e-01
    1.1928104575163398e-02 -3.7500000000000000e-01
    1.4278074810952394e-02 -2.9925280083228989e-01
    1.5525415118394021e-02 -2.7116307227332026e-01
    1.9754817973330140e-02 -2.0701966780270628e-01
    2.4023623198297376e-02 -1.6783627165933784e-01 1. 0.
    3.3737774527201288e-02 -1.1785113019775793e-01
    3.3737774527201288e-02 -1.1785113019775793e-01
    1.4278074810952394e-02 -2.9925280083228989e-01
    1.2553967727335909e-02 -3.5082320772281173e-01
    1.2553967727335909e-02 -3.5082320772281173e-01
    9.7056148557488550e-03 -5.0854762771560780e-01
    9.7056148557488550e-03 -5.0854762771560780e-01
    9.0984011784219932e-03 -5.7207755354735546e-01
    8.6630607617299172e-03 -6.3548890930224256e-01
    7.9034327484939198e-03 -8.8345220859877249e-01
    7.8497686840817600e-03 -9.5971486993739330e-01
    7.8615995403567753e-03 -9.3369956184785263e-01
    7.8438732505170458e-03 -1.0137937550497031e+00
    7.8438732505170458e-03 -1.0137937550497031e+00
    7.8615995403567753e-03 -9.3369956184785263e-01
    8.0648706660368247e-03 -1.2677313820927747e+00
    7.8794465543357197e-03 -1.1009637651263608e+00
    7.8438732505170475e-03 -9.8639392383214386e-01
    7.8497686840817600e-03 -9.5971486993739330e-01
    7.9034327484939181e-03 -1.1319231422671769e+00
    7.8438732505170458e-03 -1.0137937550497031e+00
    7.8438732505170458e-03 -1.0137937550497031e+00
    7.8615995403567753e-03 -9.3369956184785263e-01
    7.9337258175646297e-03 -8.5912469298422467e-01
    7.8497686840817600e-03 -9.5971486993739330e-01
    7.8438732505170475e-03 -9.8639392383214386e-01
    7.8794465543357197e-03 -9.0829510622924770e-01
    8.0648706660368264e-03 -7.8881063774661564e-01
    8.4417747445548960e-03 -6.7823299831252692e-01
    8.7928516723291064e-03 -6.1429511683395133e-01
    9.7056148557488550e-03 -5.0854762771560780e-01
    9.9607641267966951e-03 -4.8712230044745486e-01
    1.1405449474694214e-02 -3.9840953644479793e-01
    1.1405449474694214e-02 -3.9840953644479793e-01
    1.0962017532926725e-02 -4.2121176958711593e-01
    1.3318695560605564e-02 -3.2566947363946486e-01
    1.4278074810952394e-02 -2.9925280083228989e-01
    1.9754817973330140e-02 -2.0701966780270628e-01
    2.4023623198297376e-02 -1.6783627165933784e-01 1. 0.
    3.3737774527201288e-02 -1.1785113019775793e-01
    1.7231700539727748e-02 -2.4077170617153840e-01
    1.5525415118394021e-02 -2.7116307227332026e-01
    1.3318695560605564e-02 -3.2566947363946486e-01
    9.7056148557488550e-03 -5.0854762771560780e-01
    9.0984011784219932e-03 -5.7207755354735546e-01
    9.0984011784219932e-03 -5.7207755354735546e-01
    8.1893055767481345e-03 -7.4376843799781012e-01
    7.9034327484939198e-03 -8.8345220859877249e-01
    7.9705414483232217e-03 -8.3526906958455682e-01
    7.9034327484939198e-03 -8.8345220859877249e-01
    7.8497686840817600e-03 -1.0419761445034557e+00
    8.1231015353449218e-03 -7.6613087768287380e-01
    7.9034327484939198e-03 -8.8345220859877249e-01
    7.8615995403567736e-03 -1.0710083209431247e+00
    8.4417747445548960e-03 -1.4744195615489717e+00
    8.0141477058386992e-03 -1.2317635241028797e+00
    8.1893055767481345e-03 -1.3445044840729643e+00
    7.8497686840817600e-03 -1.0419761445034557e+00
    7.8615995403567736e-03 -1.0710083209431247e+00
    8.1893055767481345e-03 -1.3445044840729643e+00
    7.8497686840817600e-03 -9.5971486993739330e-01
    7.8438732505170475e-03 -9.8639392383214386e-01
    7.9337258175646297e-03 -1.1639753904947561e+00
    7.9034327484939181e-03 -1.1319231422671769e+00
    7.9705414483232200e-03 -1.1972189997378644e+00
    7.8615995403567736e-03 -1.0710083209431247e+00
    7.9705414483232217e-03 -8.3526906958455682e-01
    8.1893055767481345e-03 -7.4376843799781012e-01
    8.5464597419484013e-03 -6.5678957742918542e-01
    8.5464597419484013e-03 -6.5678957742918542e-01
    9.7056148557488550e-03 -5.0854762771560780e-01
    9.2782101606486284e-03 -5.5097316501933979e-01
    1.0250271726446785e-02 -4.6547466812563143e-01
    1.0962017532926725e-02 -4.2121176958711593e-01
    1.3318695560605564e-02 -3.2566947363946486e-01
    1.4278074810952394e-02 -2.9925280083228989e-01
    1.7231700539727748e-02 -2.4077170617153840e-01
    1.7231700539727748e-02 -2.4077170617153840e-01 1. 0.
    2.4023623198297376e-02 -1.6783627165933784e-01
    1.7231700539727748e-02 -2.4077170617153840e-01
    1.0250271726446785e-02 -4.6547466812563143e-01
    1.0250271726446785e-02 -4.6547466812563143e-01
    9.4794962809557053e-03 -5.2981294282601754e-01
    8.9373548033285840e-03 -5.9317101400173966e-01
    8.7928516723291064e-03 -6.1429511683395133e-01
    8.0141477058386992e-03 -8.1184414088598877e-01
    7.9034327484939198e-03 -8.8345220859877249e-01
    8.0141477058386992e-03 -8.1184414088598877e-01
    7.8438732505170458e-03 -1.0137937550497031e+00
    7.9034327484939181e-03 -1.1319231422671769e+00
    7.8615995403567736e-03 -1.0710083209431247e+00
    8.3479342307736671e-03 -1.4288690166235201e+00
    8.1231015353449218e-03 -1.3052600138300814e+00
    8.1893055767481345e-03 -1.3445044840729643e+00
    8.2640332648711151e-03 -1.3856406460551021e+00
    8.4417747445548960e-03 -1.4744195615489717e+00
    8.1231015353449218e-03 -1.3052600138300814e+00
    8.1231015353449218e-03 -1.3052600138300814e+00
    7.8794465543357197e-03 -1.1009637651263608e+00
    7.8497686840817600e-03 -1.0419761445034557e+00
    7.8794465543357197e-03 -1.1009637651263608e+00
    7.8438732505170458e-03 -1.0137937550497031e+00
    7.9705414483232200e-03 -1.1972189997378644e+00
    8.0141477058386992e-03 -1.2317635241028797e+00
    7.8497686840817600e-03 -1.0419761445034557e+00
    7.8497686840817600e-03 -1.0419761445034557e+00
    7.9034327484939181e-03 -1.1319231422671769e+00
    8.0141477058386992e-03 -8.1184414088598877e-01
    8.1893055767481345e-03 -7.4376843799781012e-01
    8.4417747445548960e-03 -6.7823299831252692e-01
    9.0984011784219932e-03 -5.7207755354735546e-01
    9.0984011784219932e-03 -5.7207755354735546e-01
    1.1928104575163398e-02 -3.7500000000000000e-01
    1.1928104575163398e-02 -3.7500000000000000e-01
    1.2553967727335909e-02 -3.5082320772281173e-01
    1.5525415118394021e-02 -2.7116307227332026e-01
    1.9754817973330140e-02 -2.0701966780270628e-01 1. 0.
    1.9754817973330140e-02 -2.0701966780270628e-01
    1.7231700539727748e-02 -2.4077170617153840e-01
    9.9607641267966951e-03 -4.8712230044745486e-01
    9.7056148557488550e-03 -5.0854762771560780e-01
    1.1405449474694214e-02 -3.9840953644479793e-01
    8.2640332648711134e-03 -7.2168783648703216e-01
    7.9034327484939198e-03 -8.8345220859877249e-01
    7.8794465543357197e-03 -9.0829510622924770e-01
    7.9337258175646297e-03 -8.5912469298422467e-01
    7.8438732505170475e-03 -9.8639392383214386e-01
    8.1231015353449218e-03 -1.3052600138300814e+00
    8.3479342307736671e-03 -1.4288690166235201e+00
    8.7928516723291047e-03 -1.6278820596099706e+00
    8.5464597419483996e-03 -1.5225576567676566e+00
    8.0648706660368247e-03 -1.2677313820927747e+00
    7.9705414483232200e-03 -1.1972189997378644e+00
    8.1893055767481345e-03 -1.3445044840729643e+00
    8.1893055767481345e-03 -1.3445044840729643e+00
    8.2640332648711151e-03 -1.3856406460551021e+00
    8.1231015353449218e-03 -1.3052600138300814e+00
    7.9337258175646297e-03 -1.1639753904947561e+00
    8.6630607617299189e-03 -1.5735915849388866e+00
    8.4417747445548960e-03 -1.4744195615489717e+00
    8.2640332648711151e-03 -1.3856406460551021e+00
    7.9337258175646297e-03 -1.1639753904947561e+00
    8.0141477058386992e-03 -1.2317635241028797e+00
    8.0141477058386992e-03 -1.2317635241028797e+00
    7.8615995403567753e-03 -9.3369956184785263e-01
    7.8438732505170475e-03 -9.8639392383214386e-01
    7.8615995403567736e-03 -1.0710083209431247e+00
    7.9337258175646297e-03 -8.5912469298422467e-01
    8.2640332648711134e-03 -7.2168783648703216e-01
    8.3479342307736706e-03 -6.9985421222376532e-01
    9.4794962809557053e-03 -5.2981294282601754e-01
    9.9607641267966951e-03 -4.8712230044745486e-01
    1.2553967727335909e-02 -3.5082320772281173e-01
    1.3318695560605564e-02 -3.2566947363946486e-01
    1.5525415118394021e-02 -2.7116307227332026e-01
    1.7231700539727748e-02 -2.4077170617153840e-01
    3.3737774527201288e-02 -1.1785113019775793e-01
    1.9754817973330140e-02 -2.0701966780270628e-01
    1.5525415118394021e-02 -2.7116307227332026e-01
    1.1928104575163398e-02 -3.7500000000000000e-01
    1.1405449474694214e-02 -3.9840953644479793e-01
    9.0984011784219932e-03 -5.7207755354735546e-01
    8.0141477058386992e-03 -8.1184414088598877e-01
    7.8497686840817600e-03 -9.5971486993739330e-01
    7.8497686840817600e-03 -9.5971486993739330e-01
    7.8438732505170475e-03 -9.8639392383214386e-01
    7.8497686840817600e-03 -1.0419761445034557e+00
    8.1231015353449218e-03 -1.3052600138300814e+00
    8.1231015353449218e-03 -1.3052600138300814e+00
    8.1231015353449218e-03 -1.3052600138300814e+00
    7.8794465543357197e-03 -1.1009637651263608e+00
    7.8794465543357197e-03 -1.1009637651263608e+00
    7.9337258175646297e-03 -1.1639753904947561e+00
    8.1231015353449218e-03 -1.3052600138300814e+00
    8.0141477058386992e-03 -1.2317635241028797e+00
    8.0648706660368247e-03 -1.2677313820927747e+00
    7.8438732505170458e-03 -1.0137937550497031e+00
    8.4417747445548960e-03 -1.4744195615489717e+00
    8.3479342307736671e-03 -1.4288690166235201e+00
    8.3479342307736671e-03 -1.4288690166235201e+00
    8.1893055767481345e-03 -1.3445044840729643e+00
    8.6630607617299189e-03 -1.5735915849388866e+00
    8.5464597419483996e-03 -1.5225576567676566e+00
    7.8794465543357197e-03 -1.1009637651263608e+00
    7.8794465543357197e-03 -1.1009637651263608e+00
    7.9034327484939181e-03 -1.1319231422671769e+00
    7.8794465543357197e-03 -1.1009637651263608e+00
    7.8794465543357197e-03 -1.1009637651263608e+00
    7.8497686840817600e-03 -9.5971486993739330e-01
    8.0141477058386992e-03 -8.1184414088598877e-01
    8.4417747445548960e-03 -6.7823299831252692e-01
    9.9607641267966951e-03 -4.8712230044745486e-01
    9.9607641267966951e-03 -4.8712230044745486e-01
    1.2553967727335909e-02 -3.5082320772281173e-01
    1.4278074810952394e-02 -2.9925280083228989e-01
    1.5525415118394021e-02 -2.7116307227332026e-01 1. 0.
    1.7231700539727748e-02 -2.4077170617153840e-01
    1.5525415118394021e-02 -2.7116307227332026e-01
    1.1928104575163398e-02 -3.7500000000000000e-01
    8.9373548033285840e-03 -5.9317101400173966e-01
    7.9337258175646297e-03 -8.5912469298422467e-01
    8.0141477058386992e-03 -8.1184414088598877e-01
    7.8794465543357197e-03 -9.0829510622924770e-01
    7.8438732505170458e-03 -1.0137937550497031e+00
    7.8615995403567753e-03 -9.3369956184785263e-01
    7.9034327484939181e-03 -1.1319231422671769e+00
    7.8497686840817600e-03 -1.0419761445034557e+00
    7.9337258175646297e-03 -1.1639753904947561e+00
    8.0648706660368247e-03 -1.2677313820927747e+00
    7.9705414483232200e-03 -1.1972189997378644e+00
    8.0648706660368247e-03 -1.2677313820927747e+00
    7.9705414483232200e-03 -1.1972189997378644e+00
    8.0648706660368247e-03 -1.2677313820927747e+00
    7.8497686840817600e-03 -1.0419761445034557e+00
    7.9337258175646297e-03 -1.1639753904947561e+00
    8.2640332648711151e-03 -1.3856406460551021e+00
    8.1231015353449218e-03 -1.3052600138300814e+00
    8.4417747445548960e-03 -1.4744195615489717e+00
    8.1893055767481345e-03 -1.3445044840729643e+00
    8.2640332648711151e-03 -1.3856406460551021e+00
    8.7928516723291047e-03 -1.6278820596099706e+00
    8.2640332648711151e-03 -1.3856406460551021e+00
    8.6630607617299189e-03 -1.5735915849388866e+00
    7.9705414483232200e-03 -1.1972189997378644e+00
    8.0141477058386992e-03 -1.2317635241028797e+00
    7.9337258175646297e-03 -1.1639753904947561e+00
    7.8794465543357197e-03 -1.1009637651263608e+00
    7.8615995403567736e-03 -1.0710083209431247e+00
    7.8497686840817600e-03 -9.5971486993739330e-01
    8.0141477058386992e-03 -8.1184414088598877e-01
    8.6630607617299172e-03 -6.3548890930224256e-01
    9.9607641267966951e-03 -4.8712230044745486e-01
    1.2553967727335909e-02 -3.5082320772281173e-01
    1.3318695560605564e-02 -3.2566947363946486e-01
    1.3318695560605564e-02 -3.2566947363946486e-01
    2.4023623198297376e-02 -1.6783627165933784e-01
    1.5525415118394021e-02 -2.7116307227332026e-01
    1.5525415118394021e-02 -2.7116307227332026e-01
    9.2782101606486284e-03 -5.5097316501933979e-01
    8.1231015353449218e-03 -7.6613087768287380e-01
    8.0648706660368264e-03 -7.8881063774661564e-01
    8.3479342307736706e-03 -6.9985421222376532e-01
    7.9337258175646297e-03 -8.5912469298422467e-01
    7.9705414483232217e-03 -8.3526906958455682e-01
    7.8497686840817600e-03 -1.0419761445034557e+00
    8.0648706660368247e-03 -1.2677313820927747e+00
    7.8794465543357197e-03 -1.1009637651263608e+00
    7.8497686840817600e-03 -1.0419761445034557e+00
    7.9337258175646297e-03 -1.1639753904947561e+00
    8.1231015353449218e-03 -1.3052600138300814e+00
    8.0648706660368247e-03 -1.2677313820927747e+00
    8.2640332648711151e-03 -1.3856406460551021e+00
    7.8794465543357197e-03 -1.1009637651263608e+00
    7.8438732505170475e-03 -9.8639392383214386e-01
    7.9034327484939181e-03 -1.1319231422671769e+00
    7.9337258175646297e-03 -1.1639753904947561e+00
    7.8794465543357197e-03 -1.1009637651263608e+00
    8.2640332648711151e-03 -1.3856406460551021e+00
    8.2640332648711151e-03 -1.3856406460551021e+00
    8.1231015353449218e-03 -1.3052600138300814e+00
    8.2640332648711151e-03 -1.3856406460551021e+00
    8.3479342307736671e-03 -1.4288690166235201e+00
    8.6630607617299189e-03 -1.5735915849388866e+00
    8.2640332648711151e-03 -1.3856406460551021e+00
    8.5464597419483996e-03 -1.5225576567676566e+00
    8.1231015353449218e-03 -1.3052600138300814e+00
    7.9034327484939181e-03 -1.1319231422671769e+00
    7.8615995403567736e-03 -1.0710083209431247e+00
    7.8497686840817600e-03 -1.0419761445034557e+00
    7.9034327484939198e-03 -8.8345220859877249e-01
    8.4417747445548960e-03 -6.7823299831252692e-01
    9.4794962809557053e-03 -5.2981294282601754e-01
    1.1928104575163398e-02 -3.7500000000000000e-01
    1.2553967727335909e-02 -3.5082320772281173e-01
    1.4278074810952394e-02 -2.9925280083228989e-01
    2.4023623198297376e-02 -1.6783627165933784e-01
    1.4278074810952394e-02 -2.9925280083228989e-01
    1.3318695560605564e-02 -3.2566947363946486e-01
    8.4417747445548960e-03 -6.7823299831252692e-01
    8.0648706660368264e-03 -7.8881063774661564e-01
    8.4417747445548960e-03 -6.7823299831252692e-01
    8.3479342307736706e-03 -6.9985421222376532e-01
    7.9034327484939198e-03 -8.8345220859877249e-01
    7.8438732505170475e-03 -9.8639392383214386e-01
    7.9034327484939181e-03 -1.1319231422671769e+00
    8.0648706660368247e-03 -1.2677313820927747e+00
    7.9705414483232200e-03 -1.1972189997378644e+00
    7.8438732505170458e-03 -1.0137937550497031e+00
    7.9337258175646297e-03 -8.5912469298422467e-01
    7.8497686840817600e-03 -1.0419761445034557e+00
    8.1231015353449218e-03 -1.3052600138300814e+00
    7.9034327484939181e-03 -1.1319231422671769e+00
    7.8497686840817600e-03 -1.0419761445034557e+00
    7.9705414483232200e-03 -1.1972189997378644e+00
    7.9705414483232200e-03 -1.1972189997378644e+00
    7.8794465543357197e-03 -1.1009637651263608e+00
    7.8438732505170475e-03 -9.8639392383214386e-01
    7.8497686840817600e-03 -1.0419761445034557e+00
    8.1231015353449218e-03 -1.3052600138300814e+00
    8.0141477058386992e-03 -1.2317635241028797e+00
    8.0141477058386992e-03 -1.2317635241028797e+00
    8.0648706660368247e-03 -1.2677313820927747e+00
    8.6630607617299189e-03 -1.5735915849388866e+00
    9.0984011784219915e-03 -1.7480147469502525e+00
    8.7928516723291047e-03 -1.6278820596099706e+00
    8.3479342307736671e-03 -1.4288690166235201e+00
    7.9337258175646297e-03 -1.1639753904947561e+00
    7.8615995403567736e-03 -1.0710083209431247e+00
    7.8615995403567736e-03 -1.0710083209431247e+00
    7.8497686840817600e-03 -1.0419761445034557e+00
    8.0648706660368264e-03 -7.8881063774661564e-01
    9.2782101606486284e-03 -5.5097316501933979e-01
    9.4794962809557053e-03 -5.2981294282601754e-01
    1.2553967727335909e-02 -3.5082320772281173e-01
    1.4278074810952394e-02 -2.9925280083228989e-01
    2.4023623198297376e-02 -1.6783627165933784e-01
    1.4278074810952394e-02 -2.9925280083228989e-01
    9.9607641267966951e-03 -4.8712230044745486e-01
    8.3479342307736706e-03 -6.9985421222376532e-01
    8.1231015353449218e-03 -7.6613087768287380e-01
    7.9705414483232217e-03 -8.3526906958455682e-01
    7.9034327484939198e-03 -8.8345220859877249e-01
    7.9705414483232217e-03 -8.3526906958455682e-01
    7.8615995403567736e-03 -1.0710083209431247e+00
    8.0141477058386992e-03 -1.2317635241028797e+00
    7.8438732505170475e-03 -9.8639392383214386e-01
    7.9034327484939181e-03 -1.1319231422671769e+00
    7.9034327484939181e-03 -1.1319231422671769e+00
    7.9034327484939181e-03 -1.1319231422671769e+00
    8.0648706660368247e-03 -1.2677313820927747e+00
    7.9034327484939181e-03 -1.1319231422671769e+00
    7.8794465543357197e-03 -1.1009637651263608e+00
    7.9034327484939181e-03 -1.1319231422671769e+00
    7.8794465543357197e-03 -1.1009637651263608e+00
    7.9337258175646297e-03 -1.1639753904947561e+00
    7.8615995403567736e-03 -1.0710083209431247e+00
    7.8497686840817600e-03 -1.0419761445034557e+00
    7.8615995403567736e-03 -1.0710083209431247e+00
    7.9337258175646297e-03 -1.1639753904947561e+00
    8.2640332648711151e-03 -1.3856406460551021e+00
    7.9337258175646297e-03 -1.1639753904947561e+00
    9.0984011784219915e-03 -1.7480147469502525e+00
    9.0984011784219915e-03 -1.7480147469502525e+00
    9.4794962809557053e-03 -1.8874586088176872e+00
    8.5464597419483996e-03 -1.5225576567676566e+00
    8.6630607617299189e-03 -1.5735915849388866e+00
    8.1231015353449218e-03 -1.3052600138300814e+00
    7.9337258175646297e-03 -1.1639753904947561e+00
    7.9705414483232200e-03 -1.1972189997378644e+00
    7.8438732505170458e-03 -1.0137937550497031e+00
    7.8794465543357197e-03 -9.0829510622924770e-01
    8.5464597419484013e-03 -6.5678957742918542e-01
    9.2782101606486284e-03 -5.5097316501933979e-01
    1.3318695560605564e-02 -3.2566947363946486e-01
    1.5525415118394021e-02 -2.7116307227332026e-01
    2.4023623198297376e-02 -1.6783627165933784e-01
    1.4278074810952394e-02 -2.9925280083228989e-01
    8.6630607617299172e-03 -6.3548890930224256e-01
    8.1893055767481345e-03 -7.4376843799781012e-01
    7.8794465543357197e-03 -9.0829510622924770e-01
    7.9034327484939198e-03 -8.8345220859877249e-01
    7.9337258175646297e-03 -8.5912469298422467e-01
    7.8794465543357197e-03 -1.1009637651263608e+00
    7.9705414483232200e-03 -1.1972189997378644e+00
    7.8497686840817600e-03 -1.0419761445034557e+00
    7.8497686840817600e-03 -1.0419761445034557e+00
    7.8794465543357197e-03 -1.1009637651263608e+00
    7.9705414483232200e-03 -1.1972189997378644e+00
    7.9705414483232200e-03 -1.1972189997378644e+00
    7.8438732505170475e-03 -9.8639392383214386e-01
    7.8497686840817600e-03 -1.0419761445034557e+00
    7.8497686840817600e-03 -1.0419761445034557e+00
    7.8794465543357197e-03 -9.0829510622924770e-01
    7.9034327484939181e-03 -1.1319231422671769e+00
    7.8497686840817600e-03 -1.0419761445034557e+00
    7.8497686840817600e-03 -1.0419761445034557e+00
    7.8438732505170458e-03 -1.0137937550497031e+00
    7.8438732505170458e-03 -1.0137937550497031e+00
    8.2640332648711151e-03 -1.3856406460551021e+00
    8.2640332648711151e-03 -1.3856406460551021e+00
    8.4417747445548960e-03 -1.4744195615489717e+00
    8.9373548033285840e-03 -1.6858544608470494e+00
    8.6630607617299189e-03 -1.5735915849388866e+00
    8.5464597419483996e-03 -1.5225576567676566e+00
    8.1893055767481345e-03 -1.3445044840729643e+00
    8.5464597419483996e-03 -1.5225576567676566e+00
    8.3479342307736671e-03 -1.4288690166235201e+00
    7.9705414483232200e-03 -1.1972189997378644e+00
    7.8438732505170458e-03 -1.0137937550497031e+00
    7.9034327484939181e-03 -1.1319231422671769e+00
    7.8438732505170475e-03 -9.8639392383214386e-01
    8.3479342307736706e-03 -6.9985421222376532e-01
    9.2782101606486284e-03 -5.5097316501933979e-01
    9.0984011784219932e-03 -5.7207755354735546e-01
    1.3318695560605564e-02 -3.2566947363946486e-01
    1.7231700539727748e-02 -2.4077170617153840e-01
    1.1928104575163398e-02 -3.7500000000000000e-01
    8.6630607617299172e-03 -6.3548890930224256e-01
    8.1231015353449218e-03 -7.6613087768287380e-01
    7.8497686840817600e-03 -9.5971486993739330e-01
    7.8794465543357197e-03 -9.0829510622924770e-01
    7.8615995403567736e-03 -1.0710083209431247e+00
    7.9705414483232200e-03 -1.1972189997378644e+00
    7.9705414483232200e-03 -1.1972189997378644e+00
    7.9034327484939181e-03 -1.1319231422671769e+00
    7.9034327484939181e-03 -1.1319231422671769e+00
    7.8794465543357197e-03 -1.1009637651263608e+00
    8.0648706660368247e-03 -1.2677313820927747e+00
    8.1231015353449218e-03 -1.3052600138300814e+00
    7.8497686840817600e-03 -1.0419761445034557e+00
    7.8438732505170475e-03 -9.8639392383214386e-01
    7.8438732505170458e-03 -1.0137937550497031e+00
    7.8438732505170475e-03 -9.8639392383214386e-01
    7.8615995403567753e-03 -9.3369956184785263e-01
    7.8794465543357197e-03 -9.0829510622924770e-01
    7.8794465543357197e-03 -9.0829510622924770e-01
    7.8794465543357197e-03 -9.0829510622924770e-01
    7.8438732505170458e-03 -1.0137937550497031e+00
    7.8794465543357197e-03 -1.1009637651263608e+00
    7.8794465543357197e-03 -1.1009637651263608e+00
    8.0648706660368247e-03 -1.2677313820927747e+00
    8.2640332648711151e-03 -1.3856406460551021e+00
    8.0648706660368247e-03 -1.2677313820927747e+00
    8.5464597419483996e-03 -1.5225576567676566e+00
    8.5464597419483996e-03 -1.5225576567676566e+00
    9.4794962809557053e-03 -1.8874586088176872e+00
    9.2782101606486318e-03 -1.8149704259460613e+00
    8.2640332648711151e-03 -1.3856406460551021e+00
    7.9034327484939181e-03 -1.1319231422671769e+00
    7.8615995403567753e-03 -9.3369956184785263e-01
    7.8497686840817600e-03 -1.0419761445034557e+00
    7.9705414483232217e-03 -8.3526906958455682e-01
    8.7928516723291064e-03 -6.1429511683395133e-01
    9.4794962809557053e-03 -5.2981294282601754e-01
    1.1928104575163398e-02 -3.7500000000000000e-01
    2.4023623198297376e-02 -1.6783627165933784e-01
    1.2553967727335909e-02 -3.5082320772281173e-01
    8.4417747445548960e-03 -6.7823299831252692e-01
    8.3479342307736706e-03 -6.9985421222376532e-01
    7.8497686840817600e-03 -9.5971486993739330e-01
    7.8615995403567753e-03 -9.3369956184785263e-01
    7.8615995403567736e-03 -1.0710083209431247e+00
    8.0648706660368247e-03 -1.2677313820927747e+00
    7.9705414483232200e-03 -1.1972189997378644e+00
    7.8497686840817600e-03 -1.0419761445034557e+00
    7.8497686840817600e-03 -1.0419761445034557e+00
    7.8497686840817600e-03 -1.0419761445034557e+00
    8.0141477058386992e-03 -1.2317635241028797e+00
    7.8615995403567736e-03 -1.0710083209431247e+00
    7.8497686840817600e-03 -1.0419761445034557e+00
    7.8497686840817600e-03 -1.0419761445034557e+00
    7.8438732505170475e-03 -9.8639392383214386e-01
    7.8794465543357197e-03 -9.0829510622924770e-01
    7.8438732505170458e-03 -1.0137937550497031e+00
    7.8438732505170458e-03 -1.0137937550497031e+00
    7.8438732505170458e-03 -1.0137937550497031e+00
    7.8438732505170458e-03 -1.0137937550497031e+00
    7.8615995403567736e-03 -1.0710083209431247e+00
    7.8438732505170458e-03 -1.0137937550497031e+00
    7.9705414483232200e-03 -1.1972189997378644e+00
    7.8794465543357197e-03 -1.1009637651263608e+00
    7.9705414483232200e-03 -1.1972189997378644e+00
    8.6630607617299189e-03 -1.5735915849388866e+00
    8.3479342307736671e-03 -1.4288690166235201e+00
    9.0984011784219915e-03 -1.7480147469502525e+00
    9.2782101606486318e-03 -1.8149704259460613e+00
    1.0250271726446788e-02 -2.1483446221182994e+00
    8.7928516723291047e-03 -1.6278820596099706e+00
    8.1893055767481345e-03 -1.3445044840729643e+00
    7.9034327484939181e-03 -1.1319231422671769e+00
    7.8615995403567736e-03 -1.0710083209431247e+00
    7.9034327484939198e-03 -8.8345220859877249e-01
    7.9337258175646297e-03 -8.5912469298422467e-01
    8.9373548033285840e-03 -5.9317101400173966e-01
    1.1405449474694214e-02 -3.9840953644479793e-01
    1.9754817973330140e-02 -2.0701966780270628e-01
    1.2553967727335909e-02 -3.5082320772281173e-01
    9.2782101606486284e-03 -5.5097316501933979e-01
    8.2640332648711134e-03 -7.2168783648703216e-01
    7.8497686840817600e-03 -9.5971486993739330e-01
    7.8438732505170475e-03 -9.8639392383214386e-01
    7.8438732505170458e-03 -1.0137937550497031e+00
    8.0648706660368247e-03 -1.2677313820927747e+00
    8.0648706660368247e-03 -1.2677313820927747e+00
    7.9337258175646297e-03 -1.1639753904947561e+00
    7.8794465543357197e-03 -1.1009637651263608e+00
    7.8497686840817600e-03 -1.0419761445034557e+00
    7.8438732505170458e-03 -1.0137937550497031e+00
    7.8794465543357197e-03 -1.1009637651263608e+00
    7.8615995403567753e-03 -9.3369956184785263e-01
    7.8615995403567736e-03 -1.0710083209431247e+00
    7.8497686840817600e-03 -9.5971486993739330e-01
    7.9034327484939198e-03 -8.8345220859877249e-01
    7.8615995403567753e-03 -9.3369956184785263e-01
    7.8438732505170475e-03 -9.8639392383214386e-01
    7.8497686840817600e-03 -1.0419761445034557e+00
    7.8615995403567736e-03 -1.0710083209431247e+00
    7.8615995403567736e-03 -1.0710083209431247e+00
    7.8615995403567736e-03 -1.0710083209431247e+00
    7.8497686840817600e-03 -9.5971486993739330e-01
    7.9034327484939198e-03 -8.8345220859877249e-01
    7.8438732505170475e-03 -9.8639392383214386e-01
    8.0141477058386992e-03 -1.2317635241028797e+00
    8.7928516723291047e-03 -1.6278820596099706e+00
    9.0984011784219915e-03 -1.7480147469502525e+00
    9.0984011784219915e-03 -1.7480147469502525e+00
    9.0984011784219915e-03 -1.7480147469502525e+00
    8.9373548033285840e-03 -1.6858544608470494e+00
    8.0141477058386992e-03 -1.2317635241028797e+00
    7.9337258175646297e-03 -1.1639753904947561e+00
    8.0141477058386992e-03 -1.2317635241028797e+00
    7.9705414483232200e-03 -1.1972189997378644e+00
    8.2640332648711134e-03 -7.2168783648703216e-01
    9.0984011784219932e-03 -5.7207755354735546e-01
    9.9607641267966951e-03 -4.8712230044745486e-01
    1.7231700539727748e-02 -2.4077170617153840e-01
    1.2553967727335909e-02 -3.5082320772281173e-01
    9.4794962809557053e-03 -5.2981294282601754e-01
    8.0141477058386992e-03 -8.1184414088598877e-01
    7.8438732505170458e-03 -1.0137937550497031e+00
    7.8497686840817600e-03 -9.5971486993739330e-01
    7.8438732505170458e-03 -1.0137937550497031e+00
    8.0141477058386992e-03 -1.2317635241028797e+00
    8.1893055767481345e-03 -1.3445044840729643e+00
    7.9337258175646297e-03 -1.1639753904947561e+00
    8.0648706660368247e-03 -1.2677313820927747e+00
    7.9705414483232200e-03 -1.1972189997378644e+00
    7.8794465543357197e-03 -1.1009637651263608e+00
    7.9337258175646297e-03 -1.1639753904947561e+00
    7.8438732505170458e-03 -1.0137937550497031e+00
    7.8497686840817600e-03 -9.5971486993739330e-01
    7.8794465543357197e-03 -9.0829510622924770e-01
    7.9705414483232217e-03 -8.3526906958455682e-01
    7.8794465543357197e-03 -9.0829510622924770e-01
    7.8438732505170475e-03 -9.8639392383214386e-01
    7.8497686840817600e-03 -9.5971486993739330e-01
    7.8615995403567753e-03 -9.3369956184785263e-01
    7.8615995403567736e-03 -1.0710083209431247e+00
    7.8438732505170475e-03 -9.8639392383214386e-01
    7.8497686840817600e-03 -1.0419761445034557e+00
    7.8497686840817600e-03 -1.0419761445034557e+00
    7.8497686840817600e-03 -9.5971486993739330e-01
    7.9034327484939181e-03 -1.1319231422671769e+00
    8.4417747445548960e-03 -1.4744195615489717e+00
    8.6630607617299189e-03 -1.5735915849388866e+00
    9.4794962809557053e-03 -1.8874586088176872e+00
    9.0984011784219915e-03 -1.7480147469502525e+00
    9.0984011784219915e-03 -1.7480147469502525e+00
    8.4417747445548960e-03 -1.4744195615489717e+00
    8.1231015353449218e-03 -1.3052600138300814e+00
    7.8794465543357197e-03 -1.1009637651263608e+00
    7.9705414483232200e-03 -1.1972189997378644e+00
    8.1231015353449218e-03 -7.6613087768287380e-01
    9.7056148557488550e-03 -5.0854762771560780e-01
    1.0581010348957611e-02 -4.4353276257274371e-01
    1.4278074810952394e-02 -2.9925280083228989e-01
    1.2553967727335909e-02 -3.5082320772281173e-01
    9.2782101606486284e-03 -5.5097316501933979e-01
    8.5464597419484013e-03 -6.5678957742918542e-01
    8.0648706660368264e-03 -7.8881063774661564e-01
    7.9034327484939198e-03 -8.8345220859877249e-01
    7.8438732505170458e-03 -1.0137937550497031e+00
    7.8497686840817600e-03 -9.5971486993739330e-01
    8.1893055767481345e-03 -1.3445044840729643e+00
    7.9034327484939181e-03 -1.1319231422671769e+00
    7.8497686840817600e-03 -1.0419761445034557e+00
    7.9034327484939181e-03 -1.1319231422671769e+00
    8.0141477058386992e-03 -1.2317635241028797e+00
    7.9034327484939181e-03 -1.1319231422671769e+00
    7.9337258175646297e-03 -1.1639753904947561e+00
    7.8438732505170475e-03 -9.8639392383214386e-01
    7.8615995403567753e-03 -9.3369956184785263e-01
    7.9034327484939198e-03 -8.8345220859877249e-01
    7.8497686840817600e-03 -9.5971486993739330e-01
    7.8497686840817600e-03 -9.5971486993739330e-01
    7.8794465543357197e-03 -1.1009637651263608e+00
    7.8438732505170475e-03 -9.8639392383214386e-01
    7.8497686840817600e-03 -1.0419761445034557e+00
    7.8497686840817600e-03 -9.5971486993739330e-01
    7.8438732505170475e-03 -9.8639392383214386e-01
    7.9337258175646297e-03 -8.5912469298422467e-01
    7.8615995403567753e-03 -9.3369956184785263e-01
    7.8438732505170458e-03 -1.0137937550497031e+00
    8.0648706660368247e-03 -1.2677313820927747e+00
    8.5464597419483996e-03 -1.5225576567676566e+00
    8.4417747445548960e-03 -1.4744195615489717e+00
    8.4417747445548960e-03 -1.4744195615489717e+00
    8.7928516723291047e-03 -1.6278820596099706e+00
    8.5464597419483996e-03 -1.5225576567676566e+00
    8.0648706660368247e-03 -1.2677313820927747e+00
    7.9705414483232200e-03 -1.1972189997378644e+00
    7.9337258175646297e-03 -1.1639753904947561e+00
    7.9705414483232217e-03 -8.3526906958455682e-01
    1.1405449474694214e-02 -3.9840953644479793e-01
    1.0581010348957611e-02 -4.4353276257274371e-01
    1.3318695560605564e-02 -3.2566947363946486e-01
    1.1405449474694214e-02 -3.9840953644479793e-01
    9.2782101606486284e-03 -5.5097316501933979e-01
    8.2640332648711134e-03 -7.2168783648703216e-01
    7.9705414483232217e-03 -8.3526906958455682e-01
    7.8615995403567753e-03 -9.3369956184785263e-01
    7.8497686840817600e-03 -1.0419761445034557e+00
    7.8615995403567736e-03 -1.0710083209431247e+00
    8.0141477058386992e-03 -1.2317635241028797e+00
    7.9337258175646297e-03 -1.1639753904947561e+00
    7.9337258175646297e-03 -1.1639753904947561e+00
    7.9337258175646297e-03 -1.1639753904947561e+00
    7.8794465543357197e-03 -1.1009637651263608e+00
    7.8438732505170458e-03 -1.0137937550497031e+00
    7.9337258175646297e-03 -1.1639753904947561e+00
    7.8438732505170475e-03 -9.8639392383214386e-01
    7.8615995403567753e-03 -9.3369956184785263e-01
    8.1231015353449218e-03 -7.6613087768287380e-01
    7.8615995403567736e-03 -1.0710083209431247e+00
    7.8794465543357197e-03 -1.1009637651263608e+00
    7.8497686840817600e-03 -1.0419761445034557e+00
    7.8438732505170475e-03 -9.8639392383214386e-01
    7.8615995403567736e-03 -1.0710083209431247e+00
    7.8615995403567736e-03 -1.0710083209431247e+00
    7.8438732505170458e-03 -1.0137937550497031e+00
    7.8497686840817600e-03 -1.0419761445034557e+00
    7.9034327484939181e-03 -1.1319231422671769e+00
    8.0648706660368247e-03 -1.2677313820927747e+00
    7.9705414483232200e-03 -1.1972189997378644e+00
    8.4417747445548960e-03 -1.4744195615489717e+00
    8.7928516723291047e-03 -1.6278820596099706e+00
    8.9373548033285840e-03 -1.6858544608470494e+00
    9.0984011784219915e-03 -1.7480147469502525e+00
    8.1231015353449218e-03 -1.3052600138300814e+00
    8.0141477058386992e-03 -1.2317635241028797e+00
    7.9034327484939181e-03 -1.1319231422671769e+00
    7.8615995403567736e-03 -1.0710083209431247e+00
    8.0141477058386992e-03 -8.1184414088598877e-01
    1.1405449474694214e-02 -3.9840953644479793e-01
    1.0250271726446785e-02 -4.6547466812563143e-01
    1.4278074810952394e-02 -2.9925280083228989e-01
    1.2553967727335909e-02 -3.5082320772281173e-01
    9.0984011784219932e-03 -5.7207755354735546e-01
    7.9705414483232217e-03 -8.3526906958455682e-01
    8.0141477058386992e-03 -8.1184414088598877e-01
    7.9034327484939198e-03 -8.8345220859877249e-01
    7.9034327484939198e-03 -8.8345220859877249e-01
    7.9034327484939181e-03 -1.1319231422671769e+00
    8.2640332648711151e-03 -1.3856406460551021e+00
    7.9705414483232200e-03 -1.1972189997378644e+00
    8.0141477058386992e-03 -1.2317635241028797e+00
    8.0141477058386992e-03 -1.2317635241028797e+00
    7.8497686840817600e-03 -9.5971486993739330e-01
    7.8438732505170458e-03 -1.0137937550497031e+00
    7.9034327484939181e-03 -1.1319231422671769e+00
    7.8497686840817600e-03 -9.5971486993739330e-01
    7.8794465543357197e-03 -9.0829510622924770e-01
    7.8615995403567753e-03 -9.3369956184785263e-01
    7.8497686840817600e-03 -1.0419761445034557e+00
    7.9034327484939181e-03 -1.1319231422671769e+00
    7.9337258175646297e-03 -1.1639753904947561e+00
    7.8497686840817600e-03 -1.0419761445034557e+00
    7.8794465543357197e-03 -9.0829510622924770e-01
    7.8438732505170458e-03 -1.0137937550497031e+00
    7.8438732505170458e-03 -1.0137937550497031e+00
    8.0141477058386992e-03 -1.2317635241028797e+00
    8.1893055767481345e-03 -1.3445044840729643e+00
    8.2640332648711151e-03 -1.3856406460551021e+00
    8.1231015353449218e-03 -1.3052600138300814e+00
    7.9337258175646297e-03 -1.1639753904947561e+00
    8.7928516723291047e-03 -1.6278820596099706e+00
    8.3479342307736671e-03 -1.4288690166235201e+00
    8.3479342307736671e-03 -1.4288690166235201e+00
    8.5464597419483996e-03 -1.5225576567676566e+00
    8.1231015353449218e-03 -1.3052600138300814e+00
    7.9337258175646297e-03 -1.1639753904947561e+00
    7.8794465543357197e-03 -1.1009637651263608e+00
    7.8615995403567753e-03 -9.3369956184785263e-01
    9.9607641267966951e-03 -4.8712230044745486e-01
    1.0250271726446785e-02 -4.6547466812563143e-01
    1.5525415118394021e-02 -2.7116307227332026e-01
    1.3318695560605564e-02 -3.2566947363946486e-01
    9.0984011784219932e-03 -5.7207755354735546e-01
    8.4417747445548960e-03 -6.7823299831252692e-01
    8.1231015353449218e-03 -7.6613087768287380e-01
    7.8615995403567753e-03 -9.3369956184785263e-01
    7.8438732505170475e-03 -9.8639392383214386e-01
    7.8794465543357197e-03 -1.1009637651263608e+00
    7.9337258175646297e-03 -1.1639753904947561e+00
    7.9337258175646297e-03 -1.1639753904947561e+00
    7.8497686840817600e-03 -9.5971486993739330e-01
    7.8497686840817600e-03 -9.5971486993739330e-01
    7.8438732505170458e-03 -1.0137937550497031e+00
    8.0648706660368247e-03 -1.2677313820927747e+00
    7.9034327484939181e-03 -1.1319231422671769e+00
    7.9705414483232217e-03 -8.3526906958455682e-01
    7.9705414483232217e-03 -8.3526906958455682e-01
    7.9034327484939198e-03 -8.8345220859877249e-01
    7.8615995403567753e-03 -9.3369956184785263e-01
    7.8497686840817600e-03 -1.0419761445034557e+00
    7.8615995403567736e-03 -1.0710083209431247e+00
    7.8497686840817600e-03 -1.0419761445034557e+00
    7.8615995403567753e-03 -9.3369956184785263e-01
    7.8497686840817600e-03 -9.5971486993739330e-01
    7.8615995403567753e-03 -9.3369956184785263e-01
    7.9034327484939181e-03 -1.1319231422671769e+00
    7.8438732505170458e-03 -1.0137937550497031e+00
    8.0141477058386992e-03 -1.2317635241028797e+00
    8.1231015353449218e-03 -1.3052600138300814e+00
    7.9705414483232200e-03 -1.1972189997378644e+00
    8.1893055767481345e-03 -1.3445044840729643e+00
    8.1231015353449218e-03 -1.3052600138300814e+00
    8.2640332648711151e-03 -1.3856406460551021e+00
    8.4417747445548960e-03 -1.4744195615489717e+00
    7.8615995403567736e-03 -1.0710083209431247e+00
    7.8794465543357197e-03 -1.1009637651263608e+00
    7.9337258175646297e-03 -1.1639753904947561e+00
    7.8794465543357197e-03 -9.0829510622924770e-01
    8.5464597419484013e-03 -6.5678957742918542e-01
    1.0250271726446785e-02 -4.6547466812563143e-01
    1.5525415118394021e-02 -2.7116307227332026e-01
    1.3318695560605564e-02 -3.2566947363946486e-01
    9.4794962809557053e-03 -5.2981294282601754e-01
    8.4417747445548960e-03 -6.7823299831252692e-01
    8.0141477058386992e-03 -8.1184414088598877e-01
    7.8794465543357197e-03 -9.0829510622924770e-01
    7.8794465543357197e-03 -1.1009637651263608e+00
    7.8794465543357197e-03 -1.1009637651263608e+00
    7.9705414483232200e-03 -1.1972189997378644e+00
    7.8615995403567736e-03 -1.0710083209431247e+00
    7.8438732505170458e-03 -1.0137937550497031e+00
    7.8438732505170475e-03 -9.8639392383214386e-01
    7.9705414483232200e-03 -1.1972189997378644e+00
    7.9034327484939198e-03 -8.8345220859877249e-01
    7.9034327484939181e-03 -1.1319231422671769e+00
    7.8615995403567753e-03 -9.3369956184785263e-01
    7.9337258175646297e-03 -8.5912469298422467e-01
    8.0141477058386992e-03 -8.1184414088598877e-01
    7.8794465543357197e-03 -9.0829510622924770e-01
    7.8794465543357197e-03 -9.0829510622924770e-01
    7.8615995403567753e-03 -9.3369956184785263e-01
    7.9705414483232217e-03 -8.3526906958455682e-01
    7.9034327484939198e-03 -8.8345220859877249e-01
    7.8794465543357197e-03 -9.0829510622924770e-01
    7.9034327484939198e-03 -8.8345220859877249e-01
    7.8794465543357197e-03 -1.1009637651263608e+00
    8.1231015353449218e-03 -1.3052600138300814e+00
    8.1893055767481345e-03 -1.3445044840729643e+00
    8.0648706660368247e-03 -1.2677313820927747e+00
    8.0141477058386992e-03 -1.2317635241028797e+00
    7.9034327484939181e-03 -1.1319231422671769e+00
    8.1893055767481345e-03 -1.3445044840729643e+00
    8.0141477058386992e-03 -1.2317635241028797e+00
    8.1893055767481345e-03 -1.3445044840729643e+00
    7.8615995403567736e-03 -1.0710083209431247e+00
    7.8615995403567736e-03 -1.0710083209431247e+00
    7.9034327484939181e-03 -1.1319231422671769e+00
    7.8794465543357197e-03 -9.0829510622924770e-01
    8.6630607617299172e-03 -6.3548890930224256e-01
    1.0250271726446785e-02 -4.6547466812563143e-01
    2.4023623198297376e-02 -1.6783627165933784e-01
    1.1928104575163398e-02 -3.7500000000000000e-01
    9.4794962809557053e-03 -5.2981294282601754e-01
    8.5464597419484013e-03 -6.5678957742918542e-01
    8.3479342307736706e-03 -6.9985421222376532e-01
    7.9705414483232217e-03 -8.3526906958455682e-01
    7.8438732505170475e-03 -9.8639392383214386e-01
    7.8615995403567736e-03 -1.0710083209431247e+00
    7.9034327484939181e-03 -1.1319231422671769e+00
    7.9034327484939181e-03 -1.1319231422671769e+00
    7.8438732505170475e-03 -9.8639392383214386e-01
    7.9034327484939181e-03 -1.1319231422671769e+00
    7.9337258175646297e-03 -1.1639753904947561e+00
    7.9034327484939181e-03 -1.1319231422671769e+00
    7.8497686840817600e-03 -9.5971486993739330e-01
    7.8438732505170458e-03 -1.0137937550497031e+00
    7.8438732505170475e-03 -9.8639392383214386e-01
    7.8438732505170475e-03 -9.8639392383214386e-01
    7.8615995403567753e-03 -9.3369956184785263e-01
    7.8794465543357197e-03 -9.0829510622924770e-01
    7.9034327484939198e-03 -8.8345220859877249e-01
    7.9034327484939198e-03 -8.8345220859877249e-01
    7.9705414483232217e-03 -8.3526906958455682e-01
    7.8438732505170458e-03 -1.0137937550497031e+00
    7.8615995403567736e-03 -1.0710083209431247e+00
    7.9034327484939181e-03 -1.1319231422671769e+00
    8.0141477058386992e-03 -1.2317635241028797e+00
    8.1893055767481345e-03 -1.3445044840729643e+00
    7.9337258175646297e-03 -1.1639753904947561e+00
    7.9705414483232200e-03 -1.1972189997378644e+00
    8.2640332648711151e-03 -1.3856406460551021e+00
    7.8794465543357197e-03 -1.1009637651263608e+00
    8.0648706660368247e-03 -1.2677313820927747e+00
    8.1893055767481345e-03 -1.3445044840729643e+00
    7.9034327484939181e-03 -1.1319231422671769e+00
    7.9034327484939181e-03 -1.1319231422671769e+00
    7.8615995403567736e-03 -1.0710083209431247e+00
    7.8794465543357197e-03 -9.0829510622924770e-01
    8.7928516723291064e-03 -6.1429511683395133e-01
    1.0962017532926725e-02 -4.2121176958711593e-01
    1.9754817973330140e-02 -2.0701966780270628e-01
    1.0962017532926725e-02 -4.2121176958711593e-01
    1.0581010348957611e-02 -4.4353276257274371e-01
    8.9373548033285840e-03 -5.9317101400173966e-01
    8.2640332648711134e-03 -7.2168783648703216e-01
    7.9337258175646297e-03 -8.5912469298422467e-01
    7.8438732505170475e-03 -9.8639392383214386e-01
    7.8497686840817600e-03 -1.0419761445034557e+00
    7.8615995403567753e-03 -9.3369956184785263e-01
    7.8438732505170475e-03 -9.8639392383214386e-01
    7.8438732505170458e-03 -1.0137937550497031e+00
    8.0141477058386992e-03 -1.2317635241028797e+00
    7.8497686840817600e-03 -9.5971486993739330e-01
    7.8497686840817600e-03 -1.0419761445034557e+00
    7.8615995403567736e-03 -1.0710083209431247e+00
    7.9034327484939181e-03 -1.1319231422671769e+00
    7.8438732505170458e-03 -1.0137937550497031e+00
    7.8794465543357197e-03 -1.1009637651263608e+00
    7.8615995403567753e-03 -9.3369956184785263e-01
    7.9034327484939198e-03 -8.8345220859877249e-01
    7.8438732505170458e-03 -1.0137937550497031e+00
    7.8615995403567753e-03 -9.3369956184785263e-01
    7.8438732505170475e-03 -9.8639392383214386e-01
    7.8438732505170458e-03 -1.0137937550497031e+00
    7.9337258175646297e-03 -1.1639753904947561e+00
    7.8497686840817600e-03 -9.5971486993739330e-01
    8.0141477058386992e-03 -1.2317635241028797e+00
    7.9034327484939181e-03 -1.1319231422671769e+00
    7.8438732505170475e-03 -9.8639392383214386e-01
    7.8615995403567736e-03 -1.0710083209431247e+00
    7.9705414483232200e-03 -1.1972189997378644e+00
    8.1231015353449218e-03 -1.3052600138300814e+00
    8.1231015353449218e-03 -1.3052600138300814e+00
    7.9705414483232200e-03 -1.1972189997378644e+00
    7.8497686840817600e-03 -1.0419761445034557e+00
    7.8794465543357197e-03 -1.1009637651263608e+00
    7.8438732505170458e-03 -1.0137937550497031e+00
    7.9705414483232217e-03 -8.3526906958455682e-01
    8.5464597419484013e-03 -6.5678957742918542e-01
    9.7056148557488550e-03 -5.0854762771560780e-01
    1.7231700539727748e-02 -2.4077170617153840e-01
    1.2553967727335909e-02 -3.5082320772281173e-01
    9.9607641267966951e-03 -4.8712230044745486e-01
    9.0984011784219932e-03 -5.7207755354735546e-01
    8.3479342307736706e-03 -6.9985421222376532e-01
    8.0141477058386992e-03 -8.1184414088598877e-01
    7.8438732505170458e-03 -1.0137937550497031e+00
    7.8615995403567736e-03 -1.0710083209431247e+00
    7.8615995403567736e-03 -1.0710083209431247e+00
    7.9337258175646297e-03 -8.5912469298422467e-01
    7.8794465543357197e-03 -1.1009637651263608e+00
    7.9337258175646297e-03 -1.1639753904947561e+00
    8.0141477058386992e-03 -1.2317635241028797e+00
    7.8615995403567736e-03 -1.0710083209431247e+00
    7.8497686840817600e-03 -1.0419761445034557e+00
    7.8794465543357197e-03 -1.1009637651263608e+00
    7.9034327484939181e-03 -1.1319231422671769e+00
    7.9337258175646297e-03 -1.1639753904947561e+00
    7.8794465543357197e-03 -1.1009637651263608e+00
    7.8615995403567736e-03 -1.0710083209431247e+00
    7.8438732505170475e-03 -9.8639392383214386e-01
    7.8438732505170475e-03 -9.8639392383214386e-01
    7.9337258175646297e-03 -1.1639753904947561e+00
    7.8794465543357197e-03 -1.1009637651263608e+00
    7.8794465543357197e-03 -1.1009637651263608e+00
    7.9337258175646297e-03 -1.1639753904947561e+00
    7.8497686840817600e-03 -9.5971486993739330e-01
    7.8497686840817600e-03 -9.5971486993739330e-01
    8.0141477058386992e-03 -1.2317635241028797e+00
    8.0648706660368247e-03 -1.2677313820927747e+00
    7.9337258175646297e-03 -1.1639753904947561e+00
    7.9705414483232200e-03 -1.1972189997378644e+00
    8.1231015353449218e-03 -1.3052600138300814e+00
    7.9705414483232200e-03 -1.1972189997378644e+00
    7.9337258175646297e-03 -1.1639753904947561e+00
    7.8497686840817600e-03 -9.5971486993739330e-01
    7.8438732505170475e-03 -9.8639392383214386e-01
    7.9034327484939198e-03 -8.8345220859877249e-01
    9.2782101606486284e-03 -5.5097316501933979e-01
    9.9607641267966951e-03 -4.8712230044745486e-01
    2.4023623198297376e-02 -1.6783627165933784e-01
    1.1405449474694214e-02 -3.9840953644479793e-01
    1.0581010348957611e-02 -4.4353276257274371e-01
    9.0984011784219932e-03 -5.7207755354735546e-01
    8.3479342307736706e-03 -6.9985421222376532e-01
    8.0648706660368264e-03 -7.8881063774661564e-01
    7.9337258175646297e-03 -8.5912469298422467e-01
    7.8438732505170475e-03 -9.8639392383214386e-01
    7.8615995403567753e-03 -9.3369956184785263e-01
    7.8497686840817600e-03 -9.5971486993739330e-01
    7.9034327484939198e-03 -8.8345220859877249e-01
    7.8615995403567736e-03 -1.0710083209431247e+00
    7.9705414483232200e-03 -1.1972189997378644e+00
    7.8615995403567736e-03 -1.0710083209431247e+00
    7.9034327484939181e-03 -1.1319231422671769e+00
    7.9034327484939181e-03 -1.1319231422671769e+00
    7.8438732505170458e-03 -1.0137937550497031e+00
    7.8497686840817600e-03 -1.0419761445034557e+00
    7.8438732505170458e-03 -1.0137937550497031e+00
    7.9705414483232200e-03 -1.1972189997378644e+00
    7.9337258175646297e-03 -1.1639753904947561e+00
    7.8794465543357197e-03 -1.1009637651263608e+00
    7.9337258175646297e-03 -1.1639753904947561e+00
    7.8794465543357197e-03 -1.1009637651263608e+00
    7.8497686840817600e-03 -9.5971486993739330e-01
    7.8615995403567736e-03 -1.0710083209431247e+00
    7.8615995403567753e-03 -9.3369956184785263e-01
    8.0141477058386992e-03 -1.2317635241028797e+00
    8.0141477058386992e-03 -1.2317635241028797e+00
    7.8615995403567736e-03 -1.0710083209431247e+00
    7.9337258175646297e-03 -1.1639753904947561e+00
    7.9337258175646297e-03 -1.1639753904947561e+00
    8.1893055767481345e-03 -1.3445044840729643e+00
    7.8794465543357197e-03 -1.1009637651263608e+00
    7.9034327484939181e-03 -1.1319231422671769e+00
    7.8438732505170475e-03 -9.8639392383214386e-01
    7.8438732505170475e-03 -9.8639392383214386e-01
    8.2640332648711134e-03 -7.2168783648703216e-01
    8.7928516723291064e-03 -6.1429511683395133e-01
    1.0250271726446785e-02 -4.6547466812563143e-01
    1.4278074810952394e-02 -2.9925280083228989e-01
    1.2553967727335909e-02 -3.5082320772281173e-01
    1.0581010348957611e-02 -4.4353276257274371e-01
    9.9607641267966951e-03 -4.8712230044745486e-01
    8.1893055767481345e-03 -7.4376843799781012e-01
    8.1893055767481345e-03 -7.4376843799781012e-01
    7.9705414483232217e-03 -8.3526906958455682e-01
    7.9337258175646297e-03 -8.5912469298422467e-01
    7.8615995403567753e-03 -9.3369956184785263e-01
    7.8438732505170475e-03 -9.8639392383214386e-01
    7.8794465543357197e-03 -1.1009637651263608e+00
    7.8615995403567736e-03 -1.0710083209431247e+00
    7.8794465543357197e-03 -9.0829510622924770e-01
    7.8438732505170475e-03 -9.8639392383214386e-01
    7.9034327484939181e-03 -1.1319231422671769e+00
    7.9705414483232217e-03 -8.3526906958455682e-01
    7.8794465543357197e-03 -1.1009637651263608e+00
    7.9705414483232200e-03 -1.1972189997378644e+00
    7.8438732505170458e-03 -1.0137937550497031e+00
    7.8615995403567753e-03 -9.3369956184785263e-01
    7.9034327484939181e-03 -1.1319231422671769e+00
    7.8794465543357197e-03 -1.1009637651263608e+00
    7.8497686840817600e-03 -1.0419761445034557e+00
    7.8794465543357197e-03 -1.1009637651263608e+00
    7.8794465543357197e-03 -1.1009637651263608e+00
    7.9337258175646297e-03 -1.1639753904947561e+00
    7.8438732505170458e-03 -1.0137937550497031e+00
    7.8438732505170458e-03 -1.0137937550497031e+00
    7.8794465543357197e-03 -9.0829510622924770e-01
    7.8438732505170458e-03 -1.0137937550497031e+00
    7.9705414483232200e-03 -1.1972189997378644e+00
    8.5464597419483996e-03 -1.5225576567676566e+00
    8.4417747445548960e-03 -1.4744195615489717e+00
    7.9337258175646297e-03 -1.1639753904947561e+00
    7.8615995403567753e-03 -9.3369956184785263e-01
    7.8497686840817600e-03 -1.0419761445034557e+00
    7.8438732505170475e-03 -9.8639392383214386e-01
    8.5464597419484013e-03 -6.5678957742918542e-01
    8.7928516723291064e-03 -6.1429511683395133e-01
    1.4278074810952394e-02 -2.9925280083228989e-01
    1.4278074810952394e-02 -2.9925280083228989e-01
    1.2553967727335909e-02 -3.5082320772281173e-01
    9.9607641267966951e-03 -4.8712230044745486e-01
    9.9607641267966951e-03 -4.8712230044745486e-01
    9.2782101606486284e-03 -5.5097316501933979e-01
    8.5464597419484013e-03 -6.5678957742918542e-01
    8.0141477058386992e-03 -8.1184414088598877e-01
    7.9705414483232217e-03 -8.3526906958455682e-01
    7.8794465543357197e-03 -9.0829510622924770e-01
    7.8497686840817600e-03 -9.5971486993739330e-01
    7.8615995403567753e-03 -9.3369956184785263e-01
    7.8615995403567736e-03 -1.0710083209431247e+00
    8.0648706660368247e-03 -1.2677313820927747e+00
    7.9034327484939181e-03 -1.1319231422671769e+00
    7.9034327484939181e-03 -1.1319231422671769e+00
    7.8794465543357197e-03 -1.1009637651263608e+00
    7.8794465543357197e-03 -1.1009637651263608e+00
    7.9337258175646297e-03 -1.1639753904947561e+00
    8.0141477058386992e-03 -1.2317635241028797e+00
    7.9705414483232200e-03 -1.1972189997378644e+00
    7.8794465543357197e-03 -1.1009637651263608e+00
    7.8497686840817600e-03 -1.0419761445034557e+00
    7.9034327484939181e-03 -1.1319231422671769e+00
    7.8794465543357197e-03 -1.1009637651263608e+00
    7.9337258175646297e-03 -1.1639753904947561e+00
    7.9337258175646297e-03 -1.1639753904947561e+00
    7.9705414483232200e-03 -1.1972189997378644e+00
    7.9034327484939181e-03 -1.1319231422671769e+00
    7.9337258175646297e-03 -1.1639753904947561e+00
    7.8497686840817600e-03 -1.0419761445034557e+00
    8.1893055767481345e-03 -1.3445044840729643e+00
    8.7928516723291047e-03 -1.6278820596099706e+00
    8.0141477058386992e-03 -1.2317635241028797e+00
    7.9705414483232200e-03 -1.1972189997378644e+00
    7.8438732505170458e-03 -1.0137937550497031e+00
    7.8438732505170458e-03 -1.0137937550497031e+00
    7.8794465543357197e-03 -9.0829510622924770e-01
    8.1893055767481345e-03 -7.4376843799781012e-01
    8.9373548033285840e-03 -5.9317101400173966e-01
    1.4278074810952394e-02 -2.9925280083228989e-01
    1.5525415118394021e-02 -2.7116307227332026e-01
    1.4278074810952394e-02 -2.9925280083228989e-01
    1.1928104575163398e-02 -3.7500000000000000e-01
    1.0250271726446785e-02 -4.6547466812563143e-01
    9.9607641267966951e-03 -4.8712230044745486e-01
    9.2782101606486284e-03 -5.5097316501933979e-01
    8.3479342307736706e-03 -6.9985421222376532e-01
    8.0648706660368264e-03 -7.8881063774661564e-01
    8.1231015353449218e-03 -7.6613087768287380e-01
    7.8794465543357197e-03 -9.0829510622924770e-01
    7.8438732505170475e-03 -9.8639392383214386e-01
    7.8497686840817600e-03 -1.0419761445034557e+00
    8.0648706660368247e-03 -1.2677313820927747e+00
    8.1893055767481345e-03 -1.3445044840729643e+00
    7.8438732505170458e-03 -1.0137937550497031e+00
    7.8794465543357197e-03 -1.1009637651263608e+00
    7.8438732505170458e-03 -1.0137937550497031e+00
    7.8438732505170475e-03 -9.8639392383214386e-01
    7.8794465543357197e-03 -1.1009637651263608e+00
    8.0141477058386992e-03 -1.2317635241028797e+00
    7.8438732505170458e-03 -1.0137937550497031e+00
    7.9337258175646297e-03 -1.1639753904947561e+00
    7.8794465543357197e-03 -1.1009637651263608e+00
    7.8615995403567736e-03 -1.0710083209431247e+00
    7.8438732505170458e-03 -1.0137937550497031e+00
    7.8438732505170458e-03 -1.0137937550497031e+00
    7.8438732505170475e-03 -9.8639392383214386e-01
    7.8794465543357197e-03 -1.1009637651263608e+00
    7.8794465543357197e-03 -1.1009637651263608e+00
    7.8497686840817600e-03 -1.0419761445034557e+00
    8.2640332648711151e-03 -1.3856406460551021e+00
    8.0648706660368247e-03 -1.2677313820927747e+00
    7.9337258175646297e-03 -1.1639753904947561e+00
    7.8497686840817600e-03 -1.0419761445034557e+00
    7.8615995403567753e-03 -9.3369956184785263e-01
    7.9034327484939198e-03 -8.8345220859877249e-01
    7.8794465543357197e-03 -9.0829510622924770e-01
    8.1893055767481345e-03 -7.4376843799781012e-01
    1.0581010348957611e-02 -4.4353276257274371e-01
    1.4278074810952394e-02 -2.9925280083228989e-01
    1.7231700539727748e-02 -2.4077170617153840e-01
    1.7231700539727748e-02 -2.4077170617153840e-01
    1.2553967727335909e-02 -3.5082320772281173e-01
    1.0581010348957611e-02 -4.4353276257274371e-01
    1.0581010348957611e-02 -4.4353276257274371e-01
    1.0250271726446785e-02 -4.6547466812563143e-01
    1.0581010348957611e-02 -4.4353276257274371e-01
    8.4417747445548960e-03 -6.7823299831252692e-01
    8.4417747445548960e-03 -6.7823299831252692e-01
    7.8794465543357197e-03 -9.0829510622924770e-01
    7.8615995403567736e-03 -1.0710083209431247e+00
    7.9705414483232217e-03 -8.3526906958455682e-01
    7.8438732505170458e-03 -1.0137937550497031e+00
    7.9705414483232200e-03 -1.1972189997378644e+00
    8.1893055767481345e-03 -1.3445044840729643e+00
    8.1893055767481345e-03 -1.3445044840729643e+00
    7.9034327484939181e-03 -1.1319231422671769e+00
    7.8615995403567736e-03 -1.0710083209431247e+00
    7.8497686840817600e-03 -9.5971486993739330e-01
    7.8497686840817600e-03 -9.5971486993739330e-01
    7.8497686840817600e-03 -9.5971486993739330e-01
    7.8794465543357197e-03 -1.1009637651263608e+00
    7.8615995403567736e-03 -1.0710083209431247e+00
    7.8438732505170458e-03 -1.0137937550497031e+00
    7.8438732505170475e-03 -9.8639392383214386e-01
    7.8438732505170458e-03 -1.0137937550497031e+00
    7.8497686840817600e-03 -1.0419761445034557e+00
    7.8794465543357197e-03 -9.0829510622924770e-01
    7.8438732505170458e-03 -1.0137937550497031e+00
    7.8794465543357197e-03 -9.0829510622924770e-01
    8.6630607617299189e-03 -1.5735915849388866e+00
    7.9337258175646297e-03 -1.1639753904947561e+00
    7.8794465543357197e-03 -1.1009637651263608e+00
    7.9034327484939181e-03 -1.1319231422671769e+00
    7.8497686840817600e-03 -9.5971486993739330e-01
    7.9337258175646297e-03 -8.5912469298422467e-01
    8.1231015353449218e-03 -7.6613087768287380e-01
    8.7928516723291064e-03 -6.1429511683395133e-01
    1.1405449474694214e-02 -3.9840953644479793e-01
    1.7231700539727748e-02 -2.4077170617153840e-01
    1.7231700539727748e-02 -2.4077170617153840e-01
    1.7231700539727748e-02 -2.4077170617153840e-01
    1.3318695560605564e-02 -3.2566947363946486e-01
    1.1405449474694214e-02 -3.9840953644479793e-01
    1.0581010348957611e-02 -4.4353276257274371e-01
    1.1405449474694214e-02 -3.9840953644479793e-01
    1.0962017532926725e-02 -4.2121176958711593e-01
    9.9607641267966951e-03 -4.8712230044745486e-01
    8.4417747445548960e-03 -6.7823299831252692e-01
    8.2640332648711134e-03 -7.2168783648703216e-01
    8.0648706660368264e-03 -7.8881063774661564e-01
    8.1231015353449218e-03 -7.6613087768287380e-01
    7.9034327484939198e-03 -8.8345220859877249e-01
    7.9034327484939198e-03 -8.8345220859877249e-01
    7.8497686840817600e-03 -1.0419761445034557e+00
    8.0141477058386992e-03 -1.2317635241028797e+00
    8.1893055767481345e-03 -1.3445044840729643e+00
    8.0648706660368247e-03 -1.2677313820927747e+00
    7.8794465543357197e-03 -1.1009637651263608e+00
    8.0648706660368247e-03 -1.2677313820927747e+00
    7.9337258175646297e-03 -1.1639753904947561e+00
    7.9705414483232200e-03 -1.1972189997378644e+00
    7.8794465543357197e-03 -1.1009637651263608e+00
    7.9034327484939181e-03 -1.1319231422671769e+00
    7.8794465543357197e-03 -9.0829510622924770e-01
    7.8794465543357197e-03 -9.0829510622924770e-01
    7.8497686840817600e-03 -9.5971486993739330e-01
    7.8615995403567736e-03 -1.0710083209431247e+00
    8.0141477058386992e-03 -1.2317635241028797e+00
    7.9337258175646297e-03 -1.1639753904947561e+00
    8.2640332648711151e-03 -1.3856406460551021e+00
    7.8497686840817600e-03 -1.0419761445034557e+00
    7.8438732505170475e-03 -9.8639392383214386e-01
    7.8497686840817600e-03 -9.5971486993739330e-01
    7.8438732505170475e-03 -9.8639392383214386e-01
    7.8615995403567753e-03 -9.3369956184785263e-01
    8.6630607617299172e-03 -6.3548890930224256e-01
    9.2782101606486284e-03 -5.5097316501933979e-01
    1.5525415118394021e-02 -2.7116307227332026e-01
    1.5525415118394021e-02 -2.7116307227332026e-01
    1.9754817973330140e-02 -2.0701966780270628e-01
    1.7231700539727748e-02 -2.4077170617153840e-01
    1.3318695560605564e-02 -3.2566947363946486e-01
    1.1405449474694214e-02 -3.9840953644479793e-01
    1.1405449474694214e-02 -3.9840953644479793e-01
    1.0581010348957611e-02 -4.4353276257274371e-01
    9.9607641267966951e-03 -4.8712230044745486e-01
    9.7056148557488550e-03 -5.0854762771560780e-01
    8.9373548033285840e-03 -5.9317101400173966e-01
    8.2640332648711134e-03 -7.2168783648703216e-01
    8.5464597419484013e-03 -6.5678957742918542e-01
    8.1231015353449218e-03 -7.6613087768287380e-01
    8.1231015353449218e-03 -7.6613087768287380e-01
    7.8497686840817600e-03 -9.5971486993739330e-01
    7.8497686840817600e-03 -1.0419761445034557e+00
    7.8438732505170458e-03 -1.0137937550497031e+00
    7.8615995403567736e-03 -1.0710083209431247e+00
    7.8438732505170458e-03 -1.0137937550497031e+00
    7.8497686840817600e-03 -1.0419761445034557e+00
    7.8497686840817600e-03 -1.0419761445034557e+00
    7.9034327484939181e-03 -1.1319231422671769e+00
    7.8615995403567736e-03 -1.0710083209431247e+00
    7.8438732505170475e-03 -9.8639392383214386e-01
    7.8794465543357197e-03 -1.1009637651263608e+00
    7.8794465543357197e-03 -9.0829510622924770e-01
    7.9034327484939198e-03 -8.8345220859877249e-01
    8.0141477058386992e-03 -8.1184414088598877e-01
    7.9705414483232200e-03 -1.1972189997378644e+00
    7.9034327484939181e-03 -1.1319231422671769e+00
    7.9705414483232200e-03 -1.1972189997378644e+00
    7.8615995403567736e-03 -1.0710083209431247e+00
    7.8497686840817600e-03 -1.0419761445034557e+00
    7.8497686840817600e-03 -9.5971486993739330e-01
    7.8438732505170458e-03 -1.0137937550497031e+00
    7.8438732505170475e-03 -9.8639392383214386e-01
    8.4417747445548960e-03 -6.7823299831252692e-01
    8.7928516723291064e-03 -6.1429511683395133e-01
    9.9607641267966951e-03 -4.8712230044745486e-01
    1.3318695560605564e-02 -3.2566947363946486e-01
    1.5525415118394021e-02 -2.7116307227332026e-01
    1.7231700539727748e-02 -2.4077170617153840e-01
    1.5525415118394021e-02 -2.7116307227332026e-01
    1.1928104575163398e-02 -3.7500000000000000e-01
    1.1405449474694214e-02 -3.9840953644479793e-01
    1.1405449474694214e-02 -3.9840953644479793e-01
    1.1405449474694214e-02 -3.9840953644479793e-01
    1.0250271726446785e-02 -4.6547466812563143e-01
    9.7056148557488550e-03 -5.0854762771560780e-01
    9.2782101606486284e-03 -5.5097316501933979e-01
    9.0984011784219932e-03 -5.7207755354735546e-01
    8.3479342307736706e-03 -6.9985421222376532e-01
    8.2640332648711134e-03 -7.2168783648703216e-01
    7.8794465543357197e-03 -9.0829510622924770e-01
    7.8794465543357197e-03 -9.0829510622924770e-01
    7.8497686840817600e-03 -9.5971486993739330e-01
    7.9705414483232217e-03 -8.3526906958455682e-01
    7.8794465543357197e-03 -1.1009637651263608e+00
    7.8497686840817600e-03 -1.0419761445034557e+00
    7.8438732505170475e-03 -9.8639392383214386e-01
    7.8615995403567736e-03 -1.0710083209431247e+00
    7.9705414483232200e-03 -1.1972189997378644e+00
    7.9705414483232200e-03 -1.1972189997378644e+00
    7.9034327484939181e-03 -1.1319231422671769e+00
    7.8438732505170458e-03 -1.0137937550497031e+00
    7.8497686840817600e-03 -1.0419761445034557e+00
    8.0141477058386992e-03 -1.2317635241028797e+00
    8.0141477058386992e-03 -1.2317635241028797e+00
    8.2640332648711151e-03 -1.3856406460551021e+00
    7.9337258175646297e-03 -1.1639753904947561e+00
    7.8615995403567736e-03 -1.0710083209431247e+00
    7.8794465543357197e-03 -9.0829510622924770e-01
    7.8497686840817600e-03 -1.0419761445034557e+00
    7.8438732505170475e-03 -9.8639392383214386e-01
    7.8497686840817600e-03 -9.5971486993739330e-01
    8.1893055767481345e-03 -7.4376843799781012e-01
    8.6630607617299172e-03 -6.3548890930224256e-01
    8.7928516723291064e-03 -6.1429511683395133e-01
    9.9607641267966951e-03 -4.8712230044745486e-01
    1.3318695560605564e-02 -3.2566947363946486e-01
    1.7231700539727748e-02 -2.4077170617153840e-01
    1.9754817973330140e-02 -2.0701966780270628e-01
    1.5525415118394021e-02 -2.7116307227332026e-01
    1.1928104575163398e-02 -3.7500000000000000e-01
    1.1405449474694214e-02 -3.9840953644479793e-01
    1.0581010348957611e-02 -4.4353276257274371e-01
    1.0581010348957611e-02 -4.4353276257274371e-01
    1.0962017532926725e-02 -4.2121176958711593e-01
    9.9607641267966951e-03 -4.8712230044745486e-01
    9.9607641267966951e-03 -4.8712230044745486e-01
    9.7056148557488550e-03 -5.0854762771560780e-01
    9.4794962809557053e-03 -5.2981294282601754e-01
    8.0648706660368264e-03 -7.8881063774661564e-01
    8.2640332648711134e-03 -7.2168783648703216e-01
    8.2640332648711134e-03 -7.2168783648703216e-01
    7.9337258175646297e-03 -8.5912469298422467e-01
    7.8438732505170475e-03 -9.8639392383214386e-01
    7.8615995403567753e-03 -9.3369956184785263e-01
    7.9034327484939181e-03 -1.1319231422671769e+00
    7.9034327484939181e-03 -1.1319231422671769e+00
    8.0141477058386992e-03 -1.2317635241028797e+00
    7.8497686840817600e-03 -1.0419761445034557e+00
    7.8438732505170475e-03 -9.8639392383214386e-01
    8.0141477058386992e-03 -1.2317635241028797e+00
    8.0141477058386992e-03 -1.2317635241028797e+00
    7.8497686840817600e-03 -1.0419761445034557e+00
    7.9034327484939181e-03 -1.1319231422671769e+00
    7.9034327484939181e-03 -1.1319231422671769e+00
    8.0141477058386992e-03 -1.2317635241028797e+00
    7.9705414483232200e-03 -1.1972189997378644e+00
    7.9337258175646297e-03 -1.1639753904947561e+00
    7.8794465543357197e-03 -9.0829510622924770e-01
    7.8497686840817600e-03 -9.5971486993739330e-01
    7.8497686840817600e-03 -9.5971486993739330e-01
    8.0648706660368264e-03 -7.8881063774661564e-01
    8.3479342307736706e-03 -6.9985421222376532e-01
    8.6630607617299172e-03 -6.3548890930224256e-01
    8.7928516723291064e-03 -6.1429511683395133e-01
    1.0962017532926725e-02 -4.2121176958711593e-01
    1.4278074810952394e-02 -2.9925280083228989e-01
    1.4278074810952394e-02 -2.9925280083228989e-01
    2.4023623198297376e-02 -1.6783627165933784e-01
    1.4278074810952394e-02 -2.9925280083228989e-01
    1.1928104575163398e-02 -3.7500000000000000e-01
    1.1405449474694214e-02 -3.9840953644479793e-01
    1.0581010348957611e-02 -4.4353276257274371e-01
    1.0581010348957611e-02 -4.4353276257274371e-01
    1.0581010348957611e-02 -4.4353276257274371e-01
    1.0962017532926725e-02 -4.2121176958711593e-01
    9.9607641267966951e-03 -4.8712230044745486e-01
    1.0250271726446785e-02 -4.6547466812563143e-01
    9.9607641267966951e-03 -4.8712230044745486e-01
    8.9373548033285840e-03 -5.9317101400173966e-01
    8.0648706660368264e-03 -7.8881063774661564e-01
    8.0648706660368264e-03 -7.8881063774661564e-01
    7.9034327484939198e-03 -8.8345220859877249e-01
    7.8615995403567753e-03 -9.3369956184785263e-01
    7.8615995403567753e-03 -9.3369956184785263e-01
    7.9034327484939198e-03 -8.8345220859877249e-01
    7.9705414483232200e-03 -1.1972189997378644e+00
    8.0141477058386992e-03 -1.2317635241028797e+00
    7.8615995403567736e-03 -1.0710083209431247e+00
    7.8438732505170458e-03 -1.0137937550497031e+00
    7.8794465543357197e-03 -9.0829510622924770e-01
    7.8438732505170475e-03 -9.8639392383214386e-01
    8.1231015353449218e-03 -1.3052600138300814e+00
    7.9705414483232200e-03 -1.1972189997378644e+00
    7.9337258175646297e-03 -1.1639753904947561e+00
    7.8615995403567753e-03 -9.3369956184785263e-01
    7.9705414483232217e-03 -8.3526906958455682e-01
    7.8615995403567753e-03 -9.3369956184785263e-01
    7.8794465543357197e-03 -9.0829510622924770e-01
    8.1231015353449218e-03 -7.6613087768287380e-01
    8.1893055767481345e-03 -7.4376843799781012e-01
    8.2640332648711134e-03 -7.2168783648703216e-01
    8.6630607617299172e-03 -6.3548890930224256e-01
    8.7928516723291064e-03 -6.1429511683395133e-01
    1.0250271726446785e-02 -4.6547466812563143e-01
    1.0962017532926725e-02 -4.2121176958711593e-01
    1.4278074810952394e-02 -2.9925280083228989e-01
    1.5525415118394021e-02 -2.7116307227332026e-01
    1.7231700539727748e-02 -2.4077170617153840e-01
    1.3318695560605564e-02 -3.2566947363946486e-01
    1.2553967727335909e-02 -3.5082320772281173e-01
    1.1405449474694214e-02 -3.9840953644479793e-01
    1.0962017532926725e-02 -4.2121176958711593e-01
    1.0962017532926725e-02 -4.2121176958711593e-01
    1.1405449474694214e-02 -3.9840953644479793e-01
    1.1405449474694214e-02 -3.9840953644479793e-01
    1.0962017532926725e-02 -4.2121176958711593e-01
    1.0581010348957611e-02 -4.4353276257274371e-01
    1.0962017532926725e-02 -4.2121176958711593e-01
    1.0962017532926725e-02 -4.2121176958711593e-01
    1.0581010348957611e-02 -4.4353276257274371e-01
    8.5464597419484013e-03 -6.5678957742918542e-01
    8.1231015353449218e-03 -7.6613087768287380e-01
    7.8615995403567753e-03 -9.3369956184785263e-01
    7.9034327484939198e-03 -8.8345220859877249e-01
    7.9034327484939198e-03 -8.8345220859877249e-01
    7.8438732505170458e-03 -1.0137937550497031e+00
    7.9034327484939181e-03 -1.1319231422671769e+00
    7.8615995403567736e-03 -1.0710083209431247e+00
    7.8497686840817600e-03 -9.5971486993739330e-01
    7.8794465543357197e-03 -9.0829510622924770e-01
    8.0648706660368247e-03 -1.2677313820927747e+00
    7.9705414483232200e-03 -1.1972189997378644e+00
    8.0648706660368247e-03 -1.2677313820927747e+00
    7.8794465543357197e-03 -9.0829510622924770e-01
    7.8438732505170458e-03 -1.0137937550497031e+00
    7.8615995403567753e-03 -9.3369956184785263e-01
    7.8794465543357197e-03 -9.0829510622924770e-01
    8.1231015353449218e-03 -7.6613087768287380e-01
    8.1893055767481345e-03 -7.4376843799781012e-01
    9.0984011784219932e-03 -5.7207755354735546e-01
    8.9373548033285840e-03 -5.9317101400173966e-01
    8.9373548033285840e-03 -5.9317101400173966e-01
    9.9607641267966951e-03 -4.8712230044745486e-01
    1.1405449474694214e-02 -3.9840953644479793e-01
    1.1928104575163398e-02 -3.7500000000000000e-01
    1.4278074810952394e-02 -2.9925280083228989e-01
    2.4023623198297376e-02 -1.6783627165933784e-01
    1.7231700539727748e-02 -2.4077170617153840e-01
    1.4278074810952394e-02 -2.9925280083228989e-01
    1.4278074810952394e-02 -2.9925280083228989e-01
    1.1928104575163398e-02 -3.7500000000000000e-01
    1.1405449474694214e-02 -3.9840953644479793e-01
    1.1928104575163398e-02 -3.7500000000000000e-01
    1.2553967727335909e-02 -3.5082320772281173e-01
    1.2553967727335909e-02 -3.5082320772281173e-01
    1.3318695560605564e-02 -3.2566947363946486e-01
    1.4278074810952394e-02 -2.9925280083228989e-01
    1.2553967727335909e-02 -3.5082320772281173e-01
    1.2553967727335909e-02 -3.5082320772281173e-01
    1.1405449474694214e-02 -3.9840953644479793e-01
    1.0581010348957611e-02 -4.4353276257274371e-01
    9.7056148557488550e-03 -5.0854762771560780e-01
    8.5464597419484013e-03 -6.5678957742918542e-01
    8.4417747445548960e-03 -6.7823299831252692e-01
    8.0648706660368264e-03 -7.8881063774661564e-01
    7.9705414483232217e-03 -8.3526906958455682e-01
    7.8438732505170458e-03 -1.0137937550497031e+00
    7.8615995403567736e-03 -1.0710083209431247e+00
    7.8615995403567736e-03 -1.0710083209431247e+00
    7.8497686840817600e-03 -9.5971486993739330e-01
    7.9034327484939181e-03 -1.1319231422671769e+00
    7.9705414483232200e-03 -1.1972189997378644e+00
    7.8497686840817600e-03 -1.0419761445034557e+00
    7.8497686840817600e-03 -9.5971486993739330e-01
    7.8497686840817600e-03 -9.5971486993739330e-01
    7.9705414483232217e-03 -8.3526906958455682e-01
    8.1231015353449218e-03 -7.6613087768287380e-01
    8.4417747445548960e-03 -6.7823299831252692e-01
    8.4417747445548960e-03 -6.7823299831252692e-01
    9.2782101606486284e-03 -5.5097316501933979e-01
    9.2782101606486284e-03 -5.5097316501933979e-01
    1.1405449474694214e-02 -3.9840953644479793e-01
    1.4278074810952394e-02 -2.9925280083228989e-01
    1.3318695560605564e-02 -3.2566947363946486e-01
    1.3318695560605564e-02 -3.2566947363946486e-01
    1.5525415118394021e-02 -2.7116307227332026e-01
    1.7231700539727748e-02 -2.4077170617153840e-01 1. 0.
    1.9754817973330140e-02 -2.0701966780270628e-01
    1.7231700539727748e-02 -2.4077170617153840e-01
    1.5525415118394021e-02 -2.7116307227332026e-01
    1.5525415118394021e-02 -2.7116307227332026e-01
    1.5525415118394021e-02 -2.7116307227332026e-01
    1.5525415118394021e-02 -2.7116307227332026e-01
    1.5525415118394021e-02 -2.7116307227332026e-01
    1.5525415118394021e-02 -2.7116307227332026e-01
    1.5525415118394021e-02 -2.7116307227332026e-01
    1.5525415118394021e-02 -2.7116307227332026e-01
    1.4278074810952394e-02 -2.9925280083228989e-01
    1.3318695560605564e-02 -3.2566947363946486e-01
    1.1928104575163398e-02 -3.7500000000000000e-01
    1.1928104575163398e-02 -3.7500000000000000e-01
    1.0962017532926725e-02 -4.2121176958711593e-01
    9.2782101606486284e-03 -5.5097316501933979e-01
    8.4417747445548960e-03 -6.7823299831252692e-01
    7.9337258175646297e-03 -8.5912469298422467e-01
    8.1893055767481345e-03 -7.4376843799781012e-01
    8.1231015353449218e-03 -7.6613087768287380e-01
    7.8438732505170475e-03 -9.8639392383214386e-01
    8.0648706660368264e-03 -7.8881063774661564e-01
    7.8615995403567736e-03 -1.0710083209431247e+00
    8.1231015353449218e-03 -7.6613087768287380e-01
    7.8497686840817600e-03 -9.5971486993739330e-01
    8.0648706660368264e-03 -7.8881063774661564e-01
    8.0141477058386992e-03 -8.1184414088598877e-01
    8.1893055767481345e-03 -7.4376843799781012e-01
    8.3479342307736706e-03 -6.9985421222376532e-01
    8.5464597419484013e-03 -6.5678957742918542e-01
    9.7056148557488550e-03 -5.0854762771560780e-01
    1.0581010348957611e-02 -4.4353276257274371e-01
    1.4278074810952394e-02 -2.9925280083228989e-01
    1.5525415118394021e-02 -2.7116307227332026e-01
    1.5525415118394021e-02 -2.7116307227332026e-01
    1.7231700539727748e-02 -2.4077170617153840e-01
    1.7231700539727748e-02 -2.4077170617153840e-01
    1.7231700539727748e-02 -2.4077170617153840e-01
    1.7231700539727748e-02 -2.4077170617153840e-01
    3.3737774527201288e-02 -1.1785113019775793e-01
    1.7231700539727748e-02 -2.4077170617153840e-01
    1.7231700539727748e-02 -2.4077170617153840e-01
    1.7231700539727748e-02 -2.4077170617153840e-01
    1.9754817973330140e-02 -2.0701966780270628e-01
    2.4023623198297376e-02 -1.6783627165933784e-01
    1.9754817973330140e-02 -2.0701966780270628e-01
    1.9754817973330140e-02 -2.0701966780270628e-01
    1.9754817973330140e-02 -2.0701966780270628e-01
    1.9754817973330140e-02 -2.0701966780270628e-01
    1.9754817973330140e-02 -2.0701966780270628e-01
    1.9754817973330140e-02 -2.0701966780270628e-01
    1.7231700539727748e-02 -2.4077170617153840e-01
    1.7231700539727748e-02 -2.4077170617153840e-01
    1.9754817973330140e-02 -2.0701966780270628e-01
    1.9754817973330140e-02 -2.0701966780270628e-01
    1.1405449474694214e-02 -3.9840953644479793e-01
    1.1928104575163398e-02 -3.7500000000000000e-01
    1.1405449474694214e-02 -3.9840953644479793e-01
    9.9607641267966951e-03 -4.8712230044745486e-01
    8.2640332648711134e-03 -7.2168783648703216e-01
    8.5464597419484013e-03 -6.5678957742918542e-01
    1.1405449474694214e-02 -3.9840953644479793e-01
    9.0984011784219932e-03 -5.7207755354735546e-01
    8.0648706660368264e-03 -7.8881063774661564e-01
    8.4417747445548960e-03 -6.7823299831252692e-01
    8.1893055767481345e-03 -7.4376843799781012e-01
    8.1893055767481345e-03 -7.4376843799781012e-01
    8.2640332648711134e-03 -7.2168783648703216e-01
    8.5464597419484013e-03 -6.5678957742918542e-01
    9.2782101606486284e-03 -5.5097316501933979e-01
    1.1928104575163398e-02 -3.7500000000000000e-01
    1.5525415118394021e-02 -2.7116307227332026e-01
    1.5525415118394021e-02 -2.7116307227332026e-01
    1.5525415118394021e-02 -2.7116307227332026e-01
    1.7231700539727748e-02 -2.4077170617153840e-01
    1.9754817973330140e-02 -2.0701966780270628e-01
    1.9754817973330140e-02 -2.0701966780270628e-01
    1.9754817973330140e-02 -2.0701966780270628e-01
    1.7231700539727748e-02 -2.4077170617153840e-01</input_scale>
  <output_scale>
    1.0526315789473684e+00 0.</output_scale>
  <inv_output_scale>
    9.4999999999999996e-01 0.</inv_output_scale>
  <weights>
    <_>
      -1.1719048386403424e-03 -2.2903224389177911e-04
      -9.9637750405231888e-04 -5.5088375721748159e-04
      2.2039270841974236e-04 1.2144499427915077e-03
      9.9728247011042037e-04 2.0453599492093418e-04
      -7.2831549546728146e-04 -4.2920232853557353e-04
      -1.1054717958401724e-03 -1.2409612586460942e-04
      -2.1397120762249158e-05 -7.8018402384446585e-04
      6.7194088742161514e-04 -1.1208781013474275e-03
      1.1037170489498088e-03 1.0083693640301039e-03
      -2.5698247005999147e-04 -3.4383640164285737e-05
      3.0002183913935715e-04 -7.7645728251324352e-04
      -6.5397802009701264e-04 9.5527311481024093e-04
      -1.0954164450422850e-03 -3.1663012947851025e-04
      6.1523554708813478e-04 -6.3403300196013517e-04
      1.0630743572223426e-03 -2.4215284090006096e-04
      1.2150750992007805e-03 -3.7732545206526025e-04
      2.2581237915161135e-04 8.1166924113520002e-04
      1.1322676431532379e-03 5.1786688077618958e-04
      8.1904968067006900e-04 5.2277548999592920e-04
      1.2256443938238879e-03 -1.5902424652943092e-04
      8.4440911624400039e-02 2.0972217765297656e-02
      1.7463667619437444e-02 7.9469797508142613e-03
      -1.6524790873295617e-02 3.7826059493882933e-03
      -8.7732660823507912e-03 -1.4099730893879291e-02
      -1.6373966520810482e-03 2.4685795832066371e-02
      6.6145888685619084e-03 1.5533661969150193e-02
      8.0478696666190161e-03 -1.0416322318370528e-02
      -2.2166918447667169e-03 7.4053772525096853e-03
      -2.4956985833708466e-03 1.3290720371755016e-02
      -3.0415917225047183e-02 3.0407209664922077e-02
      -1.3536001052243594e-02 4.7067675085499935e-03
      2.4818133889007834e-03 1.8517961838038732e-02
      7.0396263628595152e-03 -4.3005936629112928e-03
      2.1146040320016130e-02 -2.5284106713015973e-02
      8.6093543936814725e-03 6.4552390702357215e-03
      -1.8284172763496236e-02 -2.1024598260228743e-02
      2.5557740426363443e-02 9.1853455778289714e-03
      1.1570978515235588e-02 3.6674981126734191e-03
      1.8595685093407754e-02 9.3659295032183058e-03
      -1.9918327090157537e-02 -1.7512989319833350e-02
      1.3028952214222481e-01 4.0616623340391574e-02
      3.2857051994799595e-02 1.2540716101317028e-02
      -2.8941389225055469e-02 8.6004357315456852e-03
      -1.2324364785795716e-02 -2.6109029031190469e-02
      -4.4589617802118509e-03 4.9966191784044232e-02
      1.0632127821188407e-02 2.4371019605120631e-02
      1.2470268032085294e-02 -1.8108803128773665e-02
      -2.1647678941495965e-03 9.6918423884601763e-03
      -3.4468995652757015e-03 2.2438466402956488e-02
      -5.2050793718772782e-02 5.2309984589095894e-02
      -2.3149236538412128e-02 6.9092265665950895e-03
      3.2265351273059496e-03 3.4042459581446263e-02
      1.0212550477394196e-02 -4.1562213796010041e-03
      4.4141686753548043e-02 -4.6617545421402493e-02
      1.3995859259651057e-02 1.0352136480580967e-02
      -3.4677317212047067e-02 -4.3121756942524687e-02
      5.1314034092955742e-02 1.2966671398523779e-02
      1.9681247271854222e-02 6.9974851066942232e-03
      3.1531607874273178e-02 1.5976644094074122e-02
      -3.9088091071400349e-02 -3.0423826905262203e-02
      -2.8116764707771280e-01 -8.3997324576297563e-02
      -6.9200737841453031e-02 -2.8917284210184704e-02
      6.2777288939248929e-02 -1.6599993788336789e-02
      2.7667596326630583e-02 5.4342905652091794e-02
      9.1249494136433074e-03 -1.0417685462960169e-01
      -2.4839102382866084e-02 -5.3710272477996493e-02
      -2.5584477721267932e-02 3.7096514796683168e-02
      5.6201588546091969e-03 -2.2757868512094666e-02
      9.9817028813705584e-03 -4.5594324029861077e-02
      1.0119725231642615e-01 -1.0443722896881956e-01
      5.1566037002839307e-02 -1.3595430424160103e-02
      -7.6171637586161184e-03 -7.0420771339177193e-02
      -2.1689428397761862e-02 1.1544493145789000e-02
      -9.0912833823292669e-02 9.3660488975817260e-02
      -2.6755657385216826e-02 -2.2933835193277012e-02
      7.6265391075488992e-02 8.9345819116661146e-02
      -1.0599453839626324e-01 -3.1029109330305844e-02
      -4.0250740264445431e-02 -1.2419428326988826e-02
      -6.8058824403572540e-02 -3.3394625453218273e-02
      8.0439196192877274e-02 6.4750443466130916e-02
      -7.2902441654573685e-02 -2.1385128834403817e-02
      -1.7957780441985711e-02 -8.0232206642089927e-03
      1.5056108062354372e-02 -2.7981720748393515e-03
      7.5116434546999237e-03 1.4870466844563886e-02
      1.4543581204106055e-03 -2.5434844612842056e-02
      -6.0913331643453169e-03 -1.4487027106832034e-02
      -5.6203863072343992e-03 8.9301958050539091e-03
      5.3397235359421865e-04 -6.6147142395321492e-03
      3.2760618427217941e-03 -1.1493952621516045e-02
      3.7120901654609462e-02 -3.6788677857450158e-02
      1.2112548301282120e-02 -3.5568878412362715e-03
      -2.9849324433392963e-03 -1.7663969390825811e-02
      -4.7199134885777495e-03 3.5293866255289401e-03
      -2.2550001681441806e-02 2.4667119833075919e-02
      -8.2222324778248885e-03 -5.8960944014312634e-03
      2.1243700751221596e-02 2.3830169414710056e-02
      -2.6664286039718887e-02 -7.8814283243282372e-03
      -1.1304497628279593e-02 -2.2259063089927768e-03
      -1.8092958631815148e-02 -7.4971490252177982e-03
      2.1072469364042189e-02 1.7538928962719504e-02
      -7.2476677488607005e-02 -2.2756121486856882e-02
      -1.7107013371831438e-02 -7.3932920103988962e-03
      1.6200194281104287e-02 -4.1475730976319510e-03
      7.0008153911347692e-03 1.4412956266437637e-02
      1.6072232707328050e-03 -2.5220670360850506e-02
      -7.3319574950341223e-03 -1.4895306090680521e-02
      -5.4265112963723904e-03 8.5239984061527638e-03
      2.1335496251561250e-03 -6.1564160190993493e-03
      2.5763183555829725e-03 -1.2891546503856353e-02
      3.5197284139662999e-02 -3.6940471945796083e-02
      1.2122132579770019e-02 -2.1663033540881716e-03
      -1.5573612817767540e-03 -1.7551125164748653e-02
      -6.7103131024119972e-03 2.8340721896273121e-03
      -2.0948429152211394e-02 2.3910730708769288e-02
      -7.7282957799599547e-03 -5.6212594874005080e-03
      2.0596717104207588e-02 2.3731502396094659e-02
      -2.5187248667039624e-02 -6.9824075642860445e-03
      -1.0094756092328185e-02 -2.3197325779266676e-03
      -1.7314065698637367e-02 -7.5103557532273484e-03
      2.2128119920230178e-02 1.6113276407735744e-02
      -2.8038739198931178e-01 -8.5426016038405828e-02
      -6.8734311898311640e-02 -2.8190438331680317e-02
      6.1042996014194176e-02 -1.6759651879932752e-02
      2.5973856509108193e-02 5.3826080748157798e-02
      9.5678261953876537e-03 -1.0337313498759748e-01
      -2.5331861121792663e-02 -5.3835532667278654e-02
      -2.6144276284287536e-02 3.7967625328782860e-02
      6.7262717033294795e-03 -2.2379552240606476e-02
      8.2750070348264603e-03 -4.7520622279193264e-02
      1.0155396754664281e-01 -1.0247499554690671e-01
      5.1023563454134703e-02 -1.1988692150213965e-02
      -7.6269593169851595e-03 -7.0669396793192257e-02
      -2.3951973883817982e-02 1.2608258289779468e-02
      -9.0556863725118439e-02 9.5636140606477474e-02
      -2.8629458038468031e-02 -2.3019323508871252e-02
      7.6381913872419049e-02 8.8943995861299557e-02
      -1.0665282234551743e-01 -3.1083274064324228e-02
      -3.9913264801626991e-02 -1.1428219001070722e-02
      -6.9489056918703426e-02 -3.3154196303986964e-02
      7.8846612678251687e-02 6.5573639072521173e-02
      -2.8019383572827217e-01 -8.5443559066166533e-02
      -7.0962887430249158e-02 -2.9481640145181138e-02
      6.1161608774421547e-02 -1.5199202968690321e-02
      2.7563239187260127e-02 5.5162515400492731e-02
      9.9693525654979080e-03 -1.0363608830236080e-01
      -2.3840660883175276e-02 -5.3079583289702879e-02
      -2.7090394199359078e-02 3.8495985607217197e-02
      6.9119287907061016e-03 -2.4142522667154769e-02
      8.0488439973665036e-03 -4.6145924006891971e-02
      1.0126871501718855e-01 -1.0283789374355269e-01
      5.1461656720799727e-02 -1.3624731855004351e-02
      -7.9834625486042872e-03 -6.9573023384025240e-02
      -2.2851346976465504e-02 1.0388230379491945e-02
      -9.1789754673760673e-02 9.3840255088795524e-02
      -2.7326727292953795e-02 -2.3460201743620054e-02
      7.4645715296660836e-02 8.7791685250231538e-02
      -1.0636235383800710e-01 -3.0711851954689708e-02
      -4.0631423848476747e-02 -1.1753529778957977e-02
      -6.8196061978352124e-02 -3.4378712525226160e-02
      8.0786218642380947e-02 6.5990195272663976e-02
      -1.2065753922478546e-01 -3.5181625461911219e-02
      -2.9871780941600361e-02 -1.1519214624768001e-02
      2.5816596599868919e-02 -6.1348443200019889e-03
      1.0379334210672589e-02 2.2802545708605557e-02
      3.6118915371984753e-03 -4.4425411434889671e-02
      -1.1413720700527775e-02 -2.2962933423985116e-02
      -1.1320185220300627e-02 1.4940803812448809e-02
      2.2142128451327573e-03 -1.0746200230120241e-02
      3.8227682965743721e-03 -2.0608487973961611e-02
      4.1517665288079854e-02 -4.3521789429139771e-02
      2.2339421699974743e-02 -6.5548870996289792e-03
      -2.5160732009143808e-03 -3.1173118445847810e-02
      -1.0302600391993020e-02 4.4033136846051276e-03
      -3.7140761418962574e-02 4.0075654390718633e-02
      -1.3199360866063698e-02 -8.9155973954904294e-03
      3.1736768566775271e-02 3.7280604528710660e-02
      -4.6109083424152666e-02 -1.3015045557490874e-02
      -1.8215609286282023e-02 -5.3734570118086104e-03
      -2.8540316177269279e-02 -1.5214149261005817e-02
      3.2742491553798055e-02 2.9078113876690608e-02
      -2.2759704998165114e-01 -6.9583764042390084e-02
      -5.6140364211312618e-02 -2.4181995517950500e-02
      5.0142393940470834e-02 -1.2943549875543294e-02
      2.1528032850771969e-02 4.4168519726561488e-02
      5.9612333131483820e-03 -8.3190533117093748e-02
      -2.0158703816890746e-02 -4.3100285898872139e-02
      -2.1931939024722180e-02 3.1239939352049630e-02
      6.2343685104384343e-03 -1.9801159680192970e-02
      8.0697738073310377e-03 -3.6488274644451896e-02
      8.1782646716723542e-02 -8.2019655676196221e-02
      4.1501671204762003e-02 -1.0295531776865973e-02
      -8.2190538214025818e-03 -5.6923236717899887e-02
      -1.7475548016609197e-02 9.8732078249086381e-03
      -7.3071012074667846e-02 7.6924110694720521e-02
      -2.3347805670084838e-02 -1.8815653801948367e-02
      6.1357106191004832e-02 7.0799077083153888e-02
      -8.6396235198672122e-02 -2.4508437603071590e-02
      -3.3128282667921505e-02 -1.1435172395221380e-02
      -5.5311696756140137e-02 -2.6906098401369927e-02
      6.3506848161400398e-02 5.2869245770547163e-02
      -4.4574243808681149e-02 -1.2772414127838951e-02
      -1.0555972574869187e-02 -4.5335547129280434e-03
      1.0903200297864832e-02 -1.8402266092557168e-03
      3.1792456070141740e-03 8.0703796529548420e-03
      2.1799988230397790e-03 -1.4604232168317867e-02
      -2.9325493792468522e-03 -9.4549356297246763e-03
      -3.3527956559044132e-03 6.8391412347139245e-03
      7.5063700969920635e-04 -4.6247629857160948e-03
      1.1600218324924465e-03 -8.6168754419878989e-03
      1.2075390252159465e-02 -1.4484606122573161e-02
      7.4220480486948317e-03 -1.3126609562998473e-03
      -3.0841418249624443e-04 -1.0400477458872480e-02
      -3.8786884499396081e-03 2.6227354947437492e-03
      -1.2958343816990297e-02 1.3565434268119046e-02
      -4.9209509953392671e-03 -3.4567749191209943e-03
      1.1394056520439557e-02 1.2987225851985551e-02
      -1.6008871290181630e-02 -5.2784614147254908e-03
      -7.5437984522130795e-03 -2.9939139060721045e-03
      -9.9065060054108599e-03 -4.6219901522041949e-03
      1.1118277527222612e-02 1.0753703525878231e-02
      -4.6003251254648339e-02 -1.1701935081880608e-02
      -9.9367115813637236e-03 -4.8335296199531318e-03
      8.7557489041244808e-03 -3.0443608256494805e-03
      3.7239635464159453e-03 9.5825128801754339e-03
      1.5759570321252385e-03 -1.5947588151218071e-02
      -3.5286683290764349e-03 -9.5327789200903949e-03
      -3.1686278772874283e-03 4.8356288923270081e-03
      3.4181289539836172e-04 -2.8244873176777965e-03
      7.4654802732583786e-04 -6.6985551407996152e-03
      1.3316974016410979e-02 -1.2284999309146317e-02
      8.6602950309638636e-03 -1.9981322989726579e-03
      -2.4340441403639191e-03 -1.0148377790934519e-02
      -3.1695171376845510e-03 2.7567644822974742e-03
      -1.2327101486737954e-02 1.3015771097806324e-02
      -4.0680369435842382e-03 -4.5056825252837154e-03
      1.2014701810144386e-02 1.3582828828611242e-02
      -1.5187315442914377e-02 -5.5586258834198479e-03
      -5.3780693291856823e-03 -2.3554997351207894e-03
      -9.9964285951540787e-03 -6.5797892368613924e-03
      1.2476179202995770e-02 1.0992317393801403e-02
      -2.7901164034369583e-02 -8.8676646833906088e-03
      -7.1708664197450388e-03 -1.8439681190369102e-03
      7.1030149371961015e-03 -2.3922096187781903e-03
      2.7453138997219563e-03 5.9062464412898584e-03
      2.0788341543284414e-03 -9.9357170128048442e-03
      -3.5491138645056012e-03 -4.4901398546255680e-03
      -3.2977672278605898e-03 3.9820677051337645e-03
      8.8712141067159335e-04 -1.7317516634938125e-03
      2.2949843572641360e-04 -4.1518240568459057e-03
      6.5219692527877767e-03 -8.0721466946185039e-03
      5.6291547801892378e-03 -2.5116634890576675e-03
      -4.8159190631335614e-04 -6.3232467206146498e-03
      -3.2758758613105018e-03 1.1716914047430504e-03
      -7.4251887310430240e-03 8.6680297071537512e-03
      -3.3243695350809056e-03 -2.6731061072715560e-03
      6.4181685354801682e-03 7.8227056682257518e-03
      -8.6499716255163395e-03 -3.2123081544123142e-03
      -4.0487391801220882e-03 -1.8687992061905251e-03
      -7.4931468017179178e-03 -3.7287654189643565e-03
      8.0465329212318637e-03 5.5693163608441024e-03
      6.1713656385619695e-02 1.3276476912523720e-02
      1.4424031638346350e-02 5.6134855484638009e-03
      -1.3606870934326434e-02 3.6351029035093011e-03
      -5.7137610954459770e-03 -1.0563420738920946e-02
      -1.9777627994626845e-03 7.1250353390221160e-03
      4.8388621247204694e-03 1.0738190651539239e-02
      6.2735445128172156e-03 -8.8838517759485727e-03
      -2.9365734385561798e-04 4.2881754441956212e-03
      -2.8100449976286453e-03 8.7081519435207016e-03
      3.8142958450493683e-03 -3.5540587289042804e-03
      -1.2032510639110823e-02 3.7952253452644621e-03
      1.3896979778837510e-03 1.4621826169762679e-02
      4.9899238103806483e-03 -2.6307772091910169e-03
      1.6095834425738968e-02 -6.2312665712942594e-03
      5.4815281869258865e-03 4.8704752550394375e-03
      -1.5656058018142179e-02 -1.5062305556540896e-02
      5.1037580392860318e-03 6.8233899801895277e-03
      8.4785114008658138e-03 2.5559130233532190e-03
      1.3052884066398755e-02 6.5425216990246445e-03
      -1.6926300339578221e-02 -1.2934045345126613e-02
      1.0639396607913808e-01 3.3956667938777163e-02
      2.6043496536735804e-02 1.1470699169835412e-02
      -2.4423264656102565e-02 6.5161690989558726e-03
      -9.6579028528958003e-03 -2.0280059831201413e-02
      -2.8697236430587805e-03 4.2622079095392111e-02
      9.6996061427240075e-03 2.0917491443671634e-02
      1.0700986640838822e-02 -1.2945189324631323e-02
      -3.2897162502931007e-03 7.9756840351345153e-03
      -3.9154968104244047e-03 1.7234830609208253e-02
      -4.2825477203772576e-02 4.4015987495796507e-02
      -1.8701137440680367e-02 4.6069526342070368e-03
      3.8721323925496143e-03 2.7781431644444184e-02
      7.9297138793956602e-03 -3.6762040745696614e-03
      3.7260040694850220e-02 -3.7681922545331051e-02
      9.5282441360414524e-03 8.4858918089379971e-03
      -2.9245631725152169e-02 -3.4828788406611473e-02
      4.3611913777182501e-02 1.1806413933128920e-02
      1.5779785811569264e-02 3.4982418347090888e-03
      2.6252824926063945e-02 1.3907059676962968e-02
      -3.2066515001259316e-02 -2.6001167811354520e-02
      1.5971989860984409e-01 4.7719891539893873e-02
      3.8830724712157649e-02 1.5853813241956175e-02
      -3.5531922940918212e-02 9.9461050432187986e-03
      -1.5508441320407471e-02 -3.1618455523177671e-02
      -5.7215221514724029e-03 5.9538530001699515e-02
      1.4622558270855219e-02 2.9715739453033584e-02
      1.5780015788363938e-02 -2.2117332439562012e-02
      -2.3975302080224163e-03 1.2403239811053667e-02
      -4.9905485904577288e-03 2.5549653603787557e-02
      -5.3350134200788449e-02 5.2861158713386112e-02
      -2.9120393787445083e-02 8.4673761893761298e-03
      3.8762425332847573e-03 4.0087184491130377e-02
      1.2453483572145483e-02 -6.8501575356885646e-03
      4.8674848203556692e-02 -5.2357630970232355e-02
      1.6939570276385627e-02 1.2684828160351469e-02
      -4.3264248675368704e-02 -5.1011222980880747e-02
      6.1471272498309762e-02 1.8215246087587931e-02
      2.3113816850489792e-02 6.5363316084708963e-03
      3.8866241463340480e-02 2.0175680553540267e-02
      -4.5597773080188350e-02 -3.6934228974531635e-02
      1.5894137014098891e-01 4.8016035244717127e-02
      3.9981639615324138e-02 1.7585254659838203e-02
      -3.5134755469970406e-02 8.0833382067553288e-03
      -1.5619023893168179e-02 -3.2362681230013471e-02
      -5.0410573779239081e-03 5.8948038914327379e-02
      1.3248223467782051e-02 3.1861982712892534e-02
      1.5412594544717505e-02 -2.0637504191486005e-02
      -3.9119294943940246e-03 1.3696604469862355e-02
      -4.5320641340000035e-03 2.7472292806957597e-02
      -5.1605183071387423e-02 5.4385402423412783e-02
      -2.9064321581772419e-02 6.4743602342176619e-03
      3.9478429826697546e-03 3.9923253048715503e-02
      1.3079620489361269e-02 -7.2353327538386804e-03
      4.8039345721772563e-02 -5.2118161117317624e-02
      1.5112465212288227e-02 1.3972321573307295e-02
      -4.3305660651180321e-02 -4.8869608727006311e-02
      6.0894724432097785e-02 1.6975678624871881e-02
