<?xml version="1.0"?>
<opencv_storage>
<shapeML type_id="opencv-ml-ann-mlp">
  <layer_sizes type_id="opencv-matrix">
    <rows>1</rows>
    <cols>3</cols>
    <dt>i</dt>
    <data>
      1600 40 1</data></layer_sizes>
  <activation_function>SIGMOID_SYM</activation_function>
  <f_param1>5.9999999999999998e-01</f_param1>
  <f_param2>1.</f_param2>
  <min_val>-9.4999999999999996e-01</min_val>
  <max_val>9.4999999999999996e-01</max_val>
  <min_val1>-9.7999999999999998e-01</min_val1>
  <max_val1>9.7999999999999998e-01</max_val1>
  <training_params>
    <train_method>BACKPROP</train_method>
    <dw_scale>1.0000000000000001e-01</dw_scale>
    <moment_scale>1.0000000000000001e-01</moment_scale>
    <term_criteria><epsilon>9.9999999747524271e-07</epsilon>
      <iterations>4000</iterations></term_criteria></training_params>
  <input_scale>
    1. 0. 4.5056706089890521e-02 -8.7705801930702917e-02
    4.5056706089890521e-02 -8.7705801930702917e-02
    3.1983152013244871e-02 -1.2451456127293804e-01
    2.2792882888923706e-02 -1.7747130188322274e-01
    2.2792882888923706e-02 -1.7747130188322274e-01
    3.1983152013244871e-02 -1.2451456127293804e-01
    3.1983152013244871e-02 -1.2451456127293804e-01
    2.6215944142532380e-02 -1.5309310892394862e-01
    2.6215944142532380e-02 -1.5309310892394862e-01
    1.6376970472803395e-02 -2.5503068522533529e-01
    2.0467313440889617e-02 -1.9920476822239894e-01
    2.0467313440889617e-02 -1.9920476822239894e-01
    1.6376970472803395e-02 -2.5503068522533529e-01
    2.0467313440889617e-02 -1.9920476822239894e-01
    1.2315625979330455e-02 -3.5959747611403808e-01
    1.1976287243086383e-02 -3.7300192329612553e-01
    1.7436979325995906e-02 -2.3759548165574573e-01
    1.5503506838653499e-02 -2.7160723812755555e-01
    9.6946595733949040e-03 -5.0952466536506813e-01
    8.5149170863985553e-03 -6.6299354413179590e-01
    9.6946595733949040e-03 -5.0952466536506813e-01
    1.0688705842501839e-02 -4.3693144875265150e-01
    1.0688705842501839e-02 -4.3693144875265150e-01
    1.6376970472803395e-02 -2.5503068522533529e-01
    1.8758602623052748e-02 -2.1908902300206642e-01
    2.2792882888923706e-02 -1.7747130188322274e-01
    1.7436979325995906e-02 -2.3759548165574573e-01
    2.6215944142532380e-02 -1.5309310892394862e-01
    3.1983152013244871e-02 -1.2451456127293804e-01
    2.2792882888923706e-02 -1.7747130188322274e-01
    4.5056706089890521e-02 -8.7705801930702917e-02
    2.6215944142532380e-02 -1.5309310892394862e-01
    4.5056706089890521e-02 -8.7705801930702917e-02
    2.6215944142532380e-02 -1.5309310892394862e-01
    1.8758602623052748e-02 -2.1908902300206642e-01
    4.5056706089890521e-02 -8.7705801930702917e-02
    4.5056706089890521e-02 -8.7705801930702917e-02 1. 0.
    4.5056706089890521e-02 -8.7705801930702917e-02
    4.5056706089890521e-02 -8.7705801930702917e-02
    3.1983152013244871e-02 -1.2451456127293804e-01
    4.5056706089890521e-02 -8.7705801930702917e-02
    2.6215944142532380e-02 -1.5309310892394862e-01
    2.0467313440889617e-02 -1.9920476822239894e-01
    2.0467313440889617e-02 -1.9920476822239894e-01
    2.0467313440889617e-02 -1.9920476822239894e-01
    1.8758602623052748e-02 -2.1908902300206642e-01
    1.8758602623052748e-02 -2.1908902300206642e-01
    1.7436979325995906e-02 -2.3759548165574573e-01
    1.0490749713762014e-02 -4.4926035033744194e-01
    1.1390837096227954e-02 -3.9911406314264353e-01
    1.0903216305317483e-02 -4.2447635997800887e-01
    9.6946595733949040e-03 -5.0952466536506813e-01
    9.5660685173358326e-03 -5.2138724590670116e-01
    8.7109661554874290e-03 -6.2738905096964803e-01
    8.6416732787329472e-03 -6.3921995473986459e-01
    8.1760312592528608e-03 -7.4801324154309567e-01
    7.9899834377524879e-03 -8.2431012336812881e-01
    8.1390075312457455e-03 -7.6046910062937345e-01
    7.8543585907858201e-03 -9.4791915511697566e-01
    8.0724172841340064e-03 -7.8567420131838617e-01
    8.2156652697983699e-03 -7.3564697415828151e-01
    8.4025569893091331e-03 -6.8695714011832687e-01
    9.2267821825519659e-03 -5.5677643628300222e-01
    9.9794861152001264e-03 -4.8564293117863211e-01
    1.1390837096227954e-02 -3.9911406314264353e-01
    1.3594618087700034e-02 -3.1755367441497789e-01
    1.3116514250127385e-02 -3.3191789877230748e-01
    1.4139828748191495e-02 -3.0276503540974919e-01
    1.6376970472803395e-02 -2.5503068522533529e-01
    1.6376970472803395e-02 -2.5503068522533529e-01
    1.6376970472803395e-02 -2.5503068522533529e-01
    1.8758602623052748e-02 -2.1908902300206642e-01
    2.0467313440889617e-02 -1.9920476822239894e-01
    2.2792882888923706e-02 -1.7747130188322274e-01
    3.1983152013244871e-02 -1.2451456127293804e-01
    3.1983152013244871e-02 -1.2451456127293804e-01
    3.1983152013244871e-02 -1.2451456127293804e-01
    3.1983152013244871e-02 -1.2451456127293804e-01 1. 0.
    3.1983152013244871e-02 -1.2451456127293804e-01
    3.1983152013244871e-02 -1.2451456127293804e-01
    2.6215944142532380e-02 -1.5309310892394862e-01
    2.0467313440889617e-02 -1.9920476822239894e-01
    1.6376970472803395e-02 -2.5503068522533529e-01
    1.5503506838653499e-02 -2.7160723812755555e-01
    1.6376970472803395e-02 -2.5503068522533529e-01
    1.0307546898193310e-02 -4.6147910349544863e-01
    9.8321793439190997e-03 -4.9761335152811931e-01
    9.2267821825519659e-03 -5.5677643628300222e-01
    9.5660685173358326e-03 -5.2138724590670116e-01
    8.7109661554874290e-03 -6.2738905096964803e-01
    8.2580143404345080e-03 -7.2336423325561816e-01
    8.2580143404345080e-03 -7.2336423325561816e-01
    7.9458977902506587e-03 -8.5069630922340067e-01
    7.8950646087588405e-03 -8.9135882109575004e-01
    7.8617128607403955e-03 -9.3350338586883097e-01
    7.8543585907858201e-03 -1.0549422855334083e+00
    8.1390075312457455e-03 -7.6046910062937345e-01
    7.9668909517777581e-03 -8.3743578935862395e-01
    8.0152283140463593e-03 -8.1131242323858566e-01
    8.1760312592528608e-03 -7.4801324154309567e-01
    8.4025569893091331e-03 -6.8695714011832687e-01
    7.9668909517777581e-03 -8.3743578935862395e-01
    7.9899834377524879e-03 -8.2431012336812881e-01
    8.8626066935145499e-03 -6.0380736442456007e-01
    9.9794861152001264e-03 -4.8564293117863211e-01
    1.0490749713762014e-02 -4.4926035033744194e-01
    1.1390837096227954e-02 -3.9911406314264353e-01
    1.2693288951974413e-02 -3.4591634777518054e-01
    1.4139828748191495e-02 -3.0276503540974919e-01
    1.3594618087700034e-02 -3.1755367441497789e-01
    1.2693288951974413e-02 -3.4591634777518054e-01
    1.5503506838653499e-02 -2.7160723812755555e-01
    1.5503506838653499e-02 -2.7160723812755555e-01
    2.6215944142532380e-02 -1.5309310892394862e-01
    2.2792882888923706e-02 -1.7747130188322274e-01
    3.1983152013244871e-02 -1.2451456127293804e-01
    4.5056706089890521e-02 -8.7705801930702917e-02 1. 0.
    4.5056706089890521e-02 -8.7705801930702917e-02
    3.1983152013244871e-02 -1.2451456127293804e-01
    2.2792882888923706e-02 -1.7747130188322274e-01
    1.6376970472803395e-02 -2.5503068522533529e-01
    1.5503506838653499e-02 -2.7160723812755555e-01
    1.4139828748191495e-02 -3.0276503540974919e-01
    1.0137563918947594e-02 -4.7360222277831504e-01
    9.5660685173358326e-03 -5.2138724590670116e-01
    9.0336052203319819e-03 -5.8028845747399715e-01
    8.8626066935145499e-03 -6.0380736442456007e-01
    8.1044985522716519e-03 -7.7302068252392586e-01
    8.1760312592528608e-03 -7.4801324154309567e-01
    7.9899834377524879e-03 -8.2431012336812881e-01
    7.8820441140313967e-03 -9.0523170760001803e-01
    7.8451947111156783e-03 -9.7735555485044179e-01
    7.9100244793200627e-03 -1.1394058162196150e+00
    7.9458977902506587e-03 -1.1755076272905174e+00
    7.8451947111156783e-03 -9.7735555485044179e-01
    7.8820441140313967e-03 -9.0523170760001803e-01
    7.8543585907858201e-03 -1.0549422855334083e+00
    7.8433657812129586e-03 -1.0076629473115579e+00
    7.8451947111156783e-03 -9.7735555485044179e-01
    7.8709348144806197e-03 -9.1927711955384339e-01
    7.9100244793200644e-03 -8.7765042600700105e-01
    7.9899834377524879e-03 -8.2431012336812881e-01
    8.4025569893091331e-03 -6.8695714011832687e-01
    8.0426845227602531e-03 -7.9843597113356557e-01
    1.0137563918947594e-02 -4.7360222277831504e-01
    1.0137563918947594e-02 -4.7360222277831504e-01
    1.0903216305317483e-02 -4.2447635997800887e-01
    1.1669553216779874e-02 -3.8616422286061647e-01
    1.4139828748191495e-02 -3.0276503540974919e-01
    1.4139828748191495e-02 -3.0276503540974919e-01
    1.3116514250127385e-02 -3.3191789877230748e-01
    1.4768569464600988e-02 -2.8747978728803447e-01
    1.7436979325995906e-02 -2.3759548165574573e-01
    2.0467313440889617e-02 -1.9920476822239894e-01
    2.6215944142532380e-02 -1.5309310892394862e-01
    3.1983152013244871e-02 -1.2451456127293804e-01 1. 0.
    4.5056706089890521e-02 -8.7705801930702917e-02
    4.5056706089890521e-02 -8.7705801930702917e-02
    1.6376970472803395e-02 -2.5503068522533529e-01
    1.4768569464600988e-02 -2.8747978728803447e-01
    1.4768569464600988e-02 -2.8747978728803447e-01
    1.0307546898193310e-02 -4.6147910349544863e-01
    9.6946595733949040e-03 -5.0952466536506813e-01
    9.2267821825519659e-03 -5.5677643628300222e-01
    8.7845205309251759e-03 -6.1558701125109239e-01
    8.1044985522716519e-03 -7.7302068252392586e-01
    8.0426845227602531e-03 -7.9843597113356557e-01
    7.9269564098172693e-03 -8.6409875978771455e-01
    7.8617128607403955e-03 -9.3350338586883097e-01
    7.8543585907858201e-03 -9.4791915511697566e-01
    7.9269564098172693e-03 -8.6409875978771455e-01
    7.9458977902506587e-03 -1.1755076272905174e+00
    7.8451947111156783e-03 -1.0231690964840563e+00
    7.8451947111156783e-03 -9.7735555485044179e-01
    7.8617128607403955e-03 -9.3350338586883097e-01
    7.8451947111156783e-03 -1.0231690964840563e+00
    7.8543585907858201e-03 -9.4791915511697566e-01
    7.8543585907858201e-03 -9.4791915511697566e-01
    7.8950646087588405e-03 -8.9135882109575004e-01
    7.9899834377524879e-03 -8.2431012336812881e-01
    7.9269564098172693e-03 -8.6409875978771455e-01
    7.9269564098172693e-03 -8.6409875978771455e-01
    8.0152283140463593e-03 -8.1131242323858566e-01
    8.1760312592528608e-03 -7.4801324154309567e-01
    8.3513281988106397e-03 -6.9902529541953184e-01
    8.7109661554874290e-03 -6.2738905096964803e-01
    1.0490749713762014e-02 -4.4926035033744194e-01
    1.0903216305317483e-02 -4.2447635997800887e-01
    1.3594618087700034e-02 -3.1755367441497789e-01
    1.3594618087700034e-02 -3.1755367441497789e-01
    1.3116514250127385e-02 -3.3191789877230748e-01
    1.6376970472803395e-02 -2.5503068522533529e-01
    1.7436979325995906e-02 -2.3759548165574573e-01
    2.6215944142532380e-02 -1.5309310892394862e-01
    3.1983152013244871e-02 -1.2451456127293804e-01 1. 0.
    4.5056706089890521e-02 -8.7705801930702917e-02
    2.0467313440889617e-02 -1.9920476822239894e-01
    1.7436979325995906e-02 -2.3759548165574573e-01
    1.5503506838653499e-02 -2.7160723812755555e-01
    1.0307546898193310e-02 -4.6147910349544863e-01
    9.2267821825519659e-03 -5.5677643628300222e-01
    9.1272202099950874e-03 -5.6853524361496122e-01
    8.4025569893091331e-03 -6.8695714011832687e-01
    7.9668909517777581e-03 -8.3743578935862395e-01
    8.0724172841340064e-03 -7.8567420131838617e-01
    8.0152283140463593e-03 -8.1131242323858566e-01
    7.8488564124637693e-03 -9.6253342187962176e-01
    8.2580143404345080e-03 -7.2336423325561816e-01
    8.0426845227602531e-03 -7.9843597113356557e-01
    7.8433657812129586e-03 -9.9239532689774657e-01
    8.3031933414133251e-03 -1.4061552998416382e+00
    7.9668909517777563e-03 -1.1941214033447041e+00
    8.1044985522716519e-03 -1.2936264483053455e+00
    7.8433657812129586e-03 -9.9239532689774657e-01
    7.8488564124637693e-03 -9.6253342187962176e-01
    7.9668909517777563e-03 -1.1941214033447041e+00
    7.9100244793200644e-03 -8.7765042600700105e-01
    7.9100244793200644e-03 -8.7765042600700105e-01
    7.8451947111156783e-03 -9.7735555485044179e-01
    7.8488564124637693e-03 -9.6253342187962176e-01
    7.8433657812129586e-03 -9.9239532689774657e-01
    7.8820441140313967e-03 -9.0523170760001803e-01
    8.1760312592528608e-03 -7.4801324154309567e-01
    8.1760312592528608e-03 -7.4801324154309567e-01
    8.4570311869997545e-03 -6.7494855771055295e-01
    8.5763974305428717e-03 -6.5108604921182345e-01
    1.0307546898193310e-02 -4.6147910349544863e-01
    1.0490749713762014e-02 -4.4926035033744194e-01
    1.2315625979330455e-02 -3.5959747611403808e-01
    1.3116514250127385e-02 -3.3191789877230748e-01
    1.5503506838653499e-02 -2.7160723812755555e-01
    1.7436979325995906e-02 -2.3759548165574573e-01
    2.0467313440889617e-02 -1.9920476822239894e-01
    2.2792882888923706e-02 -1.7747130188322274e-01 1. 0.
    3.1983152013244871e-02 -1.2451456127293804e-01
    2.0467313440889617e-02 -1.9920476822239894e-01
    1.0903216305317483e-02 -4.2447635997800887e-01
    1.0688705842501839e-02 -4.3693144875265150e-01
    9.9794861152001264e-03 -4.8564293117863211e-01
    9.1272202099950874e-03 -5.6853524361496122e-01
    8.5149170863985553e-03 -6.6299354413179590e-01
    8.0724172841340064e-03 -7.8567420131838617e-01
    7.9899834377524879e-03 -8.2431012336812881e-01
    8.4025569893091331e-03 -6.8695714011832687e-01
    7.8820441140313967e-03 -9.0523170760001803e-01
    7.8488564124637693e-03 -9.6253342187962176e-01
    7.8617128607403955e-03 -9.3350338586883097e-01
    8.2156652697983699e-03 -1.3593476696403028e+00
    7.9458977902506587e-03 -1.1755076272905174e+00
    8.0426845227602531e-03 -1.2524485821702989e+00
    8.0724172841340064e-03 -1.2727922061357855e+00
    8.1760312592528608e-03 -1.3368747295663839e+00
    8.0426845227602531e-03 -1.2524485821702989e+00
    7.9899834377524879e-03 -1.2131356532587556e+00
    7.8709348144806197e-03 -1.0878112581387147e+00
    7.8433657812129586e-03 -9.9239532689774657e-01
    7.8617128607403955e-03 -9.3350338586883097e-01
    7.9100244793200644e-03 -8.7765042600700105e-01
    7.8488564124637710e-03 -1.0389249632986397e+00
    7.8543585907858201e-03 -1.0549422855334083e+00
    7.8543585907858201e-03 -9.4791915511697566e-01
    7.8617128607403955e-03 -9.3350338586883097e-01
    7.8488564124637710e-03 -1.0389249632986397e+00
    8.0724172841340064e-03 -7.8567420131838617e-01
    8.2580143404345080e-03 -7.2336423325561816e-01
    8.5149170863985553e-03 -6.6299354413179590e-01
    1.0307546898193310e-02 -4.6147910349544863e-01
    1.0307546898193310e-02 -4.6147910349544863e-01
    1.3594618087700034e-02 -3.1755367441497789e-01
    1.4139828748191495e-02 -3.0276503540974919e-01
    1.4768569464600988e-02 -2.8747978728803447e-01
    1.8758602623052748e-02 -2.1908902300206642e-01
    2.6215944142532380e-02 -1.5309310892394862e-01 1. 0.
    2.2792882888923706e-02 -1.7747130188322274e-01
    2.0467313440889617e-02 -1.9920476822239894e-01
    1.0307546898193310e-02 -4.6147910349544863e-01
    1.0137563918947594e-02 -4.7360222277831504e-01
    1.1669553216779874e-02 -3.8616422286061647e-01
    8.2580143404345080e-03 -7.2336423325561816e-01
    7.9899834377524879e-03 -8.2431012336812881e-01
    7.9668909517777581e-03 -8.3743578935862395e-01
    8.0724172841340064e-03 -7.8567420131838617e-01
    7.8950646087588405e-03 -8.9135882109575004e-01
    8.1044985522716519e-03 -1.2936264483053455e+00
    8.0724172841340064e-03 -1.2727922061357855e+00
    8.3031933414133251e-03 -1.4061552998416382e+00
    8.2580143404345080e-03 -1.3824294235551815e+00
    7.9899834377524879e-03 -1.2131356532587556e+00
    7.8543585907858201e-03 -1.0549422855334083e+00
    7.9458977902506587e-03 -1.1755076272905174e+00
    7.8451947111156783e-03 -9.7735555485044179e-01
    7.8488564124637693e-03 -9.6253342187962176e-01
    7.8709348144806197e-03 -1.0878112581387147e+00
    7.8433657812129586e-03 -1.0076629473115579e+00
    8.1390075312457455e-03 -1.3149778198382915e+00
    8.0426845227602531e-03 -1.2524485821702989e+00
    7.9668909517777563e-03 -1.1941214033447041e+00
    7.8433657812129586e-03 -1.0076629473115579e+00
    7.8543585907858201e-03 -1.0549422855334083e+00
    7.8820441140313949e-03 -1.1046895414779878e+00
    7.8709348144806197e-03 -9.1927711955384339e-01
    7.8488564124637693e-03 -9.6253342187962176e-01
    7.8709348144806197e-03 -9.1927711955384339e-01
    7.9899834377524879e-03 -8.2431012336812881e-01
    8.3031933414133233e-03 -7.1115900221875938e-01
    8.6416732787329472e-03 -6.3921995473986459e-01
    1.0688705842501839e-02 -4.3693144875265150e-01
    1.1136412353692129e-02 -4.1187723552395700e-01
    1.4768569464600988e-02 -2.8747978728803447e-01
    1.5503506838653499e-02 -2.7160723812755555e-01
    1.8758602623052748e-02 -2.1908902300206642e-01
    2.0467313440889617e-02 -1.9920476822239894e-01
    4.5056706089890521e-02 -8.7705801930702917e-02
    2.2792882888923706e-02 -1.7747130188322274e-01
    1.6376970472803395e-02 -2.5503068522533529e-01
    1.3594618087700034e-02 -3.1755367441497789e-01
    1.2693288951974413e-02 -3.4591634777518054e-01
    8.9455240895245907e-03 -5.9204346455097867e-01
    8.0724172841340064e-03 -7.8567420131838617e-01
    7.8709348144806197e-03 -9.1927711955384339e-01
    7.8543585907858201e-03 -9.4791915511697566e-01
    7.8488564124637693e-03 -9.6253342187962176e-01
    7.8617128607403955e-03 -1.0712333936199701e+00
    7.9899834377524879e-03 -1.2131356532587556e+00
    7.9100244793200627e-03 -1.1394058162196150e+00
    7.9458977902506587e-03 -1.1755076272905174e+00
    7.8488564124637710e-03 -1.0389249632986397e+00
    7.8488564124637710e-03 -1.0389249632986397e+00
    7.8451947111156783e-03 -9.7735555485044179e-01
    7.8543585907858201e-03 -9.4791915511697566e-01
    7.8433657812129586e-03 -1.0076629473115579e+00
    7.8451947111156783e-03 -1.0231690964840563e+00
    7.8950646087588405e-03 -8.9135882109575004e-01
    7.8433657812129586e-03 -9.9239532689774657e-01
    7.8451947111156783e-03 -9.7735555485044179e-01
    7.8543585907858201e-03 -9.4791915511697566e-01
    7.8820441140313949e-03 -1.1046895414779878e+00
    8.1044985522716519e-03 -1.2936264483053455e+00
    8.0426845227602531e-03 -1.2524485821702989e+00
    7.8543585907858201e-03 -9.4791915511697566e-01
    7.8488564124637693e-03 -9.6253342187962176e-01
    7.8451947111156783e-03 -1.0231690964840563e+00
    7.8433657812129586e-03 -1.0076629473115579e+00
    7.8488564124637693e-03 -9.6253342187962176e-01
    7.8950646087588405e-03 -8.9135882109575004e-01
    8.2156652697983699e-03 -7.3564697415828151e-01
    8.7109661554874290e-03 -6.2738905096964803e-01
    1.1136412353692129e-02 -4.1187723552395700e-01
    1.1136412353692129e-02 -4.1187723552395700e-01
    1.4768569464600988e-02 -2.8747978728803447e-01
    1.6376970472803395e-02 -2.5503068522533529e-01
    1.8758602623052748e-02 -2.1908902300206642e-01 1. 0.
    2.0467313440889617e-02 -1.9920476822239894e-01
    1.6376970472803395e-02 -2.5503068522533529e-01
    1.3594618087700034e-02 -3.1755367441497789e-01
    9.3327536231540692e-03 -5.4500431463456966e-01
    8.1760312592528608e-03 -7.4801324154309567e-01
    8.1044985522716519e-03 -7.7302068252392586e-01
    7.8950646087588405e-03 -8.9135882109575004e-01
    7.8451947111156783e-03 -1.0231690964840563e+00
    7.9668909517777581e-03 -8.3743578935862395e-01
    7.8543585907858201e-03 -1.0549422855334083e+00
    7.8433657812129586e-03 -9.9239532689774657e-01
    7.8451947111156783e-03 -1.0231690964840563e+00
    7.9269564098172693e-03 -1.1572751247156889e+00
    7.8451947111156783e-03 -1.0231690964840563e+00
    7.9269564098172693e-03 -8.6409875978771455e-01
    7.9668909517777581e-03 -8.3743578935862395e-01
    7.9458977902506587e-03 -8.5069630922340067e-01
    7.9668909517777581e-03 -8.3743578935862395e-01
    7.8820441140313967e-03 -9.0523170760001803e-01
    7.8488564124637710e-03 -1.0389249632986397e+00
    7.8433657812129586e-03 -1.0076629473115579e+00
    7.8543585907858201e-03 -9.4791915511697566e-01
    7.8820441140313967e-03 -9.0523170760001803e-01
    7.8709348144806197e-03 -9.1927711955384339e-01
    8.1044985522716519e-03 -1.2936264483053455e+00
    7.9668909517777563e-03 -1.1941214033447041e+00
    8.2156652697983699e-03 -1.3593476696403028e+00
    7.8433657812129586e-03 -1.0076629473115579e+00
    7.8488564124637710e-03 -1.0389249632986397e+00
    7.8433657812129586e-03 -9.9239532689774657e-01
    7.8617128607403955e-03 -9.3350338586883097e-01
    7.8488564124637693e-03 -9.6253342187962176e-01
    7.8820441140313967e-03 -9.0523170760001803e-01
    8.1044985522716519e-03 -7.7302068252392586e-01
    8.9455240895245907e-03 -5.9204346455097867e-01
    1.1136412353692129e-02 -4.1187723552395700e-01
    1.3116514250127385e-02 -3.3191789877230748e-01
    1.5503506838653499e-02 -2.7160723812755555e-01
    1.5503506838653499e-02 -2.7160723812755555e-01
    3.1983152013244871e-02 -1.2451456127293804e-01
    1.7436979325995906e-02 -2.3759548165574573e-01
    1.6376970472803395e-02 -2.5503068522533529e-01
    1.0307546898193310e-02 -4.6147910349544863e-01
    8.3031933414133233e-03 -7.1115900221875938e-01
    8.3513281988106397e-03 -6.9902529541953184e-01
    8.3031933414133233e-03 -7.1115900221875938e-01
    7.9269564098172693e-03 -8.6409875978771455e-01
    7.9899834377524879e-03 -8.2431012336812881e-01
    7.8451947111156783e-03 -9.7735555485044179e-01
    7.9269564098172693e-03 -1.1572751247156889e+00
    7.8433657812129586e-03 -9.9239532689774657e-01
    7.8451947111156783e-03 -9.7735555485044179e-01
    7.8451947111156783e-03 -1.0231690964840563e+00
    7.8709348144806197e-03 -1.0878112581387147e+00
    7.9100244793200644e-03 -8.7765042600700105e-01
    7.8709348144806197e-03 -9.1927711955384339e-01
    7.9269564098172693e-03 -8.6409875978771455e-01
    8.0724172841340064e-03 -7.8567420131838617e-01
    7.9269564098172693e-03 -8.6409875978771455e-01
    7.8950646087588405e-03 -8.9135882109575004e-01
    7.8820441140313967e-03 -9.0523170760001803e-01
    7.8709348144806197e-03 -9.1927711955384339e-01
    7.8709348144806197e-03 -9.1927711955384339e-01
    7.8950646087588405e-03 -8.9135882109575004e-01
    7.8451947111156783e-03 -9.7735555485044179e-01
    7.8433657812129586e-03 -9.9239532689774657e-01
    8.2156652697983699e-03 -1.3593476696403028e+00
    7.9899834377524879e-03 -1.2131356532587556e+00
    8.1044985522716519e-03 -1.2936264483053455e+00
    7.8709348144806197e-03 -1.0878112581387147e+00
    7.8451947111156783e-03 -9.7735555485044179e-01
    7.8617128607403955e-03 -9.3350338586883097e-01
    7.8617128607403955e-03 -9.3350338586883097e-01
    7.9899834377524879e-03 -8.2431012336812881e-01
    8.7109661554874290e-03 -6.2738905096964803e-01
    1.0490749713762014e-02 -4.4926035033744194e-01
    1.2693288951974413e-02 -3.4591634777518054e-01
    1.4768569464600988e-02 -2.8747978728803447e-01
    1.6376970472803395e-02 -2.5503068522533529e-01
    2.6215944142532380e-02 -1.5309310892394862e-01
    1.5503506838653499e-02 -2.7160723812755555e-01
    1.4768569464600988e-02 -2.8747978728803447e-01
    8.9455240895245907e-03 -5.9204346455097867e-01
    8.3031933414133233e-03 -7.1115900221875938e-01
    8.7109661554874290e-03 -6.2738905096964803e-01
    8.4025569893091331e-03 -6.8695714011832687e-01
    7.8820441140313967e-03 -9.0523170760001803e-01
    7.8451947111156783e-03 -9.7735555485044179e-01
    7.8488564124637710e-03 -1.0389249632986397e+00
    7.9100244793200627e-03 -1.1394058162196150e+00
    7.8488564124637710e-03 -1.0389249632986397e+00
    7.8543585907858201e-03 -9.4791915511697566e-01
    8.1390075312457455e-03 -7.6046910062937345e-01
    7.9269564098172693e-03 -8.6409875978771455e-01
    7.9100244793200644e-03 -8.7765042600700105e-01
    7.9100244793200644e-03 -8.7765042600700105e-01
    8.0152283140463593e-03 -8.1131242323858566e-01
    7.9100244793200644e-03 -8.7765042600700105e-01
    7.9269564098172693e-03 -8.6409875978771455e-01
    8.0152283140463593e-03 -8.1131242323858566e-01
    8.1390075312457455e-03 -7.6046910062937345e-01
    7.9458977902506587e-03 -8.5069630922340067e-01
    7.9100244793200644e-03 -8.7765042600700105e-01
    7.8488564124637693e-03 -9.6253342187962176e-01
    7.8433657812129586e-03 -9.9239532689774657e-01
    7.8820441140313967e-03 -9.0523170760001803e-01
    7.8543585907858201e-03 -1.0549422855334083e+00
    8.2156652697983699e-03 -1.3593476696403028e+00
    8.1390075312457455e-03 -1.3149778198382915e+00
    8.0426845227602531e-03 -1.2524485821702989e+00
    7.8433657812129586e-03 -1.0076629473115579e+00
    7.8543585907858201e-03 -9.4791915511697566e-01
    7.8488564124637693e-03 -9.6253342187962176e-01
    7.8617128607403955e-03 -9.3350338586883097e-01
    8.0724172841340064e-03 -7.8567420131838617e-01
    9.6946595733949040e-03 -5.0952466536506813e-01
    1.0490749713762014e-02 -4.4926035033744194e-01
    1.4139828748191495e-02 -3.0276503540974919e-01
    1.6376970472803395e-02 -2.5503068522533529e-01
    3.1983152013244871e-02 -1.2451456127293804e-01
    1.5503506838653499e-02 -2.7160723812755555e-01
    1.1390837096227954e-02 -3.9911406314264353e-01
    8.7845205309251759e-03 -6.1558701125109239e-01
    8.3513281988106397e-03 -6.9902529541953184e-01
    8.0724172841340064e-03 -7.8567420131838617e-01
    7.9668909517777581e-03 -8.3743578935862395e-01
    7.9899834377524879e-03 -8.2431012336812881e-01
    7.8488564124637710e-03 -1.0389249632986397e+00
    7.8709348144806197e-03 -1.0878112581387147e+00
    7.8709348144806197e-03 -9.1927711955384339e-01
    7.8433657812129586e-03 -9.9239532689774657e-01
    7.8451947111156783e-03 -9.7735555485044179e-01
    8.0426845227602531e-03 -7.9843597113356557e-01
    7.8950646087588405e-03 -8.9135882109575004e-01
    7.8950646087588405e-03 -8.9135882109575004e-01
    7.9269564098172693e-03 -8.6409875978771455e-01
    7.9269564098172693e-03 -8.6409875978771455e-01
    7.9458977902506587e-03 -8.5069630922340067e-01
    7.9269564098172693e-03 -8.6409875978771455e-01
    8.0152283140463593e-03 -8.1131242323858566e-01
    8.0724172841340064e-03 -7.8567420131838617e-01
    8.0152283140463593e-03 -8.1131242323858566e-01
    7.9668909517777581e-03 -8.3743578935862395e-01
    7.8820441140313967e-03 -9.0523170760001803e-01
    7.8543585907858201e-03 -9.4791915511697566e-01
    7.8617128607403955e-03 -1.0712333936199701e+00
    7.8451947111156783e-03 -1.0231690964840563e+00
    8.2580143404345080e-03 -1.3824294235551815e+00
    8.0426845227602531e-03 -1.2524485821702989e+00
    8.1390075312457455e-03 -1.3149778198382915e+00
    7.8543585907858201e-03 -1.0549422855334083e+00
    7.8433657812129586e-03 -9.9239532689774657e-01
    7.8451947111156783e-03 -1.0231690964840563e+00
    7.8543585907858201e-03 -9.4791915511697566e-01
    7.8820441140313967e-03 -9.0523170760001803e-01
    8.5763974305428717e-03 -6.5108604921182345e-01
    9.6946595733949040e-03 -5.0952466536506813e-01
    1.4139828748191495e-02 -3.0276503540974919e-01
    1.6376970472803395e-02 -2.5503068522533529e-01
    2.2792882888923706e-02 -1.7747130188322274e-01
    1.4768569464600988e-02 -2.8747978728803447e-01
    9.0336052203319819e-03 -5.8028845747399715e-01
    8.5763974305428717e-03 -6.5108604921182345e-01
    7.9100244793200644e-03 -8.7765042600700105e-01
    7.9269564098172693e-03 -8.6409875978771455e-01
    8.0724172841340064e-03 -7.8567420131838617e-01
    7.8543585907858201e-03 -1.0549422855334083e+00
    7.8950646087588422e-03 -1.1218826541377547e+00
    7.8820441140313967e-03 -9.0523170760001803e-01
    7.8488564124637693e-03 -9.6253342187962176e-01
    7.8451947111156783e-03 -9.7735555485044179e-01
    7.8451947111156783e-03 -1.0231690964840563e+00
    7.9269564098172693e-03 -8.6409875978771455e-01
    7.9668909517777581e-03 -8.3743578935862395e-01
    7.9668909517777581e-03 -8.3743578935862395e-01
    8.0426845227602531e-03 -7.9843597113356557e-01
    8.4025569893091331e-03 -6.8695714011832687e-01
    7.9269564098172693e-03 -8.6409875978771455e-01
    8.0426845227602531e-03 -7.9843597113356557e-01
    8.1760312592528608e-03 -7.4801324154309567e-01
    8.1390075312457455e-03 -7.6046910062937345e-01
    8.2580143404345080e-03 -7.2336423325561816e-01
    7.8709348144806197e-03 -9.1927711955384339e-01
    7.8488564124637693e-03 -9.6253342187962176e-01
    7.8451947111156783e-03 -9.7735555485044179e-01
    7.8488564124637710e-03 -1.0389249632986397e+00
    7.8488564124637693e-03 -9.6253342187962176e-01
    7.9269564098172693e-03 -1.1572751247156889e+00
    7.9668909517777563e-03 -1.1941214033447041e+00
    8.0724172841340064e-03 -1.2727922061357855e+00
    8.0426845227602531e-03 -1.2524485821702989e+00
    7.8433657812129586e-03 -1.0076629473115579e+00
    7.8709348144806197e-03 -9.1927711955384339e-01
    7.8433657812129586e-03 -9.9239532689774657e-01
    7.8617128607403955e-03 -9.3350338586883097e-01
    8.3031933414133233e-03 -7.1115900221875938e-01
    9.3327536231540692e-03 -5.4500431463456966e-01
    9.5660685173358326e-03 -5.2138724590670116e-01
    1.4139828748191495e-02 -3.0276503540974919e-01
    1.8758602623052748e-02 -2.1908902300206642e-01
    1.2693288951974413e-02 -3.4591634777518054e-01
    9.0336052203319819e-03 -5.8028845747399715e-01
    8.5149170863985553e-03 -6.6299354413179590e-01
    7.9458977902506587e-03 -8.5069630922340067e-01
    7.8950646087588405e-03 -8.9135882109575004e-01
    7.8617128607403955e-03 -9.3350338586883097e-01
    7.8950646087588422e-03 -1.1218826541377547e+00
    7.8950646087588422e-03 -1.1218826541377547e+00
    7.8820441140313949e-03 -1.1046895414779878e+00
    7.8451947111156783e-03 -1.0231690964840563e+00
    7.8451947111156783e-03 -9.7735555485044179e-01
    7.9269564098172693e-03 -8.6409875978771455e-01
    7.8709348144806197e-03 -9.1927711955384339e-01
    7.9668909517777581e-03 -8.3743578935862395e-01
    8.2580143404345080e-03 -7.2336423325561816e-01
    8.2156652697983699e-03 -7.3564697415828151e-01
    8.4025569893091331e-03 -6.8695714011832687e-01
    8.5149170863985553e-03 -6.6299354413179590e-01
    8.5763974305428717e-03 -6.5108604921182345e-01
    8.5763974305428717e-03 -6.5108604921182345e-01
    8.4025569893091331e-03 -6.8695714011832687e-01
    8.1760312592528608e-03 -7.4801324154309567e-01
    8.0724172841340064e-03 -7.8567420131838617e-01
    7.9668909517777581e-03 -8.3743578935862395e-01
    7.8709348144806197e-03 -9.1927711955384339e-01
    7.8543585907858201e-03 -9.4791915511697566e-01
    7.8820441140313967e-03 -9.0523170760001803e-01
    7.8820441140313949e-03 -1.1046895414779878e+00
    7.8820441140313949e-03 -1.1046895414779878e+00
    8.3513281988106380e-03 -1.4305633952771810e+00
    8.3031933414133251e-03 -1.4061552998416382e+00
    8.0152283140463576e-03 -1.2325707968432358e+00
    7.8433657812129586e-03 -9.9239532689774657e-01
    7.8820441140313967e-03 -9.0523170760001803e-01
    7.8543585907858201e-03 -9.4791915511697566e-01
    8.0426845227602531e-03 -7.9843597113356557e-01
    8.6416732787329472e-03 -6.3921995473986459e-01
    9.8321793439190997e-03 -4.9761335152811931e-01
    1.2693288951974413e-02 -3.4591634777518054e-01
    2.6215944142532380e-02 -1.5309310892394862e-01
    1.3116514250127385e-02 -3.3191789877230748e-01
    8.7845205309251759e-03 -6.1558701125109239e-01
    8.7109661554874290e-03 -6.2738905096964803e-01
    7.9899834377524879e-03 -8.2431012336812881e-01
    7.8709348144806197e-03 -9.1927711955384339e-01
    7.8617128607403955e-03 -9.3350338586883097e-01
    7.9100244793200627e-03 -1.1394058162196150e+00
    7.9458977902506587e-03 -1.1755076272905174e+00
    7.8488564124637710e-03 -1.0389249632986397e+00
    7.8617128607403955e-03 -9.3350338586883097e-01
    7.8709348144806197e-03 -9.1927711955384339e-01
    7.9458977902506587e-03 -8.5069630922340067e-01
    8.1390075312457455e-03 -7.6046910062937345e-01
    8.0724172841340064e-03 -7.8567420131838617e-01
    8.3513281988106397e-03 -6.9902529541953184e-01
    8.5149170863985553e-03 -6.6299354413179590e-01
    8.7845205309251759e-03 -6.1558701125109239e-01
    8.5149170863985553e-03 -6.6299354413179590e-01
    8.5149170863985553e-03 -6.6299354413179590e-01
    8.5763974305428717e-03 -6.5108604921182345e-01
    8.4570311869997545e-03 -6.7494855771055295e-01
    8.4025569893091331e-03 -6.8695714011832687e-01
    8.4025569893091331e-03 -6.8695714011832687e-01
    7.9899834377524879e-03 -8.2431012336812881e-01
    8.0152283140463593e-03 -8.1131242323858566e-01
    7.9100244793200644e-03 -8.7765042600700105e-01
    7.8709348144806197e-03 -9.1927711955384339e-01
    7.8451947111156783e-03 -9.7735555485044179e-01
    7.9458977902506587e-03 -1.1755076272905174e+00
    7.9899834377524879e-03 -1.2131356532587556e+00
    8.5149170863985536e-03 -1.5083103128998352e+00
    8.1390075312457455e-03 -1.3149778198382915e+00
    7.8820441140313949e-03 -1.1046895414779878e+00
    7.8433657812129586e-03 -1.0076629473115579e+00
    7.8451947111156783e-03 -9.7735555485044179e-01
    7.9899834377524879e-03 -8.2431012336812881e-01
    8.0724172841340064e-03 -7.8567420131838617e-01
    9.3327536231540692e-03 -5.4500431463456966e-01
    1.2315625979330455e-02 -3.5959747611403808e-01
    2.0467313440889617e-02 -1.9920476822239894e-01
    1.2693288951974413e-02 -3.4591634777518054e-01
    9.1272202099950874e-03 -5.6853524361496122e-01
    8.3031933414133233e-03 -7.1115900221875938e-01
    7.8543585907858201e-03 -9.4791915511697566e-01
    7.8433657812129586e-03 -9.9239532689774657e-01
    7.8488564124637693e-03 -9.6253342187962176e-01
    7.9269564098172693e-03 -1.1572751247156889e+00
    7.9899834377524879e-03 -1.2131356532587556e+00
    7.8433657812129586e-03 -1.0076629473115579e+00
    7.8543585907858201e-03 -9.4791915511697566e-01
    7.8950646087588405e-03 -8.9135882109575004e-01
    8.0426845227602531e-03 -7.9843597113356557e-01
    8.2580143404345080e-03 -7.2336423325561816e-01
    8.4570311869997545e-03 -6.7494855771055295e-01
    8.3031933414133233e-03 -7.1115900221875938e-01
    8.5763974305428717e-03 -6.5108604921182345e-01
    8.8626066935145499e-03 -6.0380736442456007e-01
    8.7109661554874290e-03 -6.2738905096964803e-01
    8.5763974305428717e-03 -6.5108604921182345e-01
    8.5149170863985553e-03 -6.6299354413179590e-01
    8.4025569893091331e-03 -6.8695714011832687e-01
    8.4025569893091331e-03 -6.8695714011832687e-01
    8.4025569893091331e-03 -6.8695714011832687e-01
    8.5763974305428717e-03 -6.5108604921182345e-01
    8.7109661554874290e-03 -6.2738905096964803e-01
    8.3513281988106397e-03 -6.9902529541953184e-01
    7.9100244793200644e-03 -8.7765042600700105e-01
    7.8617128607403955e-03 -9.3350338586883097e-01
    7.8488564124637693e-03 -9.6253342187962176e-01
    7.9668909517777563e-03 -1.1941214033447041e+00
    8.0152283140463576e-03 -1.2325707968432358e+00
    8.1760312592528608e-03 -1.3368747295663839e+00
    7.8543585907858201e-03 -1.0549422855334083e+00
    7.8451947111156783e-03 -1.0231690964840563e+00
    7.8617128607403955e-03 -1.0712333936199701e+00
    7.8617128607403955e-03 -1.0712333936199701e+00
    8.3031933414133233e-03 -7.1115900221875938e-01
    9.4456539418855678e-03 -5.3321077023086849e-01
    1.0307546898193310e-02 -4.6147910349544863e-01
    1.8758602623052748e-02 -2.1908902300206642e-01
    1.2693288951974413e-02 -3.4591634777518054e-01
    8.8626066935145499e-03 -6.0380736442456007e-01
    8.0724172841340064e-03 -7.8567420131838617e-01
    7.8433657812129586e-03 -9.9239532689774657e-01
    7.9668909517777581e-03 -8.3743578935862395e-01
    7.8617128607403955e-03 -9.3350338586883097e-01
    7.9458977902506587e-03 -1.1755076272905174e+00
    8.1044985522716519e-03 -1.2936264483053455e+00
    7.8433657812129586e-03 -1.0076629473115579e+00
    7.8488564124637693e-03 -9.6253342187962176e-01
    8.0426845227602531e-03 -7.9843597113356557e-01
    7.9899834377524879e-03 -8.2431012336812881e-01
    8.2156652697983699e-03 -7.3564697415828151e-01
    8.3513281988106397e-03 -6.9902529541953184e-01
    8.6416732787329472e-03 -6.3921995473986459e-01
    8.7109661554874290e-03 -6.2738905096964803e-01
    9.0336052203319819e-03 -5.8028845747399715e-01
    8.8626066935145499e-03 -6.0380736442456007e-01
    8.6416732787329472e-03 -6.3921995473986459e-01
    8.7109661554874290e-03 -6.2738905096964803e-01
    8.7845205309251759e-03 -6.1558701125109239e-01
    8.4025569893091331e-03 -6.8695714011832687e-01
    8.5763974305428717e-03 -6.5108604921182345e-01
    8.4570311869997545e-03 -6.7494855771055295e-01
    8.4570311869997545e-03 -6.7494855771055295e-01
    8.5149170863985553e-03 -6.6299354413179590e-01
    8.0152283140463593e-03 -8.1131242323858566e-01
    7.9100244793200644e-03 -8.7765042600700105e-01
    7.8820441140313967e-03 -9.0523170760001803e-01
    8.0152283140463576e-03 -1.2325707968432358e+00
    7.9458977902506587e-03 -1.1755076272905174e+00
    8.2156652697983699e-03 -1.3593476696403028e+00
    8.0724172841340064e-03 -1.2727922061357855e+00
    7.8820441140313949e-03 -1.1046895414779878e+00
    7.8433657812129586e-03 -1.0076629473115579e+00
    7.8709348144806197e-03 -1.0878112581387147e+00
    8.1760312592528608e-03 -7.4801324154309567e-01
    9.5660685173358326e-03 -5.2138724590670116e-01
    1.1669553216779874e-02 -3.8616422286061647e-01
    1.3594618087700034e-02 -3.1755367441497789e-01
    1.1390837096227954e-02 -3.9911406314264353e-01
    9.0336052203319819e-03 -5.8028845747399715e-01
    8.3031933414133233e-03 -7.1115900221875938e-01
    7.9899834377524879e-03 -8.2431012336812881e-01
    7.9100244793200644e-03 -8.7765042600700105e-01
    7.8617128607403955e-03 -9.3350338586883097e-01
    7.9100244793200644e-03 -8.7765042600700105e-01
    8.0426845227602531e-03 -1.2524485821702989e+00
    7.8488564124637710e-03 -1.0389249632986397e+00
    7.8820441140313967e-03 -9.0523170760001803e-01
    7.8709348144806197e-03 -9.1927711955384339e-01
    8.0724172841340064e-03 -7.8567420131838617e-01
    8.4025569893091331e-03 -6.8695714011832687e-01
    8.5149170863985553e-03 -6.6299354413179590e-01
    8.5763974305428717e-03 -6.5108604921182345e-01
    8.7109661554874290e-03 -6.2738905096964803e-01
    8.8626066935145499e-03 -6.0380736442456007e-01
    8.7109661554874290e-03 -6.2738905096964803e-01
    8.7109661554874290e-03 -6.2738905096964803e-01
    8.4025569893091331e-03 -6.8695714011832687e-01
    8.6416732787329472e-03 -6.3921995473986459e-01
    8.5149170863985553e-03 -6.6299354413179590e-01
    8.6416732787329472e-03 -6.3921995473986459e-01
    8.5763974305428717e-03 -6.5108604921182345e-01
    8.9455240895245907e-03 -5.9204346455097867e-01
    8.5763974305428717e-03 -6.5108604921182345e-01
    8.4025569893091331e-03 -6.8695714011832687e-01
    8.0426845227602531e-03 -7.9843597113356557e-01
    7.8950646087588405e-03 -8.9135882109575004e-01
    7.8709348144806197e-03 -1.0878112581387147e+00
    7.8433657812129586e-03 -1.0076629473115579e+00
    8.1390075312457455e-03 -1.3149778198382915e+00
    8.1044985522716519e-03 -1.2936264483053455e+00
    7.8709348144806197e-03 -1.0878112581387147e+00
    7.8543585907858201e-03 -1.0549422855334083e+00
    7.8433657812129586e-03 -1.0076629473115579e+00
    8.1760312592528608e-03 -7.4801324154309567e-01
    1.0307546898193310e-02 -4.6147910349544863e-01
    1.0490749713762014e-02 -4.4926035033744194e-01
    1.3594618087700034e-02 -3.1755367441497789e-01
    1.0903216305317483e-02 -4.2447635997800887e-01
    8.8626066935145499e-03 -6.0380736442456007e-01
    8.1760312592528608e-03 -7.4801324154309567e-01
    7.9269564098172693e-03 -8.6409875978771455e-01
    7.9458977902506587e-03 -8.5069630922340067e-01
    7.8543585907858201e-03 -9.4791915511697566e-01
    7.8709348144806197e-03 -9.1927711955384339e-01
    7.9458977902506587e-03 -1.1755076272905174e+00
    7.8488564124637710e-03 -1.0389249632986397e+00
    7.8820441140313949e-03 -1.1046895414779878e+00
    7.8543585907858201e-03 -9.4791915511697566e-01
    8.2156652697983699e-03 -7.3564697415828151e-01
    8.3031933414133233e-03 -7.1115900221875938e-01
    8.5149170863985553e-03 -6.6299354413179590e-01
    8.5149170863985553e-03 -6.6299354413179590e-01
    8.6416732787329472e-03 -6.3921995473986459e-01
    9.3327536231540692e-03 -5.4500431463456966e-01
    8.4025569893091331e-03 -6.8695714011832687e-01
    8.4025569893091331e-03 -6.8695714011832687e-01
    8.5149170863985553e-03 -6.6299354413179590e-01
    8.6416732787329472e-03 -6.3921995473986459e-01
    8.4570311869997545e-03 -6.7494855771055295e-01
    8.4025569893091331e-03 -6.8695714011832687e-01
    8.5149170863985553e-03 -6.6299354413179590e-01
    8.4570311869997545e-03 -6.7494855771055295e-01
    8.2156652697983699e-03 -7.3564697415828151e-01
    8.3031933414133233e-03 -7.1115900221875938e-01
    8.3513281988106397e-03 -6.9902529541953184e-01
    7.9100244793200644e-03 -8.7765042600700105e-01
    7.8950646087588422e-03 -1.1218826541377547e+00
    7.9269564098172693e-03 -1.1572751247156889e+00
    8.2156652697983699e-03 -1.3593476696403028e+00
    7.9668909517777563e-03 -1.1941214033447041e+00
    7.8617128607403955e-03 -1.0712333936199701e+00
    7.8433657812129586e-03 -1.0076629473115579e+00
    7.8488564124637693e-03 -9.6253342187962176e-01
    8.2580143404345080e-03 -7.2336423325561816e-01
    1.1136412353692129e-02 -4.1187723552395700e-01
    1.0307546898193310e-02 -4.6147910349544863e-01
    1.4139828748191495e-02 -3.0276503540974919e-01
    1.1669553216779874e-02 -3.8616422286061647e-01
    8.8626066935145499e-03 -6.0380736442456007e-01
    7.8820441140313967e-03 -9.0523170760001803e-01
    8.0724172841340064e-03 -7.8567420131838617e-01
    8.0426845227602531e-03 -7.9843597113356557e-01
    7.9668909517777581e-03 -8.3743578935862395e-01
    7.8488564124637693e-03 -9.6253342187962176e-01
    8.0724172841340064e-03 -1.2727922061357855e+00
    7.8451947111156783e-03 -9.7735555485044179e-01
    7.8488564124637710e-03 -1.0389249632986397e+00
    7.8617128607403955e-03 -9.3350338586883097e-01
    8.5763974305428717e-03 -6.5108604921182345e-01
    8.6416732787329472e-03 -6.3921995473986459e-01
    8.5763974305428717e-03 -6.5108604921182345e-01
    8.5763974305428717e-03 -6.5108604921182345e-01
    8.7845205309251759e-03 -6.1558701125109239e-01
    8.7845205309251759e-03 -6.1558701125109239e-01
    8.5149170863985553e-03 -6.6299354413179590e-01
    8.3513281988106397e-03 -6.9902529541953184e-01
    8.3031933414133233e-03 -7.1115900221875938e-01
    8.5149170863985553e-03 -6.6299354413179590e-01
    8.8626066935145499e-03 -6.0380736442456007e-01
    8.5149170863985553e-03 -6.6299354413179590e-01
    8.5149170863985553e-03 -6.6299354413179590e-01
    8.4570311869997545e-03 -6.7494855771055295e-01
    8.2156652697983699e-03 -7.3564697415828151e-01
    8.1760312592528608e-03 -7.4801324154309567e-01
    8.2156652697983699e-03 -7.3564697415828151e-01
    8.3031933414133233e-03 -7.1115900221875938e-01
    7.8950646087588422e-03 -1.1218826541377547e+00
    7.8617128607403955e-03 -1.0712333936199701e+00
    7.8950646087588422e-03 -1.1218826541377547e+00
    8.1044985522716519e-03 -1.2936264483053455e+00
    7.8709348144806197e-03 -1.0878112581387147e+00
    7.8433657812129586e-03 -9.9239532689774657e-01
    7.8451947111156783e-03 -9.7735555485044179e-01
    7.9899834377524879e-03 -8.2431012336812881e-01
    9.8321793439190997e-03 -4.9761335152811931e-01
    1.0688705842501839e-02 -4.3693144875265150e-01
    1.2693288951974413e-02 -3.4591634777518054e-01
    1.1976287243086383e-02 -3.7300192329612553e-01
    8.3513281988106397e-03 -6.9902529541953184e-01
    8.1044985522716519e-03 -7.7302068252392586e-01
    8.1390075312457455e-03 -7.6046910062937345e-01
    7.9668909517777581e-03 -8.3743578935862395e-01
    7.8950646087588405e-03 -8.9135882109575004e-01
    7.8543585907858201e-03 -9.4791915511697566e-01
    7.8451947111156783e-03 -1.0231690964840563e+00
    7.8488564124637693e-03 -9.6253342187962176e-01
    7.8950646087588405e-03 -8.9135882109575004e-01
    7.8950646087588405e-03 -8.9135882109575004e-01
    8.4570311869997545e-03 -6.7494855771055295e-01
    8.2156652697983699e-03 -7.3564697415828151e-01
    8.5763974305428717e-03 -6.5108604921182345e-01
    8.8626066935145499e-03 -6.0380736442456007e-01
    8.9455240895245907e-03 -5.9204346455097867e-01
    9.0336052203319819e-03 -5.8028845747399715e-01
    8.9455240895245907e-03 -5.9204346455097867e-01
    8.6416732787329472e-03 -6.3921995473986459e-01
    8.5763974305428717e-03 -6.5108604921182345e-01
    8.6416732787329472e-03 -6.3921995473986459e-01
    8.9455240895245907e-03 -5.9204346455097867e-01
    8.7109661554874290e-03 -6.2738905096964803e-01
    8.7845205309251759e-03 -6.1558701125109239e-01
    8.7109661554874290e-03 -6.2738905096964803e-01
    8.4025569893091331e-03 -6.8695714011832687e-01
    8.3513281988106397e-03 -6.9902529541953184e-01
    8.2156652697983699e-03 -7.3564697415828151e-01
    8.3031933414133233e-03 -7.1115900221875938e-01
    7.8451947111156783e-03 -1.0231690964840563e+00
    7.8451947111156783e-03 -1.0231690964840563e+00
    7.9668909517777563e-03 -1.1941214033447041e+00
    8.0724172841340064e-03 -1.2727922061357855e+00
    7.8488564124637693e-03 -9.6253342187962176e-01
    7.8488564124637693e-03 -9.6253342187962176e-01
    7.8433657812129586e-03 -1.0076629473115579e+00
    8.0724172841340064e-03 -7.8567420131838617e-01
    8.6416732787329472e-03 -6.3921995473986459e-01
    1.1136412353692129e-02 -4.1187723552395700e-01
    1.5503506838653499e-02 -2.7160723812755555e-01
    1.3116514250127385e-02 -3.3191789877230748e-01
    8.6416732787329472e-03 -6.3921995473986459e-01
    8.1044985522716519e-03 -7.7302068252392586e-01
    8.0426845227602531e-03 -7.9843597113356557e-01
    7.9100244793200644e-03 -8.7765042600700105e-01
    7.8950646087588405e-03 -8.9135882109575004e-01
    7.8543585907858201e-03 -9.4791915511697566e-01
    7.8488564124637710e-03 -1.0389249632986397e+00
    7.8617128607403955e-03 -9.3350338586883097e-01
    7.8950646087588405e-03 -8.9135882109575004e-01
    8.1760312592528608e-03 -7.4801324154309567e-01
    7.8820441140313967e-03 -9.0523170760001803e-01
    8.5763974305428717e-03 -6.5108604921182345e-01
    8.5149170863985553e-03 -6.6299354413179590e-01
    8.5763974305428717e-03 -6.5108604921182345e-01
    8.9455240895245907e-03 -5.9204346455097867e-01
    9.2267821825519659e-03 -5.5677643628300222e-01
    8.9455240895245907e-03 -5.9204346455097867e-01
    8.9455240895245907e-03 -5.9204346455097867e-01
    8.8626066935145499e-03 -6.0380736442456007e-01
    9.2267821825519659e-03 -5.5677643628300222e-01
    9.0336052203319819e-03 -5.8028845747399715e-01
    8.8626066935145499e-03 -6.0380736442456007e-01
    8.9455240895245907e-03 -5.9204346455097867e-01
    8.7109661554874290e-03 -6.2738905096964803e-01
    8.2580143404345080e-03 -7.2336423325561816e-01
    8.2156652697983699e-03 -7.3564697415828151e-01
    8.2580143404345080e-03 -7.2336423325561816e-01
    8.2580143404345080e-03 -7.2336423325561816e-01
    7.9269564098172693e-03 -8.6409875978771455e-01
    7.8488564124637710e-03 -1.0389249632986397e+00
    7.8950646087588422e-03 -1.1218826541377547e+00
    7.9668909517777563e-03 -1.1941214033447041e+00
    7.8488564124637693e-03 -9.6253342187962176e-01
    7.8543585907858201e-03 -9.4791915511697566e-01
    7.8433657812129586e-03 -9.9239532689774657e-01
    8.0426845227602531e-03 -7.9843597113356557e-01
    8.4025569893091331e-03 -6.8695714011832687e-01
    1.1390837096227954e-02 -3.9911406314264353e-01
    2.2792882888923706e-02 -1.7747130188322274e-01
    1.1669553216779874e-02 -3.8616422286061647e-01
    8.9455240895245907e-03 -5.9204346455097867e-01
    8.1390075312457455e-03 -7.6046910062937345e-01
    8.3513281988106397e-03 -6.9902529541953184e-01
    7.9668909517777581e-03 -8.3743578935862395e-01
    7.9458977902506587e-03 -8.5069630922340067e-01
    7.8617128607403955e-03 -9.3350338586883097e-01
    7.8433657812129586e-03 -1.0076629473115579e+00
    7.8543585907858201e-03 -9.4791915511697566e-01
    7.9100244793200644e-03 -8.7765042600700105e-01
    7.8950646087588405e-03 -8.9135882109575004e-01
    7.9100244793200644e-03 -8.7765042600700105e-01
    8.3513281988106397e-03 -6.9902529541953184e-01
    9.2267821825519659e-03 -5.5677643628300222e-01
    8.9455240895245907e-03 -5.9204346455097867e-01
    8.6416732787329472e-03 -6.3921995473986459e-01
    8.5149170863985553e-03 -6.6299354413179590e-01
    8.6416732787329472e-03 -6.3921995473986459e-01
    8.9455240895245907e-03 -5.9204346455097867e-01
    9.0336052203319819e-03 -5.8028845747399715e-01
    9.0336052203319819e-03 -5.8028845747399715e-01
    9.2267821825519659e-03 -5.5677643628300222e-01
    8.5763974305428717e-03 -6.5108604921182345e-01
    8.8626066935145499e-03 -6.0380736442456007e-01
    8.7109661554874290e-03 -6.2738905096964803e-01
    8.4025569893091331e-03 -6.8695714011832687e-01
    8.2156652697983699e-03 -7.3564697415828151e-01
    8.4025569893091331e-03 -6.8695714011832687e-01
    7.9269564098172693e-03 -8.6409875978771455e-01
    7.8488564124637710e-03 -1.0389249632986397e+00
    7.9458977902506587e-03 -8.5069630922340067e-01
    7.9269564098172693e-03 -1.1572751247156889e+00
    7.9668909517777563e-03 -1.1941214033447041e+00
    7.8433657812129586e-03 -9.9239532689774657e-01
    7.8433657812129586e-03 -9.9239532689774657e-01
    7.8543585907858201e-03 -9.4791915511697566e-01
    8.0152283140463593e-03 -8.1131242323858566e-01
    8.5149170863985553e-03 -6.6299354413179590e-01
    1.1976287243086383e-02 -3.7300192329612553e-01
    2.0467313440889617e-02 -1.9920476822239894e-01
    1.0903216305317483e-02 -4.2447635997800887e-01
    9.9794861152001264e-03 -4.8564293117863211e-01
    8.7845205309251759e-03 -6.1558701125109239e-01
    8.0426845227602531e-03 -7.9843597113356557e-01
    7.9668909517777581e-03 -8.3743578935862395e-01
    7.9269564098172693e-03 -8.6409875978771455e-01
    7.8617128607403955e-03 -9.3350338586883097e-01
    7.8950646087588405e-03 -8.9135882109575004e-01
    7.9269564098172693e-03 -8.6409875978771455e-01
    7.9100244793200644e-03 -8.7765042600700105e-01
    7.8543585907858201e-03 -9.4791915511697566e-01
    8.0152283140463593e-03 -8.1131242323858566e-01
    8.0426845227602531e-03 -7.9843597113356557e-01
    8.8626066935145499e-03 -6.0380736442456007e-01
    8.4570311869997545e-03 -6.7494855771055295e-01
    8.7845205309251759e-03 -6.1558701125109239e-01
    8.6416732787329472e-03 -6.3921995473986459e-01
    8.6416732787329472e-03 -6.3921995473986459e-01
    9.0336052203319819e-03 -5.8028845747399715e-01
    8.6416732787329472e-03 -6.3921995473986459e-01
    8.8626066935145499e-03 -6.0380736442456007e-01
    8.6416732787329472e-03 -6.3921995473986459e-01
    8.5763974305428717e-03 -6.5108604921182345e-01
    8.6416732787329472e-03 -6.3921995473986459e-01
    8.7109661554874290e-03 -6.2738905096964803e-01
    8.3031933414133233e-03 -7.1115900221875938e-01
    8.4570311869997545e-03 -6.7494855771055295e-01
    8.3513281988106397e-03 -6.9902529541953184e-01
    7.9668909517777581e-03 -8.3743578935862395e-01
    7.8950646087588405e-03 -8.9135882109575004e-01
    7.8488564124637710e-03 -1.0389249632986397e+00
    7.9458977902506587e-03 -1.1755076272905174e+00
    7.8950646087588422e-03 -1.1218826541377547e+00
    7.8543585907858201e-03 -9.4791915511697566e-01
    7.8451947111156783e-03 -9.7735555485044179e-01
    7.8617128607403955e-03 -9.3350338586883097e-01
    8.1044985522716519e-03 -7.7302068252392586e-01
    8.4025569893091331e-03 -6.8695714011832687e-01
    1.0688705842501839e-02 -4.3693144875265150e-01
    1.7436979325995906e-02 -2.3759548165574573e-01
    1.1976287243086383e-02 -3.7300192329612553e-01
    9.6946595733949040e-03 -5.0952466536506813e-01
    9.1272202099950874e-03 -5.6853524361496122e-01
    8.1760312592528608e-03 -7.4801324154309567e-01
    8.0426845227602531e-03 -7.9843597113356557e-01
    7.8950646087588405e-03 -8.9135882109575004e-01
    7.8820441140313967e-03 -9.0523170760001803e-01
    7.8820441140313967e-03 -9.0523170760001803e-01
    7.9458977902506587e-03 -8.5069630922340067e-01
    7.8543585907858201e-03 -9.4791915511697566e-01
    7.8451947111156783e-03 -9.7735555485044179e-01
    7.8488564124637693e-03 -9.6253342187962176e-01
    7.9668909517777581e-03 -8.3743578935862395e-01
    8.1760312592528608e-03 -7.4801324154309567e-01
    8.5149170863985553e-03 -6.6299354413179590e-01
    8.5149170863985553e-03 -6.6299354413179590e-01
    8.4570311869997545e-03 -6.7494855771055295e-01
    8.6416732787329472e-03 -6.3921995473986459e-01
    8.3513281988106397e-03 -6.9902529541953184e-01
    8.7109661554874290e-03 -6.2738905096964803e-01
    8.7109661554874290e-03 -6.2738905096964803e-01
    8.6416732787329472e-03 -6.3921995473986459e-01
    8.7845205309251759e-03 -6.1558701125109239e-01
    8.7845205309251759e-03 -6.1558701125109239e-01
    8.6416732787329472e-03 -6.3921995473986459e-01
    8.9455240895245907e-03 -5.9204346455097867e-01
    8.4570311869997545e-03 -6.7494855771055295e-01
    7.9100244793200644e-03 -8.7765042600700105e-01
    7.8709348144806197e-03 -9.1927711955384339e-01
    7.9100244793200644e-03 -8.7765042600700105e-01
    7.8543585907858201e-03 -9.4791915511697566e-01
    7.9458977902506587e-03 -1.1755076272905174e+00
    7.8950646087588422e-03 -1.1218826541377547e+00
    7.8433657812129586e-03 -1.0076629473115579e+00
    7.9899834377524879e-03 -8.2431012336812881e-01
    7.8709348144806197e-03 -9.1927711955384339e-01
    8.0426845227602531e-03 -7.9843597113356557e-01
    8.6416732787329472e-03 -6.3921995473986459e-01
    1.0903216305317483e-02 -4.2447635997800887e-01
    2.2792882888923706e-02 -1.7747130188322274e-01
    1.1976287243086383e-02 -3.7300192329612553e-01
    1.0137563918947594e-02 -4.7360222277831504e-01
    9.0336052203319819e-03 -5.8028845747399715e-01
    8.1760312592528608e-03 -7.4801324154309567e-01
    8.0724172841340064e-03 -7.8567420131838617e-01
    8.0152283140463593e-03 -8.1131242323858566e-01
    7.8950646087588405e-03 -8.9135882109575004e-01
    7.8820441140313967e-03 -9.0523170760001803e-01
    7.8617128607403955e-03 -9.3350338586883097e-01
    7.9668909517777581e-03 -8.3743578935862395e-01
    7.8488564124637693e-03 -9.6253342187962176e-01
    7.8617128607403955e-03 -9.3350338586883097e-01
    7.9668909517777581e-03 -8.3743578935862395e-01
    7.9668909517777581e-03 -8.3743578935862395e-01
    8.0426845227602531e-03 -7.9843597113356557e-01
    9.0336052203319819e-03 -5.8028845747399715e-01
    8.7109661554874290e-03 -6.2738905096964803e-01
    8.4570311869997545e-03 -6.7494855771055295e-01
    8.4570311869997545e-03 -6.7494855771055295e-01
    8.5149170863985553e-03 -6.6299354413179590e-01
    8.7845205309251759e-03 -6.1558701125109239e-01
    8.6416732787329472e-03 -6.3921995473986459e-01
    8.7845205309251759e-03 -6.1558701125109239e-01
    9.1272202099950874e-03 -5.6853524361496122e-01
    8.7109661554874290e-03 -6.2738905096964803e-01
    8.5149170863985553e-03 -6.6299354413179590e-01
    8.3031933414133233e-03 -7.1115900221875938e-01
    7.9100244793200644e-03 -8.7765042600700105e-01
    7.9458977902506587e-03 -8.5069630922340067e-01
    7.8617128607403955e-03 -9.3350338586883097e-01
    7.8543585907858201e-03 -1.0549422855334083e+00
    7.9899834377524879e-03 -1.2131356532587556e+00
    7.8451947111156783e-03 -9.7735555485044179e-01
    7.8433657812129586e-03 -9.9239532689774657e-01
    7.8709348144806197e-03 -9.1927711955384339e-01
    7.9100244793200644e-03 -8.7765042600700105e-01
    8.5149170863985553e-03 -6.6299354413179590e-01
    8.8626066935145499e-03 -6.0380736442456007e-01
    1.1136412353692129e-02 -4.1187723552395700e-01
    1.6376970472803395e-02 -2.5503068522533529e-01
    1.1976287243086383e-02 -3.7300192329612553e-01
    1.0307546898193310e-02 -4.6147910349544863e-01
    9.9794861152001264e-03 -4.8564293117863211e-01
    8.2580143404345080e-03 -7.2336423325561816e-01
    8.1044985522716519e-03 -7.7302068252392586e-01
    8.0724172841340064e-03 -7.8567420131838617e-01
    7.9668909517777581e-03 -8.3743578935862395e-01
    7.8709348144806197e-03 -9.1927711955384339e-01
    7.8543585907858201e-03 -9.4791915511697566e-01
    7.8433657812129586e-03 -9.9239532689774657e-01
    7.8451947111156783e-03 -9.7735555485044179e-01
    8.0724172841340064e-03 -7.8567420131838617e-01
    8.0426845227602531e-03 -7.9843597113356557e-01
    7.9668909517777581e-03 -8.3743578935862395e-01
    8.5149170863985553e-03 -6.6299354413179590e-01
    8.0152283140463593e-03 -8.1131242323858566e-01
    8.3513281988106397e-03 -6.9902529541953184e-01
    8.3513281988106397e-03 -6.9902529541953184e-01
    8.7845205309251759e-03 -6.1558701125109239e-01
    8.6416732787329472e-03 -6.3921995473986459e-01
    8.7109661554874290e-03 -6.2738905096964803e-01
    8.8626066935145499e-03 -6.0380736442456007e-01
    8.6416732787329472e-03 -6.3921995473986459e-01
    8.6416732787329472e-03 -6.3921995473986459e-01
    8.4025569893091331e-03 -6.8695714011832687e-01
    8.1044985522716519e-03 -7.7302068252392586e-01
    8.0724172841340064e-03 -7.8567420131838617e-01
    8.2580143404345080e-03 -7.2336423325561816e-01
    8.0724172841340064e-03 -7.8567420131838617e-01
    7.8543585907858201e-03 -9.4791915511697566e-01
    8.1390075312457455e-03 -1.3149778198382915e+00
    8.0724172841340064e-03 -1.2727922061357855e+00
    7.8433657812129586e-03 -1.0076629473115579e+00
    7.8950646087588405e-03 -8.9135882109575004e-01
    7.8820441140313967e-03 -9.0523170760001803e-01
    7.8950646087588405e-03 -8.9135882109575004e-01
    8.5763974305428717e-03 -6.5108604921182345e-01
    9.1272202099950874e-03 -5.6853524361496122e-01
    1.5503506838653499e-02 -2.7160723812755555e-01
    1.4768569464600988e-02 -2.8747978728803447e-01
    1.1976287243086383e-02 -3.7300192329612553e-01
    1.0307546898193310e-02 -4.6147910349544863e-01
    9.8321793439190997e-03 -4.9761335152811931e-01
    8.8626066935145499e-03 -6.0380736442456007e-01
    8.5149170863985553e-03 -6.6299354413179590e-01
    8.1390075312457455e-03 -7.6046910062937345e-01
    7.9899834377524879e-03 -8.2431012336812881e-01
    7.9269564098172693e-03 -8.6409875978771455e-01
    7.8820441140313967e-03 -9.0523170760001803e-01
    7.8820441140313967e-03 -9.0523170760001803e-01
    7.8488564124637693e-03 -9.6253342187962176e-01
    7.8820441140313949e-03 -1.1046895414779878e+00
    7.8820441140313967e-03 -9.0523170760001803e-01
    7.9269564098172693e-03 -8.6409875978771455e-01
    8.0426845227602531e-03 -7.9843597113356557e-01
    7.9668909517777581e-03 -8.3743578935862395e-01
    7.9668909517777581e-03 -8.3743578935862395e-01
    7.9100244793200644e-03 -8.7765042600700105e-01
    7.9458977902506587e-03 -8.5069630922340067e-01
    8.7109661554874290e-03 -6.2738905096964803e-01
    8.1760312592528608e-03 -7.4801324154309567e-01
    8.0426845227602531e-03 -7.9843597113356557e-01
    8.0426845227602531e-03 -7.9843597113356557e-01
    7.8950646087588405e-03 -8.9135882109575004e-01
    7.8950646087588405e-03 -8.9135882109575004e-01
    7.8820441140313967e-03 -9.0523170760001803e-01
    7.9100244793200644e-03 -8.7765042600700105e-01
    7.8820441140313967e-03 -9.0523170760001803e-01
    8.0426845227602531e-03 -7.9843597113356557e-01
    7.8950646087588422e-03 -1.1218826541377547e+00
    8.2156652697983699e-03 -1.3593476696403028e+00
    7.8543585907858201e-03 -1.0549422855334083e+00
    7.8488564124637710e-03 -1.0389249632986397e+00
    7.8950646087588405e-03 -8.9135882109575004e-01
    7.8820441140313967e-03 -9.0523170760001803e-01
    7.9100244793200644e-03 -8.7765042600700105e-01
    8.4025569893091331e-03 -6.8695714011832687e-01
    9.3327536231540692e-03 -5.4500431463456966e-01
    1.5503506838653499e-02 -2.7160723812755555e-01
    1.6376970472803395e-02 -2.5503068522533529e-01
    1.3116514250127385e-02 -3.3191789877230748e-01
    1.1669553216779874e-02 -3.8616422286061647e-01
    1.0137563918947594e-02 -4.7360222277831504e-01
    9.1272202099950874e-03 -5.6853524361496122e-01
    9.0336052203319819e-03 -5.8028845747399715e-01
    8.4570311869997545e-03 -6.7494855771055295e-01
    8.0724172841340064e-03 -7.8567420131838617e-01
    8.1390075312457455e-03 -7.6046910062937345e-01
    7.9899834377524879e-03 -8.2431012336812881e-01
    7.8709348144806197e-03 -9.1927711955384339e-01
    7.8709348144806197e-03 -9.1927711955384339e-01
    7.9269564098172693e-03 -1.1572751247156889e+00
    7.9668909517777563e-03 -1.1941214033447041e+00
    7.8950646087588405e-03 -8.9135882109575004e-01
    7.8950646087588405e-03 -8.9135882109575004e-01
    8.0426845227602531e-03 -7.9843597113356557e-01
    8.0724172841340064e-03 -7.8567420131838617e-01
    7.9899834377524879e-03 -8.2431012336812881e-01
    7.9100244793200644e-03 -8.7765042600700105e-01
    8.0724172841340064e-03 -7.8567420131838617e-01
    7.9269564098172693e-03 -8.6409875978771455e-01
    7.9668909517777581e-03 -8.3743578935862395e-01
    7.9899834377524879e-03 -8.2431012336812881e-01
    7.9899834377524879e-03 -8.2431012336812881e-01
    7.9899834377524879e-03 -8.2431012336812881e-01
    7.9899834377524879e-03 -8.2431012336812881e-01
    7.9100244793200644e-03 -8.7765042600700105e-01
    7.9100244793200644e-03 -8.7765042600700105e-01
    7.9269564098172693e-03 -8.6409875978771455e-01
    7.9269564098172693e-03 -1.1572751247156889e+00
    7.8617128607403955e-03 -1.0712333936199701e+00
    7.8488564124637710e-03 -1.0389249632986397e+00
    7.8488564124637693e-03 -9.6253342187962176e-01
    7.9269564098172693e-03 -8.6409875978771455e-01
    8.0152283140463593e-03 -8.1131242323858566e-01
    7.9269564098172693e-03 -8.6409875978771455e-01
    8.4025569893091331e-03 -6.8695714011832687e-01
    1.0903216305317483e-02 -4.2447635997800887e-01
    1.5503506838653499e-02 -2.7160723812755555e-01
    1.8758602623052748e-02 -2.1908902300206642e-01
    1.4768569464600988e-02 -2.8747978728803447e-01
    1.2693288951974413e-02 -3.4591634777518054e-01
    1.1390837096227954e-02 -3.9911406314264353e-01
    9.8321793439190997e-03 -4.9761335152811931e-01
    9.5660685173358326e-03 -5.2138724590670116e-01
    1.0137563918947594e-02 -4.7360222277831504e-01
    8.4025569893091331e-03 -6.8695714011832687e-01
    8.4570311869997545e-03 -6.7494855771055295e-01
    8.0724172841340064e-03 -7.8567420131838617e-01
    7.8617128607403955e-03 -9.3350338586883097e-01
    7.9899834377524879e-03 -8.2431012336812881e-01
    7.8709348144806197e-03 -9.1927711955384339e-01
    7.8820441140313949e-03 -1.1046895414779878e+00
    7.9899834377524879e-03 -1.2131356532587556e+00
    7.9100244793200627e-03 -1.1394058162196150e+00
    7.8820441140313967e-03 -9.0523170760001803e-01
    7.9100244793200644e-03 -8.7765042600700105e-01
    8.0426845227602531e-03 -7.9843597113356557e-01
    8.0426845227602531e-03 -7.9843597113356557e-01
    8.0724172841340064e-03 -7.8567420131838617e-01
    7.9668909517777581e-03 -8.3743578935862395e-01
    7.9899834377524879e-03 -8.2431012336812881e-01
    8.0152283140463593e-03 -8.1131242323858566e-01
    8.0152283140463593e-03 -8.1131242323858566e-01
    7.9899834377524879e-03 -8.2431012336812881e-01
    7.9269564098172693e-03 -8.6409875978771455e-01
    8.2580143404345080e-03 -7.2336423325561816e-01
    7.9269564098172693e-03 -8.6409875978771455e-01
    7.9899834377524879e-03 -8.2431012336812881e-01
    8.1760312592528608e-03 -1.3368747295663839e+00
    7.8433657812129586e-03 -1.0076629473115579e+00
    7.8488564124637693e-03 -9.6253342187962176e-01
    7.8433657812129586e-03 -9.9239532689774657e-01
    7.9668909517777581e-03 -8.3743578935862395e-01
    8.1044985522716519e-03 -7.7302068252392586e-01
    8.4025569893091331e-03 -6.8695714011832687e-01
    9.3327536231540692e-03 -5.4500431463456966e-01
    1.1669553216779874e-02 -3.8616422286061647e-01
    1.8758602623052748e-02 -2.1908902300206642e-01
    1.8758602623052748e-02 -2.1908902300206642e-01
    1.7436979325995906e-02 -2.3759548165574573e-01
    1.3116514250127385e-02 -3.3191789877230748e-01
    1.1976287243086383e-02 -3.7300192329612553e-01
    1.0137563918947594e-02 -4.7360222277831504e-01
    9.6946595733949040e-03 -5.0952466536506813e-01
    9.3327536231540692e-03 -5.4500431463456966e-01
    9.4456539418855678e-03 -5.3321077023086849e-01
    8.4570311869997545e-03 -6.7494855771055295e-01
    8.5763974305428717e-03 -6.5108604921182345e-01
    8.3031933414133233e-03 -7.1115900221875938e-01
    8.2580143404345080e-03 -7.2336423325561816e-01
    7.9269564098172693e-03 -8.6409875978771455e-01
    7.8950646087588405e-03 -8.9135882109575004e-01
    7.8617128607403955e-03 -1.0712333936199701e+00
    7.9458977902506587e-03 -1.1755076272905174e+00
    7.8820441140313949e-03 -1.1046895414779878e+00
    7.8543585907858201e-03 -1.0549422855334083e+00
    7.8950646087588405e-03 -8.9135882109575004e-01
    7.8488564124637693e-03 -9.6253342187962176e-01
    7.8709348144806197e-03 -9.1927711955384339e-01
    7.8709348144806197e-03 -9.1927711955384339e-01
    7.9100244793200644e-03 -8.7765042600700105e-01
    7.8820441140313967e-03 -9.0523170760001803e-01
    8.2580143404345080e-03 -7.2336423325561816e-01
    8.2580143404345080e-03 -7.2336423325561816e-01
    7.9668909517777581e-03 -8.3743578935862395e-01
    7.8820441140313967e-03 -9.0523170760001803e-01
    7.8709348144806197e-03 -1.0878112581387147e+00
    7.8488564124637710e-03 -1.0389249632986397e+00
    7.9899834377524879e-03 -1.2131356532587556e+00
    7.8950646087588405e-03 -8.9135882109575004e-01
    7.9269564098172693e-03 -8.6409875978771455e-01
    7.9668909517777581e-03 -8.3743578935862395e-01
    7.9899834377524879e-03 -8.2431012336812881e-01
    8.0724172841340064e-03 -7.8567420131838617e-01
    8.8626066935145499e-03 -6.0380736442456007e-01
    9.8321793439190997e-03 -4.9761335152811931e-01
    1.7436979325995906e-02 -2.3759548165574573e-01
    1.7436979325995906e-02 -2.3759548165574573e-01
    2.0467313440889617e-02 -1.9920476822239894e-01
    1.7436979325995906e-02 -2.3759548165574573e-01
    1.4768569464600988e-02 -2.8747978728803447e-01
    1.2693288951974413e-02 -3.4591634777518054e-01
    1.3116514250127385e-02 -3.3191789877230748e-01
    1.0490749713762014e-02 -4.4926035033744194e-01
    9.4456539418855678e-03 -5.3321077023086849e-01
    8.7109661554874290e-03 -6.2738905096964803e-01
    9.0336052203319819e-03 -5.8028845747399715e-01
    8.3031933414133233e-03 -7.1115900221875938e-01
    8.5763974305428717e-03 -6.5108604921182345e-01
    8.2156652697983699e-03 -7.3564697415828151e-01
    8.0724172841340064e-03 -7.8567420131838617e-01
    7.8709348144806197e-03 -9.1927711955384339e-01
    7.8451947111156783e-03 -9.7735555485044179e-01
    7.8543585907858201e-03 -1.0549422855334083e+00
    7.8543585907858201e-03 -1.0549422855334083e+00
    7.8617128607403955e-03 -9.3350338586883097e-01
    7.8617128607403955e-03 -9.3350338586883097e-01
    7.8709348144806197e-03 -9.1927711955384339e-01
    7.8488564124637693e-03 -9.6253342187962176e-01
    7.9269564098172693e-03 -8.6409875978771455e-01
    7.9668909517777581e-03 -8.3743578935862395e-01
    7.8950646087588405e-03 -8.9135882109575004e-01
    8.2580143404345080e-03 -7.2336423325561816e-01
    8.0426845227602531e-03 -7.9843597113356557e-01
    8.1390075312457455e-03 -7.6046910062937345e-01
    7.8488564124637710e-03 -1.0389249632986397e+00
    7.8488564124637710e-03 -1.0389249632986397e+00
    7.8488564124637710e-03 -1.0389249632986397e+00
    7.8451947111156783e-03 -9.7735555485044179e-01
    7.9100244793200644e-03 -8.7765042600700105e-01
    7.9668909517777581e-03 -8.3743578935862395e-01
    7.9668909517777581e-03 -8.3743578935862395e-01
    7.9668909517777581e-03 -8.3743578935862395e-01
    8.7109661554874290e-03 -6.2738905096964803e-01
    9.6946595733949040e-03 -5.0952466536506813e-01
    1.0688705842501839e-02 -4.3693144875265150e-01
    1.5503506838653499e-02 -2.7160723812755555e-01
    1.7436979325995906e-02 -2.3759548165574573e-01
    1.8758602623052748e-02 -2.1908902300206642e-01
    1.7436979325995906e-02 -2.3759548165574573e-01
    1.3594618087700034e-02 -3.1755367441497789e-01
    1.2693288951974413e-02 -3.4591634777518054e-01
    1.3116514250127385e-02 -3.3191789877230748e-01
    1.2315625979330455e-02 -3.5959747611403808e-01
    1.0137563918947594e-02 -4.7360222277831504e-01
    9.2267821825519659e-03 -5.5677643628300222e-01
    8.7109661554874290e-03 -6.2738905096964803e-01
    8.8626066935145499e-03 -6.0380736442456007e-01
    8.4025569893091331e-03 -6.8695714011832687e-01
    8.2580143404345080e-03 -7.2336423325561816e-01
    8.0152283140463593e-03 -8.1131242323858566e-01
    7.9269564098172693e-03 -8.6409875978771455e-01
    7.8820441140313967e-03 -9.0523170760001803e-01
    7.9458977902506587e-03 -8.5069630922340067e-01
    7.8709348144806197e-03 -1.0878112581387147e+00
    7.8543585907858201e-03 -1.0549422855334083e+00
    7.9668909517777581e-03 -8.3743578935862395e-01
    7.8543585907858201e-03 -9.4791915511697566e-01
    7.8433657812129586e-03 -9.9239532689774657e-01
    7.8433657812129586e-03 -1.0076629473115579e+00
    7.8433657812129586e-03 -9.9239532689774657e-01
    7.9458977902506587e-03 -8.5069630922340067e-01
    7.9269564098172693e-03 -8.6409875978771455e-01
    7.8451947111156783e-03 -1.0231690964840563e+00
    7.8488564124637710e-03 -1.0389249632986397e+00
    7.9100244793200627e-03 -1.1394058162196150e+00
    7.8451947111156783e-03 -1.0231690964840563e+00
    7.8451947111156783e-03 -9.7735555485044179e-01
    8.0152283140463593e-03 -8.1131242323858566e-01
    7.9269564098172693e-03 -8.6409875978771455e-01
    7.9899834377524879e-03 -8.2431012336812881e-01
    7.9458977902506587e-03 -8.5069630922340067e-01
    8.4570311869997545e-03 -6.7494855771055295e-01
    9.3327536231540692e-03 -5.4500431463456966e-01
    9.6946595733949040e-03 -5.0952466536506813e-01
    1.0688705842501839e-02 -4.3693144875265150e-01
    1.5503506838653499e-02 -2.7160723812755555e-01
    1.8758602623052748e-02 -2.1908902300206642e-01
    2.0467313440889617e-02 -1.9920476822239894e-01
    1.7436979325995906e-02 -2.3759548165574573e-01
    1.3594618087700034e-02 -3.1755367441497789e-01
    1.2693288951974413e-02 -3.4591634777518054e-01
    1.2315625979330455e-02 -3.5959747611403808e-01
    1.1976287243086383e-02 -3.7300192329612553e-01
    1.1976287243086383e-02 -3.7300192329612553e-01
    1.0137563918947594e-02 -4.7360222277831504e-01
    9.0336052203319819e-03 -5.8028845747399715e-01
    9.4456539418855678e-03 -5.3321077023086849e-01
    9.0336052203319819e-03 -5.8028845747399715e-01
    8.3513281988106397e-03 -6.9902529541953184e-01
    8.2156652697983699e-03 -7.3564697415828151e-01
    8.4570311869997545e-03 -6.7494855771055295e-01
    7.8820441140313967e-03 -9.0523170760001803e-01
    7.8451947111156783e-03 -9.7735555485044179e-01
    7.8543585907858201e-03 -9.4791915511697566e-01
    7.9269564098172693e-03 -1.1572751247156889e+00
    7.8950646087588422e-03 -1.1218826541377547e+00
    7.8709348144806197e-03 -1.0878112581387147e+00
    7.9100244793200644e-03 -8.7765042600700105e-01
    8.0152283140463593e-03 -8.1131242323858566e-01
    7.8451947111156783e-03 -1.0231690964840563e+00
    7.8488564124637693e-03 -9.6253342187962176e-01
    7.8950646087588405e-03 -8.9135882109575004e-01
    7.8543585907858201e-03 -9.4791915511697566e-01
    7.8451947111156783e-03 -1.0231690964840563e+00
    7.8543585907858201e-03 -1.0549422855334083e+00
    7.8488564124637710e-03 -1.0389249632986397e+00
    7.8451947111156783e-03 -1.0231690964840563e+00
    7.9899834377524879e-03 -8.2431012336812881e-01
    7.8950646087588405e-03 -8.9135882109575004e-01
    7.9269564098172693e-03 -8.6409875978771455e-01
    8.1390075312457455e-03 -7.6046910062937345e-01
    8.9455240895245907e-03 -5.9204346455097867e-01
    9.5660685173358326e-03 -5.2138724590670116e-01
    9.6946595733949040e-03 -5.0952466536506813e-01
    1.3116514250127385e-02 -3.3191789877230748e-01
    1.6376970472803395e-02 -2.5503068522533529e-01
    1.6376970472803395e-02 -2.5503068522533529e-01
    2.6215944142532380e-02 -1.5309310892394862e-01
    1.6376970472803395e-02 -2.5503068522533529e-01
    1.3594618087700034e-02 -3.1755367441497789e-01
    1.3116514250127385e-02 -3.3191789877230748e-01
    1.1976287243086383e-02 -3.7300192329612553e-01
    1.2315625979330455e-02 -3.5959747611403808e-01
    1.1669553216779874e-02 -3.8616422286061647e-01
    1.1390837096227954e-02 -3.9911406314264353e-01
    9.8321793439190997e-03 -4.9761335152811931e-01
    9.8321793439190997e-03 -4.9761335152811931e-01
    9.8321793439190997e-03 -4.9761335152811931e-01
    9.0336052203319819e-03 -5.8028845747399715e-01
    8.1390075312457455e-03 -7.6046910062937345e-01
    8.0724172841340064e-03 -7.8567420131838617e-01
    7.9899834377524879e-03 -8.2431012336812881e-01
    7.8709348144806197e-03 -9.1927711955384339e-01
    7.8488564124637693e-03 -9.6253342187962176e-01
    7.8709348144806197e-03 -9.1927711955384339e-01
    7.8950646087588422e-03 -1.1218826541377547e+00
    7.9458977902506587e-03 -1.1755076272905174e+00
    7.8433657812129586e-03 -1.0076629473115579e+00
    7.8451947111156783e-03 -9.7735555485044179e-01
    7.8950646087588405e-03 -8.9135882109575004e-01
    7.9899834377524879e-03 -8.2431012336812881e-01
    7.8950646087588422e-03 -1.1218826541377547e+00
    7.8543585907858201e-03 -1.0549422855334083e+00
    7.8488564124637710e-03 -1.0389249632986397e+00
    8.0152283140463593e-03 -8.1131242323858566e-01
    8.1044985522716519e-03 -7.7302068252392586e-01
    7.9269564098172693e-03 -8.6409875978771455e-01
    7.9458977902506587e-03 -8.5069630922340067e-01
    8.1390075312457455e-03 -7.6046910062937345e-01
    8.4025569893091331e-03 -6.8695714011832687e-01
    8.5149170863985553e-03 -6.6299354413179590e-01
    9.4456539418855678e-03 -5.3321077023086849e-01
    9.6946595733949040e-03 -5.0952466536506813e-01
    1.2315625979330455e-02 -3.5959747611403808e-01
    1.3116514250127385e-02 -3.3191789877230748e-01
    1.6376970472803395e-02 -2.5503068522533529e-01
    1.7436979325995906e-02 -2.3759548165574573e-01
    2.0467313440889617e-02 -1.9920476822239894e-01
    1.6376970472803395e-02 -2.5503068522533529e-01
    1.4768569464600988e-02 -2.8747978728803447e-01
    1.2693288951974413e-02 -3.4591634777518054e-01
    1.2693288951974413e-02 -3.4591634777518054e-01
    1.2693288951974413e-02 -3.4591634777518054e-01
    1.2315625979330455e-02 -3.5959747611403808e-01
    1.1390837096227954e-02 -3.9911406314264353e-01
    1.1390837096227954e-02 -3.9911406314264353e-01
    1.0688705842501839e-02 -4.3693144875265150e-01
    1.0490749713762014e-02 -4.4926035033744194e-01
    1.0307546898193310e-02 -4.6147910349544863e-01
    9.5660685173358326e-03 -5.2138724590670116e-01
    9.2267821825519659e-03 -5.5677643628300222e-01
    8.3513281988106397e-03 -6.9902529541953184e-01
    8.0152283140463593e-03 -8.1131242323858566e-01
    8.0426845227602531e-03 -7.9843597113356557e-01
    7.9458977902506587e-03 -8.5069630922340067e-01
    7.8433657812129586e-03 -1.0076629473115579e+00
    7.8617128607403955e-03 -1.0712333936199701e+00
    7.8488564124637710e-03 -1.0389249632986397e+00
    7.8709348144806197e-03 -9.1927711955384339e-01
    7.8820441140313967e-03 -9.0523170760001803e-01
    8.0426845227602531e-03 -1.2524485821702989e+00
    7.9458977902506587e-03 -1.1755076272905174e+00
    7.9269564098172693e-03 -1.1572751247156889e+00
    8.0152283140463593e-03 -8.1131242323858566e-01
    7.9100244793200644e-03 -8.7765042600700105e-01
    7.8709348144806197e-03 -9.1927711955384339e-01
    7.9668909517777581e-03 -8.3743578935862395e-01
    8.3513281988106397e-03 -6.9902529541953184e-01
    8.2580143404345080e-03 -7.2336423325561816e-01
    9.4456539418855678e-03 -5.3321077023086849e-01
    9.3327536231540692e-03 -5.4500431463456966e-01
    9.4456539418855678e-03 -5.3321077023086849e-01
    1.1976287243086383e-02 -3.7300192329612553e-01
    1.3594618087700034e-02 -3.1755367441497789e-01
    1.4139828748191495e-02 -3.0276503540974919e-01
    1.6376970472803395e-02 -2.5503068522533529e-01
    2.6215944142532380e-02 -1.5309310892394862e-01
    2.2792882888923706e-02 -1.7747130188322274e-01
    1.8758602623052748e-02 -2.1908902300206642e-01
    1.8758602623052748e-02 -2.1908902300206642e-01
    1.4139828748191495e-02 -3.0276503540974919e-01
    1.3594618087700034e-02 -3.1755367441497789e-01
    1.4139828748191495e-02 -3.0276503540974919e-01
    1.4139828748191495e-02 -3.0276503540974919e-01
    1.4139828748191495e-02 -3.0276503540974919e-01
    1.4139828748191495e-02 -3.0276503540974919e-01
    1.4139828748191495e-02 -3.0276503540974919e-01
    1.2315625979330455e-02 -3.5959747611403808e-01
    1.2315625979330455e-02 -3.5959747611403808e-01
    1.0307546898193310e-02 -4.6147910349544863e-01
    1.0688705842501839e-02 -4.3693144875265150e-01
    1.0137563918947594e-02 -4.7360222277831504e-01
    9.1272202099950874e-03 -5.6853524361496122e-01
    8.4570311869997545e-03 -6.7494855771055295e-01
    8.1760312592528608e-03 -7.4801324154309567e-01
    8.0724172841340064e-03 -7.8567420131838617e-01
    7.8433657812129586e-03 -9.9239532689774657e-01
    7.8543585907858201e-03 -1.0549422855334083e+00
    7.8488564124637710e-03 -1.0389249632986397e+00
    7.8488564124637693e-03 -9.6253342187962176e-01
    7.9100244793200627e-03 -1.1394058162196150e+00
    7.9100244793200627e-03 -1.1394058162196150e+00
    7.8433657812129586e-03 -9.9239532689774657e-01
    7.8433657812129586e-03 -9.9239532689774657e-01
    7.8451947111156783e-03 -9.7735555485044179e-01
    7.9899834377524879e-03 -8.2431012336812881e-01
    8.2156652697983699e-03 -7.3564697415828151e-01
    8.4025569893091331e-03 -6.8695714011832687e-01
    8.3513281988106397e-03 -6.9902529541953184e-01
    9.1272202099950874e-03 -5.6853524361496122e-01
    9.5660685173358326e-03 -5.2138724590670116e-01
    1.2315625979330455e-02 -3.5959747611403808e-01
    1.4768569464600988e-02 -2.8747978728803447e-01
    1.5503506838653499e-02 -2.7160723812755555e-01
    1.6376970472803395e-02 -2.5503068522533529e-01
    2.0467313440889617e-02 -1.9920476822239894e-01
    2.2792882888923706e-02 -1.7747130188322274e-01 1. 0.
    2.6215944142532380e-02 -1.5309310892394862e-01
    2.2792882888923706e-02 -1.7747130188322274e-01
    1.8758602623052748e-02 -2.1908902300206642e-01
    1.7436979325995906e-02 -2.3759548165574573e-01
    1.7436979325995906e-02 -2.3759548165574573e-01
    1.7436979325995906e-02 -2.3759548165574573e-01
    1.6376970472803395e-02 -2.5503068522533529e-01
    1.6376970472803395e-02 -2.5503068522533529e-01
    1.5503506838653499e-02 -2.7160723812755555e-01
    1.4768569464600988e-02 -2.8747978728803447e-01
    1.3594618087700034e-02 -3.1755367441497789e-01
    1.3116514250127385e-02 -3.3191789877230748e-01
    1.0307546898193310e-02 -4.6147910349544863e-01
    1.0688705842501839e-02 -4.3693144875265150e-01
    1.0307546898193310e-02 -4.6147910349544863e-01
    9.5660685173358326e-03 -5.2138724590670116e-01
    8.3513281988106397e-03 -6.9902529541953184e-01
    7.9458977902506587e-03 -8.5069630922340067e-01
    8.0724172841340064e-03 -7.8567420131838617e-01
    8.0152283140463593e-03 -8.1131242323858566e-01
    7.8433657812129586e-03 -9.9239532689774657e-01
    7.9899834377524879e-03 -8.2431012336812881e-01
    8.0152283140463576e-03 -1.2325707968432358e+00
    7.9899834377524879e-03 -8.2431012336812881e-01
    7.8709348144806197e-03 -1.0878112581387147e+00
    7.9458977902506587e-03 -8.5069630922340067e-01
    7.9899834377524879e-03 -8.2431012336812881e-01
    8.1760312592528608e-03 -7.4801324154309567e-01
    8.3513281988106397e-03 -6.9902529541953184e-01
    8.5149170863985553e-03 -6.6299354413179590e-01
    9.3327536231540692e-03 -5.4500431463456966e-01
    9.6946595733949040e-03 -5.0952466536506813e-01
    1.2693288951974413e-02 -3.4591634777518054e-01
    1.4768569464600988e-02 -2.8747978728803447e-01
    1.3116514250127385e-02 -3.3191789877230748e-01
    1.6376970472803395e-02 -2.5503068522533529e-01
    1.7436979325995906e-02 -2.3759548165574573e-01
    1.7436979325995906e-02 -2.3759548165574573e-01
    2.2792882888923706e-02 -1.7747130188322274e-01
    4.5056706089890521e-02 -8.7705801930702917e-02
    2.2792882888923706e-02 -1.7747130188322274e-01
    2.2792882888923706e-02 -1.7747130188322274e-01
    2.0467313440889617e-02 -1.9920476822239894e-01
    2.2792882888923706e-02 -1.7747130188322274e-01
    2.2792882888923706e-02 -1.7747130188322274e-01
    2.0467313440889617e-02 -1.9920476822239894e-01
    1.8758602623052748e-02 -2.1908902300206642e-01
    1.8758602623052748e-02 -2.1908902300206642e-01
    1.8758602623052748e-02 -2.1908902300206642e-01
    1.8758602623052748e-02 -2.1908902300206642e-01
    1.7436979325995906e-02 -2.3759548165574573e-01
    1.5503506838653499e-02 -2.7160723812755555e-01
    1.6376970472803395e-02 -2.5503068522533529e-01
    1.7436979325995906e-02 -2.3759548165574573e-01
    1.2693288951974413e-02 -3.4591634777518054e-01
    1.0490749713762014e-02 -4.4926035033744194e-01
    1.0903216305317483e-02 -4.2447635997800887e-01
    1.0137563918947594e-02 -4.7360222277831504e-01
    9.4456539418855678e-03 -5.3321077023086849e-01
    8.0426845227602531e-03 -7.9843597113356557e-01
    8.1760312592528608e-03 -7.4801324154309567e-01
    9.0336052203319819e-03 -5.8028845747399715e-01
    8.3031933414133233e-03 -7.1115900221875938e-01
    7.9668909517777581e-03 -8.3743578935862395e-01
    8.4025569893091331e-03 -6.8695714011832687e-01
    8.3031933414133233e-03 -7.1115900221875938e-01
    8.1390075312457455e-03 -7.6046910062937345e-01
    8.1760312592528608e-03 -7.4801324154309567e-01
    8.3513281988106397e-03 -6.9902529541953184e-01
    9.0336052203319819e-03 -5.8028845747399715e-01
    1.1390837096227954e-02 -3.9911406314264353e-01
    1.2693288951974413e-02 -3.4591634777518054e-01
    1.3594618087700034e-02 -3.1755367441497789e-01
    1.3594618087700034e-02 -3.1755367441497789e-01
    1.4139828748191495e-02 -3.0276503540974919e-01
    1.8758602623052748e-02 -2.1908902300206642e-01
    1.8758602623052748e-02 -2.1908902300206642e-01
    1.8758602623052748e-02 -2.1908902300206642e-01
    1.7436979325995906e-02 -2.3759548165574573e-01</input_scale>
  <output_scale>
    1.0526315789473684e+00 0.</output_scale>
  <inv_output_scale>
    9.4999999999999996e-01 0.</inv_output_scale>
  <weights>
    <_>
      -1.1719048386403424e-03 -2.2903224389177911e-04
      -9.9637750405231888e-04 -5.5088375721748159e-04
      2.2039270841974236e-04 1.2144499427915077e-03
      9.9728247011042037e-04 2.0453599492093418e-04
      -7.2831549546728146e-04 -4.2920232853557353e-04
      -1.1054717958401724e-03 -1.2409612586460942e-04
      -2.1397120762249158e-05 -7.8018402384446585e-04
      6.7194088742161514e-04 -1.1208781013474275e-03
      1.1037170489498088e-03 1.0083693640301039e-03
      -2.5698247005999147e-04 -3.4383640164285737e-05
      3.0002183913935715e-04 -7.7645728251324352e-04
      -6.5397802009701264e-04 9.5527311481024093e-04
      -1.0954164450422850e-03 -3.1663012947851025e-04
      6.1523554708813478e-04 -6.3403300196013517e-04
      1.0630743572223426e-03 -2.4215284090006096e-04
      1.2150750992007805e-03 -3.7732545206526025e-04
      2.2581237915161135e-04 8.1166924113520002e-04
      1.1322676431532379e-03 5.1786688077618958e-04
      8.1904968067006900e-04 5.2277548999592920e-04
      1.2256443938238879e-03 -1.5902424652943092e-04
      3.3243439615797848e-01 9.7663763700734221e-02
      8.0340066059289131e-02 3.2509982913851022e-02
      -7.2945986879566035e-02 1.7405047432165269e-02
      -3.1510042779124121e-02 -6.3354423460303580e-02
      -9.1363080370461258e-03 1.1037482133686706e-01
      2.7751935474635541e-02 6.3713197329891211e-02
      3.0008819712878176e-02 -4.2642737040986749e-02
      -7.5680619824913704e-03 2.7038348668072587e-02
      -1.0480222294906730e-02 5.3685371159359306e-02
      -1.1234885154158739e-01 1.1363276346443049e-01
      -5.8680228980668679e-02 1.5789630695333758e-02
      9.7861481501053983e-03 8.2136000412063453e-02
      2.6332499429193832e-02 -1.4045066238689063e-02
      1.0280665057758448e-01 -1.0546169120351682e-01
      3.2364927580520633e-02 2.6210781156650188e-02
      -8.6956744714252437e-02 -9.9092497857052070e-02
      1.1314087719379144e-01 3.4800174904710615e-02
      4.6694038001702388e-02 1.4254083378374709e-02
      8.0917892888016041e-02 3.8414109472985437e-02
      -9.2454722878293205e-02 -7.6615457618533667e-02
      9.9239883077736676e-03 6.3120467235316320e-05
      4.4149576159405364e-04 -1.2437958938595250e-03
      -5.5378626855427161e-04 4.3228131637717084e-04
      4.8105537263771873e-04 -8.9117337167076739e-04
      5.7528942357452795e-05 -7.9124938705612082e-04
      -1.4367195258137373e-03 -4.6372576468126748e-04
      -8.6258677008113673e-05 -6.6388239766093670e-04
      1.1360999420994954e-03 -1.6333021482086367e-03
      1.4248748776681044e-03 1.1644233757781379e-03
      -6.5623673293591382e-04 3.8894120484767481e-04
      2.6561035361321998e-04 1.9619140000177668e-04
      -1.2896073482302891e-03 1.3930133158561319e-03
      -9.6045441934692992e-04 1.7599823672112321e-03
      -3.6509172378429894e-04 -5.9624447264607387e-04
      6.7477705689295551e-04 -1.0787866922348022e-03
      7.6648576499458517e-04 -4.0531780781601865e-04
      -1.3185465532860969e-03 -1.3446478728325326e-03
      8.5335907752737985e-04 5.6102617711144514e-04
      -3.4746495585224991e-04 4.1784952121024660e-05
      -1.2934356166240419e-03 -4.8771035728309762e-04
      -1.3335341417980964e-01 -6.6559261672634443e-02
      -5.4161199959800337e-02 -1.5065975453107627e-02
      4.6841693565573571e-02 -6.1516178073557463e-03
      1.4838240646731645e-02 3.7563469375202281e-02
      1.7948587820457522e-03 -8.3043907315140900e-02
      -1.2377119216665965e-02 -3.7773996985186964e-02
      -1.2679091167267745e-02 2.1435620015024925e-02
      -4.5302753145531449e-04 -1.0439774185779887e-02
      2.5449199766206989e-03 -3.0438334422602027e-02
      8.0484567893580744e-02 -8.4031059686422702e-02
      3.4168432000331740e-02 -4.4506089657493043e-03
      -3.5588920068071528e-04 -5.5333375278531945e-02
      -9.5991674382820361e-03 3.0709479251575509e-03
      -7.2848942251834845e-02 7.4334665916697143e-02
      -1.3425349815181250e-02 -1.0738517318669136e-02
      6.0063145126451931e-02 7.1068978376319702e-02
      -8.4576446685911258e-02 -1.6994051253002108e-02
      -2.5844695561836495e-02 -3.3203015903040364e-03
      -5.3188178264077797e-02 -1.9064491432794133e-02
      6.3876461575369942e-02 4.9729112969502033e-02
      -6.0582374886681591e-02 -4.8086472819031348e-02
      -3.8855642988755233e-02 -9.2074663906106888e-03
      2.9580456779055405e-02 -1.3958735044513669e-03
      8.3199598902927181e-03 2.5809794303928969e-02
      -4.1807570427140179e-04 -6.0596987798243955e-02
      -6.5180934079210476e-03 -2.5633561587947797e-02
      -6.1880137030388277e-03 1.2959350563505063e-02
      -1.6245374413723515e-03 -6.5019926932302725e-03
      1.4548293540115704e-03 -1.9694896307101313e-02
      5.9747599228202594e-02 -6.0919719248628434e-02
      2.1233598812848333e-02 -2.1027642146397461e-03
      -1.0094068262299838e-03 -3.8559088880361289e-02
      -4.5999939189046895e-03 1.8467502733953429e-03
      -5.3372963919280085e-02 5.5499166876747656e-02
      -9.3248446610907382e-03 -5.9638138321380834e-03
      4.3519372083813165e-02 5.1651749539950803e-02
      -6.3448261902547848e-02 -9.6547605044391173e-03
      -1.7334098709558685e-02 -5.4316867276246554e-04
      -3.8338147096242149e-02 -1.0648727706300831e-02
      4.4920071852308160e-02 3.5744218172693895e-02
      -6.0156610720714904e-02 -4.9457465471484406e-02
      -3.8004875918600960e-02 -8.5775377368004797e-03
      3.0724542997805526e-02 -2.7452745272438816e-03
      7.8091318267275731e-03 2.5352283725802664e-02
      -2.6521055394920285e-04 -6.0382813546252398e-02
      -7.7587177386098096e-03 -2.6041840571796298e-02
      -5.9941386921768224e-03 1.2553153164603903e-02
      -2.4960169810423015e-05 -6.0436944727974692e-03
      7.5508586687276678e-04 -2.1092490189441683e-02
      5.7823981713256103e-02 -6.1071513336974373e-02
      2.1243183091336239e-02 -7.1217972749162105e-04
      4.1816433533251274e-04 -3.8446244654284131e-02
      -6.5903935327388608e-03 1.1514358374937062e-03
      -5.1771391390049673e-02 5.4742777752441026e-02
      -8.8309079632257984e-03 -5.6889789181073140e-03
      4.2872388436799150e-02 5.1553082521335405e-02
      -6.1971224529867912e-02 -8.7557397443968829e-03
      -1.6124357173607270e-02 -6.3699494169636628e-04
      -3.7559254163064375e-02 -1.0661934434310363e-02
      4.5975722408496143e-02 3.4318565617710142e-02
      -1.3257315909140868e-01 -6.7987953134742721e-02
      -5.3694774016658960e-02 -1.4339129574603215e-02
      4.5107400640519046e-02 -6.3112758989517046e-03
      1.3144500829209258e-02 3.7046644471268299e-02
      2.2377355637899850e-03 -8.2240187673136678e-02
      -1.2869877955592558e-02 -3.7899257174469125e-02
      -1.3238889730287400e-02 2.2306730547124610e-02
      6.5308531726496644e-04 -1.0061457914291708e-02
      8.3822413007658507e-04 -3.2364632671934360e-02
      8.0841283123797403e-02 -8.2068826264509856e-02
      3.3625958451627129e-02 -2.8438706918031548e-03
      -3.6568475904975726e-04 -5.5582000732547002e-02
      -1.1861712924338177e-02 4.1347130691479928e-03
      -7.2492972153660601e-02 7.6310317547357356e-02
      -1.5299150468432297e-02 -1.0824005634263379e-02
      6.0179667923381995e-02 7.0667155120958114e-02
      -8.5234730635165443e-02 -1.7048215987020499e-02
      -2.5507220099018027e-02 -2.3290922643859038e-03
      -5.4618410779208697e-02 -1.8824062283562811e-02
      6.2283878060744022e-02 5.0552308575892262e-02
      -1.3237960283036906e-01 -6.8005496162503412e-02
      -5.5923349548596471e-02 -1.5630331388104105e-02
      4.5226013400746418e-02 -4.7508269877093766e-03
      1.4733883507361207e-02 3.8383079123603232e-02
      2.6392619339001486e-03 -8.2503140987900001e-02
      -1.1378677716975268e-02 -3.7143307796893357e-02
      -1.4185007645359026e-02 2.2835090825558988e-02
      8.3874240464156045e-04 -1.1824428340840049e-02
      6.1206109261661230e-04 -3.0989934399633091e-02
      8.0556030594343145e-02 -8.2431724461155834e-02
      3.4064051718292153e-02 -4.4799103965935559e-03
      -7.2218799066892071e-04 -5.4485627323379991e-02
      -1.0761086016985699e-02 1.9146851588605113e-03
      -7.3725863102302849e-02 7.4514432029675406e-02
      -1.3996419722918105e-02 -1.1264883869012216e-02
      5.8443469347623775e-02 6.9514844509890095e-02
      -8.4944262127655115e-02 -1.6676793877385979e-02
      -2.6225379145867846e-02 -2.6544030422731655e-03
      -5.3325415838857380e-02 -2.0048578504802007e-02
      6.4223484024873614e-02 5.0968864776035148e-02
      2.0071785120747442e-02 -1.4873106043657327e-02
      -1.2445006168029366e-02 1.3570409713892519e-03
      8.0120959512741674e-03 2.6049074497642290e-03
      -1.4163549406186811e-03 5.0979867801677695e-03
      -2.2933923737042334e-03 -2.1685364784647415e-02
      -2.1390955493634636e-04 -6.0247892083843541e-03
      3.6444461723896633e-04 -2.1219796995930771e-04
      -2.6055545836479316e-03 2.0632435405576840e-04
      -2.2038183958614827e-03 -5.0605039770776610e-03
      1.9667008177044122e-02 -2.1605387547517691e-02
      4.3436723786427038e-03 9.7492597325717838e-04
      3.3037510987780801e-03 -1.3744314103081376e-02
      4.2545813713640139e-04 -2.5334065843168538e-03
      -1.6638021229605199e-02 1.7977094929797207e-02
      -9.0962299900597572e-04 1.8450545449711607e-03
      1.3058838825703464e-02 1.6536032657177083e-02
      -2.4044500280663118e-02 9.3901987780348043e-05
      -3.9312126604622976e-03 2.0330481200247115e-03
      -1.1273743636134700e-02 -1.5224789784629496e-03
      1.3575719067038253e-02 1.1796271893046226e-02
      -9.9029633148633195e-02 -5.6112229403502918e-02
      -4.4100468270278900e-02 -1.3005715689502926e-02
      3.7047802639874644e-02 -4.4268650321649256e-03
      1.1171729408584838e-02 3.0470923089616065e-02
      -4.9063103626617779e-05 -6.7395125324685778e-02
      -1.0095853181397559e-02 -3.0092414806228363e-02
      -1.1507116263746280e-02 1.8574505199136226e-02
      1.2460176614881521e-03 -9.8418019285965632e-03
      1.9709773619882641e-03 -2.4171774937173894e-02
      6.6836527885934041e-02 -6.7357384358913544e-02
      2.7326200929015710e-02 -2.8085785404831760e-03
      -2.2639751845701505e-03 -4.4905552940976375e-02
      -7.7004792479129572e-03 2.9351259520354811e-03
      -5.9681099061878712e-02 6.2391929843094072e-02
      -1.2592074946544185e-02 -8.9418946970094906e-03
      4.8544547225591032e-02 5.6911446533192155e-02
      -7.0424416667373951e-02 -1.3189105868993665e-02
      -2.1448093628372144e-02 -3.9945107300545738e-03
      -4.3329141385284917e-02 -1.5320696373843416e-02
      5.0637446117592411e-02 4.0593746584952260e-02
      -6.4465420246830399e-02 -5.5645698621375417e-02
      -4.3513813738168032e-02 -1.0303205977762171e-02
      3.6441125127340449e-02 -2.5150938139751459e-03
      8.0719097466382030e-03 2.8979444196794421e-02
      9.0272893328860037e-04 -7.0866131644055363e-02
      -6.9820613977712260e-03 -2.9614512024577946e-02
      -7.7847961276343008e-03 1.7236648273835739e-02
      -1.1191130721993642e-03 -7.9138430944822383e-03
      7.1046041035372824e-05 -2.3811480191439884e-02
      6.9504536443695752e-02 -7.2686055198175129e-02
      2.5571006302403394e-02 -1.1703575671298907e-03
      1.0294888912837899e-03 -4.3965721926792267e-02
      -7.1050609244114951e-03 2.0367051647080798e-03
      -6.1844685622419883e-02 6.3699715611973989e-02
      -1.0388028699245128e-02 -6.8728100532069649e-03
      4.8380675487030136e-02 5.9590286045944151e-02
      -7.5067678370835209e-02 -1.1907761634105297e-02
      -1.9811942625845028e-02 -2.6090597188672638e-03
      -4.1466454217031885e-02 -1.2910020594067557e-02
      5.1074650947356345e-02 3.9825979470831871e-02
      2.0873007277036996e-02 -1.1852574202498578e-02
      -9.1919157591868524e-03 -6.6162148349667709e-04
      5.8762416535652513e-03 3.1347200046058401e-04
      6.7130017993400340e-06 5.7094794945940480e-03
      -1.0871523037356999e-03 -1.7816067169149061e-02
      9.3259575876309834e-06 -6.1778868893383899e-03
      5.6973481902611452e-04 3.0371047844508087e-04
      -1.9910705232540058e-03 8.5228761944956398e-04
      -1.9167209634807995e-03 -3.2136278230401405e-03
      1.6582457755314757e-02 -1.5663462636614028e-02
      4.0001739599928336e-03 1.0702308322606399e-03
      2.0672351256274620e-04 -9.5456426401653027e-03
      3.9967842166133729e-04 -1.7688621832120084e-04
      -1.3836137259582064e-02 1.3509557886995954e-02
      -2.0252081554826464e-04 -9.9753907581879783e-04
      1.1496147591187117e-02 1.4010219687804391e-02
      -1.8274711225179624e-02 -1.4489101823544940e-03
      -1.9888472364553000e-03 6.9887706738391365e-04
      -9.0851043700792833e-03 -2.6255738558892223e-03
      1.2456447238302394e-02 9.1575947573468465e-03
      2.7612618133163016e-03 -1.4063383230270213e-02
      -1.0949976955779451e-02 -2.2644202147473298e-03
      9.5270989769178204e-03 -2.0862495934765718e-03
      3.4410648471602835e-03 7.2358011688582659e-03
      1.3904038663280138e-03 -1.7699297485573414e-02
      -4.2439945670939647e-03 -6.5651881408901689e-03
      -3.9429879447133312e-03 4.3934878739349502e-03
      2.4384537905776361e-04 -2.0946909849908889e-03
      -3.7335473639039327e-04 -6.1700657602256582e-03
      1.5399068710813439e-02 -1.7083731373724768e-02
      6.1068596694326648e-03 -1.9970836532395993e-03
      1.8353250941901647e-04 -1.0172051301945702e-02
      -3.6951249434242083e-03 5.7706458102933507e-04
      -1.4109198514553096e-02 1.4553312406353139e-02
      -3.9969786700815189e-03 -3.1753463450897687e-03
      1.0526558648546451e-02 1.3410152228454144e-02
      -1.7822773461647162e-02 -3.7609040495482403e-03
      -6.0554419884267180e-03 -1.3186788230392537e-03
      -1.1247631360578617e-02 -4.7998756660535382e-03
      1.2782040111361026e-02 8.2069624490747721e-03
      2.1745081427295040e-01 4.9023440947395011e-02
      4.3685561815129552e-02 1.8608628485507737e-02
      -4.0915916685675950e-02 1.0969078096399972e-02
      -1.7560644691074549e-02 -3.5041820959197875e-02
      -6.0831308691259526e-03 2.1196235667651650e-02
      1.5719050026436299e-02 3.4603673576374436e-02
      1.7794589481496665e-02 -2.6065560834436067e-02
      -3.2840223196274800e-03 1.4598257386736891e-02
      -7.0762523945740938e-03 2.9096601473191982e-02
      -2.3430369759411544e-02 2.2657608158669001e-02
      -3.5388954607999352e-02 9.7573083629225021e-03
      5.4336689576892829e-03 4.3570920679774687e-02
      1.4931490861754207e-02 -7.8865786479686908e-03
      2.9768039921022848e-02 -2.3272835370107645e-02
      1.7881645837592747e-02 1.5126892244425363e-02
      -4.6900412970020136e-02 -3.5113152668256452e-02
      1.9787295141662317e-02 2.0292240954177403e-02
      2.6251680508593632e-02 8.2841836086499192e-03
      4.1950412201688672e-02 2.1745371059081427e-02
      -4.8412390980608649e-02 -4.1039774063916616e-02
      2.6740823948855443e-02 2.1084093737964855e-04
      -9.0258483651763484e-05 -2.3868543602714952e-05
      -2.4004324641410811e-03 -2.2276546839935580e-04
      1.1084147715344861e-03 -5.3658733480677935e-04
      8.1884424540394206e-04 -2.0939397899868230e-04
      -4.5659915732185311e-04 1.3933094598170507e-03
      1.2395823512428844e-04 1.2620603983596120e-03
      -5.7719878513119618e-04 -1.5421460471524450e-03
      3.4517169821472180e-05 2.2994710734040521e-04
      1.5124130962014799e-03 -6.6640988315672665e-04
      -1.7121739051708239e-04 -8.0366373731646302e-04
      2.3439968755487506e-04 1.3438320827402104e-03
      -1.4518085342110679e-03 1.1931968590294416e-03
      -6.4629570317599298e-04 8.9119632078940266e-04
      -1.6298749794950811e-03 -1.1144274584459193e-03
      -3.6236615833623543e-04 1.0622759473633129e-03
      -8.4600934066636382e-04 -8.4233789391924553e-05
      5.7315996773634695e-04 -1.7161397582961542e-03
      8.4281669801697552e-04 7.5198143769566604e-04
      -7.7294865399848880e-04 -2.5471751065710355e-03
      7.7750313891720171e-02 3.2732086515410933e-03
      3.3788371962023772e-03 -4.3713255187495580e-04
      -5.4042101859247118e-03 9.9081616972357704e-04
      -4.9369247021509397e-04 -3.7608269523670746e-03
      -1.1264678607841366e-03 6.1065294897645383e-03
      4.8664270000153728e-04 2.2653756287518874e-03
      1.0328829864394270e-03 -1.7913820086517278e-03
      8.7783700495928560e-04 -8.2180347326959134e-04
      -8.0905545257326810e-05 1.4733220093615842e-03
      -6.3723060718167256e-03 5.3130578286877568e-03
      -2.8251271441135238e-03 1.4503843678745736e-03
      -6.3338520492294177e-04 3.9066509807378124e-03
      -5.7565155163098985e-04 -7.1575064876635501e-04
      5.4966794187875983e-03 -5.3909322156705224e-03
      1.2066901690060200e-03 -5.3594934136720856e-04
      -3.9992926880488104e-03 -5.2448784274782773e-03
      6.5527043645335938e-03 1.2974237612679510e-03
      1.5380520316354703e-03 -2.1788096416761762e-04
      4.3981348929972713e-03 1.5652570576750115e-03
      -4.1543432944078484e-03 -5.1915924635720957e-03
      8.2893479484019497e-02 3.5124244280122204e-03
      4.6244355477706636e-03 1.5674535100224120e-03
      -5.2013070198087402e-03 -5.4096066609886568e-04
      -8.9605118000928865e-04 -4.7122447318102166e-03
      -7.2705567701473539e-04 5.2880840192441455e-03
      -5.8613573959687116e-04 4.6235154776947786e-03
      9.6510113192969005e-04 -5.5965522681171974e-04
      -8.8493436759657924e-04 7.8067504380171040e-04
      9.3226556628033994e-05 3.6280593126830460e-03
      -4.4002275617469428e-03 6.6093552837043030e-03
      -2.9850130932128635e-03 -2.2102323231662271e-04
      -2.8171477047736509e-04 3.8278282021199758e-03
      3.5697847236101552e-04 -1.4075444511920292e-03
      4.6773458670689733e-03 -4.9543299709223221e-03
      -3.3607113064675742e-04 1.0640762451124006e-03
