<?xml version="1.0"?>
<opencv_storage>
<shapeML type_id="opencv-ml-ann-mlp">
  <layer_sizes type_id="opencv-matrix">
    <rows>1</rows>
    <cols>3</cols>
    <dt>i</dt>
    <data>
      1600 40 1</data></layer_sizes>
  <activation_function>SIGMOID_SYM</activation_function>
  <f_param1>5.9999999999999998e-01</f_param1>
  <f_param2>1.</f_param2>
  <min_val>-9.4999999999999996e-01</min_val>
  <max_val>9.4999999999999996e-01</max_val>
  <min_val1>-9.7999999999999998e-01</min_val1>
  <max_val1>9.7999999999999998e-01</max_val1>
  <training_params>
    <train_method>BACKPROP</train_method>
    <dw_scale>1.0000000000000001e-01</dw_scale>
    <moment_scale>1.0000000000000001e-01</moment_scale>
    <term_criteria><epsilon>9.9999999747524271e-07</epsilon>
      <iterations>4000</iterations></term_criteria></training_params>
  <input_scale>
    1. 0. 4.3138752801327590e-02 -9.1669849702821132e-02
    4.3138752801327590e-02 -9.1669849702821132e-02
    3.0632684936664437e-02 -1.3018891098082386e-01
    2.1846510373770806e-02 -1.8569533817705186e-01
    2.1846510373770806e-02 -1.8569533817705186e-01
    3.0632684936664437e-02 -1.3018891098082386e-01
    3.0632684936664437e-02 -1.3018891098082386e-01
    2.5118141773347001e-02 -1.6012815380508713e-01
    2.5118141773347001e-02 -1.6012815380508713e-01
    1.5721249524260256e-02 -2.6726124191242434e-01
    1.9624886028901153e-02 -2.0851441405707474e-01
    1.9624886028901153e-02 -2.0851441405707474e-01
    1.6732191400818303e-02 -2.4889134708717225e-01
    1.9624886028901153e-02 -2.0851441405707474e-01
    1.1857708957152227e-02 -3.7796447300922725e-01
    1.1857708957152227e-02 -3.7796447300922725e-01
    1.7993390891808767e-02 -2.2941573387056177e-01
    1.4888752874549003e-02 -2.8474739872574967e-01
    9.3911269033607782e-03 -5.3881590608032470e-01
    8.3727139244490004e-03 -6.9388866648871095e-01
    9.3911269033607782e-03 -5.3881590608032470e-01
    1.0982588894337331e-02 -4.2008402520840293e-01
    1.1245997757467090e-02 -4.0626166898849864e-01
    1.7993390891808767e-02 -2.2941573387056177e-01
    2.1846510373770806e-02 -1.8569533817705186e-01
    2.1846510373770806e-02 -1.8569533817705186e-01
    1.6732191400818303e-02 -2.4889134708717225e-01
    2.5118141773347001e-02 -1.6012815380508713e-01
    3.0632684936664437e-02 -1.3018891098082386e-01
    2.1846510373770806e-02 -1.8569533817705186e-01
    4.3138752801327590e-02 -9.1669849702821132e-02
    2.5118141773347001e-02 -1.6012815380508713e-01
    4.3138752801327590e-02 -9.1669849702821132e-02
    2.5118141773347001e-02 -1.6012815380508713e-01
    1.7993390891808767e-02 -2.2941573387056177e-01
    4.3138752801327590e-02 -9.1669849702821132e-02
    4.3138752801327590e-02 -9.1669849702821132e-02 1. 0.
    4.3138752801327590e-02 -9.1669849702821132e-02
    4.3138752801327590e-02 -9.1669849702821132e-02
    3.0632684936664437e-02 -1.3018891098082386e-01
    4.3138752801327590e-02 -9.1669849702821132e-02
    2.5118141773347001e-02 -1.6012815380508713e-01
    1.9624886028901153e-02 -2.0851441405707474e-01
    1.9624886028901153e-02 -2.0851441405707474e-01
    1.9624886028901153e-02 -2.0851441405707474e-01
    1.7993390891808767e-02 -2.2941573387056177e-01
    1.7993390891808767e-02 -2.2941573387056177e-01
    1.6732191400818303e-02 -2.4889134708717225e-01
    1.0134835111857601e-02 -4.7380354147934284e-01
    1.1245997757467090e-02 -4.0626166898849864e-01
    1.0522672835293128e-02 -4.4721359549995793e-01
    9.5189811066204097e-03 -5.2592370614077766e-01
    9.3911269033607782e-03 -5.3881590608032470e-01
    8.6277505602655180e-03 -6.4168894791974795e-01
    8.4918273810009604e-03 -6.6766992783120049e-01
    8.0657784728360108e-03 -7.8842984571972008e-01
    7.9328899988105675e-03 -8.5972695362109530e-01
    8.1378172219538185e-03 -7.6088591025268204e-01
    7.8529595972040601e-03 -9.5118973121134176e-01
    8.0657784728360108e-03 -7.8842984571972008e-01
    8.1378172219538185e-03 -7.6088591025268204e-01
    8.4302866341178662e-03 -6.8074564570501772e-01
    9.1605462240448091e-03 -5.6451866105676141e-01
    9.9630263853145613e-03 -4.8694291458224920e-01
    1.1536243243422589e-02 -3.9223227027636803e-01
    1.3071895424836602e-02 -3.3333333333333337e-01
    1.2617621651099262e-02 -3.4856179811161714e-01
    1.3590376053127242e-02 -3.1767504024184928e-01
    1.5721249524260256e-02 -2.6726124191242434e-01
    1.5721249524260256e-02 -2.6726124191242434e-01
    1.5721249524260256e-02 -2.6726124191242434e-01
    1.7993390891808767e-02 -2.2941573387056177e-01
    1.9624886028901153e-02 -2.0851441405707474e-01
    2.1846510373770806e-02 -1.8569533817705186e-01
    3.0632684936664437e-02 -1.3018891098082386e-01
    3.0632684936664437e-02 -1.3018891098082386e-01
    3.0632684936664437e-02 -1.3018891098082386e-01
    3.0632684936664437e-02 -1.3018891098082386e-01 1. 0.
    3.0632684936664437e-02 -1.3018891098082386e-01
    3.0632684936664437e-02 -1.3018891098082386e-01
    2.5118141773347001e-02 -1.6012815380508713e-01
    1.9624886028901153e-02 -2.0851441405707474e-01
    1.5721249524260256e-02 -2.6726124191242434e-01
    1.4888752874549003e-02 -2.8474739872574967e-01
    1.5721249524260256e-02 -2.6726124191242434e-01
    9.9630263853145613e-03 -4.8694291458224920e-01
    9.6562668431543919e-03 -5.1298917604257710e-01
    9.0564748108176597e-03 -5.7735026918962584e-01
    9.3911269033607782e-03 -5.3881590608032470e-01
    8.5575643229800942e-03 -6.5465367070797720e-01
    8.1378172219538185e-03 -7.6088591025268204e-01
    8.1378172219538185e-03 -7.6088591025268204e-01
    7.8970653054494452e-03 -8.8940698002624374e-01
    7.8826495314448016e-03 -9.0453403373329100e-01
    7.8606247621301282e-03 -9.3541434669348522e-01
    7.8705130353608540e-03 -1.0871146130092180e+00
    8.0339792661964279e-03 -8.0239367921136828e-01
    7.9137975764272048e-03 -8.7447463219520616e-01
    7.9783640886981737e-03 -8.3074716073569732e-01
    8.0657784728360108e-03 -7.8842984571972008e-01
    8.2686687031987040e-03 -7.2040776076618707e-01
    7.8970653054494452e-03 -8.8940698002624374e-01
    7.8970653054494452e-03 -8.8940698002624374e-01
    8.6277505602655180e-03 -6.4168894791974795e-01
    9.9630263853145613e-03 -4.8694291458224920e-01
    1.0134835111857601e-02 -4.7380354147934284e-01
    1.0982588894337331e-02 -4.2008402520840293e-01
    1.2215861921203882e-02 -3.6342189215581550e-01
    1.3590376053127242e-02 -3.1767504024184928e-01
    1.3071895424836602e-02 -3.3333333333333337e-01
    1.2215861921203882e-02 -3.6342189215581550e-01
    1.4888752874549003e-02 -2.8474739872574967e-01
    1.4888752874549003e-02 -2.8474739872574967e-01
    2.5118141773347001e-02 -1.6012815380508713e-01
    2.1846510373770806e-02 -1.8569533817705186e-01
    3.0632684936664437e-02 -1.3018891098082386e-01
    4.3138752801327590e-02 -9.1669849702821132e-02 1. 0.
    4.3138752801327590e-02 -9.1669849702821132e-02
    3.0632684936664437e-02 -1.3018891098082386e-01
    2.1846510373770806e-02 -1.8569533817705186e-01
    1.5721249524260256e-02 -2.6726124191242434e-01
    1.4888752874549003e-02 -2.8474739872574967e-01
    1.3590376053127242e-02 -3.1767504024184928e-01
    9.8039215686274508e-03 -5.0000000000000000e-01
    9.2718871322247133e-03 -5.5167728436737040e-01
    8.8679807228754012e-03 -6.0302268915552726e-01
    8.7026673112389312e-03 -6.2876771323701275e-01
    8.0048684404679018e-03 -8.1649658092772603e-01
    8.0657784728360108e-03 -7.8842984571972008e-01
    7.9137975764272048e-03 -8.7447463219520616e-01
    7.8705130353608540e-03 -9.1986621100779986e-01
    7.8431372549019607e-03 -1. 7.9783640886981737e-03
    -1.2037356818823370e+00 8.0048684404679018e-03
    -1.2247448713915889e+00 7.8431372549019607e-03 -1.
    7.8606247621301282e-03 -9.3541434669348522e-01
    7.8826495314448016e-03 -1.1055415967851334e+00
    7.8705130353608540e-03 -1.0871146130092180e+00
    7.8529595972040601e-03 -1.0513149660756935e+00
    7.8442268065158707e-03 -9.8346993586692733e-01
    7.8606247621301282e-03 -9.3541434669348522e-01
    7.9137975764272048e-03 -8.7447463219520616e-01
    8.2218418566424971e-03 -7.3379938570534287e-01
    7.9328899988105675e-03 -8.5972695362109530e-01
    1.0134835111857601e-02 -4.7380354147934284e-01
    1.0134835111857601e-02 -4.7380354147934284e-01
    1.0522672835293128e-02 -4.4721359549995793e-01
    1.1245997757467090e-02 -4.0626166898849864e-01
    1.3590376053127242e-02 -3.1767504024184928e-01
    1.3590376053127242e-02 -3.1767504024184928e-01
    1.2617621651099262e-02 -3.4856179811161714e-01
    1.4188769156600639e-02 -3.0151134457776357e-01
    1.6732191400818303e-02 -2.4889134708717225e-01
    1.9624886028901153e-02 -2.0851441405707474e-01
    2.5118141773347001e-02 -1.6012815380508713e-01
    3.0632684936664437e-02 -1.3018891098082386e-01 1. 0.
    4.3138752801327590e-02 -9.1669849702821132e-02
    4.3138752801327590e-02 -9.1669849702821132e-02
    1.5721249524260256e-02 -2.6726124191242434e-01
    1.4188769156600639e-02 -3.0151134457776357e-01
    1.4188769156600639e-02 -3.0151134457776357e-01
    9.9630263853145613e-03 -4.8694291458224920e-01
    9.5189811066204097e-03 -5.2592370614077766e-01
    9.0564748108176597e-03 -5.7735026918962584e-01
    8.6277505602655180e-03 -6.4168894791974795e-01
    8.0048684404679018e-03 -8.1649658092772603e-01
    7.9328899988105675e-03 -8.5972695362109530e-01
    7.8826495314448016e-03 -9.0453403373329100e-01
    7.8474981878243547e-03 -9.6720415164935170e-01
    7.8474981878243547e-03 -9.6720415164935170e-01
    7.8826495314448016e-03 -9.0453403373329100e-01
    8.0048684404679018e-03 -1.2247448713915889e+00
    7.8529595972040601e-03 -1.0513149660756935e+00
    7.8442268065158707e-03 -1.0168078997946197e+00
    7.8442268065158707e-03 -9.8346993586692733e-01
    7.8705130353608540e-03 -1.0871146130092180e+00
    7.8442268065158707e-03 -1.0168078997946197e+00
    7.8442268065158707e-03 -1.0168078997946197e+00
    7.8529595972040601e-03 -9.5118973121134176e-01
    7.9137975764272048e-03 -8.7447463219520616e-01
    7.8826495314448016e-03 -9.0453403373329100e-01
    7.8826495314448016e-03 -9.0453403373329100e-01
    7.9137975764272048e-03 -8.7447463219520616e-01
    8.0339792661964279e-03 -8.0239367921136828e-01
    8.2686687031987040e-03 -7.2040776076618707e-01
    8.6277505602655180e-03 -6.4168894791974795e-01
    1.0134835111857601e-02 -4.7380354147934284e-01
    1.0522672835293128e-02 -4.4721359549995793e-01
    1.3071895424836602e-02 -3.3333333333333337e-01
    1.3071895424836602e-02 -3.3333333333333337e-01
    1.2617621651099262e-02 -3.4856179811161714e-01
    1.5721249524260256e-02 -2.6726124191242434e-01
    1.6732191400818303e-02 -2.4889134708717225e-01
    2.5118141773347001e-02 -1.6012815380508713e-01
    3.0632684936664437e-02 -1.3018891098082386e-01 1. 0.
    4.3138752801327590e-02 -9.1669849702821132e-02
    1.9624886028901153e-02 -2.0851441405707474e-01
    1.6732191400818303e-02 -2.4889134708717225e-01
    1.4888752874549003e-02 -2.8474739872574967e-01
    9.9630263853145613e-03 -4.8694291458224920e-01
    8.9591171475898058e-03 -5.9018184209747848e-01
    8.9591171475898058e-03 -5.9018184209747848e-01
    8.2686687031987040e-03 -7.2040776076618707e-01
    7.8970653054494452e-03 -8.8940698002624374e-01
    7.9783640886981737e-03 -8.3074716073569732e-01
    7.9328899988105675e-03 -8.5972695362109530e-01
    7.8431372549019607e-03 -1. 8.2218418566424971e-03
    -7.3379938570534287e-01 8.0048684404679018e-03
    -8.1649658092772603e-01 7.8442268065158707e-03
    -1.0168078997946197e+00 8.2686687031987040e-03
    -1.3881027585494825e+00 8.0048684404679018e-03
    -1.2247448713915889e+00 8.1003573254011339e-03
    -1.2909944487358056e+00 7.8442268065158707e-03
    -9.8346993586692733e-01 7.8442268065158707e-03
    -1.0168078997946197e+00 8.1003573254011339e-03
    -1.2909944487358056e+00 7.8606247621301282e-03
    -9.3541434669348522e-01 7.8606247621301282e-03
    -9.3541434669348522e-01 7.8529595972040601e-03
    -1.0513149660756935e+00 7.8442268065158707e-03
    -1.0168078997946197e+00 7.8529595972040601e-03
    -1.0513149660756935e+00 7.8474981878243547e-03
    -9.6720415164935170e-01 8.0339792661964279e-03
    -8.0239367921136828e-01 8.0339792661964279e-03
    -8.0239367921136828e-01 8.3727139244490004e-03
    -6.9388866648871095e-01 8.4918273810009604e-03
    -6.6766992783120049e-01 9.9630263853145613e-03
    -4.8694291458224920e-01 1.0134835111857601e-02
    -4.7380354147934284e-01 1.1857708957152227e-02
    -3.7796447300922725e-01 1.2617621651099262e-02
    -3.4856179811161714e-01 1.4888752874549003e-02
    -2.8474739872574967e-01 1.6732191400818303e-02
    -2.4889134708717225e-01 1.9624886028901153e-02
    -2.0851441405707474e-01 2.1846510373770806e-02
    -1.8569533817705186e-01 1. 0. 3.0632684936664437e-02
    -1.3018891098082386e-01 1.9624886028901153e-02
    -2.0851441405707474e-01 1.0522672835293128e-02
    -4.4721359549995793e-01 1.0320810901329710e-02
    -4.6056618647183833e-01 9.6562668431543919e-03
    -5.1298917604257710e-01 8.8679807228754012e-03
    -6.0302268915552726e-01 8.3727139244490004e-03
    -6.9388866648871095e-01 7.9783640886981737e-03
    -8.3074716073569732e-01 7.9137975764272048e-03
    -8.7447463219520616e-01 8.2218418566424971e-03
    -7.3379938570534287e-01 7.8529595972040601e-03
    -9.5118973121134176e-01 7.8442268065158707e-03
    -1.0168078997946197e+00 7.8705130353608540e-03
    -9.1986621100779986e-01 8.2218418566424971e-03
    -1.3627702877384940e+00 8.0657784728360108e-03
    -1.2683436648534627e+00 8.0657784728360108e-03
    -1.2683436648534627e+00 8.1003573254011339e-03
    -1.2909944487358056e+00 8.2218418566424971e-03
    -1.3627702877384940e+00 8.0657784728360108e-03
    -1.2683436648534627e+00 8.0339792661964279e-03
    -1.2462710336687208e+00 7.8826495314448016e-03
    -1.1055415967851334e+00 7.8606247621301282e-03
    -1.0690449676496974e+00 7.8431372549019607e-03 -1.
    7.9137975764272048e-03 -8.7447463219520616e-01
    7.8474981878243547e-03 -1.0339078862458588e+00
    7.8606247621301282e-03 -1.0690449676496974e+00
    7.8431372549019607e-03 -1. 7.8442268065158707e-03
    -1.0168078997946197e+00 7.9137975764272048e-03
    -1.1435437497937311e+00 7.9543929856801549e-03
    -8.4515425472851646e-01 8.1782705808820088e-03
    -7.4728947432809356e-01 8.4302866341178662e-03
    -6.8074564570501772e-01 9.9630263853145613e-03
    -4.8694291458224920e-01 9.9630263853145613e-03
    -4.8694291458224920e-01 1.3071895424836602e-02
    -3.3333333333333337e-01 1.3590376053127242e-02
    -3.1767504024184928e-01 1.4188769156600639e-02
    -3.0151134457776357e-01 1.7993390891808767e-02
    -2.2941573387056177e-01 2.5118141773347001e-02
    -1.6012815380508713e-01 1. 0. 2.1846510373770806e-02
    -1.8569533817705186e-01 1.9624886028901153e-02
    -2.0851441405707474e-01 9.9630263853145613e-03
    -4.8694291458224920e-01 9.8039215686274508e-03
    -5.0000000000000000e-01 1.1245997757467090e-02
    -4.0626166898849864e-01 8.1003573254011339e-03
    -7.7459666924148340e-01 7.9137975764272048e-03
    -8.7447463219520616e-01 7.8970653054494452e-03
    -8.8940698002624374e-01 7.9783640886981737e-03
    -8.3074716073569732e-01 7.8606247621301282e-03
    -9.3541434669348522e-01 8.1003573254011339e-03
    -1.2909944487358056e+00 8.1003573254011339e-03
    -1.2909944487358056e+00 8.3727139244490004e-03
    -1.4411533842457842e+00 8.3189033080770299e-03
    -1.4142135623730951e+00 8.0048684404679018e-03
    -1.2247448713915889e+00 7.8705130353608540e-03
    -1.0871146130092180e+00 7.9543929856801549e-03
    -1.1832159566199230e+00 7.8474981878243547e-03
    -9.6720415164935170e-01 7.8474981878243547e-03
    -9.6720415164935170e-01 7.8970653054494452e-03
    -1.1243446728633648e+00 7.8474981878243547e-03
    -1.0339078862458588e+00 8.2218418566424971e-03
    -1.3627702877384940e+00 8.1378172219538185e-03
    -1.3142574813455417e+00 8.0339792661964279e-03
    -1.2462710336687208e+00 7.8442268065158707e-03
    -1.0168078997946197e+00 7.8529595972040601e-03
    -1.0513149660756935e+00 7.8826495314448016e-03
    -1.1055415967851334e+00 7.8705130353608540e-03
    -9.1986621100779986e-01 7.8442268065158707e-03
    -9.8346993586692733e-01 7.8431372549019607e-03 -1.
    7.8970653054494452e-03 -8.8940698002624374e-01
    8.2218418566424971e-03 -7.3379938570534287e-01
    8.5575643229800942e-03 -6.5465367070797720e-01
    1.0320810901329710e-02 -4.6056618647183833e-01
    1.0742455869201244e-02 -4.3372665571900021e-01
    1.4188769156600639e-02 -3.0151134457776357e-01
    1.4888752874549003e-02 -2.8474739872574967e-01
    1.7993390891808767e-02 -2.2941573387056177e-01
    1.9624886028901153e-02 -2.0851441405707474e-01
    4.3138752801327590e-02 -9.1669849702821132e-02
    2.1846510373770806e-02 -1.8569533817705186e-01
    1.5721249524260256e-02 -2.6726124191242434e-01
    1.3071895424836602e-02 -3.3333333333333337e-01
    1.2215861921203882e-02 -3.6342189215581550e-01
    8.7026673112389312e-03 -6.2876771323701275e-01
    8.0339792661964279e-03 -8.0239367921136828e-01
    7.8529595972040601e-03 -9.5118973121134176e-01
    7.8474981878243547e-03 -9.6720415164935170e-01
    7.8606247621301282e-03 -9.3541434669348522e-01
    7.8606247621301282e-03 -1.0690449676496974e+00
    8.0048684404679018e-03 -1.2247448713915889e+00
    7.9137975764272048e-03 -1.1435437497937311e+00
    7.9543929856801549e-03 -1.1832159566199230e+00
    7.8529595972040601e-03 -1.0513149660756935e+00
    7.8529595972040601e-03 -1.0513149660756935e+00
    7.8431372549019607e-03 -1. 7.8474981878243547e-03
    -9.6720415164935170e-01 7.8442268065158707e-03
    -1.0168078997946197e+00 7.8442268065158707e-03
    -1.0168078997946197e+00 7.8970653054494452e-03
    -8.8940698002624374e-01 7.8431372549019607e-03 -1.
    7.8442268065158707e-03 -9.8346993586692733e-01
    7.8474981878243547e-03 -9.6720415164935170e-01
    7.9137975764272048e-03 -1.1435437497937311e+00
    8.2218418566424971e-03 -1.3627702877384940e+00
    8.1003573254011339e-03 -1.2909944487358056e+00
    7.8529595972040601e-03 -9.5118973121134176e-01
    7.8529595972040601e-03 -9.5118973121134176e-01
    7.8529595972040601e-03 -1.0513149660756935e+00
    7.8474981878243547e-03 -1.0339078862458588e+00
    7.8442268065158707e-03 -9.8346993586692733e-01
    7.8970653054494452e-03 -8.8940698002624374e-01
    8.0657784728360108e-03 -7.8842984571972008e-01
    8.6277505602655180e-03 -6.4168894791974795e-01
    1.0742455869201244e-02 -4.3372665571900021e-01
    1.0742455869201244e-02 -4.3372665571900021e-01
    1.4188769156600639e-02 -3.0151134457776357e-01
    1.5721249524260256e-02 -2.6726124191242434e-01
    1.7993390891808767e-02 -2.2941573387056177e-01 1. 0.
    1.9624886028901153e-02 -2.0851441405707474e-01
    1.5721249524260256e-02 -2.6726124191242434e-01
    1.3071895424836602e-02 -3.3333333333333337e-01
    9.0564748108176597e-03 -5.7735026918962584e-01
    8.0339792661964279e-03 -8.0239367921136828e-01
    8.0657784728360108e-03 -7.8842984571972008e-01
    7.8705130353608540e-03 -9.1986621100779986e-01
    7.8431372549019607e-03 -1. 8.0048684404679018e-03
    -8.1649658092772603e-01 7.8474981878243547e-03
    -1.0339078862458588e+00 7.8431372549019607e-03 -1.
    7.8442268065158707e-03 -1.0168078997946197e+00
    7.9328899988105675e-03 -1.1631599960755994e+00
    7.8474981878243547e-03 -1.0339078862458588e+00
    7.9137975764272048e-03 -8.7447463219520616e-01
    7.9543929856801549e-03 -8.4515425472851646e-01
    7.9328899988105675e-03 -8.5972695362109530e-01
    7.9783640886981737e-03 -8.3074716073569732e-01
    7.8970653054494452e-03 -8.8940698002624374e-01
    7.8529595972040601e-03 -1.0513149660756935e+00
    7.8442268065158707e-03 -1.0168078997946197e+00
    7.8474981878243547e-03 -9.6720415164935170e-01
    7.8705130353608540e-03 -9.1986621100779986e-01
    7.8606247621301282e-03 -9.3541434669348522e-01
    8.2218418566424971e-03 -1.3627702877384940e+00
    8.0339792661964279e-03 -1.2462710336687208e+00
    8.3189033080770299e-03 -1.4142135623730951e+00
    7.8431372549019607e-03 -1. 7.8474981878243547e-03
    -1.0339078862458588e+00 7.8431372549019607e-03 -1.
    7.8529595972040601e-03 -9.5118973121134176e-01
    7.8474981878243547e-03 -9.6720415164935170e-01
    7.8826495314448016e-03 -9.0453403373329100e-01
    8.0339792661964279e-03 -8.0239367921136828e-01
    8.8679807228754012e-03 -6.0302268915552726e-01
    1.0742455869201244e-02 -4.3372665571900021e-01
    1.2617621651099262e-02 -3.4856179811161714e-01
    1.4888752874549003e-02 -2.8474739872574967e-01
    1.4888752874549003e-02 -2.8474739872574967e-01
    3.0632684936664437e-02 -1.3018891098082386e-01
    1.6732191400818303e-02 -2.4889134708717225e-01
    1.5721249524260256e-02 -2.6726124191242434e-01
    9.9630263853145613e-03 -4.8694291458224920e-01
    8.1378172219538185e-03 -7.6088591025268204e-01
    8.1782705808820088e-03 -7.4728947432809356e-01
    8.2686687031987040e-03 -7.2040776076618707e-01
    7.9783640886981737e-03 -8.3074716073569732e-01
    8.0048684404679018e-03 -8.1649658092772603e-01
    7.8474981878243547e-03 -9.6720415164935170e-01
    7.9137975764272048e-03 -1.1435437497937311e+00
    7.8442268065158707e-03 -9.8346993586692733e-01
    7.8474981878243547e-03 -9.6720415164935170e-01
    7.8442268065158707e-03 -1.0168078997946197e+00
    7.8826495314448016e-03 -1.1055415967851334e+00
    7.9137975764272048e-03 -8.7447463219520616e-01
    7.8705130353608540e-03 -9.1986621100779986e-01
    7.9328899988105675e-03 -8.5972695362109530e-01
    8.1003573254011339e-03 -7.7459666924148340e-01
    7.9328899988105675e-03 -8.5972695362109530e-01
    7.9137975764272048e-03 -8.7447463219520616e-01
    7.8826495314448016e-03 -9.0453403373329100e-01
    7.8606247621301282e-03 -9.3541434669348522e-01
    7.8606247621301282e-03 -9.3541434669348522e-01
    7.8970653054494452e-03 -8.8940698002624374e-01
    7.8442268065158707e-03 -9.8346993586692733e-01
    7.8431372549019607e-03 -1. 8.3189033080770299e-03
    -1.4142135623730951e+00 8.0339792661964279e-03
    -1.2462710336687208e+00 8.1378172219538185e-03
    -1.3142574813455417e+00 7.8705130353608540e-03
    -1.0871146130092180e+00 7.8442268065158707e-03
    -9.8346993586692733e-01 7.8606247621301282e-03
    -9.3541434669348522e-01 7.8529595972040601e-03
    -9.5118973121134176e-01 7.9328899988105675e-03
    -8.5972695362109530e-01 8.6277505602655180e-03
    -6.4168894791974795e-01 1.0134835111857601e-02
    -4.7380354147934284e-01 1.2215861921203882e-02
    -3.6342189215581550e-01 1.4188769156600639e-02
    -3.0151134457776357e-01 1.5721249524260256e-02
    -2.6726124191242434e-01 2.5118141773347001e-02
    -1.6012815380508713e-01 1.4888752874549003e-02
    -2.8474739872574967e-01 1.4188769156600639e-02
    -3.0151134457776357e-01 8.7026673112389312e-03
    -6.2876771323701275e-01 8.1378172219538185e-03
    -7.6088591025268204e-01 8.4918273810009604e-03
    -6.6766992783120049e-01 8.3189033080770299e-03
    -7.0710678118654757e-01 7.9137975764272048e-03
    -8.7447463219520616e-01 7.8442268065158707e-03
    -9.8346993586692733e-01 7.8442268065158707e-03
    -1.0168078997946197e+00 7.8970653054494452e-03
    -1.1243446728633648e+00 7.8442268065158707e-03
    -1.0168078997946197e+00 7.8606247621301282e-03
    -9.3541434669348522e-01 8.1782705808820088e-03
    -7.4728947432809356e-01 7.9328899988105675e-03
    -8.5972695362109530e-01 7.9137975764272048e-03
    -8.7447463219520616e-01 7.9137975764272048e-03
    -8.7447463219520616e-01 8.0339792661964279e-03
    -8.0239367921136828e-01 7.9137975764272048e-03
    -8.7447463219520616e-01 7.9137975764272048e-03
    -8.7447463219520616e-01 8.0048684404679018e-03
    -8.1649658092772603e-01 8.1782705808820088e-03
    -7.4728947432809356e-01 7.9543929856801549e-03
    -8.4515425472851646e-01 7.8970653054494452e-03
    -8.8940698002624374e-01 7.8474981878243547e-03
    -9.6720415164935170e-01 7.8442268065158707e-03
    -1.0168078997946197e+00 7.8705130353608540e-03
    -9.1986621100779986e-01 7.8606247621301282e-03
    -1.0690449676496974e+00 8.3189033080770299e-03
    -1.4142135623730951e+00 8.2218418566424971e-03
    -1.3627702877384940e+00 8.0657784728360108e-03
    -1.2683436648534627e+00 7.8442268065158707e-03
    -1.0168078997946197e+00 7.8529595972040601e-03
    -9.5118973121134176e-01 7.8442268065158707e-03
    -9.8346993586692733e-01 7.8529595972040601e-03
    -9.5118973121134176e-01 8.1378172219538185e-03
    -7.6088591025268204e-01 9.9630263853145613e-03
    -4.8694291458224920e-01 1.0134835111857601e-02
    -4.7380354147934284e-01 1.3590376053127242e-02
    -3.1767504024184928e-01 1.5721249524260256e-02
    -2.6726124191242434e-01 3.0632684936664437e-02
    -1.3018891098082386e-01 1.4888752874549003e-02
    -2.8474739872574967e-01 1.0982588894337331e-02
    -4.2008402520840293e-01 8.5575643229800942e-03
    -6.5465367070797720e-01 8.2218418566424971e-03
    -7.3379938570534287e-01 8.0339792661964279e-03
    -8.0239367921136828e-01 8.0048684404679018e-03
    -8.1649658092772603e-01 8.0048684404679018e-03
    -8.1649658092772603e-01 7.8529595972040601e-03
    -1.0513149660756935e+00 7.8705130353608540e-03
    -1.0871146130092180e+00 7.8826495314448016e-03
    -9.0453403373329100e-01 7.8442268065158707e-03
    -9.8346993586692733e-01 7.8474981878243547e-03
    -9.6720415164935170e-01 8.0657784728360108e-03
    -7.8842984571972008e-01 7.8826495314448016e-03
    -9.0453403373329100e-01 7.8826495314448016e-03
    -9.0453403373329100e-01 7.9137975764272048e-03
    -8.7447463219520616e-01 7.9328899988105675e-03
    -8.5972695362109530e-01 7.9543929856801549e-03
    -8.4515425472851646e-01 7.9137975764272048e-03
    -8.7447463219520616e-01 8.0048684404679018e-03
    -8.1649658092772603e-01 8.1003573254011339e-03
    -7.7459666924148340e-01 8.0657784728360108e-03
    -7.8842984571972008e-01 8.0048684404679018e-03
    -8.1649658092772603e-01 7.8705130353608540e-03
    -9.1986621100779986e-01 7.8474981878243547e-03
    -9.6720415164935170e-01 7.8826495314448016e-03
    -1.1055415967851334e+00 7.8529595972040601e-03
    -1.0513149660756935e+00 8.3727139244490004e-03
    -1.4411533842457842e+00 8.1378172219538185e-03
    -1.3142574813455417e+00 8.1782705808820088e-03
    -1.3381695237968187e+00 7.8705130353608540e-03
    -1.0871146130092180e+00 7.8442268065158707e-03
    -1.0168078997946197e+00 7.8474981878243547e-03
    -1.0339078862458588e+00 7.8529595972040601e-03
    -9.5118973121134176e-01 7.8970653054494452e-03
    -8.8940698002624374e-01 8.7826276228369308e-03
    -6.1588176205143974e-01 9.9630263853145613e-03
    -4.8694291458224920e-01 1.3590376053127242e-02
    -3.1767504024184928e-01 1.5721249524260256e-02
    -2.6726124191242434e-01 2.1846510373770806e-02
    -1.8569533817705186e-01 1.4188769156600639e-02
    -3.0151134457776357e-01 8.7826276228369308e-03
    -6.1588176205143974e-01 8.3727139244490004e-03
    -6.9388866648871095e-01 7.9328899988105675e-03
    -8.5972695362109530e-01 7.9543929856801549e-03
    -8.4515425472851646e-01 8.0657784728360108e-03
    -7.8842984571972008e-01 7.8606247621301282e-03
    -1.0690449676496974e+00 7.8970653054494452e-03
    -1.1243446728633648e+00 7.8970653054494452e-03
    -8.8940698002624374e-01 7.8606247621301282e-03
    -9.3541434669348522e-01 7.8474981878243547e-03
    -9.6720415164935170e-01 7.8442268065158707e-03
    -1.0168078997946197e+00 7.9328899988105675e-03
    -8.5972695362109530e-01 7.9543929856801549e-03
    -8.4515425472851646e-01 7.9543929856801549e-03
    -8.4515425472851646e-01 8.0339792661964279e-03
    -8.0239367921136828e-01 8.4302866341178662e-03
    -6.8074564570501772e-01 7.9328899988105675e-03
    -8.5972695362109530e-01 8.0657784728360108e-03
    -7.8842984571972008e-01 8.0339792661964279e-03
    -8.0239367921136828e-01 8.0657784728360108e-03
    -7.8842984571972008e-01 8.1782705808820088e-03
    -7.4728947432809356e-01 7.8826495314448016e-03
    -9.0453403373329100e-01 7.8474981878243547e-03
    -9.6720415164935170e-01 7.8431372549019607e-03 -1.
    7.8606247621301282e-03 -1.0690449676496974e+00
    7.8442268065158707e-03 -9.8346993586692733e-01
    7.9783640886981737e-03 -1.2037356818823370e+00
    8.0048684404679018e-03 -1.2247448713915889e+00
    8.1378172219538185e-03 -1.3142574813455417e+00
    8.0657784728360108e-03 -1.2683436648534627e+00
    7.8474981878243547e-03 -1.0339078862458588e+00
    7.8606247621301282e-03 -9.3541434669348522e-01
    7.8431372549019607e-03 -1. 7.8606247621301282e-03
    -9.3541434669348522e-01 8.4302866341178662e-03
    -6.8074564570501772e-01 9.8039215686274508e-03
    -5.0000000000000000e-01 9.8039215686274508e-03
    -5.0000000000000000e-01 1.3590376053127242e-02
    -3.1767504024184928e-01 1.7993390891808767e-02
    -2.2941573387056177e-01 1.2215861921203882e-02
    -3.6342189215581550e-01 8.7826276228369308e-03
    -6.1588176205143974e-01 8.3189033080770299e-03
    -7.0710678118654757e-01 7.8970653054494452e-03
    -8.8940698002624374e-01 7.9137975764272048e-03
    -8.7447463219520616e-01 7.8529595972040601e-03
    -9.5118973121134176e-01 7.8970653054494452e-03
    -1.1243446728633648e+00 7.8826495314448016e-03
    -1.1055415967851334e+00 7.8606247621301282e-03
    -1.0690449676496974e+00 7.8431372549019607e-03 -1.
    7.8474981878243547e-03 -9.6720415164935170e-01
    7.9543929856801549e-03 -8.4515425472851646e-01
    7.8705130353608540e-03 -9.1986621100779986e-01
    7.9543929856801549e-03 -8.4515425472851646e-01
    8.2686687031987040e-03 -7.2040776076618707e-01
    8.2218418566424971e-03 -7.3379938570534287e-01
    8.2686687031987040e-03 -7.2040776076618707e-01
    8.3727139244490004e-03 -6.9388866648871095e-01
    8.4302866341178662e-03 -6.8074564570501772e-01
    8.4302866341178662e-03 -6.8074564570501772e-01
    8.2686687031987040e-03 -7.2040776076618707e-01
    8.1003573254011339e-03 -7.7459666924148340e-01
    7.9783640886981737e-03 -8.3074716073569732e-01
    7.9137975764272048e-03 -8.7447463219520616e-01
    7.8474981878243547e-03 -9.6720415164935170e-01
    7.8442268065158707e-03 -1.0168078997946197e+00
    7.8474981878243547e-03 -9.6720415164935170e-01
    7.9783640886981737e-03 -1.2037356818823370e+00
    7.9783640886981737e-03 -1.2037356818823370e+00
    8.4918273810009604e-03 -1.4977460543240444e+00
    8.4302866341178662e-03 -1.4689774459950382e+00
    8.0339792661964279e-03 -1.2462710336687208e+00
    7.8431372549019607e-03 -1. 7.8826495314448016e-03
    -9.0453403373329100e-01 7.8529595972040601e-03
    -9.5118973121134176e-01 8.1003573254011339e-03
    -7.7459666924148340e-01 8.8679807228754012e-03
    -6.0302268915552726e-01 1.0134835111857601e-02
    -4.7380354147934284e-01 1.2215861921203882e-02
    -3.6342189215581550e-01 2.5118141773347001e-02
    -1.6012815380508713e-01 1.2617621651099262e-02
    -3.4856179811161714e-01 8.5575643229800942e-03
    -6.5465367070797720e-01 8.4918273810009604e-03
    -6.6766992783120049e-01 7.9328899988105675e-03
    -8.5972695362109530e-01 7.8826495314448016e-03
    -9.0453403373329100e-01 7.8529595972040601e-03
    -9.5118973121134176e-01 7.9328899988105675e-03
    -1.1631599960755994e+00 7.9328899988105675e-03
    -1.1631599960755994e+00 7.8442268065158707e-03
    -1.0168078997946197e+00 7.8606247621301282e-03
    -9.3541434669348522e-01 7.8705130353608540e-03
    -9.1986621100779986e-01 7.9328899988105675e-03
    -8.5972695362109530e-01 8.0339792661964279e-03
    -8.0239367921136828e-01 7.9783640886981737e-03
    -8.3074716073569732e-01 8.1782705808820088e-03
    -7.4728947432809356e-01 8.3189033080770299e-03
    -7.0710678118654757e-01 8.5575643229800942e-03
    -6.5465367070797720e-01 8.3727139244490004e-03
    -6.9388866648871095e-01 8.3727139244490004e-03
    -6.9388866648871095e-01 8.3727139244490004e-03
    -6.9388866648871095e-01 8.3189033080770299e-03
    -7.0710678118654757e-01 8.2218418566424971e-03
    -7.3379938570534287e-01 8.2686687031987040e-03
    -7.2040776076618707e-01 7.9137975764272048e-03
    -8.7447463219520616e-01 7.9328899988105675e-03
    -8.5972695362109530e-01 7.8606247621301282e-03
    -9.3541434669348522e-01 7.8442268065158707e-03
    -9.8346993586692733e-01 7.8529595972040601e-03
    -1.0513149660756935e+00 8.1003573254011339e-03
    -1.2909944487358056e+00 8.1782705808820088e-03
    -1.3381695237968187e+00 8.7026673112389312e-03
    -1.5904124511289146e+00 8.2218418566424971e-03
    -1.3627702877384940e+00 7.8970653054494452e-03
    -1.1243446728633648e+00 7.8442268065158707e-03
    -1.0168078997946197e+00 7.8442268065158707e-03
    -9.8346993586692733e-01 8.0339792661964279e-03
    -8.0239367921136828e-01 8.1378172219538185e-03
    -7.6088591025268204e-01 9.5189811066204097e-03
    -5.2592370614077766e-01 1.1857708957152227e-02
    -3.7796447300922725e-01 1.9624886028901153e-02
    -2.0851441405707474e-01 1.2215861921203882e-02
    -3.6342189215581550e-01 8.8679807228754012e-03
    -6.0302268915552726e-01 8.3189033080770299e-03
    -7.0710678118654757e-01 7.8606247621301282e-03
    -9.3541434669348522e-01 7.8442268065158707e-03
    -9.8346993586692733e-01 7.8474981878243547e-03
    -9.6720415164935170e-01 7.9543929856801549e-03
    -1.1832159566199230e+00 8.0048684404679018e-03
    -1.2247448713915889e+00 7.8442268065158707e-03
    -1.0168078997946197e+00 7.8529595972040601e-03
    -9.5118973121134176e-01 7.8529595972040601e-03
    -9.5118973121134176e-01 7.9543929856801549e-03
    -8.4515425472851646e-01 8.1378172219538185e-03
    -7.6088591025268204e-01 8.3189033080770299e-03
    -7.0710678118654757e-01 8.1782705808820088e-03
    -7.4728947432809356e-01 8.4302866341178662e-03
    -6.8074564570501772e-01 8.7026673112389312e-03
    -6.2876771323701275e-01 8.5575643229800942e-03
    -6.5465367070797720e-01 8.4302866341178662e-03
    -6.8074564570501772e-01 8.3189033080770299e-03
    -7.0710678118654757e-01 8.2218418566424971e-03
    -7.3379938570534287e-01 8.2218418566424971e-03
    -7.3379938570534287e-01 8.2218418566424971e-03
    -7.3379938570534287e-01 8.4302866341178662e-03
    -6.8074564570501772e-01 8.5575643229800942e-03
    -6.5465367070797720e-01 8.2218418566424971e-03
    -7.3379938570534287e-01 7.8606247621301282e-03
    -9.3541434669348522e-01 7.8431372549019607e-03 -1.
    7.8474981878243547e-03 -1.0339078862458588e+00
    8.1378172219538185e-03 -1.3142574813455417e+00
    8.1003573254011339e-03 -1.2909944487358056e+00
    8.2686687031987040e-03 -1.3881027585494825e+00
    7.8606247621301282e-03 -1.0690449676496974e+00
    7.8474981878243547e-03 -1.0339078862458588e+00
    7.8705130353608540e-03 -1.0871146130092180e+00
    7.8606247621301282e-03 -1.0690449676496974e+00
    8.4302866341178662e-03 -6.8074564570501772e-01
    9.6562668431543919e-03 -5.1298917604257710e-01
    1.0522672835293128e-02 -4.4721359549995793e-01
    1.7993390891808767e-02 -2.2941573387056177e-01
    1.2215861921203882e-02 -3.6342189215581550e-01
    8.9591171475898058e-03 -5.9018184209747848e-01
    8.0657784728360108e-03 -7.8842984571972008e-01
    7.8442268065158707e-03 -9.8346993586692733e-01
    7.9543929856801549e-03 -8.4515425472851646e-01
    7.8606247621301282e-03 -9.3541434669348522e-01
    8.0048684404679018e-03 -1.2247448713915889e+00
    8.1782705808820088e-03 -1.3381695237968187e+00
    7.8442268065158707e-03 -1.0168078997946197e+00
    7.8474981878243547e-03 -1.0339078862458588e+00
    7.9543929856801549e-03 -8.4515425472851646e-01
    7.9137975764272048e-03 -8.7447463219520616e-01
    8.1003573254011339e-03 -7.7459666924148340e-01
    8.2218418566424971e-03 -7.3379938570534287e-01
    8.4302866341178662e-03 -6.8074564570501772e-01
    8.5575643229800942e-03 -6.5465367070797720e-01
    8.8679807228754012e-03 -6.0302268915552726e-01
    8.6277505602655180e-03 -6.4168894791974795e-01
    8.4302866341178662e-03 -6.8074564570501772e-01
    8.4918273810009604e-03 -6.6766992783120049e-01
    8.5575643229800942e-03 -6.5465367070797720e-01
    8.2218418566424971e-03 -7.3379938570534287e-01
    8.3727139244490004e-03 -6.9388866648871095e-01
    8.2686687031987040e-03 -7.2040776076618707e-01
    8.2686687031987040e-03 -7.2040776076618707e-01
    8.3189033080770299e-03 -7.0710678118654757e-01
    7.9137975764272048e-03 -8.7447463219520616e-01
    7.8606247621301282e-03 -9.3541434669348522e-01
    7.8474981878243547e-03 -9.6720415164935170e-01
    8.2218418566424971e-03 -1.3627702877384940e+00
    8.1003573254011339e-03 -1.2909944487358056e+00
    8.3189033080770299e-03 -1.4142135623730951e+00
    8.1378172219538185e-03 -1.3142574813455417e+00
    7.8970653054494452e-03 -1.1243446728633648e+00
    7.8442268065158707e-03 -1.0168078997946197e+00
    7.8705130353608540e-03 -1.0871146130092180e+00
    8.2686687031987040e-03 -7.2040776076618707e-01
    1.0134835111857601e-02 -4.7380354147934284e-01
    1.1245997757467090e-02 -4.0626166898849864e-01
    1.3071895424836602e-02 -3.3333333333333337e-01
    1.2215861921203882e-02 -3.6342189215581550e-01
    8.7826276228369308e-03 -6.1588176205143974e-01
    8.3727139244490004e-03 -6.9388866648871095e-01
    8.0657784728360108e-03 -7.8842984571972008e-01
    7.9543929856801549e-03 -8.4515425472851646e-01
    7.8606247621301282e-03 -9.3541434669348522e-01
    7.8970653054494452e-03 -8.8940698002624374e-01
    8.1003573254011339e-03 -1.2909944487358056e+00
    7.8529595972040601e-03 -1.0513149660756935e+00
    7.8474981878243547e-03 -9.6720415164935170e-01
    7.8474981878243547e-03 -9.6720415164935170e-01
    7.9783640886981737e-03 -8.3074716073569732e-01
    8.2218418566424971e-03 -7.3379938570534287e-01
    8.3189033080770299e-03 -7.0710678118654757e-01
    8.3727139244490004e-03 -6.9388866648871095e-01
    8.4918273810009604e-03 -6.6766992783120049e-01
    8.7026673112389312e-03 -6.2876771323701275e-01
    8.4918273810009604e-03 -6.6766992783120049e-01
    8.4918273810009604e-03 -6.6766992783120049e-01
    8.2218418566424971e-03 -7.3379938570534287e-01
    8.4302866341178662e-03 -6.8074564570501772e-01
    8.3189033080770299e-03 -7.0710678118654757e-01
    8.4302866341178662e-03 -6.8074564570501772e-01
    8.3727139244490004e-03 -6.9388866648871095e-01
    8.7026673112389312e-03 -6.2876771323701275e-01
    8.3727139244490004e-03 -6.9388866648871095e-01
    8.2218418566424971e-03 -7.3379938570534287e-01
    7.9543929856801549e-03 -8.4515425472851646e-01
    7.8529595972040601e-03 -9.5118973121134176e-01
    7.9543929856801549e-03 -1.1832159566199230e+00
    7.8705130353608540e-03 -1.0871146130092180e+00
    8.2218418566424971e-03 -1.3627702877384940e+00
    8.1782705808820088e-03 -1.3381695237968187e+00
    7.8826495314448016e-03 -1.1055415967851334e+00
    7.8606247621301282e-03 -1.0690449676496974e+00
    7.8474981878243547e-03 -1.0339078862458588e+00
    8.1782705808820088e-03 -7.4728947432809356e-01
    1.1245997757467090e-02 -4.0626166898849864e-01
    1.0982588894337331e-02 -4.2008402520840293e-01
    1.3071895424836602e-02 -3.3333333333333337e-01
    1.1536243243422589e-02 -3.9223227027636803e-01
    8.9591171475898058e-03 -5.9018184209747848e-01
    8.2218418566424971e-03 -7.3379938570534287e-01
    7.9783640886981737e-03 -8.3074716073569732e-01
    7.9543929856801549e-03 -8.4515425472851646e-01
    7.8529595972040601e-03 -9.5118973121134176e-01
    7.8606247621301282e-03 -9.3541434669348522e-01
    8.0048684404679018e-03 -1.2247448713915889e+00
    7.8606247621301282e-03 -1.0690449676496974e+00
    7.9783640886981737e-03 -1.2037356818823370e+00
    7.8431372549019607e-03 -1. 8.1003573254011339e-03
    -7.7459666924148340e-01 8.1378172219538185e-03
    -7.6088591025268204e-01 8.3189033080770299e-03
    -7.0710678118654757e-01 8.3189033080770299e-03
    -7.0710678118654757e-01 8.4302866341178662e-03
    -6.8074564570501772e-01 9.1605462240448091e-03
    -5.6451866105676141e-01 8.2686687031987040e-03
    -7.2040776076618707e-01 8.2218418566424971e-03
    -7.3379938570534287e-01 8.3189033080770299e-03
    -7.0710678118654757e-01 8.4302866341178662e-03
    -6.8074564570501772e-01 8.2686687031987040e-03
    -7.2040776076618707e-01 8.2218418566424971e-03
    -7.3379938570534287e-01 8.3189033080770299e-03
    -7.0710678118654757e-01 8.2686687031987040e-03
    -7.2040776076618707e-01 8.0657784728360108e-03
    -7.8842984571972008e-01 8.1378172219538185e-03
    -7.6088591025268204e-01 8.2218418566424971e-03
    -7.3379938570534287e-01 7.8606247621301282e-03
    -9.3541434669348522e-01 8.0048684404679018e-03
    -1.2247448713915889e+00 8.0657784728360108e-03
    -1.2683436648534627e+00 8.3189033080770299e-03
    -1.4142135623730951e+00 8.0048684404679018e-03
    -1.2247448713915889e+00 7.8705130353608540e-03
    -1.0871146130092180e+00 7.8474981878243547e-03
    -1.0339078862458588e+00 7.8442268065158707e-03
    -9.8346993586692733e-01 8.2686687031987040e-03
    -7.2040776076618707e-01 1.1857708957152227e-02
    -3.7796447300922725e-01 1.0742455869201244e-02
    -4.3372665571900021e-01 1.3590376053127242e-02
    -3.1767504024184928e-01 1.2617621651099262e-02
    -3.4856179811161714e-01 8.7826276228369308e-03
    -6.1588176205143974e-01 7.9137975764272048e-03
    -8.7447463219520616e-01 8.0657784728360108e-03
    -7.8842984571972008e-01 8.0339792661964279e-03
    -8.0239367921136828e-01 7.9783640886981737e-03
    -8.3074716073569732e-01 7.8474981878243547e-03
    -9.6720415164935170e-01 8.1378172219538185e-03
    -1.3142574813455417e+00 7.8474981878243547e-03
    -1.0339078862458588e+00 7.8705130353608540e-03
    -1.0871146130092180e+00 7.8442268065158707e-03
    -9.8346993586692733e-01 8.4918273810009604e-03
    -6.6766992783120049e-01 8.4302866341178662e-03
    -6.8074564570501772e-01 8.3727139244490004e-03
    -6.9388866648871095e-01 8.3727139244490004e-03
    -6.9388866648871095e-01 8.5575643229800942e-03
    -6.5465367070797720e-01 8.5575643229800942e-03
    -6.5465367070797720e-01 8.3189033080770299e-03
    -7.0710678118654757e-01 8.1782705808820088e-03
    -7.4728947432809356e-01 8.1378172219538185e-03
    -7.6088591025268204e-01 8.3189033080770299e-03
    -7.0710678118654757e-01 8.6277505602655180e-03
    -6.4168894791974795e-01 8.3189033080770299e-03
    -7.0710678118654757e-01 8.3189033080770299e-03
    -7.0710678118654757e-01 8.2686687031987040e-03
    -7.2040776076618707e-01 8.0657784728360108e-03
    -7.8842984571972008e-01 8.0339792661964279e-03
    -8.0239367921136828e-01 8.1003573254011339e-03
    -7.7459666924148340e-01 8.1782705808820088e-03
    -7.4728947432809356e-01 8.0048684404679018e-03
    -1.2247448713915889e+00 7.9328899988105675e-03
    -1.1631599960755994e+00 7.9137975764272048e-03
    -1.1435437497937311e+00 8.1782705808820088e-03
    -1.3381695237968187e+00 7.8826495314448016e-03
    -1.1055415967851334e+00 7.8442268065158707e-03
    -1.0168078997946197e+00 7.8431372549019607e-03 -1.
    7.9783640886981737e-03 -8.3074716073569732e-01
    1.0522672835293128e-02 -4.4721359549995793e-01
    1.0982588894337331e-02 -4.2008402520840293e-01
    1.4188769156600639e-02 -3.0151134457776357e-01
    1.3071895424836602e-02 -3.3333333333333337e-01
    8.5575643229800942e-03 -6.5465367070797720e-01
    8.2218418566424971e-03 -7.3379938570534287e-01
    8.1378172219538185e-03 -7.6088591025268204e-01
    7.9543929856801549e-03 -8.4515425472851646e-01
    7.8970653054494452e-03 -8.8940698002624374e-01
    7.8529595972040601e-03 -9.5118973121134176e-01
    7.8442268065158707e-03 -1.0168078997946197e+00
    7.8474981878243547e-03 -1.0339078862458588e+00
    7.8705130353608540e-03 -9.1986621100779986e-01
    7.8606247621301282e-03 -9.3541434669348522e-01
    8.3727139244490004e-03 -6.9388866648871095e-01
    8.0657784728360108e-03 -7.8842984571972008e-01
    8.3727139244490004e-03 -6.9388866648871095e-01
    8.7026673112389312e-03 -6.2876771323701275e-01
    8.7826276228369308e-03 -6.1588176205143974e-01
    8.8679807228754012e-03 -6.0302268915552726e-01
    8.7026673112389312e-03 -6.2876771323701275e-01
    8.4302866341178662e-03 -6.8074564570501772e-01
    8.3727139244490004e-03 -6.9388866648871095e-01
    8.4302866341178662e-03 -6.8074564570501772e-01
    8.7026673112389312e-03 -6.2876771323701275e-01
    8.4918273810009604e-03 -6.6766992783120049e-01
    8.5575643229800942e-03 -6.5465367070797720e-01
    8.4918273810009604e-03 -6.6766992783120049e-01
    8.2218418566424971e-03 -7.3379938570534287e-01
    8.1782705808820088e-03 -7.4728947432809356e-01
    8.0657784728360108e-03 -7.8842984571972008e-01
    8.1782705808820088e-03 -7.4728947432809356e-01
    7.8826495314448016e-03 -1.1055415967851334e+00
    7.8826495314448016e-03 -1.1055415967851334e+00
    8.0048684404679018e-03 -1.2247448713915889e+00
    8.1378172219538185e-03 -1.3142574813455417e+00
    7.8474981878243547e-03 -9.6720415164935170e-01
    7.8442268065158707e-03 -9.8346993586692733e-01
    7.8474981878243547e-03 -1.0339078862458588e+00
    8.0657784728360108e-03 -7.8842984571972008e-01
    8.7026673112389312e-03 -6.2876771323701275e-01
    1.0742455869201244e-02 -4.3372665571900021e-01
    1.4888752874549003e-02 -2.8474739872574967e-01
    1.3071895424836602e-02 -3.3333333333333337e-01
    8.9591171475898058e-03 -5.9018184209747848e-01
    8.2218418566424971e-03 -7.3379938570534287e-01
    8.0339792661964279e-03 -8.0239367921136828e-01
    7.9328899988105675e-03 -8.5972695362109530e-01
    7.8826495314448016e-03 -9.0453403373329100e-01
    7.8529595972040601e-03 -9.5118973121134176e-01
    7.8474981878243547e-03 -1.0339078862458588e+00
    7.8442268065158707e-03 -9.8346993586692733e-01
    7.8705130353608540e-03 -9.1986621100779986e-01
    8.1003573254011339e-03 -7.7459666924148340e-01
    7.8529595972040601e-03 -9.5118973121134176e-01
    8.4302866341178662e-03 -6.8074564570501772e-01
    8.3727139244490004e-03 -6.9388866648871095e-01
    8.4918273810009604e-03 -6.6766992783120049e-01
    8.8679807228754012e-03 -6.0302268915552726e-01
    9.0564748108176597e-03 -5.7735026918962584e-01
    8.7026673112389312e-03 -6.2876771323701275e-01
    8.7026673112389312e-03 -6.2876771323701275e-01
    8.6277505602655180e-03 -6.4168894791974795e-01
    8.9591171475898058e-03 -5.9018184209747848e-01
    8.7826276228369308e-03 -6.1588176205143974e-01
    8.6277505602655180e-03 -6.4168894791974795e-01
    8.7026673112389312e-03 -6.2876771323701275e-01
    8.4918273810009604e-03 -6.6766992783120049e-01
    8.1003573254011339e-03 -7.7459666924148340e-01
    8.0657784728360108e-03 -7.8842984571972008e-01
    8.1003573254011339e-03 -7.7459666924148340e-01
    8.1378172219538185e-03 -7.6088591025268204e-01
    7.8705130353608540e-03 -9.1986621100779986e-01
    7.8970653054494452e-03 -1.1243446728633648e+00
    7.9137975764272048e-03 -1.1435437497937311e+00
    8.0048684404679018e-03 -1.2247448713915889e+00
    7.8474981878243547e-03 -9.6720415164935170e-01
    7.8474981878243547e-03 -9.6720415164935170e-01
    7.8442268065158707e-03 -1.0168078997946197e+00
    8.0339792661964279e-03 -8.0239367921136828e-01
    8.5575643229800942e-03 -6.5465367070797720e-01
    1.0982588894337331e-02 -4.2008402520840293e-01
    2.5118141773347001e-02 -1.6012815380508713e-01
    1.1536243243422589e-02 -3.9223227027636803e-01
    9.1605462240448091e-03 -5.6451866105676141e-01
    8.2686687031987040e-03 -7.2040776076618707e-01
    8.3189033080770299e-03 -7.0710678118654757e-01
    8.0048684404679018e-03 -8.1649658092772603e-01
    7.9328899988105675e-03 -8.5972695362109530e-01
    7.8606247621301282e-03 -9.3541434669348522e-01
    7.8431372549019607e-03 -1. 7.8442268065158707e-03
    -1.0168078997946197e+00 7.8826495314448016e-03
    -9.0453403373329100e-01 7.8606247621301282e-03
    -9.3541434669348522e-01 7.8606247621301282e-03
    -9.3541434669348522e-01 8.2218418566424971e-03
    -7.3379938570534287e-01 8.9591171475898058e-03
    -5.9018184209747848e-01 8.7826276228369308e-03
    -6.1588176205143974e-01 8.4918273810009604e-03
    -6.6766992783120049e-01 8.4918273810009604e-03
    -6.6766992783120049e-01 8.6277505602655180e-03
    -6.4168894791974795e-01 8.7026673112389312e-03
    -6.2876771323701275e-01 8.7826276228369308e-03
    -6.1588176205143974e-01 8.7826276228369308e-03
    -6.1588176205143974e-01 8.9591171475898058e-03
    -5.9018184209747848e-01 8.3727139244490004e-03
    -6.9388866648871095e-01 8.6277505602655180e-03
    -6.4168894791974795e-01 8.4918273810009604e-03
    -6.6766992783120049e-01 8.2218418566424971e-03
    -7.3379938570534287e-01 8.0657784728360108e-03
    -7.8842984571972008e-01 8.2218418566424971e-03
    -7.3379938570534287e-01 7.8705130353608540e-03
    -9.1986621100779986e-01 7.8970653054494452e-03
    -1.1243446728633648e+00 7.8826495314448016e-03
    -9.0453403373329100e-01 7.9543929856801549e-03
    -1.1832159566199230e+00 8.0048684404679018e-03
    -1.2247448713915889e+00 7.8431372549019607e-03 -1.
    7.8442268065158707e-03 -1.0168078997946197e+00
    7.8474981878243547e-03 -9.6720415164935170e-01
    8.0048684404679018e-03 -8.1649658092772603e-01
    8.7026673112389312e-03 -6.2876771323701275e-01
    1.1536243243422589e-02 -3.9223227027636803e-01
    2.1846510373770806e-02 -1.8569533817705186e-01
    1.0742455869201244e-02 -4.3372665571900021e-01
    9.8039215686274508e-03 -5.0000000000000000e-01
    8.9591171475898058e-03 -5.9018184209747848e-01
    8.0657784728360108e-03 -7.8842984571972008e-01
    7.9783640886981737e-03 -8.3074716073569732e-01
    7.9328899988105675e-03 -8.5972695362109530e-01
    7.8606247621301282e-03 -9.3541434669348522e-01
    7.8970653054494452e-03 -8.8940698002624374e-01
    7.8826495314448016e-03 -9.0453403373329100e-01
    7.8606247621301282e-03 -9.3541434669348522e-01
    7.8431372549019607e-03 -1. 7.9543929856801549e-03
    -8.4515425472851646e-01 7.9543929856801549e-03
    -8.4515425472851646e-01 8.6277505602655180e-03
    -6.4168894791974795e-01 8.4918273810009604e-03
    -6.6766992783120049e-01 8.8679807228754012e-03
    -6.0302268915552726e-01 8.6277505602655180e-03
    -6.4168894791974795e-01 8.6277505602655180e-03
    -6.4168894791974795e-01 8.7826276228369308e-03
    -6.1588176205143974e-01 8.4302866341178662e-03
    -6.8074564570501772e-01 8.6277505602655180e-03
    -6.4168894791974795e-01 8.4302866341178662e-03
    -6.8074564570501772e-01 8.3727139244490004e-03
    -6.9388866648871095e-01 8.4302866341178662e-03
    -6.8074564570501772e-01 8.4918273810009604e-03
    -6.6766992783120049e-01 8.1378172219538185e-03
    -7.6088591025268204e-01 8.2686687031987040e-03
    -7.2040776076618707e-01 8.1782705808820088e-03
    -7.4728947432809356e-01 7.8970653054494452e-03
    -8.8940698002624374e-01 7.8529595972040601e-03
    -9.5118973121134176e-01 7.8826495314448016e-03
    -1.1055415967851334e+00 7.9783640886981737e-03
    -1.2037356818823370e+00 7.9137975764272048e-03
    -1.1435437497937311e+00 7.8529595972040601e-03
    -9.5118973121134176e-01 7.8431372549019607e-03 -1.
    7.8529595972040601e-03 -9.5118973121134176e-01
    8.1003573254011339e-03 -7.7459666924148340e-01
    8.5575643229800942e-03 -6.5465367070797720e-01
    1.0320810901329710e-02 -4.6056618647183833e-01
    1.7993390891808767e-02 -2.2941573387056177e-01
    1.1857708957152227e-02 -3.7796447300922725e-01
    9.5189811066204097e-03 -5.2592370614077766e-01
    8.9591171475898058e-03 -5.9018184209747848e-01
    8.1378172219538185e-03 -7.6088591025268204e-01
    8.0048684404679018e-03 -8.1649658092772603e-01
    7.9137975764272048e-03 -8.7447463219520616e-01
    7.8826495314448016e-03 -9.0453403373329100e-01
    7.8826495314448016e-03 -9.0453403373329100e-01
    7.9783640886981737e-03 -8.3074716073569732e-01
    7.8442268065158707e-03 -9.8346993586692733e-01
    7.8442268065158707e-03 -1.0168078997946197e+00
    7.8431372549019607e-03 -1. 7.8970653054494452e-03
    -8.8940698002624374e-01 8.0657784728360108e-03
    -7.8842984571972008e-01 8.5575643229800942e-03
    -6.5465367070797720e-01 8.5575643229800942e-03
    -6.5465367070797720e-01 8.4918273810009604e-03
    -6.6766992783120049e-01 8.6277505602655180e-03
    -6.4168894791974795e-01 8.3189033080770299e-03
    -7.0710678118654757e-01 8.4918273810009604e-03
    -6.6766992783120049e-01 8.4918273810009604e-03
    -6.6766992783120049e-01 8.4302866341178662e-03
    -6.8074564570501772e-01 8.5575643229800942e-03
    -6.5465367070797720e-01 8.5575643229800942e-03
    -6.5465367070797720e-01 8.4302866341178662e-03
    -6.8074564570501772e-01 8.7026673112389312e-03
    -6.2876771323701275e-01 8.2686687031987040e-03
    -7.2040776076618707e-01 7.8529595972040601e-03
    -9.5118973121134176e-01 7.8442268065158707e-03
    -9.8346993586692733e-01 7.8606247621301282e-03
    -9.3541434669348522e-01 7.8529595972040601e-03
    -9.5118973121134176e-01 7.9783640886981737e-03
    -1.2037356818823370e+00 7.9137975764272048e-03
    -1.1435437497937311e+00 7.8442268065158707e-03
    -1.0168078997946197e+00 7.9783640886981737e-03
    -8.3074716073569732e-01 7.8606247621301282e-03
    -9.3541434669348522e-01 8.0339792661964279e-03
    -8.0239367921136828e-01 8.8679807228754012e-03
    -6.0302268915552726e-01 1.0522672835293128e-02
    -4.4721359549995793e-01 2.1846510373770806e-02
    -1.8569533817705186e-01 1.1857708957152227e-02
    -3.7796447300922725e-01 9.9630263853145613e-03
    -4.8694291458224920e-01 8.8679807228754012e-03
    -6.0302268915552726e-01 8.2218418566424971e-03
    -7.3379938570534287e-01 8.1782705808820088e-03
    -7.4728947432809356e-01 8.0657784728360108e-03
    -7.8842984571972008e-01 7.9137975764272048e-03
    -8.7447463219520616e-01 7.8970653054494452e-03
    -8.8940698002624374e-01 7.8826495314448016e-03
    -9.0453403373329100e-01 7.9328899988105675e-03
    -8.5972695362109530e-01 7.8442268065158707e-03
    -9.8346993586692733e-01 7.8442268065158707e-03
    -9.8346993586692733e-01 7.8970653054494452e-03
    -8.8940698002624374e-01 7.8970653054494452e-03
    -8.8940698002624374e-01 7.9543929856801549e-03
    -8.4515425472851646e-01 8.8679807228754012e-03
    -6.0302268915552726e-01 8.7826276228369308e-03
    -6.1588176205143974e-01 8.4302866341178662e-03
    -6.8074564570501772e-01 8.4302866341178662e-03
    -6.8074564570501772e-01 8.4918273810009604e-03
    -6.6766992783120049e-01 8.5575643229800942e-03
    -6.5465367070797720e-01 8.4302866341178662e-03
    -6.8074564570501772e-01 8.5575643229800942e-03
    -6.5465367070797720e-01 8.8679807228754012e-03
    -6.0302268915552726e-01 8.4918273810009604e-03
    -6.6766992783120049e-01 8.3189033080770299e-03
    -7.0710678118654757e-01 8.1378172219538185e-03
    -7.6088591025268204e-01 7.8529595972040601e-03
    -9.5118973121134176e-01 7.8970653054494452e-03
    -8.8940698002624374e-01 7.8606247621301282e-03
    -9.3541434669348522e-01 7.8606247621301282e-03
    -1.0690449676496974e+00 8.0339792661964279e-03
    -1.2462710336687208e+00 7.8442268065158707e-03
    -9.8346993586692733e-01 7.8431372549019607e-03 -1.
    7.8606247621301282e-03 -9.3541434669348522e-01
    7.8606247621301282e-03 -9.3541434669348522e-01
    8.3189033080770299e-03 -7.0710678118654757e-01
    8.7826276228369308e-03 -6.1588176205143974e-01
    1.0742455869201244e-02 -4.3372665571900021e-01
    1.5721249524260256e-02 -2.6726124191242434e-01
    1.1857708957152227e-02 -3.7796447300922725e-01
    1.0134835111857601e-02 -4.7380354147934284e-01
    9.9630263853145613e-03 -4.8694291458224920e-01
    8.2218418566424971e-03 -7.3379938570534287e-01
    8.2686687031987040e-03 -7.2040776076618707e-01
    8.1378172219538185e-03 -7.6088591025268204e-01
    8.0048684404679018e-03 -8.1649658092772603e-01
    7.8970653054494452e-03 -8.8940698002624374e-01
    7.8705130353608540e-03 -9.1986621100779986e-01
    7.8474981878243547e-03 -9.6720415164935170e-01
    7.8442268065158707e-03 -9.8346993586692733e-01
    8.0048684404679018e-03 -8.1649658092772603e-01
    7.9328899988105675e-03 -8.5972695362109530e-01
    7.8970653054494452e-03 -8.8940698002624374e-01
    8.3189033080770299e-03 -7.0710678118654757e-01
    8.0048684404679018e-03 -8.1649658092772603e-01
    8.3727139244490004e-03 -6.9388866648871095e-01
    8.3727139244490004e-03 -6.9388866648871095e-01
    8.5575643229800942e-03 -6.5465367070797720e-01
    8.4302866341178662e-03 -6.8074564570501772e-01
    8.4918273810009604e-03 -6.6766992783120049e-01
    8.6277505602655180e-03 -6.4168894791974795e-01
    8.4302866341178662e-03 -6.8074564570501772e-01
    8.4302866341178662e-03 -6.8074564570501772e-01
    8.2218418566424971e-03 -7.3379938570534287e-01
    7.9783640886981737e-03 -8.3074716073569732e-01
    7.9783640886981737e-03 -8.3074716073569732e-01
    8.2686687031987040e-03 -7.2040776076618707e-01
    8.1003573254011339e-03 -7.7459666924148340e-01
    7.8529595972040601e-03 -9.5118973121134176e-01
    8.2218418566424971e-03 -1.3627702877384940e+00
    8.1378172219538185e-03 -1.3142574813455417e+00
    7.8442268065158707e-03 -1.0168078997946197e+00
    7.8970653054494452e-03 -8.8940698002624374e-01
    7.8474981878243547e-03 -9.6720415164935170e-01
    7.8529595972040601e-03 -9.5118973121134176e-01
    8.5575643229800942e-03 -6.5465367070797720e-01
    8.9591171475898058e-03 -5.9018184209747848e-01
    1.4888752874549003e-02 -2.8474739872574967e-01
    1.4188769156600639e-02 -3.0151134457776357e-01
    1.1857708957152227e-02 -3.7796447300922725e-01
    1.0134835111857601e-02 -4.7380354147934284e-01
    9.9630263853145613e-03 -4.8694291458224920e-01
    9.2718871322247133e-03 -5.5167728436737040e-01
    8.7026673112389312e-03 -6.2876771323701275e-01
    8.2218418566424971e-03 -7.3379938570534287e-01
    8.0657784728360108e-03 -7.8842984571972008e-01
    7.9543929856801549e-03 -8.4515425472851646e-01
    7.8826495314448016e-03 -9.0453403373329100e-01
    7.8970653054494452e-03 -8.8940698002624374e-01
    7.8529595972040601e-03 -9.5118973121134176e-01
    7.9328899988105675e-03 -1.1631599960755994e+00
    7.8529595972040601e-03 -9.5118973121134176e-01
    7.8705130353608540e-03 -9.1986621100779986e-01
    7.9328899988105675e-03 -8.5972695362109530e-01
    7.9543929856801549e-03 -8.4515425472851646e-01
    7.9543929856801549e-03 -8.4515425472851646e-01
    7.8970653054494452e-03 -8.8940698002624374e-01
    7.9137975764272048e-03 -8.7447463219520616e-01
    8.4918273810009604e-03 -6.6766992783120049e-01
    8.0339792661964279e-03 -8.0239367921136828e-01
    7.9328899988105675e-03 -8.5972695362109530e-01
    7.9543929856801549e-03 -8.4515425472851646e-01
    7.8826495314448016e-03 -9.0453403373329100e-01
    7.8826495314448016e-03 -9.0453403373329100e-01
    7.8705130353608540e-03 -9.1986621100779986e-01
    7.8970653054494452e-03 -8.8940698002624374e-01
    7.8705130353608540e-03 -9.1986621100779986e-01
    8.0657784728360108e-03 -7.8842984571972008e-01
    7.9137975764272048e-03 -1.1435437497937311e+00
    8.3189033080770299e-03 -1.4142135623730951e+00
    7.8606247621301282e-03 -1.0690449676496974e+00
    7.8529595972040601e-03 -1.0513149660756935e+00
    7.8529595972040601e-03 -9.5118973121134176e-01
    7.8474981878243547e-03 -9.6720415164935170e-01
    7.8826495314448016e-03 -9.0453403373329100e-01
    8.3727139244490004e-03 -6.9388866648871095e-01
    9.0564748108176597e-03 -5.7735026918962584e-01
    1.4888752874549003e-02 -2.8474739872574967e-01
    1.5721249524260256e-02 -2.6726124191242434e-01
    1.2617621651099262e-02 -3.4856179811161714e-01
    1.1536243243422589e-02 -3.9223227027636803e-01
    1.0522672835293128e-02 -4.4721359549995793e-01
    9.6562668431543919e-03 -5.1298917604257710e-01
    9.5189811066204097e-03 -5.2592370614077766e-01
    8.5575643229800942e-03 -6.5465367070797720e-01
    8.1378172219538185e-03 -7.6088591025268204e-01
    8.2218418566424971e-03 -7.3379938570534287e-01
    8.0048684404679018e-03 -8.1649658092772603e-01
    7.8705130353608540e-03 -9.1986621100779986e-01
    7.8826495314448016e-03 -9.0453403373329100e-01
    7.9137975764272048e-03 -1.1435437497937311e+00
    7.9783640886981737e-03 -1.2037356818823370e+00
    7.8970653054494452e-03 -8.8940698002624374e-01
    7.8970653054494452e-03 -8.8940698002624374e-01
    8.0048684404679018e-03 -8.1649658092772603e-01
    8.0657784728360108e-03 -7.8842984571972008e-01
    7.9783640886981737e-03 -8.3074716073569732e-01
    7.8970653054494452e-03 -8.8940698002624374e-01
    8.0339792661964279e-03 -8.0239367921136828e-01
    7.9137975764272048e-03 -8.7447463219520616e-01
    7.9543929856801549e-03 -8.4515425472851646e-01
    7.9783640886981737e-03 -8.3074716073569732e-01
    7.9783640886981737e-03 -8.3074716073569732e-01
    7.9783640886981737e-03 -8.3074716073569732e-01
    7.9783640886981737e-03 -8.3074716073569732e-01
    7.8970653054494452e-03 -8.8940698002624374e-01
    7.8970653054494452e-03 -8.8940698002624374e-01
    7.9328899988105675e-03 -8.5972695362109530e-01
    7.9543929856801549e-03 -1.1832159566199230e+00
    7.8705130353608540e-03 -1.0871146130092180e+00
    7.8474981878243547e-03 -1.0339078862458588e+00
    7.8529595972040601e-03 -9.5118973121134176e-01
    7.8826495314448016e-03 -9.0453403373329100e-01
    7.9328899988105675e-03 -8.5972695362109530e-01
    7.8970653054494452e-03 -8.8940698002624374e-01
    8.3727139244490004e-03 -6.9388866648871095e-01
    1.0522672835293128e-02 -4.4721359549995793e-01
    1.4888752874549003e-02 -2.8474739872574967e-01
    1.7993390891808767e-02 -2.2941573387056177e-01
    1.4188769156600639e-02 -3.0151134457776357e-01
    1.2215861921203882e-02 -3.6342189215581550e-01
    1.0982588894337331e-02 -4.2008402520840293e-01
    1.0522672835293128e-02 -4.4721359549995793e-01
    1.0320810901329710e-02 -4.6056618647183833e-01
    1.0982588894337331e-02 -4.2008402520840293e-01
    8.5575643229800942e-03 -6.5465367070797720e-01
    8.5575643229800942e-03 -6.5465367070797720e-01
    8.0657784728360108e-03 -7.8842984571972008e-01
    7.8606247621301282e-03 -9.3541434669348522e-01
    8.0048684404679018e-03 -8.1649658092772603e-01
    7.8826495314448016e-03 -9.0453403373329100e-01
    7.8826495314448016e-03 -1.1055415967851334e+00
    8.0048684404679018e-03 -1.2247448713915889e+00
    7.9137975764272048e-03 -1.1435437497937311e+00
    7.8826495314448016e-03 -9.0453403373329100e-01
    7.9328899988105675e-03 -8.5972695362109530e-01
    8.0657784728360108e-03 -7.8842984571972008e-01
    8.0657784728360108e-03 -7.8842984571972008e-01
    8.0657784728360108e-03 -7.8842984571972008e-01
    7.9543929856801549e-03 -8.4515425472851646e-01
    7.9783640886981737e-03 -8.3074716073569732e-01
    8.0048684404679018e-03 -8.1649658092772603e-01
    8.0048684404679018e-03 -8.1649658092772603e-01
    7.9783640886981737e-03 -8.3074716073569732e-01
    7.9328899988105675e-03 -8.5972695362109530e-01
    8.3189033080770299e-03 -7.0710678118654757e-01
    7.9543929856801549e-03 -8.4515425472851646e-01
    8.0048684404679018e-03 -8.1649658092772603e-01
    8.2686687031987040e-03 -1.3881027585494825e+00
    7.8442268065158707e-03 -1.0168078997946197e+00
    7.8474981878243547e-03 -9.6720415164935170e-01
    7.8431372549019607e-03 -1. 7.8970653054494452e-03
    -8.8940698002624374e-01 7.9783640886981737e-03
    -8.3074716073569732e-01 8.3189033080770299e-03
    -7.0710678118654757e-01 9.0564748108176597e-03
    -5.7735026918962584e-01 1.1245997757467090e-02
    -4.0626166898849864e-01 1.7993390891808767e-02
    -2.2941573387056177e-01 1.7993390891808767e-02
    -2.2941573387056177e-01 1.6732191400818303e-02
    -2.4889134708717225e-01 1.2617621651099262e-02
    -3.4856179811161714e-01 1.1536243243422589e-02
    -3.9223227027636803e-01 1.0320810901329710e-02
    -4.6056618647183833e-01 1.0320810901329710e-02
    -4.6056618647183833e-01 9.9630263853145613e-03
    -4.8694291458224920e-01 1.0134835111857601e-02
    -4.7380354147934284e-01 8.6277505602655180e-03
    -6.4168894791974795e-01 8.4302866341178662e-03
    -6.8074564570501772e-01 8.3189033080770299e-03
    -7.0710678118654757e-01 8.3189033080770299e-03
    -7.0710678118654757e-01 7.9543929856801549e-03
    -8.4515425472851646e-01 7.9328899988105675e-03
    -8.5972695362109530e-01 7.8529595972040601e-03
    -1.0513149660756935e+00 7.9543929856801549e-03
    -1.1832159566199230e+00 7.9137975764272048e-03
    -1.1435437497937311e+00 7.8606247621301282e-03
    -1.0690449676496974e+00 7.8970653054494452e-03
    -8.8940698002624374e-01 7.8474981878243547e-03
    -9.6720415164935170e-01 7.8705130353608540e-03
    -9.1986621100779986e-01 7.8606247621301282e-03
    -9.3541434669348522e-01 7.8970653054494452e-03
    -8.8940698002624374e-01 7.8705130353608540e-03
    -9.1986621100779986e-01 8.3189033080770299e-03
    -7.0710678118654757e-01 8.3189033080770299e-03
    -7.0710678118654757e-01 7.9783640886981737e-03
    -8.3074716073569732e-01 7.8970653054494452e-03
    -8.8940698002624374e-01 7.8705130353608540e-03
    -1.0871146130092180e+00 7.8474981878243547e-03
    -1.0339078862458588e+00 8.0339792661964279e-03
    -1.2462710336687208e+00 7.8606247621301282e-03
    -9.3541434669348522e-01 7.8826495314448016e-03
    -9.0453403373329100e-01 7.9137975764272048e-03
    -8.7447463219520616e-01 7.8970653054494452e-03
    -8.8940698002624374e-01 7.9543929856801549e-03
    -8.4515425472851646e-01 8.7826276228369308e-03
    -6.1588176205143974e-01 9.5189811066204097e-03
    -5.2592370614077766e-01 1.6732191400818303e-02
    -2.4889134708717225e-01 1.6732191400818303e-02
    -2.4889134708717225e-01 1.9624886028901153e-02
    -2.0851441405707474e-01 1.6732191400818303e-02
    -2.4889134708717225e-01 1.4188769156600639e-02
    -3.0151134457776357e-01 1.2215861921203882e-02
    -3.6342189215581550e-01 1.2617621651099262e-02
    -3.4856179811161714e-01 1.0320810901329710e-02
    -4.6056618647183833e-01 9.6562668431543919e-03
    -5.1298917604257710e-01 9.1605462240448091e-03
    -5.6451866105676141e-01 9.3911269033607782e-03
    -5.3881590608032470e-01 8.4302866341178662e-03
    -6.8074564570501772e-01 8.7026673112389312e-03
    -6.2876771323701275e-01 8.3189033080770299e-03
    -7.0710678118654757e-01 8.1378172219538185e-03
    -7.6088591025268204e-01 7.8826495314448016e-03
    -9.0453403373329100e-01 7.8529595972040601e-03
    -9.5118973121134176e-01 7.8529595972040601e-03
    -1.0513149660756935e+00 7.8606247621301282e-03
    -1.0690449676496974e+00 7.8606247621301282e-03
    -9.3541434669348522e-01 7.8606247621301282e-03
    -9.3541434669348522e-01 7.8705130353608540e-03
    -9.1986621100779986e-01 7.8474981878243547e-03
    -9.6720415164935170e-01 7.9328899988105675e-03
    -8.5972695362109530e-01 7.9783640886981737e-03
    -8.3074716073569732e-01 7.8970653054494452e-03
    -8.8940698002624374e-01 8.3189033080770299e-03
    -7.0710678118654757e-01 8.0657784728360108e-03
    -7.8842984571972008e-01 8.1782705808820088e-03
    -7.4728947432809356e-01 7.8529595972040601e-03
    -1.0513149660756935e+00 7.8826495314448016e-03
    -1.1055415967851334e+00 7.8970653054494452e-03
    -1.1243446728633648e+00 7.8529595972040601e-03
    -1.0513149660756935e+00 7.8606247621301282e-03
    -9.3541434669348522e-01 7.8970653054494452e-03
    -8.8940698002624374e-01 7.8970653054494452e-03
    -8.8940698002624374e-01 7.8826495314448016e-03
    -9.0453403373329100e-01 8.6277505602655180e-03
    -6.4168894791974795e-01 9.3911269033607782e-03
    -5.3881590608032470e-01 1.0320810901329710e-02
    -4.6056618647183833e-01 1.4888752874549003e-02
    -2.8474739872574967e-01 1.6732191400818303e-02
    -2.4889134708717225e-01 1.7993390891808767e-02
    -2.2941573387056177e-01 1.6732191400818303e-02
    -2.4889134708717225e-01 1.3071895424836602e-02
    -3.3333333333333337e-01 1.2215861921203882e-02
    -3.6342189215581550e-01 1.2617621651099262e-02
    -3.4856179811161714e-01 1.1857708957152227e-02
    -3.7796447300922725e-01 1.0134835111857601e-02
    -4.7380354147934284e-01 9.5189811066204097e-03
    -5.2592370614077766e-01 9.0564748108176597e-03
    -5.7735026918962584e-01 9.3911269033607782e-03
    -5.3881590608032470e-01 8.5575643229800942e-03
    -6.5465367070797720e-01 8.4302866341178662e-03
    -6.8074564570501772e-01 8.0657784728360108e-03
    -7.8842984571972008e-01 7.9543929856801549e-03
    -8.4515425472851646e-01 7.8826495314448016e-03
    -9.0453403373329100e-01 7.9783640886981737e-03
    -8.3074716073569732e-01 7.8705130353608540e-03
    -1.0871146130092180e+00 7.8529595972040601e-03
    -1.0513149660756935e+00 8.0048684404679018e-03
    -8.1649658092772603e-01 7.8529595972040601e-03
    -9.5118973121134176e-01 7.8431372549019607e-03 -1.
    7.8442268065158707e-03 -1.0168078997946197e+00
    7.8431372549019607e-03 -1. 7.9328899988105675e-03
    -8.5972695362109530e-01 7.9137975764272048e-03
    -8.7447463219520616e-01 7.8529595972040601e-03
    -1.0513149660756935e+00 7.8606247621301282e-03
    -1.0690449676496974e+00 8.0339792661964279e-03
    -1.2462710336687208e+00 7.8826495314448016e-03
    -1.1055415967851334e+00 7.8529595972040601e-03
    -1.0513149660756935e+00 7.9328899988105675e-03
    -8.5972695362109530e-01 7.8705130353608540e-03
    -9.1986621100779986e-01 7.9137975764272048e-03
    -8.7447463219520616e-01 7.8970653054494452e-03
    -8.8940698002624374e-01 8.3727139244490004e-03
    -6.9388866648871095e-01 9.0564748108176597e-03
    -5.7735026918962584e-01 9.3911269033607782e-03
    -5.3881590608032470e-01 1.0320810901329710e-02
    -4.6056618647183833e-01 1.4888752874549003e-02
    -2.8474739872574967e-01 1.7993390891808767e-02
    -2.2941573387056177e-01 1.9624886028901153e-02
    -2.0851441405707474e-01 1.6732191400818303e-02
    -2.4889134708717225e-01 1.3071895424836602e-02
    -3.3333333333333337e-01 1.2215861921203882e-02
    -3.6342189215581550e-01 1.1857708957152227e-02
    -3.7796447300922725e-01 1.1857708957152227e-02
    -3.7796447300922725e-01 1.2215861921203882e-02
    -3.6342189215581550e-01 9.9630263853145613e-03
    -4.8694291458224920e-01 9.3911269033607782e-03
    -5.3881590608032470e-01 9.9630263853145613e-03
    -4.8694291458224920e-01 9.5189811066204097e-03
    -5.2592370614077766e-01 8.2686687031987040e-03
    -7.2040776076618707e-01 8.3727139244490004e-03
    -6.9388866648871095e-01 8.4302866341178662e-03
    -6.8074564570501772e-01 7.8970653054494452e-03
    -8.8940698002624374e-01 7.8474981878243547e-03
    -9.6720415164935170e-01 7.8606247621301282e-03
    -9.3541434669348522e-01 7.9328899988105675e-03
    -1.1631599960755994e+00 7.9137975764272048e-03
    -1.1435437497937311e+00 7.8826495314448016e-03
    -1.1055415967851334e+00 7.8970653054494452e-03
    -8.8940698002624374e-01 8.0048684404679018e-03
    -8.1649658092772603e-01 7.8529595972040601e-03
    -1.0513149660756935e+00 7.8529595972040601e-03
    -1.0513149660756935e+00 7.8529595972040601e-03
    -9.5118973121134176e-01 7.8442268065158707e-03
    -1.0168078997946197e+00 7.8826495314448016e-03
    -1.1055415967851334e+00 7.9137975764272048e-03
    -1.1435437497937311e+00 7.8970653054494452e-03
    -1.1243446728633648e+00 7.8826495314448016e-03
    -1.1055415967851334e+00 7.9137975764272048e-03
    -8.7447463219520616e-01 7.8705130353608540e-03
    -9.1986621100779986e-01 7.8826495314448016e-03
    -9.0453403373329100e-01 8.0657784728360108e-03
    -7.8842984571972008e-01 8.7026673112389312e-03
    -6.2876771323701275e-01 9.2718871322247133e-03
    -5.5167728436737040e-01 9.3911269033607782e-03
    -5.3881590608032470e-01 1.2617621651099262e-02
    -3.4856179811161714e-01 1.5721249524260256e-02
    -2.6726124191242434e-01 1.5721249524260256e-02
    -2.6726124191242434e-01 2.5118141773347001e-02
    -1.6012815380508713e-01 1.5721249524260256e-02
    -2.6726124191242434e-01 1.3071895424836602e-02
    -3.3333333333333337e-01 1.2617621651099262e-02
    -3.4856179811161714e-01 1.1536243243422589e-02
    -3.9223227027636803e-01 1.1857708957152227e-02
    -3.7796447300922725e-01 1.1857708957152227e-02
    -3.7796447300922725e-01 1.1245997757467090e-02
    -4.0626166898849864e-01 9.6562668431543919e-03
    -5.1298917604257710e-01 1.0134835111857601e-02
    -4.7380354147934284e-01 1.0134835111857601e-02
    -4.7380354147934284e-01 9.1605462240448091e-03
    -5.6451866105676141e-01 8.1378172219538185e-03
    -7.6088591025268204e-01 8.1003573254011339e-03
    -7.7459666924148340e-01 8.0048684404679018e-03
    -8.1649658092772603e-01 7.8705130353608540e-03
    -9.1986621100779986e-01 7.8606247621301282e-03
    -9.3541434669348522e-01 7.8970653054494452e-03
    -8.8940698002624374e-01 7.9543929856801549e-03
    -1.1832159566199230e+00 7.9783640886981737e-03
    -1.2037356818823370e+00 7.8606247621301282e-03
    -1.0690449676496974e+00 7.8442268065158707e-03
    -9.8346993586692733e-01 7.8606247621301282e-03
    -9.3541434669348522e-01 7.9328899988105675e-03
    -8.5972695362109530e-01 7.9783640886981737e-03
    -1.2037356818823370e+00 7.8970653054494452e-03
    -1.1243446728633648e+00 7.8826495314448016e-03
    -1.1055415967851334e+00 7.9328899988105675e-03
    -8.5972695362109530e-01 8.0048684404679018e-03
    -8.1649658092772603e-01 7.8970653054494452e-03
    -8.8940698002624374e-01 7.9137975764272048e-03
    -8.7447463219520616e-01 8.1003573254011339e-03
    -7.7459666924148340e-01 8.2218418566424971e-03
    -7.3379938570534287e-01 8.3189033080770299e-03
    -7.0710678118654757e-01 9.1605462240448091e-03
    -5.6451866105676141e-01 9.3911269033607782e-03
    -5.3881590608032470e-01 1.1857708957152227e-02
    -3.7796447300922725e-01 1.2617621651099262e-02
    -3.4856179811161714e-01 1.5721249524260256e-02
    -2.6726124191242434e-01 1.6732191400818303e-02
    -2.4889134708717225e-01 1.9624886028901153e-02
    -2.0851441405707474e-01 1.5721249524260256e-02
    -2.6726124191242434e-01 1.4188769156600639e-02
    -3.0151134457776357e-01 1.2215861921203882e-02
    -3.6342189215581550e-01 1.2215861921203882e-02
    -3.6342189215581550e-01 1.2215861921203882e-02
    -3.6342189215581550e-01 1.2215861921203882e-02
    -3.6342189215581550e-01 1.1536243243422589e-02
    -3.9223227027636803e-01 1.1245997757467090e-02
    -4.0626166898849864e-01 1.0742455869201244e-02
    -4.3372665571900021e-01 1.0522672835293128e-02
    -4.4721359549995793e-01 1.0320810901329710e-02
    -4.6056618647183833e-01 9.8039215686274508e-03
    -5.0000000000000000e-01 9.0564748108176597e-03
    -5.7735026918962584e-01 8.2686687031987040e-03
    -7.2040776076618707e-01 7.9543929856801549e-03
    -8.4515425472851646e-01 7.9783640886981737e-03
    -8.3074716073569732e-01 7.8970653054494452e-03
    -8.8940698002624374e-01 7.8606247621301282e-03
    -1.0690449676496974e+00 7.9137975764272048e-03
    -1.1435437497937311e+00 7.8826495314448016e-03
    -1.1055415967851334e+00 7.8474981878243547e-03
    -9.6720415164935170e-01 7.8529595972040601e-03
    -9.5118973121134176e-01 8.2218418566424971e-03
    -1.3627702877384940e+00 8.0657784728360108e-03
    -1.2683436648534627e+00 8.0339792661964279e-03
    -1.2462710336687208e+00 7.9543929856801549e-03
    -8.4515425472851646e-01 7.8705130353608540e-03
    -9.1986621100779986e-01 7.8606247621301282e-03
    -9.3541434669348522e-01 7.9328899988105675e-03
    -8.5972695362109530e-01 8.1782705808820088e-03
    -7.4728947432809356e-01 8.1003573254011339e-03
    -7.7459666924148340e-01 9.2718871322247133e-03
    -5.5167728436737040e-01 9.0564748108176597e-03
    -5.7735026918962584e-01 9.1605462240448091e-03
    -5.6451866105676141e-01 1.1536243243422589e-02
    -3.9223227027636803e-01 1.3071895424836602e-02
    -3.3333333333333337e-01 1.3590376053127242e-02
    -3.1767504024184928e-01 1.5721249524260256e-02
    -2.6726124191242434e-01 2.5118141773347001e-02
    -1.6012815380508713e-01 2.1846510373770806e-02
    -1.8569533817705186e-01 1.7993390891808767e-02
    -2.2941573387056177e-01 1.7993390891808767e-02
    -2.2941573387056177e-01 1.3590376053127242e-02
    -3.1767504024184928e-01 1.3071895424836602e-02
    -3.3333333333333337e-01 1.3590376053127242e-02
    -3.1767504024184928e-01 1.4188769156600639e-02
    -3.0151134457776357e-01 1.4188769156600639e-02
    -3.0151134457776357e-01 1.4188769156600639e-02
    -3.0151134457776357e-01 1.4888752874549003e-02
    -2.8474739872574967e-01 1.2617621651099262e-02
    -3.4856179811161714e-01 1.2617621651099262e-02
    -3.4856179811161714e-01 1.0742455869201244e-02
    -4.3372665571900021e-01 1.0522672835293128e-02
    -4.4721359549995793e-01 9.9630263853145613e-03
    -4.8694291458224920e-01 9.0564748108176597e-03
    -5.7735026918962584e-01 8.3727139244490004e-03
    -6.9388866648871095e-01 8.1003573254011339e-03
    -7.7459666924148340e-01 7.9783640886981737e-03
    -8.3074716073569732e-01 7.8606247621301282e-03
    -1.0690449676496974e+00 7.8970653054494452e-03
    -1.1243446728633648e+00 7.8826495314448016e-03
    -1.1055415967851334e+00 7.8442268065158707e-03
    -1.0168078997946197e+00 8.0048684404679018e-03
    -1.2247448713915889e+00 8.0048684404679018e-03
    -1.2247448713915889e+00 7.8529595972040601e-03
    -1.0513149660756935e+00 7.8442268065158707e-03
    -1.0168078997946197e+00 7.8431372549019607e-03 -1.
    7.9137975764272048e-03 -8.7447463219520616e-01
    8.1003573254011339e-03 -7.7459666924148340e-01
    8.2686687031987040e-03 -7.2040776076618707e-01
    8.2218418566424971e-03 -7.3379938570534287e-01
    8.9591171475898058e-03 -5.9018184209747848e-01
    9.2718871322247133e-03 -5.5167728436737040e-01
    1.1857708957152227e-02 -3.7796447300922725e-01
    1.4188769156600639e-02 -3.0151134457776357e-01
    1.4888752874549003e-02 -2.8474739872574967e-01
    1.5721249524260256e-02 -2.6726124191242434e-01
    1.9624886028901153e-02 -2.0851441405707474e-01
    2.1846510373770806e-02 -1.8569533817705186e-01 1. 0.
    2.5118141773347001e-02 -1.6012815380508713e-01
    2.1846510373770806e-02 -1.8569533817705186e-01
    1.7993390891808767e-02 -2.2941573387056177e-01
    1.6732191400818303e-02 -2.4889134708717225e-01
    1.6732191400818303e-02 -2.4889134708717225e-01
    1.6732191400818303e-02 -2.4889134708717225e-01
    1.6732191400818303e-02 -2.4889134708717225e-01
    1.6732191400818303e-02 -2.4889134708717225e-01
    1.5721249524260256e-02 -2.6726124191242434e-01
    1.5721249524260256e-02 -2.6726124191242434e-01
    1.4188769156600639e-02 -3.0151134457776357e-01
    1.3590376053127242e-02 -3.1767504024184928e-01
    1.0742455869201244e-02 -4.3372665571900021e-01
    1.0982588894337331e-02 -4.2008402520840293e-01
    1.0522672835293128e-02 -4.4721359549995793e-01
    9.5189811066204097e-03 -5.2592370614077766e-01
    8.2686687031987040e-03 -7.2040776076618707e-01
    7.8970653054494452e-03 -8.8940698002624374e-01
    8.0048684404679018e-03 -8.1649658092772603e-01
    7.9543929856801549e-03 -8.4515425472851646e-01
    7.8606247621301282e-03 -1.0690449676496974e+00
    7.9328899988105675e-03 -8.5972695362109530e-01
    8.1003573254011339e-03 -1.2909944487358056e+00
    7.9543929856801549e-03 -8.4515425472851646e-01
    7.9137975764272048e-03 -1.1435437497937311e+00
    7.8970653054494452e-03 -8.8940698002624374e-01
    7.9137975764272048e-03 -8.7447463219520616e-01
    8.0657784728360108e-03 -7.8842984571972008e-01
    8.2686687031987040e-03 -7.2040776076618707e-01
    8.4302866341178662e-03 -6.8074564570501772e-01
    9.1605462240448091e-03 -5.6451866105676141e-01
    9.5189811066204097e-03 -5.2592370614077766e-01
    1.2215861921203882e-02 -3.6342189215581550e-01
    1.4188769156600639e-02 -3.0151134457776357e-01
    1.2617621651099262e-02 -3.4856179811161714e-01
    1.5721249524260256e-02 -2.6726124191242434e-01
    1.6732191400818303e-02 -2.4889134708717225e-01
    1.6732191400818303e-02 -2.4889134708717225e-01
    2.1846510373770806e-02 -1.8569533817705186e-01
    4.3138752801327590e-02 -9.1669849702821132e-02
    2.1846510373770806e-02 -1.8569533817705186e-01
    2.1846510373770806e-02 -1.8569533817705186e-01
    1.9624886028901153e-02 -2.0851441405707474e-01
    2.1846510373770806e-02 -1.8569533817705186e-01
    2.1846510373770806e-02 -1.8569533817705186e-01
    1.9624886028901153e-02 -2.0851441405707474e-01
    1.9624886028901153e-02 -2.0851441405707474e-01
    1.9624886028901153e-02 -2.0851441405707474e-01
    1.9624886028901153e-02 -2.0851441405707474e-01
    1.9624886028901153e-02 -2.0851441405707474e-01
    1.9624886028901153e-02 -2.0851441405707474e-01
    1.6732191400818303e-02 -2.4889134708717225e-01
    1.6732191400818303e-02 -2.4889134708717225e-01
    1.7993390891808767e-02 -2.2941573387056177e-01
    1.3590376053127242e-02 -3.1767504024184928e-01
    1.0742455869201244e-02 -4.3372665571900021e-01
    1.1245997757467090e-02 -4.0626166898849864e-01
    1.0522672835293128e-02 -4.4721359549995793e-01
    9.6562668431543919e-03 -5.1298917604257710e-01
    8.0339792661964279e-03 -8.0239367921136828e-01
    8.1378172219538185e-03 -7.6088591025268204e-01
    9.1605462240448091e-03 -5.6451866105676141e-01
    8.1782705808820088e-03 -7.4728947432809356e-01
    7.8826495314448016e-03 -9.0453403373329100e-01
    8.2218418566424971e-03 -7.3379938570534287e-01
    8.1378172219538185e-03 -7.6088591025268204e-01
    8.0339792661964279e-03 -8.0239367921136828e-01
    8.1003573254011339e-03 -7.7459666924148340e-01
    8.2686687031987040e-03 -7.2040776076618707e-01
    8.9591171475898058e-03 -5.9018184209747848e-01
    1.1245997757467090e-02 -4.0626166898849864e-01
    1.2617621651099262e-02 -3.4856179811161714e-01
    1.3071895424836602e-02 -3.3333333333333337e-01
    1.3071895424836602e-02 -3.3333333333333337e-01
    1.3590376053127242e-02 -3.1767504024184928e-01
    1.7993390891808767e-02 -2.2941573387056177e-01
    1.7993390891808767e-02 -2.2941573387056177e-01
    1.7993390891808767e-02 -2.2941573387056177e-01
    1.6732191400818303e-02 -2.4889134708717225e-01</input_scale>
  <output_scale>
    1.0526315789473684e+00 0.</output_scale>
  <inv_output_scale>
    9.4999999999999996e-01 0.</inv_output_scale>
  <weights>
    <_>
      -1.1719048386403424e-03 -2.2903224389177911e-04
      -9.9637750405231888e-04 -5.5088375721748159e-04
      2.2039270841974236e-04 1.2144499427915077e-03
      9.9728247011042037e-04 2.0453599492093418e-04
      -7.2831549546728146e-04 -4.2920232853557353e-04
      -1.1054717958401724e-03 -1.2409612586460942e-04
      -2.1397120762249158e-05 -7.8018402384446585e-04
      6.7194088742161514e-04 -1.1208781013474275e-03
      1.1037170489498088e-03 1.0083693640301039e-03
      -2.5698247005999147e-04 -3.4383640164285737e-05
      3.0002183913935715e-04 -7.7645728251324352e-04
      -6.5397802009701264e-04 9.5527311481024093e-04
      -1.0954164450422850e-03 -3.1663012947851025e-04
      6.1523554708813478e-04 -6.3403300196013517e-04
      1.0630743572223426e-03 -2.4215284090006096e-04
      1.2150750992007805e-03 -3.7732545206526025e-04
      2.2581237915161135e-04 8.1166924113520002e-04
      1.1322676431532379e-03 5.1786688077618958e-04
      8.1904968067006900e-04 5.2277548999592920e-04
      1.2256443938238879e-03 -1.5902424652943092e-04
      1.6366173794221123e-01 6.5430241807202527e-02
      5.0989940617336020e-02 1.9654746345398634e-02
      -4.5948061751183496e-02 1.0057615387568584e-02
      -1.9460255786165167e-02 -3.9323745239854851e-02
      -4.7838133768507924e-03 7.8497722013064167e-02
      1.6552238600648719e-02 4.0164465783686105e-02
      1.8507421163222695e-02 -2.6159580112065026e-02
      -4.4531708054985760e-03 1.6607345758148952e-02
      -5.9844877120981228e-03 3.3430911133654352e-02
      -6.1974970753963195e-02 8.0362784643438823e-02
      -3.6481311279857709e-02 9.5773065388777695e-03
      5.5956435080057364e-03 5.2715281350874069e-02
      1.6056107435353923e-02 -8.5744089958996531e-03
      6.9028069030330014e-02 -7.2136072226238940e-02
      1.9835880932215565e-02 1.5702367096397610e-02
      -5.5357150787126483e-02 -6.6189707077380075e-02
      6.3317868399318272e-02 2.1429556249375519e-02
      2.8896334167408701e-02 8.3461100495947384e-03
      5.2681993030629051e-02 2.3414457111088551e-02
      -6.0049988300350507e-02 -4.8600957239963390e-02
      3.0667531674608697e-02 2.1418227316755731e-02
      1.5764804451103186e-02 4.5187577834897089e-03
      -1.3595685173206973e-02 4.1034648904166027e-03
      -4.8084950899279291e-03 -1.2383660645189101e-02
      -1.9378846003729566e-03 2.4128923366986989e-02
      3.5582813546172990e-03 1.0839416198293990e-02
      5.1238520150651053e-03 -8.0067353566760820e-03
      -3.6535557029599764e-04 3.1387562377850078e-03
      -7.4002953439994640e-04 1.0515255491135507e-02
      -2.5348509688927490e-02 2.5267797700511133e-02
      -1.0298927485038403e-02 3.1264985613717287e-03
      6.8516225414885139e-04 1.6773933480980444e-02
      3.7923178027212856e-03 -8.1928083305912074e-04
      2.1338232603263570e-02 -2.2893039649661301e-02
      6.1687496601543056e-03 3.6905644237745314e-03
      -1.5926868500570075e-02 -2.1122843641708539e-02
      2.4798299909486725e-02 4.5931156668485504e-03
      8.9134936682154046e-03 3.3933730647326167e-03
      1.5211489506917249e-02 6.6618077703682029e-03
      -1.9316434163491374e-02 -1.4387652861971486e-02
      -1.5630275210245193e-01 -2.9625976469933098e-02
      -3.1420766172233494e-02 -1.4081693746611008e-02
      3.1277923152777089e-02 -8.2356992540563393e-03
      1.4060943442973099e-02 2.6637565127181993e-02
      4.6736033262565401e-03 -4.0200946447022851e-02
      -1.2022174452084354e-02 -2.6142910179445613e-02
      -1.2297379283150254e-02 1.7842185795720594e-02
      2.5653993393550925e-03 -1.0812554577591759e-02
      5.3991404829343672e-03 -2.1822650834121948e-02
      4.6210164412336149e-02 -4.5844246911760429e-02
      2.5831946192763956e-02 -6.9130318150123528e-03
      -3.2991890878524238e-03 -3.3558129441533809e-02
      -9.9385621402173566e-03 5.8119098093277373e-03
      -3.7176548725622531e-02 4.0827166625141478e-02
      -1.2426695306397707e-02 -1.0953033362443918e-02
      3.7715256804295778e-02 4.1956044236988996e-02
      -3.9677416625704037e-02 -1.5440660573819742e-02
      -1.9318601005187556e-02 -5.9786849007527534e-03
      -2.7262251030647007e-02 -1.5951785125365239e-02
      3.8173713659922483e-02 2.9170895111071533e-02
      -1.3960826876793805e-01 -2.4447417842110294e-02
      -2.1877454074186356e-02 -1.2350389715034802e-02
      2.0468487817519407e-02 -5.1816048004349920e-03
      1.1594751734440382e-02 2.0603948002381234e-02
      2.9028641069709675e-03 -2.8454982020038381e-02
      -9.9488201929434483e-03 -2.0241591673217312e-02
      -9.7275789399365580e-03 1.4512640605481684e-02
      1.6355262776396305e-03 -1.0218577425844030e-02
      4.8711475392992400e-03 -1.7462658869167650e-02
      3.1183399853604486e-02 -2.9317965727981930e-02
      1.8173039618672428e-02 -5.6422875614304804e-03
      -4.4715967005746586e-03 -2.1907214060004999e-02
      -8.1981549501568690e-03 5.4411035240500517e-03
      -2.5787526074010192e-02 2.8106093734123330e-02
      -1.2562392602863990e-02 -9.5952556043389925e-03
      2.6033774593473974e-02 2.7934026544027896e-02
      -2.6306731826027524e-02 -1.2480945318031889e-02
      -1.7124918718999804e-02 -4.2056497101446450e-03
      -2.1648674455897403e-02 -1.2681128491010201e-02
      2.4522495468636076e-02 2.1624873121343820e-02
      -1.3918250460197121e-01 -2.5818410494563359e-02
      -2.1026687004032082e-02 -1.1720461061224822e-02
      2.1612574036269386e-02 -6.5310058232275862e-03
      1.1083923670875266e-02 2.0146437424255020e-02
      3.0557292572931647e-03 -2.8240807768046831e-02
      -1.1189444523632276e-02 -2.0649870657065680e-02
      -9.5337039290745371e-03 1.4106443206580567e-02
      3.2351035492015467e-03 -9.7602792054113426e-03
      4.1714040521603950e-03 -1.8860252751507909e-02
      2.9259782338657975e-02 -2.9469759816327847e-02
      1.8182623897160327e-02 -4.2517030742823094e-03
      -3.0440255390120083e-03 -2.1794369833927914e-02
      -1.0188554563991203e-02 4.7457890881484966e-03
      -2.4185953544779801e-02 2.7349704609816700e-02
      -1.2068455904999137e-02 -9.3204206903082822e-03
      2.5386790946459944e-02 2.7835359525412506e-02
      -2.4829694453348275e-02 -1.1581924557989651e-02
      -1.5915177183048204e-02 -4.2994759790785184e-03
      -2.0869781522719622e-02 -1.2694335219019762e-02
      2.5578146024824080e-02 2.0199220566360053e-02
      -1.5552249701405135e-01 -3.1054667932042139e-02
      -3.0954340229091867e-02 -1.3354847868106621e-02
      2.9543630227722655e-02 -8.3953573456522854e-03
      1.2367203625450709e-02 2.6120740223248003e-02
      5.1164801080009377e-03 -3.9397226805018587e-02
      -1.2514933191010933e-02 -2.6268170368727774e-02
      -1.2857177846169856e-02 1.8713296327820192e-02
      3.6715121880753474e-03 -1.0434238306103639e-02
      3.6924446363902782e-03 -2.3748949083454114e-02
      4.6566879642552905e-02 -4.3882013489847535e-02
      2.5289472644059351e-02 -5.3062935410662284e-03
      -3.3089846462214631e-03 -3.3806754895548657e-02
      -1.2201107626273503e-02 6.8756749533182022e-03
      -3.6820578627448301e-02 4.2802818255801706e-02
      -1.4300495959648911e-02 -1.1038521678038161e-02
      3.7831779601225739e-02 4.1554220981627421e-02
      -4.0335700574958250e-02 -1.5494825307838129e-02
      -1.8981125542368985e-02 -4.9874755748346641e-03
      -2.8692483545777900e-02 -1.5711355976134007e-02
      3.6581130145296854e-02 2.9994090717461768e-02
      -1.5532894075301179e-01 -3.1072210959802844e-02
      -3.3182915761029511e-02 -1.4646049681607442e-02
      2.9662242987950026e-02 -6.8349084344099774e-03
      1.3956586303602643e-02 2.7457174875582937e-02
      5.5180064781111988e-03 -3.9660180119781917e-02
      -1.1023732952393566e-02 -2.5512220991151999e-02
      -1.3803295761241398e-02 1.9241656606254470e-02
      3.8571692754519704e-03 -1.2197208732651862e-02
      3.4662815989303162e-03 -2.2374250811152834e-02
      4.6281627113098557e-02 -4.4244911686493506e-02
      2.5727565910724375e-02 -6.9423332458566026e-03
      -3.6654878778406290e-03 -3.2710381486382140e-02
      -1.1100480718921042e-02 4.6556470430307237e-03
      -3.8053469576090536e-02 4.1006932738119742e-02
      -1.2997765214134678e-02 -1.1479399912786971e-02
      3.6095581025466957e-02 4.0401910370559437e-02
      -4.0045232067447950e-02 -1.5123403198203609e-02
      -1.9699284589218873e-02 -5.3127863527218889e-03
      -2.7399488605426583e-02 -1.6935872197373081e-02
      3.8520736109426086e-02 3.0410646917604655e-02
      -1.3945072974600653e-01 -2.6570702933974323e-02
      -2.7127956649498196e-02 -1.1509389512302090e-02
      2.4170209651439900e-02 -6.1834152301904451e-03
      1.0477767824324989e-02 2.1767495476458891e-02
      3.6620419349385710e-03 -3.2477865117223066e-02
      -1.1490210466220971e-02 -2.2042224276114283e-02
      -1.1451013870116898e-02 1.4804565459658334e-02
      2.3460652333941417e-03 -1.0795249945245744e-02
      4.0149765804533260e-03 -2.0198537429502453e-02
      3.5538194356392529e-02 -3.5601332304352036e-02
      2.1554699842738737e-02 -6.6711292847401685e-03
      -2.6487867635243559e-03 -2.8175617491493488e-02
      -1.0334196513954742e-02 4.5918297495539506e-03
      -3.2117587666366569e-02 3.2834065649852973e-02
      -1.3252219654995246e-02 -9.0595547839170277e-03
      2.8880278483287350e-02 3.2178642850479201e-02
      -3.1766682414890869e-02 -1.2923709015067078e-02
      -1.8040553306409433e-02 -5.4465575803324257e-03
      -2.4252700491851069e-02 -1.5197355325381095e-02
      2.8634746491028287e-02 2.6874589845452344e-02
      -1.4269380440199095e-01 -2.3340130669206580e-02
      -2.4653871434850750e-02 -1.2329529331064447e-02
      2.3966272048352832e-02 -6.2983590826039167e-03
      1.0739376179320555e-02 2.1214350263861998e-02
      2.5191349309201323e-03 -2.9973002131337131e-02
      -1.0017817661624677e-02 -2.0247195203646134e-02
      -1.1403150152804784e-02 1.5628922602430113e-02
      3.8833351576955349e-03 -1.0353245943098369e-02
      4.5199325910272835e-03 -1.6910349757152002e-02
      3.6430005082991032e-02 -3.3881212535291104e-02
      2.0205427848637762e-02 -5.0588150189985158e-03
      -4.8912712966714981e-03 -2.6270024719448743e-02
      -8.1554940219020905e-03 5.4399205233810954e-03
      -2.8528077325392399e-02 3.3108397516974662e-02
      -1.1969198113473091e-02 -9.3419947181504429e-03
      2.9326056415877391e-02 3.1330466734832342e-02
      -3.1071005143378020e-02 -1.2047119069052745e-02
      -1.6036906819706539e-02 -6.3981670332356284e-03
      -2.0955668264812460e-02 -1.2850422055868133e-02
      2.8389621330668521e-02 2.3243765634039591e-02
      -1.7887640104500074e-01 -3.8341848174133525e-02
      -3.3479778451333861e-02 -1.4365717057488488e-02
      3.3203005651485970e-02 -6.7493475692570947e-03
      1.2338873140786862e-02 2.8263962153654936e-02
      4.9676316230193038e-03 -4.1650406639358567e-02
      -1.1308018052128856e-02 -2.9261838644430542e-02
      -1.2250766018930690e-02 2.0486937118738887e-02
      2.7997123138328492e-03 -1.2304795455716434e-02
      4.2416503467070038e-03 -2.5645404187811013e-02
      4.3444855040097478e-02 -4.5660954117607358e-02
      2.6241860769322712e-02 -5.4616337573568166e-03
      -3.1526308790843284e-03 -3.4139827015739387e-02
      -1.1301093151310048e-02 6.4845616542499353e-03
      -3.9643329106969154e-02 4.2055415613513232e-02
      -1.4609683034704276e-02 -1.1277683665079963e-02
      3.7212504250362433e-02 4.0788282624363056e-02
      -4.1965600568162488e-02 -1.5725801014757027e-02
      -2.2436545584594226e-02 -6.9217327717996970e-03
      -3.2196572138371217e-02 -1.6746597538735520e-02
      3.7209534794104708e-02 3.2532731500882990e-02
      -1.3720037595366319e-01 -2.1178849071541318e-02
      -1.9275230439562623e-02 -1.0717083007721740e-02
      1.8033867133786879e-02 -6.3847878881367051e-03
      9.3498769653385869e-03 1.8418898617245431e-02
      3.5113084791249687e-03 -2.3262626025529361e-02
      -8.8178865681732971e-03 -1.8383538861184399e-02
      -8.6923744081452894e-03 1.2188453817785317e-02
      1.7977332958801857e-03 -7.7100414849635545e-03
      2.8922336310724574e-03 -1.5030661028828921e-02
      2.5523782172631938e-02 -2.3521289154059766e-02
      1.7247467297212164e-02 -4.8440121614518909e-03
      -4.3975793863322080e-03 -1.9375878784468399e-02
      -7.9265822969183351e-03 5.3868626655994992e-03
      -2.3311913641652592e-02 2.2524273463818360e-02
      -9.9295989099453270e-03 -9.5081828355052002e-03
      2.2139869546865226e-02 2.3684159732251551e-02
      -2.0478963909248697e-02 -1.1686395810097713e-02
      -1.3088044989789197e-02 -5.0703425136897897e-03
      -1.8918130064541280e-02 -1.3441160223611897e-02
      2.2129953600355461e-02 2.0273488415733235e-02
      -2.2504423635118043e-01 -4.8446831871660379e-02
      -4.9030281631259547e-02 -2.1303973118013592e-02
      4.7382823621917265e-02 -1.3337866054231186e-02
      2.0812342674150965e-02 4.2131742661684769e-02
      7.9801889825784397e-03 -5.5161124052338653e-02
      -2.0489329450565062e-02 -3.9893640358242367e-02
      -2.0878225193374608e-02 2.9249724298203779e-02
      5.1855557400809849e-03 -1.7380445349499594e-02
      6.6476009906046548e-03 -3.4659099412966646e-02
      4.5570399053419662e-02 -7.1680196237386057e-02
      3.9424553939400850e-02 -1.1412548970450255e-02
      -6.3047351023118106e-03 -4.9414762094399496e-02
      -1.8720332198616924e-02 9.0699739903409172e-03
      -5.5360223593569520e-02 6.2063925212035118e-02
      -2.2272791786998845e-02 -1.8537959462326777e-02
      5.4553343103989398e-02 6.3547511134598347e-02
      -5.3574200592981625e-02 -2.3573952754761120e-02
      -3.1170478371311476e-02 -1.0432934895741711e-02
      -4.4462861019025600e-02 -2.6641634283885943e-02
      5.6140079256472332e-02 4.4784739567174006e-02
      -3.5527649509270662e-02 -2.8900615711769198e-03
      -5.6382585960998944e-03 -5.4760522990669781e-03
      6.4938830556727431e-03 -2.8400030601910321e-03
      4.4207601293567243e-03 7.9693193677145210e-03
      1.4481639002980010e-03 -8.3803245594440880e-03
      -4.7597613580153677e-03 -7.3463432750514946e-03
      -3.7081558691447014e-03 4.8526320908439313e-03
      2.1571231647564628e-03 -4.7359287048260347e-03
      8.4735211542027414e-04 -7.3459576247534714e-03
      8.5862155626360882e-03 -7.4084156050134862e-03
      5.5320182814571290e-03 -1.3912884349932730e-03
      -1.9604761956752777e-03 -6.3877560443659880e-03
      -3.9262481464072841e-03 1.8100883623698536e-03
      -5.9070653979799758e-03 8.1256198031203417e-03
      -5.1724523470059154e-03 -4.2304959701127279e-03
      8.1329905740561773e-03 8.1142998951019320e-03
      -1.0539845235614020e-02 -4.6780617483249045e-03
      -6.2596046356730890e-03 -2.4104333261673488e-03
      -4.3455283780757170e-03 -6.1427798082513418e-03
      6.9162883325489489e-03 6.4513250778353796e-03
      -8.7720080806819228e-02 -2.3425347074550674e-02
      -8.0856097190324955e-03 -5.3825082239370133e-03
      4.9023468572665756e-03 -2.8780774144871435e-03
      6.1687092085874855e-03 7.0243333884099091e-03
      2.2748887965209539e-03 -4.6868679735171089e-03
      -5.1586610204192307e-03 -6.9208848270311740e-03
      -4.8164723622877888e-03 8.7526690135278015e-03
      4.2097493284497131e-04 -5.7459426395506117e-03
      1.6129239840094493e-03 -8.5617936285193631e-03
      -6.4900985458082247e-03 -1.8881575199628270e-03
      7.8343514912897864e-03 -3.0393560076366942e-03
      -1.1982145388299030e-03 -4.1655297680806757e-03
      -5.5152187558091103e-03 3.2452666994490084e-03
      -7.5115018658893093e-03 1.5117990835616028e-03
      -7.0543676045006914e-03 -5.4107427389980768e-03
      2.3566210771945061e-03 2.3375467739659033e-03
      8.2926438356233766e-03 -5.8496437715756210e-03
      -7.5327694935070832e-03 -3.8559751499269573e-03
      -1.8609597938897514e-02 -6.1083534861670645e-03
      1.8468753754824396e-03 7.6506430661806941e-03
      -1.0780691227159552e-02 3.4928298881150739e-03
      5.0819853676444416e-03 1.6981196929081780e-03
      -4.8609100978128867e-03 2.4504894334937636e-03
      -2.3464033462169049e-03 -4.0033855628704897e-03
      -1.4574954187679921e-03 1.4269490632666151e-02
      2.3481467422086155e-03 2.5216512768435288e-03
      2.9419419256175830e-03 -3.1056117031258127e-03
      6.3117139113132951e-04 1.0820545266719019e-03
      -5.1094930349852537e-04 1.9199564976303712e-03
      -1.6337536984881149e-02 1.1984343318378617e-02
      -3.4613529800764393e-03 2.2230018251541191e-03
      -3.1373412955858389e-04 5.8541059849860303e-03
      1.4201652119849759e-03 -1.2486925957768044e-03
      1.0835321278924588e-02 -9.7955628898842503e-03
      3.0592672863645727e-03 1.2502272056714233e-03
      -7.2600464087180759e-03 -1.0878039147235096e-02
      1.8012665598830694e-02 3.2266391089757671e-03
      2.3557172007751671e-03 5.6409386454086955e-04
      2.9691455176207764e-03 3.0654924007451475e-03
      -7.9990136265685324e-03 -4.6546157849131440e-03
      -1.1559219696015000e-02 3.7889735929383926e-03
      6.2329002708109036e-03 3.4295611107902171e-03
      -4.4637426268650570e-03 5.8772259703029493e-04
      -2.4569859189776306e-03 -4.7476112697062657e-03
      -7.7703064521944282e-04 1.3678999545294140e-02
      9.7381193913545093e-04 4.6678945367024296e-03
      2.5745206819711270e-03 -1.6257834550497724e-03
      -8.8322789524021333e-04 2.3754191854805278e-03
      -5.2464847040808694e-05 3.8425957008004501e-03
      -1.4592585855480190e-02 1.3508587028405312e-02
      -3.4052807744037236e-03 2.2998586999560666e-04
      -2.4213368017358104e-04 5.6901745425711582e-03
      2.0463021292006661e-03 -1.6338678139269384e-03
      1.0199818797140480e-02 -9.5560930369695228e-03
      1.2321622222671740e-03 2.5377206186272074e-03
      -7.3014583845296991e-03 -8.7364248933609317e-03
      1.7436117532618724e-02 1.9870716462597375e-03
      2.9018063361948647e-03 1.6417730120808409e-03
      3.2400880580885300e-03 1.0373999884083886e-03
      -8.0929867358901127e-03 -4.7798687011137760e-03
      -5.2988705254369585e-02 -4.6980988764371021e-03
      -6.8120907521128839e-03 -4.6294863218205688e-03
      7.2338715191415113e-03 -3.3168252508232444e-03
      4.3014254277286001e-03 5.0611927404689378e-03
      7.2225643514040277e-04 -9.1107114376152536e-03
      -4.0587294890508784e-03 -7.2531097405471980e-03
      -3.3950065664028711e-03 6.3938100750126729e-03
      1.7287452039362603e-03 -4.1637614093492275e-03
