<?xml version="1.0"?>
<opencv_storage>
<shapeML type_id="opencv-ml-ann-mlp">
  <layer_sizes type_id="opencv-matrix">
    <rows>1</rows>
    <cols>3</cols>
    <dt>i</dt>
    <data>
      1600 40 1</data></layer_sizes>
  <activation_function>SIGMOID_SYM</activation_function>
  <f_param1>5.9999999999999998e-01</f_param1>
  <f_param2>1.</f_param2>
  <min_val>-9.4999999999999996e-01</min_val>
  <max_val>9.4999999999999996e-01</max_val>
  <min_val1>-9.7999999999999998e-01</min_val1>
  <max_val1>9.7999999999999998e-01</max_val1>
  <training_params>
    <train_method>BACKPROP</train_method>
    <dw_scale>1.0000000000000001e-01</dw_scale>
    <moment_scale>1.0000000000000001e-01</moment_scale>
    <term_criteria><epsilon>9.9999999747524271e-07</epsilon>
      <iterations>4000</iterations></term_criteria></training_params>
  <input_scale>
    1. 0. 4.4195225908231134e-02 -8.9442719099991574e-02
    4.4195225908231134e-02 -8.9442719099991574e-02
    3.1376501964752945e-02 -1.2700012700019048e-01
    2.2367654904622229e-02 -1.8107149208503709e-01
    2.2367654904622229e-02 -1.8107149208503709e-01
    3.1376501964752945e-02 -1.2700012700019048e-01
    3.1376501964752945e-02 -1.2700012700019048e-01
    2.5722737252240998e-02 -1.5617376188860604e-01
    2.5722737252240998e-02 -1.5617376188860604e-01
    1.6082159591748833e-02 -2.6037782196164777e-01
    2.0088739049195972e-02 -2.0327890704543541e-01
    2.0088739049195972e-02 -2.0327890704543541e-01
    1.6082159591748833e-02 -2.6037782196164777e-01
    2.0088739049195972e-02 -2.0327890704543541e-01
    1.2109417305074480e-02 -3.6760731104690386e-01
    1.2109417305074480e-02 -3.6760731104690386e-01
    1.8414677461762972e-02 -2.2360679774997894e-01
    1.5227064210104330e-02 -2.7735009811261457e-01
    9.5572046407049801e-03 -5.2223296786709361e-01
    8.4246359581646724e-03 -6.8199433947047350e-01
    9.5572046407049801e-03 -5.2223296786709361e-01
    1.0522672835293128e-02 -4.4721359549995793e-01
    1.0522672835293128e-02 -4.4721359549995793e-01
    1.6082159591748833e-02 -2.6037782196164777e-01
    1.8414677461762972e-02 -2.2360679774997894e-01
    2.2367654904622229e-02 -1.8107149208503709e-01
    1.7120161767270561e-02 -2.4253562503633294e-01
    2.5722737252240998e-02 -1.5617376188860604e-01
    3.1376501964752945e-02 -1.2700012700019048e-01
    2.2367654904622229e-02 -1.8107149208503709e-01
    4.4195225908231134e-02 -8.9442719099991574e-02
    2.5722737252240998e-02 -1.5617376188860604e-01
    4.4195225908231134e-02 -8.9442719099991574e-02
    2.5722737252240998e-02 -1.5617376188860604e-01
    1.8414677461762972e-02 -2.2360679774997894e-01
    4.4195225908231134e-02 -8.9442719099991574e-02
    4.4195225908231134e-02 -8.9442719099991574e-02 1. 0.
    4.4195225908231134e-02 -8.9442719099991574e-02
    4.4195225908231134e-02 -8.9442719099991574e-02
    3.1376501964752945e-02 -1.2700012700019048e-01
    4.4195225908231134e-02 -8.9442719099991574e-02
    2.5722737252240998e-02 -1.5617376188860604e-01
    2.0088739049195972e-02 -2.0327890704543541e-01
    2.0088739049195972e-02 -2.0327890704543541e-01
    2.0088739049195972e-02 -2.0327890704543541e-01
    1.8414677461762972e-02 -2.2360679774997894e-01
    1.8414677461762972e-02 -2.2360679774997894e-01
    1.7120161767270561e-02 -2.4253562503633294e-01
    1.0330048358911121e-02 -4.5993310550389993e-01
    1.1206815816655063e-02 -4.0824829046386302e-01
    1.0731549527087596e-02 -4.3437224276306935e-01
    9.5572046407049801e-03 -5.2223296786709361e-01
    9.4327497145561545e-03 -5.3452248382484868e-01
    8.6807622043837875e-03 -6.3245553203367599e-01
    8.6106215021089297e-03 -6.4477153866982340e-01
    8.1452882007714868e-03 -7.5828754440515511e-01
    7.9654961674131657e-03 -8.3827364428490936e-01
    8.1090110097932454e-03 -7.7132140438390517e-01
    7.8470924428764507e-03 -9.6874224562653322e-01
    8.0156466911670901e-03 -8.1110710565381272e-01
    8.1452882007714868e-03 -7.5828754440515511e-01
    8.3189033080770299e-03 -7.0710678118654757e-01
    9.1051627947833537e-03 -5.7124057057747946e-01
    9.8333087032516572e-03 -4.9751859510499458e-01
    1.1206815816655063e-02 -4.0824829046386302e-01
    1.3359411151945149e-02 -3.2444284226152503e-01
    1.2891975359995925e-02 -3.3918173268560708e-01
    1.3892650234619056e-02 -3.0927685641354330e-01
    1.6082159591748833e-02 -2.6037782196164777e-01
    1.6082159591748833e-02 -2.6037782196164777e-01
    1.6082159591748833e-02 -2.6037782196164777e-01
    1.8414677461762972e-02 -2.2360679774997894e-01
    2.0088739049195972e-02 -2.0327890704543541e-01
    2.2367654904622229e-02 -1.8107149208503709e-01
    3.1376501964752945e-02 -1.2700012700019048e-01
    3.1376501964752945e-02 -1.2700012700019048e-01
    3.1376501964752945e-02 -1.2700012700019048e-01
    3.1376501964752945e-02 -1.2700012700019048e-01 1. 0.
    3.1376501964752945e-02 -1.2700012700019048e-01
    3.1376501964752945e-02 -1.2700012700019048e-01
    2.5722737252240998e-02 -1.5617376188860604e-01
    2.0088739049195972e-02 -2.0327890704543541e-01
    1.6082159591748833e-02 -2.6037782196164777e-01
    1.5227064210104330e-02 -2.7735009811261457e-01
    1.6082159591748833e-02 -2.6037782196164777e-01
    1.0151911762079691e-02 -4.7254732130632848e-01
    9.6904443244749758e-03 -5.0990195135927852e-01
    9.1051627947833537e-03 -5.7124057057747946e-01
    9.4327497145561545e-03 -5.3452248382484868e-01
    8.6106215021089297e-03 -6.4477153866982340e-01
    8.1843010941168772e-03 -7.4535599249992990e-01
    8.1843010941168772e-03 -7.4535599249992990e-01
    7.9244154594654524e-03 -8.6602540378443882e-01
    7.8789508532813631e-03 -9.0889325914638586e-01
    7.8520448526107605e-03 -9.5346258924559235e-01
    7.8679558007459550e-03 -1.0827805840074196e+00
    8.0753702703958118e-03 -7.8446454055273596e-01
    7.9244154594654524e-03 -8.6602540378443882e-01
    7.9894088247262629e-03 -8.2462112512353214e-01
    8.1452882007714868e-03 -7.5828754440515511e-01
    8.3700677527164622e-03 -6.9451633614802077e-01
    7.9438493568306442e-03 -8.5207241315528692e-01
    7.9438493568306442e-03 -8.5207241315528692e-01
    8.7553930298264783e-03 -6.2017367294604220e-01
    9.8333087032516572e-03 -4.9751859510499458e-01
    1.0330048358911121e-02 -4.5993310550389993e-01
    1.1206815816655063e-02 -4.0824829046386302e-01
    1.2478354962115544e-02 -3.5355339059327373e-01
    1.3892650234619056e-02 -3.0927685641354330e-01
    1.3359411151945149e-02 -3.2444284226152503e-01
    1.2478354962115544e-02 -3.5355339059327373e-01
    1.5227064210104330e-02 -2.7735009811261457e-01
    1.5227064210104330e-02 -2.7735009811261457e-01
    2.5722737252240998e-02 -1.5617376188860604e-01
    2.2367654904622229e-02 -1.8107149208503709e-01
    3.1376501964752945e-02 -1.2700012700019048e-01
    4.4195225908231134e-02 -8.9442719099991574e-02 1. 0.
    4.4195225908231134e-02 -8.9442719099991574e-02
    3.1376501964752945e-02 -1.2700012700019048e-01
    2.2367654904622229e-02 -1.8107149208503709e-01
    1.6082159591748833e-02 -2.6037782196164777e-01
    1.5227064210104330e-02 -2.7735009811261457e-01
    1.3892650234619056e-02 -3.0927685641354330e-01
    9.9867610309078269e-03 -4.8507125007266588e-01
    9.4327497145561545e-03 -5.3452248382484868e-01
    8.9193235941580629e-03 -5.9568339718127072e-01
    8.7553930298264783e-03 -6.2017367294604220e-01
    8.0442759853862084e-03 -7.9772403521746571e-01
    8.1090110097932454e-03 -7.7132140438390517e-01
    7.9438493568306442e-03 -8.5207241315528692e-01
    7.8679558007459533e-03 -9.2354814518279882e-01
    7.8431372549019607e-03 -1. 7.9438493568306460e-03
    -1.1736091728365277e+00 7.9894088247262612e-03
    -1.2126781251816645e+00 7.8431372549019607e-03 -1.
    7.8589940054935165e-03 -9.3840130803690436e-01
    7.8789508532813614e-03 -1.1002392084403616e+00
    7.8520448526107622e-03 -1.0488088481701519e+00
    7.8441254911882363e-03 -1.0160010160015238e+00
    7.8520448526107605e-03 -9.5346258924559235e-01
    7.8920046264698458e-03 -8.9442719099991586e-01
    7.9654961674131657e-03 -8.3827364428490936e-01
    8.3189033080770299e-03 -7.0710678118654757e-01
    7.9894088247262629e-03 -8.2462112512353214e-01
    9.9867610309078269e-03 -4.8507125007266588e-01
    9.9867610309078269e-03 -4.8507125007266588e-01
    1.0731549527087596e-02 -4.3437224276306935e-01
    1.1478698663550963e-02 -3.9492189449597959e-01
    1.3892650234619056e-02 -3.0927685641354330e-01
    1.3892650234619056e-02 -3.0927685641354330e-01
    1.2891975359995925e-02 -3.3918173268560708e-01
    1.4507793658598557e-02 -2.9361010975735174e-01
    1.7120161767270561e-02 -2.4253562503633294e-01
    2.0088739049195972e-02 -2.0327890704543541e-01
    2.5722737252240998e-02 -1.5617376188860604e-01
    3.1376501964752945e-02 -1.2700012700019048e-01 1. 0.
    4.4195225908231134e-02 -8.9442719099991574e-02
    4.4195225908231134e-02 -8.9442719099991574e-02
    1.6082159591748833e-02 -2.6037782196164777e-01
    1.4507793658598557e-02 -2.9361010975735174e-01
    1.4507793658598557e-02 -2.9361010975735174e-01
    1.0151911762079691e-02 -4.7254732130632848e-01
    9.5572046407049801e-03 -5.2223296786709361e-01
    9.1051627947833537e-03 -5.7124057057747946e-01
    8.6807622043837875e-03 -6.3245553203367599e-01
    8.0442759853862084e-03 -7.9772403521746571e-01
    7.9894088247262629e-03 -8.2462112512353214e-01
    7.8920046264698458e-03 -8.9442719099991586e-01
    7.8520448526107605e-03 -9.5346258924559235e-01
    7.8470924428764507e-03 -9.6874224562653322e-01
    7.9071475977845074e-03 -8.8014083380101360e-01
    7.9894088247262612e-03 -1.2126781251816645e+00
    7.8520448526107622e-03 -1.0488088481701519e+00
    7.8431372549019607e-03 -1. 7.8520448526107605e-03
    -9.5346258924559235e-01 7.8520448526107622e-03
    -1.0488088481701519e+00 7.8441254911882363e-03
    -9.8425098425147639e-01 7.8441254911882363e-03
    -9.8425098425147639e-01 7.8679558007459533e-03
    -9.2354814518279882e-01 7.9438493568306442e-03
    -8.5207241315528692e-01 7.9071475977845074e-03
    -8.8014083380101360e-01 7.9071475977845074e-03
    -8.8014083380101360e-01 7.9654961674131657e-03
    -8.3827364428490936e-01 8.1090110097932454e-03
    -7.7132140438390517e-01 8.2709822861864943e-03
    -7.1977238704789603e-01 8.6106215021089297e-03
    -6.4477153866982340e-01 1.0330048358911121e-02
    -4.5993310550389993e-01 1.0731549527087596e-02
    -4.3437224276306935e-01 1.3359411151945149e-02
    -3.2444284226152503e-01 1.3359411151945149e-02
    -3.2444284226152503e-01 1.2891975359995925e-02
    -3.3918173268560708e-01 1.6082159591748833e-02
    -2.6037782196164777e-01 1.7120161767270561e-02
    -2.4253562503633294e-01 2.5722737252240998e-02
    -1.5617376188860604e-01 3.1376501964752945e-02
    -1.2700012700019048e-01 1. 0. 4.4195225908231134e-02
    -8.9442719099991574e-02 2.0088739049195972e-02
    -2.0327890704543541e-01 1.7120161767270561e-02
    -2.4253562503633294e-01 1.5227064210104330e-02
    -2.7735009811261457e-01 1.0151911762079691e-02
    -4.7254732130632848e-01 9.1051627947833537e-03
    -5.7124057057747946e-01 9.0093082983993700e-03
    -5.8345996599157823e-01 8.3189033080770299e-03
    -7.0710678118654757e-01 7.9244154594654524e-03
    -8.6602540378443882e-01 8.0156466911670901e-03
    -8.1110710565381272e-01 7.9654961674131657e-03
    -8.3827364428490936e-01 7.8431372549019607e-03 -1.
    8.2261590132073903e-03 -7.3251987403322949e-01
    8.0156466911670901e-03 -8.1110710565381272e-01
    7.8441254911882363e-03 -1.0160010160015238e+00
    8.2261590132073920e-03 -1.3651506743346553e+00
    7.9438493568306460e-03 -1.1736091728365277e+00
    8.0442759853862084e-03 -1.2535663410560176e+00
    7.8520448526107605e-03 -9.5346258924559235e-01
    7.8441254911882363e-03 -9.8425098425147639e-01
    8.0156466911670884e-03 -1.2328828005937948e+00
    7.8789508532813631e-03 -9.0889325914638586e-01
    7.8789508532813631e-03 -9.0889325914638586e-01
    7.8441254911882363e-03 -1.0160010160015238e+00
    7.8441254911882363e-03 -9.8425098425147639e-01
    7.8441254911882363e-03 -1.0160010160015238e+00
    7.8679558007459533e-03 -9.2354814518279882e-01
    8.1090110097932454e-03 -7.7132140438390517e-01
    8.1090110097932454e-03 -7.7132140438390517e-01
    8.3700677527164622e-03 -6.9451633614802077e-01
    8.4827845138170186e-03 -6.6953406341198618e-01
    1.0151911762079691e-02 -4.7254732130632848e-01
    1.0330048358911121e-02 -4.5993310550389993e-01
    1.2109417305074480e-02 -3.6760731104690386e-01
    1.2891975359995925e-02 -3.3918173268560708e-01
    1.5227064210104330e-02 -2.7735009811261457e-01
    1.7120161767270561e-02 -2.4253562503633294e-01
    2.0088739049195972e-02 -2.0327890704543541e-01
    2.2367654904622229e-02 -1.8107149208503709e-01 1. 0.
    3.1376501964752945e-02 -1.2700012700019048e-01
    2.0088739049195972e-02 -2.0327890704543541e-01
    1.0731549527087596e-02 -4.3437224276306935e-01
    1.0522672835293128e-02 -4.4721359549995793e-01
    9.8333087032516572e-03 -4.9751859510499458e-01
    9.0093082983993700e-03 -5.8345996599157823e-01
    8.4246359581646724e-03 -6.8199433947047350e-01
    8.0156466911670901e-03 -8.1110710565381272e-01
    7.9438493568306442e-03 -8.5207241315528692e-01
    8.3189033080770299e-03 -7.0710678118654757e-01
    7.8589940054935165e-03 -9.3840130803690436e-01
    7.8441254911882363e-03 -9.8425098425147639e-01
    7.8920046264698458e-03 -8.9442719099991586e-01
    8.1452882007714868e-03 -1.3187609467915740e+00
    7.9894088247262612e-03 -1.2126781251816645e+00
    7.9894088247262612e-03 -1.2126781251816645e+00
    8.0156466911670884e-03 -1.2328828005937948e+00
    8.1090110097932454e-03 -1.2964764031133724e+00
    7.9894088247262612e-03 -1.2126781251816645e+00
    7.9438493568306460e-03 -1.1736091728365277e+00
    7.8520448526107622e-03 -1.0488088481701519e+00
    7.8441254911882363e-03 -1.0160010160015238e+00
    7.8470924428764507e-03 -9.6874224562653322e-01
    7.9438493568306442e-03 -8.5207241315528692e-01
    7.8431372549019607e-03 -1. 7.8470924428764507e-03
    -1.0322663273069617e+00 7.8470924428764507e-03
    -9.6874224562653322e-01 7.8470924428764507e-03
    -9.6874224562653322e-01 7.8679558007459550e-03
    -1.0827805840074196e+00 8.0156466911670901e-03
    -8.1110710565381272e-01 8.1843010941168772e-03
    -7.4535599249992990e-01 8.4246359581646724e-03
    -6.8199433947047350e-01 1.0151911762079691e-02
    -4.7254732130632848e-01 1.0151911762079691e-02
    -4.7254732130632848e-01 1.3359411151945149e-02
    -3.2444284226152503e-01 1.3892650234619056e-02
    -3.0927685641354330e-01 1.4507793658598557e-02
    -2.9361010975735174e-01 1.8414677461762972e-02
    -2.2360679774997894e-01 2.5722737252240998e-02
    -1.5617376188860604e-01 1. 0. 2.2367654904622229e-02
    -1.8107149208503709e-01 2.0088739049195972e-02
    -2.0327890704543541e-01 1.0151911762079691e-02
    -4.7254732130632848e-01 9.9867610309078269e-03
    -4.8507125007266588e-01 1.1478698663550963e-02
    -3.9492189449597959e-01 8.1843010941168772e-03
    -7.4535599249992990e-01 7.9438493568306442e-03
    -8.5207241315528692e-01 7.9244154594654524e-03
    -8.6602540378443882e-01 8.0156466911670901e-03
    -8.1110710565381272e-01 7.8679558007459533e-03
    -9.2354814518279882e-01 8.0753702703958135e-03
    -1.2747548783981963e+00 8.0156466911670884e-03
    -1.2328828005937948e+00 8.2261590132073920e-03
    -1.3651506743346553e+00 8.1843010941168755e-03
    -1.3416407864998734e+00 7.9438493568306460e-03
    -1.1736091728365277e+00 7.8470924428764507e-03
    -1.0322663273069617e+00 7.9071475977845092e-03
    -1.1361818036340361e+00 7.8589940054935165e-03
    -9.3840130803690436e-01 7.8589940054935165e-03
    -9.3840130803690436e-01 7.8589940054935165e-03
    -1.0656421633639424e+00 7.8441254911882363e-03
    -9.8425098425147639e-01 8.0753702703958135e-03
    -1.2747548783981963e+00 8.0156466911670884e-03
    -1.2328828005937948e+00 7.9438493568306460e-03
    -1.1736091728365277e+00 7.8470924428764507e-03
    -9.6874224562653322e-01 7.8441254911882363e-03
    -1.0160010160015238e+00 7.8589940054935165e-03
    -1.0656421633639424e+00 7.8920046264698458e-03
    -8.9442719099991586e-01 7.8589940054935165e-03
    -9.3840130803690436e-01 7.8520448526107605e-03
    -9.5346258924559235e-01 7.9438493568306442e-03
    -8.5207241315528692e-01 8.2261590132073903e-03
    -7.3251987403322949e-01 8.5447080830515099e-03
    -6.5712874067277083e-01 1.0522672835293128e-02
    -4.4721359549995793e-01 1.0958766548167260e-02
    -4.2139066607833625e-01 1.4507793658598557e-02
    -2.9361010975735174e-01 1.5227064210104330e-02
    -2.7735009811261457e-01 1.8414677461762972e-02
    -2.2360679774997894e-01 2.0088739049195972e-02
    -2.0327890704543541e-01 4.4195225908231134e-02
    -8.9442719099991574e-02 2.2367654904622229e-02
    -1.8107149208503709e-01 1.6082159591748833e-02
    -2.6037782196164777e-01 1.3359411151945149e-02
    -3.2444284226152503e-01 1.2478354962115544e-02
    -3.5355339059327373e-01 8.8348054922912835e-03
    -6.0791875887432878e-01 8.0156466911670901e-03
    -8.1110710565381272e-01 7.8520448526107605e-03
    -9.5346258924559235e-01 7.8441254911882363e-03
    -9.8425098425147639e-01 7.8589940054935165e-03
    -9.3840130803690436e-01 7.8470924428764507e-03
    -1.0322663273069617e+00 7.9438493568306460e-03
    -1.1736091728365277e+00 7.8789508532813614e-03
    -1.1002392084403616e+00 7.9071475977845092e-03
    -1.1361818036340361e+00 7.8431372549019607e-03 -1.
    7.8431372549019607e-03 -1. 7.8520448526107605e-03
    -9.5346258924559235e-01 7.8679558007459533e-03
    -9.2354814518279882e-01 7.8441254911882363e-03
    -9.8425098425147639e-01 7.8441254911882363e-03
    -9.8425098425147639e-01 7.9438493568306442e-03
    -8.5207241315528692e-01 7.8520448526107605e-03
    -9.5346258924559235e-01 7.8589940054935165e-03
    -9.3840130803690436e-01 7.8679558007459533e-03
    -9.2354814518279882e-01 7.8679558007459550e-03
    -1.0827805840074196e+00 8.0753702703958135e-03
    -1.2747548783981963e+00 8.0156466911670884e-03
    -1.2328828005937948e+00 7.8679558007459533e-03
    -9.2354814518279882e-01 7.8679558007459533e-03
    -9.2354814518279882e-01 7.8431372549019607e-03 -1.
    7.8441254911882363e-03 -9.8425098425147639e-01
    7.8589940054935165e-03 -9.3840130803690436e-01
    7.9244154594654524e-03 -8.6602540378443882e-01
    8.1452882007714868e-03 -7.5828754440515511e-01
    8.6106215021089297e-03 -6.4477153866982340e-01
    1.0958766548167260e-02 -4.2139066607833625e-01
    1.0958766548167260e-02 -4.2139066607833625e-01
    1.4507793658598557e-02 -2.9361010975735174e-01
    1.6082159591748833e-02 -2.6037782196164777e-01
    1.8414677461762972e-02 -2.2360679774997894e-01 1. 0.
    2.0088739049195972e-02 -2.0327890704543541e-01
    1.6082159591748833e-02 -2.6037782196164777e-01
    1.3359411151945149e-02 -3.2444284226152503e-01
    9.2073387308814880e-03 -5.5901699437494745e-01
    8.1090110097932454e-03 -7.7132140438390517e-01
    8.0442759853862084e-03 -7.9772403521746571e-01
    7.8679558007459533e-03 -9.2354814518279882e-01
    7.8431372549019607e-03 -1. 8.0156466911670901e-03
    -8.1110710565381272e-01 7.8441254911882363e-03
    -1.0160010160015238e+00 7.8520448526107605e-03
    -9.5346258924559235e-01 7.8441254911882363e-03
    -9.8425098425147639e-01 7.8920046264698458e-03
    -1.1180339887498947e+00 7.8431372549019607e-03 -1.
    7.9654961674131657e-03 -8.3827364428490936e-01
    8.0156466911670901e-03 -8.1110710565381272e-01
    7.9894088247262629e-03 -8.2462112512353214e-01
    8.0156466911670901e-03 -8.1110710565381272e-01
    7.9244154594654524e-03 -8.6602540378443882e-01
    7.8431372549019607e-03 -1. 7.8470924428764507e-03
    -9.6874224562653322e-01 7.8679558007459533e-03
    -9.2354814518279882e-01 7.9071475977845074e-03
    -8.8014083380101360e-01 7.8920046264698458e-03
    -8.9442719099991586e-01 8.0753702703958135e-03
    -1.2747548783981963e+00 7.9438493568306460e-03
    -1.1736091728365277e+00 8.1843010941168755e-03
    -1.3416407864998734e+00 7.8470924428764507e-03
    -9.6874224562653322e-01 7.8431372549019607e-03 -1.
    7.8470924428764507e-03 -9.6874224562653322e-01
    7.8789508532813631e-03 -9.0889325914638586e-01
    7.8589940054935165e-03 -9.3840130803690436e-01
    7.9071475977845074e-03 -8.8014083380101360e-01
    8.0442759853862084e-03 -7.9772403521746571e-01
    8.8348054922912835e-03 -6.0791875887432878e-01
    1.0958766548167260e-02 -4.2139066607833625e-01
    1.2891975359995925e-02 -3.3918173268560708e-01
    1.5227064210104330e-02 -2.7735009811261457e-01
    1.5227064210104330e-02 -2.7735009811261457e-01
    3.1376501964752945e-02 -1.2700012700019048e-01
    1.7120161767270561e-02 -2.4253562503633294e-01
    1.6082159591748833e-02 -2.6037782196164777e-01
    1.0151911762079691e-02 -4.7254732130632848e-01
    8.2261590132073903e-03 -7.3251987403322949e-01
    8.2709822861864943e-03 -7.1977238704789603e-01
    8.2261590132073903e-03 -7.3251987403322949e-01
    7.9654961674131657e-03 -8.3827364428490936e-01
    8.0442759853862084e-03 -7.9772403521746571e-01
    7.8520448526107605e-03 -9.5346258924559235e-01
    7.8920046264698458e-03 -1.1180339887498947e+00
    7.8520448526107605e-03 -9.5346258924559235e-01
    7.8589940054935165e-03 -9.3840130803690436e-01
    7.8441254911882363e-03 -9.8425098425147639e-01
    7.8589940054935165e-03 -1.0656421633639424e+00
    7.9438493568306442e-03 -8.5207241315528692e-01
    7.8920046264698458e-03 -8.9442719099991586e-01
    7.9654961674131657e-03 -8.3827364428490936e-01
    8.1452882007714868e-03 -7.5828754440515511e-01
    7.9654961674131657e-03 -8.3827364428490936e-01
    7.9438493568306442e-03 -8.5207241315528692e-01
    7.9244154594654524e-03 -8.6602540378443882e-01
    7.8920046264698458e-03 -8.9442719099991586e-01
    7.8920046264698458e-03 -8.9442719099991586e-01
    7.9244154594654524e-03 -8.6602540378443882e-01
    7.8520448526107605e-03 -9.5346258924559235e-01
    7.8470924428764507e-03 -9.6874224562653322e-01
    8.1843010941168755e-03 -1.3416407864998734e+00
    7.9654961674131639e-03 -1.1929278784054476e+00
    8.0442759853862084e-03 -1.2535663410560176e+00
    7.8520448526107622e-03 -1.0488088481701519e+00
    7.8520448526107605e-03 -9.5346258924559235e-01
    7.8789508532813631e-03 -9.0889325914638586e-01
    7.8789508532813631e-03 -9.0889325914638586e-01
    7.9438493568306442e-03 -8.5207241315528692e-01
    8.6106215021089297e-03 -6.4477153866982340e-01
    1.0330048358911121e-02 -4.5993310550389993e-01
    1.2478354962115544e-02 -3.5355339059327373e-01
    1.4507793658598557e-02 -2.9361010975735174e-01
    1.6082159591748833e-02 -2.6037782196164777e-01
    2.5722737252240998e-02 -1.5617376188860604e-01
    1.5227064210104330e-02 -2.7735009811261457e-01
    1.4507793658598557e-02 -2.9361010975735174e-01
    8.8348054922912835e-03 -6.0791875887432878e-01
    8.2261590132073903e-03 -7.3251987403322949e-01
    8.6106215021089297e-03 -6.4477153866982340e-01
    8.3189033080770299e-03 -7.0710678118654757e-01
    7.9071475977845074e-03 -8.8014083380101360e-01
    7.8520448526107605e-03 -9.5346258924559235e-01
    7.8431372549019607e-03 -1. 7.8789508532813614e-03
    -1.1002392084403616e+00 7.8431372549019607e-03 -1.
    7.8789508532813631e-03 -9.0889325914638586e-01
    8.2261590132073903e-03 -7.3251987403322949e-01
    7.9654961674131657e-03 -8.3827364428490936e-01
    7.9438493568306442e-03 -8.5207241315528692e-01
    7.9438493568306442e-03 -8.5207241315528692e-01
    8.0753702703958118e-03 -7.8446454055273596e-01
    7.9438493568306442e-03 -8.5207241315528692e-01
    7.9654961674131657e-03 -8.3827364428490936e-01
    8.0753702703958118e-03 -7.8446454055273596e-01
    8.2709822861864943e-03 -7.1977238704789603e-01
    7.9894088247262629e-03 -8.2462112512353214e-01
    7.9438493568306442e-03 -8.5207241315528692e-01
    7.8589940054935165e-03 -9.3840130803690436e-01
    7.8470924428764507e-03 -9.6874224562653322e-01
    7.9071475977845074e-03 -8.8014083380101360e-01
    7.8470924428764507e-03 -1.0322663273069617e+00
    8.1843010941168755e-03 -1.3416407864998734e+00
    8.1090110097932454e-03 -1.2964764031133724e+00
    7.9894088247262612e-03 -1.2126781251816645e+00
    7.8441254911882363e-03 -9.8425098425147639e-01
    7.8679558007459533e-03 -9.2354814518279882e-01
    7.8589940054935165e-03 -9.3840130803690436e-01
    7.8789508532813631e-03 -9.0889325914638586e-01
    8.1452882007714868e-03 -7.5828754440515511e-01
    1.0151911762079691e-02 -4.7254732130632848e-01
    1.0330048358911121e-02 -4.5993310550389993e-01
    1.3892650234619056e-02 -3.0927685641354330e-01
    1.6082159591748833e-02 -2.6037782196164777e-01
    3.1376501964752945e-02 -1.2700012700019048e-01
    1.5227064210104330e-02 -2.7735009811261457e-01
    1.1206815816655063e-02 -4.0824829046386302e-01
    8.6807622043837875e-03 -6.3245553203367599e-01
    8.3189033080770299e-03 -7.0710678118654757e-01
    8.0442759853862084e-03 -7.9772403521746571e-01
    8.0156466911670901e-03 -8.1110710565381272e-01
    8.0442759853862084e-03 -7.9772403521746571e-01
    7.8441254911882363e-03 -1.0160010160015238e+00
    7.8589940054935165e-03 -1.0656421633639424e+00
    7.9071475977845074e-03 -8.8014083380101360e-01
    7.8520448526107605e-03 -9.5346258924559235e-01
    7.8520448526107605e-03 -9.5346258924559235e-01
    8.1090110097932454e-03 -7.7132140438390517e-01
    7.9244154594654524e-03 -8.6602540378443882e-01
    7.9244154594654524e-03 -8.6602540378443882e-01
    7.9654961674131657e-03 -8.3827364428490936e-01
    7.9654961674131657e-03 -8.3827364428490936e-01
    7.9894088247262629e-03 -8.2462112512353214e-01
    7.9654961674131657e-03 -8.3827364428490936e-01
    8.0753702703958118e-03 -7.8446454055273596e-01
    8.1843010941168772e-03 -7.4535599249992990e-01
    8.1090110097932454e-03 -7.7132140438390517e-01
    8.0442759853862084e-03 -7.9772403521746571e-01
    7.9071475977845074e-03 -8.8014083380101360e-01
    7.8679558007459533e-03 -9.2354814518279882e-01
    7.8520448526107622e-03 -1.0488088481701519e+00
    7.8431372549019607e-03 -1. 8.2261590132073920e-03
    -1.3651506743346553e+00 8.0156466911670884e-03
    -1.2328828005937948e+00 8.0753702703958135e-03
    -1.2747548783981963e+00 7.8470924428764507e-03
    -1.0322663273069617e+00 7.8470924428764507e-03
    -9.6874224562653322e-01 7.8431372549019607e-03 -1.
    7.8679558007459533e-03 -9.2354814518279882e-01
    7.9071475977845074e-03 -8.8014083380101360e-01
    8.7553930298264783e-03 -6.2017367294604220e-01
    1.0151911762079691e-02 -4.7254732130632848e-01
    1.3892650234619056e-02 -3.0927685641354330e-01
    1.6082159591748833e-02 -2.6037782196164777e-01
    2.2367654904622229e-02 -1.8107149208503709e-01
    1.4507793658598557e-02 -2.9361010975735174e-01
    8.9193235941580629e-03 -5.9568339718127072e-01
    8.4827845138170186e-03 -6.6953406341198618e-01
    7.9438493568306442e-03 -8.5207241315528692e-01
    7.9654961674131657e-03 -8.3827364428490936e-01
    8.1452882007714868e-03 -7.5828754440515511e-01
    7.8470924428764507e-03 -1.0322663273069617e+00
    7.8789508532813614e-03 -1.1002392084403616e+00
    7.9071475977845074e-03 -8.8014083380101360e-01
    7.8679558007459533e-03 -9.2354814518279882e-01
    7.8520448526107605e-03 -9.5346258924559235e-01
    7.8431372549019607e-03 -1. 7.9654961674131657e-03
    -8.3827364428490936e-01 8.0156466911670901e-03
    -8.1110710565381272e-01 8.0156466911670901e-03
    -8.1110710565381272e-01 8.1090110097932454e-03
    -7.7132140438390517e-01 8.5447080830515099e-03
    -6.5712874067277083e-01 7.9654961674131657e-03
    -8.3827364428490936e-01 8.1090110097932454e-03
    -7.7132140438390517e-01 8.1090110097932454e-03
    -7.7132140438390517e-01 8.1090110097932454e-03
    -7.7132140438390517e-01 8.2261590132073903e-03
    -7.3251987403322949e-01 7.9071475977845074e-03
    -8.8014083380101360e-01 7.8589940054935165e-03
    -9.3840130803690436e-01 7.8520448526107605e-03
    -9.5346258924559235e-01 7.8441254911882363e-03
    -1.0160010160015238e+00 7.8589940054935165e-03
    -9.3840130803690436e-01 7.9071475977845092e-03
    -1.1361818036340361e+00 7.9244154594654524e-03
    -1.1547005383792517e+00 8.0156466911670884e-03
    -1.2328828005937948e+00 7.9894088247262612e-03
    -1.2126781251816645e+00 7.8441254911882363e-03
    -9.8425098425147639e-01 7.8920046264698458e-03
    -8.9442719099991586e-01 7.8470924428764507e-03
    -9.6874224562653322e-01 7.8789508532813631e-03
    -9.0889325914638586e-01 8.4246359581646724e-03
    -6.8199433947047350e-01 9.6904443244749758e-03
    -5.0990195135927852e-01 9.9867610309078269e-03
    -4.8507125007266588e-01 1.3892650234619056e-02
    -3.0927685641354330e-01 1.8414677461762972e-02
    -2.2360679774997894e-01 1.2478354962115544e-02
    -3.5355339059327373e-01 8.9193235941580629e-03
    -5.9568339718127072e-01 8.4246359581646724e-03
    -6.8199433947047350e-01 7.9071475977845074e-03
    -8.8014083380101360e-01 7.9244154594654524e-03
    -8.6602540378443882e-01 7.8789508532813631e-03
    -9.0889325914638586e-01 7.8789508532813614e-03
    -1.1002392084403616e+00 7.8679558007459550e-03
    -1.0827805840074196e+00 7.8589940054935165e-03
    -1.0656421633639424e+00 7.8441254911882363e-03
    -9.8425098425147639e-01 7.8520448526107605e-03
    -9.5346258924559235e-01 7.9654961674131657e-03
    -8.3827364428490936e-01 7.8920046264698458e-03
    -8.9442719099991586e-01 8.0156466911670901e-03
    -8.1110710565381272e-01 8.3700677527164622e-03
    -6.9451633614802077e-01 8.3189033080770299e-03
    -7.0710678118654757e-01 8.3189033080770299e-03
    -7.0710678118654757e-01 8.4246359581646724e-03
    -6.8199433947047350e-01 8.4827845138170186e-03
    -6.6953406341198618e-01 8.4827845138170186e-03
    -6.6953406341198618e-01 8.3189033080770299e-03
    -7.0710678118654757e-01 8.1452882007714868e-03
    -7.5828754440515511e-01 8.0442759853862084e-03
    -7.9772403521746571e-01 7.9654961674131657e-03
    -8.3827364428490936e-01 7.8679558007459533e-03
    -9.2354814518279882e-01 7.8470924428764507e-03
    -9.6874224562653322e-01 7.8679558007459533e-03
    -9.2354814518279882e-01 7.9071475977845092e-03
    -1.1361818036340361e+00 7.9071475977845092e-03
    -1.1361818036340361e+00 8.2709822861864943e-03
    -1.3893280959296599e+00 8.2261590132073920e-03
    -1.3651506743346553e+00 7.9654961674131639e-03
    -1.1929278784054476e+00 7.8470924428764507e-03
    -9.6874224562653322e-01 7.9071475977845074e-03
    -8.8014083380101360e-01 7.8679558007459533e-03
    -9.2354814518279882e-01 8.1090110097932454e-03
    -7.7132140438390517e-01 8.8348054922912835e-03
    -6.0791875887432878e-01 1.0330048358911121e-02
    -4.5993310550389993e-01 1.2478354962115544e-02
    -3.5355339059327373e-01 2.5722737252240998e-02
    -1.5617376188860604e-01 1.2891975359995925e-02
    -3.3918173268560708e-01 8.6807622043837875e-03
    -6.3245553203367599e-01 8.6106215021089297e-03
    -6.4477153866982340e-01 7.9438493568306442e-03
    -8.5207241315528692e-01 7.8920046264698458e-03
    -8.9442719099991586e-01 7.8789508532813631e-03
    -9.0889325914638586e-01 7.8920046264698458e-03
    -1.1180339887498947e+00 7.9071475977845092e-03
    -1.1361818036340361e+00 7.8431372549019607e-03 -1.
    7.8789508532813631e-03 -9.0889325914638586e-01
    7.8920046264698458e-03 -8.9442719099991586e-01
    7.9894088247262629e-03 -8.2462112512353214e-01
    8.0753702703958118e-03 -7.8446454055273596e-01
    8.0156466911670901e-03 -8.1110710565381272e-01
    8.2709822861864943e-03 -7.1977238704789603e-01
    8.4246359581646724e-03 -6.8199433947047350e-01
    8.6807622043837875e-03 -6.3245553203367599e-01
    8.4246359581646724e-03 -6.8199433947047350e-01
    8.4246359581646724e-03 -6.8199433947047350e-01
    8.4827845138170186e-03 -6.6953406341198618e-01
    8.3700677527164622e-03 -6.9451633614802077e-01
    8.3189033080770299e-03 -7.0710678118654757e-01
    8.3700677527164622e-03 -6.9451633614802077e-01
    7.9654961674131657e-03 -8.3827364428490936e-01
    7.9894088247262629e-03 -8.2462112512353214e-01
    7.8920046264698458e-03 -8.9442719099991586e-01
    7.8589940054935165e-03 -9.3840130803690436e-01
    7.8431372549019607e-03 -1. 7.9894088247262612e-03
    -1.2126781251816645e+00 8.0442759853862084e-03
    -1.2535663410560176e+00 8.4246359581646724e-03
    -1.4662878298615178e+00 8.0753702703958135e-03
    -1.2747548783981963e+00 7.8589940054935165e-03
    -1.0656421633639424e+00 7.8441254911882363e-03
    -9.8425098425147639e-01 7.8520448526107605e-03
    -9.5346258924559235e-01 8.0442759853862084e-03
    -7.9772403521746571e-01 8.1452882007714868e-03
    -7.5828754440515511e-01 9.6904443244749758e-03
    -5.0990195135927852e-01 1.2109417305074480e-02
    -3.6760731104690386e-01 2.0088739049195972e-02
    -2.0327890704543541e-01 1.2478354962115544e-02
    -3.5355339059327373e-01 9.0093082983993700e-03
    -5.8345996599157823e-01 8.4246359581646724e-03
    -6.8199433947047350e-01 7.8679558007459533e-03
    -9.2354814518279882e-01 7.8470924428764507e-03
    -9.6874224562653322e-01 7.8589940054935165e-03
    -9.3840130803690436e-01 7.9071475977845092e-03
    -1.1361818036340361e+00 7.9654961674131639e-03
    -1.1929278784054476e+00 7.8441254911882363e-03
    -9.8425098425147639e-01 7.8679558007459533e-03
    -9.2354814518279882e-01 7.8679558007459533e-03
    -9.2354814518279882e-01 7.9894088247262629e-03
    -8.2462112512353214e-01 8.1843010941168772e-03
    -7.4535599249992990e-01 8.3700677527164622e-03
    -6.9451633614802077e-01 8.2261590132073903e-03
    -7.3251987403322949e-01 8.4827845138170186e-03
    -6.6953406341198618e-01 8.7553930298264783e-03
    -6.2017367294604220e-01 8.6106215021089297e-03
    -6.4477153866982340e-01 8.4827845138170186e-03
    -6.6953406341198618e-01 8.4246359581646724e-03
    -6.8199433947047350e-01 8.3189033080770299e-03
    -7.0710678118654757e-01 8.3189033080770299e-03
    -7.0710678118654757e-01 8.3189033080770299e-03
    -7.0710678118654757e-01 8.5447080830515099e-03
    -6.5712874067277083e-01 8.6807622043837875e-03
    -6.3245553203367599e-01 8.3189033080770299e-03
    -7.0710678118654757e-01 7.8920046264698458e-03
    -8.9442719099991586e-01 7.8520448526107605e-03
    -9.5346258924559235e-01 7.8441254911882363e-03
    -9.8425098425147639e-01 8.0156466911670884e-03
    -1.2328828005937948e+00 7.9894088247262612e-03
    -1.2126781251816645e+00 8.1090110097932454e-03
    -1.2964764031133724e+00 7.8441254911882363e-03
    -1.0160010160015238e+00 7.8431372549019607e-03 -1.
    7.8520448526107622e-03 -1.0488088481701519e+00
    7.8520448526107622e-03 -1.0488088481701519e+00
    8.4246359581646724e-03 -6.8199433947047350e-01
    9.8333087032516572e-03 -4.9751859510499458e-01
    1.0731549527087596e-02 -4.3437224276306935e-01
    1.8414677461762972e-02 -2.2360679774997894e-01
    1.2478354962115544e-02 -3.5355339059327373e-01
    9.1051627947833537e-03 -5.7124057057747946e-01
    8.1452882007714868e-03 -7.5828754440515511e-01
    7.8470924428764507e-03 -9.6874224562653322e-01
    8.0156466911670901e-03 -8.1110710565381272e-01
    7.8789508532813631e-03 -9.0889325914638586e-01
    7.9244154594654524e-03 -1.1547005383792517e+00
    8.0753702703958135e-03 -1.2747548783981963e+00
    7.8441254911882363e-03 -9.8425098425147639e-01
    7.8431372549019607e-03 -1. 7.9894088247262629e-03
    -8.2462112512353214e-01 7.9438493568306442e-03
    -8.5207241315528692e-01 8.1452882007714868e-03
    -7.5828754440515511e-01 8.2709822861864943e-03
    -7.1977238704789603e-01 8.5447080830515099e-03
    -6.5712874067277083e-01 8.6106215021089297e-03
    -6.4477153866982340e-01 8.9193235941580629e-03
    -5.9568339718127072e-01 8.7553930298264783e-03
    -6.2017367294604220e-01 8.5447080830515099e-03
    -6.5712874067277083e-01 8.6106215021089297e-03
    -6.4477153866982340e-01 8.6807622043837875e-03
    -6.3245553203367599e-01 8.3189033080770299e-03
    -7.0710678118654757e-01 8.4827845138170186e-03
    -6.6953406341198618e-01 8.3700677527164622e-03
    -6.9451633614802077e-01 8.3700677527164622e-03
    -6.9451633614802077e-01 8.4246359581646724e-03
    -6.8199433947047350e-01 7.9654961674131657e-03
    -8.3827364428490936e-01 7.8920046264698458e-03
    -8.9442719099991586e-01 7.8679558007459533e-03
    -9.2354814518279882e-01 8.0753702703958135e-03
    -1.2747548783981963e+00 7.9894088247262612e-03
    -1.2126781251816645e+00 8.1452882007714868e-03
    -1.3187609467915740e+00 8.0156466911670884e-03
    -1.2328828005937948e+00 7.8679558007459550e-03
    -1.0827805840074196e+00 7.8441254911882363e-03
    -9.8425098425147639e-01 7.8589940054935165e-03
    -1.0656421633639424e+00 8.2709822861864943e-03
    -7.1977238704789603e-01 9.9867610309078269e-03
    -4.8507125007266588e-01 1.1478698663550963e-02
    -3.9492189449597959e-01 1.3359411151945149e-02
    -3.2444284226152503e-01 1.2478354962115544e-02
    -3.5355339059327373e-01 8.9193235941580629e-03
    -5.9568339718127072e-01 8.4246359581646724e-03
    -6.8199433947047350e-01 8.0442759853862084e-03
    -7.9772403521746571e-01 7.9438493568306442e-03
    -8.5207241315528692e-01 7.8789508532813631e-03
    -9.0889325914638586e-01 7.9438493568306442e-03
    -8.5207241315528692e-01 8.0156466911670884e-03
    -1.2328828005937948e+00 7.8441254911882363e-03
    -1.0160010160015238e+00 7.8589940054935165e-03
    -9.3840130803690436e-01 7.8520448526107605e-03
    -9.5346258924559235e-01 8.0156466911670901e-03
    -8.1110710565381272e-01 8.3189033080770299e-03
    -7.0710678118654757e-01 8.4246359581646724e-03
    -6.8199433947047350e-01 8.4827845138170186e-03
    -6.6953406341198618e-01 8.6106215021089297e-03
    -6.4477153866982340e-01 8.7553930298264783e-03
    -6.2017367294604220e-01 8.6106215021089297e-03
    -6.4477153866982340e-01 8.6106215021089297e-03
    -6.4477153866982340e-01 8.3189033080770299e-03
    -7.0710678118654757e-01 8.5447080830515099e-03
    -6.5712874067277083e-01 8.4246359581646724e-03
    -6.8199433947047350e-01 8.5447080830515099e-03
    -6.5712874067277083e-01 8.4827845138170186e-03
    -6.6953406341198618e-01 8.8348054922912835e-03
    -6.0791875887432878e-01 8.4827845138170186e-03
    -6.6953406341198618e-01 8.3189033080770299e-03
    -7.0710678118654757e-01 8.0156466911670901e-03
    -8.1110710565381272e-01 7.8789508532813631e-03
    -9.0889325914638586e-01 7.8920046264698458e-03
    -1.1180339887498947e+00 7.8470924428764507e-03
    -1.0322663273069617e+00 8.0753702703958135e-03
    -1.2747548783981963e+00 8.0442759853862084e-03
    -1.2535663410560176e+00 7.8520448526107622e-03
    -1.0488088481701519e+00 7.8470924428764507e-03
    -1.0322663273069617e+00 7.8441254911882363e-03
    -9.8425098425147639e-01 8.2709822861864943e-03
    -7.1977238704789603e-01 1.0958766548167260e-02
    -4.2139066607833625e-01 1.1206815816655063e-02
    -4.0824829046386302e-01 1.3359411151945149e-02
    -3.2444284226152503e-01 1.1778067278916140e-02
    -3.8138503569823690e-01 9.0093082983993700e-03
    -5.8345996599157823e-01 8.2709822861864943e-03
    -7.1977238704789603e-01 7.9654961674131657e-03
    -8.3827364428490936e-01 7.9894088247262629e-03
    -8.2462112512353214e-01 7.8679558007459533e-03
    -9.2354814518279882e-01 7.8920046264698458e-03
    -8.9442719099991586e-01 7.9438493568306460e-03
    -1.1736091728365277e+00 7.8470924428764507e-03
    -1.0322663273069617e+00 7.9244154594654524e-03
    -1.1547005383792517e+00 7.8441254911882363e-03
    -9.8425098425147639e-01 8.1452882007714868e-03
    -7.5828754440515511e-01 8.2261590132073903e-03
    -7.3251987403322949e-01 8.4246359581646724e-03
    -6.8199433947047350e-01 8.4246359581646724e-03
    -6.8199433947047350e-01 8.5447080830515099e-03
    -6.5712874067277083e-01 9.2073387308814880e-03
    -5.5901699437494745e-01 8.3189033080770299e-03
    -7.0710678118654757e-01 8.3189033080770299e-03
    -7.0710678118654757e-01 8.4246359581646724e-03
    -6.8199433947047350e-01 8.5447080830515099e-03
    -6.5712874067277083e-01 8.3700677527164622e-03
    -6.9451633614802077e-01 8.3189033080770299e-03
    -7.0710678118654757e-01 8.4246359581646724e-03
    -6.8199433947047350e-01 8.3700677527164622e-03
    -6.9451633614802077e-01 8.1452882007714868e-03
    -7.5828754440515511e-01 8.2261590132073903e-03
    -7.3251987403322949e-01 8.3189033080770299e-03
    -7.0710678118654757e-01 7.8920046264698458e-03
    -8.9442719099991586e-01 7.9244154594654524e-03
    -1.1547005383792517e+00 7.9654961674131639e-03
    -1.1929278784054476e+00 8.1452882007714868e-03
    -1.3187609467915740e+00 7.9244154594654524e-03
    -1.1547005383792517e+00 7.8470924428764507e-03
    -1.0322663273069617e+00 7.8441254911882363e-03
    -9.8425098425147639e-01 7.8589940054935165e-03
    -9.3840130803690436e-01 8.3700677527164622e-03
    -6.9451633614802077e-01 1.2109417305074480e-02
    -3.6760731104690386e-01 1.0958766548167260e-02
    -4.2139066607833625e-01 1.3892650234619056e-02
    -3.0927685641354330e-01 1.2891975359995925e-02
    -3.3918173268560708e-01 8.8348054922912835e-03
    -6.0791875887432878e-01 7.9071475977845074e-03
    -8.8014083380101360e-01 8.1452882007714868e-03
    -7.5828754440515511e-01 8.1090110097932454e-03
    -7.7132140438390517e-01 8.0442759853862084e-03
    -7.9772403521746571e-01 7.8679558007459533e-03
    -9.2354814518279882e-01 8.0442759853862084e-03
    -1.2535663410560176e+00 7.8441254911882363e-03
    -1.0160010160015238e+00 7.8679558007459550e-03
    -1.0827805840074196e+00 7.8470924428764507e-03
    -9.6874224562653322e-01 8.4827845138170186e-03
    -6.6953406341198618e-01 8.5447080830515099e-03
    -6.5712874067277083e-01 8.4827845138170186e-03
    -6.6953406341198618e-01 8.4827845138170186e-03
    -6.6953406341198618e-01 8.6807622043837875e-03
    -6.3245553203367599e-01 8.6807622043837875e-03
    -6.3245553203367599e-01 8.4246359581646724e-03
    -6.8199433947047350e-01 8.2709822861864943e-03
    -7.1977238704789603e-01 8.2261590132073903e-03
    -7.3251987403322949e-01 8.4246359581646724e-03
    -6.8199433947047350e-01 8.7553930298264783e-03
    -6.2017367294604220e-01 8.4246359581646724e-03
    -6.8199433947047350e-01 8.4246359581646724e-03
    -6.8199433947047350e-01 8.3700677527164622e-03
    -6.9451633614802077e-01 8.1452882007714868e-03
    -7.5828754440515511e-01 8.1090110097932454e-03
    -7.7132140438390517e-01 8.1843010941168772e-03
    -7.4535599249992990e-01 8.2709822861864943e-03
    -7.1977238704789603e-01 7.9244154594654524e-03
    -1.1547005383792517e+00 7.8789508532813614e-03
    -1.1002392084403616e+00 7.8679558007459550e-03
    -1.0827805840074196e+00 8.0442759853862084e-03
    -1.2535663410560176e+00 7.8520448526107622e-03
    -1.0488088481701519e+00 7.8470924428764507e-03
    -9.6874224562653322e-01 7.8520448526107605e-03
    -9.5346258924559235e-01 8.0442759853862084e-03
    -7.9772403521746571e-01 1.0330048358911121e-02
    -4.5993310550389993e-01 1.1206815816655063e-02
    -4.0824829046386302e-01 1.4507793658598557e-02
    -2.9361010975735174e-01 1.3359411151945149e-02
    -3.2444284226152503e-01 8.4827845138170186e-03
    -6.6953406341198618e-01 8.1843010941168772e-03
    -7.4535599249992990e-01 8.2261590132073903e-03
    -7.3251987403322949e-01 8.0156466911670901e-03
    -8.1110710565381272e-01 7.9438493568306442e-03
    -8.5207241315528692e-01 7.8789508532813631e-03
    -9.0889325914638586e-01 7.8441254911882363e-03
    -9.8425098425147639e-01 7.8431372549019607e-03 -1.
    7.8679558007459533e-03 -9.2354814518279882e-01
    7.8679558007459533e-03 -9.2354814518279882e-01
    8.3700677527164622e-03 -6.9451633614802077e-01
    8.1452882007714868e-03 -7.5828754440515511e-01
    8.4827845138170186e-03 -6.6953406341198618e-01
    8.7553930298264783e-03 -6.2017367294604220e-01
    8.8348054922912835e-03 -6.0791875887432878e-01
    8.9193235941580629e-03 -5.9568339718127072e-01
    8.8348054922912835e-03 -6.0791875887432878e-01
    8.5447080830515099e-03 -6.5712874067277083e-01
    8.4827845138170186e-03 -6.6953406341198618e-01
    8.5447080830515099e-03 -6.5712874067277083e-01
    8.8348054922912835e-03 -6.0791875887432878e-01
    8.6106215021089297e-03 -6.4477153866982340e-01
    8.6807622043837875e-03 -6.3245553203367599e-01
    8.6106215021089297e-03 -6.4477153866982340e-01
    8.3189033080770299e-03 -7.0710678118654757e-01
    8.2709822861864943e-03 -7.1977238704789603e-01
    8.1452882007714868e-03 -7.5828754440515511e-01
    8.2709822861864943e-03 -7.1977238704789603e-01
    7.8520448526107622e-03 -1.0488088481701519e+00
    7.8520448526107622e-03 -1.0488088481701519e+00
    7.9244154594654524e-03 -1.1547005383792517e+00
    8.0156466911670884e-03 -1.2328828005937948e+00
    7.8679558007459533e-03 -9.2354814518279882e-01
    7.8589940054935165e-03 -9.3840130803690436e-01
    7.8441254911882363e-03 -9.8425098425147639e-01
    8.1452882007714868e-03 -7.5828754440515511e-01
    8.8348054922912835e-03 -6.0791875887432878e-01
    1.0958766548167260e-02 -4.2139066607833625e-01
    1.5227064210104330e-02 -2.7735009811261457e-01
    1.2891975359995925e-02 -3.3918173268560708e-01
    8.8348054922912835e-03 -6.0791875887432878e-01
    8.1843010941168772e-03 -7.4535599249992990e-01
    8.1090110097932454e-03 -7.7132140438390517e-01
    7.9438493568306442e-03 -8.5207241315528692e-01
    7.9244154594654524e-03 -8.6602540378443882e-01
    7.8789508532813631e-03 -9.0889325914638586e-01
    7.8431372549019607e-03 -1. 7.8470924428764507e-03
    -9.6874224562653322e-01 7.8679558007459533e-03
    -9.2354814518279882e-01 8.1090110097932454e-03
    -7.7132140438390517e-01 7.8589940054935165e-03
    -9.3840130803690436e-01 8.4827845138170186e-03
    -6.6953406341198618e-01 8.4246359581646724e-03
    -6.8199433947047350e-01 8.4827845138170186e-03
    -6.6953406341198618e-01 8.8348054922912835e-03
    -6.0791875887432878e-01 9.1051627947833537e-03
    -5.7124057057747946e-01 8.8348054922912835e-03
    -6.0791875887432878e-01 8.8348054922912835e-03
    -6.0791875887432878e-01 8.7553930298264783e-03
    -6.2017367294604220e-01 9.1051627947833537e-03
    -5.7124057057747946e-01 8.9193235941580629e-03
    -5.9568339718127072e-01 8.7553930298264783e-03
    -6.2017367294604220e-01 8.8348054922912835e-03
    -6.0791875887432878e-01 8.6106215021089297e-03
    -6.4477153866982340e-01 8.1843010941168772e-03
    -7.4535599249992990e-01 8.1452882007714868e-03
    -7.5828754440515511e-01 8.1843010941168772e-03
    -7.4535599249992990e-01 8.2261590132073903e-03
    -7.3251987403322949e-01 7.9071475977845074e-03
    -8.8014083380101360e-01 7.8589940054935165e-03
    -1.0656421633639424e+00 7.8679558007459550e-03
    -1.0827805840074196e+00 7.9244154594654524e-03
    -1.1547005383792517e+00 7.8679558007459533e-03
    -9.2354814518279882e-01 7.8679558007459533e-03
    -9.2354814518279882e-01 7.8470924428764507e-03
    -9.6874224562653322e-01 8.1090110097932454e-03
    -7.7132140438390517e-01 8.5447080830515099e-03
    -6.5712874067277083e-01 1.1206815816655063e-02
    -4.0824829046386302e-01 2.2367654904622229e-02
    -1.8107149208503709e-01 1.1478698663550963e-02
    -3.9492189449597959e-01 9.2073387308814880e-03
    -5.5901699437494745e-01 8.2261590132073903e-03
    -7.3251987403322949e-01 8.4246359581646724e-03
    -6.8199433947047350e-01 8.0156466911670901e-03
    -8.1110710565381272e-01 7.9894088247262629e-03
    -8.2462112512353214e-01 7.8920046264698458e-03
    -8.9442719099991586e-01 7.8470924428764507e-03
    -9.6874224562653322e-01 7.8441254911882363e-03
    -9.8425098425147639e-01 7.8789508532813631e-03
    -9.0889325914638586e-01 7.8679558007459533e-03
    -9.2354814518279882e-01 7.8789508532813631e-03
    -9.0889325914638586e-01 8.2709822861864943e-03
    -7.1977238704789603e-01 9.1051627947833537e-03
    -5.7124057057747946e-01 8.8348054922912835e-03
    -6.0791875887432878e-01 8.5447080830515099e-03
    -6.5712874067277083e-01 8.6106215021089297e-03
    -6.4477153866982340e-01 8.7553930298264783e-03
    -6.2017367294604220e-01 8.8348054922912835e-03
    -6.0791875887432878e-01 8.9193235941580629e-03
    -5.9568339718127072e-01 8.9193235941580629e-03
    -5.9568339718127072e-01 9.1051627947833537e-03
    -5.7124057057747946e-01 8.4827845138170186e-03
    -6.6953406341198618e-01 8.7553930298264783e-03
    -6.2017367294604220e-01 8.6106215021089297e-03
    -6.4477153866982340e-01 8.3189033080770299e-03
    -7.0710678118654757e-01 8.1452882007714868e-03
    -7.5828754440515511e-01 8.3189033080770299e-03
    -7.0710678118654757e-01 7.9071475977845074e-03
    -8.8014083380101360e-01 7.8589940054935165e-03
    -1.0656421633639424e+00 7.9244154594654524e-03
    -8.6602540378443882e-01 7.8920046264698458e-03
    -1.1180339887498947e+00 7.9244154594654524e-03
    -1.1547005383792517e+00 7.8520448526107605e-03
    -9.5346258924559235e-01 7.8470924428764507e-03
    -9.6874224562653322e-01 7.8679558007459533e-03
    -9.2354814518279882e-01 8.0753702703958118e-03
    -7.8446454055273596e-01 8.6807622043837875e-03
    -6.3245553203367599e-01 1.1778067278916140e-02
    -3.8138503569823690e-01 2.0088739049195972e-02
    -2.0327890704543541e-01 1.0731549527087596e-02
    -4.3437224276306935e-01 9.8333087032516572e-03
    -4.9751859510499458e-01 9.0093082983993700e-03
    -5.8345996599157823e-01 8.0753702703958118e-03
    -7.8446454055273596e-01 7.9894088247262629e-03
    -8.2462112512353214e-01 7.9894088247262629e-03
    -8.2462112512353214e-01 7.8920046264698458e-03
    -8.9442719099991586e-01 7.9438493568306442e-03
    -8.5207241315528692e-01 7.8920046264698458e-03
    -8.9442719099991586e-01 7.8789508532813631e-03
    -9.0889325914638586e-01 7.8441254911882363e-03
    -9.8425098425147639e-01 7.9654961674131657e-03
    -8.3827364428490936e-01 7.9894088247262629e-03
    -8.2462112512353214e-01 8.7553930298264783e-03
    -6.2017367294604220e-01 8.5447080830515099e-03
    -6.5712874067277083e-01 8.9193235941580629e-03
    -5.9568339718127072e-01 8.7553930298264783e-03
    -6.2017367294604220e-01 8.7553930298264783e-03
    -6.2017367294604220e-01 8.9193235941580629e-03
    -5.9568339718127072e-01 8.5447080830515099e-03
    -6.5712874067277083e-01 8.7553930298264783e-03
    -6.2017367294604220e-01 8.5447080830515099e-03
    -6.5712874067277083e-01 8.4827845138170186e-03
    -6.6953406341198618e-01 8.5447080830515099e-03
    -6.5712874067277083e-01 8.6106215021089297e-03
    -6.4477153866982340e-01 8.2261590132073903e-03
    -7.3251987403322949e-01 8.3700677527164622e-03
    -6.9451633614802077e-01 8.2709822861864943e-03
    -7.1977238704789603e-01 7.9438493568306442e-03
    -8.5207241315528692e-01 7.8789508532813631e-03
    -9.0889325914638586e-01 7.8520448526107622e-03
    -1.0488088481701519e+00 7.9071475977845092e-03
    -1.1361818036340361e+00 7.8679558007459550e-03
    -1.0827805840074196e+00 7.8789508532813631e-03
    -9.0889325914638586e-01 7.8520448526107605e-03
    -9.5346258924559235e-01 7.8789508532813631e-03
    -9.0889325914638586e-01 8.1843010941168772e-03
    -7.4535599249992990e-01 8.5447080830515099e-03
    -6.5712874067277083e-01 1.0522672835293128e-02
    -4.4721359549995793e-01 1.7120161767270561e-02
    -2.4253562503633294e-01 1.1778067278916140e-02
    -3.8138503569823690e-01 9.5572046407049801e-03
    -5.2223296786709361e-01 9.0093082983993700e-03
    -5.8345996599157823e-01 8.1090110097932454e-03
    -7.7132140438390517e-01 7.9894088247262629e-03
    -8.2462112512353214e-01 7.9438493568306442e-03
    -8.5207241315528692e-01 7.9244154594654524e-03
    -8.6602540378443882e-01 7.9244154594654524e-03
    -8.6602540378443882e-01 7.9894088247262629e-03
    -8.2462112512353214e-01 7.8441254911882363e-03
    -9.8425098425147639e-01 7.8441254911882363e-03
    -1.0160010160015238e+00 7.8431372549019607e-03 -1.
    7.9244154594654524e-03 -8.6602540378443882e-01
    8.1090110097932454e-03 -7.7132140438390517e-01
    8.6106215021089297e-03 -6.4477153866982340e-01
    8.6106215021089297e-03 -6.4477153866982340e-01
    8.5447080830515099e-03 -6.5712874067277083e-01
    8.7553930298264783e-03 -6.2017367294604220e-01
    8.4246359581646724e-03 -6.8199433947047350e-01
    8.6106215021089297e-03 -6.4477153866982340e-01
    8.6106215021089297e-03 -6.4477153866982340e-01
    8.5447080830515099e-03 -6.5712874067277083e-01
    8.6807622043837875e-03 -6.3245553203367599e-01
    8.6807622043837875e-03 -6.3245553203367599e-01
    8.5447080830515099e-03 -6.5712874067277083e-01
    8.8348054922912835e-03 -6.0791875887432878e-01
    8.3700677527164622e-03 -6.9451633614802077e-01
    7.8789508532813631e-03 -9.0889325914638586e-01
    7.8589940054935165e-03 -9.3840130803690436e-01
    7.8920046264698458e-03 -8.9442719099991586e-01
    7.8789508532813631e-03 -9.0889325914638586e-01
    7.9071475977845092e-03 -1.1361818036340361e+00
    7.8679558007459550e-03 -1.0827805840074196e+00
    7.8470924428764507e-03 -9.6874224562653322e-01
    8.0442759853862084e-03 -7.9772403521746571e-01
    7.8920046264698458e-03 -8.9442719099991586e-01
    8.1090110097932454e-03 -7.7132140438390517e-01
    8.8348054922912835e-03 -6.0791875887432878e-01
    1.0731549527087596e-02 -4.3437224276306935e-01
    2.2367654904622229e-02 -1.8107149208503709e-01
    1.1778067278916140e-02 -3.8138503569823690e-01
    9.9867610309078269e-03 -4.8507125007266588e-01
    8.9193235941580629e-03 -5.9568339718127072e-01
    8.2709822861864943e-03 -7.1977238704789603e-01
    8.1452882007714868e-03 -7.5828754440515511e-01
    8.1090110097932454e-03 -7.7132140438390517e-01
    7.9438493568306442e-03 -8.5207241315528692e-01
    7.9244154594654524e-03 -8.6602540378443882e-01
    7.8789508532813631e-03 -9.0889325914638586e-01
    7.9244154594654524e-03 -8.6602540378443882e-01
    7.8431372549019607e-03 -1. 7.8470924428764507e-03
    -9.6874224562653322e-01 7.9244154594654524e-03
    -8.6602540378443882e-01 7.9244154594654524e-03
    -8.6602540378443882e-01 7.9894088247262629e-03
    -8.2462112512353214e-01 8.9193235941580629e-03
    -5.9568339718127072e-01 8.8348054922912835e-03
    -6.0791875887432878e-01 8.5447080830515099e-03
    -6.5712874067277083e-01 8.5447080830515099e-03
    -6.5712874067277083e-01 8.6106215021089297e-03
    -6.4477153866982340e-01 8.6807622043837875e-03
    -6.3245553203367599e-01 8.5447080830515099e-03
    -6.5712874067277083e-01 8.6807622043837875e-03
    -6.3245553203367599e-01 9.0093082983993700e-03
    -5.8345996599157823e-01 8.6106215021089297e-03
    -6.4477153866982340e-01 8.4246359581646724e-03
    -6.8199433947047350e-01 8.2261590132073903e-03
    -7.3251987403322949e-01 7.8789508532813631e-03
    -9.0889325914638586e-01 7.9438493568306442e-03
    -8.5207241315528692e-01 7.8920046264698458e-03
    -8.9442719099991586e-01 7.8441254911882363e-03
    -1.0160010160015238e+00 7.9438493568306460e-03
    -1.1736091728365277e+00 7.8589940054935165e-03
    -9.3840130803690436e-01 7.8520448526107605e-03
    -9.5346258924559235e-01 7.8920046264698458e-03
    -8.9442719099991586e-01 7.8789508532813631e-03
    -9.0889325914638586e-01 8.4246359581646724e-03
    -6.8199433947047350e-01 8.7553930298264783e-03
    -6.2017367294604220e-01 1.0958766548167260e-02
    -4.2139066607833625e-01 1.6082159591748833e-02
    -2.6037782196164777e-01 1.1778067278916140e-02
    -3.8138503569823690e-01 1.0151911762079691e-02
    -4.7254732130632848e-01 9.9867610309078269e-03
    -4.8507125007266588e-01 8.1843010941168772e-03
    -7.4535599249992990e-01 8.2261590132073903e-03
    -7.3251987403322949e-01 8.1843010941168772e-03
    -7.4535599249992990e-01 8.0442759853862084e-03
    -7.9772403521746571e-01 7.9071475977845074e-03
    -8.8014083380101360e-01 7.8679558007459533e-03
    -9.2354814518279882e-01 7.8470924428764507e-03
    -9.6874224562653322e-01 7.8431372549019607e-03 -1.
    8.0156466911670901e-03 -8.1110710565381272e-01
    7.9894088247262629e-03 -8.2462112512353214e-01
    7.9244154594654524e-03 -8.6602540378443882e-01
    8.4246359581646724e-03 -6.8199433947047350e-01
    8.0442759853862084e-03 -7.9772403521746571e-01
    8.4246359581646724e-03 -6.8199433947047350e-01
    8.4246359581646724e-03 -6.8199433947047350e-01
    8.6807622043837875e-03 -6.3245553203367599e-01
    8.5447080830515099e-03 -6.5712874067277083e-01
    8.6106215021089297e-03 -6.4477153866982340e-01
    8.7553930298264783e-03 -6.2017367294604220e-01
    8.5447080830515099e-03 -6.5712874067277083e-01
    8.5447080830515099e-03 -6.5712874067277083e-01
    8.3189033080770299e-03 -7.0710678118654757e-01
    8.0442759853862084e-03 -7.9772403521746571e-01
    8.0442759853862084e-03 -7.9772403521746571e-01
    8.3700677527164622e-03 -6.9451633614802077e-01
    8.1843010941168772e-03 -7.4535599249992990e-01
    7.8789508532813631e-03 -9.0889325914638586e-01
    8.0753702703958135e-03 -1.2747548783981963e+00
    8.0156466911670884e-03 -1.2328828005937948e+00
    7.8470924428764507e-03 -9.6874224562653322e-01
    7.9438493568306442e-03 -8.5207241315528692e-01
    7.8589940054935165e-03 -9.3840130803690436e-01
    7.8679558007459533e-03 -9.2354814518279882e-01
    8.4827845138170186e-03 -6.6953406341198618e-01
    9.0093082983993700e-03 -5.8345996599157823e-01
    1.5227064210104330e-02 -2.7735009811261457e-01
    1.4507793658598557e-02 -2.9361010975735174e-01
    1.1778067278916140e-02 -3.8138503569823690e-01
    1.0151911762079691e-02 -4.7254732130632848e-01
    1.0151911762079691e-02 -4.7254732130632848e-01
    9.1051627947833537e-03 -5.7124057057747946e-01
    8.7553930298264783e-03 -6.2017367294604220e-01
    8.2709822861864943e-03 -7.1977238704789603e-01
    8.0753702703958118e-03 -7.8446454055273596e-01
    7.9894088247262629e-03 -8.2462112512353214e-01
    7.9071475977845074e-03 -8.8014083380101360e-01
    7.9071475977845074e-03 -8.8014083380101360e-01
    7.8589940054935165e-03 -9.3840130803690436e-01
    7.9071475977845092e-03 -1.1361818036340361e+00
    7.8589940054935165e-03 -9.3840130803690436e-01
    7.8920046264698458e-03 -8.9442719099991586e-01
    7.9894088247262629e-03 -8.2462112512353214e-01
    7.9894088247262629e-03 -8.2462112512353214e-01
    7.9894088247262629e-03 -8.2462112512353214e-01
    7.9244154594654524e-03 -8.6602540378443882e-01
    7.9654961674131657e-03 -8.3827364428490936e-01
    8.6106215021089297e-03 -6.4477153866982340e-01
    8.1090110097932454e-03 -7.7132140438390517e-01
    7.9894088247262629e-03 -8.2462112512353214e-01
    8.0156466911670901e-03 -8.1110710565381272e-01
    7.9244154594654524e-03 -8.6602540378443882e-01
    7.9244154594654524e-03 -8.6602540378443882e-01
    7.9071475977845074e-03 -8.8014083380101360e-01
    7.9438493568306442e-03 -8.5207241315528692e-01
    7.9071475977845074e-03 -8.8014083380101360e-01
    8.1452882007714868e-03 -7.5828754440515511e-01
    7.8679558007459550e-03 -1.0827805840074196e+00
    8.1452882007714868e-03 -1.3187609467915740e+00
    7.8441254911882363e-03 -1.0160010160015238e+00
    7.8431372549019607e-03 -1. 7.8789508532813631e-03
    -9.0889325914638586e-01 7.8589940054935165e-03
    -9.3840130803690436e-01 7.8789508532813631e-03
    -9.0889325914638586e-01 8.3189033080770299e-03
    -7.0710678118654757e-01 9.2073387308814880e-03
    -5.5901699437494745e-01 1.5227064210104330e-02
    -2.7735009811261457e-01 1.6082159591748833e-02
    -2.6037782196164777e-01 1.2891975359995925e-02
    -3.3918173268560708e-01 1.1478698663550963e-02
    -3.9492189449597959e-01 1.0522672835293128e-02
    -4.4721359549995793e-01 9.4327497145561545e-03
    -5.3452248382484868e-01 9.4327497145561545e-03
    -5.3452248382484868e-01 8.6807622043837875e-03
    -6.3245553203367599e-01 8.1843010941168772e-03
    -7.4535599249992990e-01 8.2709822861864943e-03
    -7.1977238704789603e-01 8.0753702703958118e-03
    -7.8446454055273596e-01 7.8920046264698458e-03
    -8.9442719099991586e-01 7.8920046264698458e-03
    -8.9442719099991586e-01 7.9071475977845092e-03
    -1.1361818036340361e+00 7.9438493568306460e-03
    -1.1736091728365277e+00 7.9244154594654524e-03
    -8.6602540378443882e-01 7.9071475977845074e-03
    -8.8014083380101360e-01 8.0753702703958118e-03
    -7.8446454055273596e-01 8.1090110097932454e-03
    -7.7132140438390517e-01 8.0156466911670901e-03
    -8.1110710565381272e-01 7.9244154594654524e-03
    -8.6602540378443882e-01 8.1090110097932454e-03
    -7.7132140438390517e-01 7.9654961674131657e-03
    -8.3827364428490936e-01 8.0156466911670901e-03
    -8.1110710565381272e-01 8.0442759853862084e-03
    -7.9772403521746571e-01 8.0442759853862084e-03
    -7.9772403521746571e-01 8.0442759853862084e-03
    -7.9772403521746571e-01 8.0442759853862084e-03
    -7.9772403521746571e-01 7.9438493568306442e-03
    -8.5207241315528692e-01 7.9438493568306442e-03
    -8.5207241315528692e-01 7.9894088247262629e-03
    -8.2462112512353214e-01 7.8920046264698458e-03
    -1.1180339887498947e+00 7.8470924428764507e-03
    -1.0322663273069617e+00 7.8431372549019607e-03 -1.
    7.8679558007459533e-03 -9.2354814518279882e-01
    7.9071475977845074e-03 -8.8014083380101360e-01
    7.9654961674131657e-03 -8.3827364428490936e-01
    7.8920046264698458e-03 -8.9442719099991586e-01
    8.3189033080770299e-03 -7.0710678118654757e-01
    1.0731549527087596e-02 -4.3437224276306935e-01
    1.5227064210104330e-02 -2.7735009811261457e-01
    1.8414677461762972e-02 -2.2360679774997894e-01
    1.4507793658598557e-02 -2.9361010975735174e-01
    1.2478354962115544e-02 -3.5355339059327373e-01
    1.1206815816655063e-02 -4.0824829046386302e-01
    1.0330048358911121e-02 -4.5993310550389993e-01
    1.0151911762079691e-02 -4.7254732130632848e-01
    1.0958766548167260e-02 -4.2139066607833625e-01
    8.6106215021089297e-03 -6.4477153866982340e-01
    8.6807622043837875e-03 -6.3245553203367599e-01
    8.1452882007714868e-03 -7.5828754440515511e-01
    7.8789508532813631e-03 -9.0889325914638586e-01
    8.0442759853862084e-03 -7.9772403521746571e-01
    7.8920046264698458e-03 -8.9442719099991586e-01
    7.8679558007459550e-03 -1.0827805840074196e+00
    7.9654961674131639e-03 -1.1929278784054476e+00
    7.8920046264698458e-03 -1.1180339887498947e+00
    7.9071475977845074e-03 -8.8014083380101360e-01
    7.9438493568306442e-03 -8.5207241315528692e-01
    8.1090110097932454e-03 -7.7132140438390517e-01
    8.1090110097932454e-03 -7.7132140438390517e-01
    8.1452882007714868e-03 -7.5828754440515511e-01
    8.0156466911670901e-03 -8.1110710565381272e-01
    8.0442759853862084e-03 -7.9772403521746571e-01
    8.0753702703958118e-03 -7.8446454055273596e-01
    8.0753702703958118e-03 -7.8446454055273596e-01
    8.0442759853862084e-03 -7.9772403521746571e-01
    7.9654961674131657e-03 -8.3827364428490936e-01
    8.3700677527164622e-03 -6.9451633614802077e-01
    7.9894088247262629e-03 -8.2462112512353214e-01
    8.0753702703958118e-03 -7.8446454055273596e-01
    8.1090110097932454e-03 -1.2964764031133724e+00
    7.8441254911882363e-03 -9.8425098425147639e-01
    7.8589940054935165e-03 -9.3840130803690436e-01
    7.8470924428764507e-03 -9.6874224562653322e-01
    7.9438493568306442e-03 -8.5207241315528692e-01
    8.0442759853862084e-03 -7.9772403521746571e-01
    8.3189033080770299e-03 -7.0710678118654757e-01
    9.2073387308814880e-03 -5.5901699437494745e-01
    1.1478698663550963e-02 -3.9492189449597959e-01
    1.8414677461762972e-02 -2.2360679774997894e-01
    1.8414677461762972e-02 -2.2360679774997894e-01
    1.7120161767270561e-02 -2.4253562503633294e-01
    1.2891975359995925e-02 -3.3918173268560708e-01
    1.1778067278916140e-02 -3.8138503569823690e-01
    1.0522672835293128e-02 -4.4721359549995793e-01
    1.0151911762079691e-02 -4.7254732130632848e-01
    9.8333087032516572e-03 -4.9751859510499458e-01
    9.9867610309078269e-03 -4.8507125007266588e-01
    8.6807622043837875e-03 -6.3245553203367599e-01
    8.5447080830515099e-03 -6.5712874067277083e-01
    8.4246359581646724e-03 -6.8199433947047350e-01
    8.3700677527164622e-03 -6.9451633614802077e-01
    7.9654961674131657e-03 -8.3827364428490936e-01
    7.9244154594654524e-03 -8.6602540378443882e-01
    7.8520448526107622e-03 -1.0488088481701519e+00
    7.9244154594654524e-03 -1.1547005383792517e+00
    7.8679558007459550e-03 -1.0827805840074196e+00
    7.8470924428764507e-03 -1.0322663273069617e+00
    7.9244154594654524e-03 -8.6602540378443882e-01
    7.8589940054935165e-03 -9.3840130803690436e-01
    7.8920046264698458e-03 -8.9442719099991586e-01
    7.8920046264698458e-03 -8.9442719099991586e-01
    7.9438493568306442e-03 -8.5207241315528692e-01
    7.9071475977845074e-03 -8.8014083380101360e-01
    8.3700677527164622e-03 -6.9451633614802077e-01
    8.3700677527164622e-03 -6.9451633614802077e-01
    8.0156466911670901e-03 -8.1110710565381272e-01
    7.9244154594654524e-03 -8.6602540378443882e-01
    7.8520448526107622e-03 -1.0488088481701519e+00
    7.8431372549019607e-03 -1. 7.9654961674131639e-03
    -1.1929278784054476e+00 7.8789508532813631e-03
    -9.0889325914638586e-01 7.9071475977845074e-03
    -8.8014083380101360e-01 7.9438493568306442e-03
    -8.5207241315528692e-01 7.9438493568306442e-03
    -8.5207241315528692e-01 8.0156466911670901e-03
    -8.1110710565381272e-01 8.7553930298264783e-03
    -6.2017367294604220e-01 9.6904443244749758e-03
    -5.0990195135927852e-01 1.7120161767270561e-02
    -2.4253562503633294e-01 1.7120161767270561e-02
    -2.4253562503633294e-01 2.0088739049195972e-02
    -2.0327890704543541e-01 1.7120161767270561e-02
    -2.4253562503633294e-01 1.4507793658598557e-02
    -2.9361010975735174e-01 1.2478354962115544e-02
    -3.5355339059327373e-01 1.2891975359995925e-02
    -3.3918173268560708e-01 1.0522672835293128e-02
    -4.4721359549995793e-01 9.8333087032516572e-03
    -4.9751859510499458e-01 9.0093082983993700e-03
    -5.8345996599157823e-01 9.4327497145561545e-03
    -5.3452248382484868e-01 8.4827845138170186e-03
    -6.6953406341198618e-01 8.7553930298264783e-03
    -6.2017367294604220e-01 8.3189033080770299e-03
    -7.0710678118654757e-01 8.1452882007714868e-03
    -7.5828754440515511e-01 7.8920046264698458e-03
    -8.9442719099991586e-01 7.8520448526107605e-03
    -9.5346258924559235e-01 7.8470924428764507e-03
    -1.0322663273069617e+00 7.8470924428764507e-03
    -1.0322663273069617e+00 7.8789508532813631e-03
    -9.0889325914638586e-01 7.8789508532813631e-03
    -9.0889325914638586e-01 7.8920046264698458e-03
    -8.9442719099991586e-01 7.8589940054935165e-03
    -9.3840130803690436e-01 7.9654961674131657e-03
    -8.3827364428490936e-01 8.0156466911670901e-03
    -8.1110710565381272e-01 7.9244154594654524e-03
    -8.6602540378443882e-01 8.3700677527164622e-03
    -6.9451633614802077e-01 8.1090110097932454e-03
    -7.7132140438390517e-01 8.2261590132073903e-03
    -7.3251987403322949e-01 7.8441254911882363e-03
    -1.0160010160015238e+00 7.8589940054935165e-03
    -1.0656421633639424e+00 7.8589940054935165e-03
    -1.0656421633639424e+00 7.8431372549019607e-03 -1.
    7.8920046264698458e-03 -8.9442719099991586e-01
    7.9438493568306442e-03 -8.5207241315528692e-01
    7.9438493568306442e-03 -8.5207241315528692e-01
    7.9244154594654524e-03 -8.6602540378443882e-01
    8.6106215021089297e-03 -6.4477153866982340e-01
    9.5572046407049801e-03 -5.2223296786709361e-01
    1.0522672835293128e-02 -4.4721359549995793e-01
    1.5227064210104330e-02 -2.7735009811261457e-01
    1.7120161767270561e-02 -2.4253562503633294e-01
    1.8414677461762972e-02 -2.2360679774997894e-01
    1.7120161767270561e-02 -2.4253562503633294e-01
    1.3359411151945149e-02 -3.2444284226152503e-01
    1.2478354962115544e-02 -3.5355339059327373e-01
    1.2891975359995925e-02 -3.3918173268560708e-01
    1.2109417305074480e-02 -3.6760731104690386e-01
    1.0151911762079691e-02 -4.7254732130632848e-01
    9.5572046407049801e-03 -5.2223296786709361e-01
    9.0093082983993700e-03 -5.8345996599157823e-01
    9.2073387308814880e-03 -5.5901699437494745e-01
    8.6106215021089297e-03 -6.4477153866982340e-01
    8.4246359581646724e-03 -6.8199433947047350e-01
    8.0753702703958118e-03 -7.8446454055273596e-01
    7.9654961674131657e-03 -8.3827364428490936e-01
    7.9071475977845074e-03 -8.8014083380101360e-01
    7.9894088247262629e-03 -8.2462112512353214e-01
    7.8589940054935165e-03 -1.0656421633639424e+00
    7.8470924428764507e-03 -1.0322663273069617e+00
    8.0156466911670901e-03 -8.1110710565381272e-01
    7.8679558007459533e-03 -9.2354814518279882e-01
    7.8470924428764507e-03 -9.6874224562653322e-01
    7.8441254911882363e-03 -9.8425098425147639e-01
    7.8470924428764507e-03 -9.6874224562653322e-01
    7.9654961674131657e-03 -8.3827364428490936e-01
    7.9654961674131657e-03 -8.3827364428490936e-01
    7.8431372549019607e-03 -1. 7.8441254911882363e-03
    -1.0160010160015238e+00 7.9438493568306460e-03
    -1.1736091728365277e+00 7.8520448526107622e-03
    -1.0488088481701519e+00 7.8431372549019607e-03 -1.
    7.9894088247262629e-03 -8.2462112512353214e-01
    7.9071475977845074e-03 -8.8014083380101360e-01
    7.9654961674131657e-03 -8.3827364428490936e-01
    7.9071475977845074e-03 -8.8014083380101360e-01
    8.3700677527164622e-03 -6.9451633614802077e-01
    9.2073387308814880e-03 -5.5901699437494745e-01
    9.5572046407049801e-03 -5.2223296786709361e-01
    1.0522672835293128e-02 -4.4721359549995793e-01
    1.5227064210104330e-02 -2.7735009811261457e-01
    1.8414677461762972e-02 -2.2360679774997894e-01
    2.0088739049195972e-02 -2.0327890704543541e-01
    1.7120161767270561e-02 -2.4253562503633294e-01
    1.3359411151945149e-02 -3.2444284226152503e-01
    1.2478354962115544e-02 -3.5355339059327373e-01
    1.2109417305074480e-02 -3.6760731104690386e-01
    1.1778067278916140e-02 -3.8138503569823690e-01
    1.2109417305074480e-02 -3.6760731104690386e-01
    1.0151911762079691e-02 -4.7254732130632848e-01
    9.3163436224152057e-03 -5.4678064355365430e-01
    9.8333087032516572e-03 -4.9751859510499458e-01
    9.3163436224152057e-03 -5.4678064355365430e-01
    8.3189033080770299e-03 -7.0710678118654757e-01
    8.3700677527164622e-03 -6.9451633614802077e-01
    8.4246359581646724e-03 -6.8199433947047350e-01
    7.9244154594654524e-03 -8.6602540378443882e-01
    7.8589940054935165e-03 -9.3840130803690436e-01
    7.8679558007459533e-03 -9.2354814518279882e-01
    7.9071475977845092e-03 -1.1361818036340361e+00
    7.8789508532813614e-03 -1.1002392084403616e+00
    7.8589940054935165e-03 -1.0656421633639424e+00
    7.9438493568306442e-03 -8.5207241315528692e-01
    8.0753702703958118e-03 -7.8446454055273596e-01
    7.8431372549019607e-03 -1. 7.8431372549019607e-03 -1.
    7.8789508532813631e-03 -9.0889325914638586e-01
    7.8470924428764507e-03 -9.6874224562653322e-01
    7.8520448526107622e-03 -1.0488088481701519e+00
    7.8679558007459550e-03 -1.0827805840074196e+00
    7.8589940054935165e-03 -1.0656421633639424e+00
    7.8520448526107622e-03 -1.0488088481701519e+00
    7.9654961674131657e-03 -8.3827364428490936e-01
    7.8789508532813631e-03 -9.0889325914638586e-01
    7.8920046264698458e-03 -8.9442719099991586e-01
    8.0753702703958118e-03 -7.8446454055273596e-01
    8.8348054922912835e-03 -6.0791875887432878e-01
    9.4327497145561545e-03 -5.3452248382484868e-01
    9.5572046407049801e-03 -5.2223296786709361e-01
    1.2891975359995925e-02 -3.3918173268560708e-01
    1.6082159591748833e-02 -2.6037782196164777e-01
    1.6082159591748833e-02 -2.6037782196164777e-01
    2.5722737252240998e-02 -1.5617376188860604e-01
    1.6082159591748833e-02 -2.6037782196164777e-01
    1.3359411151945149e-02 -3.2444284226152503e-01
    1.2891975359995925e-02 -3.3918173268560708e-01
    1.1778067278916140e-02 -3.8138503569823690e-01
    1.2109417305074480e-02 -3.6760731104690386e-01
    1.1778067278916140e-02 -3.8138503569823690e-01
    1.1478698663550963e-02 -3.9492189449597959e-01
    9.8333087032516572e-03 -4.9751859510499458e-01
    9.8333087032516572e-03 -4.9751859510499458e-01
    9.8333087032516572e-03 -4.9751859510499458e-01
    9.0093082983993700e-03 -5.8345996599157823e-01
    8.1090110097932454e-03 -7.7132140438390517e-01
    8.1452882007714868e-03 -7.5828754440515511e-01
    8.0442759853862084e-03 -7.9772403521746571e-01
    7.8920046264698458e-03 -8.9442719099991586e-01
    7.8679558007459533e-03 -9.2354814518279882e-01
    7.9071475977845074e-03 -8.8014083380101360e-01
    7.9244154594654524e-03 -1.1547005383792517e+00
    7.9244154594654524e-03 -1.1547005383792517e+00
    7.8470924428764507e-03 -1.0322663273069617e+00
    7.8520448526107605e-03 -9.5346258924559235e-01
    7.8789508532813631e-03 -9.0889325914638586e-01
    7.9654961674131657e-03 -8.3827364428490936e-01
    7.9244154594654524e-03 -1.1547005383792517e+00
    7.8679558007459550e-03 -1.0827805840074196e+00
    7.8589940054935165e-03 -1.0656421633639424e+00
    7.9894088247262629e-03 -8.2462112512353214e-01
    8.0753702703958118e-03 -7.8446454055273596e-01
    7.9071475977845074e-03 -8.8014083380101360e-01
    7.9244154594654524e-03 -8.6602540378443882e-01
    8.1090110097932454e-03 -7.7132140438390517e-01
    8.3189033080770299e-03 -7.0710678118654757e-01
    8.4246359581646724e-03 -6.8199433947047350e-01
    9.3163436224152057e-03 -5.4678064355365430e-01
    9.5572046407049801e-03 -5.2223296786709361e-01
    1.2109417305074480e-02 -3.6760731104690386e-01
    1.2891975359995925e-02 -3.3918173268560708e-01
    1.6082159591748833e-02 -2.6037782196164777e-01
    1.7120161767270561e-02 -2.4253562503633294e-01
    2.0088739049195972e-02 -2.0327890704543541e-01
    1.6082159591748833e-02 -2.6037782196164777e-01
    1.4507793658598557e-02 -2.9361010975735174e-01
    1.2478354962115544e-02 -3.5355339059327373e-01
    1.2478354962115544e-02 -3.5355339059327373e-01
    1.2478354962115544e-02 -3.5355339059327373e-01
    1.2109417305074480e-02 -3.6760731104690386e-01
    1.1478698663550963e-02 -3.9492189449597959e-01
    1.1478698663550963e-02 -3.9492189449597959e-01
    1.0731549527087596e-02 -4.3437224276306935e-01
    1.0522672835293128e-02 -4.4721359549995793e-01
    1.0330048358911121e-02 -4.5993310550389993e-01
    9.5572046407049801e-03 -5.2223296786709361e-01
    9.2073387308814880e-03 -5.5901699437494745e-01
    8.3189033080770299e-03 -7.0710678118654757e-01
    7.9894088247262629e-03 -8.2462112512353214e-01
    8.0156466911670901e-03 -8.1110710565381272e-01
    7.9244154594654524e-03 -8.6602540378443882e-01
    7.8470924428764507e-03 -1.0322663273069617e+00
    7.8789508532813614e-03 -1.1002392084403616e+00
    7.8589940054935165e-03 -1.0656421633639424e+00
    7.8589940054935165e-03 -9.3840130803690436e-01
    7.8679558007459533e-03 -9.2354814518279882e-01
    8.1090110097932454e-03 -1.2964764031133724e+00
    7.9894088247262612e-03 -1.2126781251816645e+00
    7.9654961674131639e-03 -1.1929278784054476e+00
    7.9894088247262629e-03 -8.2462112512353214e-01
    7.8920046264698458e-03 -8.9442719099991586e-01
    7.8589940054935165e-03 -9.3840130803690436e-01
    7.9438493568306442e-03 -8.5207241315528692e-01
    8.2709822861864943e-03 -7.1977238704789603e-01
    8.1843010941168772e-03 -7.4535599249992990e-01
    9.3163436224152057e-03 -5.4678064355365430e-01
    9.2073387308814880e-03 -5.5901699437494745e-01
    9.3163436224152057e-03 -5.4678064355365430e-01
    1.1778067278916140e-02 -3.8138503569823690e-01
    1.3359411151945149e-02 -3.2444284226152503e-01
    1.3892650234619056e-02 -3.0927685641354330e-01
    1.6082159591748833e-02 -2.6037782196164777e-01
    2.5722737252240998e-02 -1.5617376188860604e-01
    2.2367654904622229e-02 -1.8107149208503709e-01
    1.8414677461762972e-02 -2.2360679774997894e-01
    1.8414677461762972e-02 -2.2360679774997894e-01
    1.3892650234619056e-02 -3.0927685641354330e-01
    1.3359411151945149e-02 -3.2444284226152503e-01
    1.3892650234619056e-02 -3.0927685641354330e-01
    1.3892650234619056e-02 -3.0927685641354330e-01
    1.3892650234619056e-02 -3.0927685641354330e-01
    1.3892650234619056e-02 -3.0927685641354330e-01
    1.4507793658598557e-02 -2.9361010975735174e-01
    1.2478354962115544e-02 -3.5355339059327373e-01
    1.2478354962115544e-02 -3.5355339059327373e-01
    1.0330048358911121e-02 -4.5993310550389993e-01
    1.0731549527087596e-02 -4.3437224276306935e-01
    1.0151911762079691e-02 -4.7254732130632848e-01
    9.1051627947833537e-03 -5.7124057057747946e-01
    8.4246359581646724e-03 -6.8199433947047350e-01
    8.1452882007714868e-03 -7.5828754440515511e-01
    8.0442759853862084e-03 -7.9772403521746571e-01
    7.8441254911882363e-03 -1.0160010160015238e+00
    7.8679558007459550e-03 -1.0827805840074196e+00
    7.8589940054935165e-03 -1.0656421633639424e+00
    7.8441254911882363e-03 -9.8425098425147639e-01
    7.9438493568306460e-03 -1.1736091728365277e+00
    7.9438493568306460e-03 -1.1736091728365277e+00
    7.8441254911882363e-03 -1.0160010160015238e+00
    7.8441254911882363e-03 -1.0160010160015238e+00
    7.8431372549019607e-03 -1. 7.9654961674131657e-03
    -8.3827364428490936e-01 8.1452882007714868e-03
    -7.5828754440515511e-01 8.3189033080770299e-03
    -7.0710678118654757e-01 8.2709822861864943e-03
    -7.1977238704789603e-01 9.0093082983993700e-03
    -5.8345996599157823e-01 9.4327497145561545e-03
    -5.3452248382484868e-01 1.2109417305074480e-02
    -3.6760731104690386e-01 1.4507793658598557e-02
    -2.9361010975735174e-01 1.5227064210104330e-02
    -2.7735009811261457e-01 1.6082159591748833e-02
    -2.6037782196164777e-01 2.0088739049195972e-02
    -2.0327890704543541e-01 2.2367654904622229e-02
    -1.8107149208503709e-01 1. 0. 2.5722737252240998e-02
    -1.5617376188860604e-01 2.2367654904622229e-02
    -1.8107149208503709e-01 1.8414677461762972e-02
    -2.2360679774997894e-01 1.7120161767270561e-02
    -2.4253562503633294e-01 1.7120161767270561e-02
    -2.4253562503633294e-01 1.7120161767270561e-02
    -2.4253562503633294e-01 1.6082159591748833e-02
    -2.6037782196164777e-01 1.6082159591748833e-02
    -2.6037782196164777e-01 1.5227064210104330e-02
    -2.7735009811261457e-01 1.5227064210104330e-02
    -2.7735009811261457e-01 1.3892650234619056e-02
    -3.0927685641354330e-01 1.3359411151945149e-02
    -3.2444284226152503e-01 1.0330048358911121e-02
    -4.5993310550389993e-01 1.0731549527087596e-02
    -4.3437224276306935e-01 1.0330048358911121e-02
    -4.5993310550389993e-01 9.5572046407049801e-03
    -5.2223296786709361e-01 8.3189033080770299e-03
    -7.0710678118654757e-01 7.9244154594654524e-03
    -8.6602540378443882e-01 8.0442759853862084e-03
    -7.9772403521746571e-01 7.9894088247262629e-03
    -8.2462112512353214e-01 7.8441254911882363e-03
    -1.0160010160015238e+00 7.9654961674131657e-03
    -8.3827364428490936e-01 8.0753702703958135e-03
    -1.2747548783981963e+00 7.9654961674131657e-03
    -8.3827364428490936e-01 7.8920046264698458e-03
    -1.1180339887498947e+00 7.9071475977845074e-03
    -8.8014083380101360e-01 7.9438493568306442e-03
    -8.5207241315528692e-01 8.1090110097932454e-03
    -7.7132140438390517e-01 8.2709822861864943e-03
    -7.1977238704789603e-01 8.4246359581646724e-03
    -6.8199433947047350e-01 9.2073387308814880e-03
    -5.5901699437494745e-01 9.5572046407049801e-03
    -5.2223296786709361e-01 1.2478354962115544e-02
    -3.5355339059327373e-01 1.4507793658598557e-02
    -2.9361010975735174e-01 1.2891975359995925e-02
    -3.3918173268560708e-01 1.6082159591748833e-02
    -2.6037782196164777e-01 1.7120161767270561e-02
    -2.4253562503633294e-01 1.7120161767270561e-02
    -2.4253562503633294e-01 2.2367654904622229e-02
    -1.8107149208503709e-01 4.4195225908231134e-02
    -8.9442719099991574e-02 2.2367654904622229e-02
    -1.8107149208503709e-01 2.2367654904622229e-02
    -1.8107149208503709e-01 2.0088739049195972e-02
    -2.0327890704543541e-01 2.2367654904622229e-02
    -1.8107149208503709e-01 2.2367654904622229e-02
    -1.8107149208503709e-01 2.0088739049195972e-02
    -2.0327890704543541e-01 1.8414677461762972e-02
    -2.2360679774997894e-01 1.8414677461762972e-02
    -2.2360679774997894e-01 1.8414677461762972e-02
    -2.2360679774997894e-01 1.8414677461762972e-02
    -2.2360679774997894e-01 1.8414677461762972e-02
    -2.2360679774997894e-01 1.6082159591748833e-02
    -2.6037782196164777e-01 1.7120161767270561e-02
    -2.4253562503633294e-01 1.8414677461762972e-02
    -2.2360679774997894e-01 1.2891975359995925e-02
    -3.3918173268560708e-01 1.0522672835293128e-02
    -4.4721359549995793e-01 1.0958766548167260e-02
    -4.2139066607833625e-01 1.0151911762079691e-02
    -4.7254732130632848e-01 9.4327497145561545e-03
    -5.3452248382484868e-01 8.0156466911670901e-03
    -8.1110710565381272e-01 8.1090110097932454e-03
    -7.7132140438390517e-01 9.0093082983993700e-03
    -5.8345996599157823e-01 8.2261590132073903e-03
    -7.3251987403322949e-01 7.9244154594654524e-03
    -8.6602540378443882e-01 8.3189033080770299e-03
    -7.0710678118654757e-01 8.2261590132073903e-03
    -7.3251987403322949e-01 8.0753702703958118e-03
    -7.8446454055273596e-01 8.1090110097932454e-03
    -7.7132140438390517e-01 8.2709822861864943e-03
    -7.1977238704789603e-01 8.9193235941580629e-03
    -5.9568339718127072e-01 1.1206815816655063e-02
    -4.0824829046386302e-01 1.2478354962115544e-02
    -3.5355339059327373e-01 1.3359411151945149e-02
    -3.2444284226152503e-01 1.3359411151945149e-02
    -3.2444284226152503e-01 1.3892650234619056e-02
    -3.0927685641354330e-01 1.8414677461762972e-02
    -2.2360679774997894e-01 1.8414677461762972e-02
    -2.2360679774997894e-01 1.8414677461762972e-02
    -2.2360679774997894e-01 1.7120161767270561e-02
    -2.4253562503633294e-01</input_scale>
  <output_scale>
    1.0526315789473684e+00 0.</output_scale>
  <inv_output_scale>
    9.4999999999999996e-01 0.</inv_output_scale>
  <weights>
    <_>
      -1.1719048386403424e-03 -2.2903224389177911e-04
      -9.9637750405231888e-04 -5.5088375721748159e-04
      2.2039270841974236e-04 1.2144499427915077e-03
      9.9728247011042037e-04 2.0453599492093418e-04
      -7.2831549546728146e-04 -4.2920232853557353e-04
      -1.1054717958401724e-03 -1.2409612586460942e-04
      -2.1397120762249158e-05 -7.8018402384446585e-04
      6.7194088742161514e-04 -1.1208781013474275e-03
      1.1037170489498088e-03 1.0083693640301039e-03
      -2.5698247005999147e-04 -3.4383640164285737e-05
      3.0002183913935715e-04 -7.7645728251324352e-04
      -6.5397802009701264e-04 9.5527311481024093e-04
      -1.0954164450422850e-03 -3.1663012947851025e-04
      6.1523554708813478e-04 -6.3403300196013517e-04
      1.0630743572223426e-03 -2.4215284090006096e-04
      1.2150750992007805e-03 -3.7732545206526025e-04
      2.2581237915161135e-04 8.1166924113520002e-04
      1.1322676431532379e-03 5.1786688077618958e-04
      8.1904968067006900e-04 5.2277548999592920e-04
      1.2256443938238879e-03 -1.5902424652943092e-04
      -3.2233377884729818e-02 1.1662743843966533e-03
      8.5903887559246378e-04 -6.9001322624039265e-03
      -1.8628577342838625e-03 -9.2915431468402390e-03
      6.1633527053960224e-03 -1.2197368098870226e-03
      7.6464349120599785e-03 -7.1314077839187843e-04
      -8.3114343162008619e-03 2.5589952668822065e-03
      -6.6866003847119299e-03 3.2711011945639650e-03
      5.9302380420094393e-03 -7.5896676703974325e-03
      7.1043817835126331e-03 3.9194960200335732e-04
      -1.1629626836457130e-03 8.8179725400439925e-04
      -1.4292856256811527e-03 -6.7382566089229804e-03
      -6.8756222037812155e-03 2.3836448520886434e-03
      -8.0398622686854038e-03 6.1982840566110371e-03
      1.2665119561670150e-03 -1.7134666338522256e-03
      -6.1407012588677425e-03 -8.3047082346608715e-03
      -1.0169822982166216e-03 -8.0343784642087084e-04
      -2.3918807388169775e-03 -5.3892134850543616e-03
      -1.6240340033728410e-03 -7.5047860596030840e-03
      2.2361614699569457e-03 -4.3144251909570551e-03
      -2.0774917763774592e-03 -1.9635039608226828e-03
      2.6302476489057697e-01 8.3143991963552474e-02
      6.8205585125935886e-02 2.7700147784053265e-02
      -6.0735085106242571e-02 1.5521106439393358e-02
      -2.6129118197929273e-02 -5.4150739481919112e-02
      -5.8362509808557329e-03 1.0112097244673224e-01
      2.3544440455463757e-02 5.1967588202866510e-02
      2.6039928914311228e-02 -3.7856921924035163e-02
      -2.6462829555063410e-03 2.1527137199682456e-02
      -5.0725834226239656e-03 4.6870811449590238e-02
      -1.0217461870734428e-01 1.0294864218512535e-01
      -5.0161609038193111e-02 1.0632029228086317e-02
      4.4832399520727956e-03 6.9443540524242925e-02
      2.1700962236726424e-02 -6.8969122176590607e-03
      8.9062976632814608e-02 -9.3328937724619573e-02
      2.8638641017703491e-02 2.2463027521795301e-02
      -7.2701050937311107e-02 -8.7455105194598065e-02
      1.0420775932815478e-01 2.8774500713001583e-02
      4.1258344491889323e-02 1.0536574975211181e-02
      6.6200811845528590e-02 3.4031065248263187e-02
      -7.9129489752352039e-02 -6.3402494783044397e-02
      -1.7394463966915874e-01 -4.8205451109537716e-02
      -3.9175271242951872e-02 -2.3495087455939319e-02
      3.5639637594695767e-02 -1.5180057359824976e-02
      2.3281391774174154e-02 2.9412251682472662e-02
      9.3212019141444453e-03 -5.7775551125846911e-02
      -2.1368376151751894e-02 -2.8873755635410347e-02
      -2.1701666950171686e-02 2.7510210564960148e-02
      6.3795165494214285e-03 -1.9705789890013189e-02
      1.0171659495921635e-02 -2.8689320977031248e-02
      5.6945431354584644e-02 -5.8710303357569674e-02
      2.7201976346621692e-02 -1.2990225452199747e-02
      -7.8348514733497278e-03 -4.0347455316142970e-02
      -1.8908506616589233e-02 1.1118674007559833e-02
      -5.2944823651219219e-02 5.3104435001169355e-02
      -2.1967466002544893e-02 -1.9968670200905266e-02
      4.4630675506335066e-02 5.2663655961507676e-02
      -5.8214240831387515e-02 -2.5161475867695109e-02
      -2.8621341903870605e-02 -1.1852432985821004e-02
      -3.8020108759979326e-02 -2.5784326446077168e-02
      4.7077330196458225e-02 3.5904302133959468e-02
      -7.8947168083263630e-02 -3.3489739742675370e-02
      -2.7087401260173380e-02 -1.6644794486758759e-02
      2.2873058936259474e-02 -6.9737628530870642e-03
      1.5690128342907599e-02 2.1035139948480396e-02
      5.4063294309645024e-03 -4.0455724586619168e-02
      -1.4079347292835631e-02 -2.0372584567013022e-02
      -1.3855665162779572e-02 1.8372208468685709e-02
      3.9404013452880842e-03 -1.4030649216558609e-02
      7.1278471506269351e-03 -1.9291092973660183e-02
      4.0971507136769954e-02 -4.0819035057240653e-02
      1.6486989149564642e-02 -7.0675817182528008e-03
      -6.7538488506496547e-03 -2.6730624356029936e-02
      -1.2124998414095912e-02 7.0851493458545974e-03
      -3.7432480630487992e-02 3.8525817107728989e-02
      -1.6792008423536543e-02 -1.3471035608674114e-02
      3.1270201684162106e-02 3.6802340850335354e-02
      -4.2400681684788999e-02 -1.6867280402620023e-02
      -2.0613643466544044e-02 -5.7030497843010858e-03
      -2.6793836764885930e-02 -1.6851025720629395e-02
      3.1545946184500094e-02 2.5591423364112374e-02
      -7.8521403917296978e-02 -3.4860732395128394e-02
      -2.6236634190019106e-02 -1.6014865832948338e-02
      2.4017145155009537e-02 -8.3231638758796498e-03
      1.5179300279342396e-02 2.0577629370354147e-02
      5.5591945812867053e-03 -4.0241550334627646e-02
      -1.5319971623524277e-02 -2.0780863550861506e-02
      -1.3661790151917567e-02 1.7966011069784557e-02
      5.5399786168499688e-03 -1.3572350996125760e-02
      6.4281036634881118e-03 -2.0688686856000314e-02
      3.9047889621823588e-02 -4.0970829145586710e-02
      1.6496573428052542e-02 -5.6769972311048727e-03
      -5.3262776890870955e-03 -2.6617780129952785e-02
      -1.4115398027929885e-02 6.3898349099528826e-03
      -3.5830908101257587e-02 3.7769427983422227e-02
      -1.6298071725671621e-02 -1.3196200694643369e-02
      3.0623218037148126e-02 3.6703673831719956e-02
      -4.0923644312109791e-02 -1.5968259642577774e-02
      -1.9403901930592628e-02 -5.7968760532349775e-03
      -2.6014943831708149e-02 -1.6864232448638945e-02
      3.2601596740688084e-02 2.4165770809128639e-02
      -1.7316438458075675e-01 -4.9634142571645980e-02
      -3.8708845299810550e-02 -2.2768241577434931e-02
      3.3905344669641263e-02 -1.5339715451420974e-02
      2.1587651956651764e-02 2.8895426778538673e-02
      9.7640786958887969e-03 -5.6971831483842689e-02
      -2.1861134890678473e-02 -2.8999015824692508e-02
      -2.2261465513191282e-02 2.8381321097059833e-02
      7.4856293981417320e-03 -1.9327473618525014e-02
      8.4649636493775663e-03 -3.0615619226363220e-02
      5.7302146584801303e-02 -5.6748069935656821e-02
      2.6659502797917085e-02 -1.1383487178253597e-02
      -7.8446470317187576e-03 -4.0596080770158090e-02
      -2.1171052102645353e-02 1.2182439151550309e-02
      -5.2588853553044976e-02 5.5080086631829568e-02
      -2.3841266655796070e-02 -2.0054158516499509e-02
      4.4747198303265116e-02 5.2261832706146094e-02
      -5.8872524780641713e-02 -2.5215640601713499e-02
      -2.8283866441052172e-02 -1.0861223659902903e-02
      -3.9450341275110143e-02 -2.5543897296845853e-02
      4.5484746681832652e-02 3.6727497740349703e-02
      -1.7297082831971716e-01 -4.9651685599406685e-02
      -4.0937420831747937e-02 -2.4059443390935749e-02
      3.4023957429868641e-02 -1.3779266540178581e-02
      2.3177034634803702e-02 3.0231861430873606e-02
      1.0165605065999055e-02 -5.7234784798606018e-02
      -2.0369934652061085e-02 -2.8243066447116733e-02
      -2.3207583428262814e-02 2.8909681375494170e-02
      7.6712864855183437e-03 -2.1090444045073296e-02
      8.2388006119176165e-03 -2.9240920954062093e-02
      5.7016894055347045e-02 -5.7110968132302806e-02
      2.7097596064582109e-02 -1.3019526883043996e-02
      -8.2011502633379495e-03 -3.9499707360991301e-02
      -2.0070425195292875e-02 9.9624112412627745e-03
      -5.3821744501687224e-02 5.3284201114147618e-02
      -2.2538535910281838e-02 -2.0495036751248308e-02
      4.3010999727506910e-02 5.1109522095078110e-02
      -5.8582056273131372e-02 -2.4844218492078980e-02
      -2.9002025487901911e-02 -1.1186534437790160e-02
      -3.8157346334758917e-02 -2.6768413518085208e-02
      4.7424352645961898e-02 3.7144053940492590e-02
      -9.6179263650198563e-02 -3.8638706369063781e-02
      -3.2014648896910317e-02 -1.5799124821014345e-02
      2.7412777052434282e-02 -7.8673817946998802e-03
      1.4567771649123129e-02 2.3514896541641253e-02
      4.2730593422518953e-03 -4.6897716439621935e-02
      -1.5621446093493273e-02 -2.3404609926501587e-02
      -1.5561882969652555e-02 1.9144203641040119e-02
      2.7405003278049038e-03 -1.4627243447283826e-02
      4.5219048748214967e-03 -2.2406979453897753e-02
      4.5931048586179302e-02 -4.7010595079564094e-02
      2.0375312594009015e-02 -7.3080058255488708e-03
      -3.0766238514684510e-03 -3.3440287363897578e-02
      -1.4260961882200052e-02 4.9963405313986943e-03
      -4.1750592552405617e-02 4.3529274874444815e-02
      -1.7539740995762155e-02 -1.2857952619709210e-02
      3.4862004621601862e-02 4.1576286275757546e-02
      -4.8754753330764983e-02 -1.7416623266647554e-02
      -2.1971319358901370e-02 -6.0052740591974079e-03
      -3.0337862397950305e-02 -1.9615436555444055e-02
      3.6179703078554171e-02 3.0477263830082084e-02
      -1.4206792725912371e-01 -4.0414431040743437e-02
      -3.1448856594514775e-02 -1.9440339702478597e-02
      2.7756362218431870e-02 -1.3279256305625252e-02
      1.7751495921299522e-02 2.3541183636049647e-02
      7.8128680305832605e-03 -4.5936572515522169e-02
      -1.7224772746025234e-02 -2.2488852291373259e-02
      -1.8592462247363769e-02 2.2853790562156844e-02
      8.3303928582257707e-03 -1.7388628135714446e-02
      9.9919883661827077e-03 -2.1966659222956764e-02
      4.6792367170640933e-02 -4.5859918040705980e-02
      2.0836144683394345e-02 -1.1854194010154357e-02
      -1.0091343807013082e-02 -3.2243550761323007e-02
      -1.5334193398381093e-02 1.1472280328316455e-02
      -4.2580497886892880e-02 4.4231236957801949e-02
      -1.9166386322114617e-02 -1.6426635122045043e-02
      3.5464973875485056e-02 4.1029225737456931e-02
      -4.8039291836952408e-02 -1.9355883736802713e-02
      -2.3001663936120690e-02 -1.3012610227466664e-02
      -3.0610810395031152e-02 -2.0190733769449357e-02
      3.6310433911247490e-02 2.9115009224747277e-02
      -1.0363711441317203e-01 -3.0217096426942501e-02
      -2.4185904847263122e-02 -1.7974040118927049e-02
      2.2560963638193984e-02 -1.3969977565024431e-02
      1.6610498845486637e-02 1.7261708303050675e-02
      1.0878437440867752e-02 -3.0552408121217057e-02
      -1.6341965567960436e-02 -1.8235720810459467e-02
      -1.6767406333009410e-02 2.0685258073922189e-02
      8.2938035191936505e-03 -1.7809662675516820e-02
      1.0312083814087379e-02 -2.0516318810114599e-02
      3.0533581484813648e-02 -3.2200264302410748e-02
      1.5111926629245572e-02 -1.2242374198927089e-02
      -9.0108751140582852e-03 -2.4225956816226409e-02
      -1.7172537480547128e-02 1.2566096477494721e-02
      -3.3095489809377134e-02 3.3082889867905391e-02
      -1.8462313973107960e-02 -1.6638767765323900e-02
      2.6868630265072843e-02 3.1887100198315602e-02
      -3.0249180170018323e-02 -1.8897850639132529e-02
      -2.0917386561567722e-02 -1.3582520952767550e-02
      -2.3148978400263639e-02 -1.8367744976024895e-02
      2.7626263122624506e-02 2.2973311422752444e-02
      -9.9223113024911311e-02 -3.0481743030473109e-02
      -2.4795213500289019e-02 -1.5034335850253990e-02
      2.1538088266864604e-02 -1.2257458566458563e-02
      1.3925788804574289e-02 1.9897220466757463e-02
      8.1741575137877255e-03 -3.6831363857324481e-02
      -1.3742255876960605e-02 -1.9447208896089151e-02
      -1.3301963807163255e-02 1.5900572173041638e-02
      5.9763744147430936e-03 -1.2791069802321772e-02
      7.6315730442121634e-03 -1.7048951994171110e-02
      3.6436392074549045e-02 -3.4825836806299235e-02
      1.6821614712867073e-02 -1.0273410544926153e-02
      -8.9361626215905855e-03 -2.5233742654781711e-02
      -1.3188849788531271e-02 1.0280265629328142e-02
      -3.3397836505781403e-02 3.3401384239073649e-02
      -1.4341355223228229e-02 -1.4422125072683579e-02
      2.8898038913191447e-02 3.3584552585096322e-02
      -3.6662668827721671e-02 -1.6003663730592432e-02
      -1.6367743898264620e-02 -1.0366109818248951e-02
      -2.4390919803182403e-02 -1.7415306826065499e-02
      3.0313738795779227e-02 2.4310341343997829e-02
      -1.4796110397410814e-01 -3.3991605374347617e-02
      -2.6783191548724591e-02 -2.2204681723667217e-02
      2.3652557885778497e-02 -2.0259267034997901e-02
      2.3030211093377474e-02 1.8765042558836049e-02
      1.5081356119158840e-02 -3.8415579202226886e-02
      -2.3812181093847588e-02 -1.6951598670795289e-02
      -2.3631643637111836e-02 2.5667942006243536e-02
      1.2297945027856406e-02 -2.1623674383270158e-02
      1.3789211382116730e-02 -2.4910691375863877e-02
      3.6951930101353836e-02 -3.7934883317236379e-02
      2.1124158044394353e-02 -1.8526762098032803e-02
      -1.3460784541604379e-02 -2.6208001046401815e-02
      -2.3136853106201678e-02 1.5854973406431928e-02
      -3.5282173512402176e-02 3.6132809899665962e-02
      -2.3753938195402304e-02 -2.2605530112242915e-02
      2.8739198229646948e-02 3.4518209935616488e-02
      -3.7737052694539371e-02 -2.3873455400811081e-02
      -2.5731599567767865e-02 -1.7429148079182191e-02
      -2.6519868458556001e-02 -2.5105494446627952e-02
      3.1726974051704646e-02 2.3049578204387761e-02
      4.7118707878100269e-02 -1.4559306734803936e-02
      -9.9209396353647540e-03 -3.5673630027889176e-03
      8.7416238099500485e-03 -8.3545830996668640e-05
      2.7149310362113831e-03 9.0589406082991521e-03
      -2.0483125839151836e-03 -3.5456945897813640e-02
      -3.1760491113985803e-03 -8.2780088760894838e-03
      -1.9914622133915486e-03 2.6145846779182685e-03
      -1.2185480568528307e-03 -3.1607893725038253e-03
      -2.7246032343221419e-03 -4.2875673276532222e-03
      3.2584612071211785e-02 -3.4628621885199058e-02
      2.0183411344916720e-03 2.1938010213788700e-03
      1.6711238048687041e-03 -1.0390739378232801e-02
      -2.3612315142232340e-03 -1.7353270783758118e-03
      -1.6469604871781590e-02 2.1355699678636066e-02
      -3.3439040345878395e-03 -2.4609162943481132e-03
      1.1704726246080011e-02 1.5739568336019902e-02
      -4.2520170067978494e-02 -2.8584241269671187e-03
      -3.6603305426703286e-03 1.1799261260975955e-03
      -1.0911269947548973e-02 -3.9883599414898361e-03
      1.2255122286073911e-02 1.0033360550082235e-02
      2.7166666212223505e-02 7.9401460758977895e-04
      -1.2295906133531829e-03 -1.1206272712518434e-03
      -2.2325829588766376e-04 -2.6861220619917490e-03
      2.5366597976505399e-03 7.3270035846509070e-04
      2.4301249564725727e-03 2.2025435726060407e-03
      -2.0409495737579932e-03 3.2883093877224165e-04
      -1.2236169898868384e-03 2.0490275409428497e-03
      8.7346503408394847e-04 -3.3441315138690243e-03
      1.7380615401955946e-03 -4.7434970823498785e-04
      -8.8265755879428777e-04 1.7424313572865933e-03
      4.6576577936676338e-04 -2.9401786769423684e-03
      -1.3987553031355375e-03 3.8829323722970426e-04
      -3.2840861667431109e-03 3.0317945646345735e-03
      9.1311947613091084e-04 -7.6720386688643345e-04
      -2.8409511907353446e-03 -2.7613521020650078e-03
      2.6807791496610660e-04 -3.4898066661851477e-04
      1.9100524042121665e-03 -1.0984295518992443e-03
      -8.4306852854836383e-05 -3.7541581925587229e-03
      -7.0135128259688373e-04 -1.0939972988624700e-04
      -8.6060034616739119e-04 -5.2014920550003574e-04
      1.4436367792221602e-01 1.3902580231864718e-02
      1.1558940215287684e-02 6.1510243594857014e-03
      -1.1397028749283540e-02 2.5232834674004281e-03
      -6.1737406955210787e-03 -1.0904282379340855e-02
      -1.7635144943504778e-03 1.8784853895822604e-02
      5.6968509066629295e-03 9.7701805670533780e-03
      6.6099361273194738e-03 -1.0295834678697626e-02
      4.4014062525707962e-04 3.7110009125559825e-03
      -6.8728626054632644e-04 1.0964241980935178e-02
      -1.8845297997056715e-02 1.7865729536052883e-02
      -1.2491329638977618e-02 2.2104094178911752e-03
      8.3487866448462425e-06 1.2333651242991213e-02
      3.8123009845594095e-03 -1.3800843261136139e-03
      1.6010816516978384e-02 -1.6065512429586586e-02
      7.4820158609685290e-03 4.0585958886022247e-03
      -1.3288352856886674e-02 -1.5898623939345394e-02
      1.9413836950375987e-02 8.2113261927399765e-03
      1.0413596877990658e-02 5.6236984132133157e-04
      1.1896567144960790e-02 9.3710584466561424e-03
      -1.4146548585062877e-02 -1.1459001871686737e-02
      1.4358514945336090e-01 1.4198723936687972e-02
      1.2709855118454162e-02 7.8824657773678454e-03
      -1.0999861278335740e-02 6.6051663093695805e-04
      -6.2843232682818270e-03 -1.1648508086176644e-02
      -1.0830497208019626e-03 1.8194362808450479e-02
      4.3225161035898739e-03 1.1916423826912241e-02
      6.2425148836730239e-03 -8.8160064306216160e-03
      -1.0742586611144599e-03 5.0043655713646485e-03
      -2.2880180408861009e-04 1.2886881184105097e-02
      -1.7100346867655675e-02 1.9389973246079526e-02
      -1.2435257433304961e-02 2.1739346273268404e-04
      7.9949236029847471e-05 1.2169719800576346e-02
      4.4384379017751397e-03 -1.7652595442637488e-03
      1.5375314035194187e-02 -1.5826042576671865e-02
      5.6549107968711324e-03 5.3460893015579210e-03
      -1.3329764832698288e-02 -1.3757009685470643e-02
      1.8837288884164020e-02 6.9717587300239898e-03
      1.0959686013410330e-02 1.6400489888612688e-03
      1.2167509685428589e-02 7.3429660343192638e-03
      -1.4240521694384453e-02 -1.1584254787887372e-02
      -8.6719112148924728e-03 -2.7569840932638919e-02
      -2.2687436375933023e-02 -7.7099143576445277e-03
      2.1360291347489502e-02 -4.0771636917882395e-03
      6.6819251626058663e-03 1.6491809228950039e-02
      -1.5740148335235870e-04 -1.8043271396188151e-02
      -6.1638796162821093e-03 -1.8101569897120227e-02
      -5.5059774931035272e-03 1.1082613335844390e-02
      7.2803970684903274e-04 -6.1795650067593133e-03
      8.0451063412709375e-04 -1.1799155202960075e-02
      2.1110506783829117e-02 -1.9273779930120340e-02
