<?xml version="1.0"?>
<opencv_storage>
<shapeML type_id="opencv-ml-ann-mlp">
  <layer_sizes type_id="opencv-matrix">
    <rows>1</rows>
    <cols>3</cols>
    <dt>i</dt>
    <data>
      1600 40 1</data></layer_sizes>
  <activation_function>SIGMOID_SYM</activation_function>
  <f_param1>5.9999999999999998e-01</f_param1>
  <f_param2>1.</f_param2>
  <min_val>-9.4999999999999996e-01</min_val>
  <max_val>9.4999999999999996e-01</max_val>
  <min_val1>-9.7999999999999998e-01</min_val1>
  <max_val1>9.7999999999999998e-01</max_val1>
  <training_params>
    <train_method>BACKPROP</train_method>
    <dw_scale>1.0000000000000001e-01</dw_scale>
    <moment_scale>1.0000000000000001e-01</moment_scale>
    <term_criteria><epsilon>9.9999999747524271e-07</epsilon>
      <iterations>4000</iterations></term_criteria></training_params>
  <input_scale>
    1. 0. 4.4020907359503647e-02 -8.9802651013387441e-02
    4.4020907359503647e-02 -8.9802651013387441e-02
    3.1253760444281284e-02 -1.2751534261266764e-01
    2.2281639928698752e-02 -1.8181818181818182e-01
    2.2281639928698752e-02 -1.8181818181818182e-01
    3.1253760444281284e-02 -1.2751534261266764e-01
    3.1253760444281284e-02 -1.2751534261266764e-01
    2.5622959484770426e-02 -1.5681251204679500e-01
    2.5622959484770426e-02 -1.5681251204679500e-01
    1.6022560060309152e-02 -2.6148818018424536e-01
    2.0012171101169755e-02 -2.0412414523193148e-01
    2.0012171101169755e-02 -2.0412414523193148e-01
    1.6022560060309152e-02 -2.6148818018424536e-01
    2.0012171101169755e-02 -2.0412414523193148e-01
    1.2067793233267914e-02 -3.6927447293799820e-01
    1.2067793233267914e-02 -3.6927447293799820e-01
    1.8345127170713720e-02 -2.2454435656953595e-01
    1.5171187759563061e-02 -2.7854300726557779e-01
    9.5296052862713122e-03 -5.2489065916782385e-01
    8.4067933893386682e-03 -6.8599434057003528e-01
    9.5296052862713122e-03 -5.2489065916782385e-01
    1.0489227757620415e-02 -4.4935851713645858e-01
    1.0489227757620415e-02 -4.4935851713645858e-01
    1.6022560060309152e-02 -2.6148818018424536e-01
    1.8345127170713720e-02 -2.2454435656953595e-01
    2.2281639928698752e-02 -1.8181818181818182e-01
    1.7056102956843653e-02 -2.4356115022372735e-01
    2.5622959484770426e-02 -1.5681251204679500e-01
    3.1253760444281284e-02 -1.2751534261266764e-01
    2.2281639928698752e-02 -1.8181818181818182e-01
    4.4020907359503647e-02 -8.9802651013387441e-02
    2.5622959484770426e-02 -1.5681251204679500e-01
    4.4020907359503647e-02 -8.9802651013387441e-02
    2.5622959484770426e-02 -1.5681251204679500e-01
    1.8345127170713720e-02 -2.2454435656953595e-01
    4.4020907359503647e-02 -8.9802651013387441e-02
    4.4020907359503647e-02 -8.9802651013387441e-02 1. 0.
    4.4020907359503647e-02 -8.9802651013387441e-02
    4.4020907359503647e-02 -8.9802651013387441e-02
    3.1253760444281284e-02 -1.2751534261266764e-01
    4.4020907359503647e-02 -8.9802651013387441e-02
    2.5622959484770426e-02 -1.5681251204679500e-01
    2.0012171101169755e-02 -2.0412414523193148e-01
    2.0012171101169755e-02 -2.0412414523193148e-01
    2.0012171101169755e-02 -2.0412414523193148e-01
    1.8345127170713720e-02 -2.2454435656953595e-01
    1.8345127170713720e-02 -2.2454435656953595e-01
    1.7056102956843653e-02 -2.4356115022372735e-01
    1.0297691566214896e-02 -4.6216039749172455e-01
    1.1169704689945477e-02 -4.1015155621479787e-01
    1.0696955403725117e-02 -4.3643578047198472e-01
    9.5296052862713122e-03 -5.2489065916782385e-01
    9.4059994663399041e-03 -5.3727068951733525e-01
    8.6601133987447704e-03 -6.3599872800381596e-01
    8.5906818288331074e-03 -6.4842466444032298e-01
    8.1316255371931406e-03 -7.6307174041020431e-01
    7.9562190338381793e-03 -8.4399571510955407e-01
    8.0960578411158196e-03 -7.7625002580618474e-01
    7.8453970547117616e-03 -9.7628120948833164e-01
    8.0048684404679018e-03 -8.1649658092772603e-01
    8.1316255371931406e-03 -7.6307174041020431e-01
    8.3024475600584485e-03 -7.1135370694580791e-01
    9.0808198260364289e-03 -5.7427104579854382e-01
    9.8039215686274508e-03 -5.0000000000000000e-01
    1.1169704689945477e-02 -4.1015155621479787e-01
    1.3311898200822757e-02 -3.2587526795614108e-01
    1.2846627901003901e-02 -3.4069257193462343e-01
    1.3842708204041793e-02 -3.1063037209869782e-01
    1.6022560060309152e-02 -2.6148818018424536e-01
    1.6022560060309152e-02 -2.6148818018424536e-01
    1.6022560060309152e-02 -2.6148818018424536e-01
    1.8345127170713720e-02 -2.2454435656953595e-01
    2.0012171101169755e-02 -2.0412414523193148e-01
    2.2281639928698752e-02 -1.8181818181818182e-01
    3.1253760444281284e-02 -1.2751534261266764e-01
    3.1253760444281284e-02 -1.2751534261266764e-01
    3.1253760444281284e-02 -1.2751534261266764e-01
    3.1253760444281284e-02 -1.2751534261266764e-01 1. 0.
    3.1253760444281284e-02 -1.2751534261266764e-01
    3.1253760444281284e-02 -1.2751534261266764e-01
    2.5622959484770426e-02 -1.5681251204679500e-01
    2.0012171101169755e-02 -2.0412414523193148e-01
    1.6022560060309152e-02 -2.6148818018424536e-01
    1.5171187759563061e-02 -2.7854300726557779e-01
    1.6022560060309152e-02 -2.6148818018424536e-01
    1.0120589938913406e-02 -4.7485807993381707e-01
    9.6619672547235726e-03 -5.1247074319053831e-01
    9.0808198260364289e-03 -5.7427104579854382e-01
    9.4059994663399041e-03 -5.3727068951733525e-01
    8.5906818288331074e-03 -6.4842466444032298e-01
    8.1699346405228763e-03 -7.5000000000000000e-01
    8.1699346405228763e-03 -7.5000000000000000e-01
    7.9166925345017843e-03 -8.7210284960071649e-01
    7.8736834093533770e-03 -9.1555190683961063e-01
    7.8494193041709383e-03 -9.6076892283052284e-01
    7.8736834093533770e-03 -1.0922373625455004e+00
    8.0631335166638368e-03 -7.8954203395172295e-01
    7.9166925345017843e-03 -8.7210284960071649e-01
    7.9793751641300485e-03 -8.3017419207609033e-01
    8.1316255371931406e-03 -7.6307174041020431e-01
    8.3529188307720215e-03 -6.9863813100577188e-01
    7.9353420127227462e-03 -8.5796917841558340e-01
    7.9353420127227462e-03 -8.5796917841558340e-01
    8.7340275134779218e-03 -6.2360956446232363e-01
    9.8039215686274508e-03 -5.0000000000000000e-01
    1.0297691566214896e-02 -4.6216039749172455e-01
    1.1169704689945477e-02 -4.1015155621479787e-01
    1.2434958074309830e-02 -3.5514240260228874e-01
    1.3842708204041793e-02 -3.1063037209869782e-01
    1.3311898200822757e-02 -3.2587526795614108e-01
    1.2434958074309830e-02 -3.5514240260228874e-01
    1.5171187759563061e-02 -2.7854300726557779e-01
    1.5171187759563061e-02 -2.7854300726557779e-01
    2.5622959484770426e-02 -1.5681251204679500e-01
    2.2281639928698752e-02 -1.8181818181818182e-01
    3.1253760444281284e-02 -1.2751534261266764e-01
    4.4020907359503647e-02 -8.9802651013387441e-02 1. 0.
    4.4020907359503647e-02 -8.9802651013387441e-02
    3.1253760444281284e-02 -1.2751534261266764e-01
    2.2281639928698752e-02 -1.8181818181818182e-01
    1.6022560060309152e-02 -2.6148818018424536e-01
    1.5171187759563061e-02 -2.7854300726557779e-01
    1.3842708204041793e-02 -3.1063037209869782e-01
    9.9564272512547482e-03 -4.8746667822143247e-01
    9.4059994663399041e-03 -5.3727068951733525e-01
    8.8964952039292614e-03 -5.9891205712851781e-01
    8.7340275134779218e-03 -6.2360956446232363e-01
    8.0327637909860562e-03 -8.0295506854696608e-01
    8.0960578411158196e-03 -7.7625002580618474e-01
    7.9353420127227462e-03 -8.5796917841558340e-01
    7.8635460504317654e-03 -9.3041476868708639e-01
    7.8433882473418204e-03 -1.0080322575483709e+00
    7.9562190338381793e-03 -1.1848401385191816e+00
    8.0048684404679018e-03 -1.2247448713915889e+00
    7.8433882473418204e-03 -1.0080322575483709e+00
    7.8554642949045256e-03 -9.4548368253470871e-01
    7.8859001481346412e-03 -1.1100193048514320e+00
    7.8554642949045256e-03 -1.0576597126659453e+00
    7.8453970547117616e-03 -1.0242950394631676e+00
    7.8494193041709383e-03 -9.6076892283052284e-01
    7.8859001481346429e-03 -9.0088523292290157e-01
    7.9562190338381793e-03 -8.4399571510955407e-01
    8.3024475600584485e-03 -7.1135370694580791e-01
    7.9793751641300485e-03 -8.3017419207609033e-01
    9.9564272512547482e-03 -4.8746667822143247e-01
    9.9564272512547482e-03 -4.8746667822143247e-01
    1.0696955403725117e-02 -4.3643578047198472e-01
    1.1440196764934721e-02 -3.9674602380793611e-01
    1.3842708204041793e-02 -3.1063037209869782e-01
    1.3842708204041793e-02 -3.1063037209869782e-01
    1.2846627901003901e-02 -3.4069257193462343e-01
    1.4455093740676191e-02 -2.9488391230979427e-01
    1.7056102956843653e-02 -2.4356115022372735e-01
    2.0012171101169755e-02 -2.0412414523193148e-01
    2.5622959484770426e-02 -1.5681251204679500e-01
    3.1253760444281284e-02 -1.2751534261266764e-01 1. 0.
    4.4020907359503647e-02 -8.9802651013387441e-02
    4.4020907359503647e-02 -8.9802651013387441e-02
    1.6022560060309152e-02 -2.6148818018424536e-01
    1.4455093740676191e-02 -2.9488391230979427e-01
    1.4455093740676191e-02 -2.9488391230979427e-01
    1.0120589938913406e-02 -4.7485807993381707e-01
    9.5296052862713122e-03 -5.2489065916782385e-01
    9.0808198260364289e-03 -5.7427104579854382e-01
    8.6601133987447704e-03 -6.3599872800381596e-01
    8.0327637909860562e-03 -8.0295506854696608e-01
    7.9793751641300485e-03 -8.3017419207609033e-01
    7.8859001481346429e-03 -9.0088523292290157e-01
    7.8494193041709383e-03 -9.6076892283052284e-01
    7.8453970547117616e-03 -9.7628120948833164e-01
    7.9002251375037275e-03 -8.8640526042791823e-01
    8.0048684404679018e-03 -1.2247448713915889e+00
    7.8554642949045256e-03 -1.0576597126659453e+00
    7.8433882473418204e-03 -1.0080322575483709e+00
    7.8494193041709383e-03 -9.6076892283052284e-01
    7.8554642949045256e-03 -1.0576597126659453e+00
    7.8433882473418187e-03 -9.9203174552379325e-01
    7.8433882473418187e-03 -9.9203174552379325e-01
    7.8635460504317654e-03 -9.3041476868708639e-01
    7.9353420127227462e-03 -8.5796917841558340e-01
    7.9002251375037275e-03 -8.8640526042791823e-01
    7.9002251375037275e-03 -8.8640526042791823e-01
    7.9562190338381793e-03 -8.4399571510955407e-01
    8.0960578411158196e-03 -7.7625002580618474e-01
    8.2552205127754182e-03 -7.2414794338065969e-01
    8.5906818288331074e-03 -6.4842466444032298e-01
    1.0297691566214896e-02 -4.6216039749172455e-01
    1.0696955403725117e-02 -4.3643578047198472e-01
    1.3311898200822757e-02 -3.2587526795614108e-01
    1.3311898200822757e-02 -3.2587526795614108e-01
    1.2846627901003901e-02 -3.4069257193462343e-01
    1.6022560060309152e-02 -2.6148818018424536e-01
    1.7056102956843653e-02 -2.4356115022372735e-01
    2.5622959484770426e-02 -1.5681251204679500e-01
    3.1253760444281284e-02 -1.2751534261266764e-01 1. 0.
    4.4020907359503647e-02 -8.9802651013387441e-02
    2.0012171101169755e-02 -2.0412414523193148e-01
    1.7056102956843653e-02 -2.4356115022372735e-01
    1.5171187759563061e-02 -2.7854300726557779e-01
    1.0120589938913406e-02 -4.7485807993381707e-01
    9.0808198260364289e-03 -5.7427104579854382e-01
    8.9857300870927262e-03 -5.8658846008541321e-01
    8.3024475600584485e-03 -7.1135370694580791e-01
    7.9166925345017843e-03 -8.7210284960071649e-01
    8.0048684404679018e-03 -8.1649658092772603e-01
    7.9562190338381793e-03 -8.4399571510955407e-01
    7.8433882473418204e-03 -1.0080322575483709e+00
    8.2110932619216676e-03 -7.3702773119008891e-01
    8.0048684404679018e-03 -8.1649658092772603e-01
    7.8453970547117616e-03 -1.0242950394631676e+00
    8.2552205127754165e-03 -1.3809332873770717e+00
    7.9562190338381793e-03 -1.1848401385191816e+00
    8.0631335166638368e-03 -1.2665570127975556e+00
    7.8494193041709383e-03 -9.6076892283052284e-01
    7.8433882473418187e-03 -9.9203174552379325e-01
    8.0327637909860562e-03 -1.2453996981544782e+00
    7.8736834093533770e-03 -9.1555190683961063e-01
    7.8736834093533770e-03 -9.1555190683961063e-01
    7.8453970547117616e-03 -1.0242950394631676e+00
    7.8433882473418187e-03 -9.9203174552379325e-01
    7.8453970547117616e-03 -1.0242950394631676e+00
    7.8635460504317654e-03 -9.3041476868708639e-01
    8.0960578411158196e-03 -7.7625002580618474e-01
    8.0960578411158196e-03 -7.7625002580618474e-01
    8.3529188307720215e-03 -6.9863813100577188e-01
    8.4642465160535609e-03 -6.7341545281722137e-01
    1.0120589938913406e-02 -4.7485807993381707e-01
    1.0297691566214896e-02 -4.6216039749172455e-01
    1.2067793233267914e-02 -3.6927447293799820e-01
    1.2846627901003901e-02 -3.4069257193462343e-01
    1.5171187759563061e-02 -2.7854300726557779e-01
    1.7056102956843653e-02 -2.4356115022372735e-01
    2.0012171101169755e-02 -2.0412414523193148e-01
    2.2281639928698752e-02 -1.8181818181818182e-01 1. 0.
    3.1253760444281284e-02 -1.2751534261266764e-01
    2.0012171101169755e-02 -2.0412414523193148e-01
    1.0696955403725117e-02 -4.3643578047198472e-01
    1.0489227757620415e-02 -4.4935851713645858e-01
    9.8039215686274508e-03 -5.0000000000000000e-01
    8.9857300870927262e-03 -5.8658846008541321e-01
    8.4642465160535609e-03 -6.7341545281722137e-01
    8.0048684404679018e-03 -8.1649658092772603e-01
    7.9353420127227462e-03 -8.5796917841558340e-01
    8.3024475600584485e-03 -7.1135370694580791e-01
    7.8554642949045256e-03 -9.4548368253470871e-01
    7.8433882473418187e-03 -9.9203174552379325e-01
    7.8859001481346429e-03 -9.0088523292290157e-01
    8.1699346405228763e-03 -1.3333333333333333e+00
    8.0048684404679018e-03 -1.2247448713915889e+00
    8.0048684404679018e-03 -1.2247448713915889e+00
    8.0327637909860562e-03 -1.2453996981544782e+00
    8.1316255371931389e-03 -1.3104927715740462e+00
    8.0048684404679018e-03 -1.2247448713915889e+00
    7.9562190338381793e-03 -1.1848401385191816e+00
    7.8554642949045256e-03 -1.0576597126659453e+00
    7.8453970547117616e-03 -1.0242950394631676e+00
    7.8453970547117616e-03 -9.7628120948833164e-01
    7.9353420127227462e-03 -8.5796917841558340e-01
    7.8433882473418204e-03 -1.0080322575483709e+00
    7.8494193041709383e-03 -1.0408329997330663e+00
    7.8453970547117616e-03 -9.7628120948833164e-01
    7.8453970547117616e-03 -9.7628120948833164e-01
    7.8736834093533770e-03 -1.0922373625455004e+00
    8.0048684404679018e-03 -8.1649658092772603e-01
    8.1699346405228763e-03 -7.5000000000000000e-01
    8.4067933893386682e-03 -6.8599434057003528e-01
    1.0120589938913406e-02 -4.7485807993381707e-01
    1.0120589938913406e-02 -4.7485807993381707e-01
    1.3311898200822757e-02 -3.2587526795614108e-01
    1.3842708204041793e-02 -3.1063037209869782e-01
    1.4455093740676191e-02 -2.9488391230979427e-01
    1.8345127170713720e-02 -2.2454435656953595e-01
    2.5622959484770426e-02 -1.5681251204679500e-01 1. 0.
    2.2281639928698752e-02 -1.8181818181818182e-01
    2.0012171101169755e-02 -2.0412414523193148e-01
    1.0120589938913406e-02 -4.7485807993381707e-01
    9.9564272512547482e-03 -4.8746667822143247e-01
    1.1440196764934721e-02 -3.9674602380793611e-01
    8.1699346405228763e-03 -7.5000000000000000e-01
    7.9562190338381793e-03 -8.4399571510955407e-01
    7.9166925345017843e-03 -8.7210284960071649e-01
    8.0048684404679018e-03 -8.1649658092772603e-01
    7.8635460504317654e-03 -9.3041476868708639e-01
    8.0960578411158196e-03 -1.2882447236783492e+00
    8.0327637909860562e-03 -1.2453996981544782e+00
    8.2552205127754165e-03 -1.3809332873770717e+00
    8.2110932619216693e-03 -1.3568010505999366e+00
    7.9562190338381793e-03 -1.1848401385191816e+00
    7.8494193041709383e-03 -1.0408329997330663e+00
    7.9166925345017843e-03 -1.1466537466972384e+00
    7.8554642949045256e-03 -9.4548368253470871e-01
    7.8554642949045256e-03 -9.4548368253470871e-01
    7.8635460504317672e-03 -1.0747894741730140e+00
    7.8433882473418187e-03 -9.9203174552379325e-01
    8.0960578411158196e-03 -1.2882447236783492e+00
    8.0327637909860562e-03 -1.2453996981544782e+00
    7.9562190338381793e-03 -1.1848401385191816e+00
    7.8453970547117616e-03 -9.7628120948833164e-01
    7.8453970547117616e-03 -1.0242950394631676e+00
    7.8635460504317672e-03 -1.0747894741730140e+00
    7.8859001481346429e-03 -9.0088523292290157e-01
    7.8554642949045256e-03 -9.4548368253470871e-01
    7.8494193041709383e-03 -9.6076892283052284e-01
    7.9353420127227462e-03 -8.5796917841558340e-01
    8.2110932619216676e-03 -7.3702773119008891e-01
    8.5254715202691782e-03 -6.6089455225126670e-01
    1.0489227757620415e-02 -4.4935851713645858e-01
    1.0922953868176138e-02 -4.2337369193050706e-01
    1.4455093740676191e-02 -2.9488391230979427e-01
    1.5171187759563061e-02 -2.7854300726557779e-01
    1.8345127170713720e-02 -2.2454435656953595e-01
    2.0012171101169755e-02 -2.0412414523193148e-01
    4.4020907359503647e-02 -8.9802651013387441e-02
    2.2281639928698752e-02 -1.8181818181818182e-01
    1.6022560060309152e-02 -2.6148818018424536e-01
    1.3311898200822757e-02 -3.2587526795614108e-01
    1.2434958074309830e-02 -3.5514240260228874e-01
    8.8127140354977897e-03 -6.1124984550212669e-01
    8.0327637909860562e-03 -8.0295506854696608e-01
    7.8554642949045256e-03 -9.4548368253470871e-01
    7.8453970547117616e-03 -9.7628120948833164e-01
    7.8554642949045256e-03 -9.4548368253470871e-01
    7.8494193041709383e-03 -1.0408329997330663e+00
    7.9562190338381793e-03 -1.1848401385191816e+00
    7.8859001481346412e-03 -1.1100193048514320e+00
    7.9166925345017843e-03 -1.1466537466972384e+00
    7.8433882473418204e-03 -1.0080322575483709e+00
    7.8433882473418204e-03 -1.0080322575483709e+00
    7.8494193041709383e-03 -9.6076892283052284e-01
    7.8635460504317654e-03 -9.3041476868708639e-01
    7.8433882473418187e-03 -9.9203174552379325e-01
    7.8433882473418187e-03 -9.9203174552379325e-01
    7.9353420127227462e-03 -8.5796917841558340e-01
    7.8494193041709383e-03 -9.6076892283052284e-01
    7.8554642949045256e-03 -9.4548368253470871e-01
    7.8635460504317654e-03 -9.3041476868708639e-01
    7.8736834093533770e-03 -1.0922373625455004e+00
    8.0960578411158196e-03 -1.2882447236783492e+00
    8.0327637909860562e-03 -1.2453996981544782e+00
    7.8635460504317654e-03 -9.3041476868708639e-01
    7.8635460504317654e-03 -9.3041476868708639e-01
    7.8433882473418204e-03 -1.0080322575483709e+00
    7.8433882473418187e-03 -9.9203174552379325e-01
    7.8554642949045256e-03 -9.4548368253470871e-01
    7.9166925345017843e-03 -8.7210284960071649e-01
    8.1316255371931406e-03 -7.6307174041020431e-01
    8.5906818288331074e-03 -6.4842466444032298e-01
    1.0922953868176138e-02 -4.2337369193050706e-01
    1.0922953868176138e-02 -4.2337369193050706e-01
    1.4455093740676191e-02 -2.9488391230979427e-01
    1.6022560060309152e-02 -2.6148818018424536e-01
    1.8345127170713720e-02 -2.2454435656953595e-01 1. 0.
    2.0012171101169755e-02 -2.0412414523193148e-01
    1.6022560060309152e-02 -2.6148818018424536e-01
    1.3311898200822757e-02 -3.2587526795614108e-01
    9.1822138390362153e-03 -5.6195148694901642e-01
    8.0960578411158196e-03 -7.7625002580618474e-01
    8.0631335166638368e-03 -7.8954203395172295e-01
    7.8736834093533770e-03 -9.1555190683961063e-01
    7.8433882473418187e-03 -9.9203174552379325e-01
    8.0048684404679018e-03 -8.1649658092772603e-01
    7.8453970547117616e-03 -1.0242950394631676e+00
    7.8494193041709383e-03 -9.6076892283052284e-01
    7.8433882473418187e-03 -9.9203174552379325e-01
    7.9002251375037292e-03 -1.1281521496355327e+00
    7.8433882473418204e-03 -1.0080322575483709e+00
    7.9562190338381793e-03 -8.4399571510955407e-01
    8.0048684404679018e-03 -8.1649658092772603e-01
    7.9793751641300485e-03 -8.3017419207609033e-01
    8.0048684404679018e-03 -8.1649658092772603e-01
    7.9166925345017843e-03 -8.7210284960071649e-01
    7.8433882473418204e-03 -1.0080322575483709e+00
    7.8453970547117616e-03 -9.7628120948833164e-01
    7.8635460504317654e-03 -9.3041476868708639e-01
    7.9002251375037275e-03 -8.8640526042791823e-01
    7.8859001481346429e-03 -9.0088523292290157e-01
    8.0960578411158196e-03 -1.2882447236783492e+00
    7.9562190338381793e-03 -1.1848401385191816e+00
    8.2110932619216693e-03 -1.3568010505999366e+00
    7.8453970547117616e-03 -9.7628120948833164e-01
    7.8433882473418204e-03 -1.0080322575483709e+00
    7.8453970547117616e-03 -9.7628120948833164e-01
    7.8736834093533770e-03 -9.1555190683961063e-01
    7.8554642949045256e-03 -9.4548368253470871e-01
    7.9002251375037275e-03 -8.8640526042791823e-01
    8.0327637909860562e-03 -8.0295506854696608e-01
    8.8127140354977897e-03 -6.1124984550212669e-01
    1.0922953868176138e-02 -4.2337369193050706e-01
    1.2846627901003901e-02 -3.4069257193462343e-01
    1.5171187759563061e-02 -2.7854300726557779e-01
    1.5171187759563061e-02 -2.7854300726557779e-01
    3.1253760444281284e-02 -1.2751534261266764e-01
    1.7056102956843653e-02 -2.4356115022372735e-01
    1.6022560060309152e-02 -2.6148818018424536e-01
    1.0120589938913406e-02 -4.7485807993381707e-01
    8.2110932619216676e-03 -7.3702773119008891e-01
    8.2552205127754182e-03 -7.2414794338065969e-01
    8.2552205127754182e-03 -7.2414794338065969e-01
    7.9793751641300485e-03 -8.3017419207609033e-01
    8.0631335166638368e-03 -7.8954203395172295e-01
    7.8554642949045256e-03 -9.4548368253470871e-01
    7.9002251375037292e-03 -1.1281521496355327e+00
    7.8494193041709383e-03 -9.6076892283052284e-01
    7.8554642949045256e-03 -9.4548368253470871e-01
    7.8433882473418187e-03 -9.9203174552379325e-01
    7.8635460504317672e-03 -1.0747894741730140e+00
    7.9353420127227462e-03 -8.5796917841558340e-01
    7.8859001481346429e-03 -9.0088523292290157e-01
    7.9562190338381793e-03 -8.4399571510955407e-01
    8.1316255371931406e-03 -7.6307174041020431e-01
    7.9562190338381793e-03 -8.4399571510955407e-01
    7.9353420127227462e-03 -8.5796917841558340e-01
    7.9166925345017843e-03 -8.7210284960071649e-01
    7.8859001481346429e-03 -9.0088523292290157e-01
    7.8859001481346429e-03 -9.0088523292290157e-01
    7.9166925345017843e-03 -8.7210284960071649e-01
    7.8494193041709383e-03 -9.6076892283052284e-01
    7.8453970547117616e-03 -9.7628120948833164e-01
    8.2110932619216693e-03 -1.3568010505999366e+00
    7.9793751641300485e-03 -1.2045664747770721e+00
    8.0631335166638368e-03 -1.2665570127975556e+00
    7.8554642949045256e-03 -1.0576597126659453e+00
    7.8494193041709383e-03 -9.6076892283052284e-01
    7.8736834093533770e-03 -9.1555190683961063e-01
    7.8736834093533770e-03 -9.1555190683961063e-01
    7.9353420127227462e-03 -8.5796917841558340e-01
    8.5906818288331074e-03 -6.4842466444032298e-01
    1.0297691566214896e-02 -4.6216039749172455e-01
    1.2434958074309830e-02 -3.5514240260228874e-01
    1.4455093740676191e-02 -2.9488391230979427e-01
    1.6022560060309152e-02 -2.6148818018424536e-01
    2.5622959484770426e-02 -1.5681251204679500e-01
    1.5171187759563061e-02 -2.7854300726557779e-01
    1.4455093740676191e-02 -2.9488391230979427e-01
    8.8127140354977897e-03 -6.1124984550212669e-01
    8.2110932619216676e-03 -7.3702773119008891e-01
    8.5906818288331074e-03 -6.4842466444032298e-01
    8.3024475600584485e-03 -7.1135370694580791e-01
    7.9166925345017843e-03 -8.7210284960071649e-01
    7.8554642949045256e-03 -9.4548368253470871e-01
    7.8433882473418187e-03 -9.9203174552379325e-01
    7.8859001481346412e-03 -1.1100193048514320e+00
    7.8433882473418204e-03 -1.0080322575483709e+00
    7.8736834093533770e-03 -9.1555190683961063e-01
    8.2110932619216676e-03 -7.3702773119008891e-01
    7.9562190338381793e-03 -8.4399571510955407e-01
    7.9353420127227462e-03 -8.5796917841558340e-01
    7.9353420127227462e-03 -8.5796917841558340e-01
    8.0631335166638368e-03 -7.8954203395172295e-01
    7.9353420127227462e-03 -8.5796917841558340e-01
    7.9562190338381793e-03 -8.4399571510955407e-01
    8.0631335166638368e-03 -7.8954203395172295e-01
    8.2552205127754182e-03 -7.2414794338065969e-01
    7.9793751641300485e-03 -8.3017419207609033e-01
    7.9353420127227462e-03 -8.5796917841558340e-01
    7.8554642949045256e-03 -9.4548368253470871e-01
    7.8453970547117616e-03 -9.7628120948833164e-01
    7.9002251375037275e-03 -8.8640526042791823e-01
    7.8494193041709383e-03 -1.0408329997330663e+00
    8.2110932619216693e-03 -1.3568010505999366e+00
    8.1316255371931389e-03 -1.3104927715740462e+00
    8.0048684404679018e-03 -1.2247448713915889e+00
    7.8433882473418187e-03 -9.9203174552379325e-01
    7.8635460504317654e-03 -9.3041476868708639e-01
    7.8554642949045256e-03 -9.4548368253470871e-01
    7.8736834093533770e-03 -9.1555190683961063e-01
    8.1316255371931406e-03 -7.6307174041020431e-01
    1.0120589938913406e-02 -4.7485807993381707e-01
    1.0297691566214896e-02 -4.6216039749172455e-01
    1.3842708204041793e-02 -3.1063037209869782e-01
    1.6022560060309152e-02 -2.6148818018424536e-01
    3.1253760444281284e-02 -1.2751534261266764e-01
    1.5171187759563061e-02 -2.7854300726557779e-01
    1.1169704689945477e-02 -4.1015155621479787e-01
    8.6601133987447704e-03 -6.3599872800381596e-01
    8.3024475600584485e-03 -7.1135370694580791e-01
    8.0327637909860562e-03 -8.0295506854696608e-01
    8.0048684404679018e-03 -8.1649658092772603e-01
    8.0631335166638368e-03 -7.8954203395172295e-01
    7.8433882473418204e-03 -1.0080322575483709e+00
    7.8554642949045256e-03 -1.0576597126659453e+00
    7.9002251375037275e-03 -8.8640526042791823e-01
    7.8494193041709383e-03 -9.6076892283052284e-01
    7.8494193041709383e-03 -9.6076892283052284e-01
    8.0960578411158196e-03 -7.7625002580618474e-01
    7.9166925345017843e-03 -8.7210284960071649e-01
    7.9166925345017843e-03 -8.7210284960071649e-01
    7.9562190338381793e-03 -8.4399571510955407e-01
    7.9562190338381793e-03 -8.4399571510955407e-01
    7.9793751641300485e-03 -8.3017419207609033e-01
    7.9562190338381793e-03 -8.4399571510955407e-01
    8.0631335166638368e-03 -7.8954203395172295e-01
    8.1699346405228763e-03 -7.5000000000000000e-01
    8.0960578411158196e-03 -7.7625002580618474e-01
    8.0327637909860562e-03 -8.0295506854696608e-01
    7.9002251375037275e-03 -8.8640526042791823e-01
    7.8635460504317654e-03 -9.3041476868708639e-01
    7.8554642949045256e-03 -1.0576597126659453e+00
    7.8433882473418204e-03 -1.0080322575483709e+00
    8.2552205127754165e-03 -1.3809332873770717e+00
    8.0327637909860562e-03 -1.2453996981544782e+00
    8.0960578411158196e-03 -1.2882447236783492e+00
    7.8494193041709383e-03 -1.0408329997330663e+00
    7.8453970547117616e-03 -9.7628120948833164e-01
    7.8433882473418204e-03 -1.0080322575483709e+00
    7.8635460504317654e-03 -9.3041476868708639e-01
    7.9002251375037275e-03 -8.8640526042791823e-01
    8.7340275134779218e-03 -6.2360956446232363e-01
    1.0120589938913406e-02 -4.7485807993381707e-01
    1.3842708204041793e-02 -3.1063037209869782e-01
    1.6022560060309152e-02 -2.6148818018424536e-01
    2.2281639928698752e-02 -1.8181818181818182e-01
    1.4455093740676191e-02 -2.9488391230979427e-01
    8.8964952039292614e-03 -5.9891205712851781e-01
    8.4642465160535609e-03 -6.7341545281722137e-01
    7.9353420127227462e-03 -8.5796917841558340e-01
    7.9562190338381793e-03 -8.4399571510955407e-01
    8.1316255371931406e-03 -7.6307174041020431e-01
    7.8453970547117616e-03 -1.0242950394631676e+00
    7.8736834093533770e-03 -1.0922373625455004e+00
    7.9166925345017843e-03 -8.7210284960071649e-01
    7.8635460504317654e-03 -9.3041476868708639e-01
    7.8494193041709383e-03 -9.6076892283052284e-01
    7.8433882473418204e-03 -1.0080322575483709e+00
    7.9562190338381793e-03 -8.4399571510955407e-01
    8.0048684404679018e-03 -8.1649658092772603e-01
    8.0048684404679018e-03 -8.1649658092772603e-01
    8.0960578411158196e-03 -7.7625002580618474e-01
    8.5254715202691782e-03 -6.6089455225126670e-01
    7.9562190338381793e-03 -8.4399571510955407e-01
    8.0960578411158196e-03 -7.7625002580618474e-01
    8.0960578411158196e-03 -7.7625002580618474e-01
    8.0960578411158196e-03 -7.7625002580618474e-01
    8.2110932619216676e-03 -7.3702773119008891e-01
    7.9002251375037275e-03 -8.8640526042791823e-01
    7.8554642949045256e-03 -9.4548368253470871e-01
    7.8494193041709383e-03 -9.6076892283052284e-01
    7.8453970547117616e-03 -1.0242950394631676e+00
    7.8554642949045256e-03 -9.4548368253470871e-01
    7.9166925345017843e-03 -1.1466537466972384e+00
    7.9353420127227462e-03 -1.1655430348287170e+00
    8.0327637909860562e-03 -1.2453996981544782e+00
    8.0048684404679018e-03 -1.2247448713915889e+00
    7.8433882473418187e-03 -9.9203174552379325e-01
    7.8859001481346429e-03 -9.0088523292290157e-01
    7.8453970547117616e-03 -9.7628120948833164e-01
    7.8736834093533770e-03 -9.1555190683961063e-01
    8.4067933893386682e-03 -6.8599434057003528e-01
    9.6619672547235726e-03 -5.1247074319053831e-01
    9.9564272512547482e-03 -4.8746667822143247e-01
    1.3842708204041793e-02 -3.1063037209869782e-01
    1.8345127170713720e-02 -2.2454435656953595e-01
    1.2434958074309830e-02 -3.5514240260228874e-01
    8.8964952039292614e-03 -5.9891205712851781e-01
    8.4067933893386682e-03 -6.8599434057003528e-01
    7.9002251375037275e-03 -8.8640526042791823e-01
    7.9166925345017843e-03 -8.7210284960071649e-01
    7.8736834093533770e-03 -9.1555190683961063e-01
    7.8736834093533770e-03 -1.0922373625455004e+00
    7.8635460504317672e-03 -1.0747894741730140e+00
    7.8554642949045256e-03 -1.0576597126659453e+00
    7.8433882473418187e-03 -9.9203174552379325e-01
    7.8494193041709383e-03 -9.6076892283052284e-01
    7.9562190338381793e-03 -8.4399571510955407e-01
    7.8859001481346429e-03 -9.0088523292290157e-01
    8.0048684404679018e-03 -8.1649658092772603e-01
    8.3529188307720215e-03 -6.9863813100577188e-01
    8.3024475600584485e-03 -7.1135370694580791e-01
    8.3024475600584485e-03 -7.1135370694580791e-01
    8.4067933893386682e-03 -6.8599434057003528e-01
    8.4642465160535609e-03 -6.7341545281722137e-01
    8.4642465160535609e-03 -6.7341545281722137e-01
    8.3024475600584485e-03 -7.1135370694580791e-01
    8.1316255371931406e-03 -7.6307174041020431e-01
    8.0327637909860562e-03 -8.0295506854696608e-01
    7.9562190338381793e-03 -8.4399571510955407e-01
    7.8635460504317654e-03 -9.3041476868708639e-01
    7.8453970547117616e-03 -9.7628120948833164e-01
    7.8635460504317654e-03 -9.3041476868708639e-01
    7.9166925345017843e-03 -1.1466537466972384e+00
    7.9166925345017843e-03 -1.1466537466972384e+00
    8.3024475600584468e-03 -1.4057704208690962e+00
    8.2552205127754165e-03 -1.3809332873770717e+00
    7.9793751641300485e-03 -1.2045664747770721e+00
    7.8453970547117616e-03 -9.7628120948833164e-01
    7.9002251375037275e-03 -8.8640526042791823e-01
    7.8635460504317654e-03 -9.3041476868708639e-01
    8.0960578411158196e-03 -7.7625002580618474e-01
    8.8127140354977897e-03 -6.1124984550212669e-01
    1.0297691566214896e-02 -4.6216039749172455e-01
    1.2434958074309830e-02 -3.5514240260228874e-01
    2.5622959484770426e-02 -1.5681251204679500e-01
    1.2846627901003901e-02 -3.4069257193462343e-01
    8.6601133987447704e-03 -6.3599872800381596e-01
    8.5906818288331074e-03 -6.4842466444032298e-01
    7.9353420127227462e-03 -8.5796917841558340e-01
    7.8859001481346429e-03 -9.0088523292290157e-01
    7.8736834093533770e-03 -9.1555190683961063e-01
    7.8859001481346412e-03 -1.1100193048514320e+00
    7.9002251375037292e-03 -1.1281521496355327e+00
    7.8433882473418204e-03 -1.0080322575483709e+00
    7.8736834093533770e-03 -9.1555190683961063e-01
    7.8859001481346429e-03 -9.0088523292290157e-01
    7.9793751641300485e-03 -8.3017419207609033e-01
    8.0631335166638368e-03 -7.8954203395172295e-01
    8.0048684404679018e-03 -8.1649658092772603e-01
    8.2552205127754182e-03 -7.2414794338065969e-01
    8.4067933893386682e-03 -6.8599434057003528e-01
    8.6601133987447704e-03 -6.3599872800381596e-01
    8.4067933893386682e-03 -6.8599434057003528e-01
    8.4067933893386682e-03 -6.8599434057003528e-01
    8.4642465160535609e-03 -6.7341545281722137e-01
    8.3529188307720215e-03 -6.9863813100577188e-01
    8.3024475600584485e-03 -7.1135370694580791e-01
    8.3529188307720215e-03 -6.9863813100577188e-01
    7.9562190338381793e-03 -8.4399571510955407e-01
    7.9793751641300485e-03 -8.3017419207609033e-01
    7.8859001481346429e-03 -9.0088523292290157e-01
    7.8554642949045256e-03 -9.4548368253470871e-01
    7.8433882473418204e-03 -1.0080322575483709e+00
    8.0048684404679018e-03 -1.2247448713915889e+00
    8.0631335166638368e-03 -1.2665570127975556e+00
    8.4642465160535609e-03 -1.4849674087764366e+00
    8.0960578411158196e-03 -1.2882447236783492e+00
    7.8635460504317672e-03 -1.0747894741730140e+00
    7.8433882473418187e-03 -9.9203174552379325e-01
    7.8494193041709383e-03 -9.6076892283052284e-01
    8.0327637909860562e-03 -8.0295506854696608e-01
    8.1316255371931406e-03 -7.6307174041020431e-01
    9.6619672547235726e-03 -5.1247074319053831e-01
    1.2067793233267914e-02 -3.6927447293799820e-01
    2.0012171101169755e-02 -2.0412414523193148e-01
    1.2434958074309830e-02 -3.5514240260228874e-01
    8.9857300870927262e-03 -5.8658846008541321e-01
    8.4067933893386682e-03 -6.8599434057003528e-01
    7.8635460504317654e-03 -9.3041476868708639e-01
    7.8453970547117616e-03 -9.7628120948833164e-01
    7.8635460504317654e-03 -9.3041476868708639e-01
    7.9002251375037292e-03 -1.1281521496355327e+00
    7.9562190338381793e-03 -1.1848401385191816e+00
    7.8433882473418187e-03 -9.9203174552379325e-01
    7.8635460504317654e-03 -9.3041476868708639e-01
    7.8635460504317654e-03 -9.3041476868708639e-01
    7.9793751641300485e-03 -8.3017419207609033e-01
    8.1699346405228763e-03 -7.5000000000000000e-01
    8.3529188307720215e-03 -6.9863813100577188e-01
    8.2110932619216676e-03 -7.3702773119008891e-01
    8.4642465160535609e-03 -6.7341545281722137e-01
    8.7340275134779218e-03 -6.2360956446232363e-01
    8.5906818288331074e-03 -6.4842466444032298e-01
    8.4642465160535609e-03 -6.7341545281722137e-01
    8.4067933893386682e-03 -6.8599434057003528e-01
    8.3024475600584485e-03 -7.1135370694580791e-01
    8.3024475600584485e-03 -7.1135370694580791e-01
    8.3024475600584485e-03 -7.1135370694580791e-01
    8.5254715202691782e-03 -6.6089455225126670e-01
    8.6601133987447704e-03 -6.3599872800381596e-01
    8.3024475600584485e-03 -7.1135370694580791e-01
    7.8859001481346429e-03 -9.0088523292290157e-01
    7.8494193041709383e-03 -9.6076892283052284e-01
    7.8433882473418187e-03 -9.9203174552379325e-01
    8.0327637909860562e-03 -1.2453996981544782e+00
    8.0048684404679018e-03 -1.2247448713915889e+00
    8.1316255371931389e-03 -1.3104927715740462e+00
    7.8453970547117616e-03 -1.0242950394631676e+00
    7.8433882473418204e-03 -1.0080322575483709e+00
    7.8554642949045256e-03 -1.0576597126659453e+00
    7.8554642949045256e-03 -1.0576597126659453e+00
    8.4067933893386682e-03 -6.8599434057003528e-01
    9.8039215686274508e-03 -5.0000000000000000e-01
    1.0696955403725117e-02 -4.3643578047198472e-01
    1.8345127170713720e-02 -2.2454435656953595e-01
    1.2434958074309830e-02 -3.5514240260228874e-01
    9.0808198260364289e-03 -5.7427104579854382e-01
    8.1316255371931406e-03 -7.6307174041020431e-01
    7.8453970547117616e-03 -9.7628120948833164e-01
    8.0048684404679018e-03 -8.1649658092772603e-01
    7.8859001481346429e-03 -9.0088523292290157e-01
    7.9353420127227462e-03 -1.1655430348287170e+00
    8.0960578411158196e-03 -1.2882447236783492e+00
    7.8433882473418187e-03 -9.9203174552379325e-01
    7.8433882473418204e-03 -1.0080322575483709e+00
    7.9793751641300485e-03 -8.3017419207609033e-01
    7.9353420127227462e-03 -8.5796917841558340e-01
    8.1316255371931406e-03 -7.6307174041020431e-01
    8.2552205127754182e-03 -7.2414794338065969e-01
    8.5254715202691782e-03 -6.6089455225126670e-01
    8.5906818288331074e-03 -6.4842466444032298e-01
    8.8964952039292614e-03 -5.9891205712851781e-01
    8.7340275134779218e-03 -6.2360956446232363e-01
    8.5254715202691782e-03 -6.6089455225126670e-01
    8.5906818288331074e-03 -6.4842466444032298e-01
    8.6601133987447704e-03 -6.3599872800381596e-01
    8.3024475600584485e-03 -7.1135370694580791e-01
    8.4642465160535609e-03 -6.7341545281722137e-01
    8.3529188307720215e-03 -6.9863813100577188e-01
    8.3529188307720215e-03 -6.9863813100577188e-01
    8.4067933893386682e-03 -6.8599434057003528e-01
    7.9562190338381793e-03 -8.4399571510955407e-01
    7.8859001481346429e-03 -9.0088523292290157e-01
    7.8635460504317654e-03 -9.3041476868708639e-01
    8.0960578411158196e-03 -1.2882447236783492e+00
    8.0048684404679018e-03 -1.2247448713915889e+00
    8.1699346405228763e-03 -1.3333333333333333e+00
    8.0327637909860562e-03 -1.2453996981544782e+00
    7.8736834093533770e-03 -1.0922373625455004e+00
    7.8433882473418187e-03 -9.9203174552379325e-01
    7.8635460504317672e-03 -1.0747894741730140e+00
    8.2552205127754182e-03 -7.2414794338065969e-01
    9.9564272512547482e-03 -4.8746667822143247e-01
    1.1440196764934721e-02 -3.9674602380793611e-01
    1.3311898200822757e-02 -3.2587526795614108e-01
    1.2434958074309830e-02 -3.5514240260228874e-01
    8.8964952039292614e-03 -5.9891205712851781e-01
    8.4642465160535609e-03 -6.7341545281722137e-01
    8.0631335166638368e-03 -7.8954203395172295e-01
    7.9562190338381793e-03 -8.4399571510955407e-01
    7.8859001481346429e-03 -9.0088523292290157e-01
    7.9353420127227462e-03 -8.5796917841558340e-01
    8.0327637909860562e-03 -1.2453996981544782e+00
    7.8453970547117616e-03 -1.0242950394631676e+00
    7.8554642949045256e-03 -9.4548368253470871e-01
    7.8494193041709383e-03 -9.6076892283052284e-01
    8.0048684404679018e-03 -8.1649658092772603e-01
    8.3024475600584485e-03 -7.1135370694580791e-01
    8.4067933893386682e-03 -6.8599434057003528e-01
    8.4642465160535609e-03 -6.7341545281722137e-01
    8.5906818288331074e-03 -6.4842466444032298e-01
    8.7340275134779218e-03 -6.2360956446232363e-01
    8.5906818288331074e-03 -6.4842466444032298e-01
    8.5906818288331074e-03 -6.4842466444032298e-01
    8.3024475600584485e-03 -7.1135370694580791e-01
    8.5254715202691782e-03 -6.6089455225126670e-01
    8.4067933893386682e-03 -6.8599434057003528e-01
    8.5254715202691782e-03 -6.6089455225126670e-01
    8.4642465160535609e-03 -6.7341545281722137e-01
    8.8127140354977897e-03 -6.1124984550212669e-01
    8.4642465160535609e-03 -6.7341545281722137e-01
    8.3024475600584485e-03 -7.1135370694580791e-01
    8.0048684404679018e-03 -8.1649658092772603e-01
    7.8736834093533770e-03 -9.1555190683961063e-01
    7.9002251375037292e-03 -1.1281521496355327e+00
    7.8494193041709383e-03 -1.0408329997330663e+00
    8.0960578411158196e-03 -1.2882447236783492e+00
    8.0631335166638368e-03 -1.2665570127975556e+00
    7.8554642949045256e-03 -1.0576597126659453e+00
    7.8494193041709383e-03 -1.0408329997330663e+00
    7.8433882473418187e-03 -9.9203174552379325e-01
    8.2552205127754182e-03 -7.2414794338065969e-01
    1.0922953868176138e-02 -4.2337369193050706e-01
    1.1169704689945477e-02 -4.1015155621479787e-01
    1.3311898200822757e-02 -3.2587526795614108e-01
    1.1738067220847444e-02 -3.8313051408846061e-01
    9.0808198260364289e-03 -5.7427104579854382e-01
    8.3024475600584485e-03 -7.1135370694580791e-01
    7.9793751641300485e-03 -8.3017419207609033e-01
    8.0048684404679018e-03 -8.1649658092772603e-01
    7.8736834093533770e-03 -9.1555190683961063e-01
    7.8859001481346429e-03 -9.0088523292290157e-01
    7.9562190338381793e-03 -1.1848401385191816e+00
    7.8494193041709383e-03 -1.0408329997330663e+00
    7.9353420127227462e-03 -1.1655430348287170e+00
    7.8433882473418187e-03 -9.9203174552379325e-01
    8.1316255371931406e-03 -7.6307174041020431e-01
    8.2110932619216676e-03 -7.3702773119008891e-01
    8.4067933893386682e-03 -6.8599434057003528e-01
    8.4067933893386682e-03 -6.8599434057003528e-01
    8.5254715202691782e-03 -6.6089455225126670e-01
    9.1822138390362153e-03 -5.6195148694901642e-01
    8.3024475600584485e-03 -7.1135370694580791e-01
    8.3024475600584485e-03 -7.1135370694580791e-01
    8.4067933893386682e-03 -6.8599434057003528e-01
    8.5254715202691782e-03 -6.6089455225126670e-01
    8.3529188307720215e-03 -6.9863813100577188e-01
    8.3024475600584485e-03 -7.1135370694580791e-01
    8.4067933893386682e-03 -6.8599434057003528e-01
    8.3529188307720215e-03 -6.9863813100577188e-01
    8.1316255371931406e-03 -7.6307174041020431e-01
    8.2110932619216676e-03 -7.3702773119008891e-01
    8.3024475600584485e-03 -7.1135370694580791e-01
    7.8859001481346429e-03 -9.0088523292290157e-01
    7.9353420127227462e-03 -1.1655430348287170e+00
    7.9793751641300485e-03 -1.2045664747770721e+00
    8.1699346405228763e-03 -1.3333333333333333e+00
    7.9353420127227462e-03 -1.1655430348287170e+00
    7.8494193041709383e-03 -1.0408329997330663e+00
    7.8433882473418187e-03 -9.9203174552379325e-01
    7.8554642949045256e-03 -9.4548368253470871e-01
    8.3529188307720215e-03 -6.9863813100577188e-01
    1.2067793233267914e-02 -3.6927447293799820e-01
    1.0922953868176138e-02 -4.2337369193050706e-01
    1.3842708204041793e-02 -3.1063037209869782e-01
    1.2846627901003901e-02 -3.4069257193462343e-01
    8.8964952039292614e-03 -5.9891205712851781e-01
    7.9166925345017843e-03 -8.7210284960071649e-01
    8.1316255371931406e-03 -7.6307174041020431e-01
    8.0960578411158196e-03 -7.7625002580618474e-01
    8.0327637909860562e-03 -8.0295506854696608e-01
    7.8635460504317654e-03 -9.3041476868708639e-01
    8.0631335166638368e-03 -1.2665570127975556e+00
    7.8453970547117616e-03 -1.0242950394631676e+00
    7.8736834093533770e-03 -1.0922373625455004e+00
    7.8453970547117616e-03 -9.7628120948833164e-01
    8.4642465160535609e-03 -6.7341545281722137e-01
    8.5254715202691782e-03 -6.6089455225126670e-01
    8.4642465160535609e-03 -6.7341545281722137e-01
    8.4642465160535609e-03 -6.7341545281722137e-01
    8.6601133987447704e-03 -6.3599872800381596e-01
    8.6601133987447704e-03 -6.3599872800381596e-01
    8.4067933893386682e-03 -6.8599434057003528e-01
    8.2552205127754182e-03 -7.2414794338065969e-01
    8.2110932619216676e-03 -7.3702773119008891e-01
    8.4067933893386682e-03 -6.8599434057003528e-01
    8.7340275134779218e-03 -6.2360956446232363e-01
    8.4067933893386682e-03 -6.8599434057003528e-01
    8.4067933893386682e-03 -6.8599434057003528e-01
    8.3529188307720215e-03 -6.9863813100577188e-01
    8.1316255371931406e-03 -7.6307174041020431e-01
    8.0960578411158196e-03 -7.7625002580618474e-01
    8.1699346405228763e-03 -7.5000000000000000e-01
    8.2552205127754182e-03 -7.2414794338065969e-01
    7.9353420127227462e-03 -1.1655430348287170e+00
    7.8859001481346412e-03 -1.1100193048514320e+00
    7.8736834093533770e-03 -1.0922373625455004e+00
    8.0631335166638368e-03 -1.2665570127975556e+00
    7.8554642949045256e-03 -1.0576597126659453e+00
    7.8453970547117616e-03 -9.7628120948833164e-01
    7.8494193041709383e-03 -9.6076892283052284e-01
    8.0327637909860562e-03 -8.0295506854696608e-01
    1.0297691566214896e-02 -4.6216039749172455e-01
    1.1169704689945477e-02 -4.1015155621479787e-01
    1.4455093740676191e-02 -2.9488391230979427e-01
    1.3311898200822757e-02 -3.2587526795614108e-01
    8.5254715202691782e-03 -6.6089455225126670e-01
    8.2110932619216676e-03 -7.3702773119008891e-01
    8.2110932619216676e-03 -7.3702773119008891e-01
    8.0048684404679018e-03 -8.1649658092772603e-01
    7.9353420127227462e-03 -8.5796917841558340e-01
    7.8736834093533770e-03 -9.1555190683961063e-01
    7.8433882473418187e-03 -9.9203174552379325e-01
    7.8433882473418204e-03 -1.0080322575483709e+00
    7.8635460504317654e-03 -9.3041476868708639e-01
    7.8635460504317654e-03 -9.3041476868708639e-01
    8.3529188307720215e-03 -6.9863813100577188e-01
    8.1316255371931406e-03 -7.6307174041020431e-01
    8.4642465160535609e-03 -6.7341545281722137e-01
    8.7340275134779218e-03 -6.2360956446232363e-01
    8.8127140354977897e-03 -6.1124984550212669e-01
    8.8964952039292614e-03 -5.9891205712851781e-01
    8.8127140354977897e-03 -6.1124984550212669e-01
    8.5254715202691782e-03 -6.6089455225126670e-01
    8.4642465160535609e-03 -6.7341545281722137e-01
    8.5254715202691782e-03 -6.6089455225126670e-01
    8.8127140354977897e-03 -6.1124984550212669e-01
    8.5906818288331074e-03 -6.4842466444032298e-01
    8.6601133987447704e-03 -6.3599872800381596e-01
    8.5906818288331074e-03 -6.4842466444032298e-01
    8.3024475600584485e-03 -7.1135370694580791e-01
    8.2552205127754182e-03 -7.2414794338065969e-01
    8.1316255371931406e-03 -7.6307174041020431e-01
    8.2552205127754182e-03 -7.2414794338065969e-01
    7.8554642949045256e-03 -1.0576597126659453e+00
    7.8554642949045256e-03 -1.0576597126659453e+00
    7.9353420127227462e-03 -1.1655430348287170e+00
    8.0327637909860562e-03 -1.2453996981544782e+00
    7.8635460504317654e-03 -9.3041476868708639e-01
    7.8554642949045256e-03 -9.4548368253470871e-01
    7.8433882473418187e-03 -9.9203174552379325e-01
    8.1316255371931406e-03 -7.6307174041020431e-01
    8.8127140354977897e-03 -6.1124984550212669e-01
    1.0922953868176138e-02 -4.2337369193050706e-01
    1.5171187759563061e-02 -2.7854300726557779e-01
    1.3311898200822757e-02 -3.2587526795614108e-01
    8.8964952039292614e-03 -5.9891205712851781e-01
    8.2110932619216676e-03 -7.3702773119008891e-01
    8.0960578411158196e-03 -7.7625002580618474e-01
    7.9353420127227462e-03 -8.5796917841558340e-01
    7.9166925345017843e-03 -8.7210284960071649e-01
    7.8736834093533770e-03 -9.1555190683961063e-01
    7.8433882473418204e-03 -1.0080322575483709e+00
    7.8453970547117616e-03 -9.7628120948833164e-01
    7.8635460504317654e-03 -9.3041476868708639e-01
    8.0960578411158196e-03 -7.7625002580618474e-01
    7.8554642949045256e-03 -9.4548368253470871e-01
    8.4642465160535609e-03 -6.7341545281722137e-01
    8.4067933893386682e-03 -6.8599434057003528e-01
    8.5254715202691782e-03 -6.6089455225126670e-01
    8.8964952039292614e-03 -5.9891205712851781e-01
    9.0808198260364289e-03 -5.7427104579854382e-01
    8.8127140354977897e-03 -6.1124984550212669e-01
    8.8127140354977897e-03 -6.1124984550212669e-01
    8.7340275134779218e-03 -6.2360956446232363e-01
    9.0808198260364289e-03 -5.7427104579854382e-01
    8.8964952039292614e-03 -5.9891205712851781e-01
    8.7340275134779218e-03 -6.2360956446232363e-01
    8.8127140354977897e-03 -6.1124984550212669e-01
    8.5906818288331074e-03 -6.4842466444032298e-01
    8.1699346405228763e-03 -7.5000000000000000e-01
    8.1316255371931406e-03 -7.6307174041020431e-01
    8.1699346405228763e-03 -7.5000000000000000e-01
    8.2110932619216676e-03 -7.3702773119008891e-01
    7.9002251375037275e-03 -8.8640526042791823e-01
    7.8635460504317672e-03 -1.0747894741730140e+00
    7.8736834093533770e-03 -1.0922373625455004e+00
    7.9353420127227462e-03 -1.1655430348287170e+00
    7.8635460504317654e-03 -9.3041476868708639e-01
    7.8635460504317654e-03 -9.3041476868708639e-01
    7.8453970547117616e-03 -9.7628120948833164e-01
    8.0960578411158196e-03 -7.7625002580618474e-01
    8.5254715202691782e-03 -6.6089455225126670e-01
    1.1169704689945477e-02 -4.1015155621479787e-01
    2.5622959484770426e-02 -1.5681251204679500e-01
    1.1738067220847444e-02 -3.8313051408846061e-01
    9.2904172007218563e-03 -5.4962108159470502e-01
    8.2552205127754182e-03 -7.2414794338065969e-01
    8.4067933893386682e-03 -6.8599434057003528e-01
    8.0048684404679018e-03 -8.1649658092772603e-01
    7.9793751641300485e-03 -8.3017419207609033e-01
    7.8859001481346429e-03 -9.0088523292290157e-01
    7.8453970547117616e-03 -9.7628120948833164e-01
    7.8433882473418187e-03 -9.9203174552379325e-01
    7.8736834093533770e-03 -9.1555190683961063e-01
    7.8635460504317654e-03 -9.3041476868708639e-01
    7.8736834093533770e-03 -9.1555190683961063e-01
    8.2552205127754182e-03 -7.2414794338065969e-01
    9.0808198260364289e-03 -5.7427104579854382e-01
    8.8964952039292614e-03 -5.9891205712851781e-01
    8.5906818288331074e-03 -6.4842466444032298e-01
    8.5906818288331074e-03 -6.4842466444032298e-01
    8.7340275134779218e-03 -6.2360956446232363e-01
    8.8127140354977897e-03 -6.1124984550212669e-01
    8.8964952039292614e-03 -5.9891205712851781e-01
    8.8964952039292614e-03 -5.9891205712851781e-01
    9.0808198260364289e-03 -5.7427104579854382e-01
    8.4642465160535609e-03 -6.7341545281722137e-01
    8.7340275134779218e-03 -6.2360956446232363e-01
    8.5906818288331074e-03 -6.4842466444032298e-01
    8.3024475600584485e-03 -7.1135370694580791e-01
    8.1316255371931406e-03 -7.6307174041020431e-01
    8.3024475600584485e-03 -7.1135370694580791e-01
    7.9002251375037275e-03 -8.8640526042791823e-01
    7.8635460504317672e-03 -1.0747894741730140e+00
    7.9166925345017843e-03 -8.7210284960071649e-01
    7.9002251375037292e-03 -1.1281521496355327e+00
    7.9353420127227462e-03 -1.1655430348287170e+00
    7.8494193041709383e-03 -9.6076892283052284e-01
    7.8453970547117616e-03 -9.7628120948833164e-01
    7.8635460504317654e-03 -9.3041476868708639e-01
    8.0631335166638368e-03 -7.8954203395172295e-01
    8.6601133987447704e-03 -6.3599872800381596e-01
    1.1738067220847444e-02 -3.8313051408846061e-01
    2.2281639928698752e-02 -1.8181818181818182e-01
    1.0922953868176138e-02 -4.2337369193050706e-01
    9.9564272512547482e-03 -4.8746667822143247e-01
    9.0808198260364289e-03 -5.7427104579854382e-01
    8.0631335166638368e-03 -7.8954203395172295e-01
    7.9793751641300485e-03 -8.3017419207609033e-01
    7.9793751641300485e-03 -8.3017419207609033e-01
    7.8859001481346429e-03 -9.0088523292290157e-01
    7.9353420127227462e-03 -8.5796917841558340e-01
    7.8859001481346429e-03 -9.0088523292290157e-01
    7.8736834093533770e-03 -9.1555190683961063e-01
    7.8433882473418187e-03 -9.9203174552379325e-01
    7.9793751641300485e-03 -8.3017419207609033e-01
    7.9793751641300485e-03 -8.3017419207609033e-01
    8.7340275134779218e-03 -6.2360956446232363e-01
    8.5906818288331074e-03 -6.4842466444032298e-01
    8.9857300870927262e-03 -5.8658846008541321e-01
    8.7340275134779218e-03 -6.2360956446232363e-01
    8.7340275134779218e-03 -6.2360956446232363e-01
    8.8964952039292614e-03 -5.9891205712851781e-01
    8.5254715202691782e-03 -6.6089455225126670e-01
    8.7340275134779218e-03 -6.2360956446232363e-01
    8.5254715202691782e-03 -6.6089455225126670e-01
    8.4642465160535609e-03 -6.7341545281722137e-01
    8.5254715202691782e-03 -6.6089455225126670e-01
    8.5906818288331074e-03 -6.4842466444032298e-01
    8.2110932619216676e-03 -7.3702773119008891e-01
    8.3529188307720215e-03 -6.9863813100577188e-01
    8.2552205127754182e-03 -7.2414794338065969e-01
    7.9353420127227462e-03 -8.5796917841558340e-01
    7.8736834093533770e-03 -9.1555190683961063e-01
    7.8554642949045256e-03 -1.0576597126659453e+00
    7.9166925345017843e-03 -1.1466537466972384e+00
    7.8736834093533770e-03 -1.0922373625455004e+00
    7.8736834093533770e-03 -9.1555190683961063e-01
    7.8494193041709383e-03 -9.6076892283052284e-01
    7.8736834093533770e-03 -9.1555190683961063e-01
    8.1699346405228763e-03 -7.5000000000000000e-01
    8.5254715202691782e-03 -6.6089455225126670e-01
    1.0489227757620415e-02 -4.4935851713645858e-01
    1.8345127170713720e-02 -2.2454435656953595e-01
    1.2067793233267914e-02 -3.6927447293799820e-01
    9.6619672547235726e-03 -5.1247074319053831e-01
    9.0808198260364289e-03 -5.7427104579854382e-01
    8.1316255371931406e-03 -7.6307174041020431e-01
    8.0048684404679018e-03 -8.1649658092772603e-01
    7.9562190338381793e-03 -8.4399571510955407e-01
    7.9166925345017843e-03 -8.7210284960071649e-01
    7.9166925345017843e-03 -8.7210284960071649e-01
    7.9793751641300485e-03 -8.3017419207609033e-01
    7.8453970547117616e-03 -9.7628120948833164e-01
    7.8433882473418204e-03 -1.0080322575483709e+00
    7.8433882473418187e-03 -9.9203174552379325e-01
    7.9166925345017843e-03 -8.7210284960071649e-01
    8.0960578411158196e-03 -7.7625002580618474e-01
    8.6601133987447704e-03 -6.3599872800381596e-01
    8.6601133987447704e-03 -6.3599872800381596e-01
    8.5906818288331074e-03 -6.4842466444032298e-01
    8.7340275134779218e-03 -6.2360956446232363e-01
    8.4067933893386682e-03 -6.8599434057003528e-01
    8.5906818288331074e-03 -6.4842466444032298e-01
    8.5906818288331074e-03 -6.4842466444032298e-01
    8.5254715202691782e-03 -6.6089455225126670e-01
    8.6601133987447704e-03 -6.3599872800381596e-01
    8.6601133987447704e-03 -6.3599872800381596e-01
    8.5254715202691782e-03 -6.6089455225126670e-01
    8.8127140354977897e-03 -6.1124984550212669e-01
    8.3529188307720215e-03 -6.9863813100577188e-01
    7.8736834093533770e-03 -9.1555190683961063e-01
    7.8554642949045256e-03 -9.4548368253470871e-01
    7.8859001481346429e-03 -9.0088523292290157e-01
    7.8736834093533770e-03 -9.1555190683961063e-01
    7.9166925345017843e-03 -1.1466537466972384e+00
    7.8736834093533770e-03 -1.0922373625455004e+00
    7.8453970547117616e-03 -9.7628120948833164e-01
    8.0327637909860562e-03 -8.0295506854696608e-01
    7.8859001481346429e-03 -9.0088523292290157e-01
    8.0960578411158196e-03 -7.7625002580618474e-01
    8.8127140354977897e-03 -6.1124984550212669e-01
    1.0696955403725117e-02 -4.3643578047198472e-01
    2.2281639928698752e-02 -1.8181818181818182e-01
    1.2067793233267914e-02 -3.6927447293799820e-01
    1.0120589938913406e-02 -4.7485807993381707e-01
    8.9857300870927262e-03 -5.8658846008541321e-01
    8.3024475600584485e-03 -7.1135370694580791e-01
    8.1699346405228763e-03 -7.5000000000000000e-01
    8.1316255371931406e-03 -7.6307174041020431e-01
    7.9562190338381793e-03 -8.4399571510955407e-01
    7.9353420127227462e-03 -8.5796917841558340e-01
    7.8859001481346429e-03 -9.0088523292290157e-01
    7.9353420127227462e-03 -8.5796917841558340e-01
    7.8433882473418187e-03 -9.9203174552379325e-01
    7.8453970547117616e-03 -9.7628120948833164e-01
    7.9166925345017843e-03 -8.7210284960071649e-01
    7.9166925345017843e-03 -8.7210284960071649e-01
    8.0048684404679018e-03 -8.1649658092772603e-01
    8.9857300870927262e-03 -5.8658846008541321e-01
    8.8964952039292614e-03 -5.9891205712851781e-01
    8.5254715202691782e-03 -6.6089455225126670e-01
    8.5254715202691782e-03 -6.6089455225126670e-01
    8.5906818288331074e-03 -6.4842466444032298e-01
    8.6601133987447704e-03 -6.3599872800381596e-01
    8.5254715202691782e-03 -6.6089455225126670e-01
    8.6601133987447704e-03 -6.3599872800381596e-01
    8.9857300870927262e-03 -5.8658846008541321e-01
    8.5906818288331074e-03 -6.4842466444032298e-01
    8.4067933893386682e-03 -6.8599434057003528e-01
    8.2110932619216676e-03 -7.3702773119008891e-01
    7.8736834093533770e-03 -9.1555190683961063e-01
    7.9353420127227462e-03 -8.5796917841558340e-01
    7.8859001481346429e-03 -9.0088523292290157e-01
    7.8453970547117616e-03 -1.0242950394631676e+00
    7.9562190338381793e-03 -1.1848401385191816e+00
    7.8554642949045256e-03 -9.4548368253470871e-01
    7.8494193041709383e-03 -9.6076892283052284e-01
    7.8859001481346429e-03 -9.0088523292290157e-01
    7.8859001481346429e-03 -9.0088523292290157e-01
    8.4067933893386682e-03 -6.8599434057003528e-01
    8.7340275134779218e-03 -6.2360956446232363e-01
    1.0922953868176138e-02 -4.2337369193050706e-01
    1.6022560060309152e-02 -2.6148818018424536e-01
    1.2067793233267914e-02 -3.6927447293799820e-01
    1.0297691566214896e-02 -4.6216039749172455e-01
    1.0120589938913406e-02 -4.7485807993381707e-01
    8.2110932619216676e-03 -7.3702773119008891e-01
    8.2552205127754182e-03 -7.2414794338065969e-01
    8.2110932619216676e-03 -7.3702773119008891e-01
    8.0631335166638368e-03 -7.8954203395172295e-01
    7.9166925345017843e-03 -8.7210284960071649e-01
    7.8736834093533770e-03 -9.1555190683961063e-01
    7.8494193041709383e-03 -9.6076892283052284e-01
    7.8433882473418187e-03 -9.9203174552379325e-01
    8.0048684404679018e-03 -8.1649658092772603e-01
    7.9793751641300485e-03 -8.3017419207609033e-01
    7.9166925345017843e-03 -8.7210284960071649e-01
    8.4067933893386682e-03 -6.8599434057003528e-01
    8.0631335166638368e-03 -7.8954203395172295e-01
    8.4642465160535609e-03 -6.7341545281722137e-01
    8.4642465160535609e-03 -6.7341545281722137e-01
    8.6601133987447704e-03 -6.3599872800381596e-01
    8.5254715202691782e-03 -6.6089455225126670e-01
    8.5906818288331074e-03 -6.4842466444032298e-01
    8.7340275134779218e-03 -6.2360956446232363e-01
    8.5254715202691782e-03 -6.6089455225126670e-01
    8.5254715202691782e-03 -6.6089455225126670e-01
    8.3024475600584485e-03 -7.1135370694580791e-01
    8.0327637909860562e-03 -8.0295506854696608e-01
    8.0327637909860562e-03 -8.0295506854696608e-01
    8.3529188307720215e-03 -6.9863813100577188e-01
    8.1699346405228763e-03 -7.5000000000000000e-01
    7.8736834093533770e-03 -9.1555190683961063e-01
    8.0960578411158196e-03 -1.2882447236783492e+00
    8.0327637909860562e-03 -1.2453996981544782e+00
    7.8453970547117616e-03 -9.7628120948833164e-01
    7.9353420127227462e-03 -8.5796917841558340e-01
    7.8635460504317654e-03 -9.3041476868708639e-01
    7.8736834093533770e-03 -9.1555190683961063e-01
    8.5254715202691782e-03 -6.6089455225126670e-01
    9.0808198260364289e-03 -5.7427104579854382e-01
    1.5171187759563061e-02 -2.7854300726557779e-01
    1.4455093740676191e-02 -2.9488391230979427e-01
    1.2067793233267914e-02 -3.6927447293799820e-01
    1.0297691566214896e-02 -4.6216039749172455e-01
    1.0120589938913406e-02 -4.7485807993381707e-01
    9.1822138390362153e-03 -5.6195148694901642e-01
    8.8127140354977897e-03 -6.1124984550212669e-01
    8.3024475600584485e-03 -7.1135370694580791e-01
    8.0960578411158196e-03 -7.7625002580618474e-01
    8.0048684404679018e-03 -8.1649658092772603e-01
    7.9002251375037275e-03 -8.8640526042791823e-01
    7.9002251375037275e-03 -8.8640526042791823e-01
    7.8554642949045256e-03 -9.4548368253470871e-01
    7.9166925345017843e-03 -1.1466537466972384e+00
    7.8554642949045256e-03 -9.4548368253470871e-01
    7.8859001481346429e-03 -9.0088523292290157e-01
    7.9793751641300485e-03 -8.3017419207609033e-01
    8.0048684404679018e-03 -8.1649658092772603e-01
    8.0048684404679018e-03 -8.1649658092772603e-01
    7.9353420127227462e-03 -8.5796917841558340e-01
    7.9562190338381793e-03 -8.4399571510955407e-01
    8.5906818288331074e-03 -6.4842466444032298e-01
    8.0960578411158196e-03 -7.7625002580618474e-01
    7.9793751641300485e-03 -8.3017419207609033e-01
    8.0048684404679018e-03 -8.1649658092772603e-01
    7.9166925345017843e-03 -8.7210284960071649e-01
    7.9166925345017843e-03 -8.7210284960071649e-01
    7.9002251375037275e-03 -8.8640526042791823e-01
    7.9353420127227462e-03 -8.5796917841558340e-01
    7.9002251375037275e-03 -8.8640526042791823e-01
    8.1316255371931406e-03 -7.6307174041020431e-01
    7.8736834093533770e-03 -1.0922373625455004e+00
    8.1699346405228763e-03 -1.3333333333333333e+00
    7.8453970547117616e-03 -1.0242950394631676e+00
    7.8433882473418204e-03 -1.0080322575483709e+00
    7.8736834093533770e-03 -9.1555190683961063e-01
    7.8635460504317654e-03 -9.3041476868708639e-01
    7.8859001481346429e-03 -9.0088523292290157e-01
    8.3529188307720215e-03 -6.9863813100577188e-01
    9.1822138390362153e-03 -5.6195148694901642e-01
    1.5171187759563061e-02 -2.7854300726557779e-01
    1.6022560060309152e-02 -2.6148818018424536e-01
    1.2846627901003901e-02 -3.4069257193462343e-01
    1.1738067220847444e-02 -3.8313051408846061e-01
    1.0696955403725117e-02 -4.3643578047198472e-01
    9.5296052862713122e-03 -5.2489065916782385e-01
    9.4059994663399041e-03 -5.3727068951733525e-01
    8.6601133987447704e-03 -6.3599872800381596e-01
    8.1699346405228763e-03 -7.5000000000000000e-01
    8.2552205127754182e-03 -7.2414794338065969e-01
    8.0631335166638368e-03 -7.8954203395172295e-01
    7.8859001481346429e-03 -9.0088523292290157e-01
    7.8859001481346429e-03 -9.0088523292290157e-01
    7.9166925345017843e-03 -1.1466537466972384e+00
    7.9562190338381793e-03 -1.1848401385191816e+00
    7.9166925345017843e-03 -8.7210284960071649e-01
    7.9002251375037275e-03 -8.8640526042791823e-01
    8.0631335166638368e-03 -7.8954203395172295e-01
    8.1316255371931406e-03 -7.6307174041020431e-01
    8.0327637909860562e-03 -8.0295506854696608e-01
    7.9353420127227462e-03 -8.5796917841558340e-01
    8.0960578411158196e-03 -7.7625002580618474e-01
    7.9562190338381793e-03 -8.4399571510955407e-01
    8.0048684404679018e-03 -8.1649658092772603e-01
    8.0327637909860562e-03 -8.0295506854696608e-01
    8.0327637909860562e-03 -8.0295506854696608e-01
    8.0327637909860562e-03 -8.0295506854696608e-01
    8.0327637909860562e-03 -8.0295506854696608e-01
    7.9353420127227462e-03 -8.5796917841558340e-01
    7.9353420127227462e-03 -8.5796917841558340e-01
    7.9793751641300485e-03 -8.3017419207609033e-01
    7.9002251375037292e-03 -1.1281521496355327e+00
    7.8494193041709383e-03 -1.0408329997330663e+00
    7.8433882473418187e-03 -9.9203174552379325e-01
    7.8736834093533770e-03 -9.1555190683961063e-01
    7.9166925345017843e-03 -8.7210284960071649e-01
    7.9793751641300485e-03 -8.3017419207609033e-01
    7.9002251375037275e-03 -8.8640526042791823e-01
    8.3529188307720215e-03 -6.9863813100577188e-01
    1.0696955403725117e-02 -4.3643578047198472e-01
    1.5171187759563061e-02 -2.7854300726557779e-01
    1.8345127170713720e-02 -2.2454435656953595e-01
    1.4455093740676191e-02 -2.9488391230979427e-01
    1.2434958074309830e-02 -3.5514240260228874e-01
    1.1169704689945477e-02 -4.1015155621479787e-01
    1.0297691566214896e-02 -4.6216039749172455e-01
    1.0120589938913406e-02 -4.7485807993381707e-01
    1.0922953868176138e-02 -4.2337369193050706e-01
    8.5906818288331074e-03 -6.4842466444032298e-01
    8.6601133987447704e-03 -6.3599872800381596e-01
    8.1316255371931406e-03 -7.6307174041020431e-01
    7.8736834093533770e-03 -9.1555190683961063e-01
    8.0327637909860562e-03 -8.0295506854696608e-01
    7.8859001481346429e-03 -9.0088523292290157e-01
    7.8736834093533770e-03 -1.0922373625455004e+00
    7.9793751641300485e-03 -1.2045664747770721e+00
    7.9002251375037292e-03 -1.1281521496355327e+00
    7.9002251375037275e-03 -8.8640526042791823e-01
    7.9562190338381793e-03 -8.4399571510955407e-01
    8.1316255371931406e-03 -7.6307174041020431e-01
    8.1316255371931406e-03 -7.6307174041020431e-01
    8.1316255371931406e-03 -7.6307174041020431e-01
    8.0048684404679018e-03 -8.1649658092772603e-01
    8.0327637909860562e-03 -8.0295506854696608e-01
    8.0631335166638368e-03 -7.8954203395172295e-01
    8.0631335166638368e-03 -7.8954203395172295e-01
    8.0327637909860562e-03 -8.0295506854696608e-01
    7.9793751641300485e-03 -8.3017419207609033e-01
    8.4067933893386682e-03 -6.8599434057003528e-01
    8.0048684404679018e-03 -8.1649658092772603e-01
    8.0631335166638368e-03 -7.8954203395172295e-01
    8.1316255371931389e-03 -1.3104927715740462e+00
    7.8453970547117616e-03 -9.7628120948833164e-01
    7.8635460504317654e-03 -9.3041476868708639e-01
    7.8494193041709383e-03 -9.6076892283052284e-01
    7.9353420127227462e-03 -8.5796917841558340e-01
    8.0327637909860562e-03 -8.0295506854696608e-01
    8.3024475600584485e-03 -7.1135370694580791e-01
    9.1822138390362153e-03 -5.6195148694901642e-01
    1.1440196764934721e-02 -3.9674602380793611e-01
    1.8345127170713720e-02 -2.2454435656953595e-01
    1.8345127170713720e-02 -2.2454435656953595e-01
    1.7056102956843653e-02 -2.4356115022372735e-01
    1.2846627901003901e-02 -3.4069257193462343e-01
    1.1738067220847444e-02 -3.8313051408846061e-01
    1.0489227757620415e-02 -4.4935851713645858e-01
    1.0120589938913406e-02 -4.7485807993381707e-01
    9.8039215686274508e-03 -5.0000000000000000e-01
    9.9564272512547482e-03 -4.8746667822143247e-01
    8.6601133987447704e-03 -6.3599872800381596e-01
    8.5254715202691782e-03 -6.6089455225126670e-01
    8.4067933893386682e-03 -6.8599434057003528e-01
    8.3529188307720215e-03 -6.9863813100577188e-01
    7.9562190338381793e-03 -8.4399571510955407e-01
    7.9166925345017843e-03 -8.7210284960071649e-01
    7.8554642949045256e-03 -1.0576597126659453e+00
    7.9353420127227462e-03 -1.1655430348287170e+00
    7.8736834093533770e-03 -1.0922373625455004e+00
    7.8453970547117616e-03 -1.0242950394631676e+00
    7.9353420127227462e-03 -8.5796917841558340e-01
    7.8635460504317654e-03 -9.3041476868708639e-01
    7.9002251375037275e-03 -8.8640526042791823e-01
    7.8859001481346429e-03 -9.0088523292290157e-01
    7.9353420127227462e-03 -8.5796917841558340e-01
    7.9002251375037275e-03 -8.8640526042791823e-01
    8.4067933893386682e-03 -6.8599434057003528e-01
    8.4067933893386682e-03 -6.8599434057003528e-01
    8.0327637909860562e-03 -8.0295506854696608e-01
    7.9353420127227462e-03 -8.5796917841558340e-01
    7.8494193041709383e-03 -1.0408329997330663e+00
    7.8433882473418187e-03 -9.9203174552379325e-01
    7.9562190338381793e-03 -1.1848401385191816e+00
    7.8859001481346429e-03 -9.0088523292290157e-01
    7.9166925345017843e-03 -8.7210284960071649e-01
    7.9562190338381793e-03 -8.4399571510955407e-01
    7.9353420127227462e-03 -8.5796917841558340e-01
    8.0048684404679018e-03 -8.1649658092772603e-01
    8.7340275134779218e-03 -6.2360956446232363e-01
    9.6619672547235726e-03 -5.1247074319053831e-01
    1.7056102956843653e-02 -2.4356115022372735e-01
    1.7056102956843653e-02 -2.4356115022372735e-01
    2.0012171101169755e-02 -2.0412414523193148e-01
    1.7056102956843653e-02 -2.4356115022372735e-01
    1.4455093740676191e-02 -2.9488391230979427e-01
    1.2434958074309830e-02 -3.5514240260228874e-01
    1.2846627901003901e-02 -3.4069257193462343e-01
    1.0489227757620415e-02 -4.4935851713645858e-01
    9.8039215686274508e-03 -5.0000000000000000e-01
    8.9857300870927262e-03 -5.8658846008541321e-01
    9.4059994663399041e-03 -5.3727068951733525e-01
    8.4642465160535609e-03 -6.7341545281722137e-01
    8.7340275134779218e-03 -6.2360956446232363e-01
    8.3024475600584485e-03 -7.1135370694580791e-01
    8.1316255371931406e-03 -7.6307174041020431e-01
    7.8859001481346429e-03 -9.0088523292290157e-01
    7.8494193041709383e-03 -9.6076892283052284e-01
    7.8494193041709383e-03 -1.0408329997330663e+00
    7.8494193041709383e-03 -1.0408329997330663e+00
    7.8859001481346429e-03 -9.0088523292290157e-01
    7.8859001481346429e-03 -9.0088523292290157e-01
    7.9002251375037275e-03 -8.8640526042791823e-01
    7.8635460504317654e-03 -9.3041476868708639e-01
    7.9793751641300485e-03 -8.3017419207609033e-01
    8.0327637909860562e-03 -8.0295506854696608e-01
    7.9353420127227462e-03 -8.5796917841558340e-01
    8.4067933893386682e-03 -6.8599434057003528e-01
    8.1316255371931406e-03 -7.6307174041020431e-01
    8.2552205127754182e-03 -7.2414794338065969e-01
    7.8433882473418204e-03 -1.0080322575483709e+00
    7.8554642949045256e-03 -1.0576597126659453e+00
    7.8635460504317672e-03 -1.0747894741730140e+00
    7.8433882473418204e-03 -1.0080322575483709e+00
    7.8859001481346429e-03 -9.0088523292290157e-01
    7.9353420127227462e-03 -8.5796917841558340e-01
    7.9353420127227462e-03 -8.5796917841558340e-01
    7.9166925345017843e-03 -8.7210284960071649e-01
    8.5906818288331074e-03 -6.4842466444032298e-01
    9.5296052862713122e-03 -5.2489065916782385e-01
    1.0489227757620415e-02 -4.4935851713645858e-01
    1.5171187759563061e-02 -2.7854300726557779e-01
    1.7056102956843653e-02 -2.4356115022372735e-01
    1.8345127170713720e-02 -2.2454435656953595e-01
    1.7056102956843653e-02 -2.4356115022372735e-01
    1.3311898200822757e-02 -3.2587526795614108e-01
    1.2434958074309830e-02 -3.5514240260228874e-01
    1.2846627901003901e-02 -3.4069257193462343e-01
    1.2067793233267914e-02 -3.6927447293799820e-01
    1.0120589938913406e-02 -4.7485807993381707e-01
    9.5296052862713122e-03 -5.2489065916782385e-01
    8.9857300870927262e-03 -5.8658846008541321e-01
    9.1822138390362153e-03 -5.6195148694901642e-01
    8.5906818288331074e-03 -6.4842466444032298e-01
    8.4067933893386682e-03 -6.8599434057003528e-01
    8.0631335166638368e-03 -7.8954203395172295e-01
    7.9562190338381793e-03 -8.4399571510955407e-01
    7.9002251375037275e-03 -8.8640526042791823e-01
    7.9793751641300485e-03 -8.3017419207609033e-01
    7.8635460504317672e-03 -1.0747894741730140e+00
    7.8453970547117616e-03 -1.0242950394631676e+00
    8.0327637909860562e-03 -8.0295506854696608e-01
    7.8736834093533770e-03 -9.1555190683961063e-01
    7.8494193041709383e-03 -9.6076892283052284e-01
    7.8453970547117616e-03 -9.7628120948833164e-01
    7.8494193041709383e-03 -9.6076892283052284e-01
    7.9793751641300485e-03 -8.3017419207609033e-01
    7.9562190338381793e-03 -8.4399571510955407e-01
    7.8433882473418204e-03 -1.0080322575483709e+00
    7.8453970547117616e-03 -1.0242950394631676e+00
    7.9562190338381793e-03 -1.1848401385191816e+00
    7.8554642949045256e-03 -1.0576597126659453e+00
    7.8433882473418204e-03 -1.0080322575483709e+00
    7.9793751641300485e-03 -8.3017419207609033e-01
    7.9002251375037275e-03 -8.8640526042791823e-01
    7.9562190338381793e-03 -8.4399571510955407e-01
    7.9002251375037275e-03 -8.8640526042791823e-01
    8.3529188307720215e-03 -6.9863813100577188e-01
    9.1822138390362153e-03 -5.6195148694901642e-01
    9.5296052862713122e-03 -5.2489065916782385e-01
    1.0489227757620415e-02 -4.4935851713645858e-01
    1.5171187759563061e-02 -2.7854300726557779e-01
    1.8345127170713720e-02 -2.2454435656953595e-01
    2.0012171101169755e-02 -2.0412414523193148e-01
    1.7056102956843653e-02 -2.4356115022372735e-01
    1.3311898200822757e-02 -3.2587526795614108e-01
    1.2434958074309830e-02 -3.5514240260228874e-01
    1.2067793233267914e-02 -3.6927447293799820e-01
    1.1738067220847444e-02 -3.8313051408846061e-01
    1.2067793233267914e-02 -3.6927447293799820e-01
    1.0120589938913406e-02 -4.7485807993381707e-01
    9.2904172007218563e-03 -5.4962108159470502e-01
    9.8039215686274508e-03 -5.0000000000000000e-01
    9.2904172007218563e-03 -5.4962108159470502e-01
    8.3024475600584485e-03 -7.1135370694580791e-01
    8.3529188307720215e-03 -6.9863813100577188e-01
    8.4067933893386682e-03 -6.8599434057003528e-01
    7.9166925345017843e-03 -8.7210284960071649e-01
    7.8554642949045256e-03 -9.4548368253470871e-01
    7.8635460504317654e-03 -9.3041476868708639e-01
    7.9166925345017843e-03 -1.1466537466972384e+00
    7.8859001481346412e-03 -1.1100193048514320e+00
    7.8635460504317672e-03 -1.0747894741730140e+00
    7.9353420127227462e-03 -8.5796917841558340e-01
    8.0631335166638368e-03 -7.8954203395172295e-01
    7.8433882473418204e-03 -1.0080322575483709e+00
    7.8433882473418204e-03 -1.0080322575483709e+00
    7.8736834093533770e-03 -9.1555190683961063e-01
    7.8453970547117616e-03 -9.7628120948833164e-01
    7.8554642949045256e-03 -1.0576597126659453e+00
    7.8736834093533770e-03 -1.0922373625455004e+00
    7.8635460504317672e-03 -1.0747894741730140e+00
    7.8554642949045256e-03 -1.0576597126659453e+00
    7.9562190338381793e-03 -8.4399571510955407e-01
    7.8736834093533770e-03 -9.1555190683961063e-01
    7.8859001481346429e-03 -9.0088523292290157e-01
    8.0631335166638368e-03 -7.8954203395172295e-01
    8.8127140354977897e-03 -6.1124984550212669e-01
    9.4059994663399041e-03 -5.3727068951733525e-01
    9.5296052862713122e-03 -5.2489065916782385e-01
    1.2846627901003901e-02 -3.4069257193462343e-01
    1.6022560060309152e-02 -2.6148818018424536e-01
    1.6022560060309152e-02 -2.6148818018424536e-01
    2.5622959484770426e-02 -1.5681251204679500e-01
    1.6022560060309152e-02 -2.6148818018424536e-01
    1.3311898200822757e-02 -3.2587526795614108e-01
    1.2846627901003901e-02 -3.4069257193462343e-01
    1.1738067220847444e-02 -3.8313051408846061e-01
    1.2067793233267914e-02 -3.6927447293799820e-01
    1.1738067220847444e-02 -3.8313051408846061e-01
    1.1440196764934721e-02 -3.9674602380793611e-01
    9.8039215686274508e-03 -5.0000000000000000e-01
    9.8039215686274508e-03 -5.0000000000000000e-01
    9.8039215686274508e-03 -5.0000000000000000e-01
    8.9857300870927262e-03 -5.8658846008541321e-01
    8.0960578411158196e-03 -7.7625002580618474e-01
    8.1316255371931406e-03 -7.6307174041020431e-01
    8.0327637909860562e-03 -8.0295506854696608e-01
    7.8859001481346429e-03 -9.0088523292290157e-01
    7.8635460504317654e-03 -9.3041476868708639e-01
    7.9002251375037275e-03 -8.8640526042791823e-01
    7.9353420127227462e-03 -1.1655430348287170e+00
    7.9353420127227462e-03 -1.1655430348287170e+00
    7.8494193041709383e-03 -1.0408329997330663e+00
    7.8494193041709383e-03 -9.6076892283052284e-01
    7.8736834093533770e-03 -9.1555190683961063e-01
    7.9562190338381793e-03 -8.4399571510955407e-01
    7.9353420127227462e-03 -1.1655430348287170e+00
    7.8736834093533770e-03 -1.0922373625455004e+00
    7.8635460504317672e-03 -1.0747894741730140e+00
    7.9793751641300485e-03 -8.3017419207609033e-01
    8.0631335166638368e-03 -7.8954203395172295e-01
    7.9002251375037275e-03 -8.8640526042791823e-01
    7.9166925345017843e-03 -8.7210284960071649e-01
    8.0960578411158196e-03 -7.7625002580618474e-01
    8.3024475600584485e-03 -7.1135370694580791e-01
    8.4067933893386682e-03 -6.8599434057003528e-01
    9.2904172007218563e-03 -5.4962108159470502e-01
    9.5296052862713122e-03 -5.2489065916782385e-01
    1.2067793233267914e-02 -3.6927447293799820e-01
    1.2846627901003901e-02 -3.4069257193462343e-01
    1.6022560060309152e-02 -2.6148818018424536e-01
    1.7056102956843653e-02 -2.4356115022372735e-01
    2.0012171101169755e-02 -2.0412414523193148e-01
    1.6022560060309152e-02 -2.6148818018424536e-01
    1.4455093740676191e-02 -2.9488391230979427e-01
    1.2434958074309830e-02 -3.5514240260228874e-01
    1.2434958074309830e-02 -3.5514240260228874e-01
    1.2434958074309830e-02 -3.5514240260228874e-01
    1.2067793233267914e-02 -3.6927447293799820e-01
    1.1440196764934721e-02 -3.9674602380793611e-01
    1.1440196764934721e-02 -3.9674602380793611e-01
    1.0696955403725117e-02 -4.3643578047198472e-01
    1.0489227757620415e-02 -4.4935851713645858e-01
    1.0297691566214896e-02 -4.6216039749172455e-01
    9.5296052862713122e-03 -5.2489065916782385e-01
    9.1822138390362153e-03 -5.6195148694901642e-01
    8.3024475600584485e-03 -7.1135370694580791e-01
    7.9793751641300485e-03 -8.3017419207609033e-01
    8.0048684404679018e-03 -8.1649658092772603e-01
    7.9166925345017843e-03 -8.7210284960071649e-01
    7.8494193041709383e-03 -1.0408329997330663e+00
    7.8859001481346412e-03 -1.1100193048514320e+00
    7.8635460504317672e-03 -1.0747894741730140e+00
    7.8554642949045256e-03 -9.4548368253470871e-01
    7.8635460504317654e-03 -9.3041476868708639e-01
    8.1316255371931389e-03 -1.3104927715740462e+00
    8.0048684404679018e-03 -1.2247448713915889e+00
    7.9793751641300485e-03 -1.2045664747770721e+00
    7.9793751641300485e-03 -8.3017419207609033e-01
    7.8859001481346429e-03 -9.0088523292290157e-01
    7.8554642949045256e-03 -9.4548368253470871e-01
    7.9353420127227462e-03 -8.5796917841558340e-01
    8.2552205127754182e-03 -7.2414794338065969e-01
    8.1699346405228763e-03 -7.5000000000000000e-01
    9.2904172007218563e-03 -5.4962108159470502e-01
    9.1822138390362153e-03 -5.6195148694901642e-01
    9.2904172007218563e-03 -5.4962108159470502e-01
    1.1738067220847444e-02 -3.8313051408846061e-01
    1.3311898200822757e-02 -3.2587526795614108e-01
    1.3842708204041793e-02 -3.1063037209869782e-01
    1.6022560060309152e-02 -2.6148818018424536e-01
    2.5622959484770426e-02 -1.5681251204679500e-01
    2.2281639928698752e-02 -1.8181818181818182e-01
    1.8345127170713720e-02 -2.2454435656953595e-01
    1.8345127170713720e-02 -2.2454435656953595e-01
    1.3842708204041793e-02 -3.1063037209869782e-01
    1.3311898200822757e-02 -3.2587526795614108e-01
    1.3842708204041793e-02 -3.1063037209869782e-01
    1.3842708204041793e-02 -3.1063037209869782e-01
    1.3842708204041793e-02 -3.1063037209869782e-01
    1.3842708204041793e-02 -3.1063037209869782e-01
    1.4455093740676191e-02 -2.9488391230979427e-01
    1.2434958074309830e-02 -3.5514240260228874e-01
    1.2434958074309830e-02 -3.5514240260228874e-01
    1.0297691566214896e-02 -4.6216039749172455e-01
    1.0696955403725117e-02 -4.3643578047198472e-01
    1.0120589938913406e-02 -4.7485807993381707e-01
    9.0808198260364289e-03 -5.7427104579854382e-01
    8.4067933893386682e-03 -6.8599434057003528e-01
    8.1316255371931406e-03 -7.6307174041020431e-01
    8.0327637909860562e-03 -8.0295506854696608e-01
    7.8453970547117616e-03 -1.0242950394631676e+00
    7.8736834093533770e-03 -1.0922373625455004e+00
    7.8635460504317672e-03 -1.0747894741730140e+00
    7.8433882473418187e-03 -9.9203174552379325e-01
    7.9562190338381793e-03 -1.1848401385191816e+00
    7.9562190338381793e-03 -1.1848401385191816e+00
    7.8453970547117616e-03 -1.0242950394631676e+00
    7.8453970547117616e-03 -1.0242950394631676e+00
    7.8433882473418204e-03 -1.0080322575483709e+00
    7.9562190338381793e-03 -8.4399571510955407e-01
    8.1316255371931406e-03 -7.6307174041020431e-01
    8.3024475600584485e-03 -7.1135370694580791e-01
    8.2552205127754182e-03 -7.2414794338065969e-01
    8.9857300870927262e-03 -5.8658846008541321e-01
    9.4059994663399041e-03 -5.3727068951733525e-01
    1.2067793233267914e-02 -3.6927447293799820e-01
    1.4455093740676191e-02 -2.9488391230979427e-01
    1.5171187759563061e-02 -2.7854300726557779e-01
    1.6022560060309152e-02 -2.6148818018424536e-01
    2.0012171101169755e-02 -2.0412414523193148e-01
    2.2281639928698752e-02 -1.8181818181818182e-01 1. 0.
    2.5622959484770426e-02 -1.5681251204679500e-01
    2.2281639928698752e-02 -1.8181818181818182e-01
    1.8345127170713720e-02 -2.2454435656953595e-01
    1.7056102956843653e-02 -2.4356115022372735e-01
    1.7056102956843653e-02 -2.4356115022372735e-01
    1.7056102956843653e-02 -2.4356115022372735e-01
    1.6022560060309152e-02 -2.6148818018424536e-01
    1.6022560060309152e-02 -2.6148818018424536e-01
    1.5171187759563061e-02 -2.7854300726557779e-01
    1.5171187759563061e-02 -2.7854300726557779e-01
    1.3842708204041793e-02 -3.1063037209869782e-01
    1.3311898200822757e-02 -3.2587526795614108e-01
    1.0297691566214896e-02 -4.6216039749172455e-01
    1.0696955403725117e-02 -4.3643578047198472e-01
    1.0297691566214896e-02 -4.6216039749172455e-01
    9.5296052862713122e-03 -5.2489065916782385e-01
    8.3024475600584485e-03 -7.1135370694580791e-01
    7.9166925345017843e-03 -8.7210284960071649e-01
    8.0327637909860562e-03 -8.0295506854696608e-01
    7.9793751641300485e-03 -8.3017419207609033e-01
    7.8453970547117616e-03 -1.0242950394631676e+00
    7.9562190338381793e-03 -8.4399571510955407e-01
    8.0960578411158196e-03 -1.2882447236783492e+00
    7.9562190338381793e-03 -8.4399571510955407e-01
    7.9002251375037292e-03 -1.1281521496355327e+00
    7.9002251375037275e-03 -8.8640526042791823e-01
    7.9353420127227462e-03 -8.5796917841558340e-01
    8.0960578411158196e-03 -7.7625002580618474e-01
    8.2552205127754182e-03 -7.2414794338065969e-01
    8.4067933893386682e-03 -6.8599434057003528e-01
    9.1822138390362153e-03 -5.6195148694901642e-01
    9.5296052862713122e-03 -5.2489065916782385e-01
    1.2434958074309830e-02 -3.5514240260228874e-01
    1.4455093740676191e-02 -2.9488391230979427e-01
    1.2846627901003901e-02 -3.4069257193462343e-01
    1.6022560060309152e-02 -2.6148818018424536e-01
    1.7056102956843653e-02 -2.4356115022372735e-01
    1.7056102956843653e-02 -2.4356115022372735e-01
    2.2281639928698752e-02 -1.8181818181818182e-01
    4.4020907359503647e-02 -8.9802651013387441e-02
    2.2281639928698752e-02 -1.8181818181818182e-01
    2.2281639928698752e-02 -1.8181818181818182e-01
    2.0012171101169755e-02 -2.0412414523193148e-01
    2.2281639928698752e-02 -1.8181818181818182e-01
    2.2281639928698752e-02 -1.8181818181818182e-01
    2.0012171101169755e-02 -2.0412414523193148e-01
    1.8345127170713720e-02 -2.2454435656953595e-01
    1.8345127170713720e-02 -2.2454435656953595e-01
    1.8345127170713720e-02 -2.2454435656953595e-01
    1.8345127170713720e-02 -2.2454435656953595e-01
    1.8345127170713720e-02 -2.2454435656953595e-01
    1.6022560060309152e-02 -2.6148818018424536e-01
    1.7056102956843653e-02 -2.4356115022372735e-01
    1.8345127170713720e-02 -2.2454435656953595e-01
    1.2846627901003901e-02 -3.4069257193462343e-01
    1.0489227757620415e-02 -4.4935851713645858e-01
    1.0922953868176138e-02 -4.2337369193050706e-01
    1.0120589938913406e-02 -4.7485807993381707e-01
    9.4059994663399041e-03 -5.3727068951733525e-01
    8.0048684404679018e-03 -8.1649658092772603e-01
    8.0960578411158196e-03 -7.7625002580618474e-01
    8.9857300870927262e-03 -5.8658846008541321e-01
    8.2110932619216676e-03 -7.3702773119008891e-01
    7.9166925345017843e-03 -8.7210284960071649e-01
    8.3024475600584485e-03 -7.1135370694580791e-01
    8.2110932619216676e-03 -7.3702773119008891e-01
    8.0631335166638368e-03 -7.8954203395172295e-01
    8.0960578411158196e-03 -7.7625002580618474e-01
    8.2552205127754182e-03 -7.2414794338065969e-01
    8.8964952039292614e-03 -5.9891205712851781e-01
    1.1169704689945477e-02 -4.1015155621479787e-01
    1.2434958074309830e-02 -3.5514240260228874e-01
    1.3311898200822757e-02 -3.2587526795614108e-01
    1.3311898200822757e-02 -3.2587526795614108e-01
    1.3842708204041793e-02 -3.1063037209869782e-01
    1.8345127170713720e-02 -2.2454435656953595e-01
    1.8345127170713720e-02 -2.2454435656953595e-01
    1.8345127170713720e-02 -2.2454435656953595e-01
    1.7056102956843653e-02 -2.4356115022372735e-01</input_scale>
  <output_scale>
    1.0526315789473684e+00 0.</output_scale>
  <inv_output_scale>
    9.4999999999999996e-01 0.</inv_output_scale>
  <weights>
    <_>
      -1.1719048386403424e-03 -2.2903224389177911e-04
      -9.9637750405231888e-04 -5.5088375721748159e-04
      2.2039270841974236e-04 1.2144499427915077e-03
      9.9728247011042037e-04 2.0453599492093418e-04
      -7.2831549546728146e-04 -4.2920232853557353e-04
      -1.1054717958401724e-03 -1.2409612586460942e-04
      -2.1397120762249158e-05 -7.8018402384446585e-04
      6.7194088742161514e-04 -1.1208781013474275e-03
      1.1037170489498088e-03 1.0083693640301039e-03
      -2.5698247005999147e-04 -3.4383640164285737e-05
      3.0002183913935715e-04 -7.7645728251324352e-04
      -6.5397802009701264e-04 9.5527311481024093e-04
      -1.0954164450422850e-03 -3.1663012947851025e-04
      6.1523554708813478e-04 -6.3403300196013517e-04
      1.0630743572223426e-03 -2.4215284090006096e-04
      1.2150750992007805e-03 -3.7732545206526025e-04
      2.2581237915161135e-04 8.1166924113520002e-04
      1.1322676431532379e-03 5.1786688077618958e-04
      8.1904968067006900e-04 5.2277548999592920e-04
      1.2256443938238879e-03 -1.5902424652943092e-04
      1.3010317921510936e-02 5.8837673111715198e-03
      1.5253265316894067e-03 1.5819898001182903e-04
      -2.6956025836294083e-03 -1.0683210149516887e-03
      -1.6601847792541611e-03 -3.5316026054335991e-03
      1.4354001119575624e-03 6.5918489970816091e-03
      -1.3403087227571565e-04 5.0180735439654669e-03
      1.0338715008648975e-03 -4.5629358169692818e-04
      1.3680648272236699e-04 1.0144584097179666e-03
      6.7693879555298056e-04 2.4316502561747824e-03
      -7.8623570429301355e-03 8.3246647052013251e-03
      -2.7123263189869507e-03 6.2644269327795420e-04
      -5.3345179238316342e-04 4.1379354085063023e-03
      7.0615946398767981e-04 -5.7543563413378119e-04
      7.0235259673845727e-03 -8.1465579368970188e-03
      1.1133700253720294e-03 7.5434855218940136e-05
      -6.6784380245802737e-03 -6.2168730942292671e-03
      4.9454685829663069e-03 1.0288372600677925e-03
      1.2110117427218542e-03 -3.5560785596509354e-04
      1.1798371675148887e-03 3.6738460198815567e-04
      -6.6682657514676291e-03 -6.8610145270877579e-04
      4.0859759218932853e-02 6.9499954137361769e-03
      7.6207469961342561e-03 2.5135665823861888e-03
      -6.8165261472048861e-03 3.2435919444492021e-03
      -3.1439820425487679e-03 -6.5389527730825734e-03
      -1.8137288386428077e-03 8.1742387992123251e-03
      2.0907335408180388e-03 5.1253944669840054e-03
      3.5162026783185892e-03 -4.9616692340669214e-03
      -3.6918619542124865e-04 1.7915890467109243e-03
      -5.3345012540307625e-04 6.1406395872209115e-03
      -9.4068330323056806e-03 9.3979720374917745e-03
      -5.1770275463465815e-03 2.6441484095455080e-03
      5.9013105278995083e-04 8.4063960597739878e-03
      2.4237336093854102e-03 -4.7628520740106053e-04
      7.4623188742421950e-03 -8.7503200344918475e-03
      4.3843286692691469e-03 2.3520115045770847e-03
      -5.7346394159340144e-03 -7.9636947997941653e-03
      7.8445661541084680e-03 2.4922611192058743e-03
      5.3872662502947345e-03 2.9504073685737630e-03
      6.4175795475889244e-03 4.1208318826540594e-03
      -7.7983259221430295e-03 -6.8108317218267293e-03
      -1.9339362105388255e-01 -6.5546044359190855e-02
      -5.2592477940119273e-02 -2.1742398209541929e-02
      4.7761399342599861e-02 -1.1956679993971146e-02
      2.1035754289797731e-02 4.1410653326940425e-02
      6.3646624575446750e-03 -7.9586084364573026e-02
      -1.8415591113646389e-02 -4.1005856307597760e-02
      -1.8984040524680983e-02 2.7975096807905130e-02
      3.5517500004747112e-03 -1.6706554293902505e-02
      7.1710650577375178e-03 -3.4776411268400066e-02
      7.6167694826658708e-02 -8.0374943917683531e-02
      3.9505902967217267e-02 -9.7184422056416381e-03
      -4.9261496604486275e-03 -5.3921710465062299e-02
      -1.5748800346924066e-02 8.1506249581000615e-03
      -7.0818373949085064e-02 7.2448357431751584e-02
      -1.9735089616356102e-02 -1.6826389293364746e-02
      5.9024014627501495e-02 6.9530477856507206e-02
      -7.9254695184993895e-02 -2.3533042594244158e-02
      -3.0657545150279322e-02 -8.6078218057661499e-03
      -5.1928991387977644e-02 -2.5193424581225966e-02
      6.3071122616803324e-02 4.9105101928166688e-02
      -1.1532976089819415e-01 -4.7403095726692865e-02
      -3.6178938352044214e-02 -1.4597879248952885e-02
      3.0796278221304971e-02 -6.2443002594034279e-03
      1.3636872779205405e-02 2.7817934094729060e-02
      3.0254323667833023e-03 -5.6863802154578105e-02
      -1.1837925795862113e-02 -2.7308682743924156e-02
      -1.1643393136035409e-02 1.7688974478984432e-02
      1.3774273857566765e-03 -1.1990644420118789e-02
      4.9818642533385167e-03 -2.2729096851723061e-02
      5.5545195789439901e-02 -5.7073926847502732e-02
      2.4414665859755946e-02 -6.2784009568490635e-03
      -4.4931043046860936e-03 -3.6132904292549867e-02
      -9.9984570850992719e-03 5.7937709532748585e-03
      -5.1437141913368463e-02 5.3466721706677531e-02
      -1.4618782495225378e-02 -1.1322426100902706e-02
      4.2385196644020268e-02 5.0194896818012653e-02
      -5.8305052780723989e-02 -1.4818949609725577e-02
      -2.1045531411338705e-02 -4.7300989275358245e-03
      -3.5522761709006159e-02 -1.5409850633269641e-02
      4.4476622944645931e-02 3.3809493401719647e-02
      -1.1490399673222750e-01 -4.8774088379145923e-02
      -3.5328171281889940e-02 -1.3967950595142740e-02
      3.1940364440055144e-02 -7.5937012821960838e-03
      1.3126044715640177e-02 2.7360423516602901e-02
      3.1782975171054982e-03 -5.6649627902586555e-02
      -1.3078550126550929e-02 -2.7716961727772858e-02
      -1.1449518125173403e-02 1.7282777080083286e-02
      2.9770046573186293e-03 -1.1532346199685999e-02
      4.2821207661996943e-03 -2.4126690734063427e-02
      5.3621578274493410e-02 -5.7225720935848649e-02
      2.4424250138243845e-02 -4.8878164697009618e-03
      -3.0655331431235374e-03 -3.6020060066472709e-02
      -1.1988856698933478e-02 5.0984565173732253e-03
      -4.9835569384138044e-02 5.2710332582370900e-02
      -1.4124845797360484e-02 -1.1047591186871961e-02
      4.1738212997006252e-02 5.0096229799397270e-02
      -5.6828015408044753e-02 -1.3919928849683381e-02
      -1.9835789875387290e-02 -4.8239251964697100e-03
      -3.4743868775828385e-02 -1.5423057361279151e-02
      4.5532273500833914e-02 3.2383840846735894e-02
      -1.9261336596548159e-01 -6.6974735821299133e-02
      -5.2126051996977889e-02 -2.1015552331037538e-02
      4.6027106417545337e-02 -1.2116338085567113e-02
      1.9342014472275338e-02 4.0893828423006429e-02
      6.8075392392890196e-03 -7.8782364722568804e-02
      -1.8908349852572968e-02 -4.1131116496879921e-02
      -1.9543839087700580e-02 2.8846207340004815e-02
      4.6578628491949796e-03 -1.6328238022414319e-02
      5.4643692111934648e-03 -3.6702709517732253e-02
      7.6524410056875367e-02 -7.8412710495770685e-02
      3.8963429418512663e-02 -8.1117039316954982e-03
      -4.9359452188176695e-03 -5.4170335919077363e-02
      -1.8011345832980186e-02 9.2143901020905281e-03
      -7.0462403850910835e-02 7.4424009062411797e-02
      -2.1608890269607307e-02 -1.6911877608958990e-02
      5.9140537424431552e-02 6.9128654601145617e-02
      -7.9912979134248094e-02 -2.3587207328262545e-02
      -3.0320069687460805e-02 -7.6166124798480875e-03
      -5.3359223903108544e-02 -2.4952995431994644e-02
      6.1478539102177300e-02 4.9928297534556923e-02
      -1.9241980970444197e-01 -6.6992278849059825e-02
      -5.4354627528915400e-02 -2.2306754144538359e-02
      4.6145719177772708e-02 -1.0555889174324772e-02
      2.0931397150427276e-02 4.2230263075341369e-02
      7.2090656093992600e-03 -7.9045318037332127e-02
      -1.7417149613955581e-02 -4.0375167119304146e-02
      -2.0489957002772122e-02 2.9374567618439148e-02
      4.8435199365716025e-03 -1.8091208448962611e-02
      5.2382061737335011e-03 -3.5328011245430953e-02
      7.6239157527421123e-02 -7.8775608692416663e-02
      3.9401522685177687e-02 -9.7477436364858863e-03
      -5.2924484504368345e-03 -5.3073962509910345e-02
      -1.6910718925627705e-02 6.9943621918030410e-03
      -7.1695294799553069e-02 7.2628123544729861e-02
      -2.0306159524093072e-02 -1.7352755843707789e-02
      5.7404338848673346e-02 6.7976343990077598e-02
      -7.9622510626737752e-02 -2.3215785218628025e-02
      -3.1038228734310645e-02 -7.9419232577353002e-03
      -5.2066228962757220e-02 -2.6177511653233839e-02
      6.3418145066306997e-02 5.0344853734699803e-02
      -1.4826548996172498e-01 -5.0460565573341165e-02
      -3.7259218430409677e-02 -1.7062981143382963e-02
      3.1926710799841912e-02 -8.9174889845296552e-03
      1.5540986024028175e-02 3.0467252433887131e-02
      4.9940476051534306e-03 -6.4742347275520001e-02
      -1.6107875137699505e-02 -3.0790355232084621e-02
      -1.6297759122734609e-02 2.1174205618468982e-02
      3.2157769240592372e-03 -1.5067657362395480e-02
      5.3991445937633152e-03 -2.7836512434405058e-02
      6.1737991320284867e-02 -6.4772373102133601e-02
      2.9272734766980387e-02 -8.7140753389771657e-03
      -3.9512247416935977e-03 -3.9426508741577992e-02
      -1.4569690845844986e-02 6.3269629808670597e-03
      -5.5319613019991949e-02 5.8666341277899457e-02
      -1.8558499580812252e-02 -1.3278121296878522e-02
      4.3470170113832099e-02 5.4043858001514948e-02
      -6.6158172521293801e-02 -1.8741818547471395e-02
      -2.5245882397344644e-02 -7.3955698342761805e-03
      -3.6619177295787460e-02 -2.1634899834672185e-02
      4.6612107213548547e-02 3.6277859173104804e-02
      -1.5125956971092730e-01 -5.5009503066100723e-02
      -4.2296559207913705e-02 -1.8307828403206147e-02
      3.7597733541921939e-02 -9.0555297442515195e-03
      1.6077717685855676e-02 3.3492128737467368e-02
      3.5993106445009835e-03 -6.3862621611869966e-02
      -1.4874961749904400e-02 -3.2633773748895908e-02
      -1.6498751947845378e-02 2.3795278412248429e-02
      4.4368673851549502e-03 -1.4801260311747689e-02
      5.6589529671350284e-03 -2.7614333641546897e-02
      6.2622500794155267e-02 -6.3666607384040730e-02
      3.1561400244281675e-02 -7.0163324827934009e-03
      -5.9092194344634377e-03 -4.3296232039713431e-02
      -1.2568784495696773e-02 6.9903235908758930e-03
      -5.7481483135274611e-02 6.0262481061982474e-02
      -1.7598249186623952e-02 -1.3764950130155301e-02
      4.7397677881265435e-02 5.5157574376877218e-02
      -6.5358691101519123e-02 -1.8390581055257690e-02
      -2.5281262095521229e-02 -8.2208259237328291e-03
      -4.1885245665333491e-02 -2.0215881203143472e-02
      4.9767755623975458e-02 3.9841029391209981e-02
      -1.3090661915614588e-01 -6.2026455729220609e-02
      -4.4706987204738959e-02 -1.5872721987616214e-02
      3.9885922103446492e-02 -7.1023459689160294e-03
      1.3497617962762182e-02 3.1424764946962967e-02
      4.2631282546084833e-03 -7.7933987939206889e-02
      -1.2371196648373245e-02 -3.1977629537777184e-02
      -1.3281164009231204e-02 2.2391469038770890e-02
      1.8164213222650260e-03 -1.3213823424781015e-02
      3.4850053852095737e-03 -2.8136620347070828e-02
      7.5573730772774017e-02 -7.9604065434264584e-02
      2.8758891583477008e-02 -5.2232467357654685e-03
      -2.3211312270871327e-03 -4.5734544599606269e-02
      -1.2306644778479802e-02 5.8583711805723672e-03
      -6.8460438775974089e-02 7.0641781185605254e-02
      -1.5850440543564385e-02 -1.2159340840927195e-02
      5.2525646835682289e-02 6.5905983427748852e-02
      -7.9588462906224552e-02 -1.7338909686557512e-02
      -2.4920582249131074e-02 -6.6319945294292526e-03
      -4.3145500571493828e-02 -1.8502124747988527e-02
      5.6838440357959812e-02 4.1623442904170756e-02
      -1.1376125657057914e-01 -3.9471021675288528e-02
      -2.7645494213182482e-02 -1.4663243370630245e-02
      2.4231657724885971e-02 -8.2732947690031672e-03
      1.2823182734428938e-02 2.5338734239348987e-02
      4.2617661047045039e-03 -5.1040463098273738e-02
      -1.1961256431439304e-02 -2.5342014528498422e-02
      -1.2004072645947782e-02 1.6732496187892566e-02
      2.2334991812905654e-03 -1.0620556947554611e-02
      3.6715251271860453e-03 -2.0794736936659654e-02
      4.9064569367509366e-02 -4.8968736957933245e-02
      2.3258583888450115e-02 -6.1218785423003946e-03
      -5.1138955577242681e-03 -2.8809050041917496e-02
      -1.0861520573657708e-02 6.3762502059164835e-03
      -4.3835354853396236e-02 4.5103129481832878e-02
      -1.3596994875279949e-02 -1.2359193558067924e-02
      3.4839712637718345e-02 4.3113994878962336e-02
      -5.0739925772306592e-02 -1.5810025605495409e-02
      -1.8399020639174726e-02 -6.2844876732856044e-03
      -2.8160263534227802e-02 -1.8035515981595449e-02
      3.8147261920910100e-02 2.7910036433267924e-02
      -1.4874841147025883e-01 -4.8659976357746840e-02
      -3.5130763354124725e-02 -1.7439441524676604e-02
      3.2394415678816388e-02 -1.0988159894133109e-02
      1.7155269827823335e-02 3.1680894419366279e-02
      6.7333882686724982e-03 -5.9369025371958470e-02
      -1.6961095000307170e-02 -3.0274669072321441e-02
      -1.7318992716223301e-02 2.3105180462433646e-02
      4.2708899978125651e-03 -1.4197973668684248e-02
      5.2338050942681916e-03 -2.6864425712010608e-02
      5.6462164458554738e-02 -5.8895585569129640e-02
      2.9612908126416926e-02 -9.4160179346186295e-03
      -5.1154278132564887e-03 -3.5481311977139544e-02
      -1.5570189965093819e-02 7.2709863471536141e-03
      -5.1617340022065708e-02 5.3915281392134536e-02
      -1.8432172895937318e-02 -1.5192871090762288e-02
      4.0353856371174321e-02 4.9854820552864471e-02
      -5.9183265788729553e-02 -1.9480701310627794e-02
      -2.4830198108797819e-02 -8.4751565334523216e-03
      -3.6148173447228635e-02 -2.1869496647500968e-02
      4.5150848375886468e-02 3.2572435596261426e-02
      1.1626788285975093e-01 4.7244463231833093e-03
      1.4860362598768027e-02 5.9005243024808944e-03
      -1.4810751694001588e-02 4.6896639551475255e-03
      -6.3377456611283280e-03 -1.0695597838804138e-02
      -2.7214194590566365e-03 -1.8931522082278846e-02
      5.5642211532182673e-03 1.0690822910794326e-02
      6.8376646605503265e-03 -9.0104988848371901e-03
      -7.8018921058941682e-04 5.1613258539718616e-03
      -3.5370228921038963e-03 8.6735312450960389e-03
      1.6162529888906658e-02 -1.7426687952374550e-02
      -1.2376012257479349e-02 4.8282210723018916e-03
      2.1438613207217143e-03 1.4015788077328560e-02
      5.7999800445722675e-03 -3.5682477280592831e-03
      -4.3773235180479646e-03 1.1032605249555525e-02
      5.9103748310368066e-03 5.6817951688064236e-03
      -1.1508573092641080e-02 7.8511161195165841e-04
      -2.0301913052355142e-02 7.0433390518718020e-03
      8.3173408303501024e-03 3.5286019062537814e-03
      1.3211515983454257e-02 6.4285680233534294e-03
      -9.0908110025015674e-03 -1.3736680210979214e-02
      -4.7426504811925200e-03 -2.4633649179853218e-04
      2.0010752461143490e-04 -2.1608113003482791e-03
      -7.6781193637096012e-04 -1.3037630763407095e-03
      2.9805926074916670e-03 2.5975842359625837e-03
      1.3944357187178780e-03 1.2652814543411630e-03
      -2.1745805710664937e-03 -1.8936991973313743e-03
      -1.6808565365600031e-03 3.9520415113285428e-03
      -1.9460953397092438e-04 -3.1067263389471652e-03
      6.4335609142252969e-04 -2.8048358523370385e-03
      1.4901543476961851e-04 7.9308205359307558e-04
      2.8837067993693383e-03 -1.6867726920903007e-03
      -3.4153792304114991e-04 1.3657222287131721e-03
      -2.9766153942195300e-03 1.9493412677431786e-03
      -8.2372571782658722e-07 6.1732990316261705e-05
      -3.6965703266899964e-03 -2.6467883094405363e-03
      3.9346954858663832e-04 6.4472097710919108e-04
      6.8728949169428609e-04 -2.3652967176248808e-03
      -2.3057235193215410e-03 -2.5726392541858580e-03
      -8.9723880437404845e-06 -1.8422015395151612e-03
      9.9293398467623412e-05 -8.4379528347612337e-04
      1.4718201903836742e-01 2.7548179305509263e-02
      2.7779048620154970e-02 1.0754726146430239e-02
      -2.5246385473034528e-02 7.9289637582126062e-03
      -1.1067734528117578e-02 -2.1431782331714774e-02
      -5.1836917778005911e-03 3.5661513559946560e-02
      1.0520075760563158e-02 1.9608458909993694e-02
      1.1449952259496113e-02 -1.5322081742799868e-02
      -2.2751774798548045e-03 8.7550304475355143e-03
      -4.3841957239501893e-03 1.7210874062385511e-02
      -3.5670101480143983e-02 3.4949341347212080e-02
      -1.9864149757903120e-02 7.1270953351048041e-03
      3.4430125097691098e-03 2.7246189110465391e-02
      8.8247930480042976e-03 -5.8411135193531258e-03
      3.1209745795113826e-02 -3.2000513661497296e-02
      1.2063985627344025e-02 9.0130430168614776e-03
      -2.7080960910204861e-02 -3.0390053689819545e-02
      3.6923906555571401e-02 1.2759128887317688e-02
      1.5780626896564058e-02 5.2721353961285881e-03
      2.7852243378450815e-02 1.3968305154600198e-02
      -2.7092195654150039e-02 -2.6767291353953254e-02
      1.4640349056951224e-01 2.7844323010332510e-02
      2.8929963523321452e-02 1.2486167564312270e-02
      -2.4849218002086729e-02 6.0661969217492475e-03
      -1.1178317100878287e-02 -2.2176008038550580e-02
      -4.5032270042520946e-03 3.5071022472574431e-02
      9.1457409574900138e-03 2.1754702169852584e-02
      1.1082531015849646e-02 -1.3842253494723931e-02
      -3.7895767662264115e-03 1.0048395106344225e-02
      -3.9257112674924615e-03 1.9133513265555558e-02
      -3.3925150350742929e-02 3.6473585057238744e-02
      -1.9808077552230470e-02 5.1340793799463181e-03
      3.5146129591540776e-03 2.7082257668050523e-02
      9.4509299652200725e-03 -6.2262887375032520e-03
      3.0574243313329738e-02 -3.1761043808582572e-02
      1.0236880563246712e-02 1.0300536429817273e-02
      -2.7122372886016478e-02 -2.8248439435945096e-02
