<?xml version="1.0"?>
<opencv_storage>
<shapeML type_id="opencv-ml-ann-mlp">
  <layer_sizes type_id="opencv-matrix">
    <rows>1</rows>
    <cols>3</cols>
    <dt>i</dt>
    <data>
      1600 40 1</data></layer_sizes>
  <activation_function>SIGMOID_SYM</activation_function>
  <f_param1>5.9999999999999998e-01</f_param1>
  <f_param2>1.</f_param2>
  <min_val>-9.4999999999999996e-01</min_val>
  <max_val>9.4999999999999996e-01</max_val>
  <min_val1>-9.7999999999999998e-01</min_val1>
  <max_val1>9.7999999999999998e-01</max_val1>
  <training_params>
    <train_method>BACKPROP</train_method>
    <dw_scale>1.0000000000000001e-01</dw_scale>
    <moment_scale>1.0000000000000001e-01</moment_scale>
    <term_criteria><epsilon>9.9999999747524271e-07</epsilon>
      <iterations>4000</iterations></term_criteria></training_params>
  <input_scale>
    1. 0. 3.3278914220683117e-02 -1.1952286093343936e-01
    3.3278914220683117e-02 -1.1952286093343936e-01
    3.3278914220683117e-02 -1.1952286093343936e-01
    1.9494095287448762e-02 -2.1004201260420147e-01
    1.9494095287448762e-02 -2.1004201260420147e-01
    3.3278914220683117e-02 -1.1952286093343936e-01
    3.3278914220683117e-02 -1.1952286093343936e-01
    2.3701652425047511e-02 -1.7025130615174974e-01
    3.3278914220683117e-02 -1.1952286093343936e-01
    2.3701652425047511e-02 -1.7025130615174974e-01
    2.3701652425047511e-02 -1.7025130615174974e-01
    2.3701652425047511e-02 -1.7025130615174974e-01
    1.7007903037838570e-02 -2.4433888871261045e-01
    1.9494095287448762e-02 -2.1004201260420147e-01
    1.2402319069138648e-02 -3.5634832254989918e-01
    1.2402319069138648e-02 -3.5634832254989918e-01
    3.3278914220683117e-02 -1.1952286093343936e-01
    1.9494095287448762e-02 -2.1004201260420147e-01
    9.6067950418249320e-03 -5.1754916950676566e-01
    8.7180244445187495e-03 -6.2622429108514965e-01
    1.0139872527799082e-02 -4.7343207647399937e-01
    1.2402319069138648e-02 -3.5634832254989918e-01
    1.3154645874340752e-02 -3.3071891388307384e-01 1. 0.
    3.3278914220683117e-02 -1.1952286093343936e-01
    2.3701652425047511e-02 -1.7025130615174974e-01
    1.7007903037838570e-02 -2.4433888871261045e-01
    1.9494095287448762e-02 -2.1004201260420147e-01
    2.3701652425047511e-02 -1.7025130615174974e-01
    1.9494095287448762e-02 -2.1004201260420147e-01
    3.3278914220683117e-02 -1.1952286093343936e-01
    2.3701652425047511e-02 -1.7025130615174974e-01
    3.3278914220683117e-02 -1.1952286093343936e-01
    1.9494095287448762e-02 -2.1004201260420147e-01
    1.9494095287448762e-02 -2.1004201260420147e-01
    3.3278914220683117e-02 -1.1952286093343936e-01
    3.3278914220683117e-02 -1.1952286093343936e-01 1. 0.
    3.3278914220683117e-02 -1.1952286093343936e-01
    3.3278914220683117e-02 -1.1952286093343936e-01
    2.3701652425047511e-02 -1.7025130615174974e-01
    3.3278914220683117e-02 -1.1952286093343936e-01
    2.3701652425047511e-02 -1.7025130615174974e-01
    1.7007903037838570e-02 -2.4433888871261045e-01
    1.7007903037838570e-02 -2.4433888871261045e-01
    1.7007903037838570e-02 -2.4433888871261045e-01
    1.7007903037838570e-02 -2.4433888871261045e-01
    1.7007903037838570e-02 -2.4433888871261045e-01
    1.7007903037838570e-02 -2.4433888871261045e-01
    1.1273356753471185e-02 -4.0488816508945807e-01
    1.1786939891520949e-02 -3.8100038100057154e-01
    1.0837926477542770e-02 -4.2817441928883765e-01
    9.3859196539000378e-03 -5.3935988997059370e-01
    9.0145485264530398e-03 -5.8277151741435851e-01
    8.5925787037713936e-03 -6.4807406984078608e-01
    8.4802525833324038e-03 -6.7005939426048999e-01
    8.0781134463101603e-03 -7.8334945180064020e-01
    8.0781134463101603e-03 -7.8334945180064020e-01
    8.3797995775388382e-03 -6.9221865524317305e-01
    7.9389965381110334e-03 -8.5539892276830154e-01
    8.3797995775388382e-03 -6.9221865524317305e-01
    8.4802525833324038e-03 -6.7005939426048999e-01
    8.8580819943686710e-03 -6.0447052482698882e-01
    9.3859196539000378e-03 -5.3935988997059370e-01
    1.0139872527799082e-02 -4.7343207647399937e-01
    1.3154645874340752e-02 -3.3071891388307384e-01
    1.3154645874340752e-02 -3.3071891388307384e-01
    1.2402319069138648e-02 -3.5634832254989918e-01
    1.3154645874340752e-02 -3.3071891388307384e-01
    1.5327142612543452e-02 -2.7524094128159016e-01
    1.4098920600576536e-02 -3.0382181012510001e-01
    1.4098920600576536e-02 -3.0382181012510001e-01
    1.5327142612543452e-02 -2.7524094128159016e-01
    1.5327142612543452e-02 -2.7524094128159016e-01
    1.7007903037838570e-02 -2.4433888871261045e-01
    2.3701652425047511e-02 -1.7025130615174974e-01
    2.3701652425047511e-02 -1.7025130615174974e-01
    2.3701652425047511e-02 -1.7025130615174974e-01
    2.3701652425047511e-02 -1.7025130615174974e-01 1. 0.
    2.3701652425047511e-02 -1.7025130615174974e-01
    2.3701652425047511e-02 -1.7025130615174974e-01
    2.3701652425047511e-02 -1.7025130615174974e-01
    1.7007903037838570e-02 -2.4433888871261045e-01
    1.4098920600576536e-02 -3.0382181012510001e-01
    1.3154645874340752e-02 -3.3071891388307384e-01
    1.4098920600576536e-02 -3.0382181012510001e-01
    1.0139872527799082e-02 -4.7343207647399937e-01
    1.0139872527799082e-02 -4.7343207647399937e-01
    9.0145485264530398e-03 -5.8277151741435851e-01
    9.1896046472344940e-03 -5.6108360768678212e-01
    8.4802525833324038e-03 -6.7005939426048999e-01
    8.0781134463101603e-03 -7.8334945180064020e-01
    8.0781134463101603e-03 -7.8334945180064020e-01
    7.8626582598957367e-03 -9.3189111629609322e-01
    7.8626582598957367e-03 -9.3189111629609322e-01
    7.8626582598957367e-03 -9.3189111629609322e-01
    7.8439153053234869e-03 -1.0141851056742199e+00
    8.0242587562746447e-03 -8.0694658478592907e-01
    7.8815362180653242e-03 -9.0582162731567673e-01
    7.9780090410488131e-03 -8.3094896983881650e-01
    8.2901734757753667e-03 -7.1458960101049640e-01
    8.2901734757753667e-03 -7.1458960101049640e-01
    7.9389965381110334e-03 -8.5539892276830154e-01
    7.9780090410488131e-03 -8.3094896983881650e-01
    8.8580819943686710e-03 -6.0447052482698882e-01
    9.8563637458313723e-03 -4.9559462778335212e-01
    9.8563637458313723e-03 -4.9559462778335212e-01
    1.1786939891520949e-02 -3.8100038100057154e-01
    1.2402319069138648e-02 -3.5634832254989918e-01
    1.3154645874340752e-02 -3.3071891388307384e-01
    1.1786939891520949e-02 -3.8100038100057154e-01
    1.2402319069138648e-02 -3.5634832254989918e-01
    1.3154645874340752e-02 -3.3071891388307384e-01
    1.3154645874340752e-02 -3.3071891388307384e-01
    2.3701652425047511e-02 -1.7025130615174974e-01
    1.7007903037838570e-02 -2.4433888871261045e-01
    2.3701652425047511e-02 -1.7025130615174974e-01
    3.3278914220683117e-02 -1.1952286093343936e-01 1. 0.
    3.3278914220683117e-02 -1.1952286093343936e-01
    2.3701652425047511e-02 -1.7025130615174974e-01
    1.9494095287448762e-02 -2.1004201260420147e-01
    1.4098920600576536e-02 -3.0382181012510001e-01
    1.3154645874340752e-02 -3.3071891388307384e-01
    1.2402319069138648e-02 -3.5634832254989918e-01
    9.6067950418249320e-03 -5.1754916950676566e-01
    9.3859196539000378e-03 -5.3935988997059370e-01
    8.8580819943686710e-03 -6.0447052482698882e-01
    8.8580819943686710e-03 -6.0447052482698882e-01
    7.9069196532434508e-03 -8.8034084308295035e-01
    7.9780090410488131e-03 -8.3094896983881650e-01
    7.8626582598957367e-03 -9.3189111629609322e-01
    7.8501480558542478e-03 -9.5860258653882158e-01
    7.8501480558542495e-03 -1.0431851677040120e+00
    8.0781134463101603e-03 -1.2765694770084508e+00
    8.0781134463101603e-03 -1.2765694770084508e+00
    7.8501480558542495e-03 -1.0431851677040120e+00
    7.8501480558542478e-03 -9.5860258653882158e-01
    7.9389965381110334e-03 -1.1690451944500122e+00
    7.9069196532434508e-03 -1.1359236684941296e+00
    7.8815362180653225e-03 -1.1039701082909807e+00
    7.8439153053234869e-03 -1.0141851056742199e+00
    7.8501480558542478e-03 -9.5860258653882158e-01
    7.8815362180653242e-03 -9.0582162731567673e-01
    8.0781134463101603e-03 -7.8334945180064020e-01
    7.9069196532434508e-03 -8.8034084308295035e-01
    9.8563637458313723e-03 -4.9559462778335212e-01
    1.0139872527799082e-02 -4.7343207647399937e-01
    9.6067950418249320e-03 -5.1754916950676566e-01
    9.6067950418249320e-03 -5.1754916950676566e-01
    1.1786939891520949e-02 -3.8100038100057154e-01
    1.2402319069138648e-02 -3.5634832254989918e-01
    1.1786939891520949e-02 -3.8100038100057154e-01
    1.2402319069138648e-02 -3.5634832254989918e-01
    1.5327142612543452e-02 -2.7524094128159016e-01
    1.7007903037838570e-02 -2.4433888871261045e-01
    2.3701652425047511e-02 -1.7025130615174974e-01
    3.3278914220683117e-02 -1.1952286093343936e-01 1. 0.
    3.3278914220683117e-02 -1.1952286093343936e-01
    3.3278914220683117e-02 -1.1952286093343936e-01
    1.4098920600576536e-02 -3.0382181012510001e-01
    1.2402319069138648e-02 -3.5634832254989918e-01
    1.2402319069138648e-02 -3.5634832254989918e-01
    9.8563637458313723e-03 -4.9559462778335212e-01
    9.8563637458313723e-03 -4.9559462778335212e-01
    9.1896046472344940e-03 -5.6108360768678212e-01
    8.7180244445187495e-03 -6.2622429108514965e-01
    7.9069196532434508e-03 -8.8034084308295035e-01
    7.8501480558542478e-03 -9.5860258653882158e-01
    7.8626582598957367e-03 -9.3189111629609322e-01
    7.8439153053234869e-03 -1.0141851056742199e+00
    7.8439153053234869e-03 -1.0141851056742199e+00
    7.8626582598957367e-03 -9.3189111629609322e-01
    8.1400156040260241e-03 -1.3155870289605440e+00
    7.9069196532434508e-03 -1.1359236684941296e+00
    7.8439153053234869e-03 -1.0141851056742199e+00
    7.8439153053234869e-03 -9.8601329718326924e-01
    7.9069196532434508e-03 -1.1359236684941296e+00
    7.8439153053234869e-03 -1.0141851056742199e+00
    7.8439153053234869e-03 -1.0141851056742199e+00
    7.8626582598957367e-03 -9.3189111629609322e-01
    7.9389965381110334e-03 -8.5539892276830154e-01
    7.8439153053234869e-03 -9.8601329718326924e-01
    7.8439153053234869e-03 -1.0141851056742199e+00
    7.8626582598957367e-03 -9.3189111629609322e-01
    8.0242587562746447e-03 -8.0694658478592907e-01
    8.3797995775388382e-03 -6.9221865524317305e-01
    8.7180244445187495e-03 -6.2622429108514965e-01
    9.6067950418249320e-03 -5.1754916950676566e-01
    9.8563637458313723e-03 -4.9559462778335212e-01
    1.1786939891520949e-02 -3.8100038100057154e-01
    1.1786939891520949e-02 -3.8100038100057154e-01
    1.1273356753471185e-02 -4.0488816508945807e-01
    1.4098920600576536e-02 -3.0382181012510001e-01
    1.5327142612543452e-02 -2.7524094128159016e-01
    2.3701652425047511e-02 -1.7025130615174974e-01
    3.3278914220683117e-02 -1.1952286093343936e-01 1. 0.
    3.3278914220683117e-02 -1.1952286093343936e-01
    1.7007903037838570e-02 -2.4433888871261045e-01
    1.5327142612543452e-02 -2.7524094128159016e-01
    1.3154645874340752e-02 -3.3071891388307384e-01
    9.6067950418249320e-03 -5.1754916950676566e-01
    9.1896046472344940e-03 -5.6108360768678212e-01
    9.1896046472344940e-03 -5.6108360768678212e-01
    8.2104932447040757e-03 -7.3720978077448562e-01
    7.9069196532434508e-03 -8.8034084308295035e-01
    7.9780090410488131e-03 -8.3094896983881650e-01
    7.9069196532434508e-03 -8.8034084308295035e-01
    7.8439153053234869e-03 -1.0141851056742199e+00
    8.2104932447040757e-03 -7.3720978077448562e-01
    7.9069196532434508e-03 -8.8034084308295035e-01
    7.8626582598957367e-03 -1.0730867399773194e+00
    8.4802525833324038e-03 -1.4924050144892731e+00
    8.0242587562746447e-03 -1.2392393980641052e+00
    8.2104932447040757e-03 -1.3564659966250536e+00
    7.8501480558542495e-03 -1.0431851677040120e+00
    7.8626582598957367e-03 -1.0730867399773194e+00
    8.2104932447040757e-03 -1.3564659966250536e+00
    7.8501480558542478e-03 -9.5860258653882158e-01
    7.8439153053234869e-03 -9.8601329718326924e-01
    7.9389965381110334e-03 -1.1690451944500122e+00
    7.9389965381110334e-03 -1.1690451944500122e+00
    7.9780090410488131e-03 -1.2034433356286307e+00
    7.8626582598957367e-03 -1.0730867399773194e+00
    7.9389965381110334e-03 -8.5539892276830154e-01
    8.1400156040260224e-03 -7.6011695006609192e-01
    8.4802525833324038e-03 -6.7005939426048999e-01
    8.4802525833324038e-03 -6.7005939426048999e-01
    9.6067950418249320e-03 -5.1754916950676566e-01
    9.3859196539000378e-03 -5.3935988997059370e-01
    1.0464091762392323e-02 -4.5098761680169730e-01
    1.1273356753471185e-02 -4.0488816508945807e-01
    1.3154645874340752e-02 -3.3071891388307384e-01
    1.4098920600576536e-02 -3.0382181012510001e-01
    1.7007903037838570e-02 -2.4433888871261045e-01
    1.9494095287448762e-02 -2.1004201260420147e-01 1. 0.
    2.3701652425047511e-02 -1.7025130615174974e-01
    1.7007903037838570e-02 -2.4433888871261045e-01
    1.0139872527799082e-02 -4.7343207647399937e-01
    1.0139872527799082e-02 -4.7343207647399937e-01
    9.3859196539000378e-03 -5.3935988997059370e-01
    9.0145485264530398e-03 -5.8277151741435851e-01
    8.8580819943686710e-03 -6.0447052482698882e-01
    8.0242587562746447e-03 -8.0694658478592907e-01
    7.9069196532434508e-03 -8.8034084308295035e-01
    8.0242587562746447e-03 -8.0694658478592907e-01
    7.8439153053234869e-03 -1.0141851056742199e+00
    7.8815362180653225e-03 -1.1039701082909807e+00
    7.8501480558542495e-03 -1.0431851677040120e+00
    8.3797995775388382e-03 -1.4446302370292308e+00
    8.1400156040260241e-03 -1.3155870289605440e+00
    8.2104932447040757e-03 -1.3564659966250536e+00
    8.2901734757753667e-03 -1.3994046353122220e+00
    8.4802525833324038e-03 -1.4924050144892731e+00
    8.1400156040260241e-03 -1.3155870289605440e+00
    8.1400156040260241e-03 -1.3155870289605440e+00
    7.8815362180653225e-03 -1.1039701082909807e+00
    7.8501480558542495e-03 -1.0431851677040120e+00
    7.8815362180653225e-03 -1.1039701082909807e+00
    7.8439153053234869e-03 -1.0141851056742199e+00
    7.9780090410488131e-03 -1.2034433356286307e+00
    8.0781134463101603e-03 -1.2765694770084508e+00
    7.8626582598957367e-03 -1.0730867399773194e+00
    7.8501480558542495e-03 -1.0431851677040120e+00
    7.9389965381110334e-03 -1.1690451944500122e+00
    8.0242587562746447e-03 -8.0694658478592907e-01
    8.2104932447040757e-03 -7.3720978077448562e-01
    8.4802525833324038e-03 -6.7005939426048999e-01
    9.1896046472344940e-03 -5.6108360768678212e-01
    9.1896046472344940e-03 -5.6108360768678212e-01
    1.2402319069138648e-02 -3.5634832254989918e-01
    1.2402319069138648e-02 -3.5634832254989918e-01
    1.2402319069138648e-02 -3.5634832254989918e-01
    1.5327142612543452e-02 -2.7524094128159016e-01
    1.9494095287448762e-02 -2.1004201260420147e-01 1. 0.
    1.9494095287448762e-02 -2.1004201260420147e-01
    1.7007903037838570e-02 -2.4433888871261045e-01
    9.8563637458313723e-03 -4.9559462778335212e-01
    9.6067950418249320e-03 -5.1754916950676566e-01
    1.1273356753471185e-02 -4.0488816508945807e-01
    8.2901734757753667e-03 -7.1458960101049640e-01
    7.9069196532434508e-03 -8.8034084308295035e-01
    7.8815362180653242e-03 -9.0582162731567673e-01
    7.9389965381110334e-03 -8.5539892276830154e-01
    7.8439153053234869e-03 -9.8601329718326924e-01
    8.1400156040260241e-03 -1.3155870289605440e+00
    8.2901734757753667e-03 -1.3994046353122220e+00
    8.7180244445187495e-03 -1.5968719422671316e+00
    8.5925787037713919e-03 -1.5430334996209190e+00
    8.0781134463101603e-03 -1.2765694770084508e+00
    7.9780090410488131e-03 -1.2034433356286307e+00
    8.2104932447040757e-03 -1.3564659966250536e+00
    8.2104932447040757e-03 -1.3564659966250536e+00
    8.2901734757753667e-03 -1.3994046353122220e+00
    8.1400156040260241e-03 -1.3155870289605440e+00
    7.9389965381110334e-03 -1.1690451944500122e+00
    8.7180244445187495e-03 -1.5968719422671316e+00
    8.4802525833324038e-03 -1.4924050144892731e+00
    8.2901734757753667e-03 -1.3994046353122220e+00
    7.9389965381110334e-03 -1.1690451944500122e+00
    8.0781134463101603e-03 -1.2765694770084508e+00
    8.0781134463101603e-03 -1.2765694770084508e+00
    7.8501480558542478e-03 -9.5860258653882158e-01
    7.8439153053234869e-03 -1.0141851056742199e+00
    7.8626582598957367e-03 -1.0730867399773194e+00
    7.9389965381110334e-03 -8.5539892276830154e-01
    8.2901734757753667e-03 -7.1458960101049640e-01
    8.3797995775388382e-03 -6.9221865524317305e-01
    9.6067950418249320e-03 -5.1754916950676566e-01
    1.0139872527799082e-02 -4.7343207647399937e-01
    1.3154645874340752e-02 -3.3071891388307384e-01
    1.3154645874340752e-02 -3.3071891388307384e-01
    1.5327142612543452e-02 -2.7524094128159016e-01
    1.7007903037838570e-02 -2.4433888871261045e-01
    3.3278914220683117e-02 -1.1952286093343936e-01
    1.9494095287448762e-02 -2.1004201260420147e-01
    1.5327142612543452e-02 -2.7524094128159016e-01
    1.1786939891520949e-02 -3.8100038100057154e-01
    1.1273356753471185e-02 -4.0488816508945807e-01
    9.1896046472344940e-03 -5.6108360768678212e-01
    8.0781134463101603e-03 -7.8334945180064020e-01
    7.8626582598957367e-03 -9.3189111629609322e-01
    7.8501480558542478e-03 -9.5860258653882158e-01
    7.8501480558542478e-03 -9.5860258653882158e-01
    7.8439153053234869e-03 -1.0141851056742199e+00
    8.0781134463101603e-03 -1.2765694770084508e+00
    8.0781134463101603e-03 -1.2765694770084508e+00
    8.0781134463101603e-03 -1.2765694770084508e+00
    7.8815362180653225e-03 -1.1039701082909807e+00
    7.8815362180653225e-03 -1.1039701082909807e+00
    7.9389965381110334e-03 -1.1690451944500122e+00
    8.1400156040260241e-03 -1.3155870289605440e+00
    8.0242587562746447e-03 -1.2392393980641052e+00
    8.0781134463101603e-03 -1.2765694770084508e+00
    7.8439153053234869e-03 -9.8601329718326924e-01
    8.3797995775388382e-03 -1.4446302370292308e+00
    8.2901734757753667e-03 -1.3994046353122220e+00
    8.3797995775388382e-03 -1.4446302370292308e+00
    8.2901734757753667e-03 -1.3994046353122220e+00
    8.7180244445187495e-03 -1.5968719422671316e+00
    8.5925787037713919e-03 -1.5430334996209190e+00
    7.8815362180653225e-03 -1.1039701082909807e+00
    7.8815362180653225e-03 -1.1039701082909807e+00
    7.9389965381110334e-03 -1.1690451944500122e+00
    7.8815362180653225e-03 -1.1039701082909807e+00
    7.8815362180653225e-03 -1.1039701082909807e+00
    7.8501480558542478e-03 -9.5860258653882158e-01
    8.0242587562746447e-03 -8.0694658478592907e-01
    8.4802525833324038e-03 -6.7005939426048999e-01
    1.0139872527799082e-02 -4.7343207647399937e-01
    1.0139872527799082e-02 -4.7343207647399937e-01
    1.3154645874340752e-02 -3.3071891388307384e-01
    1.4098920600576536e-02 -3.0382181012510001e-01
    1.5327142612543452e-02 -2.7524094128159016e-01 1. 0.
    1.7007903037838570e-02 -2.4433888871261045e-01
    1.5327142612543452e-02 -2.7524094128159016e-01
    1.1786939891520949e-02 -3.8100038100057154e-01
    9.0145485264530398e-03 -5.8277151741435851e-01
    7.9389965381110334e-03 -8.5539892276830154e-01
    8.0781134463101603e-03 -7.8334945180064020e-01
    7.9069196532434508e-03 -8.8034084308295035e-01
    7.8439153053234869e-03 -9.8601329718326924e-01
    7.8815362180653242e-03 -9.0582162731567673e-01
    7.8815362180653225e-03 -1.1039701082909807e+00
    7.8439153053234869e-03 -1.0141851056742199e+00
    7.9069196532434508e-03 -1.1359236684941296e+00
    8.0242587562746447e-03 -1.2392393980641052e+00
    7.9780090410488131e-03 -1.2034433356286307e+00
    8.0781134463101603e-03 -1.2765694770084508e+00
    7.9780090410488131e-03 -1.2034433356286307e+00
    8.0781134463101603e-03 -1.2765694770084508e+00
    7.8501480558542495e-03 -1.0431851677040120e+00
    7.9069196532434508e-03 -1.1359236684941296e+00
    8.2104932447040757e-03 -1.3564659966250536e+00
    8.0781134463101603e-03 -1.2765694770084508e+00
    8.3797995775388382e-03 -1.4446302370292308e+00
    8.1400156040260241e-03 -1.3155870289605440e+00
    8.2901734757753667e-03 -1.3994046353122220e+00
    8.8580819943686728e-03 -1.6543403837370225e+00
    8.2901734757753667e-03 -1.3994046353122220e+00
    8.7180244445187495e-03 -1.5968719422671316e+00
    7.9780090410488131e-03 -1.2034433356286307e+00
    8.0242587562746447e-03 -1.2392393980641052e+00
    7.9389965381110334e-03 -1.1690451944500122e+00
    7.8815362180653225e-03 -1.1039701082909807e+00
    7.8626582598957367e-03 -1.0730867399773194e+00
    7.8501480558542478e-03 -9.5860258653882158e-01
    8.0242587562746447e-03 -8.0694658478592907e-01
    8.7180244445187495e-03 -6.2622429108514965e-01
    1.0139872527799082e-02 -4.7343207647399937e-01
    1.3154645874340752e-02 -3.3071891388307384e-01
    1.4098920600576536e-02 -3.0382181012510001e-01
    1.4098920600576536e-02 -3.0382181012510001e-01
    2.3701652425047511e-02 -1.7025130615174974e-01
    1.5327142612543452e-02 -2.7524094128159016e-01
    1.5327142612543452e-02 -2.7524094128159016e-01
    9.1896046472344940e-03 -5.6108360768678212e-01
    8.1400156040260224e-03 -7.6011695006609192e-01
    8.0781134463101603e-03 -7.8334945180064020e-01
    8.4802525833324038e-03 -6.7005939426048999e-01
    7.9780090410488131e-03 -8.3094896983881650e-01
    8.0242587562746447e-03 -8.0694658478592907e-01
    7.8439153053234869e-03 -1.0141851056742199e+00
    8.0242587562746447e-03 -1.2392393980641052e+00
    7.8626582598957367e-03 -1.0730867399773194e+00
    7.8439153053234869e-03 -1.0141851056742199e+00
    7.9069196532434508e-03 -1.1359236684941296e+00
    8.0781134463101603e-03 -1.2765694770084508e+00
    8.0242587562746447e-03 -1.2392393980641052e+00
    8.2104932447040757e-03 -1.3564659966250536e+00
    7.8626582598957367e-03 -1.0730867399773194e+00
    7.8501480558542478e-03 -9.5860258653882158e-01
    7.8815362180653225e-03 -1.1039701082909807e+00
    7.9389965381110334e-03 -1.1690451944500122e+00
    7.8815362180653225e-03 -1.1039701082909807e+00
    8.2104932447040757e-03 -1.3564659966250536e+00
    8.2104932447040757e-03 -1.3564659966250536e+00
    8.0781134463101603e-03 -1.2765694770084508e+00
    8.2104932447040757e-03 -1.3564659966250536e+00
    8.2901734757753667e-03 -1.3994046353122220e+00
    8.7180244445187495e-03 -1.5968719422671316e+00
    8.2901734757753667e-03 -1.3994046353122220e+00
    8.5925787037713919e-03 -1.5430334996209190e+00
    8.2104932447040757e-03 -1.3564659966250536e+00
    7.9069196532434508e-03 -1.1359236684941296e+00
    7.8626582598957367e-03 -1.0730867399773194e+00
    7.8501480558542495e-03 -1.0431851677040120e+00
    7.9069196532434508e-03 -8.8034084308295035e-01
    8.4802525833324038e-03 -6.7005939426048999e-01
    9.6067950418249320e-03 -5.1754916950676566e-01
    1.2402319069138648e-02 -3.5634832254989918e-01
    1.3154645874340752e-02 -3.3071891388307384e-01
    1.5327142612543452e-02 -2.7524094128159016e-01
    2.3701652425047511e-02 -1.7025130615174974e-01
    1.4098920600576536e-02 -3.0382181012510001e-01
    1.3154645874340752e-02 -3.3071891388307384e-01
    8.3797995775388382e-03 -6.9221865524317305e-01
    8.0781134463101603e-03 -7.8334945180064020e-01
    8.4802525833324038e-03 -6.7005939426048999e-01
    8.4802525833324038e-03 -6.7005939426048999e-01
    7.9389965381110334e-03 -8.5539892276830154e-01
    7.8501480558542478e-03 -9.5860258653882158e-01
    7.8815362180653225e-03 -1.1039701082909807e+00
    8.0242587562746447e-03 -1.2392393980641052e+00
    7.9389965381110334e-03 -1.1690451944500122e+00
    7.8439153053234869e-03 -9.8601329718326924e-01
    7.9780090410488131e-03 -8.3094896983881650e-01
    7.8439153053234869e-03 -1.0141851056742199e+00
    8.0781134463101603e-03 -1.2765694770084508e+00
    7.8815362180653225e-03 -1.1039701082909807e+00
    7.8439153053234869e-03 -1.0141851056742199e+00
    7.9389965381110334e-03 -1.1690451944500122e+00
    7.9389965381110334e-03 -1.1690451944500122e+00
    7.8815362180653225e-03 -1.1039701082909807e+00
    7.8439153053234869e-03 -9.8601329718326924e-01
    7.8439153053234869e-03 -1.0141851056742199e+00
    8.0781134463101603e-03 -1.2765694770084508e+00
    7.9780090410488131e-03 -1.2034433356286307e+00
    7.9780090410488131e-03 -1.2034433356286307e+00
    8.0242587562746447e-03 -1.2392393980641052e+00
    8.7180244445187495e-03 -1.5968719422671316e+00
    9.1896046472344922e-03 -1.7822655773580134e+00
    9.0145485264530433e-03 -1.7159383568311675e+00
    8.4802525833324038e-03 -1.4924050144892731e+00
    7.9780090410488131e-03 -1.2034433356286307e+00
    7.8815362180653225e-03 -1.1039701082909807e+00
    7.8626582598957367e-03 -1.0730867399773194e+00
    7.8501480558542495e-03 -1.0431851677040120e+00
    8.0781134463101603e-03 -7.8334945180064020e-01
    9.3859196539000378e-03 -5.3935988997059370e-01
    9.6067950418249320e-03 -5.1754916950676566e-01
    1.3154645874340752e-02 -3.3071891388307384e-01
    1.5327142612543452e-02 -2.7524094128159016e-01
    2.3701652425047511e-02 -1.7025130615174974e-01
    1.4098920600576536e-02 -3.0382181012510001e-01
    9.8563637458313723e-03 -4.9559462778335212e-01
    8.2901734757753667e-03 -7.1458960101049640e-01
    8.0781134463101603e-03 -7.8334945180064020e-01
    7.9389965381110334e-03 -8.5539892276830154e-01
    7.9069196532434508e-03 -8.8034084308295035e-01
    8.0242587562746447e-03 -8.0694658478592907e-01
    7.8501480558542495e-03 -1.0431851677040120e+00
    7.9780090410488131e-03 -1.2034433356286307e+00
    7.8501480558542478e-03 -9.5860258653882158e-01
    7.8815362180653225e-03 -1.1039701082909807e+00
    7.8815362180653225e-03 -1.1039701082909807e+00
    7.8815362180653225e-03 -1.1039701082909807e+00
    8.0242587562746447e-03 -1.2392393980641052e+00
    7.8815362180653225e-03 -1.1039701082909807e+00
    7.8626582598957367e-03 -1.0730867399773194e+00
    7.8815362180653225e-03 -1.1039701082909807e+00
    7.8815362180653225e-03 -1.1039701082909807e+00
    7.9389965381110334e-03 -1.1690451944500122e+00
    7.8626582598957367e-03 -1.0730867399773194e+00
    7.8439153053234869e-03 -1.0141851056742199e+00
    7.8501480558542495e-03 -1.0431851677040120e+00
    7.9069196532434508e-03 -1.1359236684941296e+00
    8.2104932447040757e-03 -1.3564659966250536e+00
    7.9069196532434508e-03 -1.1359236684941296e+00
    9.0145485264530433e-03 -1.7159383568311675e+00
    9.1896046472344922e-03 -1.7822655773580134e+00
    9.6067950418249337e-03 -1.9321835661585924e+00
    8.7180244445187495e-03 -1.5968719422671316e+00
    8.8580819943686728e-03 -1.6543403837370225e+00
    8.2104932447040757e-03 -1.3564659966250536e+00
    7.9780090410488131e-03 -1.2034433356286307e+00
    8.0242587562746447e-03 -1.2392393980641052e+00
    7.8501480558542495e-03 -1.0431851677040120e+00
    7.8626582598957367e-03 -9.3189111629609322e-01
    8.5925787037713936e-03 -6.4807406984078608e-01
    9.3859196539000378e-03 -5.3935988997059370e-01
    1.4098920600576536e-02 -3.0382181012510001e-01
    1.7007903037838570e-02 -2.4433888871261045e-01
    2.3701652425047511e-02 -1.7025130615174974e-01
    1.4098920600576536e-02 -3.0382181012510001e-01
    8.5925787037713936e-03 -6.4807406984078608e-01
    8.1400156040260224e-03 -7.6011695006609192e-01
    7.8626582598957367e-03 -9.3189111629609322e-01
    7.8815362180653242e-03 -9.0582162731567673e-01
    7.9069196532434508e-03 -8.8034084308295035e-01
    7.9069196532434508e-03 -1.1359236684941296e+00
    8.0242587562746447e-03 -1.2392393980641052e+00
    7.8439153053234869e-03 -1.0141851056742199e+00
    7.8439153053234869e-03 -1.0141851056742199e+00
    7.8626582598957367e-03 -1.0730867399773194e+00
    7.9389965381110334e-03 -1.1690451944500122e+00
    7.9389965381110334e-03 -1.1690451944500122e+00
    7.8501480558542478e-03 -9.5860258653882158e-01
    7.8439153053234869e-03 -1.0141851056742199e+00
    7.8439153053234869e-03 -1.0141851056742199e+00
    7.9069196532434508e-03 -8.8034084308295035e-01
    7.9069196532434508e-03 -1.1359236684941296e+00
    7.8501480558542495e-03 -1.0431851677040120e+00
    7.8501480558542495e-03 -1.0431851677040120e+00
    7.8439153053234869e-03 -1.0141851056742199e+00
    7.8439153053234869e-03 -9.8601329718326924e-01
    8.2104932447040757e-03 -1.3564659966250536e+00
    8.2901734757753667e-03 -1.3994046353122220e+00
    8.4802525833324038e-03 -1.4924050144892731e+00
    9.0145485264530433e-03 -1.7159383568311675e+00
    8.8580819943686728e-03 -1.6543403837370225e+00
    8.7180244445187495e-03 -1.5968719422671316e+00
    8.2901734757753667e-03 -1.3994046353122220e+00
    8.7180244445187495e-03 -1.5968719422671316e+00
    8.4802525833324038e-03 -1.4924050144892731e+00
    8.0242587562746447e-03 -1.2392393980641052e+00
    7.8501480558542495e-03 -1.0431851677040120e+00
    7.9389965381110334e-03 -1.1690451944500122e+00
    7.8439153053234869e-03 -1.0141851056742199e+00
    8.2901734757753667e-03 -7.1458960101049640e-01
    9.3859196539000378e-03 -5.3935988997059370e-01
    9.1896046472344940e-03 -5.6108360768678212e-01
    1.4098920600576536e-02 -3.0382181012510001e-01
    1.7007903037838570e-02 -2.4433888871261045e-01
    1.1786939891520949e-02 -3.8100038100057154e-01
    8.5925787037713936e-03 -6.4807406984078608e-01
    8.0781134463101603e-03 -7.8334945180064020e-01
    7.8439153053234869e-03 -9.8601329718326924e-01
    7.8626582598957367e-03 -9.3189111629609322e-01
    7.8815362180653225e-03 -1.1039701082909807e+00
    8.0242587562746447e-03 -1.2392393980641052e+00
    8.0242587562746447e-03 -1.2392393980641052e+00
    7.9069196532434508e-03 -1.1359236684941296e+00
    7.9069196532434508e-03 -1.1359236684941296e+00
    7.8815362180653225e-03 -1.1039701082909807e+00
    8.0242587562746447e-03 -1.2392393980641052e+00
    8.0781134463101603e-03 -1.2765694770084508e+00
    7.8439153053234869e-03 -1.0141851056742199e+00
    7.8501480558542478e-03 -9.5860258653882158e-01
    7.8439153053234869e-03 -9.8601329718326924e-01
    7.8439153053234869e-03 -9.8601329718326924e-01
    7.8626582598957367e-03 -9.3189111629609322e-01
    7.8815362180653242e-03 -9.0582162731567673e-01
    7.8815362180653242e-03 -9.0582162731567673e-01
    7.9069196532434508e-03 -8.8034084308295035e-01
    7.8439153053234869e-03 -9.8601329718326924e-01
    7.8626582598957367e-03 -1.0730867399773194e+00
    7.8815362180653225e-03 -1.1039701082909807e+00
    8.0781134463101603e-03 -1.2765694770084508e+00
    8.2901734757753667e-03 -1.3994046353122220e+00
    8.1400156040260241e-03 -1.3155870289605440e+00
    8.7180244445187495e-03 -1.5968719422671316e+00
    8.7180244445187495e-03 -1.5968719422671316e+00
    9.8563637458313740e-03 -2.0177781274036484e+00
    9.6067950418249337e-03 -1.9321835661585924e+00
    8.3797995775388382e-03 -1.4446302370292308e+00
    7.9389965381110334e-03 -1.1690451944500122e+00
    7.8501480558542478e-03 -9.5860258653882158e-01
    7.8626582598957367e-03 -1.0730867399773194e+00
    7.9389965381110334e-03 -8.5539892276830154e-01
    8.8580819943686710e-03 -6.0447052482698882e-01
    9.6067950418249320e-03 -5.1754916950676566e-01
    1.2402319069138648e-02 -3.5634832254989918e-01
    2.3701652425047511e-02 -1.7025130615174974e-01
    1.2402319069138648e-02 -3.5634832254989918e-01
    8.3797995775388382e-03 -6.9221865524317305e-01
    8.2901734757753667e-03 -7.1458960101049640e-01
    7.8439153053234869e-03 -9.8601329718326924e-01
    7.8501480558542478e-03 -9.5860258653882158e-01
    7.8815362180653225e-03 -1.1039701082909807e+00
    8.1400156040260241e-03 -1.3155870289605440e+00
    8.0242587562746447e-03 -1.2392393980641052e+00
    7.8501480558542495e-03 -1.0431851677040120e+00
    7.8501480558542495e-03 -1.0431851677040120e+00
    7.8501480558542495e-03 -1.0431851677040120e+00
    7.9780090410488131e-03 -1.2034433356286307e+00
    7.8501480558542495e-03 -1.0431851677040120e+00
    7.8439153053234869e-03 -1.0141851056742199e+00
    7.8439153053234869e-03 -1.0141851056742199e+00
    7.8439153053234869e-03 -9.8601329718326924e-01
    7.8815362180653242e-03 -9.0582162731567673e-01
    7.8439153053234869e-03 -1.0141851056742199e+00
    7.8439153053234869e-03 -1.0141851056742199e+00
    7.8439153053234869e-03 -9.8601329718326924e-01
    7.8439153053234869e-03 -9.8601329718326924e-01
    7.8501480558542495e-03 -1.0431851677040120e+00
    7.8439153053234869e-03 -1.0141851056742199e+00
    8.0242587562746447e-03 -1.2392393980641052e+00
    7.9069196532434508e-03 -1.1359236684941296e+00
    8.0242587562746447e-03 -1.2392393980641052e+00
    8.8580819943686728e-03 -1.6543403837370225e+00
    8.4802525833324038e-03 -1.4924050144892731e+00
    9.1896046472344922e-03 -1.7822655773580134e+00
    9.3859196539000361e-03 -1.8540496217739155e+00
    1.0464091762392326e-02 -2.2173557826083456e+00
    8.8580819943686728e-03 -1.6543403837370225e+00
    8.2104932447040757e-03 -1.3564659966250536e+00
    7.9069196532434508e-03 -1.1359236684941296e+00
    7.8815362180653225e-03 -1.1039701082909807e+00
    7.9069196532434508e-03 -8.8034084308295035e-01
    7.9389965381110334e-03 -8.5539892276830154e-01
    9.0145485264530398e-03 -5.8277151741435851e-01
    1.1786939891520949e-02 -3.8100038100057154e-01
    1.9494095287448762e-02 -2.1004201260420147e-01
    1.2402319069138648e-02 -3.5634832254989918e-01
    9.1896046472344940e-03 -5.6108360768678212e-01
    8.2104932447040757e-03 -7.3720978077448562e-01
    7.8439153053234869e-03 -9.8601329718326924e-01
    7.8439153053234869e-03 -1.0141851056742199e+00
    7.8501480558542495e-03 -1.0431851677040120e+00
    8.1400156040260241e-03 -1.3155870289605440e+00
    8.0781134463101603e-03 -1.2765694770084508e+00
    7.9069196532434508e-03 -1.1359236684941296e+00
    7.8626582598957367e-03 -1.0730867399773194e+00
    7.8439153053234869e-03 -1.0141851056742199e+00
    7.8439153053234869e-03 -9.8601329718326924e-01
    7.8626582598957367e-03 -1.0730867399773194e+00
    7.8815362180653242e-03 -9.0582162731567673e-01
    7.8501480558542495e-03 -1.0431851677040120e+00
    7.8501480558542478e-03 -9.5860258653882158e-01
    7.9069196532434508e-03 -8.8034084308295035e-01
    7.8626582598957367e-03 -9.3189111629609322e-01
    7.8439153053234869e-03 -9.8601329718326924e-01
    7.8439153053234869e-03 -1.0141851056742199e+00
    7.8501480558542495e-03 -1.0431851677040120e+00
    7.8501480558542495e-03 -1.0431851677040120e+00
    7.8501480558542495e-03 -1.0431851677040120e+00
    7.8439153053234869e-03 -9.8601329718326924e-01
    7.8815362180653242e-03 -9.0582162731567673e-01
    7.8439153053234869e-03 -1.0141851056742199e+00
    8.0781134463101603e-03 -1.2765694770084508e+00
    9.0145485264530433e-03 -1.7159383568311675e+00
    9.1896046472344922e-03 -1.7822655773580134e+00
    9.1896046472344922e-03 -1.7822655773580134e+00
    9.1896046472344922e-03 -1.7822655773580134e+00
    9.0145485264530433e-03 -1.7159383568311675e+00
    8.0242587562746447e-03 -1.2392393980641052e+00
    7.9389965381110334e-03 -1.1690451944500122e+00
    8.0242587562746447e-03 -1.2392393980641052e+00
    7.9780090410488131e-03 -1.2034433356286307e+00
    8.2901734757753667e-03 -7.1458960101049640e-01
    9.1896046472344940e-03 -5.6108360768678212e-01
    1.0139872527799082e-02 -4.7343207647399937e-01
    1.7007903037838570e-02 -2.4433888871261045e-01
    1.2402319069138648e-02 -3.5634832254989918e-01
    9.3859196539000378e-03 -5.3935988997059370e-01
    7.9780090410488131e-03 -8.3094896983881650e-01
    7.8439153053234869e-03 -1.0141851056742199e+00
    7.8501480558542478e-03 -9.5860258653882158e-01
    7.8439153053234869e-03 -1.0141851056742199e+00
    8.0242587562746447e-03 -1.2392393980641052e+00
    8.2104932447040757e-03 -1.3564659966250536e+00
    7.9069196532434508e-03 -1.1359236684941296e+00
    8.0242587562746447e-03 -1.2392393980641052e+00
    7.9389965381110334e-03 -1.1690451944500122e+00
    7.8626582598957367e-03 -1.0730867399773194e+00
    7.9069196532434508e-03 -1.1359236684941296e+00
    7.8439153053234869e-03 -1.0141851056742199e+00
    7.8501480558542478e-03 -9.5860258653882158e-01
    7.8815362180653242e-03 -9.0582162731567673e-01
    7.9780090410488131e-03 -8.3094896983881650e-01
    7.8815362180653242e-03 -9.0582162731567673e-01
    7.8439153053234869e-03 -9.8601329718326924e-01
    7.8626582598957367e-03 -9.3189111629609322e-01
    7.8815362180653242e-03 -9.0582162731567673e-01
    7.8501480558542495e-03 -1.0431851677040120e+00
    7.8501480558542478e-03 -9.5860258653882158e-01
    7.8626582598957367e-03 -1.0730867399773194e+00
    7.8626582598957367e-03 -1.0730867399773194e+00
    7.8439153053234869e-03 -9.8601329718326924e-01
    7.9389965381110334e-03 -1.1690451944500122e+00
    8.5925787037713919e-03 -1.5430334996209190e+00
    8.7180244445187495e-03 -1.5968719422671316e+00
    9.6067950418249337e-03 -1.9321835661585924e+00
    9.1896046472344922e-03 -1.7822655773580134e+00
    9.1896046472344922e-03 -1.7822655773580134e+00
    8.4802525833324038e-03 -1.4924050144892731e+00
    8.1400156040260241e-03 -1.3155870289605440e+00
    7.8815362180653225e-03 -1.1039701082909807e+00
    7.9780090410488131e-03 -1.2034433356286307e+00
    8.1400156040260224e-03 -7.6011695006609192e-01
    9.8563637458313723e-03 -4.9559462778335212e-01
    1.0837926477542770e-02 -4.2817441928883765e-01
    1.4098920600576536e-02 -3.0382181012510001e-01
    1.2402319069138648e-02 -3.5634832254989918e-01
    9.1896046472344940e-03 -5.6108360768678212e-01
    8.5925787037713936e-03 -6.4807406984078608e-01
    8.0781134463101603e-03 -7.8334945180064020e-01
    7.9069196532434508e-03 -8.8034084308295035e-01
    7.8439153053234869e-03 -1.0141851056742199e+00
    7.8501480558542478e-03 -9.5860258653882158e-01
    8.2901734757753667e-03 -1.3994046353122220e+00
    7.9069196532434508e-03 -1.1359236684941296e+00
    7.8501480558542495e-03 -1.0431851677040120e+00
    7.9069196532434508e-03 -1.1359236684941296e+00
    7.9780090410488131e-03 -1.2034433356286307e+00
    7.9069196532434508e-03 -1.1359236684941296e+00
    7.9389965381110334e-03 -1.1690451944500122e+00
    7.8439153053234869e-03 -9.8601329718326924e-01
    7.8626582598957367e-03 -9.3189111629609322e-01
    7.9069196532434508e-03 -8.8034084308295035e-01
    7.8626582598957367e-03 -9.3189111629609322e-01
    7.8626582598957367e-03 -9.3189111629609322e-01
    7.8626582598957367e-03 -1.0730867399773194e+00
    7.8501480558542478e-03 -9.5860258653882158e-01
    7.8501480558542495e-03 -1.0431851677040120e+00
    7.8501480558542478e-03 -9.5860258653882158e-01
    7.8439153053234869e-03 -1.0141851056742199e+00
    7.9069196532434508e-03 -8.8034084308295035e-01
    7.8501480558542478e-03 -9.5860258653882158e-01
    7.8501480558542495e-03 -1.0431851677040120e+00
    8.1400156040260241e-03 -1.3155870289605440e+00
    8.5925787037713919e-03 -1.5430334996209190e+00
    8.5925787037713919e-03 -1.5430334996209190e+00
    8.4802525833324038e-03 -1.4924050144892731e+00
    8.8580819943686728e-03 -1.6543403837370225e+00
    8.5925787037713919e-03 -1.5430334996209190e+00
    8.0781134463101603e-03 -1.2765694770084508e+00
    7.9780090410488131e-03 -1.2034433356286307e+00
    7.9389965381110334e-03 -1.1690451944500122e+00
    7.9780090410488131e-03 -8.3094896983881650e-01
    1.1786939891520949e-02 -3.8100038100057154e-01
    1.0837926477542770e-02 -4.2817441928883765e-01
    1.3154645874340752e-02 -3.3071891388307384e-01
    1.1786939891520949e-02 -3.8100038100057154e-01
    9.3859196539000378e-03 -5.3935988997059370e-01
    8.2901734757753667e-03 -7.1458960101049640e-01
    7.9780090410488131e-03 -8.3094896983881650e-01
    7.8626582598957367e-03 -9.3189111629609322e-01
    7.8501480558542495e-03 -1.0431851677040120e+00
    7.8626582598957367e-03 -1.0730867399773194e+00
    8.0781134463101603e-03 -1.2765694770084508e+00
    7.9780090410488131e-03 -1.2034433356286307e+00
    7.9389965381110334e-03 -1.1690451944500122e+00
    7.9389965381110334e-03 -1.1690451944500122e+00
    7.8626582598957367e-03 -1.0730867399773194e+00
    7.8439153053234869e-03 -1.0141851056742199e+00
    7.9389965381110334e-03 -1.1690451944500122e+00
    7.8439153053234869e-03 -9.8601329718326924e-01
    7.8626582598957367e-03 -9.3189111629609322e-01
    8.1400156040260224e-03 -7.6011695006609192e-01
    7.8501480558542495e-03 -1.0431851677040120e+00
    7.8626582598957367e-03 -1.0730867399773194e+00
    7.8439153053234869e-03 -1.0141851056742199e+00
    7.8439153053234869e-03 -9.8601329718326924e-01
    7.8626582598957367e-03 -1.0730867399773194e+00
    7.8626582598957367e-03 -1.0730867399773194e+00
    7.8501480558542495e-03 -1.0431851677040120e+00
    7.8626582598957367e-03 -1.0730867399773194e+00
    7.9389965381110334e-03 -1.1690451944500122e+00
    8.1400156040260241e-03 -1.3155870289605440e+00
    7.9780090410488131e-03 -1.2034433356286307e+00
    8.4802525833324038e-03 -1.4924050144892731e+00
    8.8580819943686728e-03 -1.6543403837370225e+00
    9.0145485264530433e-03 -1.7159383568311675e+00
    9.3859196539000361e-03 -1.8540496217739155e+00
    8.2104932447040757e-03 -1.3564659966250536e+00
    8.0781134463101603e-03 -1.2765694770084508e+00
    7.9069196532434508e-03 -1.1359236684941296e+00
    7.8815362180653225e-03 -1.1039701082909807e+00
    7.9780090410488131e-03 -8.3094896983881650e-01
    1.1786939891520949e-02 -3.8100038100057154e-01
    1.0464091762392323e-02 -4.5098761680169730e-01
    1.5327142612543452e-02 -2.7524094128159016e-01
    1.3154645874340752e-02 -3.3071891388307384e-01
    9.1896046472344940e-03 -5.6108360768678212e-01
    7.9780090410488131e-03 -8.3094896983881650e-01
    8.0242587562746447e-03 -8.0694658478592907e-01
    7.9069196532434508e-03 -8.8034084308295035e-01
    7.8815362180653242e-03 -9.0582162731567673e-01
    7.9389965381110334e-03 -1.1690451944500122e+00
    8.3797995775388382e-03 -1.4446302370292308e+00
    8.0242587562746447e-03 -1.2392393980641052e+00
    8.0242587562746447e-03 -1.2392393980641052e+00
    8.0242587562746447e-03 -1.2392393980641052e+00
    7.8626582598957367e-03 -9.3189111629609322e-01
    7.8439153053234869e-03 -1.0141851056742199e+00
    7.9069196532434508e-03 -1.1359236684941296e+00
    7.8501480558542478e-03 -9.5860258653882158e-01
    7.8815362180653242e-03 -9.0582162731567673e-01
    7.8626582598957367e-03 -9.3189111629609322e-01
    7.8439153053234869e-03 -1.0141851056742199e+00
    7.8815362180653225e-03 -1.1039701082909807e+00
    7.9069196532434508e-03 -1.1359236684941296e+00
    7.8501480558542495e-03 -1.0431851677040120e+00
    7.8815362180653242e-03 -9.0582162731567673e-01
    7.8439153053234869e-03 -9.8601329718326924e-01
    7.8439153053234869e-03 -9.8601329718326924e-01
    7.9780090410488131e-03 -1.2034433356286307e+00
    8.1400156040260241e-03 -1.3155870289605440e+00
    8.2104932447040757e-03 -1.3564659966250536e+00
    8.0781134463101603e-03 -1.2765694770084508e+00
    7.9389965381110334e-03 -1.1690451944500122e+00
    8.8580819943686728e-03 -1.6543403837370225e+00
    8.3797995775388382e-03 -1.4446302370292308e+00
    8.4802525833324038e-03 -1.4924050144892731e+00
    8.7180244445187495e-03 -1.5968719422671316e+00
    8.2104932447040757e-03 -1.3564659966250536e+00
    7.9780090410488131e-03 -1.2034433356286307e+00
    7.9069196532434508e-03 -1.1359236684941296e+00
    7.8501480558542478e-03 -9.5860258653882158e-01
    1.0139872527799082e-02 -4.7343207647399937e-01
    1.0464091762392323e-02 -4.5098761680169730e-01
    1.7007903037838570e-02 -2.4433888871261045e-01
    1.4098920600576536e-02 -3.0382181012510001e-01
    9.1896046472344940e-03 -5.6108360768678212e-01
    8.3797995775388382e-03 -6.9221865524317305e-01
    8.0781134463101603e-03 -7.8334945180064020e-01
    7.8501480558542478e-03 -9.5860258653882158e-01
    7.8439153053234869e-03 -1.0141851056742199e+00
    7.9069196532434508e-03 -1.1359236684941296e+00
    7.9780090410488131e-03 -1.2034433356286307e+00
    7.9780090410488131e-03 -1.2034433356286307e+00
    7.8501480558542478e-03 -9.5860258653882158e-01
    7.8501480558542478e-03 -9.5860258653882158e-01
    7.8439153053234869e-03 -9.8601329718326924e-01
    8.0242587562746447e-03 -1.2392393980641052e+00
    7.8815362180653225e-03 -1.1039701082909807e+00
    7.9780090410488131e-03 -8.3094896983881650e-01
    7.9780090410488131e-03 -8.3094896983881650e-01
    7.9069196532434508e-03 -8.8034084308295035e-01
    7.8815362180653242e-03 -9.0582162731567673e-01
    7.8439153053234869e-03 -1.0141851056742199e+00
    7.8501480558542495e-03 -1.0431851677040120e+00
    7.8439153053234869e-03 -1.0141851056742199e+00
    7.8626582598957367e-03 -9.3189111629609322e-01
    7.8626582598957367e-03 -9.3189111629609322e-01
    7.8815362180653242e-03 -9.0582162731567673e-01
    7.8815362180653225e-03 -1.1039701082909807e+00
    7.8439153053234869e-03 -9.8601329718326924e-01
    7.9780090410488131e-03 -1.2034433356286307e+00
    8.0781134463101603e-03 -1.2765694770084508e+00
    7.9780090410488131e-03 -1.2034433356286307e+00
    8.2104932447040757e-03 -1.3564659966250536e+00
    8.1400156040260241e-03 -1.3155870289605440e+00
    8.3797995775388382e-03 -1.4446302370292308e+00
    8.5925787037713919e-03 -1.5430334996209190e+00
    7.8815362180653225e-03 -1.1039701082909807e+00
    7.9069196532434508e-03 -1.1359236684941296e+00
    7.9780090410488131e-03 -1.2034433356286307e+00
    7.8626582598957367e-03 -9.3189111629609322e-01
    8.5925787037713936e-03 -6.4807406984078608e-01
    1.0464091762392323e-02 -4.5098761680169730e-01
    1.7007903037838570e-02 -2.4433888871261045e-01
    1.4098920600576536e-02 -3.0382181012510001e-01
    9.6067950418249320e-03 -5.1754916950676566e-01
    8.3797995775388382e-03 -6.9221865524317305e-01
    7.9780090410488131e-03 -8.3094896983881650e-01
    7.8626582598957367e-03 -9.3189111629609322e-01
    7.9069196532434508e-03 -1.1359236684941296e+00
    7.9069196532434508e-03 -1.1359236684941296e+00
    7.9780090410488131e-03 -1.2034433356286307e+00
    7.8626582598957367e-03 -1.0730867399773194e+00
    7.8501480558542495e-03 -1.0431851677040120e+00
    7.8439153053234869e-03 -1.0141851056742199e+00
    7.9389965381110334e-03 -1.1690451944500122e+00
    7.9389965381110334e-03 -8.5539892276830154e-01
    7.8815362180653225e-03 -1.1039701082909807e+00
    7.8626582598957367e-03 -9.3189111629609322e-01
    7.9389965381110334e-03 -8.5539892276830154e-01
    8.0781134463101603e-03 -7.8334945180064020e-01
    7.9069196532434508e-03 -8.8034084308295035e-01
    7.9069196532434508e-03 -8.8034084308295035e-01
    7.8815362180653242e-03 -9.0582162731567673e-01
    8.0242587562746447e-03 -8.0694658478592907e-01
    7.9389965381110334e-03 -8.5539892276830154e-01
    7.9069196532434508e-03 -8.8034084308295035e-01
    7.9389965381110334e-03 -8.5539892276830154e-01
    7.8626582598957367e-03 -1.0730867399773194e+00
    8.0781134463101603e-03 -1.2765694770084508e+00
    8.1400156040260241e-03 -1.3155870289605440e+00
    8.0242587562746447e-03 -1.2392393980641052e+00
    8.0242587562746447e-03 -1.2392393980641052e+00
    7.9069196532434508e-03 -1.1359236684941296e+00
    8.2104932447040757e-03 -1.3564659966250536e+00
    8.0781134463101603e-03 -1.2765694770084508e+00
    8.2901734757753667e-03 -1.3994046353122220e+00
    7.8815362180653225e-03 -1.1039701082909807e+00
    7.8815362180653225e-03 -1.1039701082909807e+00
    7.9389965381110334e-03 -1.1690451944500122e+00
    7.8626582598957367e-03 -9.3189111629609322e-01
    8.7180244445187495e-03 -6.2622429108514965e-01
    1.0464091762392323e-02 -4.5098761680169730e-01
    2.3701652425047511e-02 -1.7025130615174974e-01
    1.2402319069138648e-02 -3.5634832254989918e-01
    9.6067950418249320e-03 -5.1754916950676566e-01
    8.4802525833324038e-03 -6.7005939426048999e-01
    8.2901734757753667e-03 -7.1458960101049640e-01
    7.9389965381110334e-03 -8.5539892276830154e-01
    7.8439153053234869e-03 -1.0141851056742199e+00
    7.8815362180653225e-03 -1.1039701082909807e+00
    7.9069196532434508e-03 -1.1359236684941296e+00
    7.9069196532434508e-03 -1.1359236684941296e+00
    7.8439153053234869e-03 -1.0141851056742199e+00
    7.9389965381110334e-03 -1.1690451944500122e+00
    7.9389965381110334e-03 -1.1690451944500122e+00
    7.8815362180653225e-03 -1.1039701082909807e+00
    7.8626582598957367e-03 -9.3189111629609322e-01
    7.8439153053234869e-03 -1.0141851056742199e+00
    7.8501480558542478e-03 -9.5860258653882158e-01
    7.8501480558542478e-03 -9.5860258653882158e-01
    7.8815362180653242e-03 -9.0582162731567673e-01
    7.9069196532434508e-03 -8.8034084308295035e-01
    7.9389965381110334e-03 -8.5539892276830154e-01
    7.9389965381110334e-03 -8.5539892276830154e-01
    8.0242587562746447e-03 -8.0694658478592907e-01
    7.8439153053234869e-03 -9.8601329718326924e-01
    7.8501480558542495e-03 -1.0431851677040120e+00
    7.8815362180653225e-03 -1.1039701082909807e+00
    7.9780090410488131e-03 -1.2034433356286307e+00
    8.1400156040260241e-03 -1.3155870289605440e+00
    7.9069196532434508e-03 -1.1359236684941296e+00
    7.9389965381110334e-03 -1.1690451944500122e+00
    8.2104932447040757e-03 -1.3564659966250536e+00
    7.8626582598957367e-03 -1.0730867399773194e+00
    8.1400156040260241e-03 -1.3155870289605440e+00
    8.2901734757753667e-03 -1.3994046353122220e+00
    7.9389965381110334e-03 -1.1690451944500122e+00
    7.9389965381110334e-03 -1.1690451944500122e+00
    7.8815362180653225e-03 -1.1039701082909807e+00
    7.8626582598957367e-03 -9.3189111629609322e-01
    8.7180244445187495e-03 -6.2622429108514965e-01
    1.0837926477542770e-02 -4.2817441928883765e-01
    1.9494095287448762e-02 -2.1004201260420147e-01
    1.1273356753471185e-02 -4.0488816508945807e-01
    1.0837926477542770e-02 -4.2817441928883765e-01
    8.8580819943686710e-03 -6.0447052482698882e-01
    8.2104932447040757e-03 -7.3720978077448562e-01
    7.9389965381110334e-03 -8.5539892276830154e-01
    7.8439153053234869e-03 -9.8601329718326924e-01
    7.8501480558542495e-03 -1.0431851677040120e+00
    7.8626582598957367e-03 -9.3189111629609322e-01
    7.8439153053234869e-03 -9.8601329718326924e-01
    7.8501480558542495e-03 -1.0431851677040120e+00
    8.0781134463101603e-03 -1.2765694770084508e+00
    7.8501480558542478e-03 -9.5860258653882158e-01
    7.8439153053234869e-03 -1.0141851056742199e+00
    7.8501480558542495e-03 -1.0431851677040120e+00
    7.9069196532434508e-03 -1.1359236684941296e+00
    7.8439153053234869e-03 -9.8601329718326924e-01
    7.8626582598957367e-03 -1.0730867399773194e+00
    7.8815362180653242e-03 -9.0582162731567673e-01
    7.9389965381110334e-03 -8.5539892276830154e-01
    7.8439153053234869e-03 -9.8601329718326924e-01
    7.8815362180653242e-03 -9.0582162731567673e-01
    7.8501480558542478e-03 -9.5860258653882158e-01
    7.8439153053234869e-03 -9.8601329718326924e-01
    7.9069196532434508e-03 -1.1359236684941296e+00
    7.8626582598957367e-03 -9.3189111629609322e-01
    7.9780090410488131e-03 -1.2034433356286307e+00
    7.8815362180653225e-03 -1.1039701082909807e+00
    7.8501480558542478e-03 -9.5860258653882158e-01
    7.8626582598957367e-03 -1.0730867399773194e+00
    7.9389965381110334e-03 -1.1690451944500122e+00
    8.0781134463101603e-03 -1.2765694770084508e+00
    8.2104932447040757e-03 -1.3564659966250536e+00
    8.0242587562746447e-03 -1.2392393980641052e+00
    7.8626582598957367e-03 -1.0730867399773194e+00
    7.9069196532434508e-03 -1.1359236684941296e+00
    7.8501480558542495e-03 -1.0431851677040120e+00
    7.9389965381110334e-03 -8.5539892276830154e-01
    8.4802525833324038e-03 -6.7005939426048999e-01
    9.6067950418249320e-03 -5.1754916950676566e-01
    1.7007903037838570e-02 -2.4433888871261045e-01
    1.2402319069138648e-02 -3.5634832254989918e-01
    9.8563637458313723e-03 -4.9559462778335212e-01
    9.0145485264530398e-03 -5.8277151741435851e-01
    8.2901734757753667e-03 -7.1458960101049640e-01
    8.0242587562746447e-03 -8.0694658478592907e-01
    7.8439153053234869e-03 -1.0141851056742199e+00
    7.8626582598957367e-03 -1.0730867399773194e+00
    7.8626582598957367e-03 -1.0730867399773194e+00
    7.9069196532434508e-03 -8.8034084308295035e-01
    7.9069196532434508e-03 -1.1359236684941296e+00
    7.9780090410488131e-03 -1.2034433356286307e+00
    7.9780090410488131e-03 -1.2034433356286307e+00
    7.8501480558542495e-03 -1.0431851677040120e+00
    7.8439153053234869e-03 -1.0141851056742199e+00
    7.8626582598957367e-03 -1.0730867399773194e+00
    7.8815362180653225e-03 -1.1039701082909807e+00
    7.9069196532434508e-03 -1.1359236684941296e+00
    7.8626582598957367e-03 -1.0730867399773194e+00
    7.8501480558542495e-03 -1.0431851677040120e+00
    7.8501480558542478e-03 -9.5860258653882158e-01
    7.8501480558542478e-03 -9.5860258653882158e-01
    7.9069196532434508e-03 -1.1359236684941296e+00
    7.8626582598957367e-03 -1.0730867399773194e+00
    7.8626582598957367e-03 -1.0730867399773194e+00
    7.9069196532434508e-03 -1.1359236684941296e+00
    7.8626582598957367e-03 -9.3189111629609322e-01
    7.8626582598957367e-03 -9.3189111629609322e-01
    7.9780090410488131e-03 -1.2034433356286307e+00
    8.0242587562746447e-03 -1.2392393980641052e+00
    7.9069196532434508e-03 -1.1359236684941296e+00
    7.9389965381110334e-03 -1.1690451944500122e+00
    8.2104932447040757e-03 -1.3564659966250536e+00
    8.0242587562746447e-03 -1.2392393980641052e+00
    7.9780090410488131e-03 -1.2034433356286307e+00
    7.8439153053234869e-03 -9.8601329718326924e-01
    7.8439153053234869e-03 -1.0141851056742199e+00
    7.8815362180653242e-03 -9.0582162731567673e-01
    9.1896046472344940e-03 -5.6108360768678212e-01
    9.8563637458313723e-03 -4.9559462778335212e-01
    2.3701652425047511e-02 -1.7025130615174974e-01
    1.1273356753471185e-02 -4.0488816508945807e-01
    1.0464091762392323e-02 -4.5098761680169730e-01
    9.1896046472344940e-03 -5.6108360768678212e-01
    8.3797995775388382e-03 -6.9221865524317305e-01
    8.0781134463101603e-03 -7.8334945180064020e-01
    7.9389965381110334e-03 -8.5539892276830154e-01
    7.8439153053234869e-03 -9.8601329718326924e-01
    7.8501480558542478e-03 -9.5860258653882158e-01
    7.8439153053234869e-03 -9.8601329718326924e-01
    7.9069196532434508e-03 -8.8034084308295035e-01
    7.8626582598957367e-03 -1.0730867399773194e+00
    7.9389965381110334e-03 -1.1690451944500122e+00
    7.8501480558542495e-03 -1.0431851677040120e+00
    7.8815362180653225e-03 -1.1039701082909807e+00
    7.8815362180653225e-03 -1.1039701082909807e+00
    7.8439153053234869e-03 -9.8601329718326924e-01
    7.8439153053234869e-03 -1.0141851056742199e+00
    7.8439153053234869e-03 -9.8601329718326924e-01
    7.9389965381110334e-03 -1.1690451944500122e+00
    7.9069196532434508e-03 -1.1359236684941296e+00
    7.8626582598957367e-03 -1.0730867399773194e+00
    7.9069196532434508e-03 -1.1359236684941296e+00
    7.8626582598957367e-03 -1.0730867399773194e+00
    7.8626582598957367e-03 -9.3189111629609322e-01
    7.8501480558542495e-03 -1.0431851677040120e+00
    7.8815362180653242e-03 -9.0582162731567673e-01
    8.0242587562746447e-03 -1.2392393980641052e+00
    8.0242587562746447e-03 -1.2392393980641052e+00
    7.8626582598957367e-03 -1.0730867399773194e+00
    7.9389965381110334e-03 -1.1690451944500122e+00
    7.9389965381110334e-03 -1.1690451944500122e+00
    8.2901734757753667e-03 -1.3994046353122220e+00
    7.9069196532434508e-03 -1.1359236684941296e+00
    7.9389965381110334e-03 -1.1690451944500122e+00
    7.8439153053234869e-03 -1.0141851056742199e+00
    7.8439153053234869e-03 -1.0141851056742199e+00
    8.2104932447040757e-03 -7.3720978077448562e-01
    8.7180244445187495e-03 -6.2622429108514965e-01
    1.0139872527799082e-02 -4.7343207647399937e-01
    1.4098920600576536e-02 -3.0382181012510001e-01
    1.2402319069138648e-02 -3.5634832254989918e-01
    1.0464091762392323e-02 -4.5098761680169730e-01
    1.0139872527799082e-02 -4.7343207647399937e-01
    8.2104932447040757e-03 -7.3720978077448562e-01
    8.2104932447040757e-03 -7.3720978077448562e-01
    7.9780090410488131e-03 -8.3094896983881650e-01
    7.9069196532434508e-03 -8.8034084308295035e-01
    7.8501480558542478e-03 -9.5860258653882158e-01
    7.8439153053234869e-03 -9.8601329718326924e-01
    7.8815362180653225e-03 -1.1039701082909807e+00
    7.8626582598957367e-03 -1.0730867399773194e+00
    7.9069196532434508e-03 -8.8034084308295035e-01
    7.8501480558542478e-03 -9.5860258653882158e-01
    7.8815362180653225e-03 -1.1039701082909807e+00
    8.0242587562746447e-03 -8.0694658478592907e-01
    7.8626582598957367e-03 -1.0730867399773194e+00
    7.9389965381110334e-03 -1.1690451944500122e+00
    7.8439153053234869e-03 -9.8601329718326924e-01
    7.8815362180653242e-03 -9.0582162731567673e-01
    7.8815362180653225e-03 -1.1039701082909807e+00
    7.8626582598957367e-03 -1.0730867399773194e+00
    7.8439153053234869e-03 -1.0141851056742199e+00
    7.8626582598957367e-03 -1.0730867399773194e+00
    7.8626582598957367e-03 -1.0730867399773194e+00
    7.9069196532434508e-03 -1.1359236684941296e+00
    7.8439153053234869e-03 -9.8601329718326924e-01
    7.8439153053234869e-03 -1.0141851056742199e+00
    7.8815362180653242e-03 -9.0582162731567673e-01
    7.8439153053234869e-03 -1.0141851056742199e+00
    7.9780090410488131e-03 -1.2034433356286307e+00
    8.5925787037713919e-03 -1.5430334996209190e+00
    8.5925787037713919e-03 -1.5430334996209190e+00
    7.9780090410488131e-03 -1.2034433356286307e+00
    7.8501480558542478e-03 -9.5860258653882158e-01
    7.8626582598957367e-03 -1.0730867399773194e+00
    7.8439153053234869e-03 -1.0141851056742199e+00
    8.4802525833324038e-03 -6.7005939426048999e-01
    8.7180244445187495e-03 -6.2622429108514965e-01
    1.4098920600576536e-02 -3.0382181012510001e-01
    1.4098920600576536e-02 -3.0382181012510001e-01
    1.2402319069138648e-02 -3.5634832254989918e-01
    1.0139872527799082e-02 -4.7343207647399937e-01
    1.0139872527799082e-02 -4.7343207647399937e-01
    9.3859196539000378e-03 -5.3935988997059370e-01
    8.4802525833324038e-03 -6.7005939426048999e-01
    7.9780090410488131e-03 -8.3094896983881650e-01
    7.9389965381110334e-03 -8.5539892276830154e-01
    7.8626582598957367e-03 -9.3189111629609322e-01
    7.8501480558542478e-03 -9.5860258653882158e-01
    7.8626582598957367e-03 -9.3189111629609322e-01
    7.8626582598957367e-03 -1.0730867399773194e+00
    8.0242587562746447e-03 -1.2392393980641052e+00
    7.9069196532434508e-03 -1.1359236684941296e+00
    7.9069196532434508e-03 -1.1359236684941296e+00
    7.8815362180653225e-03 -1.1039701082909807e+00
    7.8815362180653225e-03 -1.1039701082909807e+00
    7.9389965381110334e-03 -1.1690451944500122e+00
    8.0242587562746447e-03 -1.2392393980641052e+00
    7.9389965381110334e-03 -1.1690451944500122e+00
    7.8626582598957367e-03 -1.0730867399773194e+00
    7.8439153053234869e-03 -1.0141851056742199e+00
    7.8815362180653225e-03 -1.1039701082909807e+00
    7.8626582598957367e-03 -1.0730867399773194e+00
    7.9069196532434508e-03 -1.1359236684941296e+00
    7.9069196532434508e-03 -1.1359236684941296e+00
    7.9389965381110334e-03 -1.1690451944500122e+00
    7.8815362180653225e-03 -1.1039701082909807e+00
    7.9389965381110334e-03 -1.1690451944500122e+00
    7.8501480558542495e-03 -1.0431851677040120e+00
    8.2104932447040757e-03 -1.3564659966250536e+00
    8.8580819943686728e-03 -1.6543403837370225e+00
    8.0242587562746447e-03 -1.2392393980641052e+00
    7.9780090410488131e-03 -1.2034433356286307e+00
    7.8501480558542495e-03 -1.0431851677040120e+00
    7.8501480558542495e-03 -1.0431851677040120e+00
    7.8626582598957367e-03 -9.3189111629609322e-01
    8.1400156040260224e-03 -7.6011695006609192e-01
    8.8580819943686710e-03 -6.0447052482698882e-01
    1.4098920600576536e-02 -3.0382181012510001e-01
    1.5327142612543452e-02 -2.7524094128159016e-01
    1.4098920600576536e-02 -3.0382181012510001e-01
    1.1786939891520949e-02 -3.8100038100057154e-01
    1.0464091762392323e-02 -4.5098761680169730e-01
    1.0139872527799082e-02 -4.7343207647399937e-01
    9.3859196539000378e-03 -5.3935988997059370e-01
    8.3797995775388382e-03 -6.9221865524317305e-01
    8.0242587562746447e-03 -8.0694658478592907e-01
    8.0781134463101603e-03 -7.8334945180064020e-01
    7.8815362180653242e-03 -9.0582162731567673e-01
    7.8439153053234869e-03 -9.8601329718326924e-01
    7.8501480558542495e-03 -1.0431851677040120e+00
    8.0781134463101603e-03 -1.2765694770084508e+00
    8.1400156040260241e-03 -1.3155870289605440e+00
    7.8439153053234869e-03 -9.8601329718326924e-01
    7.8815362180653225e-03 -1.1039701082909807e+00
    7.8439153053234869e-03 -1.0141851056742199e+00
    7.8439153053234869e-03 -9.8601329718326924e-01
    7.8815362180653225e-03 -1.1039701082909807e+00
    7.9780090410488131e-03 -1.2034433356286307e+00
    7.8439153053234869e-03 -9.8601329718326924e-01
    7.9069196532434508e-03 -1.1359236684941296e+00
    7.8626582598957367e-03 -1.0730867399773194e+00
    7.8501480558542495e-03 -1.0431851677040120e+00
    7.8439153053234869e-03 -9.8601329718326924e-01
    7.8439153053234869e-03 -9.8601329718326924e-01
    7.8501480558542478e-03 -9.5860258653882158e-01
    7.8626582598957367e-03 -1.0730867399773194e+00
    7.8815362180653225e-03 -1.1039701082909807e+00
    7.8501480558542495e-03 -1.0431851677040120e+00
    8.2901734757753667e-03 -1.3994046353122220e+00
    8.0781134463101603e-03 -1.2765694770084508e+00
    7.9389965381110334e-03 -1.1690451944500122e+00
    7.8501480558542495e-03 -1.0431851677040120e+00
    7.8501480558542478e-03 -9.5860258653882158e-01
    7.8815362180653242e-03 -9.0582162731567673e-01
    7.8626582598957367e-03 -9.3189111629609322e-01
    8.1400156040260224e-03 -7.6011695006609192e-01
    1.0464091762392323e-02 -4.5098761680169730e-01
    1.4098920600576536e-02 -3.0382181012510001e-01
    1.7007903037838570e-02 -2.4433888871261045e-01
    1.7007903037838570e-02 -2.4433888871261045e-01
    1.3154645874340752e-02 -3.3071891388307384e-01
    1.0837926477542770e-02 -4.2817441928883765e-01
    1.0837926477542770e-02 -4.2817441928883765e-01
    1.0464091762392323e-02 -4.5098761680169730e-01
    1.0837926477542770e-02 -4.2817441928883765e-01
    8.4802525833324038e-03 -6.7005939426048999e-01
    8.4802525833324038e-03 -6.7005939426048999e-01
    7.8815362180653242e-03 -9.0582162731567673e-01
    7.8626582598957367e-03 -1.0730867399773194e+00
    7.9389965381110334e-03 -8.5539892276830154e-01
    7.8501480558542495e-03 -1.0431851677040120e+00
    8.0242587562746447e-03 -1.2392393980641052e+00
    8.2104932447040757e-03 -1.3564659966250536e+00
    8.2104932447040757e-03 -1.3564659966250536e+00
    7.9069196532434508e-03 -1.1359236684941296e+00
    7.8626582598957367e-03 -1.0730867399773194e+00
    7.8626582598957367e-03 -9.3189111629609322e-01
    7.8501480558542478e-03 -9.5860258653882158e-01
    7.8626582598957367e-03 -9.3189111629609322e-01
    7.8626582598957367e-03 -1.0730867399773194e+00
    7.8501480558542495e-03 -1.0431851677040120e+00
    7.8439153053234869e-03 -9.8601329718326924e-01
    7.8501480558542478e-03 -9.5860258653882158e-01
    7.8439153053234869e-03 -9.8601329718326924e-01
    7.8501480558542495e-03 -1.0431851677040120e+00
    7.8815362180653242e-03 -9.0582162731567673e-01
    7.8439153053234869e-03 -1.0141851056742199e+00
    7.8815362180653242e-03 -9.0582162731567673e-01
    8.7180244445187495e-03 -1.5968719422671316e+00
    7.9389965381110334e-03 -1.1690451944500122e+00
    7.8815362180653225e-03 -1.1039701082909807e+00
    7.9069196532434508e-03 -1.1359236684941296e+00
    7.8439153053234869e-03 -9.8601329718326924e-01
    7.9069196532434508e-03 -8.8034084308295035e-01
    8.0781134463101603e-03 -7.8334945180064020e-01
    8.7180244445187495e-03 -6.2622429108514965e-01
    1.1273356753471185e-02 -4.0488816508945807e-01
    1.7007903037838570e-02 -2.4433888871261045e-01
    1.7007903037838570e-02 -2.4433888871261045e-01
    1.7007903037838570e-02 -2.4433888871261045e-01
    1.3154645874340752e-02 -3.3071891388307384e-01
    1.1786939891520949e-02 -3.8100038100057154e-01
    1.0837926477542770e-02 -4.2817441928883765e-01
    1.1786939891520949e-02 -3.8100038100057154e-01
    1.1273356753471185e-02 -4.0488816508945807e-01
    1.0139872527799082e-02 -4.7343207647399937e-01
    8.4802525833324038e-03 -6.7005939426048999e-01
    8.2901734757753667e-03 -7.1458960101049640e-01
    8.0781134463101603e-03 -7.8334945180064020e-01
    8.0781134463101603e-03 -7.8334945180064020e-01
    7.8815362180653242e-03 -9.0582162731567673e-01
    7.8815362180653242e-03 -9.0582162731567673e-01
    7.8501480558542495e-03 -1.0431851677040120e+00
    8.0242587562746447e-03 -1.2392393980641052e+00
    8.1400156040260241e-03 -1.3155870289605440e+00
    8.0242587562746447e-03 -1.2392393980641052e+00
    7.8815362180653225e-03 -1.1039701082909807e+00
    8.0242587562746447e-03 -1.2392393980641052e+00
    7.9069196532434508e-03 -1.1359236684941296e+00
    7.9389965381110334e-03 -1.1690451944500122e+00
    7.8626582598957367e-03 -1.0730867399773194e+00
    7.8815362180653225e-03 -1.1039701082909807e+00
    7.9069196532434508e-03 -8.8034084308295035e-01
    7.9069196532434508e-03 -8.8034084308295035e-01
    7.8501480558542478e-03 -9.5860258653882158e-01
    7.8626582598957367e-03 -1.0730867399773194e+00
    8.0242587562746447e-03 -1.2392393980641052e+00
    7.9389965381110334e-03 -1.1690451944500122e+00
    8.2901734757753667e-03 -1.3994046353122220e+00
    7.8501480558542495e-03 -1.0431851677040120e+00
    7.8439153053234869e-03 -9.8601329718326924e-01
    7.8501480558542478e-03 -9.5860258653882158e-01
    7.8439153053234869e-03 -1.0141851056742199e+00
    7.8501480558542478e-03 -9.5860258653882158e-01
    8.5925787037713936e-03 -6.4807406984078608e-01
    9.1896046472344940e-03 -5.6108360768678212e-01
    1.5327142612543452e-02 -2.7524094128159016e-01
    1.5327142612543452e-02 -2.7524094128159016e-01
    1.9494095287448762e-02 -2.1004201260420147e-01
    1.7007903037838570e-02 -2.4433888871261045e-01
    1.3154645874340752e-02 -3.3071891388307384e-01
    1.1273356753471185e-02 -4.0488816508945807e-01
    1.1273356753471185e-02 -4.0488816508945807e-01
    1.0837926477542770e-02 -4.2817441928883765e-01
    1.0139872527799082e-02 -4.7343207647399937e-01
    9.8563637458313723e-03 -4.9559462778335212e-01
    9.0145485264530398e-03 -5.8277151741435851e-01
    8.2901734757753667e-03 -7.1458960101049640e-01
    8.5925787037713936e-03 -6.4807406984078608e-01
    8.1400156040260224e-03 -7.6011695006609192e-01
    8.0781134463101603e-03 -7.8334945180064020e-01
    7.8439153053234869e-03 -9.8601329718326924e-01
    7.8501480558542495e-03 -1.0431851677040120e+00
    7.8439153053234869e-03 -9.8601329718326924e-01
    7.8501480558542495e-03 -1.0431851677040120e+00
    7.8439153053234869e-03 -1.0141851056742199e+00
    7.8501480558542495e-03 -1.0431851677040120e+00
    7.8439153053234869e-03 -1.0141851056742199e+00
    7.8815362180653225e-03 -1.1039701082909807e+00
    7.8501480558542495e-03 -1.0431851677040120e+00
    7.8501480558542478e-03 -9.5860258653882158e-01
    7.8626582598957367e-03 -1.0730867399773194e+00
    7.9069196532434508e-03 -8.8034084308295035e-01
    7.9069196532434508e-03 -8.8034084308295035e-01
    8.0242587562746447e-03 -8.0694658478592907e-01
    7.9780090410488131e-03 -1.2034433356286307e+00
    7.9069196532434508e-03 -1.1359236684941296e+00
    7.9780090410488131e-03 -1.2034433356286307e+00
    7.8626582598957367e-03 -1.0730867399773194e+00
    7.8501480558542495e-03 -1.0431851677040120e+00
    7.8501480558542478e-03 -9.5860258653882158e-01
    7.8439153053234869e-03 -1.0141851056742199e+00
    7.8439153053234869e-03 -1.0141851056742199e+00
    8.3797995775388382e-03 -6.9221865524317305e-01
    8.7180244445187495e-03 -6.2622429108514965e-01
    9.8563637458313723e-03 -4.9559462778335212e-01
    1.3154645874340752e-02 -3.3071891388307384e-01
    1.5327142612543452e-02 -2.7524094128159016e-01
    1.7007903037838570e-02 -2.4433888871261045e-01
    1.5327142612543452e-02 -2.7524094128159016e-01
    1.1786939891520949e-02 -3.8100038100057154e-01
    1.1273356753471185e-02 -4.0488816508945807e-01
    1.1273356753471185e-02 -4.0488816508945807e-01
    1.1273356753471185e-02 -4.0488816508945807e-01
    1.0139872527799082e-02 -4.7343207647399937e-01
    9.6067950418249320e-03 -5.1754916950676566e-01
    9.3859196539000378e-03 -5.3935988997059370e-01
    9.1896046472344940e-03 -5.6108360768678212e-01
    8.3797995775388382e-03 -6.9221865524317305e-01
    8.2901734757753667e-03 -7.1458960101049640e-01
    7.8815362180653242e-03 -9.0582162731567673e-01
    7.8626582598957367e-03 -9.3189111629609322e-01
    7.8626582598957367e-03 -9.3189111629609322e-01
    8.0242587562746447e-03 -8.0694658478592907e-01
    7.8626582598957367e-03 -1.0730867399773194e+00
    7.8439153053234869e-03 -1.0141851056742199e+00
    7.8501480558542478e-03 -9.5860258653882158e-01
    7.8501480558542495e-03 -1.0431851677040120e+00
    7.9389965381110334e-03 -1.1690451944500122e+00
    7.9389965381110334e-03 -1.1690451944500122e+00
    7.8815362180653225e-03 -1.1039701082909807e+00
    7.8439153053234869e-03 -9.8601329718326924e-01
    7.8439153053234869e-03 -1.0141851056742199e+00
    8.0242587562746447e-03 -1.2392393980641052e+00
    8.0242587562746447e-03 -1.2392393980641052e+00
    8.2901734757753667e-03 -1.3994046353122220e+00
    7.9389965381110334e-03 -1.1690451944500122e+00
    7.8626582598957367e-03 -1.0730867399773194e+00
    7.8815362180653242e-03 -9.0582162731567673e-01
    7.8501480558542495e-03 -1.0431851677040120e+00
    7.8439153053234869e-03 -1.0141851056742199e+00
    7.8439153053234869e-03 -9.8601329718326924e-01
    8.1400156040260224e-03 -7.6011695006609192e-01
    8.5925787037713936e-03 -6.4807406984078608e-01
    8.7180244445187495e-03 -6.2622429108514965e-01
    9.8563637458313723e-03 -4.9559462778335212e-01
    1.3154645874340752e-02 -3.3071891388307384e-01
    1.7007903037838570e-02 -2.4433888871261045e-01
    1.9494095287448762e-02 -2.1004201260420147e-01
    1.5327142612543452e-02 -2.7524094128159016e-01
    1.1786939891520949e-02 -3.8100038100057154e-01
    1.1273356753471185e-02 -4.0488816508945807e-01
    1.0464091762392323e-02 -4.5098761680169730e-01
    1.0464091762392323e-02 -4.5098761680169730e-01
    1.0837926477542770e-02 -4.2817441928883765e-01
    9.8563637458313723e-03 -4.9559462778335212e-01
    9.8563637458313723e-03 -4.9559462778335212e-01
    9.8563637458313723e-03 -4.9559462778335212e-01
    9.6067950418249320e-03 -5.1754916950676566e-01
    8.0781134463101603e-03 -7.8334945180064020e-01
    8.2901734757753667e-03 -7.1458960101049640e-01
    8.2901734757753667e-03 -7.1458960101049640e-01
    7.9780090410488131e-03 -8.3094896983881650e-01
    7.8501480558542478e-03 -9.5860258653882158e-01
    7.8815362180653242e-03 -9.0582162731567673e-01
    7.8815362180653225e-03 -1.1039701082909807e+00
    7.8815362180653225e-03 -1.1039701082909807e+00
    7.9780090410488131e-03 -1.2034433356286307e+00
    7.8439153053234869e-03 -1.0141851056742199e+00
    7.8501480558542478e-03 -9.5860258653882158e-01
    7.9780090410488131e-03 -1.2034433356286307e+00
    7.9780090410488131e-03 -1.2034433356286307e+00
    7.8439153053234869e-03 -1.0141851056742199e+00
    7.9069196532434508e-03 -1.1359236684941296e+00
    7.9069196532434508e-03 -1.1359236684941296e+00
    8.0242587562746447e-03 -1.2392393980641052e+00
    7.9780090410488131e-03 -1.2034433356286307e+00
    7.9389965381110334e-03 -1.1690451944500122e+00
    7.8815362180653242e-03 -9.0582162731567673e-01
    7.8501480558542478e-03 -9.5860258653882158e-01
    7.8439153053234869e-03 -9.8601329718326924e-01
    8.0242587562746447e-03 -8.0694658478592907e-01
    8.2901734757753667e-03 -7.1458960101049640e-01
    8.5925787037713936e-03 -6.4807406984078608e-01
    8.7180244445187495e-03 -6.2622429108514965e-01
    1.0837926477542770e-02 -4.2817441928883765e-01
    1.4098920600576536e-02 -3.0382181012510001e-01
    1.4098920600576536e-02 -3.0382181012510001e-01
    2.3701652425047511e-02 -1.7025130615174974e-01
    1.4098920600576536e-02 -3.0382181012510001e-01
    1.1786939891520949e-02 -3.8100038100057154e-01
    1.1273356753471185e-02 -4.0488816508945807e-01
    1.0464091762392323e-02 -4.5098761680169730e-01
    1.0464091762392323e-02 -4.5098761680169730e-01
    1.0464091762392323e-02 -4.5098761680169730e-01
    1.0837926477542770e-02 -4.2817441928883765e-01
    9.8563637458313723e-03 -4.9559462778335212e-01
    1.0139872527799082e-02 -4.7343207647399937e-01
    1.0139872527799082e-02 -4.7343207647399937e-01
    9.0145485264530398e-03 -5.8277151741435851e-01
    8.0781134463101603e-03 -7.8334945180064020e-01
    8.0781134463101603e-03 -7.8334945180064020e-01
    7.9069196532434508e-03 -8.8034084308295035e-01
    7.8626582598957367e-03 -9.3189111629609322e-01
    7.8626582598957367e-03 -9.3189111629609322e-01
    7.9389965381110334e-03 -8.5539892276830154e-01
    7.9389965381110334e-03 -1.1690451944500122e+00
    7.9780090410488131e-03 -1.2034433356286307e+00
    7.8501480558542495e-03 -1.0431851677040120e+00
    7.8439153053234869e-03 -9.8601329718326924e-01
    7.8815362180653242e-03 -9.0582162731567673e-01
    7.8439153053234869e-03 -1.0141851056742199e+00
    8.2104932447040757e-03 -1.3564659966250536e+00
    8.0242587562746447e-03 -1.2392393980641052e+00
    7.9780090410488131e-03 -1.2034433356286307e+00
    7.8501480558542478e-03 -9.5860258653882158e-01
    7.9389965381110334e-03 -8.5539892276830154e-01
    7.8501480558542478e-03 -9.5860258653882158e-01
    7.8626582598957367e-03 -9.3189111629609322e-01
    8.0781134463101603e-03 -7.8334945180064020e-01
    8.1400156040260224e-03 -7.6011695006609192e-01
    8.2104932447040757e-03 -7.3720978077448562e-01
    8.5925787037713936e-03 -6.4807406984078608e-01
    8.7180244445187495e-03 -6.2622429108514965e-01
    1.0139872527799082e-02 -4.7343207647399937e-01
    1.0837926477542770e-02 -4.2817441928883765e-01
    1.4098920600576536e-02 -3.0382181012510001e-01
    1.5327142612543452e-02 -2.7524094128159016e-01
    1.7007903037838570e-02 -2.4433888871261045e-01
    1.3154645874340752e-02 -3.3071891388307384e-01
    1.2402319069138648e-02 -3.5634832254989918e-01
    1.1273356753471185e-02 -4.0488816508945807e-01
    1.0837926477542770e-02 -4.2817441928883765e-01
    1.0837926477542770e-02 -4.2817441928883765e-01
    1.1273356753471185e-02 -4.0488816508945807e-01
    1.1273356753471185e-02 -4.0488816508945807e-01
    1.0837926477542770e-02 -4.2817441928883765e-01
    1.0464091762392323e-02 -4.5098761680169730e-01
    1.1273356753471185e-02 -4.0488816508945807e-01
    1.0837926477542770e-02 -4.2817441928883765e-01
    1.0464091762392323e-02 -4.5098761680169730e-01
    8.4802525833324038e-03 -6.7005939426048999e-01
    8.1400156040260224e-03 -7.6011695006609192e-01
    7.8626582598957367e-03 -9.3189111629609322e-01
    7.9069196532434508e-03 -8.8034084308295035e-01
    7.9389965381110334e-03 -8.5539892276830154e-01
    7.8439153053234869e-03 -9.8601329718326924e-01
    7.8815362180653225e-03 -1.1039701082909807e+00
    7.8501480558542495e-03 -1.0431851677040120e+00
    7.8626582598957367e-03 -9.3189111629609322e-01
    7.8815362180653242e-03 -9.0582162731567673e-01
    8.1400156040260241e-03 -1.3155870289605440e+00
    8.0242587562746447e-03 -1.2392393980641052e+00
    8.1400156040260241e-03 -1.3155870289605440e+00
    7.8626582598957367e-03 -9.3189111629609322e-01
    7.8501480558542495e-03 -1.0431851677040120e+00
    7.8501480558542478e-03 -9.5860258653882158e-01
    7.8626582598957367e-03 -9.3189111629609322e-01
    8.0781134463101603e-03 -7.8334945180064020e-01
    8.1400156040260224e-03 -7.6011695006609192e-01
    9.0145485264530398e-03 -5.8277151741435851e-01
    8.8580819943686710e-03 -6.0447052482698882e-01
    8.8580819943686710e-03 -6.0447052482698882e-01
    9.8563637458313723e-03 -4.9559462778335212e-01
    1.1273356753471185e-02 -4.0488816508945807e-01
    1.1786939891520949e-02 -3.8100038100057154e-01
    1.4098920600576536e-02 -3.0382181012510001e-01
    2.3701652425047511e-02 -1.7025130615174974e-01
    1.7007903037838570e-02 -2.4433888871261045e-01
    1.4098920600576536e-02 -3.0382181012510001e-01
    1.4098920600576536e-02 -3.0382181012510001e-01
    1.1786939891520949e-02 -3.8100038100057154e-01
    1.1273356753471185e-02 -4.0488816508945807e-01
    1.1786939891520949e-02 -3.8100038100057154e-01
    1.2402319069138648e-02 -3.5634832254989918e-01
    1.2402319069138648e-02 -3.5634832254989918e-01
    1.3154645874340752e-02 -3.3071891388307384e-01
    1.4098920600576536e-02 -3.0382181012510001e-01
    1.2402319069138648e-02 -3.5634832254989918e-01
    1.2402319069138648e-02 -3.5634832254989918e-01
    1.1273356753471185e-02 -4.0488816508945807e-01
    1.0464091762392323e-02 -4.5098761680169730e-01
    9.6067950418249320e-03 -5.1754916950676566e-01
    8.5925787037713936e-03 -6.4807406984078608e-01
    8.4802525833324038e-03 -6.7005939426048999e-01
    8.1400156040260224e-03 -7.6011695006609192e-01
    8.0242587562746447e-03 -8.0694658478592907e-01
    7.8439153053234869e-03 -9.8601329718326924e-01
    7.8501480558542495e-03 -1.0431851677040120e+00
    7.8501480558542495e-03 -1.0431851677040120e+00
    7.8439153053234869e-03 -9.8601329718326924e-01
    7.9389965381110334e-03 -1.1690451944500122e+00
    8.0242587562746447e-03 -1.2392393980641052e+00
    7.8626582598957367e-03 -1.0730867399773194e+00
    7.8439153053234869e-03 -9.8601329718326924e-01
    7.8439153053234869e-03 -9.8601329718326924e-01
    7.9389965381110334e-03 -8.5539892276830154e-01
    8.0781134463101603e-03 -7.8334945180064020e-01
    8.3797995775388382e-03 -6.9221865524317305e-01
    8.3797995775388382e-03 -6.9221865524317305e-01
    9.1896046472344940e-03 -5.6108360768678212e-01
    9.1896046472344940e-03 -5.6108360768678212e-01
    1.1273356753471185e-02 -4.0488816508945807e-01
    1.4098920600576536e-02 -3.0382181012510001e-01
    1.3154645874340752e-02 -3.3071891388307384e-01
    1.3154645874340752e-02 -3.3071891388307384e-01
    1.5327142612543452e-02 -2.7524094128159016e-01
    1.7007903037838570e-02 -2.4433888871261045e-01 1. 0.
    1.9494095287448762e-02 -2.1004201260420147e-01
    1.7007903037838570e-02 -2.4433888871261045e-01
    1.5327142612543452e-02 -2.7524094128159016e-01
    1.5327142612543452e-02 -2.7524094128159016e-01
    1.5327142612543452e-02 -2.7524094128159016e-01
    1.5327142612543452e-02 -2.7524094128159016e-01
    1.5327142612543452e-02 -2.7524094128159016e-01
    1.5327142612543452e-02 -2.7524094128159016e-01
    1.5327142612543452e-02 -2.7524094128159016e-01
    1.5327142612543452e-02 -2.7524094128159016e-01
    1.4098920600576536e-02 -3.0382181012510001e-01
    1.3154645874340752e-02 -3.3071891388307384e-01
    1.1786939891520949e-02 -3.8100038100057154e-01
    1.1786939891520949e-02 -3.8100038100057154e-01
    1.1273356753471185e-02 -4.0488816508945807e-01
    9.3859196539000378e-03 -5.3935988997059370e-01
    8.4802525833324038e-03 -6.7005939426048999e-01
    7.9389965381110334e-03 -8.5539892276830154e-01
    8.2901734757753667e-03 -7.1458960101049640e-01
    8.2104932447040757e-03 -7.3720978077448562e-01
    7.8501480558542478e-03 -9.5860258653882158e-01
    8.0242587562746447e-03 -8.0694658478592907e-01
    7.8815362180653225e-03 -1.1039701082909807e+00
    8.0781134463101603e-03 -7.8334945180064020e-01
    7.8439153053234869e-03 -9.8601329718326924e-01
    8.0242587562746447e-03 -8.0694658478592907e-01
    7.9780090410488131e-03 -8.3094896983881650e-01
    8.1400156040260224e-03 -7.6011695006609192e-01
    8.2901734757753667e-03 -7.1458960101049640e-01
    8.4802525833324038e-03 -6.7005939426048999e-01
    9.6067950418249320e-03 -5.1754916950676566e-01
    1.0464091762392323e-02 -4.5098761680169730e-01
    1.4098920600576536e-02 -3.0382181012510001e-01
    1.5327142612543452e-02 -2.7524094128159016e-01
    1.5327142612543452e-02 -2.7524094128159016e-01
    1.7007903037838570e-02 -2.4433888871261045e-01
    1.7007903037838570e-02 -2.4433888871261045e-01
    1.7007903037838570e-02 -2.4433888871261045e-01
    1.7007903037838570e-02 -2.4433888871261045e-01
    3.3278914220683117e-02 -1.1952286093343936e-01
    1.7007903037838570e-02 -2.4433888871261045e-01
    1.7007903037838570e-02 -2.4433888871261045e-01
    1.7007903037838570e-02 -2.4433888871261045e-01
    1.9494095287448762e-02 -2.1004201260420147e-01
    2.3701652425047511e-02 -1.7025130615174974e-01
    1.9494095287448762e-02 -2.1004201260420147e-01
    1.9494095287448762e-02 -2.1004201260420147e-01
    1.9494095287448762e-02 -2.1004201260420147e-01
    1.9494095287448762e-02 -2.1004201260420147e-01
    1.9494095287448762e-02 -2.1004201260420147e-01
    1.9494095287448762e-02 -2.1004201260420147e-01
    1.7007903037838570e-02 -2.4433888871261045e-01
    1.7007903037838570e-02 -2.4433888871261045e-01
    1.9494095287448762e-02 -2.1004201260420147e-01
    1.9494095287448762e-02 -2.1004201260420147e-01
    1.1273356753471185e-02 -4.0488816508945807e-01
    1.1786939891520949e-02 -3.8100038100057154e-01
    1.1273356753471185e-02 -4.0488816508945807e-01
    1.0464091762392323e-02 -4.5098761680169730e-01
    8.3797995775388382e-03 -6.9221865524317305e-01
    8.5925787037713936e-03 -6.4807406984078608e-01
    1.1273356753471185e-02 -4.0488816508945807e-01
    9.0145485264530398e-03 -5.8277151741435851e-01
    8.0242587562746447e-03 -8.0694658478592907e-01
    8.3797995775388382e-03 -6.9221865524317305e-01
    8.1400156040260224e-03 -7.6011695006609192e-01
    8.1400156040260224e-03 -7.6011695006609192e-01
    8.2104932447040757e-03 -7.3720978077448562e-01
    8.4802525833324038e-03 -6.7005939426048999e-01
    9.1896046472344940e-03 -5.6108360768678212e-01
    1.1786939891520949e-02 -3.8100038100057154e-01
    1.5327142612543452e-02 -2.7524094128159016e-01
    1.5327142612543452e-02 -2.7524094128159016e-01
    1.5327142612543452e-02 -2.7524094128159016e-01
    1.7007903037838570e-02 -2.4433888871261045e-01
    1.9494095287448762e-02 -2.1004201260420147e-01
    1.9494095287448762e-02 -2.1004201260420147e-01
    1.9494095287448762e-02 -2.1004201260420147e-01
    1.7007903037838570e-02 -2.4433888871261045e-01</input_scale>
  <output_scale>
    1.0526315789473684e+00 0.</output_scale>
  <inv_output_scale>
    9.4999999999999996e-01 0.</inv_output_scale>
  <weights>
    <_>
      -1.1719048386403424e-03 -2.2903224389177911e-04
      -9.9637750405231888e-04 -5.5088375721748159e-04
      2.2039270841974236e-04 1.2144499427915077e-03
      9.9728247011042037e-04 2.0453599492093418e-04
      -7.2831549546728146e-04 -4.2920232853557353e-04
      -1.1054717958401724e-03 -1.2409612586460942e-04
      -2.1397120762249158e-05 -7.8018402384446585e-04
      6.7194088742161514e-04 -1.1208781013474275e-03
      1.1037170489498088e-03 1.0083693640301039e-03
      -2.5698247005999147e-04 -3.4383640164285737e-05
      3.0002183913935715e-04 -7.7645728251324352e-04
      -6.5397802009701264e-04 9.5527311481024093e-04
      -1.0954164450422850e-03 -3.1663012947851025e-04
      6.1523554708813478e-04 -6.3403300196013517e-04
      1.0630743572223426e-03 -2.4215284090006096e-04
      1.2150750992007805e-03 -3.7732545206526025e-04
      2.2581237915161135e-04 8.1166924113520002e-04
      1.1322676431532379e-03 5.1786688077618958e-04
      8.1904968067006900e-04 5.2277548999592920e-04
      1.2256443938238879e-03 -1.5902424652943092e-04
      3.8911550257256733e-01 1.2295461479309752e-01
      9.9742789865612150e-02 4.0546705171242849e-02
      -8.9198280984418399e-02 2.2084759201859514e-02
      -3.8926648510549965e-02 -7.7546343082983027e-02
      -1.1329757039199853e-02 1.5451706974913090e-01
      3.4647889743362130e-02 7.7836363190005850e-02
      3.7505684452205444e-02 -5.2837941023777826e-02
      -9.2059347166250118e-03 3.3700608231564635e-02
      -1.2948052571622843e-02 6.6104367352260343e-02
      -1.5580736310245916e-01 1.5722557175809979e-01
      -7.2433755054808951e-02 1.9457946192008281e-02
      1.2279335530600120e-02 1.0114256893197197e-01
      3.2887427842662138e-02 -1.7206583077434355e-02
      1.3289485417540109e-01 -1.4014760825089120e-01
      3.9928121474367931e-02 3.2913909946530630e-02
      -1.0759823984954582e-01 -1.2754038568325582e-01
      1.5924778174429327e-01 4.3218011754557382e-02
      5.7954936386227014e-02 1.7743345512445403e-02
      1.0008637683881380e-01 4.7841672074629235e-02
      -1.1523021510612015e-01 -9.4186613499555039e-02
      -4.5548821285302132e-02 -1.3161380157533816e-02
      -1.0726050482166360e-02 -5.7148608639381784e-03
      9.8107711822291339e-03 -1.7087955627714793e-03
      4.5291704418274148e-03 8.2826205423052884e-03
      1.0274864877472321e-03 -1.3468297489407385e-02
      -5.1260991897851254e-03 -9.6314978662281232e-03
      -3.9880447366200094e-03 5.5080796155538006e-03
      1.7494445139164935e-03 -5.0030502848292021e-03
      2.4740732775345047e-03 -6.6924962037016996e-03
      1.1925227632965075e-02 -1.2211483914289178e-02
      8.8774496063288837e-03 -1.4279748449982309e-03
      -2.2450335501401127e-03 -9.3494848285542442e-03
      -4.2575595000166229e-03 3.1366041357408551e-03
      -1.3407590412876737e-02 1.2146615896070504e-02
      -3.6139321348746586e-03 -4.5100996082992747e-03
      1.1803800917073936e-02 1.2845971402082284e-02
      -1.4117024752803417e-02 -6.0939131425475556e-03
      -5.9820461605954419e-03 -9.7953957345813750e-04
      -1.1771768925759303e-02 -5.4782875420335067e-03
      1.0179743330304438e-02 1.0416927946723701e-02
      -1.8762835744441919e-01 -4.6332045536588741e-02
      -3.8734751137473905e-02 -1.9303263104381112e-02
      3.7183566724261707e-02 -1.1569623716562892e-02
      1.8976209952433435e-02 3.2884757368290635e-02
      6.4438055563428177e-03 -4.7428320542091819e-02
      -1.6767476117947055e-02 -3.2593766772988676e-02
      -1.7089760550448817e-02 2.3987172451604338e-02
      3.9002621556909886e-03 -1.5378414775713941e-02
      7.2076226319989440e-03 -2.8598612690713891e-02
      4.8157513046907963e-02 -4.7931190015328383e-02
      3.1746605026545686e-02 -9.5570481669666300e-03
      -5.0576259327416110e-03 -4.0589648078711876e-02
      -1.4468605316965791e-02 8.0974534409575128e-03
      -5.7065160972434435e-02 5.9795700729662629e-02
      -1.7530152340605856e-02 -1.5454368411918870e-02
      4.3206308271961903e-02 4.6686739629067088e-02
      -4.4114040989145058e-02 -2.1005773881275606e-02
      -2.6059617472422952e-02 -8.6368764571489454e-03
      -3.8511288028226350e-02 -2.1689373007721634e-02
      4.4859527083943591e-02 3.7230407308731797e-02
      -2.0945718809200285e-02 1.9492477550304389e-03
      1.3631732806014193e-03 -2.4387475624287926e-03
      -1.3629700258464355e-03 5.9630919965606580e-05
      2.3871810634883703e-03 1.4214449569256334e-03
      5.0068862282995023e-05 1.0912259035428433e-02
      -1.4664789454798461e-03 -1.5023092716326429e-03
      -7.1009767669735541e-04 1.2221688835205829e-03
      -3.9941179320304444e-04 -2.3827039501809542e-03
      1.7186378304639373e-03 -1.2878145367726721e-03
      -1.0229527710430104e-02 1.2266210947357010e-02
      -7.0976642894605979e-05 -1.3067970629401962e-03
      -1.5514747658953621e-03 1.9204018180102372e-03
      -5.4644382242747809e-04 1.5737512992229853e-03
      -1.8612503323192429e-03 2.2451977548682547e-03
      -2.9197296877195239e-03 -1.6256627428532940e-03
      -7.4950968826470465e-04 -2.7701244410953249e-03
      1.4120669516033725e-02 -2.0881218366620145e-03
      -2.8933250224302599e-03 -1.1396032490904951e-04
      5.4336799661258825e-04 -6.5969447285122655e-04
      -2.6303543184193080e-03 1.4490459295683300e-04
      -2.0519954643233633e-02 5.7825510257737331e-04
      2.2139403507556942e-03 -1.8088189086186556e-03
      -2.1888380709637149e-04 -1.2897701028269936e-03
      1.8763529999232156e-03 9.6393437879938948e-04
      2.0293401260519393e-04 1.1126433287419983e-02
      -2.7071032761686767e-03 -1.9105882554811301e-03
      -5.1622266583534768e-04 8.1597148461942898e-04
      1.2001654783588707e-03 -1.9244057297481598e-03
      1.0188943433251140e-03 -2.6854084191130188e-03
      -1.2153145225376595e-02 1.2114416859011093e-02
      -6.1392364406706590e-05 8.3787424207905418e-05
      -1.2390360433281374e-04 2.0332460440873885e-03
      -2.5368434362616917e-03 8.7843686332134639e-04
      -2.5967780308882590e-04 1.4888086305616555e-03
      -2.4257929898546106e-03 -1.3508278288225596e-03
      -1.3964933352787190e-03 -2.8687914597107156e-03
      1.5597706888712962e-02 -1.1891010766198315e-03
      -1.6835834864788318e-03 -2.0778659384293463e-04
      1.3222609297903680e-03 -6.7290120086077674e-04
      -1.5747037622313067e-03 -1.2807479620269172e-03
      -1.8684810235601823e-01 -4.7760736998697019e-02
      -3.8268325194332521e-02 -1.8576417225876725e-02
      3.5449273799207183e-02 -1.1729281808158862e-02
      1.7282470134911045e-02 3.2367932464356639e-02
      6.8866823380871606e-03 -4.6624600900087611e-02
      -1.7260234856873634e-02 -3.2719026962270838e-02
      -1.7649559113468424e-02 2.4858282983704020e-02
      5.0063750044112721e-03 -1.5000098504225753e-02
      5.5009267854548346e-03 -3.0524910940046081e-02
      4.8514228277124614e-02 -4.5968956593415537e-02
      3.1204131477841377e-02 -7.9503098930204831e-03
      -5.0674214911106529e-03 -4.0838273532726940e-02
      -1.6731150803021840e-02 9.1612185849479829e-03
      -5.6709190874260205e-02 6.1771352360322843e-02
      -1.9403952993857054e-02 -1.5539856727513113e-02
      4.3322831068891961e-02 4.6284916373705499e-02
      -4.4772324938399242e-02 -2.1059938615293997e-02
      -2.5722142009604515e-02 -7.6456671312307876e-03
      -3.9941520543357242e-02 -2.1448943858490315e-02
      4.3266943569318005e-02 3.8053602915122033e-02
      -1.8665454609497861e-01 -4.7778280026457717e-02
      -4.0496900726270026e-02 -1.9867619039377546e-02
      3.5567886559434561e-02 -1.0168832896916518e-02
      1.8871852813062983e-02 3.3704367116691572e-02
      7.2882087081974165e-03 -4.6887554214850934e-02
      -1.5769034618256260e-02 -3.1963077584695056e-02
      -1.8595677028539970e-02 2.5386643262138357e-02
      5.1920320917878951e-03 -1.6763068930774096e-02
      5.2747637479948709e-03 -2.9150212667744778e-02
      4.8228975747670363e-02 -4.6331854790061522e-02
      3.1642224744506099e-02 -9.5863495978108799e-03
      -5.4239247227298188e-03 -3.9741900123559916e-02
      -1.5630523895669400e-02 6.9411906746604333e-03
      -5.7942081822902440e-02 5.9975466842640893e-02
      -1.8101222248342826e-02 -1.5980734962261975e-02
      4.1586632493133747e-02 4.5132605762637480e-02
      -4.4481856430888908e-02 -2.0688516505659480e-02
      -2.6440301056454268e-02 -7.9709779091180922e-03
      -3.8648525603005926e-02 -2.2673460079729507e-02
      4.5206549533447271e-02 3.8470159115264919e-02
      -4.0510137195657298e-02 -7.3919516242271473e-03
      -1.0758768686669131e-03 -2.0347947365201352e-03
      1.3491362179085514e-03 -1.0715299081114082e-03
      1.7720495134217514e-03 1.7478937865990972e-03
      8.9840384961970682e-04 -9.9062608685712567e-03
      -3.4243200033868128e-03 -2.2883148548669941e-03
      -2.9713173669840124e-03 2.0202275581689896e-03
      3.3679801936344907e-04 -3.3483466472414873e-03
      1.0256656886926370e-03 -3.9418301620741123e-03
      8.2995469290395359e-03 -8.7189722781252661e-03
      2.8642998400946521e-03 -2.5598807834347945e-03
      8.5801180856950781e-05 -4.9137516418199289e-03
      -3.0520643362711899e-03 9.3598434491182951e-04
      -1.4316897320218904e-02 1.5826258644340903e-02
      -4.1070123655312669e-03 -1.4927999835717509e-03
      9.7951707566769665e-03 -1.3602067768864747e-03
      -8.1684346925759242e-03 -3.0236286551201651e-03
      -4.3377502703580897e-03 -1.5122232671952126e-03
      -5.6918244961101075e-04 -3.7852271063225145e-03
      6.3321388675461766e-03 2.8265635176091537e-03
      -1.8668875362982051e-01 -4.8107014166258608e-02
      -3.8864137732234780e-02 -1.9971418601642105e-02
      3.6288502551739342e-02 -1.0944482289273362e-02
      1.7820099146333663e-02 3.3072196748755368e-02
      4.9232182811250417e-03 -4.6507083338647497e-02
      -1.6768815985908087e-02 -3.2181653358650066e-02
      -1.8290032044403954e-02 2.5180308936850537e-02
      5.6599310676702635e-03 -1.6778876139461392e-02
      7.0178189206655762e-03 -2.8188047459500060e-02
      4.9018526710740716e-02 -4.6056612472606076e-02
      3.1279216065472758e-02 -8.6973438810503730e-03
      -7.2669093202757610e-03 -4.0387952993865397e-02
      -1.4534721870314449e-02 8.5633975686793557e-03
      -5.6853761448528210e-02 6.1275798549771693e-02
      -1.9357489659544553e-02 -1.5707133671190705e-02
      4.2627387761411513e-02 4.5030545732024217e-02
      -4.5245201301499317e-02 -2.0161976107491777e-02
      -2.6572149675573500e-02 -1.0010098909234535e-02
      -3.8808533000246934e-02 -2.1564603549463029e-02
      4.3114113667361141e-02 3.7721369168756833e-02
      -3.9964680026938537e-02 -8.3710354180722060e-03
      -7.9484120430388958e-04 -2.8168538491668057e-03
      3.3918689971677548e-03 -1.1281289969999519e-03
      1.7127479473820248e-03 1.9719338734815782e-03
      1.8302113199694956e-03 -9.1779728497262264e-03
      -1.6554216084612116e-03 -3.4845016830254800e-03
      -1.9767166392802948e-03 4.0536060826667671e-03
      5.2488136047004795e-04 -3.4803451019089207e-03
      8.3955561307235077e-04 -4.4710676326668161e-03
      8.3263264740931122e-03 -9.5009603497128812e-03
      1.8094849932439195e-03 -8.2135381661559105e-04
      3.2792265093474209e-06 -3.3524595561537345e-03
      -2.7827891453779657e-03 2.2239515130896624e-03
      -1.5638274631330999e-02 1.5676402952748122e-02
      -3.3597023357799078e-03 -2.3104175267850097e-03
      1.0179314106187182e-02 -1.2340344684180083e-03
      -8.2038940366356717e-03 -3.4610810828155205e-03
      -4.6601791275321372e-03 -2.5139780407634682e-03
      -7.5654059221352203e-04 -2.3405497299354527e-03
      6.6388370790352955e-03 2.3610384458328860e-03
      -4.1393687472905727e-02 -7.3005563721138802e-03
      -1.7558021079842155e-04 -3.1168287561918924e-03
      1.2444176034273663e-03 -2.3322632133937170e-03
      2.2574658867837816e-03 3.4840671007021770e-03
      1.2261695290549702e-03 -1.0521328832626457e-02
      -2.2515405582907871e-03 -3.5623449733912021e-03
      -1.7925488606633203e-03 2.0500937402798550e-03
      1.1605724616920769e-04 -1.6800694338706340e-03
      4.2608180790574803e-04 -2.5527473314785635e-03
      9.5679102383446468e-03 -7.3013535362860277e-03
      3.0477319755129856e-03 -1.5068251592884052e-03
      -2.1223507313583440e-03 -3.1003598882157739e-03
      -2.0736178331229025e-03 2.3579805006433891e-03
      -1.5007032301078626e-02 1.5126739782435446e-02
      -2.5067882840248816e-03 -3.3593251329477256e-03
      1.0799959395892015e-02 -6.3843149179231907e-04
      -7.3823381893685838e-03 -3.7412455515098775e-03
      -2.4944500045047556e-03 -1.8755638698121431e-03
      -8.4646318195674046e-04 -4.2983488145926377e-03
      7.9967387548083614e-03 2.5996523137560624e-03
      -3.9878079655201321e-02 -9.4000923464477634e-03
      -1.5081570596980072e-03 -1.8510979711504894e-03
      3.2625801140813955e-03 -2.6558688722807390e-03
      2.8628439961225789e-03 3.0621211010222783e-03
      2.2468778597553056e-03 -1.0392767640903182e-02
      -3.7558706293569321e-03 -1.7305079873518609e-03
      -3.4780262825736060e-03 3.4216203492263625e-03
      1.0331782375657434e-03 -1.9731144469773594e-03
      4.6725376730148244e-04 -2.7460887237915330e-03
      8.3732590400700784e-03 -8.7108027985283460e-03
      3.0378101425323225e-03 -2.8115413158604856e-03
      -6.8325886078145692e-04 -3.3797476026597700e-03
      -3.5433746108950847e-03 1.4600599308586995e-03
      -1.5252105491878424e-02 1.6153737482518152e-02
      -3.4271949187617153e-03 -2.9315029800380150e-03
      9.6140291361852710e-03 -1.2742022709906905e-03
      -6.9201845571454845e-03 -3.1911373674813935e-03
      -3.5818445864036971e-03 -2.1388171643818878e-03
      -2.3876612445284631e-03 -3.4714883852416277e-03
      8.1868519663810951e-03 1.0207735236874337e-03
      4.0981549634129991e-02 1.6908683412671419e-02
      1.9506656452754588e-02 4.5907216617700180e-03
      -1.6569392453757645e-02 2.7928965015338956e-03
      -4.6966160458140364e-03 -1.2109930946930301e-02
      -1.3957363293504530e-03 2.4177550503709785e-02
      3.7404688690042967e-03 1.2120074299267324e-02
      5.1796238405390233e-03 -8.1788737878462966e-03
      1.2216645112319817e-04 3.2224982300848469e-03
      -2.2202009248949717e-03 8.7447740987934251e-03
      -2.5703753312301531e-02 2.7022842563022561e-02
      -1.3163121503335826e-02 2.9875533594321789e-03
      8.6814294244902585e-04 1.7888081605100890e-02
      3.9108390017882086e-03 -1.9420285169064807e-03
      1.6042196239954967e-02 -1.6195150686285929e-02
      4.3640605922713738e-03 3.7505046055930479e-03
      -1.5288422658109559e-02 -2.5807933258360276e-02
      2.6937893896554179e-02 5.7536197434063753e-03
      7.6884988001293701e-03 1.7936231635317533e-03
      1.7344690881346613e-02 5.6111665398733751e-03
      -1.8851145139272097e-02 -1.6616930892299365e-02
      3.7660850986885500e-02 1.3639037509343662e-02
      1.0231642967017665e-02 4.2670101125580851e-03
      -1.0448073078915735e-02 2.3551617660409734e-03
      -2.9687451193477839e-03 -7.5813744612803343e-03
      -6.1762077813947932e-04 2.2508965437381553e-02
      3.4155005637242879e-03 8.1688015144993319e-03
      4.1673593211520015e-03 -3.6883713490154365e-03
      -1.6572144730101468e-03 2.0910706677552955e-03
      -1.5293265912614065e-03 5.9741693608435977e-03
      -2.1169971049443091e-02 2.2404702287261595e-02
      -6.5920706354555521e-03 1.2586670621698485e-03
      1.6509892422746444e-03 1.2544871525434905e-02
      2.1386609025189382e-03 -7.4029356796926054e-04
      1.5793012785395431e-02 -1.7562335127285535e-02
      2.5481953613057120e-03 2.5480523418942016e-03
      -1.3455129755687290e-02 -1.4051491308493870e-02
      2.3282013682270578e-02 4.2413345267595243e-03
      5.7335773739400457e-03 2.5430125482455422e-04
      1.0173880285483288e-02 5.4695398979936211e-03
      -1.5080603011860748e-02 -1.1121067625216067e-02
      3.2653487733529156e-02 1.2651865459526715e-02
      1.0789103187832933e-02 2.5797826004380735e-03
      -1.0408672952396617e-02 2.3068069577395619e-03
      -3.2408104321850558e-03 -8.5320841828815074e-03
      -1.5295792667308124e-03 2.5731208332286142e-02
      3.0515793537763476e-03 6.6678621440598267e-03
      3.7939856417190895e-03 -5.2482862104732998e-03
      6.1451962645399502e-04 1.5925582749570896e-03
      -5.6940410356259537e-04 5.1804956759805626e-03
      -2.5844222159296201e-02 2.5292124566460454e-02
      -7.2226446315454187e-03 2.2794153655575373e-03
      -1.8869678717327621e-04 1.2840292155290808e-02
      1.8141517848186569e-03 -1.4305567912557987e-03
      1.7237051656864639e-02 -1.9863434048589951e-02
      4.0876671261493216e-03 1.7955475888599571e-03
      -1.5300053656425144e-02 -1.5622676652582415e-02
      2.7390165548260036e-02 4.3387008723059601e-03
      4.9123768603162960e-03 5.7099096265015648e-04
      1.0391355545925827e-02 4.7582316082729415e-03
      -1.6248350065553103e-02 -1.0341884636156510e-02
      3.1874959264673965e-02 1.2948009164349962e-02
      1.1940018090999410e-02 4.3112240183201291e-03
      -1.0011505481448815e-02 4.4404012127609424e-04
      -3.3513930049457693e-03 -9.2763098897173032e-03
      -8.4911449318232082e-04 2.5140717244914013e-02
      1.6772445507031569e-03 8.8141054039188073e-03
      3.4265643980726313e-03 -3.7684579623973175e-03
      -8.9987965991757590e-04 2.8859229337657821e-03
      -1.1091964710487394e-04 7.1031348791505888e-03
      -2.4099271029895168e-02 2.6816368276487108e-02
      -7.1665724258727507e-03 2.8639941039899897e-04
      -1.1709633778828231e-04 1.2676360712875947e-02
      2.4402887020344411e-03 -1.8157320094059242e-03
      1.6601549175080516e-02 -1.9623964195675227e-02
      2.2605620620519884e-03 3.0830410018157527e-03
      -1.5341465632236751e-02 -1.3481062398707952e-02
