<?xml version="1.0"?>
<opencv_storage>
<shapeML type_id="opencv-ml-ann-mlp">
  <layer_sizes type_id="opencv-matrix">
    <rows>1</rows>
    <cols>3</cols>
    <dt>i</dt>
    <data>
      1600 40 1</data></layer_sizes>
  <activation_function>SIGMOID_SYM</activation_function>
  <f_param1>5.9999999999999998e-01</f_param1>
  <f_param2>1.</f_param2>
  <min_val>-9.4999999999999996e-01</min_val>
  <max_val>9.4999999999999996e-01</max_val>
  <min_val1>-9.7999999999999998e-01</min_val1>
  <max_val1>9.7999999999999998e-01</max_val1>
  <training_params>
    <train_method>BACKPROP</train_method>
    <dw_scale>1.0000000000000001e-01</dw_scale>
    <moment_scale>1.0000000000000001e-01</moment_scale>
    <term_criteria><epsilon>9.9999999747524271e-07</epsilon>
      <iterations>4000</iterations></term_criteria></training_params>
  <input_scale>
    1. 0. 3.3509129172532327e-02 -1.1867816581938533e-01
    3.3509129172532327e-02 -1.1867816581938533e-01
    3.3509129172532327e-02 -1.1867816581938533e-01
    1.9624886028901153e-02 -2.0851441405707474e-01
    1.9624886028901153e-02 -2.0851441405707474e-01
    3.3509129172532327e-02 -1.1867816581938533e-01
    3.3509129172532327e-02 -1.1867816581938533e-01
    2.3863178957040466e-02 -1.6903085094570330e-01
    3.3509129172532327e-02 -1.1867816581938533e-01
    1.9624886028901153e-02 -2.0851441405707474e-01
    1.9624886028901153e-02 -2.0851441405707474e-01
    1.9624886028901153e-02 -2.0851441405707474e-01
    1.5426589121171381e-02 -2.7317918235407651e-01
    1.7120161767270561e-02 -2.4253562503633294e-01
    1.1857708957152227e-02 -3.7796447300922725e-01
    1.1857708957152227e-02 -3.7796447300922725e-01
    2.3863178957040466e-02 -1.6903085094570330e-01
    1.7120161767270561e-02 -2.4253562503633294e-01
    9.4327497145561545e-03 -5.3452248382484868e-01
    8.6277505602655180e-03 -6.4168894791974795e-01
    9.9086457366154793e-03 -4.9130368444051753e-01
    1.2478354962115544e-02 -3.5355339059327373e-01
    1.3236910050028106e-02 -3.2816506165694681e-01 1. 0.
    3.3509129172532327e-02 -1.1867816581938533e-01
    2.3863178957040466e-02 -1.6903085094570330e-01
    1.7120161767270561e-02 -2.4253562503633294e-01
    1.9624886028901153e-02 -2.0851441405707474e-01
    2.3863178957040466e-02 -1.6903085094570330e-01
    1.9624886028901153e-02 -2.0851441405707474e-01
    3.3509129172532327e-02 -1.1867816581938533e-01
    2.3863178957040466e-02 -1.6903085094570330e-01
    3.3509129172532327e-02 -1.1867816581938533e-01
    1.9624886028901153e-02 -2.0851441405707474e-01
    1.9624886028901153e-02 -2.0851441405707474e-01
    3.3509129172532327e-02 -1.1867816581938533e-01
    3.3509129172532327e-02 -1.1867816581938533e-01 1. 0.
    3.3509129172532327e-02 -1.1867816581938533e-01
    3.3509129172532327e-02 -1.1867816581938533e-01
    2.3863178957040466e-02 -1.6903085094570330e-01
    3.3509129172532327e-02 -1.1867816581938533e-01
    2.3863178957040466e-02 -1.6903085094570330e-01
    1.7120161767270561e-02 -2.4253562503633294e-01
    1.7120161767270561e-02 -2.4253562503633294e-01
    1.7120161767270561e-02 -2.4253562503633294e-01
    1.7120161767270561e-02 -2.4253562503633294e-01
    1.7120161767270561e-02 -2.4253562503633294e-01
    1.7120161767270561e-02 -2.4253562503633294e-01
    1.1339566996270572e-02 -4.0160966445124940e-01
    1.1857708957152227e-02 -3.7796447300922725e-01
    1.0522672835293128e-02 -4.4721359549995793e-01
    9.2339285670738156e-03 -5.5595944914256934e-01
    8.8976963528930031e-03 -5.9874081708009175e-01
    8.5132614939603841e-03 -6.6332495807107994e-01
    8.4106654409576379e-03 -6.8511878904467427e-01
    8.0442759853862084e-03 -7.9772403521746571e-01
    8.0442759853862084e-03 -7.9772403521746571e-01
    8.3189033080770299e-03 -7.0710678118654757e-01
    7.9198971311042043e-03 -8.6953870585248250e-01
    8.3189033080770299e-03 -7.0710678118654757e-01
    8.4106654409576379e-03 -6.8511878904467427e-01
    8.7553930298264783e-03 -6.2017367294604220e-01
    9.2339285670738156e-03 -5.5595944914256934e-01
    1.0195173807164032e-02 -4.6940279403817725e-01
    1.3236910050028106e-02 -3.2816506165694681e-01
    1.3236910050028106e-02 -3.2816506165694681e-01
    1.2478354962115544e-02 -3.5355339059327373e-01
    1.3236910050028106e-02 -3.2816506165694681e-01
    1.5426589121171381e-02 -2.7317918235407651e-01
    1.4188769156600639e-02 -3.0151134457776357e-01
    1.3236910050028106e-02 -3.2816506165694681e-01
    1.5426589121171381e-02 -2.7317918235407651e-01
    1.5426589121171381e-02 -2.7317918235407651e-01
    1.7120161767270561e-02 -2.4253562503633294e-01
    2.3863178957040466e-02 -1.6903085094570330e-01
    2.3863178957040466e-02 -1.6903085094570330e-01
    2.3863178957040466e-02 -1.6903085094570330e-01
    2.3863178957040466e-02 -1.6903085094570330e-01 1. 0.
    2.3863178957040466e-02 -1.6903085094570330e-01
    2.3863178957040466e-02 -1.6903085094570330e-01
    2.3863178957040466e-02 -1.6903085094570330e-01
    1.7120161767270561e-02 -2.4253562503633294e-01
    1.4188769156600639e-02 -3.0151134457776357e-01
    1.3236910050028106e-02 -3.2816506165694681e-01
    1.4188769156600639e-02 -3.0151134457776357e-01
    1.0195173807164032e-02 -4.6940279403817725e-01
    1.0195173807164032e-02 -4.6940279403817725e-01
    9.0564748108176597e-03 -5.7735026918962584e-01
    9.2339285670738156e-03 -5.5595944914256934e-01
    8.5132614939603841e-03 -6.6332495807107994e-01
    8.0442759853862084e-03 -7.9772403521746571e-01
    8.0442759853862084e-03 -7.9772403521746571e-01
    7.8552689516422202e-03 -9.4590530292691744e-01
    7.8552689516422202e-03 -9.4590530292691744e-01
    7.8552689516422202e-03 -9.4590530292691744e-01
    7.8461649088479284e-03 -1.0281745265969473e+00
    7.9957478370155152e-03 -8.2122993409346845e-01
    7.8705130353608540e-03 -9.1986621100779986e-01
    7.9543929856801549e-03 -8.4515425472851646e-01
    8.2370818728222817e-03 -7.2932495748947290e-01
    8.2370818728222817e-03 -7.2932495748947290e-01
    7.9198971311042043e-03 -8.6953870585248250e-01
    7.9543929856801549e-03 -8.4515425472851646e-01
    8.8976963528930031e-03 -5.9874081708009175e-01
    9.9086457366154793e-03 -4.9130368444051753e-01
    9.9086457366154793e-03 -4.9130368444051753e-01
    1.1857708957152227e-02 -3.7796447300922725e-01
    1.2478354962115544e-02 -3.5355339059327373e-01
    1.3236910050028106e-02 -3.2816506165694681e-01
    1.1857708957152227e-02 -3.7796447300922725e-01
    1.1857708957152227e-02 -3.7796447300922725e-01
    1.2478354962115544e-02 -3.5355339059327373e-01
    1.2478354962115544e-02 -3.5355339059327373e-01
    1.9624886028901153e-02 -2.0851441405707474e-01
    1.7120161767270561e-02 -2.4253562503633294e-01
    2.3863178957040466e-02 -1.6903085094570330e-01
    3.3509129172532327e-02 -1.1867816581938533e-01 1. 0.
    3.3509129172532327e-02 -1.1867816581938533e-01
    2.3863178957040466e-02 -1.6903085094570330e-01
    1.9624886028901153e-02 -2.0851441405707474e-01
    1.4188769156600639e-02 -3.0151134457776357e-01
    1.3236910050028106e-02 -3.2816506165694681e-01
    1.2478354962115544e-02 -3.5355339059327373e-01
    9.6562668431543919e-03 -5.1298917604257710e-01
    9.4327497145561545e-03 -5.3452248382484868e-01
    8.8976963528930031e-03 -5.9874081708009175e-01
    8.8976963528930031e-03 -5.9874081708009175e-01
    7.9198971311042043e-03 -8.6953870585248250e-01
    7.9957478370155152e-03 -8.2122993409346845e-01
    7.8705130353608540e-03 -9.1986621100779986e-01
    7.8552689516422202e-03 -9.4590530292691744e-01
    7.8552689516422202e-03 -1.0571882797418488e+00
    8.0442759853862084e-03 -1.2535663410560176e+00
    8.0442759853862084e-03 -1.2535663410560176e+00
    7.8461649088479284e-03 -1.0281745265969473e+00
    7.8552689516422202e-03 -9.4590530292691744e-01
    7.9543929856801549e-03 -1.1832159566199230e+00
    7.9198971311042043e-03 -1.1500350625790898e+00
    7.8920046264698458e-03 -1.1180339887498947e+00
    7.8461649088479284e-03 -1.0281745265969473e+00
    7.8461649088479302e-03 -9.7259752515927467e-01
    7.8920046264698458e-03 -8.9442719099991586e-01
    8.1003573254011339e-03 -7.7459666924148340e-01
    7.9198971311042043e-03 -8.6953870585248250e-01
    9.9086457366154793e-03 -4.9130368444051753e-01
    1.0195173807164032e-02 -4.6940279403817725e-01
    9.6562668431543919e-03 -5.1298917604257710e-01
    9.6562668431543919e-03 -5.1298917604257710e-01
    1.1857708957152227e-02 -3.7796447300922725e-01
    1.1857708957152227e-02 -3.7796447300922725e-01
    1.1339566996270572e-02 -4.0160966445124940e-01
    1.1857708957152227e-02 -3.7796447300922725e-01
    1.4188769156600639e-02 -3.0151134457776357e-01
    1.5426589121171381e-02 -2.7317918235407651e-01
    1.9624886028901153e-02 -2.0851441405707474e-01
    2.3863178957040466e-02 -1.6903085094570330e-01 1. 0.
    3.3509129172532327e-02 -1.1867816581938533e-01
    3.3509129172532327e-02 -1.1867816581938533e-01
    1.4188769156600639e-02 -3.0151134457776357e-01
    1.2478354962115544e-02 -3.5355339059327373e-01
    1.2478354962115544e-02 -3.5355339059327373e-01
    9.9086457366154793e-03 -4.9130368444051753e-01
    9.9086457366154793e-03 -4.9130368444051753e-01
    9.2339285670738156e-03 -5.5595944914256934e-01
    8.7553930298264783e-03 -6.2017367294604220e-01
    7.9198971311042043e-03 -8.6953870585248250e-01
    7.8552689516422202e-03 -9.4590530292691744e-01
    7.8705130353608540e-03 -9.1986621100779986e-01
    7.8431372549019607e-03 -1. 7.8461649088479284e-03
    -1.0281745265969473e+00 7.8552689516422202e-03
    -9.4590530292691744e-01 8.1003573254011339e-03
    -1.2909944487358056e+00 7.8920046264698458e-03
    -1.1180339887498947e+00 7.8431372549019607e-03 -1.
    7.8461649088479302e-03 -9.7259752515927467e-01
    7.9198971311042043e-03 -1.1500350625790898e+00
    7.8461649088479284e-03 -1.0281745265969473e+00
    7.8461649088479284e-03 -1.0281745265969473e+00
    7.8552689516422202e-03 -9.4590530292691744e-01
    7.9198971311042043e-03 -8.6953870585248250e-01
    7.8461649088479302e-03 -9.7259752515927467e-01
    7.8431372549019607e-03 -1. 7.8705130353608540e-03
    -9.1986621100779986e-01 8.0442759853862084e-03
    -7.9772403521746571e-01 8.4106654409576379e-03
    -6.8511878904467427e-01 8.7553930298264783e-03
    -6.2017367294604220e-01 9.6562668431543919e-03
    -5.1298917604257710e-01 9.9086457366154793e-03
    -4.9130368444051753e-01 1.1339566996270572e-02
    -4.0160966445124940e-01 1.1339566996270572e-02
    -4.0160966445124940e-01 1.0900114397395523e-02
    -4.2465029006520061e-01 1.3236910050028106e-02
    -3.2816506165694681e-01 1.4188769156600639e-02
    -3.0151134457776357e-01 1.9624886028901153e-02
    -2.0851441405707474e-01 2.3863178957040466e-02
    -1.6903085094570330e-01 1. 0. 3.3509129172532327e-02
    -1.1867816581938533e-01 1.7120161767270561e-02
    -2.4253562503633294e-01 1.5426589121171381e-02
    -2.7317918235407651e-01 1.3236910050028106e-02
    -3.2816506165694681e-01 9.6562668431543919e-03
    -5.1298917604257710e-01 9.2339285670738156e-03
    -5.5595944914256934e-01 9.2339285670738156e-03
    -5.5595944914256934e-01 8.2370818728222817e-03
    -7.2932495748947290e-01 7.9198971311042043e-03
    -8.6953870585248250e-01 7.9957478370155152e-03
    -8.2122993409346845e-01 7.9198971311042043e-03
    -8.6953870585248250e-01 7.8461649088479284e-03
    -1.0281745265969473e+00 8.1644460983469214e-03
    -7.5180941155611236e-01 7.8920046264698458e-03
    -8.9442719099991586e-01 7.8705130353608540e-03
    -1.0871146130092180e+00 8.5132614939603859e-03
    -1.5075567228888185e+00 8.0442759853862084e-03
    -1.2535663410560176e+00 8.2370818728222817e-03
    -1.3711309200802091e+00 7.8552689516422202e-03
    -1.0571882797418488e+00 7.8705130353608540e-03
    -1.0871146130092180e+00 8.2370818728222817e-03
    -1.3711309200802091e+00 7.8461649088479302e-03
    -9.7259752515927467e-01 7.8431372549019607e-03 -1.
    7.9543929856801549e-03 -1.1832159566199230e+00
    7.9198971311042043e-03 -1.1500350625790898e+00
    7.9957478370155152e-03 -1.2176857643454877e+00
    7.8705130353608540e-03 -1.0871146130092180e+00
    7.9543929856801549e-03 -8.4515425472851646e-01
    8.1644460983469214e-03 -7.5180941155611236e-01
    8.5132614939603841e-03 -6.6332495807107994e-01
    8.5132614939603841e-03 -6.6332495807107994e-01
    9.6562668431543919e-03 -5.1298917604257710e-01
    9.2339285670738156e-03 -5.5595944914256934e-01
    1.0195173807164032e-02 -4.6940279403817725e-01
    1.0900114397395523e-02 -4.2465029006520061e-01
    1.3236910050028106e-02 -3.2816506165694681e-01
    1.4188769156600639e-02 -3.0151134457776357e-01
    1.7120161767270561e-02 -2.4253562503633294e-01
    1.7120161767270561e-02 -2.4253562503633294e-01 1. 0.
    2.3863178957040466e-02 -1.6903085094570330e-01
    1.7120161767270561e-02 -2.4253562503633294e-01
    1.0195173807164032e-02 -4.6940279403817725e-01
    1.0195173807164032e-02 -4.6940279403817725e-01
    9.4327497145561545e-03 -5.3452248382484868e-01
    9.0564748108176597e-03 -5.7735026918962584e-01
    8.8976963528930031e-03 -5.9874081708009175e-01
    8.0442759853862084e-03 -7.9772403521746571e-01
    7.9198971311042043e-03 -8.6953870585248250e-01
    8.0442759853862084e-03 -7.9772403521746571e-01
    7.8431372549019607e-03 -1. 7.8920046264698458e-03
    -1.1180339887498947e+00 7.8552689516422202e-03
    -1.0571882797418488e+00 8.4106654409576362e-03
    -1.4596008983995230e+00 8.1644460983469197e-03
    -1.3301243435223522e+00 8.2370818728222817e-03
    -1.3711309200802091e+00 8.3189033080770299e-03
    -1.4142135623730951e+00 8.5132614939603859e-03
    -1.5075567228888185e+00 8.1644460983469197e-03
    -1.3301243435223522e+00 8.1644460983469197e-03
    -1.3301243435223522e+00 7.8920046264698458e-03
    -1.1180339887498947e+00 7.8552689516422202e-03
    -1.0571882797418488e+00 7.8920046264698458e-03
    -1.1180339887498947e+00 7.8461649088479284e-03
    -1.0281745265969473e+00 7.9957478370155152e-03
    -1.2176857643454877e+00 8.0442759853862084e-03
    -1.2535663410560176e+00 7.8552689516422202e-03
    -1.0571882797418488e+00 7.8552689516422202e-03
    -1.0571882797418488e+00 7.9198971311042043e-03
    -1.1500350625790898e+00 7.9957478370155152e-03
    -8.2122993409346845e-01 8.1644460983469214e-03
    -7.5180941155611236e-01 8.4106654409576379e-03
    -6.8511878904467427e-01 9.0564748108176597e-03
    -5.7735026918962584e-01 9.0564748108176597e-03
    -5.7735026918962584e-01 1.1857708957152227e-02
    -3.7796447300922725e-01 1.1857708957152227e-02
    -3.7796447300922725e-01 1.2478354962115544e-02
    -3.5355339059327373e-01 1.5426589121171381e-02
    -2.7317918235407651e-01 1.9624886028901153e-02
    -2.0851441405707474e-01 1. 0. 1.9624886028901153e-02
    -2.0851441405707474e-01 1.7120161767270561e-02
    -2.4253562503633294e-01 9.9086457366154793e-03
    -4.9130368444051753e-01 9.6562668431543919e-03
    -5.1298917604257710e-01 1.1339566996270572e-02
    -4.0160966445124940e-01 8.3189033080770299e-03
    -7.0710678118654757e-01 7.9198971311042043e-03
    -8.6953870585248250e-01 7.8920046264698458e-03
    -8.9442719099991586e-01 7.9543929856801549e-03
    -8.4515425472851646e-01 7.8461649088479302e-03
    -9.7259752515927467e-01 8.1003573254011339e-03
    -1.2909944487358056e+00 8.3189033080770299e-03
    -1.4142135623730951e+00 8.7553930298264783e-03
    -1.6124515496597096e+00 8.6277505602655180e-03
    -1.5583874449479591e+00 8.1003573254011339e-03
    -1.2909944487358056e+00 7.9957478370155152e-03
    -1.2176857643454877e+00 8.2370818728222817e-03
    -1.3711309200802091e+00 8.2370818728222817e-03
    -1.3711309200802091e+00 8.3189033080770299e-03
    -1.4142135623730951e+00 8.1644460983469197e-03
    -1.3301243435223522e+00 7.9543929856801549e-03
    -1.1832159566199230e+00 8.7553930298264783e-03
    -1.6124515496597096e+00 8.5132614939603859e-03
    -1.5075567228888185e+00 8.3189033080770299e-03
    -1.4142135623730951e+00 7.9543929856801549e-03
    -1.1832159566199230e+00 8.0442759853862084e-03
    -1.2535663410560176e+00 8.0442759853862084e-03
    -1.2535663410560176e+00 7.8552689516422202e-03
    -9.4590530292691744e-01 7.8431372549019607e-03 -1.
    7.8705130353608540e-03 -1.0871146130092180e+00
    7.9198971311042043e-03 -8.6953870585248250e-01
    8.2370818728222817e-03 -7.2932495748947290e-01
    8.3189033080770299e-03 -7.0710678118654757e-01
    9.4327497145561545e-03 -5.3452248382484868e-01
    9.9086457366154793e-03 -4.9130368444051753e-01
    1.2478354962115544e-02 -3.5355339059327373e-01
    1.3236910050028106e-02 -3.2816506165694681e-01
    1.5426589121171381e-02 -2.7317918235407651e-01
    1.7120161767270561e-02 -2.4253562503633294e-01
    3.3509129172532327e-02 -1.1867816581938533e-01
    1.9624886028901153e-02 -2.0851441405707474e-01
    1.5426589121171381e-02 -2.7317918235407651e-01
    1.1857708957152227e-02 -3.7796447300922725e-01
    1.1339566996270572e-02 -4.0160966445124940e-01
    9.0564748108176597e-03 -5.7735026918962584e-01
    8.0442759853862084e-03 -7.9772403521746571e-01
    7.8552689516422202e-03 -9.4590530292691744e-01
    7.8552689516422202e-03 -9.4590530292691744e-01
    7.8461649088479302e-03 -9.7259752515927467e-01
    7.8461649088479284e-03 -1.0281745265969473e+00
    8.1003573254011339e-03 -1.2909944487358056e+00
    8.1003573254011339e-03 -1.2909944487358056e+00
    8.1003573254011339e-03 -1.2909944487358056e+00
    7.8920046264698458e-03 -1.1180339887498947e+00
    7.8920046264698458e-03 -1.1180339887498947e+00
    7.9543929856801549e-03 -1.1832159566199230e+00
    8.1644460983469197e-03 -1.3301243435223522e+00
    8.0442759853862084e-03 -1.2535663410560176e+00
    8.0442759853862084e-03 -1.2535663410560176e+00
    7.8431372549019607e-03 -1. 8.4106654409576362e-03
    -1.4596008983995230e+00 8.3189033080770299e-03
    -1.4142135623730951e+00 8.3189033080770299e-03
    -1.4142135623730951e+00 8.2370818728222817e-03
    -1.3711309200802091e+00 8.7553930298264783e-03
    -1.6124515496597096e+00 8.6277505602655180e-03
    -1.5583874449479591e+00 7.8920046264698458e-03
    -1.1180339887498947e+00 7.8920046264698458e-03
    -1.1180339887498947e+00 7.9198971311042043e-03
    -1.1500350625790898e+00 7.8920046264698458e-03
    -1.1180339887498947e+00 7.8920046264698458e-03
    -1.1180339887498947e+00 7.8461649088479302e-03
    -9.7259752515927467e-01 7.9957478370155152e-03
    -8.2122993409346845e-01 8.4106654409576379e-03
    -6.8511878904467427e-01 9.9086457366154793e-03
    -4.9130368444051753e-01 9.9086457366154793e-03
    -4.9130368444051753e-01 1.2478354962115544e-02
    -3.5355339059327373e-01 1.4188769156600639e-02
    -3.0151134457776357e-01 1.5426589121171381e-02
    -2.7317918235407651e-01 1. 0. 1.7120161767270561e-02
    -2.4253562503633294e-01 1.5426589121171381e-02
    -2.7317918235407651e-01 1.1857708957152227e-02
    -3.7796447300922725e-01 8.8976963528930031e-03
    -5.9874081708009175e-01 7.9198971311042043e-03
    -8.6953870585248250e-01 8.0442759853862084e-03
    -7.9772403521746571e-01 7.8920046264698458e-03
    -8.9442719099991586e-01 7.8431372549019607e-03 -1.
    7.8705130353608540e-03 -9.1986621100779986e-01
    7.8920046264698458e-03 -1.1180339887498947e+00
    7.8461649088479284e-03 -1.0281745265969473e+00
    7.9198971311042043e-03 -1.1500350625790898e+00
    8.0442759853862084e-03 -1.2535663410560176e+00
    7.9957478370155152e-03 -1.2176857643454877e+00
    8.1003573254011339e-03 -1.2909944487358056e+00
    7.9957478370155152e-03 -1.2176857643454877e+00
    8.1003573254011339e-03 -1.2909944487358056e+00
    7.8552689516422202e-03 -1.0571882797418488e+00
    7.9198971311042043e-03 -1.1500350625790898e+00
    8.2370818728222817e-03 -1.3711309200802091e+00
    8.1003573254011339e-03 -1.2909944487358056e+00
    8.4106654409576362e-03 -1.4596008983995230e+00
    8.1644460983469197e-03 -1.3301243435223522e+00
    8.3189033080770299e-03 -1.4142135623730951e+00
    8.8976963528930048e-03 -1.6701717529076245e+00
    8.3189033080770299e-03 -1.4142135623730951e+00
    8.7553930298264783e-03 -1.6124515496597096e+00
    7.9957478370155152e-03 -1.2176857643454877e+00
    8.0442759853862084e-03 -1.2535663410560176e+00
    7.9543929856801549e-03 -1.1832159566199230e+00
    7.8920046264698458e-03 -1.1180339887498947e+00
    7.8705130353608540e-03 -1.0871146130092180e+00
    7.8461649088479302e-03 -9.7259752515927467e-01
    7.9957478370155152e-03 -8.2122993409346845e-01
    8.6277505602655180e-03 -6.4168894791974795e-01
    9.9086457366154793e-03 -4.9130368444051753e-01
    1.2478354962115544e-02 -3.5355339059327373e-01
    1.3236910050028106e-02 -3.2816506165694681e-01
    1.3236910050028106e-02 -3.2816506165694681e-01
    2.3863178957040466e-02 -1.6903085094570330e-01
    1.5426589121171381e-02 -2.7317918235407651e-01
    1.5426589121171381e-02 -2.7317918235407651e-01
    9.2339285670738156e-03 -5.5595944914256934e-01
    8.1003573254011339e-03 -7.7459666924148340e-01
    8.0442759853862084e-03 -7.9772403521746571e-01
    8.4106654409576379e-03 -6.8511878904467427e-01
    7.9543929856801549e-03 -8.4515425472851646e-01
    7.9957478370155152e-03 -8.2122993409346845e-01
    7.8461649088479284e-03 -1.0281745265969473e+00
    8.0442759853862084e-03 -1.2535663410560176e+00
    7.8705130353608540e-03 -1.0871146130092180e+00
    7.8461649088479284e-03 -1.0281745265969473e+00
    7.9198971311042043e-03 -1.1500350625790898e+00
    8.1003573254011339e-03 -1.2909944487358056e+00
    8.0442759853862084e-03 -1.2535663410560176e+00
    8.2370818728222817e-03 -1.3711309200802091e+00
    7.8705130353608540e-03 -1.0871146130092180e+00
    7.8461649088479302e-03 -9.7259752515927467e-01
    7.8920046264698458e-03 -1.1180339887498947e+00
    7.9198971311042043e-03 -1.1500350625790898e+00
    7.8705130353608540e-03 -1.0871146130092180e+00
    8.2370818728222817e-03 -1.3711309200802091e+00
    8.2370818728222817e-03 -1.3711309200802091e+00
    8.1003573254011339e-03 -1.2909944487358056e+00
    8.2370818728222817e-03 -1.3711309200802091e+00
    8.3189033080770299e-03 -1.4142135623730951e+00
    8.7553930298264783e-03 -1.6124515496597096e+00
    8.3189033080770299e-03 -1.4142135623730951e+00
    8.6277505602655180e-03 -1.5583874449479591e+00
    8.1644460983469197e-03 -1.3301243435223522e+00
    7.9198971311042043e-03 -1.1500350625790898e+00
    7.8705130353608540e-03 -1.0871146130092180e+00
    7.8552689516422202e-03 -1.0571882797418488e+00
    7.8920046264698458e-03 -8.9442719099991586e-01
    8.4106654409576379e-03 -6.8511878904467427e-01
    9.4327497145561545e-03 -5.3452248382484868e-01
    1.1857708957152227e-02 -3.7796447300922725e-01
    1.2478354962115544e-02 -3.5355339059327373e-01
    1.4188769156600639e-02 -3.0151134457776357e-01
    2.3863178957040466e-02 -1.6903085094570330e-01
    1.4188769156600639e-02 -3.0151134457776357e-01
    1.3236910050028106e-02 -3.2816506165694681e-01
    8.4106654409576379e-03 -6.8511878904467427e-01
    8.0442759853862084e-03 -7.9772403521746571e-01
    8.4106654409576379e-03 -6.8511878904467427e-01
    8.4106654409576379e-03 -6.8511878904467427e-01
    7.9198971311042043e-03 -8.6953870585248250e-01
    7.8461649088479302e-03 -9.7259752515927467e-01
    7.8920046264698458e-03 -1.1180339887498947e+00
    8.0442759853862084e-03 -1.2535663410560176e+00
    7.9543929856801549e-03 -1.1832159566199230e+00
    7.8431372549019607e-03 -1. 7.9543929856801549e-03
    -8.4515425472851646e-01 7.8461649088479284e-03
    -1.0281745265969473e+00 8.1003573254011339e-03
    -1.2909944487358056e+00 7.8920046264698458e-03
    -1.1180339887498947e+00 7.8461649088479284e-03
    -1.0281745265969473e+00 7.9543929856801549e-03
    -1.1832159566199230e+00 7.9543929856801549e-03
    -1.1832159566199230e+00 7.8705130353608540e-03
    -1.0871146130092180e+00 7.8461649088479302e-03
    -9.7259752515927467e-01 7.8461649088479284e-03
    -1.0281745265969473e+00 8.1003573254011339e-03
    -1.2909944487358056e+00 7.9957478370155152e-03
    -1.2176857643454877e+00 7.9957478370155152e-03
    -1.2176857643454877e+00 8.0442759853862084e-03
    -1.2535663410560176e+00 8.7553930298264783e-03
    -1.6124515496597096e+00 9.2339285670738139e-03
    -1.7986923354612532e+00 8.8976963528930048e-03
    -1.6701717529076245e+00 8.4106654409576362e-03
    -1.4596008983995230e+00 7.9543929856801549e-03
    -1.1832159566199230e+00 7.8705130353608540e-03
    -1.0871146130092180e+00 7.8705130353608540e-03
    -1.0871146130092180e+00 7.8552689516422202e-03
    -1.0571882797418488e+00 8.0442759853862084e-03
    -7.9772403521746571e-01 9.2339285670738156e-03
    -5.5595944914256934e-01 9.4327497145561545e-03
    -5.3452248382484868e-01 1.2478354962115544e-02
    -3.5355339059327373e-01 1.4188769156600639e-02
    -3.0151134457776357e-01 2.3863178957040466e-02
    -1.6903085094570330e-01 1.4188769156600639e-02
    -3.0151134457776357e-01 9.9086457366154793e-03
    -4.9130368444051753e-01 8.3189033080770299e-03
    -7.0710678118654757e-01 8.1003573254011339e-03
    -7.7459666924148340e-01 7.9543929856801549e-03
    -8.4515425472851646e-01 7.9198971311042043e-03
    -8.6953870585248250e-01 7.9957478370155152e-03
    -8.2122993409346845e-01 7.8552689516422202e-03
    -1.0571882797418488e+00 7.9957478370155152e-03
    -1.2176857643454877e+00 7.8461649088479302e-03
    -9.7259752515927467e-01 7.8920046264698458e-03
    -1.1180339887498947e+00 7.8920046264698458e-03
    -1.1180339887498947e+00 7.8920046264698458e-03
    -1.1180339887498947e+00 8.0442759853862084e-03
    -1.2535663410560176e+00 7.8920046264698458e-03
    -1.1180339887498947e+00 7.8705130353608540e-03
    -1.0871146130092180e+00 7.8920046264698458e-03
    -1.1180339887498947e+00 7.8705130353608540e-03
    -1.0871146130092180e+00 7.9198971311042043e-03
    -1.1500350625790898e+00 7.8552689516422202e-03
    -1.0571882797418488e+00 7.8461649088479284e-03
    -1.0281745265969473e+00 7.8552689516422202e-03
    -1.0571882797418488e+00 7.9198971311042043e-03
    -1.1500350625790898e+00 8.2370818728222817e-03
    -1.3711309200802091e+00 7.9198971311042043e-03
    -1.1500350625790898e+00 9.0564748108176597e-03
    -1.7320508075688774e+00 9.2339285670738139e-03
    -1.7986923354612532e+00 9.6562668431543919e-03
    -1.9493588689617929e+00 8.6277505602655180e-03
    -1.5583874449479591e+00 8.7553930298264783e-03
    -1.6124515496597096e+00 8.1644460983469197e-03
    -1.3301243435223522e+00 7.9543929856801549e-03
    -1.1832159566199230e+00 7.9957478370155152e-03
    -1.2176857643454877e+00 7.8461649088479284e-03
    -1.0281745265969473e+00 7.8705130353608540e-03
    -9.1986621100779986e-01 8.5132614939603841e-03
    -6.6332495807107994e-01 9.2339285670738156e-03
    -5.5595944914256934e-01 1.3236910050028106e-02
    -3.2816506165694681e-01 1.5426589121171381e-02
    -2.7317918235407651e-01 2.3863178957040466e-02
    -1.6903085094570330e-01 1.4188769156600639e-02
    -3.0151134457776357e-01 8.6277505602655180e-03
    -6.4168894791974795e-01 8.1644460983469214e-03
    -7.5180941155611236e-01 7.8705130353608540e-03
    -9.1986621100779986e-01 7.8920046264698458e-03
    -8.9442719099991586e-01 7.9198971311042043e-03
    -8.6953870585248250e-01 7.8920046264698458e-03
    -1.1180339887498947e+00 7.9957478370155152e-03
    -1.2176857643454877e+00 7.8461649088479284e-03
    -1.0281745265969473e+00 7.8461649088479284e-03
    -1.0281745265969473e+00 7.8705130353608540e-03
    -1.0871146130092180e+00 7.9543929856801549e-03
    -1.1832159566199230e+00 7.9543929856801549e-03
    -1.1832159566199230e+00 7.8461649088479302e-03
    -9.7259752515927467e-01 7.8461649088479284e-03
    -1.0281745265969473e+00 7.8461649088479284e-03
    -1.0281745265969473e+00 7.8920046264698458e-03
    -8.9442719099991586e-01 7.8920046264698458e-03
    -1.1180339887498947e+00 7.8461649088479284e-03
    -1.0281745265969473e+00 7.8461649088479284e-03
    -1.0281745265969473e+00 7.8431372549019607e-03 -1.
    7.8431372549019607e-03 -1. 8.2370818728222817e-03
    -1.3711309200802091e+00 8.2370818728222817e-03
    -1.3711309200802091e+00 8.4106654409576362e-03
    -1.4596008983995230e+00 8.8976963528930048e-03
    -1.6701717529076245e+00 8.7553930298264783e-03
    -1.6124515496597096e+00 8.6277505602655180e-03
    -1.5583874449479591e+00 8.2370818728222817e-03
    -1.3711309200802091e+00 8.6277505602655180e-03
    -1.5583874449479591e+00 8.4106654409576362e-03
    -1.4596008983995230e+00 7.9957478370155152e-03
    -1.2176857643454877e+00 7.8461649088479284e-03
    -1.0281745265969473e+00 7.9198971311042043e-03
    -1.1500350625790898e+00 7.8431372549019607e-03 -1.
    8.3189033080770299e-03 -7.0710678118654757e-01
    9.2339285670738156e-03 -5.5595944914256934e-01
    9.0564748108176597e-03 -5.7735026918962584e-01
    1.3236910050028106e-02 -3.2816506165694681e-01
    1.7120161767270561e-02 -2.4253562503633294e-01
    1.1857708957152227e-02 -3.7796447300922725e-01
    8.6277505602655180e-03 -6.4168894791974795e-01
    8.1003573254011339e-03 -7.7459666924148340e-01
    7.8461649088479302e-03 -9.7259752515927467e-01
    7.8705130353608540e-03 -9.1986621100779986e-01
    7.8705130353608540e-03 -1.0871146130092180e+00
    7.9957478370155152e-03 -1.2176857643454877e+00
    7.9957478370155152e-03 -1.2176857643454877e+00
    7.8920046264698458e-03 -1.1180339887498947e+00
    7.8920046264698458e-03 -1.1180339887498947e+00
    7.8705130353608540e-03 -1.0871146130092180e+00
    8.0442759853862084e-03 -1.2535663410560176e+00
    8.1003573254011339e-03 -1.2909944487358056e+00
    7.8461649088479284e-03 -1.0281745265969473e+00
    7.8461649088479302e-03 -9.7259752515927467e-01
    7.8431372549019607e-03 -1. 7.8461649088479302e-03
    -9.7259752515927467e-01 7.8705130353608540e-03
    -9.1986621100779986e-01 7.8920046264698458e-03
    -8.9442719099991586e-01 7.8920046264698458e-03
    -8.9442719099991586e-01 7.8920046264698458e-03
    -8.9442719099991586e-01 7.8431372549019607e-03 -1.
    7.8705130353608540e-03 -1.0871146130092180e+00
    7.8705130353608540e-03 -1.0871146130092180e+00
    8.0442759853862084e-03 -1.2535663410560176e+00
    8.2370818728222817e-03 -1.3711309200802091e+00
    8.1003573254011339e-03 -1.2909944487358056e+00
    8.6277505602655180e-03 -1.5583874449479591e+00
    8.6277505602655180e-03 -1.5583874449479591e+00
    9.6562668431543919e-03 -1.9493588689617929e+00
    9.4327497145561563e-03 -1.8708286933869711e+00
    8.3189033080770299e-03 -1.4142135623730951e+00
    7.9198971311042043e-03 -1.1500350625790898e+00
    7.8552689516422202e-03 -9.4590530292691744e-01
    7.8552689516422202e-03 -1.0571882797418488e+00
    7.9543929856801549e-03 -8.4515425472851646e-01
    8.7553930298264783e-03 -6.2017367294604220e-01
    9.4327497145561545e-03 -5.3452248382484868e-01
    1.1857708957152227e-02 -3.7796447300922725e-01
    2.3863178957040466e-02 -1.6903085094570330e-01
    1.2478354962115544e-02 -3.5355339059327373e-01
    8.4106654409576379e-03 -6.8511878904467427e-01
    8.3189033080770299e-03 -7.0710678118654757e-01
    7.8461649088479302e-03 -9.7259752515927467e-01
    7.8552689516422202e-03 -9.4590530292691744e-01
    7.8705130353608540e-03 -1.0871146130092180e+00
    8.1003573254011339e-03 -1.2909944487358056e+00
    7.9957478370155152e-03 -1.2176857643454877e+00
    7.8461649088479284e-03 -1.0281745265969473e+00
    7.8461649088479284e-03 -1.0281745265969473e+00
    7.8461649088479284e-03 -1.0281745265969473e+00
    7.9957478370155152e-03 -1.2176857643454877e+00
    7.8552689516422202e-03 -1.0571882797418488e+00
    7.8461649088479284e-03 -1.0281745265969473e+00
    7.8461649088479284e-03 -1.0281745265969473e+00
    7.8461649088479302e-03 -9.7259752515927467e-01
    7.8920046264698458e-03 -8.9442719099991586e-01
    7.8431372549019607e-03 -1. 7.8431372549019607e-03 -1.
    7.8431372549019607e-03 -1. 7.8431372549019607e-03 -1.
    7.8552689516422202e-03 -1.0571882797418488e+00
    7.8431372549019607e-03 -1. 7.9957478370155152e-03
    -1.2176857643454877e+00 7.8920046264698458e-03
    -1.1180339887498947e+00 7.9957478370155152e-03
    -1.2176857643454877e+00 8.7553930298264783e-03
    -1.6124515496597096e+00 8.4106654409576362e-03
    -1.4596008983995230e+00 9.2339285670738139e-03
    -1.7986923354612532e+00 9.4327497145561563e-03
    -1.8708286933869711e+00 1.0522672835293128e-02
    -2.2360679774997898e+00 8.8976963528930048e-03
    -1.6701717529076245e+00 8.2370818728222817e-03
    -1.3711309200802091e+00 7.9198971311042043e-03
    -1.1500350625790898e+00 7.8705130353608540e-03
    -1.0871146130092180e+00 7.8920046264698458e-03
    -8.9442719099991586e-01 7.9198971311042043e-03
    -8.6953870585248250e-01 8.8976963528930031e-03
    -5.9874081708009175e-01 1.1339566996270572e-02
    -4.0160966445124940e-01 1.9624886028901153e-02
    -2.0851441405707474e-01 1.2478354962115544e-02
    -3.5355339059327373e-01 9.2339285670738156e-03
    -5.5595944914256934e-01 8.2370818728222817e-03
    -7.2932495748947290e-01 7.8461649088479302e-03
    -9.7259752515927467e-01 7.8431372549019607e-03 -1.
    7.8461649088479284e-03 -1.0281745265969473e+00
    8.1003573254011339e-03 -1.2909944487358056e+00
    8.1003573254011339e-03 -1.2909944487358056e+00
    7.9198971311042043e-03 -1.1500350625790898e+00
    7.8705130353608540e-03 -1.0871146130092180e+00
    7.8461649088479284e-03 -1.0281745265969473e+00
    7.8431372549019607e-03 -1. 7.8705130353608540e-03
    -1.0871146130092180e+00 7.8705130353608540e-03
    -9.1986621100779986e-01 7.8552689516422202e-03
    -1.0571882797418488e+00 7.8552689516422202e-03
    -9.4590530292691744e-01 7.9198971311042043e-03
    -8.6953870585248250e-01 7.8705130353608540e-03
    -9.1986621100779986e-01 7.8461649088479302e-03
    -9.7259752515927467e-01 7.8461649088479284e-03
    -1.0281745265969473e+00 7.8552689516422202e-03
    -1.0571882797418488e+00 7.8552689516422202e-03
    -1.0571882797418488e+00 7.8552689516422202e-03
    -1.0571882797418488e+00 7.8461649088479302e-03
    -9.7259752515927467e-01 7.8920046264698458e-03
    -8.9442719099991586e-01 7.8431372549019607e-03 -1.
    8.0442759853862084e-03 -1.2535663410560176e+00
    8.8976963528930048e-03 -1.6701717529076245e+00
    9.2339285670738139e-03 -1.7986923354612532e+00
    9.2339285670738139e-03 -1.7986923354612532e+00
    9.2339285670738139e-03 -1.7986923354612532e+00
    9.0564748108176597e-03 -1.7320508075688774e+00
    8.0442759853862084e-03 -1.2535663410560176e+00
    7.9543929856801549e-03 -1.1832159566199230e+00
    8.0442759853862084e-03 -1.2535663410560176e+00
    7.9957478370155152e-03 -1.2176857643454877e+00
    8.2370818728222817e-03 -7.2932495748947290e-01
    9.0564748108176597e-03 -5.7735026918962584e-01
    9.9086457366154793e-03 -4.9130368444051753e-01
    1.7120161767270561e-02 -2.4253562503633294e-01
    1.2478354962115544e-02 -3.5355339059327373e-01
    9.4327497145561545e-03 -5.3452248382484868e-01
    7.9957478370155152e-03 -8.2122993409346845e-01
    7.8461649088479284e-03 -1.0281745265969473e+00
    7.8461649088479302e-03 -9.7259752515927467e-01
    7.8461649088479284e-03 -1.0281745265969473e+00
    8.0442759853862084e-03 -1.2535663410560176e+00
    8.2370818728222817e-03 -1.3711309200802091e+00
    7.9198971311042043e-03 -1.1500350625790898e+00
    8.0442759853862084e-03 -1.2535663410560176e+00
    7.9543929856801549e-03 -1.1832159566199230e+00
    7.8705130353608540e-03 -1.0871146130092180e+00
    7.9198971311042043e-03 -1.1500350625790898e+00
    7.8431372549019607e-03 -1. 7.8552689516422202e-03
    -9.4590530292691744e-01 7.8920046264698458e-03
    -8.9442719099991586e-01 7.9957478370155152e-03
    -8.2122993409346845e-01 7.8920046264698458e-03
    -8.9442719099991586e-01 7.8461649088479302e-03
    -9.7259752515927467e-01 7.8552689516422202e-03
    -9.4590530292691744e-01 7.8705130353608540e-03
    -9.1986621100779986e-01 7.8552689516422202e-03
    -1.0571882797418488e+00 7.8461649088479302e-03
    -9.7259752515927467e-01 7.8552689516422202e-03
    -1.0571882797418488e+00 7.8552689516422202e-03
    -1.0571882797418488e+00 7.8461649088479302e-03
    -9.7259752515927467e-01 7.9198971311042043e-03
    -1.1500350625790898e+00 8.5132614939603859e-03
    -1.5075567228888185e+00 8.7553930298264783e-03
    -1.6124515496597096e+00 9.6562668431543919e-03
    -1.9493588689617929e+00 9.2339285670738139e-03
    -1.7986923354612532e+00 9.2339285670738139e-03
    -1.7986923354612532e+00 8.5132614939603859e-03
    -1.5075567228888185e+00 8.1644460983469197e-03
    -1.3301243435223522e+00 7.8920046264698458e-03
    -1.1180339887498947e+00 7.9957478370155152e-03
    -1.2176857643454877e+00 8.1003573254011339e-03
    -7.7459666924148340e-01 9.6562668431543919e-03
    -5.1298917604257710e-01 1.0522672835293128e-02
    -4.4721359549995793e-01 1.4188769156600639e-02
    -3.0151134457776357e-01 1.2478354962115544e-02
    -3.5355339059327373e-01 9.2339285670738156e-03
    -5.5595944914256934e-01 8.5132614939603841e-03
    -6.6332495807107994e-01 8.0442759853862084e-03
    -7.9772403521746571e-01 7.8920046264698458e-03
    -8.9442719099991586e-01 7.8461649088479284e-03
    -1.0281745265969473e+00 7.8461649088479302e-03
    -9.7259752515927467e-01 8.2370818728222817e-03
    -1.3711309200802091e+00 7.9198971311042043e-03
    -1.1500350625790898e+00 7.8552689516422202e-03
    -1.0571882797418488e+00 7.9198971311042043e-03
    -1.1500350625790898e+00 7.9957478370155152e-03
    -1.2176857643454877e+00 7.8920046264698458e-03
    -1.1180339887498947e+00 7.9198971311042043e-03
    -1.1500350625790898e+00 7.8461649088479302e-03
    -9.7259752515927467e-01 7.8705130353608540e-03
    -9.1986621100779986e-01 7.9198971311042043e-03
    -8.6953870585248250e-01 7.8552689516422202e-03
    -9.4590530292691744e-01 7.8552689516422202e-03
    -9.4590530292691744e-01 7.8705130353608540e-03
    -1.0871146130092180e+00 7.8461649088479302e-03
    -9.7259752515927467e-01 7.8461649088479284e-03
    -1.0281745265969473e+00 7.8552689516422202e-03
    -9.4590530292691744e-01 7.8431372549019607e-03 -1.
    7.9198971311042043e-03 -8.6953870585248250e-01
    7.8552689516422202e-03 -9.4590530292691744e-01
    7.8461649088479284e-03 -1.0281745265969473e+00
    8.1003573254011339e-03 -1.2909944487358056e+00
    8.6277505602655180e-03 -1.5583874449479591e+00
    8.5132614939603859e-03 -1.5075567228888185e+00
    8.5132614939603859e-03 -1.5075567228888185e+00
    8.8976963528930048e-03 -1.6701717529076245e+00
    8.6277505602655180e-03 -1.5583874449479591e+00
    8.1003573254011339e-03 -1.2909944487358056e+00
    7.9957478370155152e-03 -1.2176857643454877e+00
    7.9543929856801549e-03 -1.1832159566199230e+00
    7.9543929856801549e-03 -8.4515425472851646e-01
    1.1339566996270572e-02 -4.0160966445124940e-01
    1.0522672835293128e-02 -4.4721359549995793e-01
    1.3236910050028106e-02 -3.2816506165694681e-01
    1.1339566996270572e-02 -4.0160966445124940e-01
    9.2339285670738156e-03 -5.5595944914256934e-01
    8.2370818728222817e-03 -7.2932495748947290e-01
    7.9543929856801549e-03 -8.4515425472851646e-01
    7.8552689516422202e-03 -9.4590530292691744e-01
    7.8552689516422202e-03 -1.0571882797418488e+00
    7.8705130353608540e-03 -1.0871146130092180e+00
    8.0442759853862084e-03 -1.2535663410560176e+00
    7.9543929856801549e-03 -1.1832159566199230e+00
    7.9543929856801549e-03 -1.1832159566199230e+00
    7.9543929856801549e-03 -1.1832159566199230e+00
    7.8705130353608540e-03 -1.0871146130092180e+00
    7.8431372549019607e-03 -1. 7.9198971311042043e-03
    -1.1500350625790898e+00 7.8461649088479302e-03
    -9.7259752515927467e-01 7.8705130353608540e-03
    -9.1986621100779986e-01 8.1644460983469214e-03
    -7.5180941155611236e-01 7.8552689516422202e-03
    -1.0571882797418488e+00 7.8705130353608540e-03
    -1.0871146130092180e+00 7.8461649088479284e-03
    -1.0281745265969473e+00 7.8461649088479302e-03
    -9.7259752515927467e-01 7.8552689516422202e-03
    -1.0571882797418488e+00 7.8552689516422202e-03
    -1.0571882797418488e+00 7.8461649088479284e-03
    -1.0281745265969473e+00 7.8552689516422202e-03
    -1.0571882797418488e+00 7.9198971311042043e-03
    -1.1500350625790898e+00 8.1003573254011339e-03
    -1.2909944487358056e+00 7.9957478370155152e-03
    -1.2176857643454877e+00 8.5132614939603859e-03
    -1.5075567228888185e+00 8.8976963528930048e-03
    -1.6701717529076245e+00 9.0564748108176597e-03
    -1.7320508075688774e+00 9.2339285670738139e-03
    -1.7986923354612532e+00 8.1644460983469197e-03
    -1.3301243435223522e+00 8.0442759853862084e-03
    -1.2535663410560176e+00 7.9198971311042043e-03
    -1.1500350625790898e+00 7.8705130353608540e-03
    -1.0871146130092180e+00 7.9957478370155152e-03
    -8.2122993409346845e-01 1.1339566996270572e-02
    -4.0160966445124940e-01 1.0195173807164032e-02
    -4.6940279403817725e-01 1.4188769156600639e-02
    -3.0151134457776357e-01 1.2478354962115544e-02
    -3.5355339059327373e-01 9.0564748108176597e-03
    -5.7735026918962584e-01 7.9543929856801549e-03
    -8.4515425472851646e-01 7.9957478370155152e-03
    -8.2122993409346845e-01 7.8920046264698458e-03
    -8.9442719099991586e-01 7.8920046264698458e-03
    -8.9442719099991586e-01 7.9198971311042043e-03
    -1.1500350625790898e+00 8.3189033080770299e-03
    -1.4142135623730951e+00 7.9957478370155152e-03
    -1.2176857643454877e+00 8.0442759853862084e-03
    -1.2535663410560176e+00 8.0442759853862084e-03
    -1.2535663410560176e+00 7.8552689516422202e-03
    -9.4590530292691744e-01 7.8431372549019607e-03 -1.
    7.8920046264698458e-03 -1.1180339887498947e+00
    7.8552689516422202e-03 -9.4590530292691744e-01
    7.8920046264698458e-03 -8.9442719099991586e-01
    7.8705130353608540e-03 -9.1986621100779986e-01
    7.8461649088479284e-03 -1.0281745265969473e+00
    7.8920046264698458e-03 -1.1180339887498947e+00
    7.9198971311042043e-03 -1.1500350625790898e+00
    7.8461649088479284e-03 -1.0281745265969473e+00
    7.8920046264698458e-03 -8.9442719099991586e-01
    7.8431372549019607e-03 -1. 7.8431372549019607e-03 -1.
    7.9957478370155152e-03 -1.2176857643454877e+00
    8.1644460983469197e-03 -1.3301243435223522e+00
    8.2370818728222817e-03 -1.3711309200802091e+00
    8.1003573254011339e-03 -1.2909944487358056e+00
    7.9543929856801549e-03 -1.1832159566199230e+00
    8.8976963528930048e-03 -1.6701717529076245e+00
    8.4106654409576362e-03 -1.4596008983995230e+00
    8.4106654409576362e-03 -1.4596008983995230e+00
    8.6277505602655180e-03 -1.5583874449479591e+00
    8.1644460983469197e-03 -1.3301243435223522e+00
    7.9543929856801549e-03 -1.1832159566199230e+00
    7.8920046264698458e-03 -1.1180339887498947e+00
    7.8552689516422202e-03 -9.4590530292691744e-01
    9.9086457366154793e-03 -4.9130368444051753e-01
    1.0195173807164032e-02 -4.6940279403817725e-01
    1.5426589121171381e-02 -2.7317918235407651e-01
    1.3236910050028106e-02 -3.2816506165694681e-01
    9.0564748108176597e-03 -5.7735026918962584e-01
    8.4106654409576379e-03 -6.8511878904467427e-01
    8.1003573254011339e-03 -7.7459666924148340e-01
    7.8552689516422202e-03 -9.4590530292691744e-01
    7.8431372549019607e-03 -1. 7.8920046264698458e-03
    -1.1180339887498947e+00 7.9543929856801549e-03
    -1.1832159566199230e+00 7.9543929856801549e-03
    -1.1832159566199230e+00 7.8461649088479302e-03
    -9.7259752515927467e-01 7.8461649088479302e-03
    -9.7259752515927467e-01 7.8431372549019607e-03 -1.
    8.0442759853862084e-03 -1.2535663410560176e+00
    7.8920046264698458e-03 -1.1180339887498947e+00
    7.9957478370155152e-03 -8.2122993409346845e-01
    7.9957478370155152e-03 -8.2122993409346845e-01
    7.9198971311042043e-03 -8.6953870585248250e-01
    7.8705130353608540e-03 -9.1986621100779986e-01
    7.8461649088479284e-03 -1.0281745265969473e+00
    7.8552689516422202e-03 -1.0571882797418488e+00
    7.8461649088479284e-03 -1.0281745265969473e+00
    7.8705130353608540e-03 -9.1986621100779986e-01
    7.8552689516422202e-03 -9.4590530292691744e-01
    7.8705130353608540e-03 -9.1986621100779986e-01
    7.8920046264698458e-03 -1.1180339887498947e+00
    7.8431372549019607e-03 -1. 7.9957478370155152e-03
    -1.2176857643454877e+00 8.1003573254011339e-03
    -1.2909944487358056e+00 7.9957478370155152e-03
    -1.2176857643454877e+00 8.2370818728222817e-03
    -1.3711309200802091e+00 8.1644460983469197e-03
    -1.3301243435223522e+00 8.3189033080770299e-03
    -1.4142135623730951e+00 8.5132614939603859e-03
    -1.5075567228888185e+00 7.8705130353608540e-03
    -1.0871146130092180e+00 7.8920046264698458e-03
    -1.1180339887498947e+00 7.9543929856801549e-03
    -1.1832159566199230e+00 7.8705130353608540e-03
    -9.1986621100779986e-01 8.5132614939603841e-03
    -6.6332495807107994e-01 1.0195173807164032e-02
    -4.6940279403817725e-01 1.5426589121171381e-02
    -2.7317918235407651e-01 1.3236910050028106e-02
    -3.2816506165694681e-01 9.4327497145561545e-03
    -5.3452248382484868e-01 8.4106654409576379e-03
    -6.8511878904467427e-01 7.9957478370155152e-03
    -8.2122993409346845e-01 7.8705130353608540e-03
    -9.1986621100779986e-01 7.8920046264698458e-03
    -1.1180339887498947e+00 7.8920046264698458e-03
    -1.1180339887498947e+00 7.9957478370155152e-03
    -1.2176857643454877e+00 7.8705130353608540e-03
    -1.0871146130092180e+00 7.8461649088479284e-03
    -1.0281745265969473e+00 7.8431372549019607e-03 -1.
    7.9543929856801549e-03 -1.1832159566199230e+00
    7.9198971311042043e-03 -8.6953870585248250e-01
    7.8920046264698458e-03 -1.1180339887498947e+00
    7.8705130353608540e-03 -9.1986621100779986e-01
    7.9543929856801549e-03 -8.4515425472851646e-01
    8.0442759853862084e-03 -7.9772403521746571e-01
    7.8920046264698458e-03 -8.9442719099991586e-01
    7.8920046264698458e-03 -8.9442719099991586e-01
    7.8705130353608540e-03 -9.1986621100779986e-01
    7.9957478370155152e-03 -8.2122993409346845e-01
    7.9198971311042043e-03 -8.6953870585248250e-01
    7.8920046264698458e-03 -8.9442719099991586e-01
    7.9198971311042043e-03 -8.6953870585248250e-01
    7.8705130353608540e-03 -1.0871146130092180e+00
    8.1003573254011339e-03 -1.2909944487358056e+00
    8.1644460983469197e-03 -1.3301243435223522e+00
    8.0442759853862084e-03 -1.2535663410560176e+00
    8.0442759853862084e-03 -1.2535663410560176e+00
    7.9198971311042043e-03 -1.1500350625790898e+00
    8.2370818728222817e-03 -1.3711309200802091e+00
    8.0442759853862084e-03 -1.2535663410560176e+00
    8.2370818728222817e-03 -1.3711309200802091e+00
    7.8705130353608540e-03 -1.0871146130092180e+00
    7.8705130353608540e-03 -1.0871146130092180e+00
    7.9198971311042043e-03 -1.1500350625790898e+00
    7.8705130353608540e-03 -9.1986621100779986e-01
    8.6277505602655180e-03 -6.4168894791974795e-01
    1.0195173807164032e-02 -4.6940279403817725e-01
    2.3863178957040466e-02 -1.6903085094570330e-01
    1.1857708957152227e-02 -3.7796447300922725e-01
    9.4327497145561545e-03 -5.3452248382484868e-01
    8.5132614939603841e-03 -6.6332495807107994e-01
    8.3189033080770299e-03 -7.0710678118654757e-01
    7.9543929856801549e-03 -8.4515425472851646e-01
    7.8431372549019607e-03 -1. 7.8705130353608540e-03
    -1.0871146130092180e+00 7.9198971311042043e-03
    -1.1500350625790898e+00 7.9198971311042043e-03
    -1.1500350625790898e+00 7.8431372549019607e-03 -1.
    7.9198971311042043e-03 -1.1500350625790898e+00
    7.9198971311042043e-03 -1.1500350625790898e+00
    7.8920046264698458e-03 -1.1180339887498947e+00
    7.8552689516422202e-03 -9.4590530292691744e-01
    7.8431372549019607e-03 -1. 7.8461649088479302e-03
    -9.7259752515927467e-01 7.8461649088479302e-03
    -9.7259752515927467e-01 7.8705130353608540e-03
    -9.1986621100779986e-01 7.8920046264698458e-03
    -8.9442719099991586e-01 7.9198971311042043e-03
    -8.6953870585248250e-01 7.9198971311042043e-03
    -8.6953870585248250e-01 7.9957478370155152e-03
    -8.2122993409346845e-01 7.8431372549019607e-03 -1.
    7.8552689516422202e-03 -1.0571882797418488e+00
    7.8920046264698458e-03 -1.1180339887498947e+00
    7.9957478370155152e-03 -1.2176857643454877e+00
    8.1644460983469197e-03 -1.3301243435223522e+00
    7.9198971311042043e-03 -1.1500350625790898e+00
    7.9543929856801549e-03 -1.1832159566199230e+00
    8.2370818728222817e-03 -1.3711309200802091e+00
    7.8705130353608540e-03 -1.0871146130092180e+00
    8.1003573254011339e-03 -1.2909944487358056e+00
    8.2370818728222817e-03 -1.3711309200802091e+00
    7.9198971311042043e-03 -1.1500350625790898e+00
    7.9198971311042043e-03 -1.1500350625790898e+00
    7.8705130353608540e-03 -1.0871146130092180e+00
    7.8705130353608540e-03 -9.1986621100779986e-01
    8.7553930298264783e-03 -6.2017367294604220e-01
    1.0900114397395523e-02 -4.2465029006520061e-01
    1.9624886028901153e-02 -2.0851441405707474e-01
    1.0900114397395523e-02 -4.2465029006520061e-01
    1.0522672835293128e-02 -4.4721359549995793e-01
    8.8976963528930031e-03 -5.9874081708009175e-01
    8.2370818728222817e-03 -7.2932495748947290e-01
    7.9198971311042043e-03 -8.6953870585248250e-01
    7.8431372549019607e-03 -1. 7.8552689516422202e-03
    -1.0571882797418488e+00 7.8552689516422202e-03
    -9.4590530292691744e-01 7.8431372549019607e-03 -1.
    7.8461649088479284e-03 -1.0281745265969473e+00
    8.0442759853862084e-03 -1.2535663410560176e+00
    7.8552689516422202e-03 -9.4590530292691744e-01
    7.8461649088479284e-03 -1.0281745265969473e+00
    7.8552689516422202e-03 -1.0571882797418488e+00
    7.8920046264698458e-03 -1.1180339887498947e+00
    7.8431372549019607e-03 -1. 7.8705130353608540e-03
    -1.0871146130092180e+00 7.8705130353608540e-03
    -9.1986621100779986e-01 7.9198971311042043e-03
    -8.6953870585248250e-01 7.8431372549019607e-03 -1.
    7.8705130353608540e-03 -9.1986621100779986e-01
    7.8461649088479302e-03 -9.7259752515927467e-01
    7.8431372549019607e-03 -1. 7.9198971311042043e-03
    -1.1500350625790898e+00 7.8552689516422202e-03
    -9.4590530292691744e-01 7.9957478370155152e-03
    -1.2176857643454877e+00 7.8920046264698458e-03
    -1.1180339887498947e+00 7.8461649088479302e-03
    -9.7259752515927467e-01 7.8552689516422202e-03
    -1.0571882797418488e+00 7.9543929856801549e-03
    -1.1832159566199230e+00 8.1003573254011339e-03
    -1.2909944487358056e+00 8.1644460983469197e-03
    -1.3301243435223522e+00 7.9957478370155152e-03
    -1.2176857643454877e+00 7.8552689516422202e-03
    -1.0571882797418488e+00 7.8920046264698458e-03
    -1.1180339887498947e+00 7.8461649088479284e-03
    -1.0281745265969473e+00 7.9543929856801549e-03
    -8.4515425472851646e-01 8.5132614939603841e-03
    -6.6332495807107994e-01 9.6562668431543919e-03
    -5.1298917604257710e-01 1.7120161767270561e-02
    -2.4253562503633294e-01 1.2478354962115544e-02
    -3.5355339059327373e-01 9.9086457366154793e-03
    -4.9130368444051753e-01 9.0564748108176597e-03
    -5.7735026918962584e-01 8.3189033080770299e-03
    -7.0710678118654757e-01 7.9957478370155152e-03
    -8.2122993409346845e-01 7.8461649088479284e-03
    -1.0281745265969473e+00 7.8705130353608540e-03
    -1.0871146130092180e+00 7.8705130353608540e-03
    -1.0871146130092180e+00 7.9198971311042043e-03
    -8.6953870585248250e-01 7.8920046264698458e-03
    -1.1180339887498947e+00 7.9543929856801549e-03
    -1.1832159566199230e+00 7.9957478370155152e-03
    -1.2176857643454877e+00 7.8552689516422202e-03
    -1.0571882797418488e+00 7.8461649088479284e-03
    -1.0281745265969473e+00 7.8705130353608540e-03
    -1.0871146130092180e+00 7.8920046264698458e-03
    -1.1180339887498947e+00 7.9198971311042043e-03
    -1.1500350625790898e+00 7.8705130353608540e-03
    -1.0871146130092180e+00 7.8552689516422202e-03
    -1.0571882797418488e+00 7.8461649088479302e-03
    -9.7259752515927467e-01 7.8461649088479302e-03
    -9.7259752515927467e-01 7.9198971311042043e-03
    -1.1500350625790898e+00 7.8705130353608540e-03
    -1.0871146130092180e+00 7.8705130353608540e-03
    -1.0871146130092180e+00 7.9198971311042043e-03
    -1.1500350625790898e+00 7.8552689516422202e-03
    -9.4590530292691744e-01 7.8552689516422202e-03
    -9.4590530292691744e-01 7.9957478370155152e-03
    -1.2176857643454877e+00 8.0442759853862084e-03
    -1.2535663410560176e+00 7.9198971311042043e-03
    -1.1500350625790898e+00 7.9543929856801549e-03
    -1.1832159566199230e+00 8.1644460983469197e-03
    -1.3301243435223522e+00 7.9957478370155152e-03
    -1.2176857643454877e+00 7.9543929856801549e-03
    -1.1832159566199230e+00 7.8461649088479302e-03
    -9.7259752515927467e-01 7.8431372549019607e-03 -1.
    7.8920046264698458e-03 -8.9442719099991586e-01
    9.2339285670738156e-03 -5.5595944914256934e-01
    9.9086457366154793e-03 -4.9130368444051753e-01
    2.3863178957040466e-02 -1.6903085094570330e-01
    1.1339566996270572e-02 -4.0160966445124940e-01
    1.0522672835293128e-02 -4.4721359549995793e-01
    9.0564748108176597e-03 -5.7735026918962584e-01
    8.3189033080770299e-03 -7.0710678118654757e-01
    8.0442759853862084e-03 -7.9772403521746571e-01
    7.9198971311042043e-03 -8.6953870585248250e-01
    7.8431372549019607e-03 -1. 7.8552689516422202e-03
    -9.4590530292691744e-01 7.8461649088479302e-03
    -9.7259752515927467e-01 7.8920046264698458e-03
    -8.9442719099991586e-01 7.8705130353608540e-03
    -1.0871146130092180e+00 7.9543929856801549e-03
    -1.1832159566199230e+00 7.8552689516422202e-03
    -1.0571882797418488e+00 7.8920046264698458e-03
    -1.1180339887498947e+00 7.8920046264698458e-03
    -1.1180339887498947e+00 7.8431372549019607e-03 -1.
    7.8461649088479284e-03 -1.0281745265969473e+00
    7.8431372549019607e-03 -1. 7.9543929856801549e-03
    -1.1832159566199230e+00 7.9198971311042043e-03
    -1.1500350625790898e+00 7.8705130353608540e-03
    -1.0871146130092180e+00 7.9198971311042043e-03
    -1.1500350625790898e+00 7.8705130353608540e-03
    -1.0871146130092180e+00 7.8552689516422202e-03
    -9.4590530292691744e-01 7.8552689516422202e-03
    -1.0571882797418488e+00 7.8705130353608540e-03
    -9.1986621100779986e-01 7.9957478370155152e-03
    -1.2176857643454877e+00 7.9957478370155152e-03
    -1.2176857643454877e+00 7.8552689516422202e-03
    -1.0571882797418488e+00 7.9198971311042043e-03
    -1.1500350625790898e+00 7.9198971311042043e-03
    -1.1500350625790898e+00 8.2370818728222817e-03
    -1.3711309200802091e+00 7.8920046264698458e-03
    -1.1180339887498947e+00 7.9198971311042043e-03
    -1.1500350625790898e+00 7.8431372549019607e-03 -1.
    7.8431372549019607e-03 -1. 8.2370818728222817e-03
    -7.2932495748947290e-01 8.7553930298264783e-03
    -6.2017367294604220e-01 1.0195173807164032e-02
    -4.6940279403817725e-01 1.4188769156600639e-02
    -3.0151134457776357e-01 1.2478354962115544e-02
    -3.5355339059327373e-01 1.0522672835293128e-02
    -4.4721359549995793e-01 9.9086457366154793e-03
    -4.9130368444051753e-01 8.1644460983469214e-03
    -7.5180941155611236e-01 8.1644460983469214e-03
    -7.5180941155611236e-01 7.9543929856801549e-03
    -8.4515425472851646e-01 7.9198971311042043e-03
    -8.6953870585248250e-01 7.8552689516422202e-03
    -9.4590530292691744e-01 7.8431372549019607e-03 -1.
    7.8920046264698458e-03 -1.1180339887498947e+00
    7.8705130353608540e-03 -1.0871146130092180e+00
    7.8920046264698458e-03 -8.9442719099991586e-01
    7.8461649088479302e-03 -9.7259752515927467e-01
    7.8920046264698458e-03 -1.1180339887498947e+00
    7.9957478370155152e-03 -8.2122993409346845e-01
    7.8705130353608540e-03 -1.0871146130092180e+00
    7.9543929856801549e-03 -1.1832159566199230e+00
    7.8431372549019607e-03 -1. 7.8705130353608540e-03
    -9.1986621100779986e-01 7.8920046264698458e-03
    -1.1180339887498947e+00 7.8705130353608540e-03
    -1.0871146130092180e+00 7.8461649088479284e-03
    -1.0281745265969473e+00 7.8705130353608540e-03
    -1.0871146130092180e+00 7.8705130353608540e-03
    -1.0871146130092180e+00 7.9198971311042043e-03
    -1.1500350625790898e+00 7.8431372549019607e-03 -1.
    7.8431372549019607e-03 -1. 7.8920046264698458e-03
    -8.9442719099991586e-01 7.8431372549019607e-03 -1.
    7.9543929856801549e-03 -1.1832159566199230e+00
    8.5132614939603859e-03 -1.5075567228888185e+00
    8.5132614939603859e-03 -1.5075567228888185e+00
    7.9543929856801549e-03 -1.1832159566199230e+00
    7.8552689516422202e-03 -9.4590530292691744e-01
    7.8552689516422202e-03 -1.0571882797418488e+00
    7.8431372549019607e-03 -1. 8.5132614939603841e-03
    -6.6332495807107994e-01 8.7553930298264783e-03
    -6.2017367294604220e-01 1.4188769156600639e-02
    -3.0151134457776357e-01 1.4188769156600639e-02
    -3.0151134457776357e-01 1.2478354962115544e-02
    -3.5355339059327373e-01 9.9086457366154793e-03
    -4.9130368444051753e-01 9.9086457366154793e-03
    -4.9130368444051753e-01 9.2339285670738156e-03
    -5.5595944914256934e-01 8.5132614939603841e-03
    -6.6332495807107994e-01 7.9957478370155152e-03
    -8.2122993409346845e-01 7.9543929856801549e-03
    -8.4515425472851646e-01 7.8705130353608540e-03
    -9.1986621100779986e-01 7.8461649088479302e-03
    -9.7259752515927467e-01 7.8552689516422202e-03
    -9.4590530292691744e-01 7.8705130353608540e-03
    -1.0871146130092180e+00 8.0442759853862084e-03
    -1.2535663410560176e+00 7.8920046264698458e-03
    -1.1180339887498947e+00 7.8920046264698458e-03
    -1.1180339887498947e+00 7.8705130353608540e-03
    -1.0871146130092180e+00 7.8705130353608540e-03
    -1.0871146130092180e+00 7.9198971311042043e-03
    -1.1500350625790898e+00 7.9957478370155152e-03
    -1.2176857643454877e+00 7.9543929856801549e-03
    -1.1832159566199230e+00 7.8705130353608540e-03
    -1.0871146130092180e+00 7.8461649088479284e-03
    -1.0281745265969473e+00 7.8920046264698458e-03
    -1.1180339887498947e+00 7.8705130353608540e-03
    -1.0871146130092180e+00 7.9198971311042043e-03
    -1.1500350625790898e+00 7.9198971311042043e-03
    -1.1500350625790898e+00 7.9543929856801549e-03
    -1.1832159566199230e+00 7.8920046264698458e-03
    -1.1180339887498947e+00 7.9198971311042043e-03
    -1.1500350625790898e+00 7.8461649088479284e-03
    -1.0281745265969473e+00 8.1644460983469197e-03
    -1.3301243435223522e+00 8.7553930298264783e-03
    -1.6124515496597096e+00 7.9957478370155152e-03
    -1.2176857643454877e+00 7.9543929856801549e-03
    -1.1832159566199230e+00 7.8461649088479284e-03
    -1.0281745265969473e+00 7.8461649088479284e-03
    -1.0281745265969473e+00 7.8705130353608540e-03
    -9.1986621100779986e-01 8.1644460983469214e-03
    -7.5180941155611236e-01 8.8976963528930031e-03
    -5.9874081708009175e-01 1.4188769156600639e-02
    -3.0151134457776357e-01 1.5426589121171381e-02
    -2.7317918235407651e-01 1.4188769156600639e-02
    -3.0151134457776357e-01 1.1857708957152227e-02
    -3.7796447300922725e-01 1.0195173807164032e-02
    -4.6940279403817725e-01 9.9086457366154793e-03
    -4.9130368444051753e-01 9.2339285670738156e-03
    -5.5595944914256934e-01 8.3189033080770299e-03
    -7.0710678118654757e-01 8.0442759853862084e-03
    -7.9772403521746571e-01 8.1003573254011339e-03
    -7.7459666924148340e-01 7.8705130353608540e-03
    -9.1986621100779986e-01 7.8431372549019607e-03 -1.
    7.8552689516422202e-03 -1.0571882797418488e+00
    8.0442759853862084e-03 -1.2535663410560176e+00
    8.1644460983469197e-03 -1.3301243435223522e+00
    7.8431372549019607e-03 -1. 7.8705130353608540e-03
    -1.0871146130092180e+00 7.8431372549019607e-03 -1.
    7.8461649088479302e-03 -9.7259752515927467e-01
    7.8705130353608540e-03 -1.0871146130092180e+00
    7.9957478370155152e-03 -1.2176857643454877e+00
    7.8431372549019607e-03 -1. 7.9198971311042043e-03
    -1.1500350625790898e+00 7.8705130353608540e-03
    -1.0871146130092180e+00 7.8552689516422202e-03
    -1.0571882797418488e+00 7.8431372549019607e-03 -1.
    7.8431372549019607e-03 -1. 7.8461649088479302e-03
    -9.7259752515927467e-01 7.8705130353608540e-03
    -1.0871146130092180e+00 7.8705130353608540e-03
    -1.0871146130092180e+00 7.8461649088479284e-03
    -1.0281745265969473e+00 8.2370818728222817e-03
    -1.3711309200802091e+00 8.0442759853862084e-03
    -1.2535663410560176e+00 7.9198971311042043e-03
    -1.1500350625790898e+00 7.8461649088479284e-03
    -1.0281745265969473e+00 7.8552689516422202e-03
    -9.4590530292691744e-01 7.8920046264698458e-03
    -8.9442719099991586e-01 7.8705130353608540e-03
    -9.1986621100779986e-01 8.1644460983469214e-03
    -7.5180941155611236e-01 1.0522672835293128e-02
    -4.4721359549995793e-01 1.4188769156600639e-02
    -3.0151134457776357e-01 1.7120161767270561e-02
    -2.4253562503633294e-01 1.7120161767270561e-02
    -2.4253562503633294e-01 1.2478354962115544e-02
    -3.5355339059327373e-01 1.0522672835293128e-02
    -4.4721359549995793e-01 1.0522672835293128e-02
    -4.4721359549995793e-01 1.0195173807164032e-02
    -4.6940279403817725e-01 1.0522672835293128e-02
    -4.4721359549995793e-01 8.4106654409576379e-03
    -6.8511878904467427e-01 8.4106654409576379e-03
    -6.8511878904467427e-01 7.8705130353608540e-03
    -9.1986621100779986e-01 7.8705130353608540e-03
    -1.0871146130092180e+00 7.9543929856801549e-03
    -8.4515425472851646e-01 7.8461649088479284e-03
    -1.0281745265969473e+00 7.9957478370155152e-03
    -1.2176857643454877e+00 8.1644460983469197e-03
    -1.3301243435223522e+00 8.1644460983469197e-03
    -1.3301243435223522e+00 7.8920046264698458e-03
    -1.1180339887498947e+00 7.8552689516422202e-03
    -1.0571882797418488e+00 7.8552689516422202e-03
    -9.4590530292691744e-01 7.8552689516422202e-03
    -9.4590530292691744e-01 7.8552689516422202e-03
    -9.4590530292691744e-01 7.8705130353608540e-03
    -1.0871146130092180e+00 7.8552689516422202e-03
    -1.0571882797418488e+00 7.8431372549019607e-03 -1.
    7.8461649088479302e-03 -9.7259752515927467e-01
    7.8431372549019607e-03 -1. 7.8461649088479284e-03
    -1.0281745265969473e+00 7.8920046264698458e-03
    -8.9442719099991586e-01 7.8431372549019607e-03 -1.
    7.8920046264698458e-03 -8.9442719099991586e-01
    8.6277505602655180e-03 -1.5583874449479591e+00
    7.9198971311042043e-03 -1.1500350625790898e+00
    7.8705130353608540e-03 -1.0871146130092180e+00
    7.8920046264698458e-03 -1.1180339887498947e+00
    7.8461649088479302e-03 -9.7259752515927467e-01
    7.9198971311042043e-03 -8.6953870585248250e-01
    8.1003573254011339e-03 -7.7459666924148340e-01
    8.7553930298264783e-03 -6.2017367294604220e-01
    1.1339566996270572e-02 -4.0160966445124940e-01
    1.7120161767270561e-02 -2.4253562503633294e-01
    1.7120161767270561e-02 -2.4253562503633294e-01
    1.7120161767270561e-02 -2.4253562503633294e-01
    1.3236910050028106e-02 -3.2816506165694681e-01
    1.1339566996270572e-02 -4.0160966445124940e-01
    1.0522672835293128e-02 -4.4721359549995793e-01
    1.1339566996270572e-02 -4.0160966445124940e-01
    1.0900114397395523e-02 -4.2465029006520061e-01
    9.9086457366154793e-03 -4.9130368444051753e-01
    8.4106654409576379e-03 -6.8511878904467427e-01
    8.2370818728222817e-03 -7.2932495748947290e-01
    8.0442759853862084e-03 -7.9772403521746571e-01
    8.1003573254011339e-03 -7.7459666924148340e-01
    7.8920046264698458e-03 -8.9442719099991586e-01
    7.8920046264698458e-03 -8.9442719099991586e-01
    7.8461649088479284e-03 -1.0281745265969473e+00
    7.9957478370155152e-03 -1.2176857643454877e+00
    8.1644460983469197e-03 -1.3301243435223522e+00
    8.0442759853862084e-03 -1.2535663410560176e+00
    7.8705130353608540e-03 -1.0871146130092180e+00
    8.0442759853862084e-03 -1.2535663410560176e+00
    7.9198971311042043e-03 -1.1500350625790898e+00
    7.9543929856801549e-03 -1.1832159566199230e+00
    7.8705130353608540e-03 -1.0871146130092180e+00
    7.8920046264698458e-03 -1.1180339887498947e+00
    7.8920046264698458e-03 -8.9442719099991586e-01
    7.8920046264698458e-03 -8.9442719099991586e-01
    7.8552689516422202e-03 -9.4590530292691744e-01
    7.8552689516422202e-03 -1.0571882797418488e+00
    7.9957478370155152e-03 -1.2176857643454877e+00
    7.9198971311042043e-03 -1.1500350625790898e+00
    8.2370818728222817e-03 -1.3711309200802091e+00
    7.8461649088479284e-03 -1.0281745265969473e+00
    7.8461649088479302e-03 -9.7259752515927467e-01
    7.8552689516422202e-03 -9.4590530292691744e-01
    7.8431372549019607e-03 -1. 7.8552689516422202e-03
    -9.4590530292691744e-01 8.6277505602655180e-03
    -6.4168894791974795e-01 9.2339285670738156e-03
    -5.5595944914256934e-01 1.5426589121171381e-02
    -2.7317918235407651e-01 1.5426589121171381e-02
    -2.7317918235407651e-01 1.9624886028901153e-02
    -2.0851441405707474e-01 1.7120161767270561e-02
    -2.4253562503633294e-01 1.3236910050028106e-02
    -3.2816506165694681e-01 1.1339566996270572e-02
    -4.0160966445124940e-01 1.1339566996270572e-02
    -4.0160966445124940e-01 1.0522672835293128e-02
    -4.4721359549995793e-01 9.9086457366154793e-03
    -4.9130368444051753e-01 9.6562668431543919e-03
    -5.1298917604257710e-01 8.8976963528930031e-03
    -5.9874081708009175e-01 8.2370818728222817e-03
    -7.2932495748947290e-01 8.5132614939603841e-03
    -6.6332495807107994e-01 8.1003573254011339e-03
    -7.7459666924148340e-01 8.1003573254011339e-03
    -7.7459666924148340e-01 7.8461649088479302e-03
    -9.7259752515927467e-01 7.8461649088479284e-03
    -1.0281745265969473e+00 7.8431372549019607e-03 -1.
    7.8552689516422202e-03 -1.0571882797418488e+00
    7.8431372549019607e-03 -1. 7.8461649088479284e-03
    -1.0281745265969473e+00 7.8461649088479284e-03
    -1.0281745265969473e+00 7.8920046264698458e-03
    -1.1180339887498947e+00 7.8552689516422202e-03
    -1.0571882797418488e+00 7.8461649088479302e-03
    -9.7259752515927467e-01 7.8705130353608540e-03
    -1.0871146130092180e+00 7.8920046264698458e-03
    -8.9442719099991586e-01 7.9198971311042043e-03
    -8.6953870585248250e-01 8.0442759853862084e-03
    -7.9772403521746571e-01 7.9543929856801549e-03
    -1.1832159566199230e+00 7.8920046264698458e-03
    -1.1180339887498947e+00 7.9543929856801549e-03
    -1.1832159566199230e+00 7.8552689516422202e-03
    -1.0571882797418488e+00 7.8461649088479284e-03
    -1.0281745265969473e+00 7.8552689516422202e-03
    -9.4590530292691744e-01 7.8431372549019607e-03 -1.
    7.8431372549019607e-03 -1. 8.4106654409576379e-03
    -6.8511878904467427e-01 8.7553930298264783e-03
    -6.2017367294604220e-01 9.9086457366154793e-03
    -4.9130368444051753e-01 1.3236910050028106e-02
    -3.2816506165694681e-01 1.5426589121171381e-02
    -2.7317918235407651e-01 1.7120161767270561e-02
    -2.4253562503633294e-01 1.5426589121171381e-02
    -2.7317918235407651e-01 1.1857708957152227e-02
    -3.7796447300922725e-01 1.1339566996270572e-02
    -4.0160966445124940e-01 1.1339566996270572e-02
    -4.0160966445124940e-01 1.1339566996270572e-02
    -4.0160966445124940e-01 1.0195173807164032e-02
    -4.6940279403817725e-01 9.6562668431543919e-03
    -5.1298917604257710e-01 9.2339285670738156e-03
    -5.5595944914256934e-01 9.0564748108176597e-03
    -5.7735026918962584e-01 8.3189033080770299e-03
    -7.0710678118654757e-01 8.2370818728222817e-03
    -7.2932495748947290e-01 7.8705130353608540e-03
    -9.1986621100779986e-01 7.8705130353608540e-03
    -9.1986621100779986e-01 7.8552689516422202e-03
    -9.4590530292691744e-01 7.9957478370155152e-03
    -8.2122993409346845e-01 7.8705130353608540e-03
    -1.0871146130092180e+00 7.8461649088479284e-03
    -1.0281745265969473e+00 7.8461649088479302e-03
    -9.7259752515927467e-01 7.8552689516422202e-03
    -1.0571882797418488e+00 7.9543929856801549e-03
    -1.1832159566199230e+00 7.9543929856801549e-03
    -1.1832159566199230e+00 7.8920046264698458e-03
    -1.1180339887498947e+00 7.8431372549019607e-03 -1.
    7.8461649088479284e-03 -1.0281745265969473e+00
    7.9957478370155152e-03 -1.2176857643454877e+00
    7.9957478370155152e-03 -1.2176857643454877e+00
    8.2370818728222817e-03 -1.3711309200802091e+00
    7.9198971311042043e-03 -1.1500350625790898e+00
    7.8552689516422202e-03 -1.0571882797418488e+00
    7.8920046264698458e-03 -8.9442719099991586e-01
    7.8461649088479284e-03 -1.0281745265969473e+00
    7.8431372549019607e-03 -1. 7.8461649088479302e-03
    -9.7259752515927467e-01 8.1644460983469214e-03
    -7.5180941155611236e-01 8.6277505602655180e-03
    -6.4168894791974795e-01 8.7553930298264783e-03
    -6.2017367294604220e-01 9.9086457366154793e-03
    -4.9130368444051753e-01 1.3236910050028106e-02
    -3.2816506165694681e-01 1.7120161767270561e-02
    -2.4253562503633294e-01 1.9624886028901153e-02
    -2.0851441405707474e-01 1.5426589121171381e-02
    -2.7317918235407651e-01 1.1857708957152227e-02
    -3.7796447300922725e-01 1.1339566996270572e-02
    -4.0160966445124940e-01 1.0522672835293128e-02
    -4.4721359549995793e-01 1.0522672835293128e-02
    -4.4721359549995793e-01 1.0900114397395523e-02
    -4.2465029006520061e-01 9.9086457366154793e-03
    -4.9130368444051753e-01 9.9086457366154793e-03
    -4.9130368444051753e-01 9.6562668431543919e-03
    -5.1298917604257710e-01 9.4327497145561545e-03
    -5.3452248382484868e-01 8.0442759853862084e-03
    -7.9772403521746571e-01 8.2370818728222817e-03
    -7.2932495748947290e-01 8.2370818728222817e-03
    -7.2932495748947290e-01 7.9543929856801549e-03
    -8.4515425472851646e-01 7.8461649088479302e-03
    -9.7259752515927467e-01 7.8705130353608540e-03
    -9.1986621100779986e-01 7.8920046264698458e-03
    -1.1180339887498947e+00 7.8920046264698458e-03
    -1.1180339887498947e+00 7.9957478370155152e-03
    -1.2176857643454877e+00 7.8461649088479284e-03
    -1.0281745265969473e+00 7.8461649088479302e-03
    -9.7259752515927467e-01 7.9957478370155152e-03
    -1.2176857643454877e+00 7.9957478370155152e-03
    -1.2176857643454877e+00 7.8461649088479284e-03
    -1.0281745265969473e+00 7.8920046264698458e-03
    -1.1180339887498947e+00 7.8920046264698458e-03
    -1.1180339887498947e+00 7.9957478370155152e-03
    -1.2176857643454877e+00 7.9543929856801549e-03
    -1.1832159566199230e+00 7.9198971311042043e-03
    -1.1500350625790898e+00 7.8920046264698458e-03
    -8.9442719099991586e-01 7.8552689516422202e-03
    -9.4590530292691744e-01 7.8461649088479302e-03
    -9.7259752515927467e-01 8.0442759853862084e-03
    -7.9772403521746571e-01 8.3189033080770299e-03
    -7.0710678118654757e-01 8.6277505602655180e-03
    -6.4168894791974795e-01 8.7553930298264783e-03
    -6.2017367294604220e-01 1.0900114397395523e-02
    -4.2465029006520061e-01 1.4188769156600639e-02
    -3.0151134457776357e-01 1.4188769156600639e-02
    -3.0151134457776357e-01 2.3863178957040466e-02
    -1.6903085094570330e-01 1.4188769156600639e-02
    -3.0151134457776357e-01 1.1857708957152227e-02
    -3.7796447300922725e-01 1.1339566996270572e-02
    -4.0160966445124940e-01 1.0522672835293128e-02
    -4.4721359549995793e-01 1.0522672835293128e-02
    -4.4721359549995793e-01 1.0522672835293128e-02
    -4.4721359549995793e-01 1.0900114397395523e-02
    -4.2465029006520061e-01 9.9086457366154793e-03
    -4.9130368444051753e-01 1.0195173807164032e-02
    -4.6940279403817725e-01 9.9086457366154793e-03
    -4.9130368444051753e-01 8.8976963528930031e-03
    -5.9874081708009175e-01 8.0442759853862084e-03
    -7.9772403521746571e-01 8.0442759853862084e-03
    -7.9772403521746571e-01 7.8920046264698458e-03
    -8.9442719099991586e-01 7.8552689516422202e-03
    -9.4590530292691744e-01 7.8552689516422202e-03
    -9.4590530292691744e-01 7.9198971311042043e-03
    -8.6953870585248250e-01 7.9543929856801549e-03
    -1.1832159566199230e+00 7.9957478370155152e-03
    -1.2176857643454877e+00 7.8552689516422202e-03
    -1.0571882797418488e+00 7.8431372549019607e-03 -1.
    7.8705130353608540e-03 -9.1986621100779986e-01
    7.8431372549019607e-03 -1. 8.1644460983469197e-03
    -1.3301243435223522e+00 7.9957478370155152e-03
    -1.2176857643454877e+00 7.9543929856801549e-03
    -1.1832159566199230e+00 7.8552689516422202e-03
    -9.4590530292691744e-01 7.9543929856801549e-03
    -8.4515425472851646e-01 7.8552689516422202e-03
    -9.4590530292691744e-01 7.8705130353608540e-03
    -9.1986621100779986e-01 8.1003573254011339e-03
    -7.7459666924148340e-01 8.1644460983469214e-03
    -7.5180941155611236e-01 8.2370818728222817e-03
    -7.2932495748947290e-01 8.6277505602655180e-03
    -6.4168894791974795e-01 8.7553930298264783e-03
    -6.2017367294604220e-01 1.0195173807164032e-02
    -4.6940279403817725e-01 1.0900114397395523e-02
    -4.2465029006520061e-01 1.4188769156600639e-02
    -3.0151134457776357e-01 1.5426589121171381e-02
    -2.7317918235407651e-01 1.7120161767270561e-02
    -2.4253562503633294e-01 1.3236910050028106e-02
    -3.2816506165694681e-01 1.2478354962115544e-02
    -3.5355339059327373e-01 1.1339566996270572e-02
    -4.0160966445124940e-01 1.0900114397395523e-02
    -4.2465029006520061e-01 1.0900114397395523e-02
    -4.2465029006520061e-01 1.1339566996270572e-02
    -4.0160966445124940e-01 1.1339566996270572e-02
    -4.0160966445124940e-01 1.0900114397395523e-02
    -4.2465029006520061e-01 1.0522672835293128e-02
    -4.4721359549995793e-01 1.0900114397395523e-02
    -4.2465029006520061e-01 1.0900114397395523e-02
    -4.2465029006520061e-01 1.0522672835293128e-02
    -4.4721359549995793e-01 8.5132614939603841e-03
    -6.6332495807107994e-01 8.1003573254011339e-03
    -7.7459666924148340e-01 7.8552689516422202e-03
    -9.4590530292691744e-01 7.8920046264698458e-03
    -8.9442719099991586e-01 7.9198971311042043e-03
    -8.6953870585248250e-01 7.8431372549019607e-03 -1.
    7.8920046264698458e-03 -1.1180339887498947e+00
    7.8552689516422202e-03 -1.0571882797418488e+00
    7.8552689516422202e-03 -9.4590530292691744e-01
    7.8705130353608540e-03 -9.1986621100779986e-01
    8.1003573254011339e-03 -1.2909944487358056e+00
    7.9957478370155152e-03 -1.2176857643454877e+00
    8.1003573254011339e-03 -1.2909944487358056e+00
    7.8705130353608540e-03 -9.1986621100779986e-01
    7.8461649088479284e-03 -1.0281745265969473e+00
    7.8552689516422202e-03 -9.4590530292691744e-01
    7.8705130353608540e-03 -9.1986621100779986e-01
    8.1003573254011339e-03 -7.7459666924148340e-01
    8.1644460983469214e-03 -7.5180941155611236e-01
    9.0564748108176597e-03 -5.7735026918962584e-01
    8.8976963528930031e-03 -5.9874081708009175e-01
    8.8976963528930031e-03 -5.9874081708009175e-01
    9.9086457366154793e-03 -4.9130368444051753e-01
    1.1339566996270572e-02 -4.0160966445124940e-01
    1.1857708957152227e-02 -3.7796447300922725e-01
    1.4188769156600639e-02 -3.0151134457776357e-01
    2.3863178957040466e-02 -1.6903085094570330e-01
    1.7120161767270561e-02 -2.4253562503633294e-01
    1.4188769156600639e-02 -3.0151134457776357e-01
    1.4188769156600639e-02 -3.0151134457776357e-01
    1.1857708957152227e-02 -3.7796447300922725e-01
    1.1339566996270572e-02 -4.0160966445124940e-01
    1.1857708957152227e-02 -3.7796447300922725e-01
    1.2478354962115544e-02 -3.5355339059327373e-01
    1.2478354962115544e-02 -3.5355339059327373e-01
    1.3236910050028106e-02 -3.2816506165694681e-01
    1.4188769156600639e-02 -3.0151134457776357e-01
    1.2478354962115544e-02 -3.5355339059327373e-01
    1.2478354962115544e-02 -3.5355339059327373e-01
    1.1339566996270572e-02 -4.0160966445124940e-01
    1.0522672835293128e-02 -4.4721359549995793e-01
    9.6562668431543919e-03 -5.1298917604257710e-01
    8.5132614939603841e-03 -6.6332495807107994e-01
    8.4106654409576379e-03 -6.8511878904467427e-01
    8.1003573254011339e-03 -7.7459666924148340e-01
    7.9957478370155152e-03 -8.2122993409346845e-01
    7.8431372549019607e-03 -1. 7.8552689516422202e-03
    -1.0571882797418488e+00 7.8552689516422202e-03
    -1.0571882797418488e+00 7.8461649088479302e-03
    -9.7259752515927467e-01 7.9198971311042043e-03
    -1.1500350625790898e+00 7.9957478370155152e-03
    -1.2176857643454877e+00 7.8552689516422202e-03
    -1.0571882797418488e+00 7.8461649088479302e-03
    -9.7259752515927467e-01 7.8461649088479302e-03
    -9.7259752515927467e-01 7.9543929856801549e-03
    -8.4515425472851646e-01 8.1003573254011339e-03
    -7.7459666924148340e-01 8.4106654409576379e-03
    -6.8511878904467427e-01 8.4106654409576379e-03
    -6.8511878904467427e-01 9.2339285670738156e-03
    -5.5595944914256934e-01 9.2339285670738156e-03
    -5.5595944914256934e-01 1.1339566996270572e-02
    -4.0160966445124940e-01 1.4188769156600639e-02
    -3.0151134457776357e-01 1.3236910050028106e-02
    -3.2816506165694681e-01 1.3236910050028106e-02
    -3.2816506165694681e-01 1.5426589121171381e-02
    -2.7317918235407651e-01 1.7120161767270561e-02
    -2.4253562503633294e-01 1. 0. 1.9624886028901153e-02
    -2.0851441405707474e-01 1.7120161767270561e-02
    -2.4253562503633294e-01 1.5426589121171381e-02
    -2.7317918235407651e-01 1.5426589121171381e-02
    -2.7317918235407651e-01 1.5426589121171381e-02
    -2.7317918235407651e-01 1.5426589121171381e-02
    -2.7317918235407651e-01 1.5426589121171381e-02
    -2.7317918235407651e-01 1.5426589121171381e-02
    -2.7317918235407651e-01 1.5426589121171381e-02
    -2.7317918235407651e-01 1.5426589121171381e-02
    -2.7317918235407651e-01 1.4188769156600639e-02
    -3.0151134457776357e-01 1.3236910050028106e-02
    -3.2816506165694681e-01 1.1857708957152227e-02
    -3.7796447300922725e-01 1.1857708957152227e-02
    -3.7796447300922725e-01 1.0900114397395523e-02
    -4.2465029006520061e-01 9.2339285670738156e-03
    -5.5595944914256934e-01 8.4106654409576379e-03
    -6.8511878904467427e-01 7.9198971311042043e-03
    -8.6953870585248250e-01 8.2370818728222817e-03
    -7.2932495748947290e-01 8.1644460983469214e-03
    -7.5180941155611236e-01 7.8461649088479302e-03
    -9.7259752515927467e-01 8.0442759853862084e-03
    -7.9772403521746571e-01 7.8705130353608540e-03
    -1.0871146130092180e+00 8.1003573254011339e-03
    -7.7459666924148340e-01 7.8461649088479302e-03
    -9.7259752515927467e-01 8.0442759853862084e-03
    -7.9772403521746571e-01 7.9957478370155152e-03
    -8.2122993409346845e-01 8.1644460983469214e-03
    -7.5180941155611236e-01 8.3189033080770299e-03
    -7.0710678118654757e-01 8.5132614939603841e-03
    -6.6332495807107994e-01 9.6562668431543919e-03
    -5.1298917604257710e-01 1.0522672835293128e-02
    -4.4721359549995793e-01 1.4188769156600639e-02
    -3.0151134457776357e-01 1.5426589121171381e-02
    -2.7317918235407651e-01 1.5426589121171381e-02
    -2.7317918235407651e-01 1.7120161767270561e-02
    -2.4253562503633294e-01 1.7120161767270561e-02
    -2.4253562503633294e-01 1.7120161767270561e-02
    -2.4253562503633294e-01 1.7120161767270561e-02
    -2.4253562503633294e-01 3.3509129172532327e-02
    -1.1867816581938533e-01 1.7120161767270561e-02
    -2.4253562503633294e-01 1.7120161767270561e-02
    -2.4253562503633294e-01 1.7120161767270561e-02
    -2.4253562503633294e-01 1.9624886028901153e-02
    -2.0851441405707474e-01 2.3863178957040466e-02
    -1.6903085094570330e-01 1.9624886028901153e-02
    -2.0851441405707474e-01 1.9624886028901153e-02
    -2.0851441405707474e-01 1.9624886028901153e-02
    -2.0851441405707474e-01 1.9624886028901153e-02
    -2.0851441405707474e-01 1.9624886028901153e-02
    -2.0851441405707474e-01 1.9624886028901153e-02
    -2.0851441405707474e-01 1.7120161767270561e-02
    -2.4253562503633294e-01 1.7120161767270561e-02
    -2.4253562503633294e-01 1.9624886028901153e-02
    -2.0851441405707474e-01 1.9624886028901153e-02
    -2.0851441405707474e-01 1.1339566996270572e-02
    -4.0160966445124940e-01 1.1857708957152227e-02
    -3.7796447300922725e-01 1.1339566996270572e-02
    -4.0160966445124940e-01 1.0195173807164032e-02
    -4.6940279403817725e-01 8.3189033080770299e-03
    -7.0710678118654757e-01 8.6277505602655180e-03
    -6.4168894791974795e-01 1.1339566996270572e-02
    -4.0160966445124940e-01 9.0564748108176597e-03
    -5.7735026918962584e-01 8.0442759853862084e-03
    -7.9772403521746571e-01 8.4106654409576379e-03
    -6.8511878904467427e-01 8.1644460983469214e-03
    -7.5180941155611236e-01 8.1644460983469214e-03
    -7.5180941155611236e-01 8.2370818728222817e-03
    -7.2932495748947290e-01 8.5132614939603841e-03
    -6.6332495807107994e-01 9.2339285670738156e-03
    -5.5595944914256934e-01 1.1857708957152227e-02
    -3.7796447300922725e-01 1.5426589121171381e-02
    -2.7317918235407651e-01 1.5426589121171381e-02
    -2.7317918235407651e-01 1.5426589121171381e-02
    -2.7317918235407651e-01 1.7120161767270561e-02
    -2.4253562503633294e-01 1.9624886028901153e-02
    -2.0851441405707474e-01 1.9624886028901153e-02
    -2.0851441405707474e-01 1.9624886028901153e-02
    -2.0851441405707474e-01 1.7120161767270561e-02
    -2.4253562503633294e-01</input_scale>
  <output_scale>
    1.0526315789473684e+00 0.</output_scale>
  <inv_output_scale>
    9.4999999999999996e-01 0.</inv_output_scale>
  <weights>
    <_>
      -1.1719048386403424e-03 -2.2903224389177911e-04
      -9.9637750405231888e-04 -5.5088375721748159e-04
      2.2039270841974236e-04 1.2144499427915077e-03
      9.9728247011042037e-04 2.0453599492093418e-04
      -7.2831549546728146e-04 -4.2920232853557353e-04
      -1.1054717958401724e-03 -1.2409612586460942e-04
      -2.1397120762249158e-05 -7.8018402384446585e-04
      6.7194088742161514e-04 -1.1208781013474275e-03
      1.1037170489498088e-03 1.0083693640301039e-03
      -2.5698247005999147e-04 -3.4383640164285737e-05
      3.0002183913935715e-04 -7.7645728251324352e-04
      -6.5397802009701264e-04 9.5527311481024093e-04
      -1.0954164450422850e-03 -3.1663012947851025e-04
      6.1523554708813478e-04 -6.3403300196013517e-04
      1.0630743572223426e-03 -2.4215284090006096e-04
      1.2150750992007805e-03 -3.7732545206526025e-04
      2.2581237915161135e-04 8.1166924113520002e-04
      1.1322676431532379e-03 5.1786688077618958e-04
      8.1904968067006900e-04 5.2277548999592920e-04
      1.2256443938238879e-03 -1.5902424652943092e-04
      4.0669735095859375e-02 5.0226601922351783e-03
      4.7174218468398737e-03 2.6699731772954556e-03
      -4.3786592150376249e-03 1.3323659096076493e-03
      -3.9882725685665629e-03 -3.0837787779080775e-03
      -3.4425417852648727e-04 -8.8307408565280517e-03
      2.2764465242171581e-03 4.2796951423069987e-03
      3.3084894639631912e-03 -2.7050987577871754e-03
      -1.3731510068532313e-03 3.4686458972858969e-03
      -1.1880491533274610e-03 3.1153740127145787e-03
      6.8530967343293408e-03 -7.2937278771123054e-03
      -2.6739567650808042e-03 2.7816564085132132e-03
      1.2434863382998380e-03 6.0385927628255429e-03
      3.1044809256585044e-03 -2.6126325434656437e-03
      -1.3260520929835094e-03 2.9847003954342880e-03
      3.5170679267712904e-03 2.3952580085117893e-03
      -4.2957144975161411e-03 -1.1829137400051779e-03
      -9.4547583057669037e-03 3.4078671401781891e-03
      2.8059665074335583e-03 1.8000662289893389e-03
      5.9415741316627317e-03 2.4252520587315627e-03
      -6.1146134615336894e-03 -5.1132566167935573e-03
      1.9240751509515003e-01 5.8528602306449282e-02
      4.9603500944973282e-02 1.9711196144970140e-02
      -4.4089786185214738e-02 1.2670541521251912e-02
      -1.8991637058946947e-02 -3.9595711620002409e-02
      -6.6670716044361150e-03 7.2672704197686427e-02
      1.6955909133695012e-02 3.7778374005159245e-02
      1.9102929525818418e-02 -2.7556771380476099e-02
      -3.8113963855626980e-03 1.5573627207338129e-02
      -5.8012036950218322e-03 3.4099165194691201e-02
      -7.6606004178217307e-02 7.4527074411232130e-02
      -3.5999161063556717e-02 1.0187244972798964e-02
      5.4183553344663588e-03 5.0617367269581472e-02
      1.6015210172357634e-02 -7.0049377438490936e-03
      6.4377275440334031e-02 -6.6655804872093175e-02
      2.1030105069888155e-02 1.6352988540681124e-02
      -5.2143606338465293e-02 -6.3651759908286892e-02
      7.5851135153501503e-02 2.0622804115113802e-02
      2.9974000272743197e-02 1.0182827502072063e-02
      4.7733585432464337e-02 2.4602736695746079e-02
      -5.6933105899174413e-02 -4.6155253885536325e-02
      -2.3807727694599778e-01 -6.9652421756164762e-02
      -5.7121761056789476e-02 -2.4140756992017499e-02
      5.1981115659117755e-02 -1.3850599843429684e-02
      2.3374535491962091e-02 4.4823480853961511e-02
      7.6813287188497526e-03 -8.3321009831141130e-02
      -2.0664957185031481e-02 -4.4329685059557367e-02
      -2.1361129872485222e-02 3.0660689538182774e-02
      4.6463639819923699e-03 -1.8945188326473558e-02
      8.5679277473379861e-03 -3.7717297329031826e-02
      8.0122497653448158e-02 -8.4132004895429130e-02
      4.2738241368510045e-02 -1.1457559880981859e-02
      -6.2395087130328077e-03 -5.8312668925036566e-02
      -1.7950719000166211e-02 9.8599366626169194e-03
      -7.4270307967168270e-02 7.5709476475186263e-02
      -2.2104385733169418e-02 -1.9046931595764875e-02
      6.3221732973576611e-02 7.3062338028152540e-02
      -8.3757479147386585e-02 -2.5960548608369292e-02
      -3.3450728685049523e-02 -1.0347420905665093e-02
      -5.6343353219952999e-02 -2.7681835598813553e-02
      6.6982317209915931e-02 5.3462014087402601e-02
      -1.1680517810655869e-01 -3.5407368387531633e-02
      -2.8067023323618434e-02 -1.2420676514259019e-02
      2.3760984070442998e-02 -5.3773040661557600e-03
      1.1592118012067757e-02 2.2523519416315918e-02
      2.9208717208806453e-03 -4.1281128359946850e-02
      -9.8992671493209061e-03 -2.2129559902885735e-02
      -9.6861849315122515e-03 1.4432435025769012e-02
      1.5897786329037253e-03 -1.0268611329283720e-02
      4.8562924423409927e-03 -1.8148676169509822e-02
      3.8959533842875670e-02 -4.1206912600096068e-02
      1.9429582663059025e-02 -5.7162797817054854e-03
      -4.4422625529644804e-03 -2.7607137950937027e-02
      -8.3017089779946259e-03 5.4640121514693335e-03
      -3.6849399864679555e-02 3.8377538157173589e-02
      -1.2488779925678900e-02 -9.5724720083266192e-03
      3.2026905009589414e-02 3.6117927384392290e-02
      -4.2837763311116231e-02 -1.2495458000418080e-02
      -1.7350019256860923e-02 -4.2873066465504706e-03
      -2.8188159606667689e-02 -1.2611087621916652e-02
      3.2856208449437492e-02 2.6912024571593574e-02
      -1.1637941394059201e-01 -3.6778361039984699e-02
      -2.7216256253464167e-02 -1.1790747860448880e-02
      2.4905070289193067e-02 -6.7267050889483560e-03
      1.1081289948502595e-02 2.2066008838189658e-02
      3.0737368712028439e-03 -4.1066954107955286e-02
      -1.1139891480009717e-02 -2.2537838886734222e-02
      -9.4923099206502444e-03 1.4026237626867860e-02
      3.1893559044656296e-03 -9.8103131088509311e-03
      4.1565489552021686e-03 -1.9546270051850185e-02
      3.7035916327929165e-02 -4.1358706688441979e-02
      1.9439166941546925e-02 -4.3256952945573820e-03
      -3.0146913914019355e-03 -2.7494293724859876e-02
      -1.0292108591828827e-02 4.7686977155676951e-03
      -3.5247827335449136e-02 3.7621149032866952e-02
      -1.1994843227813985e-02 -9.2976370942958776e-03
      3.1379921362575398e-02 3.6019260365776892e-02
      -4.1360725938436996e-02 -1.1596437240375897e-02
      -1.6140277720909504e-02 -4.3811329154843561e-03
      -2.7409266673489908e-02 -1.2624294349926202e-02
      3.3911859005625489e-02 2.5486372016609821e-02
      -2.3729702185759682e-01 -7.1081113218273040e-02
      -5.6655335113648092e-02 -2.3413911113513111e-02
      5.0246822734063230e-02 -1.4010257935025651e-02
      2.1680795674439698e-02 4.4306655950027515e-02
      8.1242055005941068e-03 -8.2517290189136908e-02
      -2.1157715923958060e-02 -4.4454945248839528e-02
      -2.1920928435504826e-02 3.1531800070282549e-02
      5.7524768307126509e-03 -1.8566872054985365e-02
      6.8612319007938386e-03 -3.9643595578364013e-02
      8.0479212883664816e-02 -8.2169771473516284e-02
      4.2195767819805434e-02 -9.8508216070357195e-03
      -6.2493042714018496e-03 -5.8561294379051623e-02
      -2.0213264486222328e-02 1.0923701806607386e-02
      -7.3914337868994040e-02 7.7685128105846477e-02
      -2.3978186386420620e-02 -1.9132419911359114e-02
      6.3338255770506668e-02 7.2660514772790966e-02
      -8.4415763096640783e-02 -2.6014713342387683e-02
      -3.3113253222231090e-02 -9.3562115797469932e-03
      -5.7773585735083899e-02 -2.7441406449582234e-02
      6.5389733695290372e-02 5.4285209693792837e-02
      -2.3710346559655721e-01 -7.1098656246033745e-02
      -5.8883910645585603e-02 -2.4705112927013932e-02
      5.0365435494290609e-02 -1.2449809023783308e-02
      2.3270178352591635e-02 4.5643090602362463e-02
      8.5257318707043714e-03 -8.2780243503900230e-02
      -1.9666515685340672e-02 -4.3698995871263753e-02
      -2.2867046350576369e-02 3.2060160348716872e-02
      5.9381339180892738e-03 -2.0329842481533664e-02
      6.6350688633338749e-03 -3.8268897306062713e-02
      8.0193960354210572e-02 -8.2532669670162262e-02
      4.2633861086470458e-02 -1.1486861311826108e-02
      -6.6058075030210146e-03 -5.7464920969884613e-02
      -1.9112637578869850e-02 8.7036738963198624e-03
      -7.5147228817636275e-02 7.5889242588164540e-02
      -2.2675455640906388e-02 -1.9573298146107917e-02
      6.1602057194748455e-02 7.1508204161722946e-02
      -8.4125294589130442e-02 -2.5643291232753163e-02
      -3.3831412269080825e-02 -9.6815223576342431e-03
      -5.6480590794732582e-02 -2.8665922670821430e-02
      6.7329339659419604e-02 5.4701765893935723e-02
      -7.1082616097064538e-02 -1.8631904597903967e-02
      -1.5399651403164646e-02 -5.6258100728517908e-03
      1.2765976595350559e-02 -2.8398218736350235e-03
      5.0077605454495562e-03 1.1282362493934618e-02
      1.8321451214750779e-03 -1.9286856021921331e-02
      -6.2857744948834433e-03 -1.1509295447283997e-02
      -6.0450215952195536e-03 7.0460383600213028e-03
      9.8229554735108329e-04 -5.9933610115318310e-03
      2.0359539102161694e-03 -1.0953106754310223e-02
      1.5513618743131858e-02 -1.8775575771411902e-02
      1.1372914903244271e-02 -3.9392334325450444e-03
      -7.7959245989408274e-04 -1.6696919895893805e-02
      -5.6174621561569625e-03 2.2021601376439074e-03
      -1.7294760146796550e-02 1.8854405614920043e-02
      -7.4833779109240326e-03 -4.1673397223296613e-03
      1.6184129228458681e-02 1.7836900248567711e-02
      -1.8580319343587323e-02 -6.7469049111055527e-03
      -9.9383819230915230e-03 -2.8263968262695746e-03
      -1.4592828899463450e-02 -8.1882173585607690e-03
      1.6921629987148998e-02 1.5418240995878426e-02
      -2.3713767313139911e-01 -7.1427390385834580e-02
      -5.7251147651550344e-02 -2.4808912489278488e-02
      5.1086051486595389e-02 -1.3225458416140153e-02
      2.2218424685862315e-02 4.5010920234426252e-02
      6.1607414436319775e-03 -8.2399772627696807e-02
      -2.0666297052992510e-02 -4.3917571645218763e-02
      -2.2561401366440352e-02 3.1853826023429059e-02
      6.4060328939716422e-03 -2.0345649690220961e-02
      8.3781240360046166e-03 -3.7306732097817992e-02
      8.0983511317280918e-02 -8.2257427352706816e-02
      4.2270852407436860e-02 -1.0597855595065606e-02
      -8.4487921005669282e-03 -5.8110973840190087e-02
      -1.8016835553514871e-02 1.0325880790338761e-02
      -7.4058908443262045e-02 7.7189574295295341e-02
      -2.3931723052108118e-02 -1.9299696855036661e-02
      6.2642812463026235e-02 7.1406144131109683e-02
      -8.4888639459740844e-02 -2.5116750834585456e-02
      -3.3963260888200057e-02 -1.1720643357750681e-02
      -5.6640598191973590e-02 -2.7557066140554951e-02
      6.5236903793333495e-02 5.3952975947427644e-02
      -7.8750570487511162e-02 -2.2015335636982124e-02
      -1.7139438023672821e-02 -7.3476545912325338e-03
      1.6652753105956649e-02 -3.4707764240812906e-03
      5.8135896940719762e-03 1.3140607359431750e-02
      3.0727305583209113e-03 -2.0520673165962271e-02
      -5.3472119749575714e-03 -1.4344717188808691e-02
      -5.9081584154576910e-03 1.0260080582401838e-02
      1.4029601518037427e-03 -6.9055800065111741e-03
      2.1765105351175050e-03 -1.2867734693597262e-02
      1.7802947596067143e-02 -2.1591628906342249e-02
      1.1901372074572852e-02 -2.6654399343681058e-03
      -1.1788156815460183e-03 -1.7178810903357156e-02
      -6.1205904638437190e-03 3.8847379590296379e-03
      -2.0786647883586640e-02 2.0681754585400391e-02
      -7.6412588749447362e-03 -5.7742595495995763e-03
      1.8839515675958984e-02 2.0248290788977535e-02
      -2.0699826427429360e-02 -8.1624207546930391e-03
      -1.1473896515494238e-02 -4.2775802725470964e-03
      -1.6685845452624502e-02 -7.8249435261244296e-03
      1.9543543540436928e-02 1.6840315520578891e-02
      -8.0179577933478380e-02 -2.0944856591023797e-02
      -1.6520177030167362e-02 -7.6476294982576413e-03
      1.4505301712216180e-02 -4.6749106404750428e-03
      6.3583076334737523e-03 1.4652740586652356e-02
      2.4686887674063886e-03 -2.1864029148862502e-02
      -5.9433309247871524e-03 -1.4422560479174409e-02
      -5.7239906368406999e-03 8.2565682400149391e-03
      9.9413603750290276e-04 -5.1053043384728823e-03
      1.7630367299508989e-03 -1.0949414392408978e-02
      1.9044531360318671e-02 -1.9392022092915399e-02
      1.3139619056841929e-02 -3.3509112770409273e-03
      -3.3044456394137212e-03 -1.6926711235419202e-02
      -5.4114191515886572e-03 4.0187669465833577e-03
      -2.0155405553334296e-02 2.0132091415087670e-02
      -6.7883448231896917e-03 -6.8231671557623004e-03
      1.9460160965663817e-02 2.0843893765603218e-02
      -1.9878270580162234e-02 -8.4425852233873926e-03
      -9.3081673924668672e-03 -3.6391661015958009e-03
      -1.6775768042367720e-02 -9.7827426107816549e-03
      2.0901445216210093e-02 1.7078929388502067e-02
      -7.8663970115773946e-02 -2.3044392565357681e-02
      -1.7852753879066947e-02 -6.3818987132162001e-03
      1.6523464222870283e-02 -4.9985162993620609e-03
      6.9636857428125561e-03 1.4230794586972462e-02
      3.4893970981067293e-03 -2.1735467957139227e-02
      -7.4476609958533000e-03 -1.2590723493135083e-02
      -7.4094680587510099e-03 9.6280948489614240e-03
      1.9112570288994332e-03 -5.3983493515796137e-03
      1.8042086893466341e-03 -1.1142755784721948e-02
      1.7849880162044102e-02 -2.0801471355157714e-02
      1.3129697223861262e-02 -4.6556274336130099e-03
      -1.8653537688368223e-03 -1.7206098949863191e-02
      -6.8811759293608450e-03 3.1208463767986535e-03
      -2.0400478744134094e-02 2.1159089115170435e-02
      -7.7087514579265342e-03 -6.3953450028525890e-03
      1.8274230705957059e-02 2.0208122986404852e-02
      -1.9416116947939127e-02 -7.8924770393589156e-03
      -1.0395561974365801e-02 -3.9024193961655204e-03
      -1.8316966104939426e-02 -8.9558821814306171e-03
      2.1091558427782823e-02 1.5500050598433412e-02
      8.2566303545587982e-03 4.7482188684010032e-03
      5.7773983936035200e-03 7.4872722239571136e-04
      -5.1614436680174529e-03 6.7249763285346688e-04
      -1.2354548941999565e-03 -2.6340848321567182e-03
      -3.3373494983539862e-04 1.3205329472982736e-02
      5.5115798369304112e-04 3.0179092157404989e-03
      1.8556252835611607e-03 -2.9688407602295047e-03
      9.1190891190135880e-04 2.6585090776619342e-04
      -1.0557369470719164e-03 1.8125840663126794e-03
      -1.6402516506298093e-02 1.5435212727362525e-02
      -4.6536464424400403e-03 1.3486115579329746e-03
      -1.8512416623854588e-04 5.3616934998416618e-03
      1.0117654634672424e-03 -5.6144046143548430e-04
      1.0592337722985555e-02 -1.0329322868606673e-02
      7.4232554101248802e-04 7.6167514078551396e-04
      -5.7516716226798095e-03 -8.7846155262128155e-03
      1.5377181841310830e-02 1.7737141544362646e-03
      2.0444316272530557e-03 2.3286546870215604e-04
      4.2231608302652750e-03 1.0184354159626734e-03
      -6.2266794244122594e-03 -4.4249958466390932e-03
      -1.1348831872343887e-02 -7.3524832213855051e-04
      -2.7236191341542229e-03 -1.0814774104075752e-04
      1.0396932232607161e-03 -7.8841584155464858e-05
      1.0287973735088861e-03 1.9356256146093678e-03
      6.9365512122876601e-04 -1.4625024097553140e-03
      -2.7853272265373867e-04 -9.3995702585137253e-04
      2.7496445334452511e-04 1.9410504822706110e-03
      -7.6264474468727174e-04 -1.3590414468963149e-03
      -9.8859005262924357e-05 -1.2280168483912255e-03
      2.4805820952386870e-03 -1.8146340936935072e-03
      1.8451078154026091e-03 -6.9183834465503190e-04
      3.7307998182805165e-04 -1.1502225279624147e-03
      -1.2578093406040484e-03 1.0833775038919130e-03
      7.0048094464949834e-04 1.0933279607769620e-04
      -1.6404820661488169e-03 -8.8472294342169038e-04
      1.6665552702797668e-03 1.0957304610656925e-04
      -2.0668711212351067e-03 -2.4818901599689300e-04
      -3.8299884034562952e-04 -1.5980349250466492e-03
      -2.0271112722076634e-03 3.7282086988234877e-04
      9.1022605242964730e-04 7.0168596769240186e-04
      9.6577842700165239e-03 -1.8779534760145365e-03
      -1.6283573039663818e-03 2.4038330051094400e-04
      4.4170081014428976e-04 1.2711169769148553e-03
      -1.1831984453618946e-03 -2.9416216594803997e-04
      -1.0566921337989781e-03 -1.2495745662121654e-04
      1.2378090038495341e-03 -8.9036437126045612e-04
      1.7962399775629957e-03 -1.6436672415572208e-03
      9.0324453704565696e-04 -7.4753458357332823e-05
      -3.7455686914179441e-05 -1.8310479057872181e-04
      1.4242533743236466e-03 -1.5201849197917473e-03
      -4.4865334000984361e-04 1.4591949024527022e-03
      -6.8790227358813338e-04 -8.7929313015804196e-04
      1.7254053446868342e-04 -6.8929007051079898e-04
      3.0553806690129760e-03 -3.6899973684914721e-03
      1.8845609365334382e-03 1.4013451440237655e-04
      7.1628119625821306e-04 -2.2995089758790855e-03
      -2.8701756582824541e-03 1.8791918408253309e-03
      8.4125292749430587e-04 -1.5931253846562026e-04
      -1.0160023201822215e-03 1.7599275827438650e-03
      7.8881952825802138e-04 7.3853620546123855e-04
      8.8792558011613013e-03 -1.5818097711912816e-03
      -4.7744240079990733e-04 1.9718247183929784e-03
      8.3886828109209154e-04 -5.9164985954860924e-04
      -1.2937810181226084e-03 -1.0383878727838337e-03
      -3.7622736025048491e-04 -7.1544854399334076e-04
      -1.3652579922365362e-04 1.2558788885985192e-03
      1.4288187339165305e-03 -1.6383899348121093e-04
      -6.1115474932591234e-04 1.2186112004513516e-03
      4.2102876954354401e-04 1.7395344125913192e-03
      3.1692045037246689e-03 4.0587902348971654e-06
      -3.9258113433718469e-04 -5.3382105270584053e-04
      -6.1630182420313628e-04 -1.0432245725729176e-03
      7.9867745168446828e-04 -1.0744652886609184e-03
      2.4198781872288464e-03 -3.4505275155767489e-03
      5.7455872436131982e-05 1.4276279273581728e-03
      6.7486922044659959e-04 -1.5789472200463084e-04
      -3.4467237244944198e-03 6.3962437810927565e-04
      1.3873420629139988e-03 9.1836660907433014e-04
      -7.4505977971443718e-04 -2.6816482959299412e-04
      6.9484641893644591e-04 6.1328328926060435e-04
      3.8111030586452273e-02 4.0259595653553762e-03
      1.3933540552881864e-03 2.8296507883119283e-03
      -1.2577834837935121e-03 1.1263167387858919e-03
      -2.6464810530294671e-03 -4.2112786846686444e-03
      -1.8105587176551043e-03 1.1532597747338022e-02
      2.6563649768509951e-03 2.3131488327191503e-03
      3.3994431367579481e-03 -2.5982332881189520e-03
      -1.1915157467561191e-04 2.1298788499254191e-03
      -1.0591232217255586e-03 4.5133948046822041e-03
      -7.4016328401989434e-03 1.0125887106498590e-02
      -2.6925643653660835e-03 2.6937840502813844e-03
      1.5303241032958885e-04 2.0677196606287990e-03
      2.1229443206643933e-03 -5.3474029541831201e-04
      1.8228843282307401e-02 -2.1402153997199445e-02
      4.2393891117675601e-03 1.8138597025019612e-03
      -2.0850769609860576e-03 -1.8302485832523047e-02
      4.0968419037448129e-03 4.1772164009265308e-03
      4.7922033195858223e-03 2.6911449197673017e-03
      2.7043746309381909e-03 3.9553594380912389e-03
      -1.6085975385186435e-03 -8.5668695890070738e-04
      -7.4244286684575344e-03 -7.4105886977287707e-03
      -7.5815903608703987e-03 -4.3338803447664890e-04
      6.9443557348317772e-03 -1.1894221868466025e-03
      6.5298921032705436e-04 4.8904481320961573e-03
      -6.7077257642148198e-04 -1.4369725733553637e-03
      3.7802705458115949e-04 -5.3721588888544832e-03
      -4.8236483774956697e-04 9.7678484476088545e-04
