<?xml version="1.0"?>
<opencv_storage>
<shapeML type_id="opencv-ml-ann-mlp">
  <layer_sizes type_id="opencv-matrix">
    <rows>1</rows>
    <cols>3</cols>
    <dt>i</dt>
    <data>
      1600 40 1</data></layer_sizes>
  <activation_function>SIGMOID_SYM</activation_function>
  <f_param1>5.9999999999999998e-01</f_param1>
  <f_param2>1.</f_param2>
  <min_val>-9.4999999999999996e-01</min_val>
  <max_val>9.4999999999999996e-01</max_val>
  <min_val1>-9.7999999999999998e-01</min_val1>
  <max_val1>9.7999999999999998e-01</max_val1>
  <training_params>
    <train_method>BACKPROP</train_method>
    <dw_scale>1.0000000000000001e-01</dw_scale>
    <moment_scale>1.0000000000000001e-01</moment_scale>
    <term_criteria><epsilon>9.9999999747524271e-07</epsilon>
      <iterations>4000</iterations></term_criteria></training_params>
  <input_scale>
    1. 0. 3.2696292103794232e-02 -1.2171612389003693e-01
    3.2696292103794232e-02 -1.2171612389003693e-01
    3.2696292103794232e-02 -1.2171612389003693e-01
    2.0912618696103655e-02 -1.9462473604038072e-01
    2.0912618696103655e-02 -1.9462473604038072e-01
    2.6795839028773669e-02 -1.4962640041614494e-01
    3.2696292103794232e-02 -1.2171612389003693e-01
    2.6795839028773669e-02 -1.4962640041614494e-01
    2.6795839028773669e-02 -1.4962640041614494e-01
    1.6724014602345603e-02 -2.4902912254587614e-01
    2.0912618696103655e-02 -1.9462473604038072e-01
    1.9163247720760741e-02 -2.1401291250192653e-01
    1.6724014602345603e-02 -2.4902912254587614e-01
    2.0912618696103655e-02 -1.9462473604038072e-01
    1.2558993679033188e-02 -3.5064343665913833e-01
    1.2210338680926915e-02 -3.6363636363636359e-01
    1.7809826577658047e-02 -2.3204774044612855e-01
    1.5829024350091016e-02 -2.6516504294495535e-01
    9.8583029949223140e-03 -4.9543369430686229e-01
    8.5635303617330738e-03 -6.5351613088992178e-01
    9.7249666816736791e-03 -5.0683402997919758e-01
    1.0681201944195445e-02 -4.3738352486814930e-01
    1.0681201944195445e-02 -4.3738352486814930e-01
    1.5829024350091016e-02 -2.6516504294495535e-01
    1.7809826577658047e-02 -2.3204774044612855e-01
    2.3292954083294990e-02 -1.7342199390482402e-01
    1.6724014602345603e-02 -2.4902912254587614e-01
    2.3292954083294990e-02 -1.7342199390482402e-01
    2.6795839028773669e-02 -1.4962640041614494e-01
    2.3292954083294990e-02 -1.7342199390482402e-01
    4.6069227773575909e-02 -8.5749292571254437e-02
    2.6795839028773669e-02 -1.4962640041614494e-01
    4.6069227773575909e-02 -8.5749292571254437e-02
    2.6795839028773669e-02 -1.4962640041614494e-01
    1.9163247720760741e-02 -2.1401291250192653e-01
    3.2696292103794232e-02 -1.2171612389003693e-01
    4.6069227773575909e-02 -8.5749292571254437e-02
    4.6069227773575909e-02 -8.5749292571254437e-02
    4.6069227773575909e-02 -8.5749292571254437e-02
    4.6069227773575909e-02 -8.5749292571254437e-02
    2.6795839028773669e-02 -1.4962640041614494e-01
    3.2696292103794232e-02 -1.2171612389003693e-01
    2.3292954083294990e-02 -1.7342199390482402e-01
    1.9163247720760741e-02 -2.1401291250192653e-01
    1.9163247720760741e-02 -2.1401291250192653e-01
    1.9163247720760741e-02 -2.1401291250192653e-01
    1.6724014602345603e-02 -2.4902912254587614e-01
    1.7809826577658047e-02 -2.3204774044612855e-01
    1.6724014602345603e-02 -2.4902912254587614e-01
    1.0492139182395829e-02 -4.4917077594709154e-01
    1.1346517377271588e-02 -4.0126917294073605e-01
    1.0885333636354487e-02 -4.2548147169838157e-01
    9.8583029949223140e-03 -4.9543369430686229e-01
    9.7249666816736791e-03 -5.0683402997919758e-01
    8.8324161807191957e-03 -6.0827625302982191e-01
    8.7593320734769969e-03 -6.1954691818972329e-01
    8.2605735620887091e-03 -7.2264944628929328e-01
    8.0249892742361127e-03 -8.0659928690679761e-01
    8.1816521402573190e-03 -7.4620250724463655e-01
    7.8685417251546808e-03 -9.2268702784386825e-01
    8.1458378015929218e-03 -7.5809804357890331e-01
    8.3038744587961306e-03 -7.1098136789546440e-01
    8.3987097773391157e-03 -6.8783593942879473e-01
    9.2685276107747575e-03 -5.5205244747388338e-01
    1.0000741997435470e-02 -4.8397751418246104e-01
    1.1346517377271588e-02 -4.0126917294073605e-01
    1.3381286460780462e-02 -3.2378806290136664e-01
    1.2946840961083832e-02 -3.3737388489831588e-01
    1.3871861919749441e-02 -3.0983866769659335e-01
    1.6724014602345603e-02 -2.4902912254587614e-01
    1.6724014602345603e-02 -2.4902912254587614e-01
    1.6724014602345603e-02 -2.4902912254587614e-01
    1.9163247720760741e-02 -2.1401291250192653e-01
    2.0912618696103655e-02 -1.9462473604038072e-01
    2.3292954083294990e-02 -1.7342199390482402e-01
    3.2696292103794232e-02 -1.2171612389003693e-01
    2.6795839028773669e-02 -1.4962640041614494e-01
    2.6795839028773669e-02 -1.4962640041614494e-01
    3.2696292103794232e-02 -1.2171612389003693e-01 1. 0.
    2.6795839028773669e-02 -1.4962640041614494e-01
    2.6795839028773669e-02 -1.4962640041614494e-01
    2.3292954083294990e-02 -1.7342199390482402e-01
    1.9163247720760741e-02 -2.1401291250192653e-01
    1.5829024350091016e-02 -2.6516504294495535e-01
    1.4431077917840143e-02 -2.9546842014263947e-01
    1.5075736089702937e-02 -2.8060676663315687e-01
    1.0316575103140381e-02 -4.6085722358554115e-01
    9.8583029949223140e-03 -4.9543369430686229e-01
    9.2685276107747575e-03 -5.5205244747388338e-01
    9.7249666816736791e-03 -5.0683402997919758e-01
    8.7593320734769969e-03 -6.1954691818972329e-01
    8.3038744587961306e-03 -7.1098136789546440e-01
    8.3038744587961306e-03 -7.1098136789546440e-01
    8.0000392138852103e-03 -8.1898211660394216e-01
    7.9369353774977995e-03 -8.5684141776052880e-01
    7.8786881403629019e-03 -9.0921211313239036e-01
    7.8450183788692143e-03 -1.0221429055679963e+00
    8.1816521402573190e-03 -7.4620250724463655e-01
    8.0249892742361127e-03 -8.0659928690679761e-01
    8.0810771324193714e-03 -7.8215388887504278e-01
    8.1816521402573190e-03 -7.4620250724463655e-01
    8.3987097773391157e-03 -6.8783593942879473e-01
    8.0249892742361127e-03 -8.0659928690679761e-01
    8.0249892742361127e-03 -8.0659928690679761e-01
    8.8324161807191957e-03 -6.0827625302982191e-01
    9.8583029949223140e-03 -4.9543369430686229e-01
    1.0316575103140381e-02 -4.6085722358554115e-01
    1.1346517377271588e-02 -4.0126917294073605e-01
    1.2946840961083832e-02 -3.3737388489831588e-01
    1.4431077917840143e-02 -2.9546842014263947e-01
    1.3871861919749441e-02 -3.0983866769659335e-01
    1.2946840961083832e-02 -3.3737388489831588e-01
    1.5829024350091016e-02 -2.6516504294495535e-01
    1.5829024350091016e-02 -2.6516504294495535e-01
    2.6795839028773669e-02 -1.4962640041614494e-01
    2.0912618696103655e-02 -1.9462473604038072e-01
    2.6795839028773669e-02 -1.4962640041614494e-01
    4.6069227773575909e-02 -8.5749292571254437e-02 1. 0.
    3.2696292103794232e-02 -1.2171612389003693e-01
    2.6795839028773669e-02 -1.4962640041614494e-01
    1.9163247720760741e-02 -2.1401291250192653e-01
    1.5075736089702937e-02 -2.8060676663315687e-01
    1.4431077917840143e-02 -2.9546842014263947e-01
    1.3381286460780462e-02 -3.2378806290136664e-01
    1.0000741997435470e-02 -4.8397751418246104e-01
    9.4826095899700480e-03 -5.2950338221365600e-01
    9.0786717895447906e-03 -5.7454076215586380e-01
    8.9098101345600339e-03 -5.9702231412599349e-01
    8.1458378015929218e-03 -7.5809804357890331e-01
    8.2198665104517982e-03 -7.3438807363452563e-01
    8.0249892742361127e-03 -8.0659928690679761e-01
    7.9042269047157315e-03 -8.8273482950474957e-01
    7.8483659439368067e-03 -9.6414597690844128e-01
    7.8786881403629019e-03 -1.0998533626601497e+00
    7.9042269047157297e-03 -1.1328430311977618e+00
    7.8533953362786273e-03 -9.5014618758261493e-01
    7.9042269047157315e-03 -8.8273482950474957e-01
    7.8450183788692143e-03 -1.0221429055679963e+00
    7.8450183788692125e-03 -9.7833678104365329e-01
    7.8533953362786273e-03 -9.5014618758261493e-01
    7.8905753800106275e-03 -8.9589708055522133e-01
    7.9196698896203295e-03 -8.6971849262290402e-01
    8.0249892742361127e-03 -8.0659928690679761e-01
    8.4504966151859196e-03 -6.7634814150009936e-01
    8.0519822508073290e-03 -7.9432511036248943e-01
    1.0000741997435470e-02 -4.8397751418246104e-01
    1.0153163294561595e-02 -4.7245559126153408e-01
    1.0885333636354487e-02 -4.2548147169838157e-01
    1.1608354264921114e-02 -3.8892223413129862e-01
    1.3871861919749441e-02 -3.0983866769659335e-01
    1.3871861919749441e-02 -3.0983866769659335e-01
    1.2946840961083832e-02 -3.3737388489831588e-01
    1.4431077917840143e-02 -2.9546842014263947e-01
    1.7809826577658047e-02 -2.3204774044612855e-01
    1.9163247720760741e-02 -2.1401291250192653e-01
    2.6795839028773669e-02 -1.4962640041614494e-01
    3.2696292103794232e-02 -1.2171612389003693e-01 1. 0.
    3.2696292103794232e-02 -1.2171612389003693e-01
    3.2696292103794232e-02 -1.2171612389003693e-01
    1.5075736089702937e-02 -2.8060676663315687e-01
    1.3871861919749441e-02 -3.0983866769659335e-01
    1.3871861919749441e-02 -3.0983866769659335e-01
    1.0316575103140381e-02 -4.6085722358554115e-01
    9.5999619132534561e-03 -5.1818772517160072e-01
    9.2685276107747575e-03 -5.5205244747388338e-01
    8.8324161807191957e-03 -6.0827625302982191e-01
    8.1458378015929218e-03 -7.5809804357890331e-01
    8.0519822508073290e-03 -7.9432511036248943e-01
    7.9369353774977995e-03 -8.5684141776052880e-01
    7.8786881403629019e-03 -9.0921211313239036e-01
    7.8601162577793572e-03 -9.3632917756904466e-01
    7.9560584561760433e-03 -8.4409715080670644e-01
    7.9042269047157297e-03 -1.1328430311977618e+00
    7.8433462018537622e-03 -9.9272717620543238e-01
    7.8483659439368067e-03 -9.6414597690844128e-01
    7.8601162577793572e-03 -9.3632917756904466e-01
    7.8450183788692143e-03 -1.0221429055679963e+00
    7.8533953362786273e-03 -9.5014618758261493e-01
    7.8786881403629019e-03 -9.0921211313239036e-01
    7.9196698896203295e-03 -8.6971849262290402e-01
    8.0000392138852103e-03 -8.1898211660394216e-01
    7.9369353774977995e-03 -8.5684141776052880e-01
    7.9369353774977995e-03 -8.5684141776052880e-01
    8.0519822508073290e-03 -7.9432511036248943e-01
    8.2605735620887091e-03 -7.2264944628929328e-01
    8.3987097773391157e-03 -6.8783593942879473e-01
    8.8324161807191957e-03 -6.0827625302982191e-01
    1.0681201944195445e-02 -4.3738352486814930e-01
    1.0885333636354487e-02 -4.2548147169838157e-01
    1.3381286460780462e-02 -3.2378806290136664e-01
    1.3871861919749441e-02 -3.0983866769659335e-01
    1.3381286460780462e-02 -3.2378806290136664e-01
    1.5829024350091016e-02 -2.6516504294495535e-01
    1.5829024350091016e-02 -2.6516504294495535e-01
    2.6795839028773669e-02 -1.4962640041614494e-01
    3.2696292103794232e-02 -1.2171612389003693e-01 1. 0.
    3.2696292103794232e-02 -1.2171612389003693e-01
    1.7809826577658047e-02 -2.3204774044612855e-01
    1.5829024350091016e-02 -2.6516504294495535e-01
    1.3871861919749441e-02 -3.0983866769659335e-01
    1.0000741997435470e-02 -4.8397751418246104e-01
    9.0786717895447906e-03 -5.7454076215586380e-01
    8.9917925489830623e-03 -5.8577918612900604e-01
    8.3987097773391157e-03 -6.8783593942879473e-01
    8.0000392138852103e-03 -8.1898211660394216e-01
    8.0810771324193714e-03 -7.8215388887504278e-01
    8.0000392138852103e-03 -8.1898211660394216e-01
    7.8483659439368067e-03 -9.6414597690844128e-01
    8.2605735620887091e-03 -7.2264944628929328e-01
    8.0810771324193714e-03 -7.8215388887504278e-01
    7.8450183788692125e-03 -9.7833678104365329e-01
    8.1816521402573207e-03 -1.3401187885209802e+00
    7.9196698896203278e-03 -1.1497973292302797e+00
    8.0810771324193714e-03 -1.2785207798918967e+00
    7.8433462018537622e-03 -9.9272717620543238e-01
    7.8533953362786273e-03 -9.5014618758261493e-01
    7.9369353774977995e-03 -1.1670771035014100e+00
    7.9369353774977995e-03 -8.5684141776052880e-01
    7.9196698896203295e-03 -8.6971849262290402e-01
    7.8533953362786273e-03 -9.5014618758261493e-01
    7.8533953362786273e-03 -9.5014618758261493e-01
    7.8433462018537622e-03 -9.9272717620543238e-01
    7.8905753800106275e-03 -8.9589708055522133e-01
    8.2198665104517982e-03 -7.3438807363452563e-01
    8.2198665104517982e-03 -7.3438807363452563e-01
    8.5053842549018214e-03 -6.6490996620436860e-01
    8.6251076443438403e-03 -6.4216129906793551e-01
    1.0316575103140381e-02 -4.6085722358554115e-01
    1.0492139182395829e-02 -4.4917077594709154e-01
    1.2558993679033188e-02 -3.5064343665913833e-01
    1.3381286460780462e-02 -3.2378806290136664e-01
    1.5075736089702937e-02 -2.8060676663315687e-01
    1.5829024350091016e-02 -2.6516504294495535e-01
    2.0912618696103655e-02 -1.9462473604038072e-01
    2.3292954083294990e-02 -1.7342199390482402e-01 1. 0.
    2.3292954083294990e-02 -1.7342199390482402e-01
    1.7809826577658047e-02 -2.3204774044612855e-01
    1.0681201944195445e-02 -4.3738352486814930e-01
    1.0492139182395829e-02 -4.4917077594709154e-01
    9.8583029949223140e-03 -4.9543369430686229e-01
    8.9917925489830623e-03 -5.8577918612900604e-01
    8.5053842549018214e-03 -6.6490996620436860e-01
    8.1123386693932997e-03 -7.7008003208364861e-01
    8.0249892742361127e-03 -8.0659928690679761e-01
    8.3987097773391157e-03 -6.8783593942879473e-01
    7.8905753800106275e-03 -8.9589708055522133e-01
    7.8601162577793572e-03 -9.3632917756904466e-01
    7.8601162577793572e-03 -9.3632917756904466e-01
    8.1816521402573207e-03 -1.3401187885209802e+00
    7.9369353774977995e-03 -1.1670771035014100e+00
    8.0000392138852103e-03 -1.2210278829367864e+00
    8.0249892742361127e-03 -1.2397729780234110e+00
    8.1458378015929235e-03 -1.3190905958272920e+00
    8.0519822508073290e-03 -1.2589303635933793e+00
    7.9369353774977995e-03 -1.1670771035014100e+00
    7.8685417251546808e-03 -1.0837911120705754e+00
    7.8433462018537622e-03 -9.9272717620543238e-01
    7.8685417251546808e-03 -9.2268702784386825e-01
    7.9196698896203295e-03 -8.6971849262290402e-01
    7.8433462018537622e-03 -1.0073261052672771e+00
    7.8533953362786273e-03 -1.0524696231684350e+00
    7.8533953362786273e-03 -9.5014618758261493e-01
    7.8685417251546808e-03 -9.2268702784386825e-01
    7.8450183788692143e-03 -1.0221429055679963e+00
    8.1123386693932997e-03 -7.7008003208364861e-01
    8.3038744587961306e-03 -7.1098136789546440e-01
    8.5635303617330738e-03 -6.5351613088992178e-01
    1.0492139182395829e-02 -4.4917077594709154e-01
    1.0316575103140381e-02 -4.6085722358554115e-01
    1.3381286460780462e-02 -3.2378806290136664e-01
    1.3381286460780462e-02 -3.2378806290136664e-01
    1.3871861919749441e-02 -3.0983866769659335e-01
    1.7809826577658047e-02 -2.3204774044612855e-01
    2.6795839028773669e-02 -1.4962640041614494e-01 1. 0.
    1.9163247720760741e-02 -2.1401291250192653e-01
    1.7809826577658047e-02 -2.3204774044612855e-01
    1.0000741997435470e-02 -4.8397751418246104e-01
    1.0000741997435470e-02 -4.8397751418246104e-01
    1.1346517377271588e-02 -4.0126917294073605e-01
    8.3038744587961306e-03 -7.1098136789546440e-01
    8.0519822508073290e-03 -7.9432511036248943e-01
    8.0000392138852103e-03 -8.1898211660394216e-01
    8.1123386693932997e-03 -7.7008003208364861e-01
    7.8905753800106275e-03 -8.9589708055522133e-01
    8.0810771324193714e-03 -1.2785207798918967e+00
    8.0249892742361127e-03 -1.2397729780234110e+00
    8.3038744587961306e-03 -1.4065066190975490e+00
    8.2605735620887091e-03 -1.3837968120433277e+00
    8.0000392138852103e-03 -1.2210278829367864e+00
    7.8601162577793555e-03 -1.0680004681646913e+00
    7.9369353774977995e-03 -1.1670771035014100e+00
    7.8450183788692125e-03 -9.7833678104365329e-01
    7.8483659439368067e-03 -9.6414597690844128e-01
    7.8685417251546808e-03 -1.0837911120705754e+00
    7.8433462018537622e-03 -9.9272717620543238e-01
    8.0519822508073290e-03 -1.2589303635933793e+00
    7.9770784623098348e-03 -1.2026755886059097e+00
    7.9560584561760433e-03 -1.1846977555181846e+00
    7.8433462018537622e-03 -9.9272717620543238e-01
    7.8483659439368067e-03 -1.0371873387954444e+00
    7.8786881403629019e-03 -1.0998533626601497e+00
    7.8685417251546808e-03 -9.2268702784386825e-01
    7.8601162577793572e-03 -9.3632917756904466e-01
    7.8685417251546808e-03 -9.2268702784386825e-01
    8.0249892742361127e-03 -8.0659928690679761e-01
    8.3498796554851620e-03 -6.9937860618023528e-01
    8.6903055281686049e-03 -6.3084006188056041e-01
    1.0885333636354487e-02 -4.2548147169838157e-01
    1.1106378195242848e-02 -4.1344911529736145e-01
    1.3871861919749441e-02 -3.0983866769659335e-01
    1.4431077917840143e-02 -2.9546842014263947e-01
    1.7809826577658047e-02 -2.3204774044612855e-01
    2.0912618696103655e-02 -1.9462473604038072e-01
    4.6069227773575909e-02 -8.5749292571254437e-02
    1.9163247720760741e-02 -2.1401291250192653e-01
    1.5829024350091016e-02 -2.6516504294495535e-01
    1.2946840961083832e-02 -3.3737388489831588e-01
    1.2558993679033188e-02 -3.5064343665913833e-01
    8.9098101345600339e-03 -5.9702231412599349e-01
    8.1458378015929218e-03 -7.5809804357890331e-01
    7.9042269047157315e-03 -8.8273482950474957e-01
    7.8786881403629019e-03 -9.0921211313239036e-01
    7.8533953362786273e-03 -9.5014618758261493e-01
    7.8483659439368067e-03 -1.0371873387954444e+00
    7.9369353774977995e-03 -1.1670771035014100e+00
    7.8905753800106258e-03 -1.1161996413474884e+00
    7.9369353774977995e-03 -1.1670771035014100e+00
    7.8450183788692143e-03 -1.0221429055679963e+00
    7.8533953362786273e-03 -1.0524696231684350e+00
    7.8450183788692125e-03 -9.7833678104365329e-01
    7.8601162577793572e-03 -9.3632917756904466e-01
    7.8433462018537622e-03 -1.0073261052672771e+00
    7.8450183788692143e-03 -1.0221429055679963e+00
    7.8905753800106275e-03 -8.9589708055522133e-01
    7.8450183788692125e-03 -9.7833678104365329e-01
    7.8533953362786273e-03 -9.5014618758261493e-01
    7.8685417251546808e-03 -9.2268702784386825e-01
    7.8601162577793555e-03 -1.0680004681646913e+00
    8.0249892742361127e-03 -1.2397729780234110e+00
    7.9560584561760433e-03 -1.1846977555181846e+00
    7.8601162577793572e-03 -9.3632917756904466e-01
    7.8601162577793572e-03 -9.3632917756904466e-01
    7.8433462018537622e-03 -1.0073261052672771e+00
    7.8433462018537622e-03 -9.9272717620543238e-01
    7.8601162577793572e-03 -9.3632917756904466e-01
    7.9042269047157315e-03 -8.8273482950474957e-01
    8.3038744587961306e-03 -7.1098136789546440e-01
    8.8324161807191957e-03 -6.0827625302982191e-01
    1.1106378195242848e-02 -4.1344911529736145e-01
    1.1346517377271588e-02 -4.0126917294073605e-01
    1.3871861919749441e-02 -3.0983866769659335e-01
    1.5829024350091016e-02 -2.6516504294495535e-01
    1.7809826577658047e-02 -2.3204774044612855e-01 1. 0.
    1.7809826577658047e-02 -2.3204774044612855e-01
    1.5075736089702937e-02 -2.8060676663315687e-01
    1.2946840961083832e-02 -3.3737388489831588e-01
    9.2685276107747575e-03 -5.5205244747388338e-01
    8.2198665104517982e-03 -7.3438807363452563e-01
    8.1816521402573190e-03 -7.4620250724463655e-01
    7.9196698896203295e-03 -8.6971849262290402e-01
    7.8433462018537622e-03 -9.9272717620543238e-01
    7.9770784623098348e-03 -8.3147941928309810e-01
    7.8450183788692143e-03 -1.0221429055679963e+00
    7.8483659439368067e-03 -9.6414597690844128e-01
    7.8433462018537622e-03 -1.0073261052672771e+00
    7.9369353774977995e-03 -1.1670771035014100e+00
    7.8450183788692143e-03 -1.0221429055679963e+00
    7.9369353774977995e-03 -8.5684141776052880e-01
    7.9770784623098348e-03 -8.3147941928309810e-01
    7.9560584561760433e-03 -8.4409715080670644e-01
    7.9770784623098348e-03 -8.3147941928309810e-01
    7.8905753800106275e-03 -8.9589708055522133e-01
    7.8450183788692143e-03 -1.0221429055679963e+00
    7.8433462018537622e-03 -9.9272717620543238e-01
    7.8601162577793572e-03 -9.3632917756904466e-01
    7.8905753800106275e-03 -8.9589708055522133e-01
    7.8905753800106275e-03 -8.9589708055522133e-01
    8.0519822508073290e-03 -1.2589303635933793e+00
    7.9369353774977995e-03 -1.1670771035014100e+00
    8.1816521402573207e-03 -1.3401187885209802e+00
    7.8433462018537622e-03 -1.0073261052672771e+00
    7.8450183788692143e-03 -1.0221429055679963e+00
    7.8483659439368067e-03 -9.6414597690844128e-01
    7.8786881403629019e-03 -9.0921211313239036e-01
    7.8601162577793572e-03 -9.3632917756904466e-01
    7.8786881403629019e-03 -9.0921211313239036e-01
    8.1458378015929218e-03 -7.5809804357890331e-01
    9.0786717895447906e-03 -5.7454076215586380e-01
    1.1106378195242848e-02 -4.1344911529736145e-01
    1.2210338680926915e-02 -3.6363636363636359e-01
    1.4431077917840143e-02 -2.9546842014263947e-01
    1.5075736089702937e-02 -2.8060676663315687e-01
    3.2696292103794232e-02 -1.2171612389003693e-01
    1.5075736089702937e-02 -2.8060676663315687e-01
    1.4431077917840143e-02 -2.9546842014263947e-01
    1.0316575103140381e-02 -4.6085722358554115e-01
    8.3038744587961306e-03 -7.1098136789546440e-01
    8.4504966151859196e-03 -6.7634814150009936e-01
    8.3498796554851620e-03 -6.9937860618023528e-01
    7.9560584561760433e-03 -8.4409715080670644e-01
    8.0000392138852103e-03 -8.1898211660394216e-01
    7.8533953362786273e-03 -9.5014618758261493e-01
    7.9042269047157297e-03 -1.1328430311977618e+00
    7.8450183788692125e-03 -9.7833678104365329e-01
    7.8533953362786273e-03 -9.5014618758261493e-01
    7.8433462018537622e-03 -9.9272717620543238e-01
    7.8601162577793555e-03 -1.0680004681646913e+00
    7.9196698896203295e-03 -8.6971849262290402e-01
    7.8905753800106275e-03 -8.9589708055522133e-01
    7.9196698896203295e-03 -8.6971849262290402e-01
    8.0519822508073290e-03 -7.9432511036248943e-01
    7.9196698896203295e-03 -8.6971849262290402e-01
    7.9042269047157315e-03 -8.8273482950474957e-01
    7.8905753800106275e-03 -8.9589708055522133e-01
    7.8786881403629019e-03 -9.0921211313239036e-01
    7.8905753800106275e-03 -8.9589708055522133e-01
    7.9196698896203295e-03 -8.6971849262290402e-01
    7.8450183788692125e-03 -9.7833678104365329e-01
    7.8450183788692125e-03 -9.7833678104365329e-01
    8.1123386693933031e-03 -1.2985663286116436e+00
    7.9560584561760433e-03 -1.1846977555181846e+00
    8.0810771324193714e-03 -1.2785207798918967e+00
    7.8601162577793555e-03 -1.0680004681646913e+00
    7.8483659439368067e-03 -9.6414597690844128e-01
    7.8685417251546808e-03 -9.2268702784386825e-01
    7.8601162577793572e-03 -9.3632917756904466e-01
    7.9560584561760433e-03 -8.4409715080670644e-01
    8.5635303617330738e-03 -6.5351613088992178e-01
    1.0316575103140381e-02 -4.6085722358554115e-01
    1.2210338680926915e-02 -3.6363636363636359e-01
    1.3381286460780462e-02 -3.2378806290136664e-01
    1.5829024350091016e-02 -2.6516504294495535e-01
    2.6795839028773669e-02 -1.4962640041614494e-01
    1.3871861919749441e-02 -3.0983866769659335e-01
    1.3381286460780462e-02 -3.2378806290136664e-01
    8.9098101345600339e-03 -5.9702231412599349e-01
    8.2605735620887091e-03 -7.2264944628929328e-01
    8.7593320734769969e-03 -6.1954691818972329e-01
    8.4504966151859196e-03 -6.7634814150009936e-01
    7.9042269047157315e-03 -8.8273482950474957e-01
    7.8533953362786273e-03 -9.5014618758261493e-01
    7.8450183788692143e-03 -1.0221429055679963e+00
    7.8786881403629019e-03 -1.0998533626601497e+00
    7.8483659439368067e-03 -1.0371873387954444e+00
    7.8601162577793572e-03 -9.3632917756904466e-01
    8.1123386693932997e-03 -7.7008003208364861e-01
    7.9196698896203295e-03 -8.6971849262290402e-01
    7.9196698896203295e-03 -8.6971849262290402e-01
    7.9196698896203295e-03 -8.6971849262290402e-01
    8.0519822508073290e-03 -7.9432511036248943e-01
    7.9369353774977995e-03 -8.5684141776052880e-01
    7.9196698896203295e-03 -8.6971849262290402e-01
    8.0249892742361127e-03 -8.0659928690679761e-01
    8.1123386693932997e-03 -7.7008003208364861e-01
    7.9770784623098348e-03 -8.3147941928309810e-01
    7.9560584561760433e-03 -8.4409715080670644e-01
    7.8601162577793572e-03 -9.3632917756904466e-01
    7.8450183788692125e-03 -9.7833678104365329e-01
    7.9042269047157315e-03 -8.8273482950474957e-01
    7.8433462018537622e-03 -1.0073261052672771e+00
    8.1123386693933031e-03 -1.2985663286116436e+00
    8.0810771324193714e-03 -1.2785207798918967e+00
    8.0000392138852103e-03 -1.2210278829367864e+00
    7.8450183788692125e-03 -9.7833678104365329e-01
    7.8685417251546808e-03 -9.2268702784386825e-01
    7.8533953362786273e-03 -9.5014618758261493e-01
    7.8685417251546808e-03 -9.2268702784386825e-01
    8.0810771324193714e-03 -7.8215388887504278e-01
    9.7249666816736791e-03 -5.0683402997919758e-01
    1.0492139182395829e-02 -4.4917077594709154e-01
    1.3871861919749441e-02 -3.0983866769659335e-01
    1.5829024350091016e-02 -2.6516504294495535e-01
    2.6795839028773669e-02 -1.4962640041614494e-01
    1.4431077917840143e-02 -2.9546842014263947e-01
    1.1106378195242848e-02 -4.1344911529736145e-01
    8.7593320734769969e-03 -6.1954691818972329e-01
    8.4504966151859196e-03 -6.7634814150009936e-01
    8.0810771324193714e-03 -7.8215388887504278e-01
    7.9770784623098348e-03 -8.3147941928309810e-01
    8.0249892742361127e-03 -8.0659928690679761e-01
    7.8450183788692143e-03 -1.0221429055679963e+00
    7.8685417251546808e-03 -1.0837911120705754e+00
    7.8685417251546808e-03 -9.2268702784386825e-01
    7.8433462018537622e-03 -9.9272717620543238e-01
    7.8533953362786273e-03 -9.5014618758261493e-01
    8.0519822508073290e-03 -7.9432511036248943e-01
    7.9042269047157315e-03 -8.8273482950474957e-01
    7.9042269047157315e-03 -8.8273482950474957e-01
    7.9560584561760433e-03 -8.4409715080670644e-01
    7.9560584561760433e-03 -8.4409715080670644e-01
    7.9560584561760433e-03 -8.4409715080670644e-01
    7.9369353774977995e-03 -8.5684141776052880e-01
    8.0000392138852103e-03 -8.1898211660394216e-01
    8.0519822508073290e-03 -7.9432511036248943e-01
    8.0519822508073290e-03 -7.9432511036248943e-01
    8.0000392138852103e-03 -8.1898211660394216e-01
    7.9042269047157315e-03 -8.8273482950474957e-01
    7.8685417251546808e-03 -9.2268702784386825e-01
    7.8483659439368067e-03 -1.0371873387954444e+00
    7.8433462018537622e-03 -9.9272717620543238e-01
    8.1458378015929235e-03 -1.3190905958272920e+00
    7.9770784623098348e-03 -1.2026755886059097e+00
    8.0810771324193714e-03 -1.2785207798918967e+00
    7.8483659439368067e-03 -1.0371873387954444e+00
    7.8483659439368067e-03 -9.6414597690844128e-01
    7.8433462018537622e-03 -9.9272717620543238e-01
    7.8601162577793572e-03 -9.3632917756904466e-01
    7.9042269047157315e-03 -8.8273482950474957e-01
    8.5635303617330738e-03 -6.5351613088992178e-01
    9.5999619132534561e-03 -5.1818772517160072e-01
    1.3871861919749441e-02 -3.0983866769659335e-01
    1.5829024350091016e-02 -2.6516504294495535e-01
    2.0912618696103655e-02 -1.9462473604038072e-01
    1.3871861919749441e-02 -3.0983866769659335e-01
    8.9098101345600339e-03 -5.9702231412599349e-01
    8.5053842549018214e-03 -6.6490996620436860e-01
    7.9369353774977995e-03 -8.5684141776052880e-01
    7.9560584561760433e-03 -8.4409715080670644e-01
    8.1123386693932997e-03 -7.7008003208364861e-01
    7.8533953362786273e-03 -1.0524696231684350e+00
    7.8905753800106258e-03 -1.1161996413474884e+00
    7.8601162577793572e-03 -9.3632917756904466e-01
    7.8533953362786273e-03 -9.5014618758261493e-01
    7.8450183788692125e-03 -9.7833678104365329e-01
    7.8450183788692143e-03 -1.0221429055679963e+00
    7.9196698896203295e-03 -8.6971849262290402e-01
    7.9560584561760433e-03 -8.4409715080670644e-01
    7.9369353774977995e-03 -8.5684141776052880e-01
    8.0000392138852103e-03 -8.1898211660394216e-01
    8.3498796554851620e-03 -6.9937860618023528e-01
    7.9042269047157315e-03 -8.8273482950474957e-01
    8.0000392138852103e-03 -8.1898211660394216e-01
    8.1458378015929218e-03 -7.5809804357890331e-01
    8.1458378015929218e-03 -7.5809804357890331e-01
    8.2605735620887091e-03 -7.2264944628929328e-01
    7.8905753800106275e-03 -8.9589708055522133e-01
    7.8601162577793572e-03 -9.3632917756904466e-01
    7.8533953362786273e-03 -9.5014618758261493e-01
    7.8483659439368067e-03 -1.0371873387954444e+00
    7.8601162577793572e-03 -9.3632917756904466e-01
    7.9042269047157297e-03 -1.1328430311977618e+00
    7.9369353774977995e-03 -1.1670771035014100e+00
    7.9770784623098348e-03 -1.2026755886059097e+00
    7.9770784623098348e-03 -1.2026755886059097e+00
    7.8433462018537622e-03 -9.9272717620543238e-01
    7.8905753800106275e-03 -8.9589708055522133e-01
    7.8483659439368067e-03 -9.6414597690844128e-01
    7.8786881403629019e-03 -9.0921211313239036e-01
    8.2605735620887091e-03 -7.2264944628929328e-01
    9.1707899660639098e-03 -5.6330071214910804e-01
    9.5999619132534561e-03 -5.1818772517160072e-01
    1.3871861919749441e-02 -3.0983866769659335e-01
    1.7809826577658047e-02 -2.3204774044612855e-01
    1.2210338680926915e-02 -3.6363636363636359e-01
    8.9098101345600339e-03 -5.9702231412599349e-01
    8.5053842549018214e-03 -6.6490996620436860e-01
    8.0000392138852103e-03 -8.1898211660394216e-01
    7.9196698896203295e-03 -8.6971849262290402e-01
    7.8786881403629019e-03 -9.0921211313239036e-01
    7.8905753800106258e-03 -1.1161996413474884e+00
    7.9042269047157297e-03 -1.1328430311977618e+00
    7.8786881403629019e-03 -1.0998533626601497e+00
    7.8450183788692143e-03 -1.0221429055679963e+00
    7.8433462018537622e-03 -9.9272717620543238e-01
    7.9196698896203295e-03 -8.6971849262290402e-01
    7.8685417251546808e-03 -9.2268702784386825e-01
    7.9770784623098348e-03 -8.3147941928309810e-01
    8.2198665104517982e-03 -7.3438807363452563e-01
    8.2198665104517982e-03 -7.3438807363452563e-01
    8.3498796554851620e-03 -6.9937860618023528e-01
    8.5053842549018214e-03 -6.6490996620436860e-01
    8.5053842549018214e-03 -6.6490996620436860e-01
    8.5635303617330738e-03 -6.5351613088992178e-01
    8.3987097773391157e-03 -6.8783593942879473e-01
    8.1816521402573190e-03 -7.4620250724463655e-01
    8.1123386693932997e-03 -7.7008003208364861e-01
    8.0000392138852103e-03 -8.1898211660394216e-01
    7.9042269047157315e-03 -8.8273482950474957e-01
    7.8601162577793572e-03 -9.3632917756904466e-01
    7.8905753800106275e-03 -8.9589708055522133e-01
    7.8601162577793555e-03 -1.0680004681646913e+00
    7.8685417251546808e-03 -1.0837911120705754e+00
    8.1816521402573207e-03 -1.3401187885209802e+00
    8.1816521402573207e-03 -1.3401187885209802e+00
    7.9770784623098348e-03 -1.2026755886059097e+00
    7.8450183788692125e-03 -9.7833678104365329e-01
    7.8905753800106275e-03 -8.9589708055522133e-01
    7.8685417251546808e-03 -9.2268702784386825e-01
    8.0810771324193714e-03 -7.8215388887504278e-01
    8.6903055281686049e-03 -6.3084006188056041e-01
    9.8583029949223140e-03 -4.9543369430686229e-01
    1.2558993679033188e-02 -3.5064343665913833e-01
    2.6795839028773669e-02 -1.4962640041614494e-01
    1.2210338680926915e-02 -3.6363636363636359e-01
    8.6903055281686049e-03 -6.3084006188056041e-01
    8.6251076443438403e-03 -6.4216129906793551e-01
    8.0249892742361127e-03 -8.0659928690679761e-01
    7.8905753800106275e-03 -8.9589708055522133e-01
    7.8786881403629019e-03 -9.0921211313239036e-01
    7.9196698896203278e-03 -1.1497973292302797e+00
    7.9560584561760433e-03 -1.1846977555181846e+00
    7.8483659439368067e-03 -1.0371873387954444e+00
    7.8533953362786273e-03 -9.5014618758261493e-01
    7.8786881403629019e-03 -9.0921211313239036e-01
    7.9560584561760433e-03 -8.4409715080670644e-01
    8.1123386693932997e-03 -7.7008003208364861e-01
    8.0519822508073290e-03 -7.9432511036248943e-01
    8.3038744587961306e-03 -7.1098136789546440e-01
    8.5053842549018214e-03 -6.6490996620436860e-01
    8.8324161807191957e-03 -6.0827625302982191e-01
    8.5053842549018214e-03 -6.6490996620436860e-01
    8.5053842549018214e-03 -6.6490996620436860e-01
    8.5635303617330738e-03 -6.5351613088992178e-01
    8.4504966151859196e-03 -6.7634814150009936e-01
    8.3498796554851620e-03 -6.9937860618023528e-01
    8.3987097773391157e-03 -6.8783593942879473e-01
    8.0249892742361127e-03 -8.0659928690679761e-01
    8.0000392138852103e-03 -8.1898211660394216e-01
    7.9042269047157315e-03 -8.8273482950474957e-01
    7.8786881403629019e-03 -9.0921211313239036e-01
    7.8483659439368067e-03 -9.6414597690844128e-01
    7.9369353774977995e-03 -1.1670771035014100e+00
    7.9369353774977995e-03 -1.1670771035014100e+00
    8.3498796554851620e-03 -1.4298407059684810e+00
    8.0519822508073290e-03 -1.2589303635933793e+00
    7.8685417251546808e-03 -1.0837911120705754e+00
    7.8450183788692143e-03 -1.0221429055679963e+00
    7.8433462018537622e-03 -9.9272717620543238e-01
    7.9770784623098348e-03 -8.3147941928309810e-01
    8.0519822508073290e-03 -7.9432511036248943e-01
    9.2685276107747575e-03 -5.5205244747388338e-01
    1.2210338680926915e-02 -3.6363636363636359e-01
    2.0912618696103655e-02 -1.9462473604038072e-01
    1.2210338680926915e-02 -3.6363636363636359e-01
    8.9917925489830623e-03 -5.8577918612900604e-01
    8.2605735620887091e-03 -7.2264944628929328e-01
    7.8685417251546808e-03 -9.2268702784386825e-01
    7.8483659439368067e-03 -9.6414597690844128e-01
    7.8533953362786273e-03 -9.5014618758261493e-01
    7.9369353774977995e-03 -1.1670771035014100e+00
    7.9770784623098348e-03 -1.2026755886059097e+00
    7.8450183788692125e-03 -9.7833678104365329e-01
    7.8450183788692125e-03 -9.7833678104365329e-01
    7.8786881403629019e-03 -9.0921211313239036e-01
    8.0519822508073290e-03 -7.9432511036248943e-01
    8.2198665104517982e-03 -7.3438807363452563e-01
    8.3987097773391157e-03 -6.8783593942879473e-01
    8.3038744587961306e-03 -7.1098136789546440e-01
    8.5053842549018214e-03 -6.6490996620436860e-01
    8.8324161807191957e-03 -6.0827625302982191e-01
    8.7593320734769969e-03 -6.1954691818972329e-01
    8.6251076443438403e-03 -6.4216129906793551e-01
    8.5053842549018214e-03 -6.6490996620436860e-01
    8.3987097773391157e-03 -6.8783593942879473e-01
    8.3987097773391157e-03 -6.8783593942879473e-01
    8.3987097773391157e-03 -6.8783593942879473e-01
    8.6251076443438403e-03 -6.4216129906793551e-01
    8.6903055281686049e-03 -6.3084006188056041e-01
    8.3038744587961306e-03 -7.1098136789546440e-01
    7.9042269047157315e-03 -8.8273482950474957e-01
    7.8685417251546808e-03 -9.2268702784386825e-01
    7.8533953362786273e-03 -9.5014618758261493e-01
    7.9369353774977995e-03 -1.1670771035014100e+00
    7.9770784623098348e-03 -1.2026755886059097e+00
    8.1123386693933031e-03 -1.2985663286116436e+00
    7.8450183788692143e-03 -1.0221429055679963e+00
    7.8450183788692143e-03 -1.0221429055679963e+00
    7.8685417251546808e-03 -1.0837911120705754e+00
    7.8685417251546808e-03 -1.0837911120705754e+00
    8.2198665104517982e-03 -7.3438807363452563e-01
    9.3723091846403036e-03 -5.4078908105534018e-01
    1.0316575103140381e-02 -4.6085722358554115e-01
    1.7809826577658047e-02 -2.3204774044612855e-01
    1.2210338680926915e-02 -3.6363636363636359e-01
    8.7593320734769969e-03 -6.1954691818972329e-01
    8.0519822508073290e-03 -7.9432511036248943e-01
    7.8450183788692125e-03 -9.7833678104365329e-01
    7.9770784623098348e-03 -8.3147941928309810e-01
    7.8601162577793572e-03 -9.3632917756904466e-01
    7.9369353774977995e-03 -1.1670771035014100e+00
    8.1123386693933031e-03 -1.2985663286116436e+00
    7.8433462018537622e-03 -1.0073261052672771e+00
    7.8450183788692125e-03 -9.7833678104365329e-01
    8.0000392138852103e-03 -8.1898211660394216e-01
    8.0249892742361127e-03 -8.0659928690679761e-01
    8.2198665104517982e-03 -7.3438807363452563e-01
    8.3987097773391157e-03 -6.8783593942879473e-01
    8.6251076443438403e-03 -6.4216129906793551e-01
    8.6251076443438403e-03 -6.4216129906793551e-01
    9.0786717895447906e-03 -5.7454076215586380e-01
    8.9098101345600339e-03 -5.9702231412599349e-01
    8.6251076443438403e-03 -6.4216129906793551e-01
    8.7593320734769969e-03 -6.1954691818972329e-01
    8.7593320734769969e-03 -6.1954691818972329e-01
    8.3987097773391157e-03 -6.8783593942879473e-01
    8.5635303617330738e-03 -6.5351613088992178e-01
    8.4504966151859196e-03 -6.7634814150009936e-01
    8.4504966151859196e-03 -6.7634814150009936e-01
    8.5635303617330738e-03 -6.5351613088992178e-01
    8.0249892742361127e-03 -8.0659928690679761e-01
    7.9369353774977995e-03 -8.5684141776052880e-01
    7.8786881403629019e-03 -9.0921211313239036e-01
    8.0000392138852103e-03 -1.2210278829367864e+00
    7.9042269047157297e-03 -1.1328430311977618e+00
    8.0810771324193714e-03 -1.2785207798918967e+00
    8.0000392138852103e-03 -1.2210278829367864e+00
    7.8786881403629019e-03 -1.0998533626601497e+00
    7.8433462018537622e-03 -1.0073261052672771e+00
    7.8786881403629019e-03 -1.0998533626601497e+00
    8.1458378015929218e-03 -7.5809804357890331e-01
    9.4826095899700480e-03 -5.2950338221365600e-01
    1.1608354264921114e-02 -3.8892223413129862e-01
    1.3871861919749441e-02 -3.0983866769659335e-01
    1.1106378195242848e-02 -4.1344911529736145e-01
    8.9098101345600339e-03 -5.9702231412599349e-01
    8.2605735620887091e-03 -7.2264944628929328e-01
    7.9770784623098348e-03 -8.3147941928309810e-01
    7.9042269047157315e-03 -8.8273482950474957e-01
    7.8601162577793572e-03 -9.3632917756904466e-01
    7.9042269047157315e-03 -8.8273482950474957e-01
    8.0249892742361127e-03 -1.2397729780234110e+00
    7.8533953362786273e-03 -1.0524696231684350e+00
    7.8601162577793572e-03 -9.3632917756904466e-01
    7.8786881403629019e-03 -9.0921211313239036e-01
    8.1123386693932997e-03 -7.7008003208364861e-01
    8.4504966151859196e-03 -6.7634814150009936e-01
    8.5635303617330738e-03 -6.5351613088992178e-01
    8.5053842549018214e-03 -6.6490996620436860e-01
    8.7593320734769969e-03 -6.1954691818972329e-01
    8.9098101345600339e-03 -5.9702231412599349e-01
    8.7593320734769969e-03 -6.1954691818972329e-01
    8.7593320734769969e-03 -6.1954691818972329e-01
    8.3987097773391157e-03 -6.8783593942879473e-01
    8.6251076443438403e-03 -6.4216129906793551e-01
    8.5053842549018214e-03 -6.6490996620436860e-01
    8.6903055281686049e-03 -6.3084006188056041e-01
    8.6251076443438403e-03 -6.4216129906793551e-01
    8.9098101345600339e-03 -5.9702231412599349e-01
    8.5635303617330738e-03 -6.5351613088992178e-01
    8.3987097773391157e-03 -6.8783593942879473e-01
    8.0249892742361127e-03 -8.0659928690679761e-01
    7.8905753800106275e-03 -8.9589708055522133e-01
    7.8786881403629019e-03 -1.0998533626601497e+00
    7.8450183788692125e-03 -9.7833678104365329e-01
    8.0519822508073290e-03 -1.2589303635933793e+00
    8.0249892742361127e-03 -1.2397729780234110e+00
    7.8601162577793555e-03 -1.0680004681646913e+00
    7.8601162577793555e-03 -1.0680004681646913e+00
    7.8450183788692143e-03 -1.0221429055679963e+00
    8.1816521402573190e-03 -7.4620250724463655e-01
    1.0000741997435470e-02 -4.8397751418246104e-01
    1.0681201944195445e-02 -4.3738352486814930e-01
    1.3871861919749441e-02 -3.0983866769659335e-01
    1.0885333636354487e-02 -4.2548147169838157e-01
    8.6903055281686049e-03 -6.3084006188056041e-01
    8.1458378015929218e-03 -7.5809804357890331e-01
    7.9042269047157315e-03 -8.8273482950474957e-01
    7.9196698896203295e-03 -8.6971849262290402e-01
    7.8533953362786273e-03 -9.5014618758261493e-01
    7.8905753800106275e-03 -8.9589708055522133e-01
    7.9196698896203278e-03 -1.1497973292302797e+00
    7.8483659439368067e-03 -1.0371873387954444e+00
    7.8786881403629019e-03 -1.0998533626601497e+00
    7.8685417251546808e-03 -9.2268702784386825e-01
    8.2605735620887091e-03 -7.2264944628929328e-01
    8.3498796554851620e-03 -6.9937860618023528e-01
    8.5635303617330738e-03 -6.5351613088992178e-01
    8.4504966151859196e-03 -6.7634814150009936e-01
    8.6251076443438403e-03 -6.4216129906793551e-01
    9.2685276107747575e-03 -5.5205244747388338e-01
    8.3987097773391157e-03 -6.8783593942879473e-01
    8.3987097773391157e-03 -6.8783593942879473e-01
    8.5635303617330738e-03 -6.5351613088992178e-01
    8.6251076443438403e-03 -6.4216129906793551e-01
    8.5053842549018214e-03 -6.6490996620436860e-01
    8.4504966151859196e-03 -6.7634814150009936e-01
    8.5053842549018214e-03 -6.6490996620436860e-01
    8.3987097773391157e-03 -6.8783593942879473e-01
    8.1816521402573190e-03 -7.4620250724463655e-01
    8.2605735620887091e-03 -7.2264944628929328e-01
    8.3038744587961306e-03 -7.1098136789546440e-01
    7.9196698896203295e-03 -8.6971849262290402e-01
    7.8786881403629019e-03 -1.0998533626601497e+00
    7.8905753800106258e-03 -1.1161996413474884e+00
    8.0810771324193714e-03 -1.2785207798918967e+00
    7.9196698896203278e-03 -1.1497973292302797e+00
    7.8601162577793555e-03 -1.0680004681646913e+00
    7.8450183788692143e-03 -1.0221429055679963e+00
    7.8450183788692125e-03 -9.7833678104365329e-01
    8.2198665104517982e-03 -7.3438807363452563e-01
    1.0681201944195445e-02 -4.3738352486814930e-01
    1.0316575103140381e-02 -4.6085722358554115e-01
    1.4431077917840143e-02 -2.9546842014263947e-01
    1.1895023462646379e-02 -3.7638632635454056e-01
    8.7593320734769969e-03 -6.1954691818972329e-01
    7.8601162577793572e-03 -9.3632917756904466e-01
    8.0519822508073290e-03 -7.9432511036248943e-01
    8.0519822508073290e-03 -7.9432511036248943e-01
    8.0249892742361127e-03 -8.0659928690679761e-01
    7.8483659439368067e-03 -9.6414597690844128e-01
    8.0519822508073290e-03 -1.2589303635933793e+00
    7.8533953362786273e-03 -9.5014618758261493e-01
    7.8533953362786273e-03 -1.0524696231684350e+00
    7.8533953362786273e-03 -9.5014618758261493e-01
    8.5635303617330738e-03 -6.5351613088992178e-01
    8.6903055281686049e-03 -6.3084006188056041e-01
    8.6251076443438403e-03 -6.4216129906793551e-01
    8.5635303617330738e-03 -6.5351613088992178e-01
    8.6903055281686049e-03 -6.3084006188056041e-01
    8.6903055281686049e-03 -6.3084006188056041e-01
    8.5053842549018214e-03 -6.6490996620436860e-01
    8.3038744587961306e-03 -7.1098136789546440e-01
    8.3987097773391157e-03 -6.8783593942879473e-01
    8.5053842549018214e-03 -6.6490996620436860e-01
    8.7593320734769969e-03 -6.1954691818972329e-01
    8.5635303617330738e-03 -6.5351613088992178e-01
    8.4504966151859196e-03 -6.7634814150009936e-01
    8.4504966151859196e-03 -6.7634814150009936e-01
    8.1816521402573190e-03 -7.4620250724463655e-01
    8.1458378015929218e-03 -7.5809804357890331e-01
    8.2605735620887091e-03 -7.2264944628929328e-01
    8.3038744587961306e-03 -7.1098136789546440e-01
    7.8786881403629019e-03 -1.0998533626601497e+00
    7.8533953362786273e-03 -1.0524696231684350e+00
    7.8786881403629019e-03 -1.0998533626601497e+00
    8.0249892742361127e-03 -1.2397729780234110e+00
    7.8601162577793555e-03 -1.0680004681646913e+00
    7.8433462018537622e-03 -9.9272717620543238e-01
    7.8433462018537622e-03 -9.9272717620543238e-01
    7.9770784623098348e-03 -8.3147941928309810e-01
    9.7249666816736791e-03 -5.0683402997919758e-01
    1.0681201944195445e-02 -4.3738352486814930e-01
    1.2946840961083832e-02 -3.3737388489831588e-01
    1.1895023462646379e-02 -3.7638632635454056e-01
    8.3498796554851620e-03 -6.9937860618023528e-01
    8.0249892742361127e-03 -8.0659928690679761e-01
    8.1123386693932997e-03 -7.7008003208364861e-01
    7.9770784623098348e-03 -8.3147941928309810e-01
    7.8905753800106275e-03 -8.9589708055522133e-01
    7.8685417251546808e-03 -9.2268702784386825e-01
    7.8450183788692125e-03 -9.7833678104365329e-01
    7.8601162577793572e-03 -9.3632917756904466e-01
    7.8905753800106275e-03 -8.9589708055522133e-01
    7.8786881403629019e-03 -9.0921211313239036e-01
    8.4504966151859196e-03 -6.7634814150009936e-01
    8.2605735620887091e-03 -7.2264944628929328e-01
    8.6251076443438403e-03 -6.4216129906793551e-01
    8.8324161807191957e-03 -6.0827625302982191e-01
    8.9098101345600339e-03 -5.9702231412599349e-01
    8.9917925489830623e-03 -5.8577918612900604e-01
    8.9098101345600339e-03 -5.9702231412599349e-01
    8.6903055281686049e-03 -6.3084006188056041e-01
    8.6251076443438403e-03 -6.4216129906793551e-01
    8.6903055281686049e-03 -6.3084006188056041e-01
    8.9098101345600339e-03 -5.9702231412599349e-01
    8.6903055281686049e-03 -6.3084006188056041e-01
    8.7593320734769969e-03 -6.1954691818972329e-01
    8.6903055281686049e-03 -6.3084006188056041e-01
    8.3987097773391157e-03 -6.8783593942879473e-01
    8.3987097773391157e-03 -6.8783593942879473e-01
    8.3038744587961306e-03 -7.1098136789546440e-01
    8.3498796554851620e-03 -6.9937860618023528e-01
    7.8433462018537622e-03 -1.0073261052672771e+00
    7.8450183788692143e-03 -1.0221429055679963e+00
    7.9369353774977995e-03 -1.1670771035014100e+00
    8.0519822508073290e-03 -1.2589303635933793e+00
    7.8450183788692125e-03 -9.7833678104365329e-01
    7.8483659439368067e-03 -9.6414597690844128e-01
    7.8433462018537622e-03 -1.0073261052672771e+00
    8.0519822508073290e-03 -7.9432511036248943e-01
    8.5635303617330738e-03 -6.5351613088992178e-01
    1.0885333636354487e-02 -4.2548147169838157e-01
    1.5829024350091016e-02 -2.6516504294495535e-01
    1.3381286460780462e-02 -3.2378806290136664e-01
    8.6251076443438403e-03 -6.4216129906793551e-01
    8.0249892742361127e-03 -8.0659928690679761e-01
    8.0000392138852103e-03 -8.1898211660394216e-01
    7.8905753800106275e-03 -8.9589708055522133e-01
    7.8905753800106275e-03 -8.9589708055522133e-01
    7.8601162577793572e-03 -9.3632917756904466e-01
    7.8450183788692143e-03 -1.0221429055679963e+00
    7.8685417251546808e-03 -9.2268702784386825e-01
    7.8905753800106275e-03 -8.9589708055522133e-01
    8.1458378015929218e-03 -7.5809804357890331e-01
    7.8685417251546808e-03 -9.2268702784386825e-01
    8.5635303617330738e-03 -6.5351613088992178e-01
    8.4504966151859196e-03 -6.7634814150009936e-01
    8.5053842549018214e-03 -6.6490996620436860e-01
    8.9098101345600339e-03 -5.9702231412599349e-01
    9.0786717895447906e-03 -5.7454076215586380e-01
    9.0786717895447906e-03 -5.7454076215586380e-01
    9.0786717895447906e-03 -5.7454076215586380e-01
    8.9917925489830623e-03 -5.8577918612900604e-01
    9.3723091846403036e-03 -5.4078908105534018e-01
    8.9917925489830623e-03 -5.8577918612900604e-01
    8.8324161807191957e-03 -6.0827625302982191e-01
    8.9917925489830623e-03 -5.8577918612900604e-01
    8.8324161807191957e-03 -6.0827625302982191e-01
    8.3498796554851620e-03 -6.9937860618023528e-01
    8.2605735620887091e-03 -7.2264944628929328e-01
    8.3498796554851620e-03 -6.9937860618023528e-01
    8.3038744587961306e-03 -7.1098136789546440e-01
    7.9560584561760433e-03 -8.4409715080670644e-01
    7.8450183788692143e-03 -1.0221429055679963e+00
    7.8786881403629019e-03 -1.0998533626601497e+00
    7.9770784623098348e-03 -1.2026755886059097e+00
    7.8483659439368067e-03 -9.6414597690844128e-01
    7.8483659439368067e-03 -9.6414597690844128e-01
    7.8433462018537622e-03 -1.0073261052672771e+00
    7.9770784623098348e-03 -8.3147941928309810e-01
    8.3498796554851620e-03 -6.9937860618023528e-01
    1.1346517377271588e-02 -4.0126917294073605e-01
    2.3292954083294990e-02 -1.7342199390482402e-01
    1.1895023462646379e-02 -3.7638632635454056e-01
    8.7593320734769969e-03 -6.1954691818972329e-01
    8.0519822508073290e-03 -7.9432511036248943e-01
    8.2605735620887091e-03 -7.2264944628929328e-01
    7.9560584561760433e-03 -8.4409715080670644e-01
    7.9369353774977995e-03 -8.5684141776052880e-01
    7.8601162577793572e-03 -9.3632917756904466e-01
    7.8433462018537622e-03 -9.9272717620543238e-01
    7.8601162577793572e-03 -9.3632917756904466e-01
    7.9042269047157315e-03 -8.8273482950474957e-01
    7.8685417251546808e-03 -9.2268702784386825e-01
    7.9042269047157315e-03 -8.8273482950474957e-01
    8.3987097773391157e-03 -6.8783593942879473e-01
    9.1707899660639098e-03 -5.6330071214910804e-01
    8.9098101345600339e-03 -5.9702231412599349e-01
    8.6251076443438403e-03 -6.4216129906793551e-01
    8.5053842549018214e-03 -6.6490996620436860e-01
    8.7593320734769969e-03 -6.1954691818972329e-01
    8.9917925489830623e-03 -5.8577918612900604e-01
    9.0786717895447906e-03 -5.7454076215586380e-01
    9.0786717895447906e-03 -5.7454076215586380e-01
    9.1707899660639098e-03 -5.6330071214910804e-01
    8.5053842549018214e-03 -6.6490996620436860e-01
    8.8324161807191957e-03 -6.0827625302982191e-01
    8.8324161807191957e-03 -6.0827625302982191e-01
    8.3987097773391157e-03 -6.8783593942879473e-01
    8.3038744587961306e-03 -7.1098136789546440e-01
    8.4504966151859196e-03 -6.7634814150009936e-01
    7.9369353774977995e-03 -8.5684141776052880e-01
    7.8450183788692143e-03 -1.0221429055679963e+00
    7.9369353774977995e-03 -8.5684141776052880e-01
    7.9196698896203278e-03 -1.1497973292302797e+00
    7.9560584561760433e-03 -1.1846977555181846e+00
    7.8450183788692125e-03 -9.7833678104365329e-01
    7.8450183788692143e-03 -1.0221429055679963e+00
    7.8450183788692125e-03 -9.7833678104365329e-01
    7.9560584561760433e-03 -8.4409715080670644e-01
    8.5053842549018214e-03 -6.6490996620436860e-01
    1.1895023462646379e-02 -3.7638632635454056e-01
    1.9163247720760741e-02 -2.1401291250192653e-01
    1.0885333636354487e-02 -4.2548147169838157e-01
    9.7249666816736791e-03 -5.0683402997919758e-01
    8.5635303617330738e-03 -6.5351613088992178e-01
    8.0000392138852103e-03 -8.1898211660394216e-01
    7.9560584561760433e-03 -8.4409715080670644e-01
    7.9042269047157315e-03 -8.8273482950474957e-01
    7.8483659439368067e-03 -9.6414597690844128e-01
    7.8786881403629019e-03 -9.0921211313239036e-01
    7.9369353774977995e-03 -8.5684141776052880e-01
    7.9196698896203295e-03 -8.6971849262290402e-01
    7.8450183788692125e-03 -9.7833678104365329e-01
    7.9770784623098348e-03 -8.3147941928309810e-01
    8.0519822508073290e-03 -7.9432511036248943e-01
    8.8324161807191957e-03 -6.0827625302982191e-01
    8.5053842549018214e-03 -6.6490996620436860e-01
    8.9098101345600339e-03 -5.9702231412599349e-01
    8.6251076443438403e-03 -6.4216129906793551e-01
    8.7593320734769969e-03 -6.1954691818972329e-01
    9.1707899660639098e-03 -5.6330071214910804e-01
    8.7593320734769969e-03 -6.1954691818972329e-01
    8.9917925489830623e-03 -5.8577918612900604e-01
    8.7593320734769969e-03 -6.1954691818972329e-01
    8.5635303617330738e-03 -6.5351613088992178e-01
    8.6903055281686049e-03 -6.3084006188056041e-01
    8.7593320734769969e-03 -6.1954691818972329e-01
    8.3498796554851620e-03 -6.9937860618023528e-01
    8.4504966151859196e-03 -6.7634814150009936e-01
    8.3498796554851620e-03 -6.9937860618023528e-01
    7.9770784623098348e-03 -8.3147941928309810e-01
    7.9042269047157315e-03 -8.8273482950474957e-01
    7.8483659439368067e-03 -1.0371873387954444e+00
    7.9369353774977995e-03 -1.1670771035014100e+00
    7.8786881403629019e-03 -1.0998533626601497e+00
    7.8533953362786273e-03 -9.5014618758261493e-01
    7.8433462018537622e-03 -9.9272717620543238e-01
    7.8483659439368067e-03 -9.6414597690844128e-01
    8.0519822508073290e-03 -7.9432511036248943e-01
    8.3498796554851620e-03 -6.9937860618023528e-01
    1.0492139182395829e-02 -4.4917077594709154e-01
    1.7809826577658047e-02 -2.3204774044612855e-01
    1.1895023462646379e-02 -3.7638632635454056e-01
    9.4826095899700480e-03 -5.2950338221365600e-01
    8.9917925489830623e-03 -5.8577918612900604e-01
    8.1123386693932997e-03 -7.7008003208364861e-01
    8.0000392138852103e-03 -8.1898211660394216e-01
    7.8905753800106275e-03 -8.9589708055522133e-01
    7.8786881403629019e-03 -9.0921211313239036e-01
    7.8786881403629019e-03 -9.0921211313239036e-01
    7.9369353774977995e-03 -8.5684141776052880e-01
    7.8533953362786273e-03 -9.5014618758261493e-01
    7.8450183788692125e-03 -9.7833678104365329e-01
    7.8533953362786273e-03 -9.5014618758261493e-01
    7.9560584561760433e-03 -8.4409715080670644e-01
    8.1816521402573190e-03 -7.4620250724463655e-01
    8.5635303617330738e-03 -6.5351613088992178e-01
    8.6251076443438403e-03 -6.4216129906793551e-01
    8.5053842549018214e-03 -6.6490996620436860e-01
    8.6251076443438403e-03 -6.4216129906793551e-01
    8.4504966151859196e-03 -6.7634814150009936e-01
    8.8324161807191957e-03 -6.0827625302982191e-01
    8.8324161807191957e-03 -6.0827625302982191e-01
    8.7593320734769969e-03 -6.1954691818972329e-01
    8.7593320734769969e-03 -6.1954691818972329e-01
    8.7593320734769969e-03 -6.1954691818972329e-01
    8.6903055281686049e-03 -6.3084006188056041e-01
    9.0786717895447906e-03 -5.7454076215586380e-01
    8.4504966151859196e-03 -6.7634814150009936e-01
    7.9196698896203295e-03 -8.6971849262290402e-01
    7.8905753800106275e-03 -8.9589708055522133e-01
    7.9042269047157315e-03 -8.8273482950474957e-01
    7.8533953362786273e-03 -9.5014618758261493e-01
    7.9196698896203278e-03 -1.1497973292302797e+00
    7.9042269047157297e-03 -1.1328430311977618e+00
    7.8483659439368067e-03 -1.0371873387954444e+00
    7.9770784623098348e-03 -8.3147941928309810e-01
    7.8601162577793572e-03 -9.3632917756904466e-01
    8.0000392138852103e-03 -8.1898211660394216e-01
    8.6903055281686049e-03 -6.3084006188056041e-01
    1.0885333636354487e-02 -4.2548147169838157e-01
    2.0912618696103655e-02 -1.9462473604038072e-01
    1.1895023462646379e-02 -3.7638632635454056e-01
    1.0153163294561595e-02 -4.7245559126153408e-01
    8.9098101345600339e-03 -5.9702231412599349e-01
    8.1458378015929218e-03 -7.5809804357890331e-01
    8.0249892742361127e-03 -8.0659928690679761e-01
    8.0249892742361127e-03 -8.0659928690679761e-01
    7.8905753800106275e-03 -8.9589708055522133e-01
    7.8786881403629019e-03 -9.0921211313239036e-01
    7.8533953362786273e-03 -9.5014618758261493e-01
    7.9560584561760433e-03 -8.4409715080670644e-01
    7.8533953362786273e-03 -9.5014618758261493e-01
    7.8685417251546808e-03 -9.2268702784386825e-01
    7.9770784623098348e-03 -8.3147941928309810e-01
    7.9560584561760433e-03 -8.4409715080670644e-01
    8.0249892742361127e-03 -8.0659928690679761e-01
    9.0786717895447906e-03 -5.7454076215586380e-01
    8.7593320734769969e-03 -6.1954691818972329e-01
    8.5053842549018214e-03 -6.6490996620436860e-01
    8.5635303617330738e-03 -6.5351613088992178e-01
    8.6251076443438403e-03 -6.4216129906793551e-01
    8.9098101345600339e-03 -5.9702231412599349e-01
    8.7593320734769969e-03 -6.1954691818972329e-01
    8.9098101345600339e-03 -5.9702231412599349e-01
    9.0786717895447906e-03 -5.7454076215586380e-01
    8.7593320734769969e-03 -6.1954691818972329e-01
    8.6251076443438403e-03 -6.4216129906793551e-01
    8.3498796554851620e-03 -6.9937860618023528e-01
    7.9369353774977995e-03 -8.5684141776052880e-01
    7.9560584561760433e-03 -8.4409715080670644e-01
    7.8685417251546808e-03 -9.2268702784386825e-01
    7.8483659439368067e-03 -1.0371873387954444e+00
    7.9770784623098348e-03 -1.2026755886059097e+00
    7.8433462018537622e-03 -9.9272717620543238e-01
    7.8433462018537622e-03 -9.9272717620543238e-01
    7.8685417251546808e-03 -9.2268702784386825e-01
    7.9042269047157315e-03 -8.8273482950474957e-01
    8.3987097773391157e-03 -6.8783593942879473e-01
    8.8324161807191957e-03 -6.0827625302982191e-01
    1.1106378195242848e-02 -4.1344911529736145e-01
    1.5829024350091016e-02 -2.6516504294495535e-01
    1.1895023462646379e-02 -3.7638632635454056e-01
    1.0153163294561595e-02 -4.7245559126153408e-01
    9.7249666816736791e-03 -5.0683402997919758e-01
    8.2198665104517982e-03 -7.3438807363452563e-01
    8.0810771324193714e-03 -7.8215388887504278e-01
    8.0810771324193714e-03 -7.8215388887504278e-01
    8.0000392138852103e-03 -8.1898211660394216e-01
    7.8601162577793572e-03 -9.3632917756904466e-01
    7.8483659439368067e-03 -9.6414597690844128e-01
    7.8450183788692125e-03 -9.7833678104365329e-01
    7.8433462018537622e-03 -9.9272717620543238e-01
    8.0810771324193714e-03 -7.8215388887504278e-01
    8.0519822508073290e-03 -7.9432511036248943e-01
    8.0249892742361127e-03 -8.0659928690679761e-01
    8.5635303617330738e-03 -6.5351613088992178e-01
    8.0249892742361127e-03 -8.0659928690679761e-01
    8.3987097773391157e-03 -6.8783593942879473e-01
    8.3498796554851620e-03 -6.9937860618023528e-01
    8.8324161807191957e-03 -6.0827625302982191e-01
    8.6903055281686049e-03 -6.3084006188056041e-01
    8.8324161807191957e-03 -6.0827625302982191e-01
    8.9098101345600339e-03 -5.9702231412599349e-01
    8.7593320734769969e-03 -6.1954691818972329e-01
    8.6903055281686049e-03 -6.3084006188056041e-01
    8.3498796554851620e-03 -6.9937860618023528e-01
    8.1458378015929218e-03 -7.5809804357890331e-01
    8.1123386693932997e-03 -7.7008003208364861e-01
    8.2605735620887091e-03 -7.2264944628929328e-01
    8.0810771324193714e-03 -7.8215388887504278e-01
    7.8601162577793572e-03 -9.3632917756904466e-01
    8.0519822508073290e-03 -1.2589303635933793e+00
    7.9770784623098348e-03 -1.2026755886059097e+00
    7.8433462018537622e-03 -9.9272717620543238e-01
    7.9042269047157315e-03 -8.8273482950474957e-01
    7.8786881403629019e-03 -9.0921211313239036e-01
    7.9196698896203295e-03 -8.6971849262290402e-01
    8.5053842549018214e-03 -6.6490996620436860e-01
    9.0786717895447906e-03 -5.7454076215586380e-01
    1.5829024350091016e-02 -2.6516504294495535e-01
    1.4431077917840143e-02 -2.9546842014263947e-01
    1.1895023462646379e-02 -3.7638632635454056e-01
    1.0153163294561595e-02 -4.7245559126153408e-01
    9.5999619132534561e-03 -5.1818772517160072e-01
    8.8324161807191957e-03 -6.0827625302982191e-01
    8.5053842549018214e-03 -6.6490996620436860e-01
    8.1123386693932997e-03 -7.7008003208364861e-01
    7.9770784623098348e-03 -8.3147941928309810e-01
    7.9196698896203295e-03 -8.6971849262290402e-01
    7.9042269047157315e-03 -8.8273482950474957e-01
    7.8905753800106275e-03 -8.9589708055522133e-01
    7.8433462018537622e-03 -9.9272717620543238e-01
    7.8905753800106258e-03 -1.1161996413474884e+00
    7.8905753800106275e-03 -8.9589708055522133e-01
    7.9560584561760433e-03 -8.4409715080670644e-01
    8.0810771324193714e-03 -7.8215388887504278e-01
    7.9560584561760433e-03 -8.4409715080670644e-01
    7.9770784623098348e-03 -8.3147941928309810e-01
    7.9369353774977995e-03 -8.5684141776052880e-01
    7.9560584561760433e-03 -8.4409715080670644e-01
    8.6903055281686049e-03 -6.3084006188056041e-01
    8.2198665104517982e-03 -7.3438807363452563e-01
    8.0810771324193714e-03 -7.8215388887504278e-01
    8.0810771324193714e-03 -7.8215388887504278e-01
    7.9196698896203295e-03 -8.6971849262290402e-01
    7.8905753800106275e-03 -8.9589708055522133e-01
    7.8786881403629019e-03 -9.0921211313239036e-01
    7.9042269047157315e-03 -8.8273482950474957e-01
    7.9042269047157315e-03 -8.8273482950474957e-01
    8.0249892742361127e-03 -8.0659928690679761e-01
    7.8786881403629019e-03 -1.0998533626601497e+00
    8.0810771324193714e-03 -1.2785207798918967e+00
    7.8450183788692143e-03 -1.0221429055679963e+00
    7.8433462018537622e-03 -9.9272717620543238e-01
    7.8905753800106275e-03 -8.9589708055522133e-01
    7.8786881403629019e-03 -9.0921211313239036e-01
    7.9196698896203295e-03 -8.6971849262290402e-01
    8.3498796554851620e-03 -6.9937860618023528e-01
    9.2685276107747575e-03 -5.5205244747388338e-01
    1.5829024350091016e-02 -2.6516504294495535e-01
    1.5829024350091016e-02 -2.6516504294495535e-01
    1.2946840961083832e-02 -3.3737388489831588e-01
    1.1608354264921114e-02 -3.8892223413129862e-01
    1.0000741997435470e-02 -4.8397751418246104e-01
    9.0786717895447906e-03 -5.7454076215586380e-01
    8.9917925489830623e-03 -5.8577918612900604e-01
    8.5053842549018214e-03 -6.6490996620436860e-01
    8.0810771324193714e-03 -7.8215388887504278e-01
    8.1123386693932997e-03 -7.7008003208364861e-01
    7.9770784623098348e-03 -8.3147941928309810e-01
    7.8786881403629019e-03 -9.0921211313239036e-01
    7.8685417251546808e-03 -9.2268702784386825e-01
    7.9042269047157297e-03 -1.1328430311977618e+00
    7.9042269047157297e-03 -1.1328430311977618e+00
    7.9196698896203295e-03 -8.6971849262290402e-01
    7.9196698896203295e-03 -8.6971849262290402e-01
    8.0810771324193714e-03 -7.8215388887504278e-01
    8.0519822508073290e-03 -7.9432511036248943e-01
    8.0000392138852103e-03 -8.1898211660394216e-01
    7.9560584561760433e-03 -8.4409715080670644e-01
    8.1123386693932997e-03 -7.7008003208364861e-01
    7.9560584561760433e-03 -8.4409715080670644e-01
    8.0000392138852103e-03 -8.1898211660394216e-01
    8.0249892742361127e-03 -8.0659928690679761e-01
    8.0249892742361127e-03 -8.0659928690679761e-01
    7.9560584561760433e-03 -8.4409715080670644e-01
    7.9770784623098348e-03 -8.3147941928309810e-01
    7.9042269047157315e-03 -8.8273482950474957e-01
    7.9042269047157315e-03 -8.8273482950474957e-01
    7.9369353774977995e-03 -8.5684141776052880e-01
    7.9196698896203278e-03 -1.1497973292302797e+00
    7.8533953362786273e-03 -1.0524696231684350e+00
    7.8450183788692143e-03 -1.0221429055679963e+00
    7.8533953362786273e-03 -9.5014618758261493e-01
    7.9560584561760433e-03 -8.4409715080670644e-01
    8.0249892742361127e-03 -8.0659928690679761e-01
    7.9369353774977995e-03 -8.5684141776052880e-01
    8.3038744587961306e-03 -7.1098136789546440e-01
    1.0681201944195445e-02 -4.3738352486814930e-01
    1.5829024350091016e-02 -2.6516504294495535e-01
    1.7809826577658047e-02 -2.3204774044612855e-01
    1.4431077917840143e-02 -2.9546842014263947e-01
    1.2558993679033188e-02 -3.5064343665913833e-01
    1.1346517377271588e-02 -4.0126917294073605e-01
    9.7249666816736791e-03 -5.0683402997919758e-01
    9.4826095899700480e-03 -5.2950338221365600e-01
    1.0153163294561595e-02 -4.7245559126153408e-01
    8.3038744587961306e-03 -7.1098136789546440e-01
    8.3498796554851620e-03 -6.9937860618023528e-01
    8.1123386693932997e-03 -7.7008003208364861e-01
    7.8905753800106275e-03 -8.9589708055522133e-01
    8.0000392138852103e-03 -8.1898211660394216e-01
    7.8685417251546808e-03 -9.2268702784386825e-01
    7.8685417251546808e-03 -1.0837911120705754e+00
    7.9369353774977995e-03 -1.1670771035014100e+00
    7.8685417251546808e-03 -1.0837911120705754e+00
    7.9042269047157315e-03 -8.8273482950474957e-01
    7.9196698896203295e-03 -8.6971849262290402e-01
    8.0519822508073290e-03 -7.9432511036248943e-01
    8.0519822508073290e-03 -7.9432511036248943e-01
    8.1123386693932997e-03 -7.7008003208364861e-01
    8.0249892742361127e-03 -8.0659928690679761e-01
    8.0519822508073290e-03 -7.9432511036248943e-01
    8.0810771324193714e-03 -7.8215388887504278e-01
    8.0810771324193714e-03 -7.8215388887504278e-01
    8.0249892742361127e-03 -8.0659928690679761e-01
    7.9560584561760433e-03 -8.4409715080670644e-01
    8.3038744587961306e-03 -7.1098136789546440e-01
    7.9560584561760433e-03 -8.4409715080670644e-01
    7.9770784623098348e-03 -8.3147941928309810e-01
    8.1458378015929235e-03 -1.3190905958272920e+00
    7.8433462018537622e-03 -1.0073261052672771e+00
    7.8483659439368067e-03 -9.6414597690844128e-01
    7.8450183788692125e-03 -9.7833678104365329e-01
    7.9770784623098348e-03 -8.3147941928309810e-01
    8.1123386693932997e-03 -7.7008003208364861e-01
    8.3987097773391157e-03 -6.8783593942879473e-01
    9.1707899660639098e-03 -5.6330071214910804e-01
    1.1346517377271588e-02 -4.0126917294073605e-01
    1.9163247720760741e-02 -2.1401291250192653e-01
    1.9163247720760741e-02 -2.1401291250192653e-01
    1.7809826577658047e-02 -2.3204774044612855e-01
    1.2946840961083832e-02 -3.3737388489831588e-01
    1.2210338680926915e-02 -3.6363636363636359e-01
    1.0153163294561595e-02 -4.7245559126153408e-01
    9.5999619132534561e-03 -5.1818772517160072e-01
    9.2685276107747575e-03 -5.5205244747388338e-01
    9.3723091846403036e-03 -5.4078908105534018e-01
    8.3987097773391157e-03 -6.8783593942879473e-01
    8.6251076443438403e-03 -6.4216129906793551e-01
    8.3498796554851620e-03 -6.9937860618023528e-01
    8.3038744587961306e-03 -7.1098136789546440e-01
    7.9196698896203295e-03 -8.6971849262290402e-01
    7.9196698896203295e-03 -8.6971849262290402e-01
    7.8483659439368067e-03 -1.0371873387954444e+00
    7.8905753800106258e-03 -1.1161996413474884e+00
    7.8601162577793555e-03 -1.0680004681646913e+00
    7.8450183788692143e-03 -1.0221429055679963e+00
    7.9196698896203295e-03 -8.6971849262290402e-01
    7.8533953362786273e-03 -9.5014618758261493e-01
    7.8905753800106275e-03 -8.9589708055522133e-01
    7.8905753800106275e-03 -8.9589708055522133e-01
    7.9196698896203295e-03 -8.6971849262290402e-01
    7.9042269047157315e-03 -8.8273482950474957e-01
    8.3498796554851620e-03 -6.9937860618023528e-01
    8.2605735620887091e-03 -7.2264944628929328e-01
    7.9770784623098348e-03 -8.3147941928309810e-01
    7.8786881403629019e-03 -9.0921211313239036e-01
    7.8685417251546808e-03 -1.0837911120705754e+00
    7.8483659439368067e-03 -1.0371873387954444e+00
    7.9560584561760433e-03 -1.1846977555181846e+00
    7.9042269047157315e-03 -8.8273482950474957e-01
    7.9560584561760433e-03 -8.4409715080670644e-01
    8.0249892742361127e-03 -8.0659928690679761e-01
    8.0000392138852103e-03 -8.1898211660394216e-01
    8.1123386693932997e-03 -7.7008003208364861e-01
    8.8324161807191957e-03 -6.0827625302982191e-01
    9.5999619132534561e-03 -5.1818772517160072e-01
    1.6724014602345603e-02 -2.4902912254587614e-01
    1.7809826577658047e-02 -2.3204774044612855e-01
    2.0912618696103655e-02 -1.9462473604038072e-01
    1.7809826577658047e-02 -2.3204774044612855e-01
    1.4431077917840143e-02 -2.9546842014263947e-01
    1.2558993679033188e-02 -3.5064343665913833e-01
    1.2946840961083832e-02 -3.3737388489831588e-01
    1.0492139182395829e-02 -4.4917077594709154e-01
    9.4826095899700480e-03 -5.2950338221365600e-01
    8.6903055281686049e-03 -6.3084006188056041e-01
    8.9917925489830623e-03 -5.8577918612900604e-01
    8.2198665104517982e-03 -7.3438807363452563e-01
    8.4504966151859196e-03 -6.7634814150009936e-01
    8.2605735620887091e-03 -7.2264944628929328e-01
    8.0810771324193714e-03 -7.8215388887504278e-01
    7.8685417251546808e-03 -9.2268702784386825e-01
    7.8533953362786273e-03 -9.5014618758261493e-01
    7.8483659439368067e-03 -1.0371873387954444e+00
    7.8483659439368067e-03 -1.0371873387954444e+00
    7.8601162577793572e-03 -9.3632917756904466e-01
    7.8601162577793572e-03 -9.3632917756904466e-01
    7.8685417251546808e-03 -9.2268702784386825e-01
    7.8483659439368067e-03 -9.6414597690844128e-01
    7.9369353774977995e-03 -8.5684141776052880e-01
    8.0000392138852103e-03 -8.1898211660394216e-01
    7.9042269047157315e-03 -8.8273482950474957e-01
    8.2198665104517982e-03 -7.3438807363452563e-01
    8.0519822508073290e-03 -7.9432511036248943e-01
    8.1123386693932997e-03 -7.7008003208364861e-01
    7.8483659439368067e-03 -1.0371873387954444e+00
    7.8483659439368067e-03 -1.0371873387954444e+00
    7.8433462018537622e-03 -1.0073261052672771e+00
    7.8601162577793572e-03 -9.3632917756904466e-01
    7.9369353774977995e-03 -8.5684141776052880e-01
    8.0249892742361127e-03 -8.0659928690679761e-01
    8.0000392138852103e-03 -8.1898211660394216e-01
    8.0000392138852103e-03 -8.1898211660394216e-01
    8.7593320734769969e-03 -6.1954691818972329e-01
    9.4826095899700480e-03 -5.2950338221365600e-01
    1.0492139182395829e-02 -4.4917077594709154e-01
    1.5829024350091016e-02 -2.6516504294495535e-01
    1.7809826577658047e-02 -2.3204774044612855e-01
    1.7809826577658047e-02 -2.3204774044612855e-01
    1.6724014602345603e-02 -2.4902912254587614e-01
    1.3381286460780462e-02 -3.2378806290136664e-01
    1.2558993679033188e-02 -3.5064343665913833e-01
    1.2946840961083832e-02 -3.3737388489831588e-01
    1.2210338680926915e-02 -3.6363636363636359e-01
    1.0000741997435470e-02 -4.8397751418246104e-01
    9.2685276107747575e-03 -5.5205244747388338e-01
    8.7593320734769969e-03 -6.1954691818972329e-01
    8.8324161807191957e-03 -6.0827625302982191e-01
    8.3987097773391157e-03 -6.8783593942879473e-01
    8.3038744587961306e-03 -7.1098136789546440e-01
    8.0000392138852103e-03 -8.1898211660394216e-01
    7.9369353774977995e-03 -8.5684141776052880e-01
    7.8905753800106275e-03 -8.9589708055522133e-01
    7.9560584561760433e-03 -8.4409715080670644e-01
    7.8533953362786273e-03 -1.0524696231684350e+00
    7.8450183788692143e-03 -1.0221429055679963e+00
    7.9770784623098348e-03 -8.3147941928309810e-01
    7.8601162577793572e-03 -9.3632917756904466e-01
    7.8450183788692125e-03 -9.7833678104365329e-01
    7.8433462018537622e-03 -9.9272717620543238e-01
    7.8533953362786273e-03 -9.5014618758261493e-01
    8.0000392138852103e-03 -8.1898211660394216e-01
    7.9369353774977995e-03 -8.5684141776052880e-01
    7.8433462018537622e-03 -1.0073261052672771e+00
    7.8433462018537622e-03 -1.0073261052672771e+00
    7.9042269047157297e-03 -1.1328430311977618e+00
    7.8433462018537622e-03 -1.0073261052672771e+00
    7.8533953362786273e-03 -9.5014618758261493e-01
    8.0519822508073290e-03 -7.9432511036248943e-01
    7.9369353774977995e-03 -8.5684141776052880e-01
    8.0249892742361127e-03 -8.0659928690679761e-01
    7.9560584561760433e-03 -8.4409715080670644e-01
    8.4504966151859196e-03 -6.7634814150009936e-01
    9.2685276107747575e-03 -5.5205244747388338e-01
    9.4826095899700480e-03 -5.2950338221365600e-01
    1.0492139182395829e-02 -4.4917077594709154e-01
    1.5829024350091016e-02 -2.6516504294495535e-01
    1.9163247720760741e-02 -2.1401291250192653e-01
    1.9163247720760741e-02 -2.1401291250192653e-01
    1.6724014602345603e-02 -2.4902912254587614e-01
    1.3871861919749441e-02 -3.0983866769659335e-01
    1.2558993679033188e-02 -3.5064343665913833e-01
    1.2210338680926915e-02 -3.6363636363636359e-01
    1.1895023462646379e-02 -3.7638632635454056e-01
    1.1895023462646379e-02 -3.7638632635454056e-01
    1.0000741997435470e-02 -4.8397751418246104e-01
    8.9917925489830623e-03 -5.8577918612900604e-01
    9.4826095899700480e-03 -5.2950338221365600e-01
    8.9917925489830623e-03 -5.8577918612900604e-01
    8.3498796554851620e-03 -6.9937860618023528e-01
    8.2605735620887091e-03 -7.2264944628929328e-01
    8.3987097773391157e-03 -6.8783593942879473e-01
    7.8905753800106275e-03 -8.9589708055522133e-01
    7.8483659439368067e-03 -9.6414597690844128e-01
    7.8601162577793572e-03 -9.3632917756904466e-01
    7.8905753800106258e-03 -1.1161996413474884e+00
    7.8601162577793555e-03 -1.0680004681646913e+00
    7.8601162577793555e-03 -1.0680004681646913e+00
    7.9560584561760433e-03 -8.4409715080670644e-01
    8.0000392138852103e-03 -8.1898211660394216e-01
    7.8483659439368067e-03 -1.0371873387954444e+00
    7.8450183788692125e-03 -9.7833678104365329e-01
    7.8905753800106275e-03 -8.9589708055522133e-01
    7.8685417251546808e-03 -9.2268702784386825e-01
    7.8433462018537622e-03 -1.0073261052672771e+00
    7.8450183788692143e-03 -1.0221429055679963e+00
    7.8433462018537622e-03 -1.0073261052672771e+00
    7.8450183788692125e-03 -9.7833678104365329e-01
    8.0519822508073290e-03 -7.9432511036248943e-01
    7.9042269047157315e-03 -8.8273482950474957e-01
    7.9369353774977995e-03 -8.5684141776052880e-01
    8.1458378015929218e-03 -7.5809804357890331e-01
    8.9098101345600339e-03 -5.9702231412599349e-01
    9.4826095899700480e-03 -5.2950338221365600e-01
    9.4826095899700480e-03 -5.2950338221365600e-01
    1.2558993679033188e-02 -3.5064343665913833e-01
    1.6724014602345603e-02 -2.4902912254587614e-01
    1.6724014602345603e-02 -2.4902912254587614e-01
    2.3292954083294990e-02 -1.7342199390482402e-01
    1.5829024350091016e-02 -2.6516504294495535e-01
    1.3871861919749441e-02 -3.0983866769659335e-01
    1.2946840961083832e-02 -3.3737388489831588e-01
    1.1895023462646379e-02 -3.7638632635454056e-01
    1.2210338680926915e-02 -3.6363636363636359e-01
    1.1608354264921114e-02 -3.8892223413129862e-01
    1.1346517377271588e-02 -4.0126917294073605e-01
    9.7249666816736791e-03 -5.0683402997919758e-01
    9.8583029949223140e-03 -4.9543369430686229e-01
    9.7249666816736791e-03 -5.0683402997919758e-01
    9.0786717895447906e-03 -5.7454076215586380e-01
    8.1458378015929218e-03 -7.5809804357890331e-01
    8.0810771324193714e-03 -7.8215388887504278e-01
    7.9560584561760433e-03 -8.4409715080670644e-01
    7.8601162577793572e-03 -9.3632917756904466e-01
    7.8483659439368067e-03 -9.6414597690844128e-01
    7.8601162577793572e-03 -9.3632917756904466e-01
    7.8905753800106258e-03 -1.1161996413474884e+00
    7.9196698896203278e-03 -1.1497973292302797e+00
    7.8433462018537622e-03 -1.0073261052672771e+00
    7.8483659439368067e-03 -9.6414597690844128e-01
    7.8905753800106275e-03 -8.9589708055522133e-01
    8.0000392138852103e-03 -8.1898211660394216e-01
    7.8905753800106258e-03 -1.1161996413474884e+00
    7.8533953362786273e-03 -1.0524696231684350e+00
    7.8433462018537622e-03 -1.0073261052672771e+00
    8.0810771324193714e-03 -7.8215388887504278e-01
    8.1458378015929218e-03 -7.5809804357890331e-01
    7.9369353774977995e-03 -8.5684141776052880e-01
    7.9560584561760433e-03 -8.4409715080670644e-01
    8.1123386693932997e-03 -7.7008003208364861e-01
    8.4504966151859196e-03 -6.7634814150009936e-01
    8.5053842549018214e-03 -6.6490996620436860e-01
    9.3723091846403036e-03 -5.4078908105534018e-01
    9.5999619132534561e-03 -5.1818772517160072e-01
    1.1895023462646379e-02 -3.7638632635454056e-01
    1.2946840961083832e-02 -3.3737388489831588e-01
    1.6724014602345603e-02 -2.4902912254587614e-01
    1.7809826577658047e-02 -2.3204774044612855e-01
    2.0912618696103655e-02 -1.9462473604038072e-01
    1.6724014602345603e-02 -2.4902912254587614e-01
    1.5075736089702937e-02 -2.8060676663315687e-01
    1.2558993679033188e-02 -3.5064343665913833e-01
    1.2558993679033188e-02 -3.5064343665913833e-01
    1.2558993679033188e-02 -3.5064343665913833e-01
    1.2210338680926915e-02 -3.6363636363636359e-01
    1.1608354264921114e-02 -3.8892223413129862e-01
    1.1346517377271588e-02 -4.0126917294073605e-01
    1.0681201944195445e-02 -4.3738352486814930e-01
    1.0492139182395829e-02 -4.4917077594709154e-01
    1.0316575103140381e-02 -4.6085722358554115e-01
    9.5999619132534561e-03 -5.1818772517160072e-01
    9.1707899660639098e-03 -5.6330071214910804e-01
    8.3038744587961306e-03 -7.1098136789546440e-01
    8.0000392138852103e-03 -8.1898211660394216e-01
    8.0249892742361127e-03 -8.0659928690679761e-01
    7.9560584561760433e-03 -8.4409715080670644e-01
    7.8433462018537622e-03 -9.9272717620543238e-01
    7.8533953362786273e-03 -1.0524696231684350e+00
    7.8483659439368067e-03 -1.0371873387954444e+00
    7.8685417251546808e-03 -9.2268702784386825e-01
    7.8786881403629019e-03 -9.0921211313239036e-01
    8.0000392138852103e-03 -1.2210278829367864e+00
    7.9196698896203278e-03 -1.1497973292302797e+00
    7.9196698896203278e-03 -1.1497973292302797e+00
    8.0249892742361127e-03 -8.0659928690679761e-01
    7.9196698896203295e-03 -8.6971849262290402e-01
    7.8786881403629019e-03 -9.0921211313239036e-01
    7.9770784623098348e-03 -8.3147941928309810e-01
    8.3498796554851620e-03 -6.9937860618023528e-01
    8.3038744587961306e-03 -7.1098136789546440e-01
    9.3723091846403036e-03 -5.4078908105534018e-01
    9.2685276107747575e-03 -5.5205244747388338e-01
    9.3723091846403036e-03 -5.4078908105534018e-01
    1.1608354264921114e-02 -3.8892223413129862e-01
    1.3381286460780462e-02 -3.2378806290136664e-01
    1.4431077917840143e-02 -2.9546842014263947e-01
    1.6724014602345603e-02 -2.4902912254587614e-01
    2.6795839028773669e-02 -1.4962640041614494e-01
    2.3292954083294990e-02 -1.7342199390482402e-01
    1.9163247720760741e-02 -2.1401291250192653e-01
    1.9163247720760741e-02 -2.1401291250192653e-01
    1.4431077917840143e-02 -2.9546842014263947e-01
    1.3381286460780462e-02 -3.2378806290136664e-01
    1.3871861919749441e-02 -3.0983866769659335e-01
    1.3871861919749441e-02 -3.0983866769659335e-01
    1.3871861919749441e-02 -3.0983866769659335e-01
    1.3381286460780462e-02 -3.2378806290136664e-01
    1.3381286460780462e-02 -3.2378806290136664e-01
    1.1895023462646379e-02 -3.7638632635454056e-01
    1.1895023462646379e-02 -3.7638632635454056e-01
    1.0316575103140381e-02 -4.6085722358554115e-01
    1.0681201944195445e-02 -4.3738352486814930e-01
    1.0000741997435470e-02 -4.8397751418246104e-01
    9.0786717895447906e-03 -5.7454076215586380e-01
    8.4504966151859196e-03 -6.7634814150009936e-01
    8.1816521402573190e-03 -7.4620250724463655e-01
    8.1123386693932997e-03 -7.7008003208364861e-01
    7.8450183788692125e-03 -9.7833678104365329e-01
    7.8483659439368067e-03 -1.0371873387954444e+00
    7.8450183788692143e-03 -1.0221429055679963e+00
    7.8533953362786273e-03 -9.5014618758261493e-01
    7.8786881403629019e-03 -1.0998533626601497e+00
    7.8786881403629019e-03 -1.0998533626601497e+00
    7.8483659439368067e-03 -9.6414597690844128e-01
    7.8450183788692125e-03 -9.7833678104365329e-01
    7.8533953362786273e-03 -9.5014618758261493e-01
    8.0000392138852103e-03 -8.1898211660394216e-01
    8.2198665104517982e-03 -7.3438807363452563e-01
    8.4504966151859196e-03 -6.7634814150009936e-01
    8.3498796554851620e-03 -6.9937860618023528e-01
    9.0786717895447906e-03 -5.7454076215586380e-01
    9.4826095899700480e-03 -5.2950338221365600e-01
    1.1895023462646379e-02 -3.7638632635454056e-01
    1.3871861919749441e-02 -3.0983866769659335e-01
    1.5829024350091016e-02 -2.6516504294495535e-01
    1.6724014602345603e-02 -2.4902912254587614e-01
    2.0912618696103655e-02 -1.9462473604038072e-01
    2.3292954083294990e-02 -1.7342199390482402e-01 1. 0.
    2.6795839028773669e-02 -1.4962640041614494e-01
    2.3292954083294990e-02 -1.7342199390482402e-01
    1.9163247720760741e-02 -2.1401291250192653e-01
    1.6724014602345603e-02 -2.4902912254587614e-01
    1.6724014602345603e-02 -2.4902912254587614e-01
    1.6724014602345603e-02 -2.4902912254587614e-01
    1.5829024350091016e-02 -2.6516504294495535e-01
    1.5075736089702937e-02 -2.8060676663315687e-01
    1.5075736089702937e-02 -2.8060676663315687e-01
    1.3871861919749441e-02 -3.0983866769659335e-01
    1.3381286460780462e-02 -3.2378806290136664e-01
    1.2946840961083832e-02 -3.3737388489831588e-01
    1.0316575103140381e-02 -4.6085722358554115e-01
    1.0681201944195445e-02 -4.3738352486814930e-01
    1.0153163294561595e-02 -4.7245559126153408e-01
    9.7249666816736791e-03 -5.0683402997919758e-01
    8.3038744587961306e-03 -7.1098136789546440e-01
    7.9369353774977995e-03 -8.5684141776052880e-01
    8.0810771324193714e-03 -7.8215388887504278e-01
    8.0249892742361127e-03 -8.0659928690679761e-01
    7.8450183788692125e-03 -9.7833678104365329e-01
    8.0000392138852103e-03 -8.1898211660394216e-01
    7.9770784623098348e-03 -1.2026755886059097e+00
    8.0000392138852103e-03 -8.1898211660394216e-01
    7.8601162577793555e-03 -1.0680004681646913e+00
    7.9560584561760433e-03 -8.4409715080670644e-01
    8.0000392138852103e-03 -8.1898211660394216e-01
    8.1458378015929218e-03 -7.5809804357890331e-01
    8.3498796554851620e-03 -6.9937860618023528e-01
    8.5053842549018214e-03 -6.6490996620436860e-01
    9.3723091846403036e-03 -5.4078908105534018e-01
    9.5999619132534561e-03 -5.1818772517160072e-01
    1.2210338680926915e-02 -3.6363636363636359e-01
    1.3871861919749441e-02 -3.0983866769659335e-01
    1.2946840961083832e-02 -3.3737388489831588e-01
    1.6724014602345603e-02 -2.4902912254587614e-01
    1.7809826577658047e-02 -2.3204774044612855e-01
    1.7809826577658047e-02 -2.3204774044612855e-01
    2.3292954083294990e-02 -1.7342199390482402e-01
    4.6069227773575909e-02 -8.5749292571254437e-02
    2.3292954083294990e-02 -1.7342199390482402e-01
    2.3292954083294990e-02 -1.7342199390482402e-01
    2.0912618696103655e-02 -1.9462473604038072e-01
    2.3292954083294990e-02 -1.7342199390482402e-01
    2.3292954083294990e-02 -1.7342199390482402e-01
    2.0912618696103655e-02 -1.9462473604038072e-01
    1.9163247720760741e-02 -2.1401291250192653e-01
    1.7809826577658047e-02 -2.3204774044612855e-01
    1.6724014602345603e-02 -2.4902912254587614e-01
    1.7809826577658047e-02 -2.3204774044612855e-01
    1.6724014602345603e-02 -2.4902912254587614e-01
    1.5075736089702937e-02 -2.8060676663315687e-01
    1.5829024350091016e-02 -2.6516504294495535e-01
    1.6724014602345603e-02 -2.4902912254587614e-01
    1.2558993679033188e-02 -3.5064343665913833e-01
    1.0316575103140381e-02 -4.6085722358554115e-01
    1.0681201944195445e-02 -4.3738352486814930e-01
    1.0000741997435470e-02 -4.8397751418246104e-01
    9.4826095899700480e-03 -5.2950338221365600e-01
    8.0810771324193714e-03 -7.8215388887504278e-01
    8.2198665104517982e-03 -7.3438807363452563e-01
    9.0786717895447906e-03 -5.7454076215586380e-01
    8.3498796554851620e-03 -6.9937860618023528e-01
    8.0000392138852103e-03 -8.1898211660394216e-01
    8.4504966151859196e-03 -6.7634814150009936e-01
    8.3987097773391157e-03 -6.8783593942879473e-01
    8.1816521402573190e-03 -7.4620250724463655e-01
    8.1816521402573190e-03 -7.4620250724463655e-01
    8.3038744587961306e-03 -7.1098136789546440e-01
    8.9917925489830623e-03 -5.8577918612900604e-01
    1.1106378195242848e-02 -4.1344911529736145e-01
    1.2210338680926915e-02 -3.6363636363636359e-01
    1.3871861919749441e-02 -3.0983866769659335e-01
    1.3381286460780462e-02 -3.2378806290136664e-01
    1.4431077917840143e-02 -2.9546842014263947e-01
    1.9163247720760741e-02 -2.1401291250192653e-01
    1.9163247720760741e-02 -2.1401291250192653e-01
    1.9163247720760741e-02 -2.1401291250192653e-01
    1.7809826577658047e-02 -2.3204774044612855e-01</input_scale>
  <output_scale>
    1.0526315789473684e+00 0.</output_scale>
  <inv_output_scale>
    9.4999999999999996e-01 0.</inv_output_scale>
  <weights>
    <_>
      -1.1719048386403424e-03 -2.2903224389177911e-04
      -9.9637750405231888e-04 -5.5088375721748159e-04
      2.2039270841974236e-04 1.2144499427915077e-03
      9.9728247011042037e-04 2.0453599492093418e-04
      -7.2831549546728146e-04 -4.2920232853557353e-04
      -1.1054717958401724e-03 -1.2409612586460942e-04
      -2.1397120762249158e-05 -7.8018402384446585e-04
      6.7194088742161514e-04 -1.1208781013474275e-03
      1.1037170489498088e-03 1.0083693640301039e-03
      -2.5698247005999147e-04 -3.4383640164285737e-05
      3.0002183913935715e-04 -7.7645728251324352e-04
      -6.5397802009701264e-04 9.5527311481024093e-04
      -1.0954164450422850e-03 -3.1663012947851025e-04
      6.1523554708813478e-04 -6.3403300196013517e-04
      1.0630743572223426e-03 -2.4215284090006096e-04
      1.2150750992007805e-03 -3.7732545206526025e-04
      2.2581237915161135e-04 8.1166924113520002e-04
      1.1322676431532379e-03 5.1786688077618958e-04
      8.1904968067006900e-04 5.2277548999592920e-04
      1.2256443938238879e-03 -1.5902424652943092e-04
      2.9351591046290632e-01 9.0048378511132759e-02
      7.4563286990524710e-02 3.1062721396373935e-02
      -6.7793798069287911e-02 1.6521071195684304e-02
      -2.9962334012044650e-02 -5.8715283811829791e-02
      -8.2283423671764225e-03 8.9465894360588577e-02
      2.6452579892953874e-02 5.9392502904346930e-02
      2.8790583428745280e-02 -4.0225096826381937e-02
      -6.9726360997500406e-03 2.5800492014922145e-02
      -9.7190097959632092e-03 5.0070129829391588e-02
      -9.5267919922565947e-02 9.1048908619937446e-02
      -5.4579717369769340e-02 1.4768677721497536e-02
      9.0739612095398579e-03 7.6115734305109067e-02
      2.4991270877879879e-02 -1.3171691232550374e-02
      9.3963554502265734e-02 -9.4954917906993244e-02
      3.0892582037123587e-02 2.5035156839109306e-02
      -8.0716309449279280e-02 -9.0875194833726122e-02
      8.7268296292491623e-02 3.3103572508693196e-02
      4.3971051505739329e-02 1.3469096442959790e-02
      7.4843810988926798e-02 3.6430571140594434e-02
      -8.5725305395956408e-02 -7.0659043177637187e-02
      1.1235162381198623e-01 3.4342165517610566e-02
      2.8938469566465605e-02 1.0680045554015078e-02
      -2.5788228847014920e-02 7.2416260353871638e-03
      -1.0459739559606203e-02 -2.3100738635877353e-02
      -3.6277425308232844e-03 3.9511678219482961e-02
      8.8534498504805447e-03 2.1607981222279513e-02
      1.0694385422987337e-02 -1.6111550873178143e-02
      -1.5379835234444908e-03 7.9987237767749023e-03
      -2.5307229649121415e-03 2.0017243699216480e-02
      -4.1072147499824789e-02 4.0194865204497339e-02
      -2.0476249489891244e-02 5.6750119033393692e-03
      2.3746273675879213e-03 2.9768498443102604e-02
      8.4663418060620839e-03 -3.0847215427150126e-03
      3.5542053610924162e-02 -3.7423413771498465e-02
      1.2165848423550112e-02 8.6259601688422321e-03
      -2.9967143107964306e-02 -3.5523431782559699e-02
      4.1082229344588411e-02 1.1017606019323757e-02
      1.7615859776766517e-02 5.9209615013632970e-03
      2.7507915398013952e-02 1.4028316267207006e-02
      -3.3830602616995442e-02 -2.6678664361187356e-02
      -9.9410067984598685e-02 -3.1157559748757040e-02
      -2.6298568982477094e-02 -1.1180931968621985e-02
      2.4826336202843108e-02 -6.5577138406745913e-03
      1.1297487092273585e-02 2.0860209069085971e-02
      3.6385270599154050e-03 -4.0533022450107592e-02
      -9.4377163167890243e-03 -2.0808755487583628e-02
      -9.6325183763016024e-03 1.4161316814635722e-02
      1.8322915415585922e-03 -8.3444698176576328e-03
      4.2931481779847373e-03 -1.7499071620086001e-02
      3.8922317206637330e-02 -4.1360690991533104e-02
      2.0664003128740026e-02 -5.4554350976318599e-03
      -2.2595165895206155e-03 -2.7213600702012619e-02
      -7.5501678129771257e-03 4.4578234297217309e-03
      -3.5546284174955235e-02 3.5858679371922851e-02
      -9.5476904145677909e-03 -8.5496047946141771e-03
      2.9777126415635048e-02 3.5213555341547541e-02
      -3.9919814675245552e-02 -1.2382746811221118e-02
      -1.5444762246850572e-02 -4.5880406398593077e-03
      -2.5521334663366566e-02 -1.2621403221384124e-02
      3.1316161919904530e-02 2.4406174381089142e-02
      1.4075267272060366e-02 1.4837396531270123e-03
      4.1171458093037356e-04 -2.4670941811199788e-03
      -9.6981164114883877e-04 -2.0314970512287836e-05
      2.7373143242555445e-03 1.2884641499344039e-03
      -3.0728761165914781e-04 -9.6627499425934796e-04
      -1.8091190179082796e-03 -1.1114970609534330e-03
      -1.2732994205984002e-03 -9.4163873082899786e-04
      -7.7218854551071368e-04 -2.6740118873181816e-03
      1.5129267843640769e-03 2.4062278247525873e-04
      7.9011486044067820e-04 -1.4975238611742141e-03
      -3.3365156758128196e-04 -1.2697284730887068e-03
      -1.2577222439438874e-03 8.0712058397355727e-04
      -8.7283691803085412e-04 1.3891758528176766e-03
      -1.1308236924534502e-03 1.5976225269476573e-03
      -3.1547424510136582e-03 -2.0970542885569835e-03
      7.6646923973082198e-04 1.1662270599523429e-03
      -7.5145364656078594e-04 -1.6395698440071487e-03
      -5.5946004679387966e-04 7.3943925006182199e-05
      1.0958782384111373e-05 5.4502823542242702e-04
      -8.8932326357409747e-04 6.1074717594475803e-04
      1.4501031438026987e-02 1.1274700067398624e-04
      1.2624816510846155e-03 -1.8371655273098264e-03
      1.7427457760123020e-04 -1.3697159933048898e-03
      2.2264862606903735e-03 8.3095357180815968e-04
      -1.5442246133694798e-04 -7.5210074226779054e-04
      -3.0497433485970550e-03 -1.5197760448019016e-03
      -1.0794244097363783e-03 -1.3478361297301529e-03
      8.2738872605121988e-04 -2.2157136668853892e-03
      8.1318329722523486e-04 -1.1569710998651369e-03
      -1.1335026545058219e-03 -1.6493179495201220e-03
      -3.2406728909338203e-04 1.2085601405939195e-04
      1.6984891761866297e-04 9.1996481005070273e-04
      -2.8632365318651005e-03 6.9386141691605424e-04
      4.7074883677695464e-04 8.4123340264103666e-04
      -2.6608057531487556e-03 -1.8222193745262261e-03
      1.1948559271680394e-04 1.0675600413369490e-03
      7.2558372611841910e-04 -7.4054908396497133e-04
      6.5028148915753561e-04 -1.9882343927708453e-05
      7.8985171556189364e-04 5.3182150741288160e-04
      1.6632729261384613e-04 -8.1490537903895928e-04
      1.3217271984007486e-02 5.7879291025746485e-04
      2.3679068439406178e-03 1.6296474609416882e-03
      -2.3957125610022324e-03 1.1303950592183114e-05
      -1.4840783637449758e-03 -2.0714777333262994e-03
      5.3055739321216375e-04 -1.5964724022078642e-04
      4.4464499303142251e-04 1.3277239145123272e-03
      7.0313403040767541e-04 -5.1707884683878489e-04
      3.9435204381135271e-04 1.7002629445210626e-03
      -1.2547498857460951e-03 -4.4460753171563172e-04
      -3.5019071569726855e-04 -1.9743013199108154e-04
      -7.8747353013969995e-04 1.5197206127316528e-03
      1.2584904754435397e-03 6.0447914880997215e-04
      -3.3833434015231352e-04 7.9498719919535816e-04
      -3.5129117594591876e-05 1.6560293387194816e-03
      2.3048585349549447e-04 1.1418168393101857e-03
      -2.9361009597995465e-04 5.2708108663490638e-04
      8.6477669837420909e-04 1.0808558142614922e-04
      1.7398942594974022e-03 1.6293055182584303e-03
      7.6702243799123780e-04 1.7632510938566306e-03
      -1.9543457760669561e-03 -1.1246738239431655e-03
      -9.8436256635158079e-02 -3.2603794238625944e-02
      -2.8060718571273225e-02 -1.1745287903618415e-02
      2.3210656038015955e-02 -5.1569230210282155e-03
      1.1193129952903131e-02 2.1679818817486915e-02
      4.4829302117699588e-03 -3.9992256122866700e-02
      -8.4392748170981427e-03 -2.0178066299290014e-02
      -1.1138434854392748e-02 1.5560787625169733e-02
      3.1240614776554599e-03 -9.7291239727177563e-03
      2.3602892939806430e-03 -1.8050671597116930e-02
      3.8993779907399731e-02 -3.9761355766266236e-02
      2.0559622846700445e-02 -5.4847365284761097e-03
      -2.6258153795088255e-03 -2.6365852746860666e-02
      -8.7120863916809298e-03 3.3015606634245981e-03
      -3.6423205025423233e-02 3.6038445484901115e-02
      -1.0118760322304762e-02 -9.0759713449571986e-03
      2.8157450636806899e-02 3.3659421475117933e-02
      -4.0287630116989409e-02 -1.2065489435604985e-02
      -1.5825445830882134e-02 -3.9221420918284485e-03
      -2.5658572238146143e-02 -1.3605490293391998e-02
      3.1663184369408591e-02 2.5645926187622264e-02
      -8.4357163574958677e-02 -2.4527204067682339e-02
      -2.2064060515832630e-02 -9.5084746235903281e-03
      1.9552494792652850e-02 -4.9952940340092658e-03
      8.6353184266302931e-03 1.7703730198452956e-02
      2.7333477951428761e-03 -3.2800708516063801e-02
      -9.7801084339170959e-03 -1.8095176872599001e-02
      -9.7131586780769517e-03 1.1642101035167031e-02
      1.6412332375054246e-03 -9.1504190668014618e-03
      3.0649515184758805e-03 -1.6887302093241421e-02
      3.1214455437586594e-02 -3.2819076031950015e-02
      1.7952090998749136e-02 -5.5401548642967039e-03
      -1.7236918093265999e-03 -2.3165380478525666e-02
      -8.7482054537561492e-03 3.4700135667419512e-03
      -2.7625005593870842e-02 2.9507256482546741e-02
      -1.1298702486071257e-02 -7.4722419124679442e-03
      2.2994714615098340e-02 2.7402108060605942e-02
      -3.3817638295127080e-02 -1.0599910580202125e-02
      -1.4826673501952142e-02 -4.3551349793926929e-03
      -2.0768155008363733e-02 -1.2373574109857120e-02
      2.3439677174515637e-02 2.1910634438039242e-02
      -9.5487344420265324e-02 -2.6322178414298427e-02
      -2.1107569002033207e-02 -1.2094117198119279e-02
      1.9226893276466782e-02 -6.3354748074149056e-03
      1.0357634262785716e-02 1.7075280731534592e-02
      2.5865527187802395e-03 -3.1880072753619912e-02
      -9.6506139021818246e-03 -1.6523181965867825e-02
      -1.1032776659479106e-02 1.4790565792922178e-02
      4.0735017979059100e-03 -1.0002882434905774e-02
      4.5949536681261817e-03 -1.4270881759975696e-02
      3.2112947933544536e-02 -3.1709279100585228e-02
      1.6647438615248568e-02 -5.0342039032384329e-03
      -4.9559130733292682e-03 -2.1665799211416127e-02
      -7.9017747433986329e-03 5.3829461345916187e-03
      -2.8482624130772252e-02 3.0242414701019422e-02
      -1.1590786969578822e-02 -9.0417614922301860e-03
      2.3355701096198722e-02 2.6875674772929101e-02
      -3.3140611523062545e-02 -1.1839919407770440e-02
      -1.4545576086466753e-02 -6.4093007133956765e-03
      -2.0589695888452417e-02 -1.2601725109082683e-02
      2.3377453447124955e-02 1.9969433081564181e-02
      -1.4037133276978353e-01 -3.7842378434162764e-02
      -3.1923685373632466e-02 -1.6916420791076730e-02
      3.0844000572324587e-02 -9.0699820930649731e-03
      1.4633604732563968e-02 2.6954333225790873e-02
      6.0485541664778292e-03 -4.3739267774489568e-02
      -1.3662046711257540e-02 -2.8397646730060636e-02
      -1.4625245111232499e-02 2.2084857161257819e-02
      3.7032629702035335e-03 -1.4638891377441393e-02
      5.4754429451412479e-03 -2.6063278963020211e-02
      4.3170020403705614e-02 -4.5245108922236835e-02
      2.5897896431950000e-02 -7.1266369095487362e-03
      -4.2135092000102244e-03 -3.2618158712878764e-02
      -1.3776215944147286e-02 7.7877785734337601e-03
      -4.2336305277658491e-02 4.2165268042773651e-02
      -1.6903808292170572e-02 -1.3667081258394033e-02
      3.5204841688295921e-02 4.0505373254100759e-02
      -4.5436137374920832e-02 -1.8112212946492869e-02
      -2.3682181366279122e-02 -8.5892495525506669e-03
      -3.0828449293261371e-02 -1.8776749020178840e-02
      3.5384042958163359e-02 3.0752017038931580e-02
      -9.9187365195631316e-02 -1.9228939450972600e-02
      -1.7456454284914269e-02 -1.2798251590744839e-02
      1.6786679283810290e-02 -8.0441130981368479e-03
      1.1160559679351346e-02 1.7768564809127890e-02
      4.4494425334874023e-03 -2.7449023532532986e-02
      -1.0559522860853703e-02 -1.8053009224930201e-02
      -1.0545074014091242e-02 1.3845903133879659e-02
      2.6627089943133701e-03 -9.4278871979629527e-03
      3.9590184158887244e-03 -1.5787135331865407e-02
      2.6663036481896749e-02 -2.5250128747711136e-02
      1.7399326127891333e-02 -6.1383820479122770e-03
      -5.3502578965048311e-03 -1.7537669162154376e-02
      -9.7332407291007301e-03 6.4801301520755177e-03
      -2.3881992213907247e-02 2.4054641289213904e-02
      -1.1810173942788106e-02 -1.1275424607519475e-02
      1.9432437268474035e-02 2.3728094457069984e-02
      -2.6581458683622470e-02 -1.3693333795768035e-02
      -1.4499071713793174e-02 -6.3536592964473938e-03
      -1.7414925265002965e-02 -1.5342645633423069e-02
      2.0104335587719246e-02 1.8569506013906202e-02
      -1.1279514886519869e-01 -2.3359971190945798e-02
      -2.1915589512667158e-02 -1.3761489921693225e-02
      2.2050894129391593e-02 -1.0011187037077273e-02
      1.3825563683168254e-02 2.0344264386484585e-02
      6.6681573934507790e-03 -2.7939260240243888e-02
      -1.3996690826019237e-02 -1.9470906690305333e-02
      -1.4237359845469762e-02 1.8603597584806651e-02
      4.6202898343311255e-03 -1.1610001542424721e-02
      5.3059907604922647e-03 -1.9817004803317582e-02
      2.6164212921925906e-02 -2.7204575943701285e-02
      2.0705932738352164e-02 -8.9442145772776552e-03
      -5.1203858566605184e-03 -2.0489148390440599e-02
      -1.3131723401628746e-02 7.0227762967286474e-03
      -2.5370280573155518e-02 2.6021027310997324e-02
      -1.4894124019057327e-02 -1.2681000313397880e-02
      2.0804575794674332e-02 2.4334778906229905e-02
      -2.6753578835330583e-02 -1.5555188372082846e-02
      -1.9359183442829164e-02 -8.1020547044986600e-03
      -2.2175615737097264e-02 -1.7262918052971327e-02
      2.2525240932058550e-02 2.0433546955733788e-02
      7.6080089247079555e-02 1.7101884809184481e-02
      1.4773208839493922e-02 6.0826744398968704e-03
      -1.2424468742442700e-02 4.3091356855542882e-03
      -6.3797431774654306e-03 -8.4437174284996506e-03
      -2.6507820591526480e-03 1.0558493855625588e-02
      5.4746145253458918e-03 8.7757164359695116e-03
      6.8994300440276468e-03 -8.8053593833652011e-03
      -9.4339678330527773e-04 4.9267744740978973e-03
      -3.5400761467755176e-03 6.8272412427692062e-03
      -1.3691406409844996e-02 1.1733057123475102e-02
      -9.8386937837568033e-03 4.4616680466990502e-03
      2.0967838719267496e-03 1.4428485326734254e-02
      5.5536178101944830e-03 -3.3868539061061185e-03
      1.5750070530617170e-02 -1.3227602977055754e-02
      6.0065655739983915e-03 5.4419050640316926e-03
      -1.5768915279806582e-02 -1.5057252174089491e-02
      8.7119342396555360e-03 7.1770617373553532e-03
      7.5280126075859969e-03 3.2706963252852063e-03
      1.2967034526640072e-02 6.8882400809237836e-03
      -1.6765637821760035e-02 -1.2585402283080631e-02
      -5.4155917232874919e-02 -1.6499416490806098e-03
      -7.4975519721014652e-03 -6.9412106069305741e-03
      7.9407320304344647e-03 -4.4902288425931868e-03
      7.3160098268636306e-03 1.0071835317056521e-02
      3.4875420479424974e-03 -3.6534633420585327e-04
      -6.2189453377997179e-03 -9.5324116588363546e-03
      -5.8920829050857675e-03 1.0992206758590195e-02
      1.5476810082187379e-03 -7.0127242682153515e-03
      2.9775222208725020e-03 -1.1182896326850817e-02
      1.9190425427034576e-03 -7.0562760635860743e-04
      1.1103190025986434e-02 -4.4756512253575640e-03
      -2.4642039138267949e-03 -5.4612886578103634e-03
      -6.8760396151443309e-03 4.5445941643913806e-03
      -2.7082022886307277e-03 2.5927730006462396e-03
      -8.2403744538876722e-03 -6.6244772979723752e-03
      5.0526515894641459e-03 3.0697166165020696e-03
      -5.6054986816049339e-04 -7.5175438144770967e-03
      -9.9920502911335484e-03 -5.3102840433065547e-03
      -7.2723803462105031e-03 -7.6821180145674696e-03
      3.4733938178737422e-03 6.8724403721484141e-03
      -1.0651180051592185e-02 -3.2913903633287221e-03
      -5.1995921338342643e-03 -4.4990933899998883e-03
      5.0663852833924368e-03 -1.5185458071858488e-03
      2.9104229538785627e-03 4.9008089788399739e-03
      7.7017759358758288e-04 -4.3247830351437607e-03
      -2.4962528015031963e-03 -6.5653208713200841e-03
      -2.0726652271929177e-03 5.0561705950027342e-03
      2.3871084572703810e-03 -3.6740085285485477e-03
      1.9377048806067270e-03 -6.8192970011840383e-03
      4.3482960727277706e-03 -5.1111578485150411e-03
      5.5003148635459822e-03 -9.1422627340194971e-04
      -2.5027877697005314e-03 -3.8114135649822533e-03
      -3.4254192173562097e-03 1.5345396300562981e-03
      -4.8840613627758739e-03 5.2781976037973828e-03
      -2.5062100605914277e-03 -3.4041250302692203e-03
      3.0978427906979307e-03 4.2268960839771073e-03
      -4.0266404536962218e-03 -3.4042864367175079e-03
      -6.0436134565686576e-03 -2.5135218022125159e-03
      -4.7419470312838668e-03 -4.2821436694068619e-03
      2.0515945306984378e-03 5.0576159988676055e-03
      8.8433966687190176e-03 -1.5162305208156976e-03
      -1.7623327359032274e-03 -4.1714626273831366e-04
      2.9138330474319297e-03 -1.7718128315245957e-03
      5.8247534223409474e-04 1.4339521497929008e-03
      4.0297561730969807e-04 -4.1710542469858844e-03
      -1.7560090476166058e-03 -1.6623707807214177e-03
      -2.5318539448989020e-04 3.7799592531732392e-03
      1.1836627816575911e-05 -3.5766247615967811e-04
      1.2614035431113230e-03 -2.0382024729869519e-03
      5.3520422819995153e-03 -2.8543587271143275e-03
      2.7686237095992505e-03 -1.5145036305510551e-03
      -1.3712866410997128e-03 -1.8187050051180805e-03
      -7.8964045959495268e-04 -1.3738895218958492e-04
      -4.5416629279133973e-03 4.6403061552049308e-03
      -2.0419920759676730e-03 -7.9413252795057911e-05
