<?xml version="1.0"?>
<opencv_storage>
<shapeML type_id="opencv-ml-ann-mlp">
  <layer_sizes type_id="opencv-matrix">
    <rows>1</rows>
    <cols>3</cols>
    <dt>i</dt>
    <data>
      1600 40 1</data></layer_sizes>
  <activation_function>SIGMOID_SYM</activation_function>
  <f_param1>5.9999999999999998e-01</f_param1>
  <f_param2>1.</f_param2>
  <min_val>-9.4999999999999996e-01</min_val>
  <max_val>9.4999999999999996e-01</max_val>
  <min_val1>-9.7999999999999998e-01</min_val1>
  <max_val1>9.7999999999999998e-01</max_val1>
  <training_params>
    <train_method>BACKPROP</train_method>
    <dw_scale>1.0000000000000001e-01</dw_scale>
    <moment_scale>1.0000000000000001e-01</moment_scale>
    <term_criteria><epsilon>9.9999999747524271e-07</epsilon>
      <iterations>4000</iterations></term_criteria></training_params>
  <input_scale>
    1. 0. 4.3493761140819966e-02 -9.0909090909090925e-02
    4.3493761140819966e-02 -9.0909090909090925e-02
    3.0882612303091823e-02 -1.2909944487358058e-01
    2.2021588898744206e-02 -1.8411492357966469e-01
    2.2021588898744206e-02 -1.8411492357966469e-01
    3.0882612303091823e-02 -1.2909944487358058e-01
    3.0882612303091823e-02 -1.2909944487358058e-01
    2.5321273384723730e-02 -1.5877683720748897e-01
    2.5321273384723730e-02 -1.5877683720748897e-01
    1.5842445839405427e-02 -2.6490647141300883e-01
    1.9780702771089453e-02 -2.0672455764868078e-01
    1.9780702771089453e-02 -2.0672455764868078e-01
    1.6862490191319499e-02 -2.4671758189758447e-01
    1.9780702771089453e-02 -2.0672455764868078e-01
    1.1942139276179761e-02 -3.7441543222448842e-01
    1.1942139276179761e-02 -3.7441543222448842e-01
    1.8134894375809060e-02 -2.2742941307367101e-01
    1.5002345874875669e-02 -2.8221626051507920e-01
    9.4466095538051336e-03 -5.3311398998318316e-01
    8.4090764444060637e-03 -6.8547758393129765e-01
    9.4466095538051336e-03 -5.3311398998318316e-01
    1.0592648630969767e-02 -4.4280744277004769e-01
    1.0814943064083878e-02 -4.2949507496300321e-01
    1.5842445839405427e-02 -2.6490647141300883e-01
    1.8134894375809060e-02 -2.2742941307367101e-01
    2.2021588898744206e-02 -1.8411492357966469e-01
    1.6862490191319499e-02 -2.4671758189758447e-01
    2.5321273384723730e-02 -1.5877683720748897e-01
    3.0882612303091823e-02 -1.2909944487358058e-01
    2.2021588898744206e-02 -1.8411492357966469e-01
    4.3493761140819966e-02 -9.0909090909090925e-02
    2.5321273384723730e-02 -1.5877683720748897e-01
    4.3493761140819966e-02 -9.0909090909090925e-02
    2.5321273384723730e-02 -1.5877683720748897e-01
    1.8134894375809060e-02 -2.2742941307367101e-01
    4.3493761140819966e-02 -9.0909090909090925e-02
    4.3493761140819966e-02 -9.0909090909090925e-02 1. 0.
    4.3493761140819966e-02 -9.0909090909090925e-02
    4.3493761140819966e-02 -9.0909090909090925e-02
    3.0882612303091823e-02 -1.2909944487358058e-01
    4.3493761140819966e-02 -9.0909090909090925e-02
    2.5321273384723730e-02 -1.5877683720748897e-01
    1.9780702771089453e-02 -2.0672455764868078e-01
    1.9780702771089453e-02 -2.0672455764868078e-01
    1.9780702771089453e-02 -2.0672455764868078e-01
    1.8134894375809060e-02 -2.2742941307367101e-01
    1.8134894375809060e-02 -2.2742941307367101e-01
    1.6862490191319499e-02 -2.4671758189758447e-01
    1.0200191135444890e-02 -4.6904157598234292e-01
    1.1324017713019687e-02 -4.0237390808147827e-01
    1.0592648630969767e-02 -4.4280744277004769e-01
    9.5762915510885435e-03 -5.2041649986653316e-01
    9.4466095538051336e-03 -5.3311398998318316e-01
    8.6701378340897535e-03 -6.3427032925615623e-01
    8.5311843233158852e-03 -6.5976823024988018e-01
    8.0915912903913798e-03 -7.7798660521549912e-01
    7.9507003861626641e-03 -8.4753162722988074e-01
    8.0915912903913798e-03 -7.7798660521549912e-01
    7.8473562639509789e-03 -9.6773340156674159e-01
    8.0275528172657814e-03 -8.0538726625682922e-01
    8.1666888748890294e-03 -7.5106761619881079e-01
    8.3537741258714257e-03 -6.9843029576957827e-01
    9.2125355554511651e-03 -5.5841557731607683e-01
    9.7154691879452176e-03 -5.0767308256680954e-01
    1.1057749009718620e-02 -4.1602514716892192e-01
    1.3168390131903527e-02 -3.3028912953790812e-01
    1.2709683188263982e-02 -3.4534917843520574e-01
    1.3691840089788505e-02 -3.1480009386767832e-01
    1.5842445839405427e-02 -2.6490647141300883e-01
    1.5842445839405427e-02 -2.6490647141300883e-01
    1.5842445839405427e-02 -2.6490647141300883e-01
    1.8134894375809060e-02 -2.2742941307367101e-01
    1.9780702771089453e-02 -2.0672455764868078e-01
    2.2021588898744206e-02 -1.8411492357966469e-01
    3.0882612303091823e-02 -1.2909944487358058e-01
    3.0882612303091823e-02 -1.2909944487358058e-01
    3.0882612303091823e-02 -1.2909944487358058e-01
    3.0882612303091823e-02 -1.2909944487358058e-01 1. 0.
    3.0882612303091823e-02 -1.2909944487358058e-01
    3.0882612303091823e-02 -1.2909944487358058e-01
    2.5321273384723730e-02 -1.5877683720748897e-01
    1.9780702771089453e-02 -2.0672455764868078e-01
    1.5842445839405427e-02 -2.6490647141300883e-01
    1.5002345874875669e-02 -2.8221626051507920e-01
    1.5842445839405427e-02 -2.6490647141300883e-01
    1.0026240894425574e-02 -4.8199920365414750e-01
    9.7154691879452176e-03 -5.0767308256680954e-01
    9.1067855382823016e-03 -5.7104024072016069e-01
    9.4466095538051336e-03 -5.3311398998318316e-01
    8.5984302815813630e-03 -6.4699663922063044e-01
    8.1666888748890294e-03 -7.5106761619881079e-01
    8.1666888748890294e-03 -7.5106761619881079e-01
    7.9114697172519392e-03 -8.7642223957917997e-01
    7.8696183122639041e-03 -9.2113237294367667e-01
    7.8526396121990933e-03 -9.5197163823298847e-01
    7.8813552588488378e-03 -1.1037127426019049e+00
    8.0582379898129653e-03 -7.9162280580252786e-01
    7.9299227827528528e-03 -8.6189160737133463e-01
    7.9994509568223696e-03 -8.1928803037291398e-01
    8.0915912903913798e-03 -7.7798660521549912e-01
    8.3020474729455090e-03 -7.1145824860365003e-01
    7.9114697172519392e-03 -8.7642223957917997e-01
    7.9114697172519392e-03 -8.7642223957917997e-01
    8.6701378340897535e-03 -6.3427032925615623e-01
    9.7154691879452176e-03 -5.0767308256680954e-01
    1.0200191135444890e-02 -4.6904157598234292e-01
    1.1057749009718620e-02 -4.1602514716892192e-01
    1.2303927251879223e-02 -3.6004114991154779e-01
    1.3691840089788505e-02 -3.1480009386767832e-01
    1.3168390131903527e-02 -3.3028912953790812e-01
    1.2303927251879223e-02 -3.6004114991154779e-01
    1.5002345874875669e-02 -2.8221626051507920e-01
    1.5002345874875669e-02 -2.8221626051507920e-01
    2.5321273384723730e-02 -1.5877683720748897e-01
    2.2021588898744206e-02 -1.8411492357966469e-01
    3.0882612303091823e-02 -1.2909944487358058e-01
    4.3493761140819966e-02 -9.0909090909090925e-02 1. 0.
    4.3493761140819966e-02 -9.0909090909090925e-02
    3.0882612303091823e-02 -1.2909944487358058e-01
    2.2021588898744206e-02 -1.8411492357966469e-01
    1.5842445839405427e-02 -2.6490647141300883e-01
    1.5002345874875669e-02 -2.8221626051507920e-01
    1.3691840089788505e-02 -3.1480009386767832e-01
    9.8650886332120932e-03 -4.9487165930539356e-01
    9.3255983746495050e-03 -5.4577682290981533e-01
    8.9150422632344566e-03 -5.9628479399994405e-01
    8.7465917395597986e-03 -6.2158156050806113e-01
    8.0275528172657814e-03 -8.0538726625682922e-01
    8.0915912903913798e-03 -7.7798660521549912e-01
    7.9299227827528528e-03 -8.6189160737133463e-01
    7.8600542597382465e-03 -9.3644171037127388e-01
    7.8441913691806153e-03 -1.0165300454651274e+00
    7.9507003861626641e-03 -1.1798969712415985e+00
    7.9738562091503269e-03 -1.2000000000000002e+00
    7.8441913691806135e-03 -9.8373875367592944e-01
    7.8696183122639041e-03 -9.2113237294367667e-01
    7.8696183122639041e-03 -1.0856202966836190e+00
    7.8600542597382483e-03 -1.0678721258619792e+00
    7.8473562639509789e-03 -1.0333424457407581e+00
    7.8473562639509789e-03 -9.6773340156674159e-01
    7.8696183122639041e-03 -9.2113237294367667e-01
    7.9299227827528528e-03 -8.6189160737133463e-01
    8.2537253176242359e-03 -7.2456883730947186e-01
    7.9507003861626641e-03 -8.4753162722988074e-01
    9.8650886332120932e-03 -4.9487165930539356e-01
    9.8650886332120932e-03 -4.9487165930539356e-01
    1.0592648630969767e-02 -4.4280744277004769e-01
    1.1324017713019687e-02 -4.0237390808147827e-01
    1.3691840089788505e-02 -3.1480009386767832e-01
    1.3691840089788505e-02 -3.1480009386767832e-01
    1.2709683188263982e-02 -3.4534917843520574e-01
    1.4295871601842747e-02 -2.9880715233359845e-01
    1.6862490191319499e-02 -2.4671758189758447e-01
    1.9780702771089453e-02 -2.0672455764868078e-01
    2.5321273384723730e-02 -1.5877683720748897e-01
    3.0882612303091823e-02 -1.2909944487358058e-01 1. 0.
    4.3493761140819966e-02 -9.0909090909090925e-02
    4.3493761140819966e-02 -9.0909090909090925e-02
    1.5842445839405427e-02 -2.6490647141300883e-01
    1.4295871601842747e-02 -2.9880715233359845e-01
    1.4295871601842747e-02 -2.9880715233359845e-01
    1.0026240894425574e-02 -4.8199920365414750e-01
    9.5762915510885435e-03 -5.2041649986653316e-01
    9.1067855382823016e-03 -5.7104024072016069e-01
    8.6701378340897535e-03 -6.3427032925615623e-01
    8.0275528172657814e-03 -8.0538726625682922e-01
    7.9507003861626641e-03 -8.4753162722988074e-01
    7.8696183122639041e-03 -9.2113237294367667e-01
    7.8441913691806135e-03 -9.8373875367592944e-01
    7.8441913691806135e-03 -9.8373875367592944e-01
    7.8952941335394943e-03 -8.9113278867900692e-01
    7.9738562091503269e-03 -1.2000000000000002e+00
    7.8473562639509789e-03 -1.0333424457407581e+00
    7.8431372549019607e-03 -1. 7.8473562639509789e-03
    -9.6773340156674159e-01 7.8600542597382483e-03
    -1.0678721258619792e+00 7.8431372549019607e-03 -1.
    7.8431372549019607e-03 -1. 7.8600542597382465e-03
    -9.3644171037127388e-01 7.9299227827528528e-03
    -8.6189160737133463e-01 7.8952941335394943e-03
    -8.9113278867900692e-01 7.8952941335394943e-03
    -8.9113278867900692e-01 7.9299227827528528e-03
    -8.6189160737133463e-01 8.0582379898129653e-03
    -7.9162280580252786e-01 8.2086526115870747e-03
    -7.3776947447583829e-01 8.5311843233158852e-03
    -6.5976823024988018e-01 1.0200191135444890e-02
    -4.6904157598234292e-01 1.0592648630969767e-02
    -4.4280744277004769e-01 1.3168390131903527e-02
    -3.3028912953790812e-01 1.3168390131903527e-02
    -3.3028912953790812e-01 1.2709683188263982e-02
    -3.4534917843520574e-01 1.5842445839405427e-02
    -2.6490647141300883e-01 1.6862490191319499e-02
    -2.4671758189758447e-01 2.5321273384723730e-02
    -1.5877683720748897e-01 3.0882612303091823e-02
    -1.2909944487358058e-01 1. 0. 4.3493761140819966e-02
    -9.0909090909090925e-02 1.9780702771089453e-02
    -2.0672455764868078e-01 1.6862490191319499e-02
    -2.4671758189758447e-01 1.5002345874875669e-02
    -2.8221626051507920e-01 1.0026240894425574e-02
    -4.8199920365414750e-01 9.0077869782597981e-03
    -5.8366029559953858e-01 9.0077869782597981e-03
    -5.8366029559953858e-01 8.3020474729455090e-03
    -7.1145824860365003e-01 7.9114697172519392e-03
    -8.7642223957917997e-01 7.9994509568223696e-03
    -8.1928803037291398e-01 7.9507003861626641e-03
    -8.4753162722988074e-01 7.8441913691806153e-03
    -1.0165300454651274e+00 8.2537253176242359e-03
    -7.2456883730947186e-01 8.0275528172657814e-03
    -8.0538726625682922e-01 7.8431372549019607e-03 -1.
    8.2086526115870730e-03 -1.3554369414788654e+00
    7.9738562091503269e-03 -1.2000000000000002e+00
    8.0582379898129636e-03 -1.2632278815997782e+00
    7.8473562639509789e-03 -9.6773340156674159e-01
    7.8431372549019607e-03 -1. 8.0582379898129636e-03
    -1.2632278815997782e+00 7.8696183122639041e-03
    -9.2113237294367667e-01 7.8696183122639041e-03
    -9.2113237294367667e-01 7.8473562639509789e-03
    -1.0333424457407581e+00 7.8431372549019607e-03 -1.
    7.8473562639509789e-03 -1.0333424457407581e+00
    7.8526396121990933e-03 -9.5197163823298847e-01
    8.0582379898129653e-03 -7.9162280580252786e-01
    8.0582379898129653e-03 -7.9162280580252786e-01
    8.3020474729455090e-03 -7.1145824860365003e-01
    8.4090764444060637e-03 -6.8547758393129765e-01
    1.0026240894425574e-02 -4.8199920365414750e-01
    1.0200191135444890e-02 -4.6904157598234292e-01
    1.1942139276179761e-02 -3.7441543222448842e-01
    1.2709683188263982e-02 -3.4534917843520574e-01
    1.5002345874875669e-02 -2.8221626051507920e-01
    1.6862490191319499e-02 -2.4671758189758447e-01
    1.9780702771089453e-02 -2.0672455764868078e-01
    2.2021588898744206e-02 -1.8411492357966469e-01 1. 0.
    3.0882612303091823e-02 -1.2909944487358058e-01
    1.9780702771089453e-02 -2.0672455764868078e-01
    1.0592648630969767e-02 -4.4280744277004769e-01
    1.0388415605954819e-02 -4.5598332434334476e-01
    9.7154691879452176e-03 -5.0767308256680954e-01
    8.9150422632344566e-03 -5.9628479399994405e-01
    8.4090764444060637e-03 -6.8547758393129765e-01
    7.9994509568223696e-03 -8.1928803037291398e-01
    7.9299227827528528e-03 -8.6189160737133463e-01
    8.2537253176242359e-03 -7.2456883730947186e-01
    7.8473562639509789e-03 -9.6773340156674159e-01
    7.8431372549019607e-03 -1. 7.8813552588488361e-03
    -9.0603284840454856e-01 8.1666888748890294e-03
    -1.3314380468978919e+00 8.0275528172657814e-03
    -1.2416387021459452e+00 8.0275528172657814e-03
    -1.2416387021459452e+00 8.0582379898129636e-03
    -1.2632278815997782e+00 8.1666888748890294e-03
    -1.3314380468978919e+00 8.0275528172657814e-03
    -1.2416387021459452e+00 7.9994509568223678e-03
    -1.2205719636167900e+00 7.8696183122639041e-03
    -1.0856202966836190e+00 7.8526396121990950e-03
    -1.0504514628777808e+00 7.8441913691806135e-03
    -9.8373875367592944e-01 7.9299227827528528e-03
    -8.6189160737133463e-01 7.8441913691806153e-03
    -1.0165300454651274e+00 7.8526396121990950e-03
    -1.0504514628777808e+00 7.8441913691806135e-03
    -9.8373875367592944e-01 7.8431372549019607e-03 -1.
    7.8952941335394961e-03 -1.1221672153735645e+00
    7.9738562091503269e-03 -8.3333333333333337e-01
    8.1277068438418715e-03 -7.6447078715643835e-01
    8.3537741258714257e-03 -6.9843029576957827e-01
    1.0026240894425574e-02 -4.8199920365414750e-01
    1.0026240894425574e-02 -4.8199920365414750e-01
    1.3168390131903527e-02 -3.3028912953790812e-01
    1.3691840089788505e-02 -3.1480009386767832e-01
    1.4295871601842747e-02 -2.9880715233359845e-01
    1.8134894375809060e-02 -2.2742941307367101e-01
    2.5321273384723730e-02 -1.5877683720748897e-01 1. 0.
    2.2021588898744206e-02 -1.8411492357966469e-01
    1.9780702771089453e-02 -2.0672455764868078e-01
    1.0026240894425574e-02 -4.8199920365414750e-01
    9.8650886332120932e-03 -4.9487165930539356e-01
    1.1324017713019687e-02 -4.0237390808147827e-01
    8.1277068438418715e-03 -7.6447078715643835e-01
    7.9299227827528528e-03 -8.6189160737133463e-01
    7.9114697172519392e-03 -8.7642223957917997e-01
    7.9994509568223696e-03 -8.1928803037291398e-01
    7.8526396121990933e-03 -9.5197163823298847e-01
    8.1277068438418715e-03 -1.3080944580232390e+00
    8.0582379898129636e-03 -1.2632278815997782e+00
    8.3020474729455073e-03 -1.4055638569974545e+00
    8.2537253176242376e-03 -1.3801311186847087e+00
    7.9738562091503269e-03 -1.2000000000000002e+00
    7.8600542597382483e-03 -1.0678721258619792e+00
    7.9299227827528546e-03 -1.1602387022306431e+00
    7.8526396121990933e-03 -9.5197163823298847e-01
    7.8526396121990933e-03 -9.5197163823298847e-01
    7.8813552588488378e-03 -1.1037127426019049e+00
    7.8441913691806153e-03 -1.0165300454651274e+00
    8.1666888748890294e-03 -1.3314380468978919e+00
    8.0915912903913815e-03 -1.2853691738343032e+00
    7.9994509568223678e-03 -1.2205719636167900e+00
    7.8431372549019607e-03 -1. 7.8473562639509789e-03
    -1.0333424457407581e+00 7.8696183122639041e-03
    -1.0856202966836190e+00 7.8813552588488361e-03
    -9.0603284840454856e-01 7.8473562639509789e-03
    -9.6773340156674159e-01 7.8441913691806135e-03
    -9.8373875367592944e-01 7.9114697172519392e-03
    -8.7642223957917997e-01 8.1666888748890294e-03
    -7.5106761619881079e-01 8.4681434999396305e-03
    -6.7259270913454938e-01 1.0388415605954819e-02
    -4.5598332434334476e-01 1.0814943064083878e-02
    -4.2949507496300321e-01 1.4295871601842747e-02
    -2.9880715233359845e-01 1.5002345874875669e-02
    -2.8221626051507920e-01 1.8134894375809060e-02
    -2.2742941307367101e-01 1.9780702771089453e-02
    -2.0672455764868078e-01 4.3493761140819966e-02
    -9.0909090909090925e-02 2.2021588898744206e-02
    -1.8411492357966469e-01 1.5842445839405427e-02
    -2.6490647141300883e-01 1.3168390131903527e-02
    -3.3028912953790812e-01 1.2303927251879223e-02
    -3.6004114991154779e-01 8.7465917395597986e-03
    -6.2158156050806113e-01 7.9994509568223696e-03
    -8.1928803037291398e-01 7.8473562639509789e-03
    -9.6773340156674159e-01 7.8441913691806135e-03
    -9.8373875367592944e-01 7.8526396121990933e-03
    -9.5197163823298847e-01 7.8526396121990950e-03
    -1.0504514628777808e+00 7.9738562091503269e-03
    -1.2000000000000002e+00 7.8952941335394961e-03
    -1.1221672153735645e+00 7.9299227827528546e-03
    -1.1602387022306431e+00 7.8473562639509789e-03
    -1.0333424457407581e+00 7.8473562639509789e-03
    -1.0333424457407581e+00 7.8441913691806135e-03
    -9.8373875367592944e-01 7.8526396121990933e-03
    -9.5197163823298847e-01 7.8431372549019607e-03 -1.
    7.8431372549019607e-03 -1. 7.9114697172519392e-03
    -8.7642223957917997e-01 7.8441913691806135e-03
    -9.8373875367592944e-01 7.8473562639509789e-03
    -9.6773340156674159e-01 7.8526396121990933e-03
    -9.5197163823298847e-01 7.8952941335394961e-03
    -1.1221672153735645e+00 8.1666888748890294e-03
    -1.3314380468978919e+00 8.0582379898129636e-03
    -1.2632278815997782e+00 7.8600542597382465e-03
    -9.3644171037127388e-01 7.8600542597382465e-03
    -9.3644171037127388e-01 7.8473562639509789e-03
    -1.0333424457407581e+00 7.8441913691806153e-03
    -1.0165300454651274e+00 7.8473562639509789e-03
    -9.6773340156674159e-01 7.9114697172519392e-03
    -8.7642223957917997e-01 8.0915912903913798e-03
    -7.7798660521549912e-01 8.5311843233158852e-03
    -6.5976823024988018e-01 1.0814943064083878e-02
    -4.2949507496300321e-01 1.0814943064083878e-02
    -4.2949507496300321e-01 1.4295871601842747e-02
    -2.9880715233359845e-01 1.5842445839405427e-02
    -2.6490647141300883e-01 1.8134894375809060e-02
    -2.2742941307367101e-01 1. 0. 1.9780702771089453e-02
    -2.0672455764868078e-01 1.5842445839405427e-02
    -2.6490647141300883e-01 1.3168390131903527e-02
    -3.3028912953790812e-01 9.1067855382823016e-03
    -5.7104024072016069e-01 8.0582379898129653e-03
    -7.9162280580252786e-01 8.0275528172657814e-03
    -8.0538726625682922e-01 7.8600542597382465e-03
    -9.3644171037127388e-01 7.8441913691806153e-03
    -1.0165300454651274e+00 8.0275528172657814e-03
    -8.0538726625682922e-01 7.8441913691806153e-03
    -1.0165300454651274e+00 7.8441913691806135e-03
    -9.8373875367592944e-01 7.8431372549019607e-03 -1.
    7.9114697172519392e-03 -1.1410025383200646e+00
    7.8441913691806153e-03 -1.0165300454651274e+00
    7.9299227827528528e-03 -8.6189160737133463e-01
    7.9738562091503269e-03 -8.3333333333333337e-01
    7.9507003861626641e-03 -8.4753162722988074e-01
    7.9994509568223696e-03 -8.1928803037291398e-01
    7.9114697172519392e-03 -8.7642223957917997e-01
    7.8473562639509789e-03 -1.0333424457407581e+00
    7.8431372549019607e-03 -1. 7.8526396121990933e-03
    -9.5197163823298847e-01 7.8813552588488361e-03
    -9.0603284840454856e-01 7.8696183122639041e-03
    -9.2113237294367667e-01 8.1666888748890294e-03
    -1.3314380468978919e+00 7.9994509568223678e-03
    -1.2205719636167900e+00 8.2537253176242376e-03
    -1.3801311186847087e+00 7.8441913691806135e-03
    -9.8373875367592944e-01 7.8441913691806153e-03
    -1.0165300454651274e+00 7.8441913691806135e-03
    -9.8373875367592944e-01 7.8600542597382465e-03
    -9.3644171037127388e-01 7.8526396121990933e-03
    -9.5197163823298847e-01 7.8952941335394943e-03
    -8.9113278867900692e-01 7.9994509568223696e-03
    -8.1928803037291398e-01 8.7465917395597986e-03
    -6.2158156050806113e-01 1.0814943064083878e-02
    -4.2949507496300321e-01 1.2709683188263982e-02
    -3.4534917843520574e-01 1.5002345874875669e-02
    -2.8221626051507920e-01 1.5002345874875669e-02
    -2.8221626051507920e-01 3.0882612303091823e-02
    -1.2909944487358058e-01 1.6862490191319499e-02
    -2.4671758189758447e-01 1.5842445839405427e-02
    -2.6490647141300883e-01 1.0026240894425574e-02
    -4.8199920365414750e-01 8.1666888748890294e-03
    -7.5106761619881079e-01 8.2086526115870747e-03
    -7.3776947447583829e-01 8.2086526115870747e-03
    -7.3776947447583829e-01 7.9507003861626641e-03
    -8.4753162722988074e-01 8.0275528172657814e-03
    -8.0538726625682922e-01 7.8526396121990933e-03
    -9.5197163823298847e-01 7.8952941335394961e-03
    -1.1221672153735645e+00 7.8473562639509789e-03
    -9.6773340156674159e-01 7.8526396121990933e-03
    -9.5197163823298847e-01 7.8431372549019607e-03 -1.
    7.8696183122639041e-03 -1.0856202966836190e+00
    7.9299227827528528e-03 -8.6189160737133463e-01
    7.8813552588488361e-03 -9.0603284840454856e-01
    7.9507003861626641e-03 -8.4753162722988074e-01
    8.1277068438418715e-03 -7.6447078715643835e-01
    7.9507003861626641e-03 -8.4753162722988074e-01
    7.9299227827528528e-03 -8.6189160737133463e-01
    7.8952941335394943e-03 -8.9113278867900692e-01
    7.8696183122639041e-03 -9.2113237294367667e-01
    7.8696183122639041e-03 -9.2113237294367667e-01
    7.9114697172519392e-03 -8.7642223957917997e-01
    7.8473562639509789e-03 -9.6773340156674159e-01
    7.8441913691806135e-03 -9.8373875367592944e-01
    8.2537253176242376e-03 -1.3801311186847087e+00
    7.9994509568223678e-03 -1.2205719636167900e+00
    8.0915912903913815e-03 -1.2853691738343032e+00
    7.8600542597382483e-03 -1.0678721258619792e+00
    7.8473562639509789e-03 -9.6773340156674159e-01
    7.8696183122639041e-03 -9.2113237294367667e-01
    7.8600542597382465e-03 -9.3644171037127388e-01
    7.9114697172519392e-03 -8.7642223957917997e-01
    8.5311843233158852e-03 -6.5976823024988018e-01
    1.0200191135444890e-02 -4.6904157598234292e-01
    1.2303927251879223e-02 -3.6004114991154779e-01
    1.4295871601842747e-02 -2.9880715233359845e-01
    1.5842445839405427e-02 -2.6490647141300883e-01
    2.5321273384723730e-02 -1.5877683720748897e-01
    1.5002345874875669e-02 -2.8221626051507920e-01
    1.4295871601842747e-02 -2.9880715233359845e-01
    8.7465917395597986e-03 -6.2158156050806113e-01
    8.1666888748890294e-03 -7.5106761619881079e-01
    8.5311843233158852e-03 -6.5976823024988018e-01
    8.2537253176242359e-03 -7.2456883730947186e-01
    7.8952941335394943e-03 -8.9113278867900692e-01
    7.8473562639509789e-03 -9.6773340156674159e-01
    7.8431372549019607e-03 -1. 7.8813552588488378e-03
    -1.1037127426019049e+00 7.8431372549019607e-03 -1.
    7.8696183122639041e-03 -9.2113237294367667e-01
    8.2086526115870747e-03 -7.3776947447583829e-01
    7.9507003861626641e-03 -8.4753162722988074e-01
    7.9299227827528528e-03 -8.6189160737133463e-01
    7.9299227827528528e-03 -8.6189160737133463e-01
    8.0582379898129653e-03 -7.9162280580252786e-01
    7.9299227827528528e-03 -8.6189160737133463e-01
    7.9299227827528528e-03 -8.6189160737133463e-01
    8.0275528172657814e-03 -8.0538726625682922e-01
    8.2086526115870747e-03 -7.3776947447583829e-01
    7.9738562091503269e-03 -8.3333333333333337e-01
    7.9114697172519392e-03 -8.7642223957917997e-01
    7.8526396121990933e-03 -9.5197163823298847e-01
    7.8431372549019607e-03 -1. 7.8813552588488361e-03
    -9.0603284840454856e-01 7.8526396121990950e-03
    -1.0504514628777808e+00 8.2537253176242376e-03
    -1.3801311186847087e+00 8.1666888748890294e-03
    -1.3314380468978919e+00 8.0275528172657814e-03
    -1.2416387021459452e+00 7.8431372549019607e-03 -1.
    7.8600542597382465e-03 -9.3644171037127388e-01
    7.8473562639509789e-03 -9.6773340156674159e-01
    7.8600542597382465e-03 -9.3644171037127388e-01
    8.0915912903913798e-03 -7.7798660521549912e-01
    1.0026240894425574e-02 -4.8199920365414750e-01
    1.0200191135444890e-02 -4.6904157598234292e-01
    1.3691840089788505e-02 -3.1480009386767832e-01
    1.5842445839405427e-02 -2.6490647141300883e-01
    3.0882612303091823e-02 -1.2909944487358058e-01
    1.5002345874875669e-02 -2.8221626051507920e-01
    1.1057749009718620e-02 -4.1602514716892192e-01
    8.5984302815813630e-03 -6.4699663922063044e-01
    8.2537253176242359e-03 -7.2456883730947186e-01
    7.9994509568223696e-03 -8.1928803037291398e-01
    7.9738562091503269e-03 -8.3333333333333337e-01
    8.0275528172657814e-03 -8.0538726625682922e-01
    7.8473562639509789e-03 -1.0333424457407581e+00
    7.8600542597382483e-03 -1.0678721258619792e+00
    7.8952941335394943e-03 -8.9113278867900692e-01
    7.8473562639509789e-03 -9.6773340156674159e-01
    7.8526396121990933e-03 -9.5197163823298847e-01
    8.0915912903913798e-03 -7.7798660521549912e-01
    7.8952941335394943e-03 -8.9113278867900692e-01
    7.8952941335394943e-03 -8.9113278867900692e-01
    7.9299227827528528e-03 -8.6189160737133463e-01
    7.9507003861626641e-03 -8.4753162722988074e-01
    7.9738562091503269e-03 -8.3333333333333337e-01
    7.9299227827528528e-03 -8.6189160737133463e-01
    8.0275528172657814e-03 -8.0538726625682922e-01
    8.1277068438418715e-03 -7.6447078715643835e-01
    8.0915912903913798e-03 -7.7798660521549912e-01
    8.0275528172657814e-03 -8.0538726625682922e-01
    7.8813552588488361e-03 -9.0603284840454856e-01
    7.8526396121990933e-03 -9.5197163823298847e-01
    7.8696183122639041e-03 -1.0856202966836190e+00
    7.8473562639509789e-03 -1.0333424457407581e+00
    8.3020474729455073e-03 -1.4055638569974545e+00
    8.0915912903913815e-03 -1.2853691738343032e+00
    8.1277068438418715e-03 -1.3080944580232390e+00
    7.8600542597382483e-03 -1.0678721258619792e+00
    7.8431372549019607e-03 -1. 7.8441913691806153e-03
    -1.0165300454651274e+00 7.8600542597382465e-03
    -9.3644171037127388e-01 7.8813552588488361e-03
    -9.0603284840454856e-01 8.6701378340897535e-03
    -6.3427032925615623e-01 1.0026240894425574e-02
    -4.8199920365414750e-01 1.3691840089788505e-02
    -3.1480009386767832e-01 1.5842445839405427e-02
    -2.6490647141300883e-01 2.2021588898744206e-02
    -1.8411492357966469e-01 1.4295871601842747e-02
    -2.9880715233359845e-01 8.8281088019141092e-03
    -6.0892242268940355e-01 8.4090764444060637e-03
    -6.8547758393129765e-01 7.9114697172519392e-03
    -8.7642223957917997e-01 7.9299227827528528e-03
    -8.6189160737133463e-01 8.0915912903913798e-03
    -7.7798660521549912e-01 7.8526396121990950e-03
    -1.0504514628777808e+00 7.8813552588488378e-03
    -1.1037127426019049e+00 7.9114697172519392e-03
    -8.7642223957917997e-01 7.8696183122639041e-03
    -9.2113237294367667e-01 7.8526396121990933e-03
    -9.5197163823298847e-01 7.8431372549019607e-03 -1.
    7.9507003861626641e-03 -8.4753162722988074e-01
    7.9738562091503269e-03 -8.3333333333333337e-01
    7.9738562091503269e-03 -8.3333333333333337e-01
    8.0582379898129653e-03 -7.9162280580252786e-01
    8.4681434999396305e-03 -6.7259270913454938e-01
    7.9507003861626641e-03 -8.4753162722988074e-01
    8.0915912903913798e-03 -7.7798660521549912e-01
    8.0582379898129653e-03 -7.9162280580252786e-01
    8.0915912903913798e-03 -7.7798660521549912e-01
    8.2086526115870747e-03 -7.3776947447583829e-01
    7.8952941335394943e-03 -8.9113278867900692e-01
    7.8526396121990933e-03 -9.5197163823298847e-01
    7.8441913691806135e-03 -9.8373875367592944e-01
    7.8526396121990950e-03 -1.0504514628777808e+00
    7.8473562639509789e-03 -9.6773340156674159e-01
    7.9507003861626641e-03 -1.1798969712415985e+00
    7.9738562091503269e-03 -1.2000000000000002e+00
    8.0915912903913815e-03 -1.2853691738343032e+00
    8.0275528172657814e-03 -1.2416387021459452e+00
    7.8441913691806153e-03 -1.0165300454651274e+00
    7.8696183122639041e-03 -9.2113237294367667e-01
    7.8441913691806135e-03 -9.8373875367592944e-01
    7.8696183122639041e-03 -9.2113237294367667e-01
    8.3537741258714257e-03 -6.9843029576957827e-01
    9.5762915510885435e-03 -5.2041649986653316e-01
    9.8650886332120932e-03 -4.9487165930539356e-01
    1.3691840089788505e-02 -3.1480009386767832e-01
    1.8134894375809060e-02 -2.2742941307367101e-01
    1.2303927251879223e-02 -3.6004114991154779e-01
    8.8281088019141092e-03 -6.0892242268940355e-01
    8.3537741258714257e-03 -6.9843029576957827e-01
    7.8813552588488361e-03 -9.0603284840454856e-01
    7.8952941335394943e-03 -8.9113278867900692e-01
    7.8600542597382465e-03 -9.3644171037127388e-01
    7.8813552588488378e-03 -1.1037127426019049e+00
    7.8696183122639041e-03 -1.0856202966836190e+00
    7.8526396121990950e-03 -1.0504514628777808e+00
    7.8441913691806135e-03 -9.8373875367592944e-01
    7.8526396121990933e-03 -9.5197163823298847e-01
    7.9738562091503269e-03 -8.3333333333333337e-01
    7.8813552588488361e-03 -9.0603284840454856e-01
    7.9738562091503269e-03 -8.3333333333333337e-01
    8.3020474729455090e-03 -7.1145824860365003e-01
    8.2537253176242359e-03 -7.2456883730947186e-01
    8.3020474729455090e-03 -7.1145824860365003e-01
    8.4090764444060637e-03 -6.8547758393129765e-01
    8.4681434999396305e-03 -6.7259270913454938e-01
    8.4681434999396305e-03 -6.7259270913454938e-01
    8.3020474729455090e-03 -7.1145824860365003e-01
    8.1277068438418715e-03 -7.6447078715643835e-01
    7.9994509568223696e-03 -8.1928803037291398e-01
    7.9299227827528528e-03 -8.6189160737133463e-01
    7.8526396121990933e-03 -9.5197163823298847e-01
    7.8431372549019607e-03 -1. 7.8526396121990933e-03
    -9.5197163823298847e-01 7.9507003861626641e-03
    -1.1798969712415985e+00 7.9507003861626641e-03
    -1.1798969712415985e+00 8.4090764444060637e-03
    -1.4588369093922486e+00 8.3537741258714274e-03
    -1.4317821063276357e+00 7.9994509568223678e-03
    -1.2205719636167900e+00 7.8441913691806135e-03
    -9.8373875367592944e-01 7.8952941335394943e-03
    -8.9113278867900692e-01 7.8600542597382465e-03
    -9.3644171037127388e-01 8.0582379898129653e-03
    -7.9162280580252786e-01 8.7465917395597986e-03
    -6.2158156050806113e-01 1.0200191135444890e-02
    -4.6904157598234292e-01 1.2303927251879223e-02
    -3.6004114991154779e-01 2.5321273384723730e-02
    -1.5877683720748897e-01 1.2709683188263982e-02
    -3.4534917843520574e-01 8.5984302815813630e-03
    -6.4699663922063044e-01 8.5311843233158852e-03
    -6.5976823024988018e-01 7.9114697172519392e-03
    -8.7642223957917997e-01 7.8696183122639041e-03
    -9.2113237294367667e-01 7.8600542597382465e-03
    -9.3644171037127388e-01 7.9114697172519392e-03
    -1.1410025383200646e+00 7.9114697172519392e-03
    -1.1410025383200646e+00 7.8431372549019607e-03 -1.
    7.8696183122639041e-03 -9.2113237294367667e-01
    7.8813552588488361e-03 -9.0603284840454856e-01
    7.9507003861626641e-03 -8.4753162722988074e-01
    8.0582379898129653e-03 -7.9162280580252786e-01
    7.9994509568223696e-03 -8.1928803037291398e-01
    8.2086526115870747e-03 -7.3776947447583829e-01
    8.3537741258714257e-03 -6.9843029576957827e-01
    8.5984302815813630e-03 -6.4699663922063044e-01
    8.4090764444060637e-03 -6.8547758393129765e-01
    8.4090764444060637e-03 -6.8547758393129765e-01
    8.4090764444060637e-03 -6.8547758393129765e-01
    8.3537741258714257e-03 -6.9843029576957827e-01
    8.2537253176242359e-03 -7.2456883730947186e-01
    8.3020474729455090e-03 -7.1145824860365003e-01
    7.9299227827528528e-03 -8.6189160737133463e-01
    7.9507003861626641e-03 -8.4753162722988074e-01
    7.8696183122639041e-03 -9.2113237294367667e-01
    7.8473562639509789e-03 -9.6773340156674159e-01
    7.8473562639509789e-03 -1.0333424457407581e+00
    8.0582379898129636e-03 -1.2632278815997782e+00
    8.1277068438418715e-03 -1.3080944580232390e+00
    8.5984302815813665e-03 -1.5456030825826179e+00
    8.1666888748890294e-03 -1.3314380468978919e+00
    7.8813552588488378e-03 -1.1037127426019049e+00
    7.8431372549019607e-03 -1. 7.8473562639509789e-03
    -9.6773340156674159e-01 7.9994509568223696e-03
    -8.1928803037291398e-01 8.0915912903913798e-03
    -7.7798660521549912e-01 9.5762915510885435e-03
    -5.2041649986653316e-01 1.1942139276179761e-02
    -3.7441543222448842e-01 1.9780702771089453e-02
    -2.0672455764868078e-01 1.2303927251879223e-02
    -3.6004114991154779e-01 8.9150422632344566e-03
    -5.9628479399994405e-01 8.3537741258714257e-03
    -6.9843029576957827e-01 7.8526396121990933e-03
    -9.5197163823298847e-01 7.8431372549019607e-03 -1.
    7.8526396121990933e-03 -9.5197163823298847e-01
    7.9299227827528546e-03 -1.1602387022306431e+00
    7.9738562091503269e-03 -1.2000000000000002e+00
    7.8431372549019607e-03 -1. 7.8600542597382465e-03
    -9.3644171037127388e-01 7.8600542597382465e-03
    -9.3644171037127388e-01 7.9738562091503269e-03
    -8.3333333333333337e-01 8.1666888748890294e-03
    -7.5106761619881079e-01 8.3537741258714257e-03
    -6.9843029576957827e-01 8.2086526115870747e-03
    -7.3776947447583829e-01 8.4681434999396305e-03
    -6.7259270913454938e-01 8.7465917395597986e-03
    -6.2158156050806113e-01 8.5984302815813630e-03
    -6.4699663922063044e-01 8.4681434999396305e-03
    -6.7259270913454938e-01 8.3537741258714257e-03
    -6.9843029576957827e-01 8.2537253176242359e-03
    -7.2456883730947186e-01 8.2537253176242359e-03
    -7.2456883730947186e-01 8.2537253176242359e-03
    -7.2456883730947186e-01 8.4681434999396305e-03
    -6.7259270913454938e-01 8.5984302815813630e-03
    -6.4699663922063044e-01 8.2537253176242359e-03
    -7.2456883730947186e-01 7.8696183122639041e-03
    -9.2113237294367667e-01 7.8441913691806135e-03
    -9.8373875367592944e-01 7.8441913691806153e-03
    -1.0165300454651274e+00 8.0915912903913815e-03
    -1.2853691738343032e+00 8.0582379898129636e-03
    -1.2632278815997782e+00 8.2086526115870730e-03
    -1.3554369414788654e+00 7.8526396121990950e-03
    -1.0504514628777808e+00 7.8441913691806153e-03
    -1.0165300454651274e+00 7.8600542597382483e-03
    -1.0678721258619792e+00 7.8696183122639041e-03
    -1.0856202966836190e+00 8.3537741258714257e-03
    -6.9843029576957827e-01 9.7154691879452176e-03
    -5.0767308256680954e-01 1.0592648630969767e-02
    -4.4280744277004769e-01 1.8134894375809060e-02
    -2.2742941307367101e-01 1.2303927251879223e-02
    -3.6004114991154779e-01 9.0077869782597981e-03
    -5.8366029559953858e-01 8.0915912903913798e-03
    -7.7798660521549912e-01 7.8431372549019607e-03 -1.
    7.9738562091503269e-03 -8.3333333333333337e-01
    7.8696183122639041e-03 -9.2113237294367667e-01
    7.9738562091503269e-03 -1.2000000000000002e+00
    8.1277068438418715e-03 -1.3080944580232390e+00
    7.8431372549019607e-03 -1. 7.8441913691806153e-03
    -1.0165300454651274e+00 7.9738562091503269e-03
    -8.3333333333333337e-01 7.9299227827528528e-03
    -8.6189160737133463e-01 8.1277068438418715e-03
    -7.6447078715643835e-01 8.2537253176242359e-03
    -7.2456883730947186e-01 8.4681434999396305e-03
    -6.7259270913454938e-01 8.5984302815813630e-03
    -6.4699663922063044e-01 8.9150422632344566e-03
    -5.9628479399994405e-01 8.6701378340897535e-03
    -6.3427032925615623e-01 8.4681434999396305e-03
    -6.7259270913454938e-01 8.5311843233158852e-03
    -6.5976823024988018e-01 8.5984302815813630e-03
    -6.4699663922063044e-01 8.2537253176242359e-03
    -7.2456883730947186e-01 8.4090764444060637e-03
    -6.8547758393129765e-01 8.3020474729455090e-03
    -7.1145824860365003e-01 8.3020474729455090e-03
    -7.1145824860365003e-01 8.3537741258714257e-03
    -6.9843029576957827e-01 7.9299227827528528e-03
    -8.6189160737133463e-01 7.8696183122639041e-03
    -9.2113237294367667e-01 7.8526396121990933e-03
    -9.5197163823298847e-01 8.1666888748890294e-03
    -1.3314380468978919e+00 8.0582379898129636e-03
    -1.2632278815997782e+00 8.2537253176242376e-03
    -1.3801311186847087e+00 8.0915912903913815e-03
    -1.2853691738343032e+00 7.8813552588488378e-03
    -1.1037127426019049e+00 7.8431372549019607e-03 -1.
    7.8813552588488378e-03 -1.1037127426019049e+00
    8.2086526115870747e-03 -7.3776947447583829e-01
    9.8650886332120932e-03 -4.9487165930539356e-01
    1.1324017713019687e-02 -4.0237390808147827e-01
    1.3168390131903527e-02 -3.3028912953790812e-01
    1.2303927251879223e-02 -3.6004114991154779e-01
    8.8281088019141092e-03 -6.0892242268940355e-01
    8.4090764444060637e-03 -6.8547758393129765e-01
    8.0275528172657814e-03 -8.0538726625682922e-01
    7.9299227827528528e-03 -8.6189160737133463e-01
    7.8696183122639041e-03 -9.2113237294367667e-01
    7.9114697172519392e-03 -8.7642223957917997e-01
    8.0582379898129636e-03 -1.2632278815997782e+00
    7.8473562639509789e-03 -1.0333424457407581e+00
    7.8526396121990933e-03 -9.5197163823298847e-01
    7.8526396121990933e-03 -9.5197163823298847e-01
    7.9994509568223696e-03 -8.1928803037291398e-01
    8.2537253176242359e-03 -7.2456883730947186e-01
    8.3537741258714257e-03 -6.9843029576957827e-01
    8.4090764444060637e-03 -6.8547758393129765e-01
    8.5311843233158852e-03 -6.5976823024988018e-01
    8.7465917395597986e-03 -6.2158156050806113e-01
    8.5311843233158852e-03 -6.5976823024988018e-01
    8.5311843233158852e-03 -6.5976823024988018e-01
    8.2537253176242359e-03 -7.2456883730947186e-01
    8.4681434999396305e-03 -6.7259270913454938e-01
    8.3537741258714257e-03 -6.9843029576957827e-01
    8.4681434999396305e-03 -6.7259270913454938e-01
    8.4090764444060637e-03 -6.8547758393129765e-01
    8.7465917395597986e-03 -6.2158156050806113e-01
    8.4090764444060637e-03 -6.8547758393129765e-01
    8.2537253176242359e-03 -7.2456883730947186e-01
    7.9738562091503269e-03 -8.3333333333333337e-01
    7.8600542597382465e-03 -9.3644171037127388e-01
    7.9299227827528546e-03 -1.1602387022306431e+00
    7.8600542597382483e-03 -1.0678721258619792e+00
    8.1666888748890294e-03 -1.3314380468978919e+00
    8.1277068438418715e-03 -1.3080944580232390e+00
    7.8696183122639041e-03 -1.0856202966836190e+00
    7.8526396121990950e-03 -1.0504514628777808e+00
    7.8441913691806153e-03 -1.0165300454651274e+00
    8.2086526115870747e-03 -7.3776947447583829e-01
    1.0814943064083878e-02 -4.2949507496300321e-01
    1.1057749009718620e-02 -4.1602514716892192e-01
    1.3168390131903527e-02 -3.3028912953790812e-01
    1.1617340706626102e-02 -3.8851434494290571e-01
    9.0077869782597981e-03 -5.8366029559953858e-01
    8.2537253176242359e-03 -7.2456883730947186e-01
    7.9507003861626641e-03 -8.4753162722988074e-01
    7.9738562091503269e-03 -8.3333333333333337e-01
    7.8600542597382465e-03 -9.3644171037127388e-01
    7.8696183122639041e-03 -9.2113237294367667e-01
    7.9738562091503269e-03 -1.2000000000000002e+00
    7.8526396121990950e-03 -1.0504514628777808e+00
    7.9507003861626641e-03 -1.1798969712415985e+00
    7.8441913691806135e-03 -9.8373875367592944e-01
    8.1277068438418715e-03 -7.6447078715643835e-01
    8.1666888748890294e-03 -7.5106761619881079e-01
    8.3537741258714257e-03 -6.9843029576957827e-01
    8.3537741258714257e-03 -6.9843029576957827e-01
    8.4681434999396305e-03 -6.7259270913454938e-01
    9.2125355554511651e-03 -5.5841557731607683e-01
    8.3020474729455090e-03 -7.1145824860365003e-01
    8.2537253176242359e-03 -7.2456883730947186e-01
    8.3537741258714257e-03 -6.9843029576957827e-01
    8.4681434999396305e-03 -6.7259270913454938e-01
    8.3020474729455090e-03 -7.1145824860365003e-01
    8.2537253176242359e-03 -7.2456883730947186e-01
    8.3537741258714257e-03 -6.9843029576957827e-01
    8.3020474729455090e-03 -7.1145824860365003e-01
    8.0915912903913798e-03 -7.7798660521549912e-01
    8.1666888748890294e-03 -7.5106761619881079e-01
    8.2537253176242359e-03 -7.2456883730947186e-01
    7.8696183122639041e-03 -9.2113237294367667e-01
    7.9738562091503269e-03 -1.2000000000000002e+00
    8.0275528172657814e-03 -1.2416387021459452e+00
    8.2537253176242376e-03 -1.3801311186847087e+00
    7.9738562091503269e-03 -1.2000000000000002e+00
    7.8600542597382483e-03 -1.0678721258619792e+00
    7.8441913691806153e-03 -1.0165300454651274e+00
    7.8473562639509789e-03 -9.6773340156674159e-01
    8.3020474729455090e-03 -7.1145824860365003e-01
    1.1942139276179761e-02 -3.7441543222448842e-01
    1.0814943064083878e-02 -4.2949507496300321e-01
    1.3691840089788505e-02 -3.1480009386767832e-01
    1.2709683188263982e-02 -3.4534917843520574e-01
    8.8281088019141092e-03 -6.0892242268940355e-01
    7.8952941335394943e-03 -8.9113278867900692e-01
    8.0915912903913798e-03 -7.7798660521549912e-01
    8.0582379898129653e-03 -7.9162280580252786e-01
    7.9994509568223696e-03 -8.1928803037291398e-01
    7.8526396121990933e-03 -9.5197163823298847e-01
    8.0915912903913815e-03 -1.2853691738343032e+00
    7.8441913691806153e-03 -1.0165300454651274e+00
    7.8600542597382483e-03 -1.0678721258619792e+00
    7.8473562639509789e-03 -9.6773340156674159e-01
    8.5311843233158852e-03 -6.5976823024988018e-01
    8.4681434999396305e-03 -6.7259270913454938e-01
    8.4090764444060637e-03 -6.8547758393129765e-01
    8.4090764444060637e-03 -6.8547758393129765e-01
    8.5984302815813630e-03 -6.4699663922063044e-01
    8.5984302815813630e-03 -6.4699663922063044e-01
    8.3537741258714257e-03 -6.9843029576957827e-01
    8.2086526115870747e-03 -7.3776947447583829e-01
    8.1666888748890294e-03 -7.5106761619881079e-01
    8.3537741258714257e-03 -6.9843029576957827e-01
    8.6701378340897535e-03 -6.3427032925615623e-01
    8.3537741258714257e-03 -6.9843029576957827e-01
    8.3537741258714257e-03 -6.9843029576957827e-01
    8.3020474729455090e-03 -7.1145824860365003e-01
    8.0915912903913798e-03 -7.7798660521549912e-01
    8.0582379898129653e-03 -7.9162280580252786e-01
    8.1277068438418715e-03 -7.6447078715643835e-01
    8.2086526115870747e-03 -7.3776947447583829e-01
    7.9738562091503269e-03 -1.2000000000000002e+00
    7.9114697172519392e-03 -1.1410025383200646e+00
    7.8952941335394961e-03 -1.1221672153735645e+00
    8.1277068438418715e-03 -1.3080944580232390e+00
    7.8696183122639041e-03 -1.0856202966836190e+00
    7.8431372549019607e-03 -1. 7.8441913691806135e-03
    -9.8373875367592944e-01 7.9994509568223696e-03
    -8.1928803037291398e-01 1.0200191135444890e-02
    -4.6904157598234292e-01 1.1057749009718620e-02
    -4.1602514716892192e-01 1.4295871601842747e-02
    -2.9880715233359845e-01 1.3168390131903527e-02
    -3.3028912953790812e-01 8.4681434999396305e-03
    -6.7259270913454938e-01 8.1666888748890294e-03
    -7.5106761619881079e-01 8.1666888748890294e-03
    -7.5106761619881079e-01 7.9738562091503269e-03
    -8.3333333333333337e-01 7.9114697172519392e-03
    -8.7642223957917997e-01 7.8600542597382465e-03
    -9.3644171037127388e-01 7.8431372549019607e-03 -1.
    7.8441913691806153e-03 -1.0165300454651274e+00
    7.8813552588488361e-03 -9.0603284840454856e-01
    7.8696183122639041e-03 -9.2113237294367667e-01
    8.4090764444060637e-03 -6.8547758393129765e-01
    8.0915912903913798e-03 -7.7798660521549912e-01
    8.4090764444060637e-03 -6.8547758393129765e-01
    8.7465917395597986e-03 -6.2158156050806113e-01
    8.8281088019141092e-03 -6.0892242268940355e-01
    8.9150422632344566e-03 -5.9628479399994405e-01
    8.7465917395597986e-03 -6.2158156050806113e-01
    8.4681434999396305e-03 -6.7259270913454938e-01
    8.4090764444060637e-03 -6.8547758393129765e-01
    8.4681434999396305e-03 -6.7259270913454938e-01
    8.7465917395597986e-03 -6.2158156050806113e-01
    8.5311843233158852e-03 -6.5976823024988018e-01
    8.5984302815813630e-03 -6.4699663922063044e-01
    8.5311843233158852e-03 -6.5976823024988018e-01
    8.2537253176242359e-03 -7.2456883730947186e-01
    8.2086526115870747e-03 -7.3776947447583829e-01
    8.0915912903913798e-03 -7.7798660521549912e-01
    8.2086526115870747e-03 -7.3776947447583829e-01
    7.8696183122639041e-03 -1.0856202966836190e+00
    7.8696183122639041e-03 -1.0856202966836190e+00
    7.9738562091503269e-03 -1.2000000000000002e+00
    8.0915912903913815e-03 -1.2853691738343032e+00
    7.8526396121990933e-03 -9.5197163823298847e-01
    7.8473562639509789e-03 -9.6773340156674159e-01
    7.8441913691806153e-03 -1.0165300454651274e+00
    8.0915912903913798e-03 -7.7798660521549912e-01
    8.7465917395597986e-03 -6.2158156050806113e-01
    1.0814943064083878e-02 -4.2949507496300321e-01
    1.5002345874875669e-02 -2.8221626051507920e-01
    1.3168390131903527e-02 -3.3028912953790812e-01
    8.8281088019141092e-03 -6.0892242268940355e-01
    8.1666888748890294e-03 -7.5106761619881079e-01
    8.0582379898129653e-03 -7.9162280580252786e-01
    7.9114697172519392e-03 -8.7642223957917997e-01
    7.8952941335394943e-03 -8.9113278867900692e-01
    7.8600542597382465e-03 -9.3644171037127388e-01
    7.8441913691806153e-03 -1.0165300454651274e+00
    7.8473562639509789e-03 -9.6773340156674159e-01
    7.8813552588488361e-03 -9.0603284840454856e-01
    8.1277068438418715e-03 -7.6447078715643835e-01
    7.8600542597382465e-03 -9.3644171037127388e-01
    8.4681434999396305e-03 -6.7259270913454938e-01
    8.4090764444060637e-03 -6.8547758393129765e-01
    8.5311843233158852e-03 -6.5976823024988018e-01
    8.9150422632344566e-03 -5.9628479399994405e-01
    9.1067855382823016e-03 -5.7104024072016069e-01
    8.7465917395597986e-03 -6.2158156050806113e-01
    8.7465917395597986e-03 -6.2158156050806113e-01
    8.6701378340897535e-03 -6.3427032925615623e-01
    9.0077869782597981e-03 -5.8366029559953858e-01
    8.8281088019141092e-03 -6.0892242268940355e-01
    8.6701378340897535e-03 -6.3427032925615623e-01
    8.7465917395597986e-03 -6.2158156050806113e-01
    8.5311843233158852e-03 -6.5976823024988018e-01
    8.1277068438418715e-03 -7.6447078715643835e-01
    8.0915912903913798e-03 -7.7798660521549912e-01
    8.1277068438418715e-03 -7.6447078715643835e-01
    8.1666888748890294e-03 -7.5106761619881079e-01
    7.8813552588488361e-03 -9.0603284840454856e-01
    7.8813552588488378e-03 -1.1037127426019049e+00
    7.8952941335394961e-03 -1.1221672153735645e+00
    7.9738562091503269e-03 -1.2000000000000002e+00
    7.8526396121990933e-03 -9.5197163823298847e-01
    7.8526396121990933e-03 -9.5197163823298847e-01
    7.8431372549019607e-03 -1. 8.0582379898129653e-03
    -7.9162280580252786e-01 8.4681434999396305e-03
    -6.7259270913454938e-01 1.1057749009718620e-02
    -4.1602514716892192e-01 2.5321273384723730e-02
    -1.5877683720748897e-01 1.1617340706626102e-02
    -3.8851434494290571e-01 9.2125355554511651e-03
    -5.5841557731607683e-01 8.2086526115870747e-03
    -7.3776947447583829e-01 8.3537741258714257e-03
    -6.9843029576957827e-01 7.9738562091503269e-03
    -8.3333333333333337e-01 7.9507003861626641e-03
    -8.4753162722988074e-01 7.8696183122639041e-03
    -9.2113237294367667e-01 7.8441913691806135e-03
    -9.8373875367592944e-01 7.8431372549019607e-03 -1.
    7.8952941335394943e-03 -8.9113278867900692e-01
    7.8696183122639041e-03 -9.2113237294367667e-01
    7.8696183122639041e-03 -9.2113237294367667e-01
    8.2537253176242359e-03 -7.2456883730947186e-01
    9.0077869782597981e-03 -5.8366029559953858e-01
    8.8281088019141092e-03 -6.0892242268940355e-01
    8.5311843233158852e-03 -6.5976823024988018e-01
    8.5311843233158852e-03 -6.5976823024988018e-01
    8.6701378340897535e-03 -6.3427032925615623e-01
    8.7465917395597986e-03 -6.2158156050806113e-01
    8.8281088019141092e-03 -6.0892242268940355e-01
    8.8281088019141092e-03 -6.0892242268940355e-01
    9.0077869782597981e-03 -5.8366029559953858e-01
    8.4090764444060637e-03 -6.8547758393129765e-01
    8.6701378340897535e-03 -6.3427032925615623e-01
    8.5311843233158852e-03 -6.5976823024988018e-01
    8.2537253176242359e-03 -7.2456883730947186e-01
    8.0915912903913798e-03 -7.7798660521549912e-01
    8.2537253176242359e-03 -7.2456883730947186e-01
    7.8813552588488361e-03 -9.0603284840454856e-01
    7.8813552588488378e-03 -1.1037127426019049e+00
    7.8952941335394943e-03 -8.9113278867900692e-01
    7.9299227827528546e-03 -1.1602387022306431e+00
    7.9738562091503269e-03 -1.2000000000000002e+00
    7.8441913691806135e-03 -9.8373875367592944e-01
    7.8431372549019607e-03 -1. 7.8526396121990933e-03
    -9.5197163823298847e-01 8.0275528172657814e-03
    -8.0538726625682922e-01 8.5984302815813630e-03
    -6.4699663922063044e-01 1.1617340706626102e-02
    -3.8851434494290571e-01 2.2021588898744206e-02
    -1.8411492357966469e-01 1.0814943064083878e-02
    -4.2949507496300321e-01 9.8650886332120932e-03
    -4.9487165930539356e-01 9.0077869782597981e-03
    -5.8366029559953858e-01 8.0275528172657814e-03
    -8.0538726625682922e-01 7.9507003861626641e-03
    -8.4753162722988074e-01 7.9507003861626641e-03
    -8.4753162722988074e-01 7.8696183122639041e-03
    -9.2113237294367667e-01 7.9114697172519392e-03
    -8.7642223957917997e-01 7.8952941335394943e-03
    -8.9113278867900692e-01 7.8696183122639041e-03
    -9.2113237294367667e-01 7.8441913691806135e-03
    -9.8373875367592944e-01 7.9738562091503269e-03
    -8.3333333333333337e-01 7.9738562091503269e-03
    -8.3333333333333337e-01 8.6701378340897535e-03
    -6.3427032925615623e-01 8.5311843233158852e-03
    -6.5976823024988018e-01 8.9150422632344566e-03
    -5.9628479399994405e-01 8.6701378340897535e-03
    -6.3427032925615623e-01 8.6701378340897535e-03
    -6.3427032925615623e-01 8.8281088019141092e-03
    -6.0892242268940355e-01 8.4681434999396305e-03
    -6.7259270913454938e-01 8.6701378340897535e-03
    -6.3427032925615623e-01 8.4681434999396305e-03
    -6.7259270913454938e-01 8.4090764444060637e-03
    -6.8547758393129765e-01 8.4681434999396305e-03
    -6.7259270913454938e-01 8.5311843233158852e-03
    -6.5976823024988018e-01 8.1666888748890294e-03
    -7.5106761619881079e-01 8.3020474729455090e-03
    -7.1145824860365003e-01 8.2086526115870747e-03
    -7.3776947447583829e-01 7.9114697172519392e-03
    -8.7642223957917997e-01 7.8600542597382465e-03
    -9.3644171037127388e-01 7.8696183122639041e-03
    -1.0856202966836190e+00 7.9507003861626641e-03
    -1.1798969712415985e+00 7.8952941335394961e-03
    -1.1221672153735645e+00 7.8600542597382465e-03
    -9.3644171037127388e-01 7.8441913691806135e-03
    -9.8373875367592944e-01 7.8600542597382465e-03
    -9.3644171037127388e-01 8.1277068438418715e-03
    -7.6447078715643835e-01 8.4681434999396305e-03
    -6.7259270913454938e-01 1.0388415605954819e-02
    -4.5598332434334476e-01 1.8134894375809060e-02
    -2.2742941307367101e-01 1.1942139276179761e-02
    -3.7441543222448842e-01 9.5762915510885435e-03
    -5.2041649986653316e-01 9.0077869782597981e-03
    -5.8366029559953858e-01 8.0915912903913798e-03
    -7.7798660521549912e-01 7.9738562091503269e-03
    -8.3333333333333337e-01 7.9299227827528528e-03
    -8.6189160737133463e-01 7.8952941335394943e-03
    -8.9113278867900692e-01 7.8952941335394943e-03
    -8.9113278867900692e-01 7.9994509568223696e-03
    -8.1928803037291398e-01 7.8473562639509789e-03
    -9.6773340156674159e-01 7.8431372549019607e-03 -1.
    7.8441913691806135e-03 -9.8373875367592944e-01
    7.9114697172519392e-03 -8.7642223957917997e-01
    8.0915912903913798e-03 -7.7798660521549912e-01
    8.5984302815813630e-03 -6.4699663922063044e-01
    8.5984302815813630e-03 -6.4699663922063044e-01
    8.5311843233158852e-03 -6.5976823024988018e-01
    8.6701378340897535e-03 -6.3427032925615623e-01
    8.3537741258714257e-03 -6.9843029576957827e-01
    8.5311843233158852e-03 -6.5976823024988018e-01
    8.5311843233158852e-03 -6.5976823024988018e-01
    8.4681434999396305e-03 -6.7259270913454938e-01
    8.5984302815813630e-03 -6.4699663922063044e-01
    8.5984302815813630e-03 -6.4699663922063044e-01
    8.4681434999396305e-03 -6.7259270913454938e-01
    8.7465917395597986e-03 -6.2158156050806113e-01
    8.3020474729455090e-03 -7.1145824860365003e-01
    7.8600542597382465e-03 -9.3644171037127388e-01
    7.8473562639509789e-03 -9.6773340156674159e-01
    7.8696183122639041e-03 -9.2113237294367667e-01
    7.8600542597382465e-03 -9.3644171037127388e-01
    7.9507003861626641e-03 -1.1798969712415985e+00
    7.8952941335394961e-03 -1.1221672153735645e+00
    7.8431372549019607e-03 -1. 7.9994509568223696e-03
    -8.1928803037291398e-01 7.8696183122639041e-03
    -9.2113237294367667e-01 8.0582379898129653e-03
    -7.9162280580252786e-01 8.7465917395597986e-03
    -6.2158156050806113e-01 1.0592648630969767e-02
    -4.4280744277004769e-01 2.2021588898744206e-02
    -1.8411492357966469e-01 1.1942139276179761e-02
    -3.7441543222448842e-01 1.0026240894425574e-02
    -4.8199920365414750e-01 8.9150422632344566e-03
    -5.9628479399994405e-01 8.2537253176242359e-03
    -7.2456883730947186e-01 8.1277068438418715e-03
    -7.6447078715643835e-01 8.0915912903913798e-03
    -7.7798660521549912e-01 7.9299227827528528e-03
    -8.6189160737133463e-01 7.9114697172519392e-03
    -8.7642223957917997e-01 7.8952941335394943e-03
    -8.9113278867900692e-01 7.9507003861626641e-03
    -8.4753162722988074e-01 7.8473562639509789e-03
    -9.6773340156674159e-01 7.8473562639509789e-03
    -9.6773340156674159e-01 7.9114697172519392e-03
    -8.7642223957917997e-01 7.9114697172519392e-03
    -8.7642223957917997e-01 7.9738562091503269e-03
    -8.3333333333333337e-01 8.9150422632344566e-03
    -5.9628479399994405e-01 8.8281088019141092e-03
    -6.0892242268940355e-01 8.4681434999396305e-03
    -6.7259270913454938e-01 8.4681434999396305e-03
    -6.7259270913454938e-01 8.5311843233158852e-03
    -6.5976823024988018e-01 8.5984302815813630e-03
    -6.4699663922063044e-01 8.4681434999396305e-03
    -6.7259270913454938e-01 8.5984302815813630e-03
    -6.4699663922063044e-01 8.9150422632344566e-03
    -5.9628479399994405e-01 8.5311843233158852e-03
    -6.5976823024988018e-01 8.3537741258714257e-03
    -6.9843029576957827e-01 8.1666888748890294e-03
    -7.5106761619881079e-01 7.8600542597382465e-03
    -9.3644171037127388e-01 7.9114697172519392e-03
    -8.7642223957917997e-01 7.8696183122639041e-03
    -9.2113237294367667e-01 7.8526396121990950e-03
    -1.0504514628777808e+00 7.9994509568223678e-03
    -1.2205719636167900e+00 7.8473562639509789e-03
    -9.6773340156674159e-01 7.8441913691806135e-03
    -9.8373875367592944e-01 7.8696183122639041e-03
    -9.2113237294367667e-01 7.8696183122639041e-03
    -9.2113237294367667e-01 8.3537741258714257e-03
    -6.9843029576957827e-01 8.6701378340897535e-03
    -6.3427032925615623e-01 1.0814943064083878e-02
    -4.2949507496300321e-01 1.5842445839405427e-02
    -2.6490647141300883e-01 1.1942139276179761e-02
    -3.7441543222448842e-01 1.0200191135444890e-02
    -4.6904157598234292e-01 1.0026240894425574e-02
    -4.8199920365414750e-01 8.1666888748890294e-03
    -7.5106761619881079e-01 8.2086526115870747e-03
    -7.3776947447583829e-01 8.1666888748890294e-03
    -7.5106761619881079e-01 8.0275528172657814e-03
    -8.0538726625682922e-01 7.9114697172519392e-03
    -8.7642223957917997e-01 7.8813552588488361e-03
    -9.0603284840454856e-01 7.8526396121990933e-03
    -9.5197163823298847e-01 7.8473562639509789e-03
    -9.6773340156674159e-01 8.0275528172657814e-03
    -8.0538726625682922e-01 7.9507003861626641e-03
    -8.4753162722988074e-01 7.9114697172519392e-03
    -8.7642223957917997e-01 8.3537741258714257e-03
    -6.9843029576957827e-01 8.0275528172657814e-03
    -8.0538726625682922e-01 8.4090764444060637e-03
    -6.8547758393129765e-01 8.4090764444060637e-03
    -6.8547758393129765e-01 8.5984302815813630e-03
    -6.4699663922063044e-01 8.4681434999396305e-03
    -6.7259270913454938e-01 8.5311843233158852e-03
    -6.5976823024988018e-01 8.6701378340897535e-03
    -6.3427032925615623e-01 8.4681434999396305e-03
    -6.7259270913454938e-01 8.4681434999396305e-03
    -6.7259270913454938e-01 8.2537253176242359e-03
    -7.2456883730947186e-01 7.9994509568223696e-03
    -8.1928803037291398e-01 7.9994509568223696e-03
    -8.1928803037291398e-01 8.3020474729455090e-03
    -7.1145824860365003e-01 8.1277068438418715e-03
    -7.6447078715643835e-01 7.8600542597382465e-03
    -9.3644171037127388e-01 8.1666888748890294e-03
    -1.3314380468978919e+00 8.0915912903913815e-03
    -1.2853691738343032e+00 7.8431372549019607e-03 -1.
    7.9114697172519392e-03 -8.7642223957917997e-01
    7.8526396121990933e-03 -9.5197163823298847e-01
    7.8600542597382465e-03 -9.3644171037127388e-01
    8.4681434999396305e-03 -6.7259270913454938e-01
    9.0077869782597981e-03 -5.8366029559953858e-01
    1.5002345874875669e-02 -2.8221626051507920e-01
    1.4295871601842747e-02 -2.9880715233359845e-01
    1.1942139276179761e-02 -3.7441543222448842e-01
    1.0200191135444890e-02 -4.6904157598234292e-01
    1.0026240894425574e-02 -4.8199920365414750e-01
    9.1067855382823016e-03 -5.7104024072016069e-01
    8.7465917395597986e-03 -6.2158156050806113e-01
    8.2537253176242359e-03 -7.2456883730947186e-01
    8.0915912903913798e-03 -7.7798660521549912e-01
    7.9738562091503269e-03 -8.3333333333333337e-01
    7.8952941335394943e-03 -8.9113278867900692e-01
    7.9114697172519392e-03 -8.7642223957917997e-01
    7.8600542597382465e-03 -9.3644171037127388e-01
    7.9114697172519392e-03 -1.1410025383200646e+00
    7.8600542597382465e-03 -9.3644171037127388e-01
    7.8813552588488361e-03 -9.0603284840454856e-01
    7.9507003861626641e-03 -8.4753162722988074e-01
    7.9738562091503269e-03 -8.3333333333333337e-01
    7.9738562091503269e-03 -8.3333333333333337e-01
    7.9114697172519392e-03 -8.7642223957917997e-01
    7.9299227827528528e-03 -8.6189160737133463e-01
    8.5311843233158852e-03 -6.5976823024988018e-01
    8.0582379898129653e-03 -7.9162280580252786e-01
    7.9507003861626641e-03 -8.4753162722988074e-01
    7.9738562091503269e-03 -8.3333333333333337e-01
    7.8952941335394943e-03 -8.9113278867900692e-01
    7.8952941335394943e-03 -8.9113278867900692e-01
    7.8813552588488361e-03 -9.0603284840454856e-01
    7.9114697172519392e-03 -8.7642223957917997e-01
    7.8813552588488361e-03 -9.0603284840454856e-01
    8.0915912903913798e-03 -7.7798660521549912e-01
    7.8952941335394961e-03 -1.1221672153735645e+00
    8.2537253176242376e-03 -1.3801311186847087e+00
    7.8526396121990950e-03 -1.0504514628777808e+00
    7.8473562639509789e-03 -1.0333424457407581e+00
    7.8600542597382465e-03 -9.3644171037127388e-01
    7.8526396121990933e-03 -9.5197163823298847e-01
    7.8696183122639041e-03 -9.2113237294367667e-01
    8.3020474729455090e-03 -7.1145824860365003e-01
    9.1067855382823016e-03 -5.7104024072016069e-01
    1.5002345874875669e-02 -2.8221626051507920e-01
    1.5842445839405427e-02 -2.6490647141300883e-01
    1.2709683188263982e-02 -3.4534917843520574e-01
    1.1617340706626102e-02 -3.8851434494290571e-01
    1.0592648630969767e-02 -4.4280744277004769e-01
    9.4466095538051336e-03 -5.3311398998318316e-01
    9.3255983746495050e-03 -5.4577682290981533e-01
    8.5984302815813630e-03 -6.4699663922063044e-01
    8.1666888748890294e-03 -7.5106761619881079e-01
    8.2537253176242359e-03 -7.2456883730947186e-01
    8.0275528172657814e-03 -8.0538726625682922e-01
    7.8813552588488361e-03 -9.0603284840454856e-01
    7.8952941335394943e-03 -8.9113278867900692e-01
    7.8952941335394961e-03 -1.1221672153735645e+00
    7.9507003861626641e-03 -1.1798969712415985e+00
    7.9114697172519392e-03 -8.7642223957917997e-01
    7.9114697172519392e-03 -8.7642223957917997e-01
    8.0275528172657814e-03 -8.0538726625682922e-01
    8.0915912903913798e-03 -7.7798660521549912e-01
    7.9994509568223696e-03 -8.1928803037291398e-01
    7.9114697172519392e-03 -8.7642223957917997e-01
    8.0582379898129653e-03 -7.9162280580252786e-01
    7.9299227827528528e-03 -8.6189160737133463e-01
    7.9738562091503269e-03 -8.3333333333333337e-01
    7.9994509568223696e-03 -8.1928803037291398e-01
    7.9994509568223696e-03 -8.1928803037291398e-01
    7.9994509568223696e-03 -8.1928803037291398e-01
    7.9994509568223696e-03 -8.1928803037291398e-01
    7.9114697172519392e-03 -8.7642223957917997e-01
    7.9114697172519392e-03 -8.7642223957917997e-01
    7.9507003861626641e-03 -8.4753162722988074e-01
    7.9299227827528546e-03 -1.1602387022306431e+00
    7.8600542597382483e-03 -1.0678721258619792e+00
    7.8441913691806153e-03 -1.0165300454651274e+00
    7.8600542597382465e-03 -9.3644171037127388e-01
    7.8952941335394943e-03 -8.9113278867900692e-01
    7.9507003861626641e-03 -8.4753162722988074e-01
    7.8813552588488361e-03 -9.0603284840454856e-01
    8.3020474729455090e-03 -7.1145824860365003e-01
    1.0592648630969767e-02 -4.4280744277004769e-01
    1.5002345874875669e-02 -2.8221626051507920e-01
    1.8134894375809060e-02 -2.2742941307367101e-01
    1.4295871601842747e-02 -2.9880715233359845e-01
    1.2303927251879223e-02 -3.6004114991154779e-01
    1.1057749009718620e-02 -4.1602514716892192e-01
    1.0200191135444890e-02 -4.6904157598234292e-01
    1.0026240894425574e-02 -4.8199920365414750e-01
    1.1057749009718620e-02 -4.1602514716892192e-01
    8.5984302815813630e-03 -6.4699663922063044e-01
    8.5984302815813630e-03 -6.4699663922063044e-01
    8.0915912903913798e-03 -7.7798660521549912e-01
    7.8696183122639041e-03 -9.2113237294367667e-01
    8.0275528172657814e-03 -8.0538726625682922e-01
    7.8952941335394943e-03 -8.9113278867900692e-01
    7.8696183122639041e-03 -1.0856202966836190e+00
    7.9738562091503269e-03 -1.2000000000000002e+00
    7.8952941335394961e-03 -1.1221672153735645e+00
    7.8952941335394943e-03 -8.9113278867900692e-01
    7.9507003861626641e-03 -8.4753162722988074e-01
    8.0915912903913798e-03 -7.7798660521549912e-01
    8.0915912903913798e-03 -7.7798660521549912e-01
    8.0915912903913798e-03 -7.7798660521549912e-01
    7.9738562091503269e-03 -8.3333333333333337e-01
    7.9994509568223696e-03 -8.1928803037291398e-01
    8.0275528172657814e-03 -8.0538726625682922e-01
    8.0275528172657814e-03 -8.0538726625682922e-01
    7.9994509568223696e-03 -8.1928803037291398e-01
    7.9507003861626641e-03 -8.4753162722988074e-01
    8.3537741258714257e-03 -6.9843029576957827e-01
    7.9738562091503269e-03 -8.3333333333333337e-01
    8.0275528172657814e-03 -8.0538726625682922e-01
    8.2086526115870730e-03 -1.3554369414788654e+00
    7.8431372549019607e-03 -1. 7.8526396121990933e-03
    -9.5197163823298847e-01 7.8441913691806135e-03
    -9.8373875367592944e-01 7.9114697172519392e-03
    -8.7642223957917997e-01 7.9994509568223696e-03
    -8.1928803037291398e-01 8.2537253176242359e-03
    -7.2456883730947186e-01 9.1067855382823016e-03
    -5.7104024072016069e-01 1.1324017713019687e-02
    -4.0237390808147827e-01 1.8134894375809060e-02
    -2.2742941307367101e-01 1.8134894375809060e-02
    -2.2742941307367101e-01 1.6862490191319499e-02
    -2.4671758189758447e-01 1.2709683188263982e-02
    -3.4534917843520574e-01 1.1617340706626102e-02
    -3.8851434494290571e-01 1.0388415605954819e-02
    -4.5598332434334476e-01 1.0026240894425574e-02
    -4.8199920365414750e-01 9.7154691879452176e-03
    -5.0767308256680954e-01 9.8650886332120932e-03
    -4.9487165930539356e-01 8.6701378340897535e-03
    -6.3427032925615623e-01 8.4681434999396305e-03
    -6.7259270913454938e-01 8.3537741258714257e-03
    -6.9843029576957827e-01 8.3537741258714257e-03
    -6.9843029576957827e-01 7.9738562091503269e-03
    -8.3333333333333337e-01 7.9507003861626641e-03
    -8.4753162722988074e-01 7.8473562639509789e-03
    -1.0333424457407581e+00 7.9299227827528546e-03
    -1.1602387022306431e+00 7.8952941335394961e-03
    -1.1221672153735645e+00 7.8526396121990950e-03
    -1.0504514628777808e+00 7.9114697172519392e-03
    -8.7642223957917997e-01 7.8526396121990933e-03
    -9.5197163823298847e-01 7.8813552588488361e-03
    -9.0603284840454856e-01 7.8696183122639041e-03
    -9.2113237294367667e-01 7.9114697172519392e-03
    -8.7642223957917997e-01 7.8813552588488361e-03
    -9.0603284840454856e-01 8.3537741258714257e-03
    -6.9843029576957827e-01 8.3537741258714257e-03
    -6.9843029576957827e-01 7.9994509568223696e-03
    -8.1928803037291398e-01 7.9114697172519392e-03
    -8.7642223957917997e-01 7.8600542597382483e-03
    -1.0678721258619792e+00 7.8441913691806153e-03
    -1.0165300454651274e+00 7.9994509568223678e-03
    -1.2205719636167900e+00 7.8696183122639041e-03
    -9.2113237294367667e-01 7.8952941335394943e-03
    -8.9113278867900692e-01 7.9299227827528528e-03
    -8.6189160737133463e-01 7.9114697172519392e-03
    -8.7642223957917997e-01 7.9738562091503269e-03
    -8.3333333333333337e-01 8.6701378340897535e-03
    -6.3427032925615623e-01 9.5762915510885435e-03
    -5.2041649986653316e-01 1.6862490191319499e-02
    -2.4671758189758447e-01 1.6862490191319499e-02
    -2.4671758189758447e-01 1.9780702771089453e-02
    -2.0672455764868078e-01 1.6862490191319499e-02
    -2.4671758189758447e-01 1.4295871601842747e-02
    -2.9880715233359845e-01 1.2303927251879223e-02
    -3.6004114991154779e-01 1.2709683188263982e-02
    -3.4534917843520574e-01 1.0388415605954819e-02
    -4.5598332434334476e-01 9.7154691879452176e-03
    -5.0767308256680954e-01 9.0077869782597981e-03
    -5.8366029559953858e-01 9.4466095538051336e-03
    -5.3311398998318316e-01 8.4681434999396305e-03
    -6.7259270913454938e-01 8.7465917395597986e-03
    -6.2158156050806113e-01 8.3537741258714257e-03
    -6.9843029576957827e-01 8.1666888748890294e-03
    -7.5106761619881079e-01 7.8952941335394943e-03
    -8.9113278867900692e-01 7.8600542597382465e-03
    -9.3644171037127388e-01 7.8473562639509789e-03
    -1.0333424457407581e+00 7.8526396121990950e-03
    -1.0504514628777808e+00 7.8696183122639041e-03
    -9.2113237294367667e-01 7.8696183122639041e-03
    -9.2113237294367667e-01 7.8813552588488361e-03
    -9.0603284840454856e-01 7.8526396121990933e-03
    -9.5197163823298847e-01 7.9507003861626641e-03
    -8.4753162722988074e-01 7.9994509568223696e-03
    -8.1928803037291398e-01 7.9114697172519392e-03
    -8.7642223957917997e-01 8.3537741258714257e-03
    -6.9843029576957827e-01 8.0915912903913798e-03
    -7.7798660521549912e-01 8.2086526115870747e-03
    -7.3776947447583829e-01 7.8473562639509789e-03
    -1.0333424457407581e+00 7.8696183122639041e-03
    -1.0856202966836190e+00 7.8813552588488378e-03
    -1.1037127426019049e+00 7.8473562639509789e-03
    -1.0333424457407581e+00 7.8696183122639041e-03
    -9.2113237294367667e-01 7.9114697172519392e-03
    -8.7642223957917997e-01 7.9114697172519392e-03
    -8.7642223957917997e-01 7.8952941335394943e-03
    -8.9113278867900692e-01 8.5311843233158852e-03
    -6.5976823024988018e-01 9.4466095538051336e-03
    -5.3311398998318316e-01 1.0388415605954819e-02
    -4.5598332434334476e-01 1.5002345874875669e-02
    -2.8221626051507920e-01 1.6862490191319499e-02
    -2.4671758189758447e-01 1.8134894375809060e-02
    -2.2742941307367101e-01 1.6862490191319499e-02
    -2.4671758189758447e-01 1.3168390131903527e-02
    -3.3028912953790812e-01 1.2303927251879223e-02
    -3.6004114991154779e-01 1.2709683188263982e-02
    -3.4534917843520574e-01 1.1942139276179761e-02
    -3.7441543222448842e-01 1.0200191135444890e-02
    -4.6904157598234292e-01 9.5762915510885435e-03
    -5.2041649986653316e-01 8.9150422632344566e-03
    -5.9628479399994405e-01 9.2125355554511651e-03
    -5.5841557731607683e-01 8.5984302815813630e-03
    -6.4699663922063044e-01 8.4681434999396305e-03
    -6.7259270913454938e-01 8.0915912903913798e-03
    -7.7798660521549912e-01 7.9738562091503269e-03
    -8.3333333333333337e-01 7.8952941335394943e-03
    -8.9113278867900692e-01 7.9994509568223696e-03
    -8.1928803037291398e-01 7.8600542597382483e-03
    -1.0678721258619792e+00 7.8473562639509789e-03
    -1.0333424457407581e+00 8.0275528172657814e-03
    -8.0538726625682922e-01 7.8600542597382465e-03
    -9.3644171037127388e-01 7.8441913691806135e-03
    -9.8373875367592944e-01 7.8431372549019607e-03 -1.
    7.8441913691806135e-03 -9.8373875367592944e-01
    7.9507003861626641e-03 -8.4753162722988074e-01
    7.9299227827528528e-03 -8.6189160737133463e-01
    7.8473562639509789e-03 -1.0333424457407581e+00
    7.8526396121990950e-03 -1.0504514628777808e+00
    7.9994509568223678e-03 -1.2205719636167900e+00
    7.8696183122639041e-03 -1.0856202966836190e+00
    7.8473562639509789e-03 -1.0333424457407581e+00
    7.9507003861626641e-03 -8.4753162722988074e-01
    7.8813552588488361e-03 -9.0603284840454856e-01
    7.9299227827528528e-03 -8.6189160737133463e-01
    7.8813552588488361e-03 -9.0603284840454856e-01
    8.3020474729455090e-03 -7.1145824860365003e-01
    9.1067855382823016e-03 -5.7104024072016069e-01
    9.4466095538051336e-03 -5.3311398998318316e-01
    1.0388415605954819e-02 -4.5598332434334476e-01
    1.5002345874875669e-02 -2.8221626051507920e-01
    1.8134894375809060e-02 -2.2742941307367101e-01
    1.9780702771089453e-02 -2.0672455764868078e-01
    1.6862490191319499e-02 -2.4671758189758447e-01
    1.3168390131903527e-02 -3.3028912953790812e-01
    1.2303927251879223e-02 -3.6004114991154779e-01
    1.1942139276179761e-02 -3.7441543222448842e-01
    1.1942139276179761e-02 -3.7441543222448842e-01
    1.2303927251879223e-02 -3.6004114991154779e-01
    1.0026240894425574e-02 -4.8199920365414750e-01
    9.2125355554511651e-03 -5.5841557731607683e-01
    9.7154691879452176e-03 -5.0767308256680954e-01
    9.3255983746495050e-03 -5.4577682290981533e-01
    8.3020474729455090e-03 -7.1145824860365003e-01
    8.4090764444060637e-03 -6.8547758393129765e-01
    8.4681434999396305e-03 -6.7259270913454938e-01
    7.9114697172519392e-03 -8.7642223957917997e-01
    7.8526396121990933e-03 -9.5197163823298847e-01
    7.8696183122639041e-03 -9.2113237294367667e-01
    7.9114697172519392e-03 -1.1410025383200646e+00
    7.8952941335394961e-03 -1.1221672153735645e+00
    7.8696183122639041e-03 -1.0856202966836190e+00
    7.9114697172519392e-03 -8.7642223957917997e-01
    8.0275528172657814e-03 -8.0538726625682922e-01
    7.8473562639509789e-03 -1.0333424457407581e+00
    7.8473562639509789e-03 -1.0333424457407581e+00
    7.8600542597382465e-03 -9.3644171037127388e-01
    7.8431372549019607e-03 -1. 7.8696183122639041e-03
    -1.0856202966836190e+00 7.8952941335394961e-03
    -1.1221672153735645e+00 7.8813552588488378e-03
    -1.1037127426019049e+00 7.8696183122639041e-03
    -1.0856202966836190e+00 7.9299227827528528e-03
    -8.6189160737133463e-01 7.8600542597382465e-03
    -9.3644171037127388e-01 7.8696183122639041e-03
    -9.2113237294367667e-01 8.0275528172657814e-03
    -8.0538726625682922e-01 8.7465917395597986e-03
    -6.2158156050806113e-01 9.3255983746495050e-03
    -5.4577682290981533e-01 9.4466095538051336e-03
    -5.3311398998318316e-01 1.2709683188263982e-02
    -3.4534917843520574e-01 1.5842445839405427e-02
    -2.6490647141300883e-01 1.5842445839405427e-02
    -2.6490647141300883e-01 2.5321273384723730e-02
    -1.5877683720748897e-01 1.5842445839405427e-02
    -2.6490647141300883e-01 1.3168390131903527e-02
    -3.3028912953790812e-01 1.2709683188263982e-02
    -3.4534917843520574e-01 1.1617340706626102e-02
    -3.8851434494290571e-01 1.1942139276179761e-02
    -3.7441543222448842e-01 1.1942139276179761e-02
    -3.7441543222448842e-01 1.1324017713019687e-02
    -4.0237390808147827e-01 9.7154691879452176e-03
    -5.0767308256680954e-01 9.8650886332120932e-03
    -4.9487165930539356e-01 9.8650886332120932e-03
    -4.9487165930539356e-01 9.0077869782597981e-03
    -5.8366029559953858e-01 8.0915912903913798e-03
    -7.7798660521549912e-01 8.1277068438418715e-03
    -7.6447078715643835e-01 8.0275528172657814e-03
    -8.0538726625682922e-01 7.8813552588488361e-03
    -9.0603284840454856e-01 7.8696183122639041e-03
    -9.2113237294367667e-01 7.9114697172519392e-03
    -8.7642223957917997e-01 7.9299227827528546e-03
    -1.1602387022306431e+00 7.9507003861626641e-03
    -1.1798969712415985e+00 7.8526396121990950e-03
    -1.0504514628777808e+00 7.8473562639509789e-03
    -9.6773340156674159e-01 7.8696183122639041e-03
    -9.2113237294367667e-01 7.9507003861626641e-03
    -8.4753162722988074e-01 7.9507003861626641e-03
    -1.1798969712415985e+00 7.8813552588488378e-03
    -1.1037127426019049e+00 7.8696183122639041e-03
    -1.0856202966836190e+00 7.9507003861626641e-03
    -8.4753162722988074e-01 8.0275528172657814e-03
    -8.0538726625682922e-01 7.8813552588488361e-03
    -9.0603284840454856e-01 7.8952941335394943e-03
    -8.9113278867900692e-01 8.0582379898129653e-03
    -7.9162280580252786e-01 8.2537253176242359e-03
    -7.2456883730947186e-01 8.3537741258714257e-03
    -6.9843029576957827e-01 9.2125355554511651e-03
    -5.5841557731607683e-01 9.4466095538051336e-03
    -5.3311398998318316e-01 1.1942139276179761e-02
    -3.7441543222448842e-01 1.2709683188263982e-02
    -3.4534917843520574e-01 1.5842445839405427e-02
    -2.6490647141300883e-01 1.6862490191319499e-02
    -2.4671758189758447e-01 1.9780702771089453e-02
    -2.0672455764868078e-01 1.5842445839405427e-02
    -2.6490647141300883e-01 1.4295871601842747e-02
    -2.9880715233359845e-01 1.2303927251879223e-02
    -3.6004114991154779e-01 1.2303927251879223e-02
    -3.6004114991154779e-01 1.2303927251879223e-02
    -3.6004114991154779e-01 1.2303927251879223e-02
    -3.6004114991154779e-01 1.1617340706626102e-02
    -3.8851434494290571e-01 1.1324017713019687e-02
    -4.0237390808147827e-01 1.0814943064083878e-02
    -4.2949507496300321e-01 1.0592648630969767e-02
    -4.4280744277004769e-01 1.0388415605954819e-02
    -4.5598332434334476e-01 9.5762915510885435e-03
    -5.2041649986653316e-01 9.1067855382823016e-03
    -5.7104024072016069e-01 8.3020474729455090e-03
    -7.1145824860365003e-01 7.9738562091503269e-03
    -8.3333333333333337e-01 7.9994509568223696e-03
    -8.1928803037291398e-01 7.9114697172519392e-03
    -8.7642223957917997e-01 7.8526396121990950e-03
    -1.0504514628777808e+00 7.8952941335394961e-03
    -1.1221672153735645e+00 7.8696183122639041e-03
    -1.0856202966836190e+00 7.8526396121990933e-03
    -9.5197163823298847e-01 7.8600542597382465e-03
    -9.3644171037127388e-01 8.1666888748890294e-03
    -1.3314380468978919e+00 8.0275528172657814e-03
    -1.2416387021459452e+00 7.9994509568223678e-03
    -1.2205719636167900e+00 7.9738562091503269e-03
    -8.3333333333333337e-01 7.8813552588488361e-03
    -9.0603284840454856e-01 7.8526396121990933e-03
    -9.5197163823298847e-01 7.9114697172519392e-03
    -8.7642223957917997e-01 8.2086526115870747e-03
    -7.3776947447583829e-01 8.1277068438418715e-03
    -7.6447078715643835e-01 9.3255983746495050e-03
    -5.4577682290981533e-01 9.1067855382823016e-03
    -5.7104024072016069e-01 9.2125355554511651e-03
    -5.5841557731607683e-01 1.1617340706626102e-02
    -3.8851434494290571e-01 1.3168390131903527e-02
    -3.3028912953790812e-01 1.3691840089788505e-02
    -3.1480009386767832e-01 1.5842445839405427e-02
    -2.6490647141300883e-01 2.5321273384723730e-02
    -1.5877683720748897e-01 2.2021588898744206e-02
    -1.8411492357966469e-01 1.8134894375809060e-02
    -2.2742941307367101e-01 1.8134894375809060e-02
    -2.2742941307367101e-01 1.3691840089788505e-02
    -3.1480009386767832e-01 1.3168390131903527e-02
    -3.3028912953790812e-01 1.3691840089788505e-02
    -3.1480009386767832e-01 1.4295871601842747e-02
    -2.9880715233359845e-01 1.4295871601842747e-02
    -2.9880715233359845e-01 1.4295871601842747e-02
    -2.9880715233359845e-01 1.5002345874875669e-02
    -2.8221626051507920e-01 1.2709683188263982e-02
    -3.4534917843520574e-01 1.2709683188263982e-02
    -3.4534917843520574e-01 1.0388415605954819e-02
    -4.5598332434334476e-01 1.0592648630969767e-02
    -4.4280744277004769e-01 1.0026240894425574e-02
    -4.8199920365414750e-01 9.1067855382823016e-03
    -5.7104024072016069e-01 8.4090764444060637e-03
    -6.8547758393129765e-01 8.1277068438418715e-03
    -7.6447078715643835e-01 7.9994509568223696e-03
    -8.1928803037291398e-01 7.8526396121990950e-03
    -1.0504514628777808e+00 7.8813552588488378e-03
    -1.1037127426019049e+00 7.8696183122639041e-03
    -1.0856202966836190e+00 7.8431372549019607e-03 -1.
    7.9738562091503269e-03 -1.2000000000000002e+00
    7.9738562091503269e-03 -1.2000000000000002e+00
    7.8473562639509789e-03 -1.0333424457407581e+00
    7.8473562639509789e-03 -1.0333424457407581e+00
    7.8441913691806153e-03 -1.0165300454651274e+00
    7.9299227827528528e-03 -8.6189160737133463e-01
    8.1277068438418715e-03 -7.6447078715643835e-01
    8.3020474729455090e-03 -7.1145824860365003e-01
    8.2537253176242359e-03 -7.2456883730947186e-01
    9.0077869782597981e-03 -5.8366029559953858e-01
    9.3255983746495050e-03 -5.4577682290981533e-01
    1.1942139276179761e-02 -3.7441543222448842e-01
    1.4295871601842747e-02 -2.9880715233359845e-01
    1.5002345874875669e-02 -2.8221626051507920e-01
    1.5842445839405427e-02 -2.6490647141300883e-01
    1.9780702771089453e-02 -2.0672455764868078e-01
    2.2021588898744206e-02 -1.8411492357966469e-01 1. 0.
    2.5321273384723730e-02 -1.5877683720748897e-01
    2.2021588898744206e-02 -1.8411492357966469e-01
    1.8134894375809060e-02 -2.2742941307367101e-01
    1.6862490191319499e-02 -2.4671758189758447e-01
    1.6862490191319499e-02 -2.4671758189758447e-01
    1.6862490191319499e-02 -2.4671758189758447e-01
    1.6862490191319499e-02 -2.4671758189758447e-01
    1.6862490191319499e-02 -2.4671758189758447e-01
    1.5842445839405427e-02 -2.6490647141300883e-01
    1.5842445839405427e-02 -2.6490647141300883e-01
    1.4295871601842747e-02 -2.9880715233359845e-01
    1.3691840089788505e-02 -3.1480009386767832e-01
    1.0388415605954819e-02 -4.5598332434334476e-01
    1.0592648630969767e-02 -4.4280744277004769e-01
    1.0200191135444890e-02 -4.6904157598234292e-01
    9.5762915510885435e-03 -5.2041649986653316e-01
    8.3020474729455090e-03 -7.1145824860365003e-01
    7.9114697172519392e-03 -8.7642223957917997e-01
    8.0275528172657814e-03 -8.0538726625682922e-01
    7.9738562091503269e-03 -8.3333333333333337e-01
    7.8526396121990950e-03 -1.0504514628777808e+00
    7.9507003861626641e-03 -8.4753162722988074e-01
    8.1277068438418715e-03 -1.3080944580232390e+00
    7.9299227827528528e-03 -8.6189160737133463e-01
    7.9299227827528546e-03 -1.1602387022306431e+00
    7.8813552588488361e-03 -9.0603284840454856e-01
    7.9299227827528528e-03 -8.6189160737133463e-01
    8.0915912903913798e-03 -7.7798660521549912e-01
    8.3020474729455090e-03 -7.1145824860365003e-01
    8.4681434999396305e-03 -6.7259270913454938e-01
    9.2125355554511651e-03 -5.5841557731607683e-01
    9.5762915510885435e-03 -5.2041649986653316e-01
    1.2303927251879223e-02 -3.6004114991154779e-01
    1.4295871601842747e-02 -2.9880715233359845e-01
    1.2709683188263982e-02 -3.4534917843520574e-01
    1.5842445839405427e-02 -2.6490647141300883e-01
    1.6862490191319499e-02 -2.4671758189758447e-01
    1.6862490191319499e-02 -2.4671758189758447e-01
    2.2021588898744206e-02 -1.8411492357966469e-01
    4.3493761140819966e-02 -9.0909090909090925e-02
    2.2021588898744206e-02 -1.8411492357966469e-01
    2.2021588898744206e-02 -1.8411492357966469e-01
    1.9780702771089453e-02 -2.0672455764868078e-01
    2.2021588898744206e-02 -1.8411492357966469e-01
    2.2021588898744206e-02 -1.8411492357966469e-01
    1.9780702771089453e-02 -2.0672455764868078e-01
    1.9780702771089453e-02 -2.0672455764868078e-01
    1.9780702771089453e-02 -2.0672455764868078e-01
    1.9780702771089453e-02 -2.0672455764868078e-01
    1.9780702771089453e-02 -2.0672455764868078e-01
    1.9780702771089453e-02 -2.0672455764868078e-01
    1.6862490191319499e-02 -2.4671758189758447e-01
    1.6862490191319499e-02 -2.4671758189758447e-01
    1.8134894375809060e-02 -2.2742941307367101e-01
    1.2709683188263982e-02 -3.4534917843520574e-01
    1.0388415605954819e-02 -4.5598332434334476e-01
    1.0814943064083878e-02 -4.2949507496300321e-01
    1.0200191135444890e-02 -4.6904157598234292e-01
    9.4466095538051336e-03 -5.3311398998318316e-01
    7.9994509568223696e-03 -8.1928803037291398e-01
    8.0915912903913798e-03 -7.7798660521549912e-01
    9.0077869782597981e-03 -5.8366029559953858e-01
    8.2086526115870747e-03 -7.3776947447583829e-01
    7.8952941335394943e-03 -8.9113278867900692e-01
    8.2537253176242359e-03 -7.2456883730947186e-01
    8.1666888748890294e-03 -7.5106761619881079e-01
    8.0582379898129653e-03 -7.9162280580252786e-01
    8.1277068438418715e-03 -7.6447078715643835e-01
    8.3020474729455090e-03 -7.1145824860365003e-01
    9.0077869782597981e-03 -5.8366029559953858e-01
    1.1324017713019687e-02 -4.0237390808147827e-01
    1.2709683188263982e-02 -3.4534917843520574e-01
    1.3168390131903527e-02 -3.3028912953790812e-01
    1.3168390131903527e-02 -3.3028912953790812e-01
    1.3691840089788505e-02 -3.1480009386767832e-01
    1.8134894375809060e-02 -2.2742941307367101e-01
    1.8134894375809060e-02 -2.2742941307367101e-01
    1.8134894375809060e-02 -2.2742941307367101e-01
    1.6862490191319499e-02 -2.4671758189758447e-01</input_scale>
  <output_scale>
    1.0526315789473684e+00 0.</output_scale>
  <inv_output_scale>
    9.4999999999999996e-01 0.</inv_output_scale>
  <weights>
    <_>
      -1.1719048386403424e-03 -2.2903224389177911e-04
      -9.9637750405231888e-04 -5.5088375721748159e-04
      2.2039270841974236e-04 1.2144499427915077e-03
      9.9728247011042037e-04 2.0453599492093418e-04
      -7.2831549546728146e-04 -4.2920232853557353e-04
      -1.1054717958401724e-03 -1.2409612586460942e-04
      -2.1397120762249158e-05 -7.8018402384446585e-04
      6.7194088742161514e-04 -1.1208781013474275e-03
      1.1037170489498088e-03 1.0083693640301039e-03
      -2.5698247005999147e-04 -3.4383640164285737e-05
      3.0002183913935715e-04 -7.7645728251324352e-04
      -6.5397802009701264e-04 9.5527311481024093e-04
      -1.0954164450422850e-03 -3.1663012947851025e-04
      6.1523554708813478e-04 -6.3403300196013517e-04
      1.0630743572223426e-03 -2.4215284090006096e-04
      1.2150750992007805e-03 -3.7732545206526025e-04
      2.2581237915161135e-04 8.1166924113520002e-04
      1.1322676431532379e-03 5.1786688077618958e-04
      8.1904968067006900e-04 5.2277548999592920e-04
      1.2256443938238879e-03 -1.5902424652943092e-04
      3.2401695935739971e-01 9.6965453752650199e-02
      7.9062400053469137e-02 3.2511005743603709e-02
      -7.1552804383682167e-02 1.7498299933227577e-02
      -3.1235129793080581e-02 -6.2177193093924686e-02
      -8.7535411706365623e-03 1.0797673037295805e-01
      2.7666629920901409e-02 6.2394983654160970e-02
      3.0082865125378614e-02 -4.2200607062102262e-02
      -7.4340767079543466e-03 2.7115385997148814e-02
      -1.0411524779762496e-02 5.2635557753984388e-02
      -1.0962800627786515e-01 1.1099850083182625e-01
      -5.7620996565845642e-02 1.5631035666536865e-02
      9.6796412403559184e-03 8.1051497011272358e-02
      2.6313142605932552e-02 -1.4004446817133051e-02
      1.0188053747291075e-01 -1.0523183608530093e-01
      3.2138757373665026e-02 2.6325405032168240e-02
      -8.6095342451219956e-02 -9.9451574860997025e-02
      1.0599113754309092e-01 3.4546591908311455e-02
      4.6134271428032808e-02 1.4207755991607523e-02
      7.9515599070899182e-02 3.8099405968411069e-02
      -9.1813110096376382e-02 -7.4997065055605425e-02
      -2.9152648931318401e-02 1.8522384000302600e-03
      -1.7073634785652195e-03 -4.5734807005862049e-03
      3.7923510089536198e-03 -1.2636630929054153e-03
      3.4942795837430924e-03 4.1723028047155573e-03
      9.0736580580527790e-04 2.0811126745740958e-03
      -4.2013707158216080e-03 -5.6462721399866142e-03
      -3.0075611022026619e-03 3.8459024902814981e-03
      1.7429720224548856e-03 -4.1663047059649636e-03
      2.3794924041677327e-03 -4.0668393920233340e-03
      -3.4956902638687538e-03 3.2654540396269793e-03
      5.3521564946548538e-03 -1.1231316216487248e-03
      -2.1287261411422134e-03 -4.2305145299783653e-04
      -3.4857281783396408e-03 2.9367151220170366e-03
      1.9870338659400020e-03 -3.0999489218842499e-03
      -2.5332867232622566e-03 -3.6638984247055564e-03
      1.2150003786390829e-03 -2.6593784146600840e-03
      1.5015378399050906e-03 -4.8759221655981433e-03
      -4.0030268801030857e-03 -7.1536791086388146e-04
      -3.2802880214972165e-03 -3.9925078798966340e-03
      -1.8163857730655638e-03 3.2946079579436152e-03
      -1.1468937352173893e-01 -3.3555094399550456e-02
      -2.9188596626580965e-02 -1.2470593791629011e-02
      2.7438890177956220e-02 -7.1640806836990008e-03
      1.2422986980660253e-02 2.3223731105839480e-02
      3.9221476589042063e-03 -3.3535647055480643e-02
      -1.0513523591121711e-02 -2.3088531870561986e-02
      -1.0752522939669554e-02 1.5922893080189626e-02
      2.0254818481802998e-03 -9.4110368801503200e-03
      4.6093636636832394e-03 -1.9663692517129069e-02
      2.9673517487859850e-02 -3.4047773073149247e-02
      2.2908503205329799e-02 -5.9074321405985231e-03
      -2.5479125489718817e-03 -3.0047597037710046e-02
      -8.5776240061273719e-03 4.8728781878932328e-03
      -3.5663393824897360e-02 3.4821240229570928e-02
      -1.0772710820800592e-02 -9.5424070476902642e-03
      3.2286887488734199e-02 3.6247208318188492e-02
      -2.7132571740060611e-02 -1.3761393453720169e-02
      -1.7455430704043720e-02 -5.0727197986352229e-03
      -2.8872005114432213e-02 -1.4195741093785503e-02
      3.3640232875168832e-02 2.7396324594246870e-02
      -3.7378360622780799e-02 -2.0121307383526597e-02
      -1.3523354998954839e-02 -5.7656106980216943e-03
      1.0307933328267982e-02 -1.1833734512673043e-03
      5.2936492835162132e-03 1.0272504456422495e-02
      4.0202981861123407e-04 -2.1001254709889387e-02
      -4.0520595849206434e-03 -1.0028298528826656e-02
      -3.6079919238446302e-03 6.0421227179667907e-03
      -2.6603503441296566e-04 -4.7137191596388871e-03
      2.1847359595840083e-03 -7.7786597792518838e-03
      1.9444633320268689e-02 -2.1070864001961169e-02
      8.0721044795802575e-03 -2.1654665215011283e-03
      -1.9528227044082747e-03 -1.3224477862539856e-02
      -2.8252408860811678e-03 2.2202264266762369e-03
      -2.3280963601106541e-02 2.3552784674650596e-02
      -6.0262370396048327e-03 -4.0334921701028446e-03
      1.7234540272815020e-02 2.3200112399744618e-02
      -1.8192822115058977e-02 -5.5475743490703755e-03
      -8.2845226069418725e-03 -8.8099174122000575e-04
      -1.3481312784505477e-02 -4.9699100354129652e-03
      1.7122604790531001e-02 1.2695304646881039e-02
      -3.6952596456814188e-02 -2.1492300035979663e-02
      -1.2672587928800614e-02 -5.1356820442114920e-03
      1.1452019547017895e-02 -2.5327744740598597e-03
      4.7828212199510882e-03 9.8149938782962458e-03
      5.5489496893343013e-04 -2.0787080457897834e-02
      -5.2926839156094106e-03 -1.0436577512675115e-02
      -3.4141169129826448e-03 5.6359253190656055e-03
      1.3335422371489780e-03 -4.2554209392060959e-03
      1.4849924724451768e-03 -9.1762536615922190e-03
      1.7521015805322185e-02 -2.1222658090307094e-02
      8.0816887580681569e-03 -7.7488203435301822e-04
      -5.2525154284572921e-04 -1.3111633636462698e-02
      -4.8156404999154315e-03 1.5249119907746332e-03
      -2.1679391071876129e-02 2.2796395550343962e-02
      -5.5323003417400004e-03 -3.7586572560721152e-03
      1.6587556625801005e-02 2.3101445381129224e-02
      -1.6715784742379735e-02 -4.6485535890282556e-03
      -7.0747810709903625e-03 -9.7481801015389261e-04
      -1.2702419851327695e-02 -4.9831167634225119e-03
      1.8178255346718988e-02 1.1269652091897165e-02
      -1.1390911843333738e-01 -3.4983785861658727e-02
      -2.8722170683439581e-02 -1.1743747913124622e-02
      2.5704597252901692e-02 -7.3237387752949686e-03
      1.0729247163137862e-02 2.2706906201905484e-02
      4.3650244406485449e-03 -3.2731927413476428e-02
      -1.1006282330048288e-02 -2.3213792059844147e-02
      -1.1312321502689158e-02 1.6794003612289353e-02
      3.1315946969005825e-03 -9.0327206086621304e-03
      2.9026678171390936e-03 -2.1589990766461255e-02
      3.0030232718076505e-02 -3.2085539651236394e-02
      2.2366029656625194e-02 -4.3006938666523831e-03
      -2.5577081073409232e-03 -3.0296222491725103e-02
      -1.0840169492183492e-02 5.9366433318837012e-03
      -3.5307423726723124e-02 3.6796891860231128e-02
      -1.2646511474051797e-02 -9.6278953632845058e-03
      3.2403410285664250e-02 3.5845385062826904e-02
      -2.7790855689314792e-02 -1.3815558187738558e-02
      -1.7117955241225273e-02 -4.0815104727171181e-03
      -3.0302237629563109e-02 -1.3955311944554185e-02
      3.2047649360543246e-02 2.8219520200637102e-02
      -1.1371556217229777e-01 -3.5001328889419425e-02
      -3.0950746215376964e-02 -1.3034949726625441e-02
      2.5823210013129070e-02 -5.7632898640526259e-03
      1.2318629841289799e-02 2.4043340854240425e-02
      4.7665508107588000e-03 -3.2994880728239750e-02
      -9.5150820914309021e-03 -2.2457842682268372e-02
      -1.2258439417760699e-02 1.7322363890723686e-02
      3.3172517842772046e-03 -1.0795691035210423e-02
      2.6765047796791295e-03 -2.0215292494159955e-02
      2.9744980188622254e-02 -3.2448437847882379e-02
      2.2804122923290218e-02 -5.9367335714427729e-03
      -2.9142113389600895e-03 -2.9199849082558092e-02
      -9.7395425848310173e-03 3.7166154215962279e-03
      -3.6540314675365365e-02 3.5001006342549192e-02
      -1.1343780728537568e-02 -1.0068773598033307e-02
      3.0667211709906435e-02 3.4693074451758885e-02
      -2.7500387181804458e-02 -1.3444136078104036e-02
      -1.7836114288075036e-02 -4.4068212506043732e-03
      -2.9009242689211789e-02 -1.5179828165793377e-02
      3.3987255324672512e-02 2.8636076400779989e-02
      -3.7716350200779807e-03 -1.0661804825285528e-02
      -7.9943356557071500e-03 -1.2378788643640034e-04
      5.1797510291538102e-03 7.7852283514236924e-04
      -2.4152791218390042e-04 3.5937531657820811e-03
      -4.1347807621002793e-04 -1.5867847348497163e-02
      -1.3916727068918014e-03 -3.9949751929476548e-03
      -9.8999607307385376e-04 5.3192280574034954e-04
      -7.0938682364730693e-04 -1.3038221942641172e-03
      -3.8528331239951461e-04 -3.4908842641946168e-03
      1.2491228303654447e-02 -1.5604775850211994e-02
      4.0663985090288804e-03 -8.4996557272028119e-04
      1.4169424551342788e-03 -9.4949994309731361e-03
      -9.5121508264042580e-04 -6.9426844769488990e-04
      -1.5508590094894368e-02 1.6671032076073792e-02
      -2.1155495056668708e-03 4.6822151440870595e-04
      8.6562619677272544e-03 1.4738156071890040e-02
      -1.2009038215854775e-02 -1.0647529643192650e-03
      -2.8809913510274361e-03 1.6089250736999754e-04
      -6.7288338369874707e-03 -2.1102558433870795e-03
      8.5608398483881642e-03 8.0013217270587609e-03
      -8.7210413383394289e-02 -2.7272706466234434e-02
      -2.2590653582960561e-02 -1.0428253903461717e-02
      2.0568403449285851e-02 -5.0561654284328253e-03
      8.7824990307106277e-03 1.8176828523030753e-02
      1.6230070708168321e-03 -2.4845079847034664e-02
      -8.1846254892094655e-03 -1.7533548217471044e-02
      -9.5202594916172379e-03 1.3570765679163750e-02
      3.2288489331994646e-03 -8.6384482023470436e-03
      3.5755961962188952e-03 -1.4866365100942226e-02
      2.3264552702410901e-02 -2.4423468144749994e-02
      1.7589653521980487e-02 -3.8688099533494926e-03
      -3.9843943810368553e-03 -2.3071349966440377e-02
      -6.5132611150573441e-03 4.2971530813401817e-03
      -2.7420474880627245e-02 2.8171134980458486e-02
      -9.9888262989790300e-03 -7.6089786803968506e-03
      2.4456851984114909e-02 2.6617519468951148e-02
      -2.1411101575373948e-02 -1.0085152379669067e-02
      -1.4102057855529804e-02 -5.3031758448147072e-03
      -2.2488870725716082e-02 -1.0858350057654637e-02
      2.4282015785435710e-02 2.1592718399512580e-02
      -1.2335154924213443e-02 -1.1472593884087364e-02
      -8.0324276665006411e-03 -2.0048328717490278e-03
      7.8434348579171816e-03 -5.0565197570748567e-05
      7.5523785873079781e-04 4.8732879817559799e-03
      9.9203080915461687e-04 -1.1480463361887861e-02
      -5.9891102300048047e-04 -6.2719635864445017e-03
      -1.0036215339286629e-03 3.9133302802838461e-03
      -1.4023524300123174e-04 -2.3833700120122160e-03
      -5.4112945580154846e-05 -5.4041501758449340e-03
      9.4332018611841713e-03 -1.2809609877081615e-02
      4.2604196215130473e-03 2.3783752546278124e-04
      8.5692237941782439e-04 -8.3307837975856603e-03
      -1.6593001251509166e-03 1.1948907637854961e-03
      -1.4963892611627713e-02 1.3910876750558975e-02
      -2.4469133960699123e-03 -1.2799713487470945e-03
      9.9615488839041692e-03 1.4023466465334424e-02
      -9.1727005113565688e-03 -2.6640361791235266e-03
      -4.5460144158883890e-03 -1.4815336632416458e-03
      -7.1115607938884049e-03 -1.8682508089386594e-03
      9.5327694670230261e-03 7.7859456521233760e-03
      5.4479055157618573e-04 -5.3218291199745964e-03
      -3.5263060714938988e-03 -7.9260486897111352e-04
      2.4268918664183329e-03 -4.1248352154534971e-04
      -9.4079836195870621e-05 3.4332165179639332e-03
      -5.1371213451081124e-05 -1.0462425485995273e-02
      8.4514586133504319e-05 -3.4920326947127426e-03
      5.2702963181392598e-04 -1.0441279096271164e-04
      -8.6692711511337345e-04 6.2579409527754426e-04
      -9.4630684690568095e-04 -1.0105205077894398e-03
      8.2393675909275509e-03 -8.1789566837027691e-03
      2.7690204772563816e-03 2.2031203621484776e-04
      -8.2915029636150203e-04 -3.9528080815788690e-03
      2.5479964929158518e-04 7.3969164605305329e-04
      -1.0266617129755943e-02 9.8454490219036031e-03
      -1.2915683130809293e-04 -1.1245553147664388e-03
      5.4365682973030183e-03 9.8843017342276681e-03
      -6.1464805155631375e-03 -1.3400748531786780e-03
      -1.9623231352002696e-04 -1.9535567118179968e-04
      -3.5894675726054403e-03 -2.0508251459053113e-03
      5.6383157521425900e-03 4.7014069510962694e-03
      -4.4384442898961429e-02 -1.5290134769034396e-02
      -1.4145637156657755e-02 -4.5830817649922520e-03
      1.3563767347419873e-02 -3.7762100732834955e-03
      5.2061850949733039e-03 1.1518494793540050e-02
      2.6893389664364364e-03 -1.5269642678099944e-02
      -5.8568116770512249e-03 -1.0172570931232581e-02
      -5.7711629565713879e-03 7.6598391875427998e-03
      1.3581717710338204e-03 -3.8451230388003013e-03
      9.7068203977805211e-04 -8.8444660412421230e-03
      1.1907630669479986e-02 -1.4495239310944340e-02
      1.0979325745934050e-02 -3.5757773884656091e-03
      -1.1047529281677205e-03 -1.3240728629671204e-02
      -5.3625145545549016e-03 2.0885635054652438e-03
      -1.6303868421604896e-02 1.6365974023925995e-02
      -5.9524581069514406e-03 -4.8965717773449876e-03
      1.3067632886374147e-02 1.5920663523138461e-02
      -1.0275166047181752e-02 -6.0540154160160708e-03
      -8.1314817638630989e-03 -2.8817083473432364e-03
      -1.4650031535997218e-02 -7.0657572242997582e-03
      1.4644875958341842e-02 1.2442457276870395e-02
      -1.0444421131581021e-01 -3.7646252863757855e-02
      -2.9113586839508279e-02 -1.2517341952676474e-02
      2.5888793327003019e-02 -6.2498819537148299e-03
      1.0851086713198408e-02 2.4375778241760068e-02
      3.1256779154505902e-03 -4.7954403180681178e-02
      -1.0697623327069344e-02 -2.3599136932982743e-02
      -1.0011554544013541e-02 1.4722643437725060e-02
      3.3104533412258753e-03 -1.0204383309893598e-02
      2.7144795120097771e-03 -2.0489839616173507e-02
      4.4977943996381858e-02 -4.6399451587675944e-02
      2.0465833117650951e-02 -4.0842671333413197e-03
      -3.6552369336965594e-03 -2.9585153022431906e-02
      -9.2100446956367502e-03 4.2106011144107574e-03
      -4.2223049223595072e-02 4.4903136944953584e-02
      -1.1981482219113226e-02 -9.7674249128996138e-03
      3.1702258455397252e-02 4.1032902426673595e-02
      -4.6796152687210574e-02 -1.2096227969246401e-02
      -1.7287768405010912e-02 -4.9682666539169994e-03
      -3.0172034767579341e-02 -1.4885661124341516e-02
      3.2987174132638360e-02 2.8197653033888187e-02
      -2.0118271289373039e-02 -8.6337790298631235e-03
      -7.7355220608073243e-03 -1.9118314947191319e-03
      5.4674269333077853e-03 -8.7877414160480495e-04
      2.6313764835821014e-03 5.7992055045614308e-03
      9.9601034805313414e-04 -1.2228786682122256e-02
      -1.7704943609961948e-03 -4.7912055420020012e-03
      -1.3187753474870475e-03 4.5043098498184437e-03
      -5.7124888197548213e-04 -2.7050275227065768e-03
      2.4904235590181593e-04 -4.4969545342945236e-03
      1.3670883814217829e-02 -1.3086538914083070e-02
      5.4443498590812560e-03 -1.2670074803439672e-03
      7.1740027248355957e-05 -6.2024729235856139e-03
      -2.5691962692630352e-03 1.5632204905106626e-03
      -1.1837270943184012e-02 1.2663075590522469e-02
      -3.3563434810200562e-03 -2.2731027635030311e-03
      7.6730338475145968e-03 1.1676586644029608e-02
      -1.2476267560274656e-02 -2.1494937574711060e-03
      -3.1945783055937938e-03 -2.1511871277265881e-03
      -7.0831111460869884e-03 -1.8746267174900634e-03
      7.2423961638821569e-03 5.4309909965073776e-03
      6.0430010458752778e-02 4.3368283740891729e-03
      7.1186686053624857e-03 4.2052865976347706e-03
      -7.7666560861714634e-03 3.8121445257823542e-03
      -4.9146932873493348e-03 -7.3593133813523309e-03
      -2.5820211303349320e-03 5.5063774029041391e-04
      4.7751679930494373e-03 5.9068719321598382e-03
      5.4808620963574459e-03 -6.5473691546866835e-03
      -2.9047077284525982e-04 3.2881248411283192e-03
      -1.7113399079166178e-03 5.7034698441822389e-03
      -5.4903494362112146e-04 -6.2529348300691253e-04
      -6.8704299992473671e-03 3.6022922204069449e-03
      8.5890883671606365e-04 7.9163377749225071e-03
      3.4905905042408808e-03 -2.6582576790937927e-03
      1.2194298556569914e-03 -3.9274293121135918e-04
      5.7479394923598765e-03 3.5227265411084882e-03
      -7.5334911180008598e-03 -2.2219370789269307e-03
      5.5239509753648151e-04 5.9756842652285563e-03
      6.0538963415036019e-03 1.9120831357773010e-03
      7.6666307167991329e-03 6.2809258043924534e-03
      -7.6016831676526276e-03 -7.6989145701677458e-03
      5.9651481989897559e-02 4.6329720789123610e-03
      8.2695835085289920e-03 5.9367280155168288e-03
      -7.3694886152236598e-03 1.9493776893188275e-03
      -5.0252758601100466e-03 -8.1035390881881112e-03
      -1.9015563567864125e-03 -3.9853347081722750e-05
      3.4008331899762568e-03 8.0531151920188466e-03
      5.1134408527109647e-03 -5.0675409066106769e-03
      -1.8048700592168253e-03 4.5814894999370104e-03
      -1.2528554514588939e-03 7.6261090473522600e-03
      1.1959161857798999e-03 8.9895022701974017e-04
      -6.8143577935747121e-03 1.6092762652484458e-03
      9.3050928610105793e-04 7.7524063325076541e-03
      4.1167274214566410e-03 -3.0434328972439354e-03
      5.8392737387284678e-04 -1.5327307829662637e-04
      3.9208344282625780e-03 4.8102199540643268e-03
      -7.5749030938124769e-03 -8.0322825052513120e-05
      -2.4152968675490164e-05 4.7361168025124769e-03
      6.5999854769232960e-03 2.9897622833172156e-03
      7.9375732572669628e-03 4.2528333920555435e-03
      -7.6956562769742044e-03 -7.8241674863683761e-03
      -1.4072627752267400e-01 -4.6871788006106634e-02
      -3.8296110459253595e-02 -1.5739632575620575e-02
      3.4981267204286189e-02 -9.4207997372335907e-03
      1.4430064570791910e-02 2.8606461281632970e-02
      3.7370948153213558e-03 -6.0373986027318111e-02
      -1.3376441730532894e-02 -3.0225366117976108e-02
      -1.3291469806848718e-02 2.0942604029016244e-02
      3.8200877631782162e-03 -1.2920966823297559e-02
      4.9278011116446066e-03 -2.3746544116835553e-02
      6.0315178375989618e-02 -6.0962103087349825e-02
      2.8447132655843001e-02 -5.7143775175807054e-03
      -5.3558722008380114e-03 -3.8072277899223309e-02
