<?xml version="1.0"?>
<opencv_storage>
<shapeML type_id="opencv-ml-ann-mlp">
  <layer_sizes type_id="opencv-matrix">
    <rows>1</rows>
    <cols>3</cols>
    <dt>i</dt>
    <data>
      1600 40 1</data></layer_sizes>
  <activation_function>SIGMOID_SYM</activation_function>
  <f_param1>5.9999999999999998e-01</f_param1>
  <f_param2>1.</f_param2>
  <min_val>-9.4999999999999996e-01</min_val>
  <max_val>9.4999999999999996e-01</max_val>
  <min_val1>-9.7999999999999998e-01</min_val1>
  <max_val1>9.7999999999999998e-01</max_val1>
  <training_params>
    <train_method>BACKPROP</train_method>
    <dw_scale>1.0000000000000001e-01</dw_scale>
    <moment_scale>1.0000000000000001e-01</moment_scale>
    <term_criteria><epsilon>9.9999999747524271e-07</epsilon>
      <iterations>4000</iterations></term_criteria></training_params>
  <input_scale>
    1. 0. 3.2341685865158010e-02 -1.2309149097933272e-01
    3.2341685865158010e-02 -1.2309149097933272e-01
    3.2341685865158010e-02 -1.2309149097933272e-01
    2.0691156264390810e-02 -1.9687480773953944e-01
    2.0691156264390810e-02 -1.9687480773953944e-01
    2.6507473917220650e-02 -1.5132998169159551e-01
    3.2341685865158010e-02 -1.2309149097933272e-01
    2.6507473917220650e-02 -1.5132998169159551e-01
    2.6507473917220650e-02 -1.5132998169159551e-01
    1.6551385419358317e-02 -2.5197631533948484e-01
    2.0691156264390810e-02 -1.9687480773953944e-01
    2.0691156264390810e-02 -1.9687480773953944e-01
    1.6551385419358317e-02 -2.5197631533948484e-01
    2.0691156264390810e-02 -1.9687480773953944e-01
    1.2437855520857690e-02 -3.5503580124836315e-01
    1.2093823411605425e-02 -3.6822984715932938e-01
    1.7624375510067070e-02 -2.3477246481693820e-01
    1.5667090665880880e-02 -2.6832815729997478e-01
    9.7766675389433962e-03 -5.0233101496735288e-01
    8.5698001754079649e-03 -6.5232807305344209e-01
    9.7766675389433962e-03 -5.0233101496735288e-01
    1.0787374317157514e-02 -4.3109245871924246e-01
    1.0586301684254996e-02 -4.4320263021395917e-01
    1.5667090665880880e-02 -2.6832815729997478e-01
    1.7624375510067070e-02 -2.3477246481693820e-01
    2.3044269526890572e-02 -1.7541160386140586e-01
    1.6551385419358317e-02 -2.5197631533948484e-01
    2.3044269526890572e-02 -1.7541160386140586e-01
    2.6507473917220650e-02 -1.5132998169159551e-01
    2.3044269526890572e-02 -1.7541160386140586e-01
    4.5565778790679246e-02 -8.6710996952411995e-02
    2.6507473917220650e-02 -1.5132998169159551e-01
    4.5565778790679246e-02 -8.6710996952411995e-02
    2.6507473917220650e-02 -1.5132998169159551e-01
    1.8961994135149474e-02 -2.1650635094610968e-01
    3.2341685865158010e-02 -1.2309149097933272e-01
    4.5565778790679246e-02 -8.6710996952411995e-02
    4.5565778790679246e-02 -8.6710996952411995e-02
    4.5565778790679246e-02 -8.6710996952411995e-02
    4.5565778790679246e-02 -8.6710996952411995e-02
    2.6507473917220650e-02 -1.5132998169159551e-01
    3.2341685865158010e-02 -1.2309149097933272e-01
    2.3044269526890572e-02 -1.7541160386140586e-01
    1.8961994135149474e-02 -2.1650635094610968e-01
    1.8961994135149474e-02 -2.1650635094610968e-01
    1.8961994135149474e-02 -2.1650635094610968e-01
    1.7624375510067070e-02 -2.3477246481693820e-01
    1.8961994135149474e-02 -2.1650635094610968e-01
    1.7624375510067070e-02 -2.3477246481693820e-01
    1.0586301684254996e-02 -4.4320263021395917e-01
    1.1500040524969167e-02 -3.9391929857916774e-01
    1.1005181119821019e-02 -4.1885390829169550e-01
    9.7766675389433962e-03 -5.0233101496735288e-01
    9.6456759961493360e-03 -5.1395616875004668e-01
    8.7715812140604834e-03 -6.1761096085567657e-01
    8.7003596003292095e-03 -6.2915286960589578e-01
    8.2178093703422547e-03 -7.3500332316083528e-01
    8.0201810758711682e-03 -8.0890109880894656e-01
    8.1788976522420113e-03 -7.4708736763762851e-01
    7.8650687815646526e-03 -9.2796072713833699e-01
    8.1084897627138487e-03 -7.7151674981045948e-01
    8.2593213925390985e-03 -7.2299880548122109e-01
    8.4005881618796161e-03 -6.8740633727619394e-01
    9.1979181990075164e-03 -5.6011203361120399e-01
    9.9166746781291382e-03 -4.9065338146265813e-01
    1.1241878760516626e-02 -4.0646942234853023e-01
    1.3249523403597275e-02 -3.2777738867854450e-01
    1.2820648017167004e-02 -3.4156502553198664e-01
    1.3733906283836948e-02 -3.1362502409359000e-01
    1.6551385419358317e-02 -2.5197631533948484e-01
    1.6551385419358317e-02 -2.5197631533948484e-01
    1.6551385419358317e-02 -2.5197631533948484e-01
    1.8961994135149474e-02 -2.1650635094610968e-01
    2.0691156264390810e-02 -1.9687480773953944e-01
    2.3044269526890572e-02 -1.7541160386140586e-01
    3.2341685865158010e-02 -1.2309149097933272e-01
    2.6507473917220650e-02 -1.5132998169159551e-01
    2.6507473917220650e-02 -1.5132998169159551e-01
    3.2341685865158010e-02 -1.2309149097933272e-01 1. 0.
    2.6507473917220650e-02 -1.5132998169159551e-01
    2.6507473917220650e-02 -1.5132998169159551e-01
    2.3044269526890572e-02 -1.7541160386140586e-01
    1.8961994135149474e-02 -2.1650635094610968e-01
    1.5667090665880880e-02 -2.6832815729997478e-01
    1.4922918782177779e-02 -2.8398091712353235e-01
    1.5667090665880880e-02 -2.6832815729997478e-01
    1.0400140598618528e-02 -4.5520018366341541e-01
    9.9166746781291382e-03 -4.9065338146265813e-01
    9.2996190543019382e-03 -5.4860812406161807e-01
    9.6456759961493360e-03 -5.1395616875004668e-01
    8.7715812140604834e-03 -6.1761096085567657e-01
    8.3035414458505815e-03 -7.1106819470996585e-01
    8.3035414458505815e-03 -7.1106819470996585e-01
    7.9720447435681040e-03 -8.3438751886972129e-01
    7.9148707097310041e-03 -8.7358908803672797e-01
    7.8747771123206124e-03 -9.1412058195632184e-01
    7.8466339725321663e-03 -1.0303098861694289e+00
    8.1788976522420113e-03 -7.4708736763762851e-01
    7.9950787261102683e-03 -8.2158383625774922e-01
    8.0474079907300305e-03 -7.9633305938119558e-01
    8.1424877724649656e-03 -7.5925660236529668e-01
    8.4005881618796161e-03 -6.8740633727619394e-01
    7.9950787261102683e-03 -8.2158383625774922e-01
    7.9950787261102683e-03 -8.2158383625774922e-01
    8.7715812140604834e-03 -6.1761096085567657e-01
    9.7766675389433962e-03 -5.0233101496735288e-01
    1.0227339070357264e-02 -4.6709936649691386e-01
    1.1241878760516626e-02 -4.0646942234853023e-01
    1.2820648017167004e-02 -3.4156502553198664e-01
    1.4286166903690771e-02 -2.9904998630487023e-01
    1.3733906283836948e-02 -3.1362502409359000e-01
    1.2820648017167004e-02 -3.4156502553198664e-01
    1.5667090665880880e-02 -2.6832815729997478e-01
    1.5667090665880880e-02 -2.6832815729997478e-01
    2.6507473917220650e-02 -1.5132998169159551e-01
    2.0691156264390810e-02 -1.9687480773953944e-01
    2.6507473917220650e-02 -1.5132998169159551e-01
    4.5565778790679246e-02 -8.6710996952411995e-02 1. 0.
    3.2341685865158010e-02 -1.2309149097933272e-01
    2.6507473917220650e-02 -1.5132998169159551e-01
    2.0691156264390810e-02 -1.9687480773953944e-01
    1.5667090665880880e-02 -2.6832815729997478e-01
    1.4922918782177779e-02 -2.8398091712353235e-01
    1.3733906283836948e-02 -3.1362502409359000e-01
    1.0066566448598767e-02 -4.7891314261057560e-01
    9.5229382767871053e-03 -5.2553827281224363e-01
    9.0120825133710517e-03 -5.8309518948452999e-01
    8.8470876450977946e-03 -6.0609152673132649e-01
    8.1424877724649656e-03 -7.5925660236529668e-01
    8.2178093703422547e-03 -7.3500332316083528e-01
    8.0201810758711682e-03 -8.0890109880894656e-01
    7.8996523727356133e-03 -8.8694231304333804e-01
    7.8510114534710174e-03 -9.5618288746751501e-01
    7.8862970759948046e-03 -1.1105554165971789e+00
    7.9148707097310041e-03 -1.1447029429446780e+00
    7.8510114534710174e-03 -9.5618288746751501e-01
    7.8996523727356133e-03 -8.8694231304333804e-01
    7.8466339725321663e-03 -1.0303098861694289e+00
    7.8431372549019607e-03 -1. 7.8466339725321663e-03
    -9.7058177682627367e-01 7.8747771123206124e-03
    -9.1412058195632184e-01 7.9148707097310041e-03
    -8.7358908803672797e-01 8.0201810758711682e-03
    -8.0890109880894656e-01 8.4005881618796161e-03
    -6.8740633727619394e-01 8.0201810758711682e-03
    -8.0890109880894656e-01 9.9166746781291382e-03
    -4.9065338146265813e-01 1.0066566448598767e-02
    -4.7891314261057560e-01 1.0787374317157514e-02
    -4.3109245871924246e-01 1.1500040524969167e-02
    -3.9391929857916774e-01 1.3733906283836948e-02
    -3.1362502409359000e-01 1.3733906283836948e-02
    -3.1362502409359000e-01 1.2820648017167004e-02
    -3.4156502553198664e-01 1.4286166903690771e-02
    -2.9904998630487023e-01 1.7624375510067070e-02
    -2.3477246481693820e-01 1.8961994135149474e-02
    -2.1650635094610968e-01 2.6507473917220650e-02
    -1.5132998169159551e-01 3.2341685865158010e-02
    -1.2309149097933272e-01 1. 0. 3.2341685865158010e-02
    -1.2309149097933272e-01 3.2341685865158010e-02
    -1.2309149097933272e-01 1.5667090665880880e-02
    -2.6832815729997478e-01 1.4286166903690771e-02
    -2.9904998630487023e-01 1.4286166903690771e-02
    -2.9904998630487023e-01 1.0400140598618528e-02
    -4.5520018366341541e-01 9.6456759961493360e-03
    -5.1395616875004668e-01 9.2996190543019382e-03
    -5.4860812406161807e-01 8.7715812140604834e-03
    -6.1761096085567657e-01 8.1084897627138487e-03
    -7.7151674981045948e-01 8.0474079907300305e-03
    -7.9633305938119558e-01 7.9319839636772960e-03
    -8.6038348441827994e-01 7.8747771123206124e-03
    -9.1412058195632184e-01 7.8650687815646526e-03
    -9.2796072713833699e-01 7.9510283703548550e-03
    -8.4731854573632337e-01 7.9148707097310041e-03
    -1.1447029429446780e+00 7.8431372549019607e-03 -1.
    7.8510114534710174e-03 -9.5618288746751501e-01
    7.8650687815646526e-03 -9.2796072713833699e-01
    7.8440109960348330e-03 -1.0150384378451045e+00
    7.8510114534710174e-03 -9.5618288746751501e-01
    7.8650687815646526e-03 -9.2796072713833699e-01
    7.8996523727356133e-03 -8.8694231304333804e-01
    7.9720447435681040e-03 -8.3438751886972129e-01
    7.9319839636772960e-03 -8.6038348441827994e-01
    7.9319839636772960e-03 -8.6038348441827994e-01
    8.0201810758711682e-03 -8.0890109880894656e-01
    8.2178093703422547e-03 -7.3500332316083528e-01
    8.3505873829352525e-03 -6.9920589878010098e-01
    8.7715812140604834e-03 -6.1761096085567657e-01
    1.0586301684254996e-02 -4.4320263021395917e-01
    1.0787374317157514e-02 -4.3109245871924246e-01
    1.3249523403597275e-02 -3.2777738867854450e-01
    1.3733906283836948e-02 -3.1362502409359000e-01
    1.3249523403597275e-02 -3.2777738867854450e-01
    1.5667090665880880e-02 -2.6832815729997478e-01
    1.5667090665880880e-02 -2.6832815729997478e-01
    2.6507473917220650e-02 -1.5132998169159551e-01
    3.2341685865158010e-02 -1.2309149097933272e-01 1. 0.
    3.2341685865158010e-02 -1.2309149097933272e-01
    1.8961994135149474e-02 -2.1650635094610968e-01
    1.6551385419358317e-02 -2.5197631533948484e-01
    1.4922918782177779e-02 -2.8398091712353235e-01
    1.0227339070357264e-02 -4.6709936649691386e-01
    9.1979181990075164e-03 -5.6011203361120399e-01
    9.1022123068654256e-03 -5.7160534747964598e-01
    8.4536849588003372e-03 -6.7566392469217618e-01
    7.9950787261102683e-03 -8.2158383625774922e-01
    8.1084897627138487e-03 -7.7151674981045948e-01
    8.0201810758711682e-03 -8.0890109880894656e-01
    7.8510114534710174e-03 -9.5618288746751501e-01
    8.2593213925390985e-03 -7.2299880548122109e-01
    8.0768214764781222e-03 -7.8387360672834316e-01
    7.8466339725321663e-03 -9.7058177682627367e-01
    8.2178093703422547e-03 -1.3605380662764397e+00
    7.9319839636772960e-03 -1.1622724263194306e+00
    8.0768214764781222e-03 -1.2757158697735780e+00
    7.8440109960348347e-03 -9.8518436614377813e-01
    7.8466339725321663e-03 -9.7058177682627367e-01
    7.9720447435681022e-03 -1.1984838907401447e+00
    7.9148707097310041e-03 -8.7358908803672797e-01
    7.8996523727356133e-03 -8.8694231304333804e-01
    7.8466339725321663e-03 -9.7058177682627367e-01
    7.8466339725321663e-03 -9.7058177682627367e-01
    7.8431372549019607e-03 -1. 7.8862970759948046e-03
    -9.0045033778149641e-01 8.1788976522420113e-03
    -7.4708736763762851e-01 8.1788976522420113e-03
    -7.4708736763762851e-01 8.4536849588003372e-03
    -6.7566392469217618e-01 8.5698001754079649e-03
    -6.5232807305344209e-01 1.0227339070357264e-02
    -4.6709936649691386e-01 1.0400140598618528e-02
    -4.5520018366341541e-01 1.2437855520857690e-02
    -3.5503580124836315e-01 1.3249523403597275e-02
    -3.2777738867854450e-01 1.4922918782177779e-02
    -2.8398091712353235e-01 1.5667090665880880e-02
    -2.6832815729997478e-01 2.0691156264390810e-02
    -1.9687480773953944e-01 2.3044269526890572e-02
    -1.7541160386140586e-01 1. 0. 2.6507473917220650e-02
    -1.5132998169159551e-01 1.8961994135149474e-02
    -2.1650635094610968e-01 1.1005181119821019e-02
    -4.1885390829169550e-01 1.0787374317157514e-02
    -4.3109245871924246e-01 9.9166746781291382e-03
    -4.9065338146265813e-01 9.1022123068654256e-03
    -5.7160534747964598e-01 8.5100324338891527e-03
    -6.6397305295754550e-01 8.1084897627138487e-03
    -7.7151674981045948e-01 8.0201810758711682e-03
    -8.0890109880894656e-01 8.4536849588003372e-03
    -6.7566392469217618e-01 7.8996523727356133e-03
    -8.8694231304333804e-01 7.8571522533566526e-03
    -9.4197873843413893e-01 7.8571522533566526e-03
    -9.4197873843413893e-01 8.1788976522420096e-03
    -1.3385315336840842e+00 7.9319839636772960e-03
    -1.1622724263194306e+00 8.0201810758711682e-03
    -1.2362450755382013e+00 8.0474079907300322e-03
    -1.2557559782549625e+00 8.1788976522420096e-03
    -1.3385315336840842e+00 8.0474079907300322e-03
    -1.2557559782549625e+00 7.9720447435681022e-03
    -1.1984838907401447e+00 7.8747771123206106e-03
    -1.0939475816854340e+00 7.8431372549019607e-03 -1.
    7.8571522533566526e-03 -9.4197873843413893e-01
    7.8996523727356133e-03 -8.8694231304333804e-01
    7.8440109960348330e-03 -1.0150384378451045e+00
    7.8571522533566508e-03 -1.0615950861718071e+00
    7.8510114534710174e-03 -9.5618288746751501e-01
    7.8650687815646526e-03 -9.2796072713833699e-01
    7.8466339725321663e-03 -1.0303098861694289e+00
    8.0768214764781222e-03 -7.8387360672834316e-01
    8.2593213925390985e-03 -7.2299880548122109e-01
    8.5100324338891527e-03 -6.6397305295754550e-01
    1.0400140598618528e-02 -4.5520018366341541e-01
    1.0227339070357264e-02 -4.6709936649691386e-01
    1.3249523403597275e-02 -3.2777738867854450e-01
    1.3249523403597275e-02 -3.2777738867854450e-01
    1.3733906283836948e-02 -3.1362502409359000e-01
    1.7624375510067070e-02 -2.3477246481693820e-01
    2.6507473917220650e-02 -1.5132998169159551e-01 1. 0.
    2.0691156264390810e-02 -1.9687480773953944e-01
    1.8961994135149474e-02 -2.1650635094610968e-01
    1.0227339070357264e-02 -4.6709936649691386e-01
    1.0227339070357264e-02 -4.6709936649691386e-01
    1.1500040524969167e-02 -3.9391929857916774e-01
    8.3035414458505815e-03 -7.1106819470996585e-01
    8.0201810758711682e-03 -8.0890109880894656e-01
    7.9720447435681040e-03 -8.3438751886972129e-01
    8.0768214764781222e-03 -7.8387360672834316e-01
    7.9148707097310041e-03 -8.7358908803672797e-01
    8.0768214764781222e-03 -1.2757158697735780e+00
    8.0474079907300322e-03 -1.2557559782549625e+00
    8.3035414458505815e-03 -1.4063348739819324e+00
    8.2593213925391002e-03 -1.3831281496162493e+00
    7.9950787261102683e-03 -1.2171612389003692e+00
    7.8571522533566508e-03 -1.0615950861718071e+00
    7.9510283703548550e-03 -1.1801936887041646e+00
    7.8440109960348347e-03 -9.8518436614377813e-01
    7.8466339725321663e-03 -9.7058177682627367e-01
    7.8747771123206106e-03 -1.0939475816854340e+00
    7.8440109960348330e-03 -1.0150384378451045e+00
    8.1084897627138487e-03 -1.2961481396815719e+00
    8.0201810758711682e-03 -1.2362450755382013e+00
    7.9720447435681022e-03 -1.1984838907401447e+00
    7.8431372549019607e-03 -1. 7.8510114534710174e-03
    -1.0458250331675945e+00 7.8862970759948046e-03
    -1.1105554165971789e+00 7.8650687815646526e-03
    -9.2796072713833699e-01 7.8571522533566526e-03
    -9.4197873843413893e-01 7.8650687815646526e-03
    -9.2796072713833699e-01 8.0201810758711682e-03
    -8.0890109880894656e-01 8.3035414458505815e-03
    -7.1106819470996585e-01 8.6331743508600411e-03
    -6.4072327551718733e-01 1.0787374317157514e-02
    -4.3109245871924246e-01 1.1005181119821019e-02
    -4.1885390829169550e-01 1.3733906283836948e-02
    -3.1362502409359000e-01 1.4286166903690771e-02
    -2.9904998630487023e-01 1.7624375510067070e-02
    -2.3477246481693820e-01 2.0691156264390810e-02
    -1.9687480773953944e-01 4.5565778790679246e-02
    -8.6710996952411995e-02 2.0691156264390810e-02
    -1.9687480773953944e-01 1.6551385419358317e-02
    -2.5197631533948484e-01 1.3249523403597275e-02
    -3.2777738867854450e-01 1.2820648017167004e-02
    -3.4156502553198664e-01 8.9271534186459896e-03
    -5.9458839001056307e-01 8.1084897627138487e-03
    -7.7151674981045948e-01 7.8862970759948046e-03
    -9.0045033778149641e-01 7.8650687815646526e-03
    -9.2796072713833699e-01 7.8510114534710174e-03
    -9.5618288746751501e-01 7.8510114534710174e-03
    -1.0458250331675945e+00 7.9510283703548550e-03
    -1.1801936887041646e+00 7.9148707097310041e-03
    -1.1447029429446780e+00 7.9510283703548550e-03
    -1.1801936887041646e+00 7.8510114534710174e-03
    -1.0458250331675945e+00 7.8510114534710174e-03
    -1.0458250331675945e+00 7.8440109960348347e-03
    -9.8518436614377813e-01 7.8510114534710174e-03
    -9.5618288746751501e-01 7.8440109960348330e-03
    -1.0150384378451045e+00 7.8466339725321663e-03
    -1.0303098861694289e+00 7.8862970759948046e-03
    -9.0045033778149641e-01 7.8440109960348347e-03
    -9.8518436614377813e-01 7.8510114534710174e-03
    -9.5618288746751501e-01 7.8650687815646526e-03
    -9.2796072713833699e-01 7.8650687815646526e-03
    -1.0776318121606494e+00 8.0474079907300322e-03
    -1.2557559782549625e+00 7.9950787261102683e-03
    -1.2171612389003692e+00 7.8510114534710174e-03
    -9.5618288746751501e-01 7.8571522533566526e-03
    -9.4197873843413893e-01 7.8440109960348330e-03
    -1.0150384378451045e+00 7.8431372549019607e-03 -1.
    7.8571522533566526e-03 -9.4197873843413893e-01
    7.8996523727356133e-03 -8.8694231304333804e-01
    8.2593213925390985e-03 -7.2299880548122109e-01
    8.7715812140604834e-03 -6.1761096085567657e-01
    1.1005181119821019e-02 -4.1885390829169550e-01
    1.1241878760516626e-02 -4.0646942234853023e-01
    1.3733906283836948e-02 -3.1362502409359000e-01
    1.5667090665880880e-02 -2.6832815729997478e-01
    1.8961994135149474e-02 -2.1650635094610968e-01 1. 0.
    2.0691156264390810e-02 -1.9687480773953944e-01
    1.5667090665880880e-02 -2.6832815729997478e-01
    1.3249523403597275e-02 -3.2777738867854450e-01
    9.2996190543019382e-03 -5.4860812406161807e-01
    8.1788976522420113e-03 -7.4708736763762851e-01
    8.1424877724649656e-03 -7.5925660236529668e-01
    7.8996523727356133e-03 -8.8694231304333804e-01
    7.8431372549019607e-03 -1. 7.9720447435681040e-03
    -8.3438751886972129e-01 7.8466339725321663e-03
    -1.0303098861694289e+00 7.8466339725321663e-03
    -9.7058177682627367e-01 7.8440109960348330e-03
    -1.0150384378451045e+00 7.9319839636772960e-03
    -1.1622724263194306e+00 7.8440109960348330e-03
    -1.0150384378451045e+00 7.9319839636772960e-03
    -8.6038348441827994e-01 7.9720447435681040e-03
    -8.3438751886972129e-01 7.9319839636772960e-03
    -8.6038348441827994e-01 7.9510283703548550e-03
    -8.4731854573632337e-01 7.8862970759948046e-03
    -9.0045033778149641e-01 7.8466339725321663e-03
    -1.0303098861694289e+00 7.8431372549019607e-03 -1.
    7.8571522533566526e-03 -9.4197873843413893e-01
    7.8862970759948046e-03 -9.0045033778149641e-01
    7.8862970759948046e-03 -9.0045033778149641e-01
    8.0474079907300322e-03 -1.2557559782549625e+00
    7.9510283703548550e-03 -1.1801936887041646e+00
    8.1788976522420096e-03 -1.3385315336840842e+00
    7.8431372549019607e-03 -1. 7.8440109960348330e-03
    -1.0150384378451045e+00 7.8466339725321663e-03
    -9.7058177682627367e-01 7.8747771123206124e-03
    -9.1412058195632184e-01 7.8571522533566526e-03
    -9.4197873843413893e-01 7.8747771123206124e-03
    -9.1412058195632184e-01 8.1084897627138487e-03
    -7.7151674981045948e-01 9.0120825133710517e-03
    -5.8309518948452999e-01 1.1005181119821019e-02
    -4.1885390829169550e-01 1.2437855520857690e-02
    -3.5503580124836315e-01 1.4922918782177779e-02
    -2.8398091712353235e-01 1.5667090665880880e-02
    -2.6832815729997478e-01 3.2341685865158010e-02
    -1.2309149097933272e-01 1.6551385419358317e-02
    -2.5197631533948484e-01 1.5667090665880880e-02
    -2.6832815729997478e-01 1.0400140598618528e-02
    -4.5520018366341541e-01 8.3505873829352525e-03
    -6.9920589878010098e-01 8.4005881618796161e-03
    -6.8740633727619394e-01 8.3035414458505815e-03
    -7.1106819470996585e-01 7.9319839636772960e-03
    -8.6038348441827994e-01 7.9950787261102683e-03
    -8.2158383625774922e-01 7.8466339725321663e-03
    -9.7058177682627367e-01 7.9148707097310041e-03
    -1.1447029429446780e+00 7.8440109960348347e-03
    -9.8518436614377813e-01 7.8466339725321663e-03
    -9.7058177682627367e-01 7.8431372549019607e-03 -1.
    7.8650687815646526e-03 -1.0776318121606494e+00
    7.8996523727356133e-03 -8.8694231304333804e-01
    7.8747771123206124e-03 -9.1412058195632184e-01
    7.9148707097310041e-03 -8.7358908803672797e-01
    8.0474079907300305e-03 -7.9633305938119558e-01
    7.8996523727356133e-03 -8.8694231304333804e-01
    7.8996523727356133e-03 -8.8694231304333804e-01
    7.8862970759948046e-03 -9.0045033778149641e-01
    7.8747771123206124e-03 -9.1412058195632184e-01
    7.8862970759948046e-03 -9.0045033778149641e-01
    7.8996523727356133e-03 -8.8694231304333804e-01
    7.8466339725321663e-03 -9.7058177682627367e-01
    7.8440109960348347e-03 -9.8518436614377813e-01
    8.1424877724649656e-03 -1.3170777796132698e+00
    7.9720447435681022e-03 -1.1984838907401447e+00
    8.0768214764781222e-03 -1.2757158697735780e+00
    7.8571522533566508e-03 -1.0615950861718071e+00
    7.8510114534710174e-03 -9.5618288746751501e-01
    7.8747771123206124e-03 -9.1412058195632184e-01
    7.8650687815646526e-03 -9.2796072713833699e-01
    7.9720447435681040e-03 -8.3438751886972129e-01
    8.6331743508600411e-03 -6.4072327551718733e-01
    1.0400140598618528e-02 -4.5520018366341541e-01
    1.2093823411605425e-02 -3.6822984715932938e-01
    1.3733906283836948e-02 -3.1362502409359000e-01
    1.6551385419358317e-02 -2.5197631533948484e-01
    2.6507473917220650e-02 -1.5132998169159551e-01
    1.4922918782177779e-02 -2.8398091712353235e-01
    1.4286166903690771e-02 -2.9904998630487023e-01
    9.0120825133710517e-03 -5.8309518948452999e-01
    8.3035414458505815e-03 -7.1106819470996585e-01
    8.7003596003292095e-03 -6.2915286960589578e-01
    8.4005881618796161e-03 -6.8740633727619394e-01
    7.8996523727356133e-03 -8.8694231304333804e-01
    7.8466339725321663e-03 -9.7058177682627367e-01
    7.8510114534710174e-03 -1.0458250331675945e+00
    7.8996523727356115e-03 -1.1274690420042430e+00
    7.8510114534710174e-03 -1.0458250331675945e+00
    7.8571522533566526e-03 -9.4197873843413893e-01
    8.1084897627138487e-03 -7.7151674981045948e-01
    7.9148707097310041e-03 -8.7358908803672797e-01
    7.8996523727356133e-03 -8.8694231304333804e-01
    7.9148707097310041e-03 -8.7358908803672797e-01
    8.0201810758711682e-03 -8.0890109880894656e-01
    7.9148707097310041e-03 -8.7358908803672797e-01
    7.8996523727356133e-03 -8.8694231304333804e-01
    8.0201810758711682e-03 -8.0890109880894656e-01
    8.1084897627138487e-03 -7.7151674981045948e-01
    7.9510283703548550e-03 -8.4731854573632337e-01
    7.9319839636772960e-03 -8.6038348441827994e-01
    7.8510114534710174e-03 -9.5618288746751501e-01
    7.8440109960348347e-03 -9.8518436614377813e-01
    7.8862970759948046e-03 -9.0045033778149641e-01
    7.8466339725321663e-03 -1.0303098861694289e+00
    8.1424877724649656e-03 -1.3170777796132698e+00
    8.1084897627138487e-03 -1.2961481396815719e+00
    8.0201810758711682e-03 -1.2362450755382013e+00
    7.8440109960348347e-03 -9.8518436614377813e-01
    7.8650687815646526e-03 -9.2796072713833699e-01
    7.8571522533566526e-03 -9.4197873843413893e-01
    7.8747771123206124e-03 -9.1412058195632184e-01
    8.0768214764781222e-03 -7.8387360672834316e-01
    9.6456759961493360e-03 -5.1395616875004668e-01
    1.0400140598618528e-02 -4.5520018366341541e-01
    1.3733906283836948e-02 -3.1362502409359000e-01
    1.6551385419358317e-02 -2.5197631533948484e-01
    3.2341685865158010e-02 -1.2309149097933272e-01
    1.4922918782177779e-02 -2.8398091712353235e-01
    1.1241878760516626e-02 -4.0646942234853023e-01
    8.7715812140604834e-03 -6.1761096085567657e-01
    8.4005881618796161e-03 -6.8740633727619394e-01
    8.0768214764781222e-03 -7.8387360672834316e-01
    7.9720447435681040e-03 -8.3438751886972129e-01
    8.0201810758711682e-03 -8.0890109880894656e-01
    7.8466339725321663e-03 -1.0303098861694289e+00
    7.8747771123206106e-03 -1.0939475816854340e+00
    7.8650687815646526e-03 -9.2796072713833699e-01
    7.8431372549019607e-03 -1. 7.8466339725321663e-03
    -9.7058177682627367e-01 8.0474079907300305e-03
    -7.9633305938119558e-01 7.8996523727356133e-03
    -8.8694231304333804e-01 7.8996523727356133e-03
    -8.8694231304333804e-01 7.9319839636772960e-03
    -8.6038348441827994e-01 7.9319839636772960e-03
    -8.6038348441827994e-01 7.9510283703548550e-03
    -8.4731854573632337e-01 7.9319839636772960e-03
    -8.6038348441827994e-01 7.9950787261102683e-03
    -8.2158383625774922e-01 8.0474079907300305e-03
    -7.9633305938119558e-01 8.0474079907300305e-03
    -7.9633305938119558e-01 7.9950787261102683e-03
    -8.2158383625774922e-01 7.8996523727356133e-03
    -8.8694231304333804e-01 7.8650687815646526e-03
    -9.2796072713833699e-01 7.8510114534710174e-03
    -1.0458250331675945e+00 7.8431372549019607e-03 -1.
    8.1788976522420096e-03 -1.3385315336840842e+00
    7.9950787261102683e-03 -1.2171612389003692e+00
    8.0768214764781222e-03 -1.2757158697735780e+00
    7.8510114534710174e-03 -1.0458250331675945e+00
    7.8440109960348347e-03 -9.8518436614377813e-01
    7.8440109960348330e-03 -1.0150384378451045e+00
    7.8571522533566526e-03 -9.4197873843413893e-01
    7.8996523727356133e-03 -8.8694231304333804e-01
    8.5698001754079649e-03 -6.5232807305344209e-01
    9.6456759961493360e-03 -5.1395616875004668e-01
    1.3733906283836948e-02 -3.1362502409359000e-01
    1.6551385419358317e-02 -2.5197631533948484e-01
    2.3044269526890572e-02 -1.7541160386140586e-01
    1.4286166903690771e-02 -2.9904998630487023e-01
    9.0120825133710517e-03 -5.8309518948452999e-01
    8.5698001754079649e-03 -6.5232807305344209e-01
    7.9319839636772960e-03 -8.6038348441827994e-01
    7.9510283703548550e-03 -8.4731854573632337e-01
    8.1084897627138487e-03 -7.7151674981045948e-01
    7.8571522533566508e-03 -1.0615950861718071e+00
    7.8996523727356115e-03 -1.1274690420042430e+00
    7.8650687815646526e-03 -9.2796072713833699e-01
    7.8510114534710174e-03 -9.5618288746751501e-01
    7.8466339725321663e-03 -9.7058177682627367e-01
    7.8440109960348330e-03 -1.0150384378451045e+00
    7.9319839636772960e-03 -8.6038348441827994e-01
    7.9510283703548550e-03 -8.4731854573632337e-01
    7.9319839636772960e-03 -8.6038348441827994e-01
    7.9950787261102683e-03 -8.2158383625774922e-01
    8.3505873829352525e-03 -6.9920589878010098e-01
    7.8996523727356133e-03 -8.8694231304333804e-01
    7.9950787261102683e-03 -8.2158383625774922e-01
    8.1424877724649656e-03 -7.5925660236529668e-01
    8.1424877724649656e-03 -7.5925660236529668e-01
    8.2593213925390985e-03 -7.2299880548122109e-01
    7.8747771123206124e-03 -9.1412058195632184e-01
    7.8510114534710174e-03 -9.5618288746751501e-01
    7.8510114534710174e-03 -9.5618288746751501e-01
    7.8510114534710174e-03 -1.0458250331675945e+00
    7.8571522533566526e-03 -9.4197873843413893e-01
    7.9148707097310041e-03 -1.1447029429446780e+00
    7.9510283703548550e-03 -1.1801936887041646e+00
    8.0201810758711682e-03 -1.2362450755382013e+00
    7.9950787261102683e-03 -1.2171612389003692e+00
    7.8440109960348347e-03 -9.8518436614377813e-01
    7.8862970759948046e-03 -9.0045033778149641e-01
    7.8440109960348347e-03 -9.8518436614377813e-01
    7.8747771123206124e-03 -9.1412058195632184e-01
    8.3035414458505815e-03 -7.1106819470996585e-01
    9.1979181990075164e-03 -5.6011203361120399e-01
    9.6456759961493360e-03 -5.1395616875004668e-01
    1.4286166903690771e-02 -2.9904998630487023e-01
    1.8961994135149474e-02 -2.1650635094610968e-01
    1.2437855520857690e-02 -3.5503580124836315e-01
    9.0120825133710517e-03 -5.8309518948452999e-01
    8.5698001754079649e-03 -6.5232807305344209e-01
    7.9720447435681040e-03 -8.3438751886972129e-01
    7.9148707097310041e-03 -8.7358908803672797e-01
    7.8747771123206124e-03 -9.1412058195632184e-01
    7.8996523727356115e-03 -1.1274690420042430e+00
    7.9148707097310041e-03 -1.1447029429446780e+00
    7.8862970759948046e-03 -1.1105554165971789e+00
    7.8466339725321663e-03 -1.0303098861694289e+00
    7.8440109960348347e-03 -9.8518436614377813e-01
    7.9319839636772960e-03 -8.6038348441827994e-01
    7.8747771123206124e-03 -9.1412058195632184e-01
    7.9510283703548550e-03 -8.4731854573632337e-01
    8.2178093703422547e-03 -7.3500332316083528e-01
    8.2178093703422547e-03 -7.3500332316083528e-01
    8.3505873829352525e-03 -6.9920589878010098e-01
    8.5100324338891527e-03 -6.6397305295754550e-01
    8.5100324338891527e-03 -6.6397305295754550e-01
    8.5698001754079649e-03 -6.5232807305344209e-01
    8.4005881618796161e-03 -6.8740633727619394e-01
    8.1788976522420113e-03 -7.4708736763762851e-01
    8.0768214764781222e-03 -7.8387360672834316e-01
    7.9720447435681040e-03 -8.3438751886972129e-01
    7.8862970759948046e-03 -9.0045033778149641e-01
    7.8510114534710174e-03 -9.5618288746751501e-01
    7.8862970759948046e-03 -9.0045033778149641e-01
    7.8650687815646526e-03 -1.0776318121606494e+00
    7.8747771123206106e-03 -1.0939475816854340e+00
    8.2593213925391002e-03 -1.3831281496162493e+00
    8.2593213925391002e-03 -1.3831281496162493e+00
    7.9720447435681022e-03 -1.1984838907401447e+00
    7.8466339725321663e-03 -9.7058177682627367e-01
    7.8862970759948046e-03 -9.0045033778149641e-01
    7.8650687815646526e-03 -9.2796072713833699e-01
    8.0768214764781222e-03 -7.8387360672834316e-01
    8.6331743508600411e-03 -6.4072327551718733e-01
    9.9166746781291382e-03 -4.9065338146265813e-01
    1.2820648017167004e-02 -3.4156502553198664e-01
    2.6507473917220650e-02 -1.5132998169159551e-01
    1.2820648017167004e-02 -3.4156502553198664e-01
    8.7715812140604834e-03 -6.1761096085567657e-01
    8.7003596003292095e-03 -6.2915286960589578e-01
    8.0201810758711682e-03 -8.0890109880894656e-01
    7.8862970759948046e-03 -9.0045033778149641e-01
    7.8747771123206124e-03 -9.1412058195632184e-01
    7.9319839636772960e-03 -1.1622724263194306e+00
    7.9720447435681022e-03 -1.1984838907401447e+00
    7.8571522533566508e-03 -1.0615950861718071e+00
    7.8510114534710174e-03 -9.5618288746751501e-01
    7.8862970759948046e-03 -9.0045033778149641e-01
    7.9510283703548550e-03 -8.4731854573632337e-01
    8.1424877724649656e-03 -7.5925660236529668e-01
    8.0474079907300305e-03 -7.9633305938119558e-01
    8.3035414458505815e-03 -7.1106819470996585e-01
    8.4536849588003372e-03 -6.7566392469217618e-01
    8.7715812140604834e-03 -6.1761096085567657e-01
    8.4536849588003372e-03 -6.7566392469217618e-01
    8.5100324338891527e-03 -6.6397305295754550e-01
    8.5698001754079649e-03 -6.5232807305344209e-01
    8.4536849588003372e-03 -6.7566392469217618e-01
    8.3505873829352525e-03 -6.9920589878010098e-01
    8.3505873829352525e-03 -6.9920589878010098e-01
    7.9950787261102683e-03 -8.2158383625774922e-01
    7.9950787261102683e-03 -8.2158383625774922e-01
    7.8996523727356133e-03 -8.8694231304333804e-01
    7.8747771123206124e-03 -9.1412058195632184e-01
    7.8440109960348347e-03 -9.8518436614377813e-01
    7.9510283703548550e-03 -1.1801936887041646e+00
    7.9720447435681022e-03 -1.1984838907401447e+00
    8.4536849588003355e-03 -1.4800257398019094e+00
    8.1084897627138487e-03 -1.2961481396815719e+00
    7.8747771123206106e-03 -1.0939475816854340e+00
    7.8440109960348330e-03 -1.0150384378451045e+00
    7.8440109960348347e-03 -9.8518436614377813e-01
    7.9950787261102683e-03 -8.2158383625774922e-01
    8.0768214764781222e-03 -7.8387360672834316e-01
    9.2996190543019382e-03 -5.4860812406161807e-01
    1.2437855520857690e-02 -3.5503580124836315e-01
    2.0691156264390810e-02 -1.9687480773953944e-01
    1.2820648017167004e-02 -3.4156502553198664e-01
    9.1022123068654256e-03 -5.7160534747964598e-01
    8.3035414458505815e-03 -7.1106819470996585e-01
    7.8650687815646526e-03 -9.2796072713833699e-01
    7.8466339725321663e-03 -9.7058177682627367e-01
    7.8510114534710174e-03 -9.5618288746751501e-01
    7.9510283703548550e-03 -1.1801936887041646e+00
    7.9950787261102683e-03 -1.2171612389003692e+00
    7.8431372549019607e-03 -1. 7.8466339725321663e-03
    -9.7058177682627367e-01 7.8862970759948046e-03
    -9.0045033778149641e-01 8.0474079907300305e-03
    -7.9633305938119558e-01 8.2593213925390985e-03
    -7.2299880548122109e-01 8.4005881618796161e-03
    -6.8740633727619394e-01 8.3035414458505815e-03
    -7.1106819470996585e-01 8.5100324338891527e-03
    -6.6397305295754550e-01 8.7715812140604834e-03
    -6.1761096085567657e-01 8.7003596003292095e-03
    -6.2915286960589578e-01 8.5698001754079649e-03
    -6.5232807305344209e-01 8.4536849588003372e-03
    -6.7566392469217618e-01 8.4005881618796161e-03
    -6.8740633727619394e-01 8.3505873829352525e-03
    -6.9920589878010098e-01 8.3505873829352525e-03
    -6.9920589878010098e-01 8.5698001754079649e-03
    -6.5232807305344209e-01 8.6331743508600411e-03
    -6.4072327551718733e-01 8.3035414458505815e-03
    -7.1106819470996585e-01 7.8996523727356133e-03
    -8.8694231304333804e-01 7.8571522533566526e-03
    -9.4197873843413893e-01 7.8510114534710174e-03
    -9.5618288746751501e-01 7.9510283703548550e-03
    -1.1801936887041646e+00 8.0201810758711682e-03
    -1.2362450755382013e+00 8.1788976522420096e-03
    -1.3385315336840842e+00 7.8510114534710174e-03
    -1.0458250331675945e+00 7.8440109960348330e-03
    -1.0150384378451045e+00 7.8650687815646526e-03
    -1.0776318121606494e+00 7.8650687815646526e-03
    -1.0776318121606494e+00 8.2593213925390985e-03
    -7.2299880548122109e-01 9.4077836393415687e-03
    -5.3708615552957462e-01 1.0400140598618528e-02
    -4.5520018366341541e-01 1.8961994135149474e-02
    -2.1650635094610968e-01 1.2820648017167004e-02
    -3.4156502553198664e-01 8.8470876450977946e-03
    -6.0609152673132649e-01 8.0768214764781222e-03
    -7.8387360672834316e-01 7.8440109960348347e-03
    -9.8518436614377813e-01 7.9720447435681040e-03
    -8.3438751886972129e-01 7.8571522533566526e-03
    -9.4197873843413893e-01 7.9510283703548550e-03
    -1.1801936887041646e+00 8.1424877724649656e-03
    -1.3170777796132698e+00 7.8440109960348330e-03
    -1.0150384378451045e+00 7.8466339725321663e-03
    -9.7058177682627367e-01 8.0201810758711682e-03
    -8.0890109880894656e-01 8.0201810758711682e-03
    -8.0890109880894656e-01 8.2593213925390985e-03
    -7.2299880548122109e-01 8.4005881618796161e-03
    -6.8740633727619394e-01 8.6331743508600411e-03
    -6.4072327551718733e-01 8.6331743508600411e-03
    -6.4072327551718733e-01 9.0120825133710517e-03
    -5.8309518948452999e-01 8.8470876450977946e-03
    -6.0609152673132649e-01 8.5698001754079649e-03
    -6.5232807305344209e-01 8.7003596003292095e-03
    -6.2915286960589578e-01 8.7003596003292095e-03
    -6.2915286960589578e-01 8.3505873829352525e-03
    -6.9920589878010098e-01 8.5100324338891527e-03
    -6.6397305295754550e-01 8.4005881618796161e-03
    -6.8740633727619394e-01 8.4005881618796161e-03
    -6.8740633727619394e-01 8.5100324338891527e-03
    -6.6397305295754550e-01 7.9950787261102683e-03
    -8.2158383625774922e-01 7.9148707097310041e-03
    -8.7358908803672797e-01 7.8747771123206124e-03
    -9.1412058195632184e-01 8.0201810758711682e-03
    -1.2362450755382013e+00 7.9319839636772960e-03
    -1.1622724263194306e+00 8.1424877724649656e-03
    -1.3170777796132698e+00 8.0474079907300322e-03
    -1.2557559782549625e+00 7.8862970759948046e-03
    -1.1105554165971789e+00 7.8431372549019607e-03 -1.
    7.8747771123206106e-03 -1.0939475816854340e+00
    8.1788976522420113e-03 -7.4708736763762851e-01
    9.5229382767871053e-03 -5.2553827281224363e-01
    1.1782765280458284e-02 -3.8118124993124369e-01
    1.3733906283836948e-02 -3.1362502409359000e-01
    1.1500040524969167e-02 -3.9391929857916774e-01
    9.0120825133710517e-03 -5.8309518948452999e-01
    8.3035414458505815e-03 -7.1106819470996585e-01
    7.9720447435681040e-03 -8.3438751886972129e-01
    7.8996523727356133e-03 -8.8694231304333804e-01
    7.8571522533566526e-03 -9.4197873843413893e-01
    7.8996523727356133e-03 -8.8694231304333804e-01
    8.0474079907300322e-03 -1.2557559782549625e+00
    7.8571522533566508e-03 -1.0615950861718071e+00
    7.8650687815646526e-03 -9.2796072713833699e-01
    7.8747771123206124e-03 -9.1412058195632184e-01
    8.1084897627138487e-03 -7.7151674981045948e-01
    8.4536849588003372e-03 -6.7566392469217618e-01
    8.5698001754079649e-03 -6.5232807305344209e-01
    8.5100324338891527e-03 -6.6397305295754550e-01
    8.7003596003292095e-03 -6.2915286960589578e-01
    8.8470876450977946e-03 -6.0609152673132649e-01
    8.7003596003292095e-03 -6.2915286960589578e-01
    8.7003596003292095e-03 -6.2915286960589578e-01
    8.3505873829352525e-03 -6.9920589878010098e-01
    8.5698001754079649e-03 -6.5232807305344209e-01
    8.4536849588003372e-03 -6.7566392469217618e-01
    8.6331743508600411e-03 -6.4072327551718733e-01
    8.5698001754079649e-03 -6.5232807305344209e-01
    8.9271534186459896e-03 -5.9458839001056307e-01
    8.5698001754079649e-03 -6.5232807305344209e-01
    8.4005881618796161e-03 -6.8740633727619394e-01
    8.0201810758711682e-03 -8.0890109880894656e-01
    7.8862970759948046e-03 -9.0045033778149641e-01
    7.8747771123206106e-03 -1.0939475816854340e+00
    7.8431372549019607e-03 -1. 8.1084897627138487e-03
    -1.2961481396815719e+00 8.0474079907300322e-03
    -1.2557559782549625e+00 7.8747771123206106e-03
    -1.0939475816854340e+00 7.8571522533566508e-03
    -1.0615950861718071e+00 7.8440109960348330e-03
    -1.0150384378451045e+00 8.1788976522420113e-03
    -7.4708736763762851e-01 1.0066566448598767e-02
    -4.7891314261057560e-01 1.0586301684254996e-02
    -4.4320263021395917e-01 1.3733906283836948e-02
    -3.1362502409359000e-01 1.1005181119821019e-02
    -4.1885390829169550e-01 8.7715812140604834e-03
    -6.1761096085567657e-01 8.1788976522420113e-03
    -7.4708736763762851e-01 7.8996523727356133e-03
    -8.8694231304333804e-01 7.9148707097310041e-03
    -8.7358908803672797e-01 7.8510114534710174e-03
    -9.5618288746751501e-01 7.8747771123206124e-03
    -9.1412058195632184e-01 7.9510283703548550e-03
    -1.1801936887041646e+00 7.8571522533566508e-03
    -1.0615950861718071e+00 7.8996523727356115e-03
    -1.1274690420042430e+00 7.8650687815646526e-03
    -9.2796072713833699e-01 8.2593213925390985e-03
    -7.2299880548122109e-01 8.3505873829352525e-03
    -6.9920589878010098e-01 8.5698001754079649e-03
    -6.5232807305344209e-01 8.4536849588003372e-03
    -6.7566392469217618e-01 8.6331743508600411e-03
    -6.4072327551718733e-01 9.2996190543019382e-03
    -5.4860812406161807e-01 8.4005881618796161e-03
    -6.8740633727619394e-01 8.4005881618796161e-03
    -6.8740633727619394e-01 8.5100324338891527e-03
    -6.6397305295754550e-01 8.5698001754079649e-03
    -6.5232807305344209e-01 8.4536849588003372e-03
    -6.7566392469217618e-01 8.4005881618796161e-03
    -6.8740633727619394e-01 8.4536849588003372e-03
    -6.7566392469217618e-01 8.4005881618796161e-03
    -6.8740633727619394e-01 8.1788976522420113e-03
    -7.4708736763762851e-01 8.2593213925390985e-03
    -7.2299880548122109e-01 8.3035414458505815e-03
    -7.1106819470996585e-01 7.9148707097310041e-03
    -8.7358908803672797e-01 7.8747771123206106e-03
    -1.0939475816854340e+00 7.8996523727356115e-03
    -1.1274690420042430e+00 8.1424877724649656e-03
    -1.3170777796132698e+00 7.9319839636772960e-03
    -1.1622724263194306e+00 7.8650687815646526e-03
    -1.0776318121606494e+00 7.8440109960348330e-03
    -1.0150384378451045e+00 7.8466339725321663e-03
    -9.7058177682627367e-01 8.2178093703422547e-03
    -7.3500332316083528e-01 1.0787374317157514e-02
    -4.3109245871924246e-01 1.0227339070357264e-02
    -4.6709936649691386e-01 1.4286166903690771e-02
    -2.9904998630487023e-01 1.1782765280458284e-02
    -3.8118124993124369e-01 8.7715812140604834e-03
    -6.1761096085567657e-01 7.8650687815646526e-03
    -9.2796072713833699e-01 8.0474079907300305e-03
    -7.9633305938119558e-01 8.0474079907300305e-03
    -7.9633305938119558e-01 7.9950787261102683e-03
    -8.2158383625774922e-01 7.8466339725321663e-03
    -9.7058177682627367e-01 8.0768214764781222e-03
    -1.2757158697735780e+00 7.8466339725321663e-03
    -9.7058177682627367e-01 7.8571522533566508e-03
    -1.0615950861718071e+00 7.8510114534710174e-03
    -9.5618288746751501e-01 8.5698001754079649e-03
    -6.5232807305344209e-01 8.7003596003292095e-03
    -6.2915286960589578e-01 8.6331743508600411e-03
    -6.4072327551718733e-01 8.5698001754079649e-03
    -6.5232807305344209e-01 8.7715812140604834e-03
    -6.1761096085567657e-01 8.7715812140604834e-03
    -6.1761096085567657e-01 8.5100324338891527e-03
    -6.6397305295754550e-01 8.3505873829352525e-03
    -6.9920589878010098e-01 8.3505873829352525e-03
    -6.9920589878010098e-01 8.5100324338891527e-03
    -6.6397305295754550e-01 8.8470876450977946e-03
    -6.0609152673132649e-01 8.5698001754079649e-03
    -6.5232807305344209e-01 8.4536849588003372e-03
    -6.7566392469217618e-01 8.4005881618796161e-03
    -6.8740633727619394e-01 8.1788976522420113e-03
    -7.4708736763762851e-01 8.1424877724649656e-03
    -7.5925660236529668e-01 8.2593213925390985e-03
    -7.2299880548122109e-01 8.3505873829352525e-03
    -6.9920589878010098e-01 7.8747771123206106e-03
    -1.0939475816854340e+00 7.8510114534710174e-03
    -1.0458250331675945e+00 7.8862970759948046e-03
    -1.1105554165971789e+00 8.0768214764781222e-03
    -1.2757158697735780e+00 7.8650687815646526e-03
    -1.0776318121606494e+00 7.8431372549019607e-03 -1.
    7.8440109960348347e-03 -9.8518436614377813e-01
    7.9720447435681040e-03 -8.3438751886972129e-01
    9.7766675389433962e-03 -5.0233101496735288e-01
    1.0586301684254996e-02 -4.4320263021395917e-01
    1.2820648017167004e-02 -3.4156502553198664e-01
    1.1782765280458284e-02 -3.8118124993124369e-01
    8.3505873829352525e-03 -6.9920589878010098e-01
    8.0474079907300305e-03 -7.9633305938119558e-01
    8.1084897627138487e-03 -7.7151674981045948e-01
    7.9720447435681040e-03 -8.3438751886972129e-01
    7.8862970759948046e-03 -9.0045033778149641e-01
    7.8571522533566526e-03 -9.4197873843413893e-01
    7.8431372549019607e-03 -1. 7.8510114534710174e-03
    -9.5618288746751501e-01 7.8862970759948046e-03
    -9.0045033778149641e-01 7.8747771123206124e-03
    -9.1412058195632184e-01 8.4536849588003372e-03
    -6.7566392469217618e-01 8.2593213925390985e-03
    -7.2299880548122109e-01 8.6331743508600411e-03
    -6.4072327551718733e-01 8.8470876450977946e-03
    -6.0609152673132649e-01 8.9271534186459896e-03
    -5.9458839001056307e-01 9.0120825133710517e-03
    -5.8309518948452999e-01 8.9271534186459896e-03
    -5.9458839001056307e-01 8.7003596003292095e-03
    -6.2915286960589578e-01 8.6331743508600411e-03
    -6.4072327551718733e-01 8.7003596003292095e-03
    -6.2915286960589578e-01 8.9271534186459896e-03
    -5.9458839001056307e-01 8.7715812140604834e-03
    -6.1761096085567657e-01 8.7715812140604834e-03
    -6.1761096085567657e-01 8.7003596003292095e-03
    -6.2915286960589578e-01 8.4005881618796161e-03
    -6.8740633727619394e-01 8.4005881618796161e-03
    -6.8740633727619394e-01 8.2593213925390985e-03
    -7.2299880548122109e-01 8.3505873829352525e-03
    -6.9920589878010098e-01 7.8440109960348330e-03
    -1.0150384378451045e+00 7.8440109960348330e-03
    -1.0150384378451045e+00 7.9510283703548550e-03
    -1.1801936887041646e+00 8.0474079907300322e-03
    -1.2557559782549625e+00 7.8466339725321663e-03
    -9.7058177682627367e-01 7.8440109960348347e-03
    -9.8518436614377813e-01 7.8440109960348330e-03
    -1.0150384378451045e+00 8.0474079907300305e-03
    -7.9633305938119558e-01 8.5698001754079649e-03
    -6.5232807305344209e-01 1.1005181119821019e-02
    -4.1885390829169550e-01 1.5667090665880880e-02
    -2.6832815729997478e-01 1.3249523403597275e-02
    -3.2777738867854450e-01 8.6331743508600411e-03
    -6.4072327551718733e-01 8.0768214764781222e-03
    -7.8387360672834316e-01 8.0201810758711682e-03
    -8.0890109880894656e-01 7.8996523727356133e-03
    -8.8694231304333804e-01 7.8862970759948046e-03
    -9.0045033778149641e-01 7.8510114534710174e-03
    -9.5618288746751501e-01 7.8510114534710174e-03
    -1.0458250331675945e+00 7.8650687815646526e-03
    -9.2796072713833699e-01 7.8862970759948046e-03
    -9.0045033778149641e-01 8.1424877724649656e-03
    -7.5925660236529668e-01 7.8650687815646526e-03
    -9.2796072713833699e-01 8.5698001754079649e-03
    -6.5232807305344209e-01 8.5100324338891527e-03
    -6.6397305295754550e-01 8.5698001754079649e-03
    -6.5232807305344209e-01 8.9271534186459896e-03
    -5.9458839001056307e-01 9.1979181990075164e-03
    -5.6011203361120399e-01 9.0120825133710517e-03
    -5.8309518948452999e-01 9.0120825133710517e-03
    -5.8309518948452999e-01 8.9271534186459896e-03
    -5.9458839001056307e-01 9.2996190543019382e-03
    -5.4860812406161807e-01 9.0120825133710517e-03
    -5.8309518948452999e-01 8.9271534186459896e-03
    -5.9458839001056307e-01 9.0120825133710517e-03
    -5.8309518948452999e-01 8.7715812140604834e-03
    -6.1761096085567657e-01 8.3035414458505815e-03
    -7.1106819470996585e-01 8.2593213925390985e-03
    -7.2299880548122109e-01 8.3035414458505815e-03
    -7.1106819470996585e-01 8.2593213925390985e-03
    -7.2299880548122109e-01 7.9319839636772960e-03
    -8.6038348441827994e-01 7.8466339725321663e-03
    -1.0303098861694289e+00 7.8862970759948046e-03
    -1.1105554165971789e+00 7.9950787261102683e-03
    -1.2171612389003692e+00 7.8510114534710174e-03
    -9.5618288746751501e-01 7.8510114534710174e-03
    -9.5618288746751501e-01 7.8440109960348330e-03
    -1.0150384378451045e+00 7.9950787261102683e-03
    -8.2158383625774922e-01 8.3505873829352525e-03
    -6.9920589878010098e-01 1.1500040524969167e-02
    -3.9391929857916774e-01 2.3044269526890572e-02
    -1.7541160386140586e-01 1.1782765280458284e-02
    -3.8118124993124369e-01 8.9271534186459896e-03
    -5.9458839001056307e-01 8.1084897627138487e-03
    -7.7151674981045948e-01 8.3035414458505815e-03
    -7.1106819470996585e-01 7.9510283703548550e-03
    -8.4731854573632337e-01 7.9510283703548550e-03
    -8.4731854573632337e-01 7.8571522533566526e-03
    -9.4197873843413893e-01 7.8440109960348330e-03
    -1.0150384378451045e+00 7.8571522533566526e-03
    -9.4197873843413893e-01 7.8996523727356133e-03
    -8.8694231304333804e-01 7.8747771123206124e-03
    -9.1412058195632184e-01 7.8996523727356133e-03
    -8.8694231304333804e-01 8.3505873829352525e-03
    -6.9920589878010098e-01 9.1979181990075164e-03
    -5.6011203361120399e-01 8.9271534186459896e-03
    -5.9458839001056307e-01 8.6331743508600411e-03
    -6.4072327551718733e-01 8.5698001754079649e-03
    -6.5232807305344209e-01 8.7003596003292095e-03
    -6.2915286960589578e-01 9.0120825133710517e-03
    -5.8309518948452999e-01 9.1022123068654256e-03
    -5.7160534747964598e-01 9.1022123068654256e-03
    -5.7160534747964598e-01 9.1979181990075164e-03
    -5.6011203361120399e-01 8.5698001754079649e-03
    -6.5232807305344209e-01 8.9271534186459896e-03
    -5.9458839001056307e-01 8.7715812140604834e-03
    -6.1761096085567657e-01 8.4536849588003372e-03
    -6.7566392469217618e-01 8.2593213925390985e-03
    -7.2299880548122109e-01 8.4005881618796161e-03
    -6.8740633727619394e-01 7.9319839636772960e-03
    -8.6038348441827994e-01 7.8466339725321663e-03
    -1.0303098861694289e+00 7.9319839636772960e-03
    -8.6038348441827994e-01 7.9319839636772960e-03
    -1.1622724263194306e+00 7.9950787261102683e-03
    -1.2171612389003692e+00 7.8440109960348347e-03
    -9.8518436614377813e-01 7.8440109960348330e-03
    -1.0150384378451045e+00 7.8466339725321663e-03
    -9.7058177682627367e-01 7.9720447435681040e-03
    -8.3438751886972129e-01 8.5100324338891527e-03
    -6.6397305295754550e-01 1.2093823411605425e-02
    -3.6822984715932938e-01 1.8961994135149474e-02
    -2.1650635094610968e-01 1.0787374317157514e-02
    -4.3109245871924246e-01 9.9166746781291382e-03
    -4.9065338146265813e-01 8.7003596003292095e-03
    -6.2915286960589578e-01 8.0201810758711682e-03
    -8.0890109880894656e-01 7.9720447435681040e-03
    -8.3438751886972129e-01 7.9319839636772960e-03
    -8.6038348441827994e-01 7.8510114534710174e-03
    -9.5618288746751501e-01 7.8862970759948046e-03
    -9.0045033778149641e-01 7.9510283703548550e-03
    -8.4731854573632337e-01 7.9148707097310041e-03
    -8.7358908803672797e-01 7.8466339725321663e-03
    -9.7058177682627367e-01 7.9950787261102683e-03
    -8.2158383625774922e-01 8.0474079907300305e-03
    -7.9633305938119558e-01 8.8470876450977946e-03
    -6.0609152673132649e-01 8.5100324338891527e-03
    -6.6397305295754550e-01 8.8470876450977946e-03
    -6.0609152673132649e-01 8.7003596003292095e-03
    -6.2915286960589578e-01 8.7003596003292095e-03
    -6.2915286960589578e-01 9.1022123068654256e-03
    -5.7160534747964598e-01 8.7003596003292095e-03
    -6.2915286960589578e-01 8.9271534186459896e-03
    -5.9458839001056307e-01 8.7003596003292095e-03
    -6.2915286960589578e-01 8.5698001754079649e-03
    -6.5232807305344209e-01 8.7003596003292095e-03
    -6.2915286960589578e-01 8.7715812140604834e-03
    -6.1761096085567657e-01 8.3505873829352525e-03
    -6.9920589878010098e-01 8.4536849588003372e-03
    -6.7566392469217618e-01 8.3505873829352525e-03
    -6.9920589878010098e-01 7.9720447435681040e-03
    -8.3438751886972129e-01 7.8996523727356133e-03
    -8.8694231304333804e-01 7.8510114534710174e-03
    -1.0458250331675945e+00 7.9720447435681022e-03
    -1.1984838907401447e+00 7.8996523727356115e-03
    -1.1274690420042430e+00 7.8510114534710174e-03
    -9.5618288746751501e-01 7.8440109960348347e-03
    -9.8518436614377813e-01 7.8510114534710174e-03
    -9.5618288746751501e-01 8.0768214764781222e-03
    -7.8387360672834316e-01 8.4005881618796161e-03
    -6.8740633727619394e-01 1.0787374317157514e-02
    -4.3109245871924246e-01 1.7624375510067070e-02
    -2.3477246481693820e-01 1.1782765280458284e-02
    -3.8118124993124369e-01 9.5229382767871053e-03
    -5.2553827281224363e-01 9.0120825133710517e-03
    -5.8309518948452999e-01 8.1424877724649656e-03
    -7.5925660236529668e-01 8.0201810758711682e-03
    -8.0890109880894656e-01 7.8996523727356133e-03
    -8.8694231304333804e-01 7.8747771123206124e-03
    -9.1412058195632184e-01 7.8747771123206124e-03
    -9.1412058195632184e-01 7.9148707097310041e-03
    -8.7358908803672797e-01 7.8510114534710174e-03
    -9.5618288746751501e-01 7.8440109960348347e-03
    -9.8518436614377813e-01 7.8510114534710174e-03
    -9.5618288746751501e-01 7.9510283703548550e-03
    -8.4731854573632337e-01 8.1788976522420113e-03
    -7.4708736763762851e-01 8.5698001754079649e-03
    -6.5232807305344209e-01 8.5698001754079649e-03
    -6.5232807305344209e-01 8.5100324338891527e-03
    -6.6397305295754550e-01 8.7003596003292095e-03
    -6.2915286960589578e-01 8.4005881618796161e-03
    -6.8740633727619394e-01 8.7715812140604834e-03
    -6.1761096085567657e-01 8.7715812140604834e-03
    -6.1761096085567657e-01 8.7003596003292095e-03
    -6.2915286960589578e-01 8.7715812140604834e-03
    -6.1761096085567657e-01 8.7715812140604834e-03
    -6.1761096085567657e-01 8.7003596003292095e-03
    -6.2915286960589578e-01 9.0120825133710517e-03
    -5.8309518948452999e-01 8.4536849588003372e-03
    -6.7566392469217618e-01 7.9148707097310041e-03
    -8.7358908803672797e-01 7.8747771123206124e-03
    -9.1412058195632184e-01 7.8996523727356133e-03
    -8.8694231304333804e-01 7.8510114534710174e-03
    -9.5618288746751501e-01 7.9319839636772960e-03
    -1.1622724263194306e+00 7.8996523727356115e-03
    -1.1274690420042430e+00 7.8440109960348330e-03
    -1.0150384378451045e+00 7.9950787261102683e-03
    -8.2158383625774922e-01 7.8650687815646526e-03
    -9.2796072713833699e-01 8.0201810758711682e-03
    -8.0890109880894656e-01 8.6331743508600411e-03
    -6.4072327551718733e-01 1.1005181119821019e-02
    -4.1885390829169550e-01 2.3044269526890572e-02
    -1.7541160386140586e-01 1.2093823411605425e-02
    -3.6822984715932938e-01 1.0066566448598767e-02
    -4.7891314261057560e-01 8.9271534186459896e-03
    -5.9458839001056307e-01 8.1424877724649656e-03
    -7.5925660236529668e-01 8.0474079907300305e-03
    -7.9633305938119558e-01 8.0201810758711682e-03
    -8.0890109880894656e-01 7.8862970759948046e-03
    -9.0045033778149641e-01 7.8747771123206124e-03
    -9.1412058195632184e-01 7.8510114534710174e-03
    -9.5618288746751501e-01 7.9510283703548550e-03
    -8.4731854573632337e-01 7.8466339725321663e-03
    -9.7058177682627367e-01 7.8650687815646526e-03
    -9.2796072713833699e-01 7.9720447435681040e-03
    -8.3438751886972129e-01 7.9720447435681040e-03
    -8.3438751886972129e-01 8.0474079907300305e-03
    -7.9633305938119558e-01 9.1022123068654256e-03
    -5.7160534747964598e-01 8.7715812140604834e-03
    -6.1761096085567657e-01 8.5100324338891527e-03
    -6.6397305295754550e-01 8.5100324338891527e-03
    -6.6397305295754550e-01 8.5698001754079649e-03
    -6.5232807305344209e-01 8.8470876450977946e-03
    -6.0609152673132649e-01 8.7003596003292095e-03
    -6.2915286960589578e-01 8.8470876450977946e-03
    -6.0609152673132649e-01 9.1022123068654256e-03
    -5.7160534747964598e-01 8.7715812140604834e-03
    -6.1761096085567657e-01 8.5698001754079649e-03
    -6.5232807305344209e-01 8.3035414458505815e-03
    -7.1106819470996585e-01 7.9148707097310041e-03
    -8.7358908803672797e-01 7.9319839636772960e-03
    -8.6038348441827994e-01 7.8571522533566526e-03
    -9.4197873843413893e-01 7.8510114534710174e-03
    -1.0458250331675945e+00 7.9950787261102683e-03
    -1.2171612389003692e+00 7.8440109960348347e-03
    -9.8518436614377813e-01 7.8440109960348347e-03
    -9.8518436614377813e-01 7.8747771123206124e-03
    -9.1412058195632184e-01 7.8996523727356133e-03
    -8.8694231304333804e-01 8.4536849588003372e-03
    -6.7566392469217618e-01 8.8470876450977946e-03
    -6.0609152673132649e-01 1.1241878760516626e-02
    -4.0646942234853023e-01 1.6551385419358317e-02
    -2.5197631533948484e-01 1.2093823411605425e-02
    -3.6822984715932938e-01 1.0066566448598767e-02
    -4.7891314261057560e-01 9.7766675389433962e-03
    -5.0233101496735288e-01 8.2593213925390985e-03
    -7.2299880548122109e-01 8.1084897627138487e-03
    -7.7151674981045948e-01 8.1084897627138487e-03
    -7.7151674981045948e-01 7.9950787261102683e-03
    -8.2158383625774922e-01 7.8571522533566526e-03
    -9.4197873843413893e-01 7.8466339725321663e-03
    -9.7058177682627367e-01 7.8440109960348347e-03
    -9.8518436614377813e-01 7.8431372549019607e-03 -1.
    8.0768214764781222e-03 -7.8387360672834316e-01
    8.0474079907300305e-03 -7.9633305938119558e-01
    7.9950787261102683e-03 -8.2158383625774922e-01
    8.5100324338891527e-03 -6.6397305295754550e-01
    8.0201810758711682e-03 -8.0890109880894656e-01
    8.4005881618796161e-03 -6.8740633727619394e-01
    8.4005881618796161e-03 -6.8740633727619394e-01
    8.8470876450977946e-03 -6.0609152673132649e-01
    8.7003596003292095e-03 -6.2915286960589578e-01
    8.7715812140604834e-03 -6.1761096085567657e-01
    8.9271534186459896e-03 -5.9458839001056307e-01
    8.7003596003292095e-03 -6.2915286960589578e-01
    8.7003596003292095e-03 -6.2915286960589578e-01
    8.3505873829352525e-03 -6.9920589878010098e-01
    8.1084897627138487e-03 -7.7151674981045948e-01
    8.0768214764781222e-03 -7.8387360672834316e-01
    8.2178093703422547e-03 -7.3500332316083528e-01
    8.0474079907300305e-03 -7.9633305938119558e-01
    7.8571522533566526e-03 -9.4197873843413893e-01
    8.0768214764781222e-03 -1.2757158697735780e+00
    8.0201810758711682e-03 -1.2362450755382013e+00
    7.8431372549019607e-03 -1. 7.9148707097310041e-03
    -8.7358908803672797e-01 7.8996523727356133e-03
    -8.8694231304333804e-01 7.9148707097310041e-03
    -8.7358908803672797e-01 8.5100324338891527e-03
    -6.6397305295754550e-01 9.1022123068654256e-03
    -5.7160534747964598e-01 1.5667090665880880e-02
    -2.6832815729997478e-01 1.4922918782177779e-02
    -2.8398091712353235e-01 1.2093823411605425e-02
    -3.6822984715932938e-01 1.0227339070357264e-02
    -4.6709936649691386e-01 9.6456759961493360e-03
    -5.1395616875004668e-01 8.8470876450977946e-03
    -6.0609152673132649e-01 8.5698001754079649e-03
    -6.5232807305344209e-01 8.1788976522420113e-03
    -7.4708736763762851e-01 8.0201810758711682e-03
    -8.0890109880894656e-01 7.9319839636772960e-03
    -8.6038348441827994e-01 7.8996523727356133e-03
    -8.8694231304333804e-01 7.8862970759948046e-03
    -9.0045033778149641e-01 7.8440109960348347e-03
    -9.8518436614377813e-01 7.8996523727356115e-03
    -1.1274690420042430e+00 7.8862970759948046e-03
    -9.0045033778149641e-01 7.9510283703548550e-03
    -8.4731854573632337e-01 8.0768214764781222e-03
    -7.8387360672834316e-01 7.9720447435681040e-03
    -8.3438751886972129e-01 7.9720447435681040e-03
    -8.3438751886972129e-01 7.9319839636772960e-03
    -8.6038348441827994e-01 7.9720447435681040e-03
    -8.3438751886972129e-01 8.7715812140604834e-03
    -6.1761096085567657e-01 8.2178093703422547e-03
    -7.3500332316083528e-01 8.0768214764781222e-03
    -7.8387360672834316e-01 8.0768214764781222e-03
    -7.8387360672834316e-01 7.9148707097310041e-03
    -8.7358908803672797e-01 7.8862970759948046e-03
    -9.0045033778149641e-01 7.8862970759948046e-03
    -9.0045033778149641e-01 7.8996523727356133e-03
    -8.8694231304333804e-01 7.8996523727356133e-03
    -8.8694231304333804e-01 8.0201810758711682e-03
    -8.0890109880894656e-01 7.8996523727356115e-03
    -1.1274690420042430e+00 8.1424877724649656e-03
    -1.3170777796132698e+00 7.8510114534710174e-03
    -1.0458250331675945e+00 7.8440109960348330e-03
    -1.0150384378451045e+00 7.8996523727356133e-03
    -8.8694231304333804e-01 7.8996523727356133e-03
    -8.8694231304333804e-01 7.9319839636772960e-03
    -8.6038348441827994e-01 8.3505873829352525e-03
    -6.9920589878010098e-01 9.2996190543019382e-03
    -5.4860812406161807e-01 1.5667090665880880e-02
    -2.6832815729997478e-01 1.6551385419358317e-02
    -2.5197631533948484e-01 1.3249523403597275e-02
    -3.2777738867854450e-01 1.1782765280458284e-02
    -3.8118124993124369e-01 1.0066566448598767e-02
    -4.7891314261057560e-01 9.1022123068654256e-03
    -5.7160534747964598e-01 9.0120825133710517e-03
    -5.8309518948452999e-01 8.5100324338891527e-03
    -6.6397305295754550e-01 8.1084897627138487e-03
    -7.7151674981045948e-01 8.1424877724649656e-03
    -7.5925660236529668e-01 7.9950787261102683e-03
    -8.2158383625774922e-01 7.8747771123206124e-03
    -9.1412058195632184e-01 7.8650687815646526e-03
    -9.2796072713833699e-01 7.9319839636772960e-03
    -1.1622724263194306e+00 7.9319839636772960e-03
    -1.1622724263194306e+00 7.9148707097310041e-03
    -8.7358908803672797e-01 7.9148707097310041e-03
    -8.7358908803672797e-01 8.0768214764781222e-03
    -7.8387360672834316e-01 8.0768214764781222e-03
    -7.8387360672834316e-01 7.9950787261102683e-03
    -8.2158383625774922e-01 7.9319839636772960e-03
    -8.6038348441827994e-01 8.1084897627138487e-03
    -7.7151674981045948e-01 7.9510283703548550e-03
    -8.4731854573632337e-01 7.9950787261102683e-03
    -8.2158383625774922e-01 8.0201810758711682e-03
    -8.0890109880894656e-01 8.0201810758711682e-03
    -8.0890109880894656e-01 7.9720447435681040e-03
    -8.3438751886972129e-01 7.9720447435681040e-03
    -8.3438751886972129e-01 7.9148707097310041e-03
    -8.7358908803672797e-01 7.9148707097310041e-03
    -8.7358908803672797e-01 7.9148707097310041e-03
    -8.7358908803672797e-01 7.9319839636772960e-03
    -1.1622724263194306e+00 7.8571522533566508e-03
    -1.0615950861718071e+00 7.8466339725321663e-03
    -1.0303098861694289e+00 7.8510114534710174e-03
    -9.5618288746751501e-01 7.9510283703548550e-03
    -8.4731854573632337e-01 8.0474079907300305e-03
    -7.9633305938119558e-01 7.9510283703548550e-03
    -8.4731854573632337e-01 8.3505873829352525e-03
    -6.9920589878010098e-01 1.0787374317157514e-02
    -4.3109245871924246e-01 1.5667090665880880e-02
    -2.6832815729997478e-01 1.8961994135149474e-02
    -2.1650635094610968e-01 1.4922918782177779e-02
    -2.8398091712353235e-01 1.2820648017167004e-02
    -3.4156502553198664e-01 1.1500040524969167e-02
    -3.9391929857916774e-01 9.7766675389433962e-03
    -5.0233101496735288e-01 9.5229382767871053e-03
    -5.2553827281224363e-01 1.0227339070357264e-02
    -4.6709936649691386e-01 8.4005881618796161e-03
    -6.8740633727619394e-01 8.4536849588003372e-03
    -6.7566392469217618e-01 8.1084897627138487e-03
    -7.7151674981045948e-01 7.8747771123206124e-03
    -9.1412058195632184e-01 7.9720447435681040e-03
    -8.3438751886972129e-01 7.8650687815646526e-03
    -9.2796072713833699e-01 7.8747771123206106e-03
    -1.0939475816854340e+00 7.9720447435681022e-03
    -1.1984838907401447e+00 7.8862970759948046e-03
    -1.1105554165971789e+00 7.8996523727356133e-03
    -8.8694231304333804e-01 7.9319839636772960e-03
    -8.6038348441827994e-01 8.0474079907300305e-03
    -7.9633305938119558e-01 8.0474079907300305e-03
    -7.9633305938119558e-01 8.1084897627138487e-03
    -7.7151674981045948e-01 7.9950787261102683e-03
    -8.2158383625774922e-01 8.0201810758711682e-03
    -8.0890109880894656e-01 8.0474079907300305e-03
    -7.9633305938119558e-01 8.0474079907300305e-03
    -7.9633305938119558e-01 8.0201810758711682e-03
    -8.0890109880894656e-01 7.9319839636772960e-03
    -8.6038348441827994e-01 8.3035414458505815e-03
    -7.1106819470996585e-01 7.9510283703548550e-03
    -8.4731854573632337e-01 7.9950787261102683e-03
    -8.2158383625774922e-01 8.1424877724649656e-03
    -1.3170777796132698e+00 7.8431372549019607e-03 -1.
    7.8510114534710174e-03 -9.5618288746751501e-01
    7.8440109960348347e-03 -9.8518436614377813e-01
    7.9950787261102683e-03 -8.2158383625774922e-01
    8.1424877724649656e-03 -7.5925660236529668e-01
    8.4005881618796161e-03 -6.8740633727619394e-01
    9.2996190543019382e-03 -5.4860812406161807e-01
    1.1500040524969167e-02 -3.9391929857916774e-01
    1.8961994135149474e-02 -2.1650635094610968e-01
    1.8961994135149474e-02 -2.1650635094610968e-01
    1.7624375510067070e-02 -2.3477246481693820e-01
    1.3249523403597275e-02 -3.2777738867854450e-01
    1.2093823411605425e-02 -3.6822984715932938e-01
    1.0066566448598767e-02 -4.7891314261057560e-01
    9.6456759961493360e-03 -5.1395616875004668e-01
    9.2996190543019382e-03 -5.4860812406161807e-01
    9.4077836393415687e-03 -5.3708615552957462e-01
    8.4536849588003372e-03 -6.7566392469217618e-01
    8.6331743508600411e-03 -6.4072327551718733e-01
    8.3035414458505815e-03 -7.1106819470996585e-01
    8.2593213925390985e-03 -7.2299880548122109e-01
    7.9148707097310041e-03 -8.7358908803672797e-01
    7.8996523727356133e-03 -8.8694231304333804e-01
    7.8571522533566508e-03 -1.0615950861718071e+00
    7.9148707097310041e-03 -1.1447029429446780e+00
    7.8650687815646526e-03 -1.0776318121606494e+00
    7.8466339725321663e-03 -1.0303098861694289e+00
    7.8996523727356133e-03 -8.8694231304333804e-01
    7.8510114534710174e-03 -9.5618288746751501e-01
    7.8862970759948046e-03 -9.0045033778149641e-01
    7.8862970759948046e-03 -9.0045033778149641e-01
    7.9148707097310041e-03 -8.7358908803672797e-01
    7.8862970759948046e-03 -9.0045033778149641e-01
    8.3035414458505815e-03 -7.1106819470996585e-01
    8.2593213925390985e-03 -7.2299880548122109e-01
    7.9510283703548550e-03 -8.4731854573632337e-01
    7.8747771123206124e-03 -9.1412058195632184e-01
    7.8650687815646526e-03 -1.0776318121606494e+00
    7.8466339725321663e-03 -1.0303098861694289e+00
    7.9510283703548550e-03 -1.1801936887041646e+00
    7.9148707097310041e-03 -8.7358908803672797e-01
    7.9510283703548550e-03 -8.4731854573632337e-01
    7.9950787261102683e-03 -8.2158383625774922e-01
    7.9950787261102683e-03 -8.2158383625774922e-01
    8.1084897627138487e-03 -7.7151674981045948e-01
    8.8470876450977946e-03 -6.0609152673132649e-01
    9.7766675389433962e-03 -5.0233101496735288e-01
    1.6551385419358317e-02 -2.5197631533948484e-01
    1.7624375510067070e-02 -2.3477246481693820e-01
    2.0691156264390810e-02 -1.9687480773953944e-01
    1.7624375510067070e-02 -2.3477246481693820e-01
    1.4922918782177779e-02 -2.8398091712353235e-01
    1.2820648017167004e-02 -3.4156502553198664e-01
    1.3249523403597275e-02 -3.2777738867854450e-01
    1.0586301684254996e-02 -4.4320263021395917e-01
    9.4077836393415687e-03 -5.3708615552957462e-01
    8.7003596003292095e-03 -6.2915286960589578e-01
    9.1022123068654256e-03 -5.7160534747964598e-01
    8.2593213925390985e-03 -7.2299880548122109e-01
    8.5100324338891527e-03 -6.6397305295754550e-01
    8.2593213925390985e-03 -7.2299880548122109e-01
    8.0768214764781222e-03 -7.8387360672834316e-01
    7.8650687815646526e-03 -9.2796072713833699e-01
    7.8466339725321663e-03 -9.7058177682627367e-01
    7.8571522533566508e-03 -1.0615950861718071e+00
    7.8571522533566508e-03 -1.0615950861718071e+00
    7.8571522533566526e-03 -9.4197873843413893e-01
    7.8571522533566526e-03 -9.4197873843413893e-01
    7.8650687815646526e-03 -9.2796072713833699e-01
    7.8466339725321663e-03 -9.7058177682627367e-01
    7.9319839636772960e-03 -8.6038348441827994e-01
    7.9950787261102683e-03 -8.2158383625774922e-01
    7.9148707097310041e-03 -8.7358908803672797e-01
    8.2593213925390985e-03 -7.2299880548122109e-01
    8.0474079907300305e-03 -7.9633305938119558e-01
    8.1424877724649656e-03 -7.5925660236529668e-01
    7.8466339725321663e-03 -1.0303098861694289e+00
    7.8510114534710174e-03 -1.0458250331675945e+00
    7.8466339725321663e-03 -1.0303098861694289e+00
    7.8510114534710174e-03 -9.5618288746751501e-01
    7.9319839636772960e-03 -8.6038348441827994e-01
    7.9950787261102683e-03 -8.2158383625774922e-01
    7.9720447435681040e-03 -8.3438751886972129e-01
    7.9720447435681040e-03 -8.3438751886972129e-01
    8.7003596003292095e-03 -6.2915286960589578e-01
    9.6456759961493360e-03 -5.1395616875004668e-01
    1.0586301684254996e-02 -4.4320263021395917e-01
    1.5667090665880880e-02 -2.6832815729997478e-01
    1.7624375510067070e-02 -2.3477246481693820e-01
    1.8961994135149474e-02 -2.1650635094610968e-01
    1.7624375510067070e-02 -2.3477246481693820e-01
    1.3733906283836948e-02 -3.1362502409359000e-01
    1.2820648017167004e-02 -3.4156502553198664e-01
    1.3249523403597275e-02 -3.2777738867854450e-01
    1.2093823411605425e-02 -3.6822984715932938e-01
    1.0066566448598767e-02 -4.7891314261057560e-01
    9.2996190543019382e-03 -5.4860812406161807e-01
    8.7715812140604834e-03 -6.1761096085567657e-01
    8.8470876450977946e-03 -6.0609152673132649e-01
    8.4005881618796161e-03 -6.8740633727619394e-01
    8.3035414458505815e-03 -7.1106819470996585e-01
    8.0201810758711682e-03 -8.0890109880894656e-01
    7.9319839636772960e-03 -8.6038348441827994e-01
    7.8747771123206124e-03 -9.1412058195632184e-01
    7.9319839636772960e-03 -8.6038348441827994e-01
    7.8650687815646526e-03 -1.0776318121606494e+00
    7.8510114534710174e-03 -1.0458250331675945e+00
    7.9510283703548550e-03 -8.4731854573632337e-01
    7.8571522533566526e-03 -9.4197873843413893e-01
    7.8431372549019607e-03 -1. 7.8440109960348330e-03
    -1.0150384378451045e+00 7.8466339725321663e-03
    -9.7058177682627367e-01 7.9720447435681040e-03
    -8.3438751886972129e-01 7.9319839636772960e-03
    -8.6038348441827994e-01 7.8440109960348330e-03
    -1.0150384378451045e+00 7.8466339725321663e-03
    -1.0303098861694289e+00 7.9148707097310041e-03
    -1.1447029429446780e+00 7.8440109960348330e-03
    -1.0150384378451045e+00 7.8510114534710174e-03
    -9.5618288746751501e-01 8.0474079907300305e-03
    -7.9633305938119558e-01 7.9319839636772960e-03
    -8.6038348441827994e-01 7.9950787261102683e-03
    -8.2158383625774922e-01 7.9510283703548550e-03
    -8.4731854573632337e-01 8.4536849588003372e-03
    -6.7566392469217618e-01 9.2996190543019382e-03
    -5.4860812406161807e-01 9.6456759961493360e-03
    -5.1395616875004668e-01 1.0586301684254996e-02
    -4.4320263021395917e-01 1.5667090665880880e-02
    -2.6832815729997478e-01 1.8961994135149474e-02
    -2.1650635094610968e-01 2.0691156264390810e-02
    -1.9687480773953944e-01 1.7624375510067070e-02
    -2.3477246481693820e-01 1.3733906283836948e-02
    -3.1362502409359000e-01 1.2820648017167004e-02
    -3.4156502553198664e-01 1.2437855520857690e-02
    -3.5503580124836315e-01 1.2093823411605425e-02
    -3.6822984715932938e-01 1.2093823411605425e-02
    -3.6822984715932938e-01 1.0066566448598767e-02
    -4.7891314261057560e-01 9.0120825133710517e-03
    -5.8309518948452999e-01 9.5229382767871053e-03
    -5.2553827281224363e-01 9.1022123068654256e-03
    -5.7160534747964598e-01 8.3505873829352525e-03
    -6.9920589878010098e-01 8.2593213925390985e-03
    -7.2299880548122109e-01 8.4005881618796161e-03
    -6.8740633727619394e-01 7.8862970759948046e-03
    -9.0045033778149641e-01 7.8510114534710174e-03
    -9.5618288746751501e-01 7.8650687815646526e-03
    -9.2796072713833699e-01 7.9148707097310041e-03
    -1.1447029429446780e+00 7.8747771123206106e-03
    -1.0939475816854340e+00 7.8650687815646526e-03
    -1.0776318121606494e+00 7.9319839636772960e-03
    -8.6038348441827994e-01 7.9950787261102683e-03
    -8.2158383625774922e-01 7.8466339725321663e-03
    -1.0303098861694289e+00 7.8466339725321663e-03
    -9.7058177682627367e-01 7.8862970759948046e-03
    -9.0045033778149641e-01 7.8571522533566526e-03
    -9.4197873843413893e-01 7.8440109960348330e-03
    -1.0150384378451045e+00 7.8466339725321663e-03
    -1.0303098861694289e+00 7.8466339725321663e-03
    -1.0303098861694289e+00 7.8431372549019607e-03 -1.
    8.0201810758711682e-03 -8.0890109880894656e-01
    7.8996523727356133e-03 -8.8694231304333804e-01
    7.9319839636772960e-03 -8.6038348441827994e-01
    8.1424877724649656e-03 -7.5925660236529668e-01
    8.9271534186459896e-03 -5.9458839001056307e-01
    9.5229382767871053e-03 -5.2553827281224363e-01
    9.6456759961493360e-03 -5.1395616875004668e-01
    1.2820648017167004e-02 -3.4156502553198664e-01
    1.6551385419358317e-02 -2.5197631533948484e-01
    1.6551385419358317e-02 -2.5197631533948484e-01
    2.6507473917220650e-02 -1.5132998169159551e-01
    1.6551385419358317e-02 -2.5197631533948484e-01
    1.3733906283836948e-02 -3.1362502409359000e-01
    1.3249523403597275e-02 -3.2777738867854450e-01
    1.2093823411605425e-02 -3.6822984715932938e-01
    1.2437855520857690e-02 -3.5503580124836315e-01
    1.1782765280458284e-02 -3.8118124993124369e-01
    1.1241878760516626e-02 -4.0646942234853023e-01
    9.7766675389433962e-03 -5.0233101496735288e-01
    9.9166746781291382e-03 -4.9065338146265813e-01
    9.9166746781291382e-03 -4.9065338146265813e-01
    9.1022123068654256e-03 -5.7160534747964598e-01
    8.1424877724649656e-03 -7.5925660236529668e-01
    8.0768214764781222e-03 -7.8387360672834316e-01
    7.9720447435681040e-03 -8.3438751886972129e-01
    7.8650687815646526e-03 -9.2796072713833699e-01
    7.8510114534710174e-03 -9.5618288746751501e-01
    7.8650687815646526e-03 -9.2796072713833699e-01
    7.8862970759948046e-03 -1.1105554165971789e+00
    7.9319839636772960e-03 -1.1622724263194306e+00
    7.8431372549019607e-03 -1. 7.8466339725321663e-03
    -9.7058177682627367e-01 7.8862970759948046e-03
    -9.0045033778149641e-01 7.9950787261102683e-03
    -8.2158383625774922e-01 7.8996523727356115e-03
    -1.1274690420042430e+00 7.8571522533566508e-03
    -1.0615950861718071e+00 7.8466339725321663e-03
    -1.0303098861694289e+00 8.0474079907300305e-03
    -7.9633305938119558e-01 8.1424877724649656e-03
    -7.5925660236529668e-01 7.9319839636772960e-03
    -8.6038348441827994e-01 7.9510283703548550e-03
    -8.4731854573632337e-01 8.1424877724649656e-03
    -7.5925660236529668e-01 8.4005881618796161e-03
    -6.8740633727619394e-01 8.5100324338891527e-03
    -6.6397305295754550e-01 9.4077836393415687e-03
    -5.3708615552957462e-01 9.6456759961493360e-03
    -5.1395616875004668e-01 1.2093823411605425e-02
    -3.6822984715932938e-01 1.3249523403597275e-02
    -3.2777738867854450e-01 1.6551385419358317e-02
    -2.5197631533948484e-01 1.7624375510067070e-02
    -2.3477246481693820e-01 2.0691156264390810e-02
    -1.9687480773953944e-01 1.6551385419358317e-02
    -2.5197631533948484e-01 1.4922918782177779e-02
    -2.8398091712353235e-01 1.2820648017167004e-02
    -3.4156502553198664e-01 1.2820648017167004e-02
    -3.4156502553198664e-01 1.2820648017167004e-02
    -3.4156502553198664e-01 1.2437855520857690e-02
    -3.5503580124836315e-01 1.1500040524969167e-02
    -3.9391929857916774e-01 1.1241878760516626e-02
    -4.0646942234853023e-01 1.0586301684254996e-02
    -4.4320263021395917e-01 1.0400140598618528e-02
    -4.5520018366341541e-01 1.0227339070357264e-02
    -4.6709936649691386e-01 9.5229382767871053e-03
    -5.2553827281224363e-01 9.1022123068654256e-03
    -5.7160534747964598e-01 8.3035414458505815e-03
    -7.1106819470996585e-01 7.9950787261102683e-03
    -8.2158383625774922e-01 8.0201810758711682e-03
    -8.0890109880894656e-01 7.9510283703548550e-03
    -8.4731854573632337e-01 7.8431372549019607e-03 -1.
    7.8571522533566508e-03 -1.0615950861718071e+00
    7.8510114534710174e-03 -1.0458250331675945e+00
    7.8650687815646526e-03 -9.2796072713833699e-01
    7.8747771123206124e-03 -9.1412058195632184e-01
    8.0201810758711682e-03 -1.2362450755382013e+00
    7.9319839636772960e-03 -1.1622724263194306e+00
    7.9148707097310041e-03 -1.1447029429446780e+00
    8.0201810758711682e-03 -8.0890109880894656e-01
    7.9148707097310041e-03 -8.7358908803672797e-01
    7.8747771123206124e-03 -9.1412058195632184e-01
    7.9720447435681040e-03 -8.3438751886972129e-01
    8.3505873829352525e-03 -6.9920589878010098e-01
    8.2593213925390985e-03 -7.2299880548122109e-01
    9.4077836393415687e-03 -5.3708615552957462e-01
    9.2996190543019382e-03 -5.4860812406161807e-01
    9.4077836393415687e-03 -5.3708615552957462e-01
    1.1782765280458284e-02 -3.8118124993124369e-01
    1.3249523403597275e-02 -3.2777738867854450e-01
    1.4286166903690771e-02 -2.9904998630487023e-01
    1.6551385419358317e-02 -2.5197631533948484e-01
    2.6507473917220650e-02 -1.5132998169159551e-01
    2.3044269526890572e-02 -1.7541160386140586e-01
    1.8961994135149474e-02 -2.1650635094610968e-01
    1.8961994135149474e-02 -2.1650635094610968e-01
    1.4286166903690771e-02 -2.9904998630487023e-01
    1.3733906283836948e-02 -3.1362502409359000e-01
    1.4286166903690771e-02 -2.9904998630487023e-01
    1.4286166903690771e-02 -2.9904998630487023e-01
    1.4286166903690771e-02 -2.9904998630487023e-01
    1.3733906283836948e-02 -3.1362502409359000e-01
    1.3733906283836948e-02 -3.1362502409359000e-01
    1.2093823411605425e-02 -3.6822984715932938e-01
    1.2093823411605425e-02 -3.6822984715932938e-01
    1.0227339070357264e-02 -4.6709936649691386e-01
    1.0586301684254996e-02 -4.4320263021395917e-01
    9.9166746781291382e-03 -4.9065338146265813e-01
    9.0120825133710517e-03 -5.8309518948452999e-01
    8.4005881618796161e-03 -6.8740633727619394e-01
    8.1424877724649656e-03 -7.5925660236529668e-01
    8.0768214764781222e-03 -7.8387360672834316e-01
    7.8431372549019607e-03 -1. 7.8571522533566508e-03
    -1.0615950861718071e+00 7.8510114534710174e-03
    -1.0458250331675945e+00 7.8510114534710174e-03
    -9.5618288746751501e-01 7.8996523727356115e-03
    -1.1274690420042430e+00 7.8996523727356115e-03
    -1.1274690420042430e+00 7.8466339725321663e-03
    -9.7058177682627367e-01 7.8466339725321663e-03
    -9.7058177682627367e-01 7.8466339725321663e-03
    -9.7058177682627367e-01 7.9950787261102683e-03
    -8.2158383625774922e-01 8.2178093703422547e-03
    -7.3500332316083528e-01 8.4536849588003372e-03
    -6.7566392469217618e-01 8.3505873829352525e-03
    -6.9920589878010098e-01 9.1022123068654256e-03
    -5.7160534747964598e-01 9.5229382767871053e-03
    -5.2553827281224363e-01 1.2093823411605425e-02
    -3.6822984715932938e-01 1.4286166903690771e-02
    -2.9904998630487023e-01 1.5667090665880880e-02
    -2.6832815729997478e-01 1.6551385419358317e-02
    -2.5197631533948484e-01 2.0691156264390810e-02
    -1.9687480773953944e-01 2.3044269526890572e-02
    -1.7541160386140586e-01 1. 0. 2.6507473917220650e-02
    -1.5132998169159551e-01 2.3044269526890572e-02
    -1.7541160386140586e-01 1.8961994135149474e-02
    -2.1650635094610968e-01 1.7624375510067070e-02
    -2.3477246481693820e-01 1.7624375510067070e-02
    -2.3477246481693820e-01 1.7624375510067070e-02
    -2.3477246481693820e-01 1.6551385419358317e-02
    -2.5197631533948484e-01 1.5667090665880880e-02
    -2.6832815729997478e-01 1.5667090665880880e-02
    -2.6832815729997478e-01 1.4286166903690771e-02
    -2.9904998630487023e-01 1.3733906283836948e-02
    -3.1362502409359000e-01 1.3249523403597275e-02
    -3.2777738867854450e-01 1.0400140598618528e-02
    -4.5520018366341541e-01 1.0787374317157514e-02
    -4.3109245871924246e-01 1.0227339070357264e-02
    -4.6709936649691386e-01 9.6456759961493360e-03
    -5.1395616875004668e-01 8.3035414458505815e-03
    -7.1106819470996585e-01 7.9319839636772960e-03
    -8.6038348441827994e-01 8.0768214764781222e-03
    -7.8387360672834316e-01 8.0201810758711682e-03
    -8.0890109880894656e-01 7.8440109960348347e-03
    -9.8518436614377813e-01 7.9950787261102683e-03
    -8.2158383625774922e-01 7.9950787261102683e-03
    -1.2171612389003692e+00 7.9950787261102683e-03
    -8.2158383625774922e-01 7.8650687815646526e-03
    -1.0776318121606494e+00 7.9510283703548550e-03
    -8.4731854573632337e-01 7.9950787261102683e-03
    -8.2158383625774922e-01 8.1788976522420113e-03
    -7.4708736763762851e-01 8.3505873829352525e-03
    -6.9920589878010098e-01 8.5698001754079649e-03
    -6.5232807305344209e-01 9.4077836393415687e-03
    -5.3708615552957462e-01 9.6456759961493360e-03
    -5.1395616875004668e-01 1.2437855520857690e-02
    -3.5503580124836315e-01 1.4286166903690771e-02
    -2.9904998630487023e-01 1.2820648017167004e-02
    -3.4156502553198664e-01 1.6551385419358317e-02
    -2.5197631533948484e-01 1.7624375510067070e-02
    -2.3477246481693820e-01 1.7624375510067070e-02
    -2.3477246481693820e-01 2.3044269526890572e-02
    -1.7541160386140586e-01 4.5565778790679246e-02
    -8.6710996952411995e-02 2.3044269526890572e-02
    -1.7541160386140586e-01 2.3044269526890572e-02
    -1.7541160386140586e-01 2.0691156264390810e-02
    -1.9687480773953944e-01 2.3044269526890572e-02
    -1.7541160386140586e-01 2.3044269526890572e-02
    -1.7541160386140586e-01 2.0691156264390810e-02
    -1.9687480773953944e-01 1.8961994135149474e-02
    -2.1650635094610968e-01 1.7624375510067070e-02
    -2.3477246481693820e-01 1.7624375510067070e-02
    -2.3477246481693820e-01 1.8961994135149474e-02
    -2.1650635094610968e-01 1.7624375510067070e-02
    -2.3477246481693820e-01 1.5667090665880880e-02
    -2.6832815729997478e-01 1.6551385419358317e-02
    -2.5197631533948484e-01 1.7624375510067070e-02
    -2.3477246481693820e-01 1.2437855520857690e-02
    -3.5503580124836315e-01 1.0400140598618528e-02
    -4.5520018366341541e-01 1.0787374317157514e-02
    -4.3109245871924246e-01 1.0066566448598767e-02
    -4.7891314261057560e-01 9.5229382767871053e-03
    -5.2553827281224363e-01 8.0768214764781222e-03
    -7.8387360672834316e-01 8.2178093703422547e-03
    -7.3500332316083528e-01 9.1022123068654256e-03
    -5.7160534747964598e-01 8.3505873829352525e-03
    -6.9920589878010098e-01 7.9950787261102683e-03
    -8.2158383625774922e-01 8.4536849588003372e-03
    -6.7566392469217618e-01 8.3505873829352525e-03
    -6.9920589878010098e-01 8.1788976522420113e-03
    -7.4708736763762851e-01 8.2178093703422547e-03
    -7.3500332316083528e-01 8.3505873829352525e-03
    -6.9920589878010098e-01 9.1022123068654256e-03
    -5.7160534747964598e-01 1.1241878760516626e-02
    -4.0646942234853023e-01 1.2437855520857690e-02
    -3.5503580124836315e-01 1.3733906283836948e-02
    -3.1362502409359000e-01 1.3249523403597275e-02
    -3.2777738867854450e-01 1.4286166903690771e-02
    -2.9904998630487023e-01 1.8961994135149474e-02
    -2.1650635094610968e-01 1.8961994135149474e-02
    -2.1650635094610968e-01 1.8961994135149474e-02
    -2.1650635094610968e-01 1.7624375510067070e-02
    -2.3477246481693820e-01</input_scale>
  <output_scale>
    1.0526315789473684e+00 0.</output_scale>
  <inv_output_scale>
    9.4999999999999996e-01 0.</inv_output_scale>
  <weights>
    <_>
      -1.1719048386403424e-03 -2.2903224389177911e-04
      -9.9637750405231888e-04 -5.5088375721748159e-04
      2.2039270841974236e-04 1.2144499427915077e-03
      9.9728247011042037e-04 2.0453599492093418e-04
      -7.2831549546728146e-04 -4.2920232853557353e-04
      -1.1054717958401724e-03 -1.2409612586460942e-04
      -2.1397120762249158e-05 -7.8018402384446585e-04
      6.7194088742161514e-04 -1.1208781013474275e-03
      1.1037170489498088e-03 1.0083693640301039e-03
      -2.5698247005999147e-04 -3.4383640164285737e-05
      3.0002183913935715e-04 -7.7645728251324352e-04
      -6.5397802009701264e-04 9.5527311481024093e-04
      -1.0954164450422850e-03 -3.1663012947851025e-04
      6.1523554708813478e-04 -6.3403300196013517e-04
      1.0630743572223426e-03 -2.4215284090006096e-04
      1.2150750992007805e-03 -3.7732545206526025e-04
      2.2581237915161135e-04 8.1166924113520002e-04
      1.1322676431532379e-03 5.1786688077618958e-04
      8.1904968067006900e-04 5.2277548999592920e-04
      1.2256443938238879e-03 -1.5902424652943092e-04
      2.9177107147035924e-01 9.2882418029239217e-02
      7.6236335477700340e-02 2.8988576920802339e-02
      -6.8065204739769292e-02 1.5106978766600667e-02
      -2.8084205064591316e-02 -5.8473717837242263e-02
      -7.3083611890419464e-03 1.0758658126559680e-01
      2.4583286909264764e-02 5.8833838132378732e-02
      2.6898755351987956e-02 -3.8321574150058872e-02
      -6.0383964417129905e-03 2.4090600374117244e-02
      -8.7064982941996577e-03 4.9014514332933773e-02
      -1.0933343879741793e-01 1.1066306673754345e-01
      -5.3954041732335624e-02 1.3492876913438930e-02
      8.0433538257856079e-03 7.8348038523645802e-02
      2.3372865941380546e-02 -1.2119784880513339e-02
      9.7708614185886944e-02 -1.0154325675570869e-01
      2.8771397131964027e-02 2.3280866572462408e-02
      -8.1873112333161413e-02 -9.4752684819708971e-02
      1.1059500083075119e-01 3.1065887473132145e-02
      4.2336300142457164e-02 1.2196571990901480e-02
      7.6880605153186385e-02 3.4377085000320835e-02
      -8.7532085270898244e-02 -7.2538295965821314e-02
      7.1680020523893301e-02 2.5242711175510659e-02
      2.0282880167827529e-02 5.3161039387859977e-03
      -1.7041356038133754e-02 3.9167413104696765e-03
      -5.5152476259108865e-03 -1.4990215436490751e-02
      -1.6272884732596326e-03 2.9065563409383856e-02
      4.1494833514586502e-03 1.3352431192361519e-02
      5.8156019068453827e-03 -9.3259020546794646e-03
      8.7555324125440938e-06 3.5866085683267067e-03
      -4.0496802864640238e-04 1.2453577090826781e-02
      -3.0151804267879823e-02 3.0559366807609713e-02
      -1.2587819402798876e-02 2.8983853115390440e-03
      4.0307052898176817e-04 2.1874688374474455e-02
      4.1159349848679397e-03 -6.0578872480827656e-04
      2.5718331821450936e-02 -2.7602287891813463e-02
      6.9315894507775873e-03 4.1662950006210201e-03
      -2.0473382777202700e-02 -2.5893195210758602e-02
      2.9679419609322834e-02 5.4759356896926948e-03
      1.0474033811055673e-02 3.1605953845266089e-03
      1.9126733199136256e-02 7.8029015108914777e-03
      -2.4260637808806450e-02 -1.8943008423746684e-02
      -1.4639093026130062e-01 -5.7436784877461795e-02
      -4.6503963762513173e-02 -1.5681612022609287e-02
      4.5397438514459064e-02 -7.7866832883688054e-03
      1.5118172601990878e-02 3.9018424260474908e-02
      3.3925709462292800e-03 -7.4472517703872726e-02
      -1.2770637345898938e-02 -3.8804798774285228e-02
      -1.3278997603738315e-02 2.2280571960267379e-02
      1.2308974023741753e-03 -1.1293621965332163e-02
      4.1647357741531766e-03 -3.1379494582040465e-02
      7.1663469656541218e-02 -7.5267140359877555e-02
      3.7020474482953203e-02 -5.9508453000548869e-03
      -2.0326196048867876e-03 -4.7471835340526000e-02
      -1.0363083149838614e-02 4.6495235366840271e-03
      -6.4100367601360342e-02 6.5807336068918601e-02
      -1.3741010985439882e-02 -1.1438724192164932e-02
      5.2653346584276783e-02 6.2383219230985207e-02
      -7.5377498044090302e-02 -1.7333338545738510e-02
      -2.5828112652798715e-02 -5.0146349254159535e-03
      -4.5897116630277297e-02 -1.8979423483419730e-02
      5.5084228476839907e-02 4.4612626415728253e-02
      -2.7539387113244905e-02 -2.0265038006529939e-02
      -1.7871389566258233e-02 -4.8469933486741026e-03
      1.6965033446987413e-02 -2.7125983326887061e-04
      4.1359659248867576e-03 1.7639716090329362e-02
      -4.1755689147608840e-04 -2.9328076744546419e-02
      -2.7785619891434422e-03 -1.7501864573638701e-02
      -2.3106523559626902e-03 7.2617882374641203e-03
      -1.1185955021231525e-03 -3.4215160358752957e-03
      1.4016581308269689e-03 -1.2696734452742562e-02
      2.8140630557106996e-02 -2.8867469736498865e-02
      1.4609575897839826e-02 -1.3591337659867708e-03
      -1.0982081098191558e-03 -9.4547431102312857e-03
      -1.5580385555137067e-03 1.3604241436388541e-03
      -2.4582557705375877e-02 2.5908061990356925e-02
      -4.9453704957920985e-03 -2.7140462445812449e-03
      2.1508309033338582e-02 2.3622796260487321e-02
      -3.1049777057977259e-02 -4.8924315955974551e-03
      -1.0643300518117401e-02 -4.2973278952670665e-05
      -1.8408700720156098e-02 -5.0413932369732222e-03
      1.9860246811751327e-02 1.2999857920800429e-02
      -2.7113622947278371e-02 -2.1636030658982983e-02
      -1.7020622496103987e-02 -4.2170646948640079e-03
      1.8109119665737462e-02 -1.6206608560615228e-03
      3.6251378613215484e-03 1.7182205512203036e-02
      -2.6469174115387612e-04 -2.9113902492554862e-02
      -4.0191863198321114e-03 -1.7910143557487119e-02
      -2.1167773451006575e-03 6.8555908385629439e-03
      4.8098176943874244e-04 -2.9632178154423371e-03
      7.0191464368811083e-04 -1.4094328335082928e-02
      2.6217013042160498e-02 -2.9019263824844783e-02
      1.4619160176327722e-02 3.1450721161377962e-05
      3.2936305174339629e-04 -9.3418988841541036e-03
      -3.5484381693477846e-03 6.6510970773725443e-04
      -2.2980985176145465e-02 2.5151672866050315e-02
      -4.4514337979272003e-03 -2.4392113305505155e-03
      2.0861325386324559e-02 2.3524129241871923e-02
      -2.9572739685298024e-02 -3.9934108355553057e-03
      -9.4335589821659821e-03 -1.3679954788655533e-04
      -1.7629807786978324e-02 -5.0545999649827759e-03
      2.0915897367939338e-02 1.1574205365816614e-02
      -6.6505710029777287e-02 -3.0400788721742737e-02
      -2.2985253502999316e-02 -7.1540626908185804e-03
      2.3013422092458054e-02 -4.0481726785847848e-03
      6.3440237104448608e-03 2.0619003962964177e-02
      2.0939547284026640e-03 -3.8994089629653006e-02
      -6.7299076022835835e-03 -2.1326800897403173e-02
      -6.9185748610354576e-03 1.2420186027794886e-02
      1.2510164103658448e-03 -4.8711266288972476e-03
      5.3468622796063511e-04 -1.8905287665386138e-02
      3.7874151736063927e-02 -3.8351311537756790e-02
      2.0131742093691032e-02 -1.3923515307969240e-03
      -3.0495374619901225e-04 -2.4396579684414908e-02
      -6.7392334993552887e-03 3.1790769807782233e-03
      -3.3571454225551904e-02 3.6400415466795941e-02
      -8.1666752289183773e-03 -5.4327023377394234e-03
      2.7886236863256347e-02 3.2719771139406925e-02
      -4.0119296968804022e-02 -9.2064872192013422e-03
      -1.3381697918857932e-02 -1.2049436380444074e-03
      -2.4459603292372234e-02 -9.2770758249535231e-03
      2.7159679070123875e-02 2.3546700401687378e-02
      -1.4541711891185999e-01 -5.8883019367330765e-02
      -4.8266113351309294e-02 -1.6245967957605675e-02
      4.3781758349632001e-02 -6.3858924687224070e-03
      1.5013815462620438e-02 3.9838034008875846e-02
      4.2369740980838753e-03 -7.3931751376631827e-02
      -1.1772195846208387e-02 -3.8174109585991621e-02
      -1.4784914081829520e-02 2.3680042770801397e-02
      2.5226673384711393e-03 -1.2678276120392408e-02
      2.2318768901491838e-03 -3.1931094559071352e-02
      7.1734932357303632e-02 -7.3667805134610687e-02
      3.6916094200913623e-02 -5.9801467308991142e-03
      -2.3989183948749959e-03 -4.6624087385374088e-02
      -1.1525001728542228e-02 3.4932607703868643e-03
      -6.4977288451828347e-02 6.5987102181896864e-02
      -1.4312080893176895e-02 -1.1965090742507878e-02
      5.1033670805448642e-02 6.0829085364554676e-02
      -7.5745313485834159e-02 -1.7016081170122380e-02
      -2.6208796236830031e-02 -4.3487363773850674e-03
      -4.6034354205056881e-02 -1.9963510555427583e-02
      5.5431250926343593e-02 4.5852378222261382e-02
      -5.3564236392257381e-02 -3.9391916357529991e-02
      -3.5041854163241008e-02 -5.0409720373002839e-03
      2.7552380779299987e-02 1.0748084376236808e-03
      3.0445174491208608e-03 2.6283656286250758e-02
      -1.9675615116327184e-03 -5.6977448402348266e-02
      -3.6536738564590470e-03 -2.6655480939734202e-02
      -3.6890817476417418e-03 1.1182786183569850e-02
      -2.4870924814528257e-03 -2.9733112473738442e-03
      -1.8438379808994037e-03 -2.0850609108244818e-02
      5.4314172560747734e-02 -5.6881246040020643e-02
      2.5165433601564754e-02 9.5479722003863961e-05
      2.9415824629262016e-03 -3.2759736793902317e-02
      -2.5325492497129069e-03 -1.9186171463075703e-03
      -4.6770820058188535e-02 4.9792224320865407e-02
      -6.0507619608351892e-03 -9.8498039197928117e-04
      3.6675825704633777e-02 4.5128282371117094e-02
      -5.9387725447845617e-02 -6.6857612655967930e-03
      -1.5473538147113114e-02 1.1887860931010207e-03
      -3.3889890279330676e-02 -9.8023251431797673e-03
      3.6785847950595529e-02 2.4176714692117622e-02
      -1.1689371686927356e-01 -4.5875067319697191e-02
      -3.5892753915178023e-02 -1.3996294777716594e-02
      3.4647813383281073e-02 -6.4549499200651219e-03
      1.2011923412648345e-02 3.0701234779229924e-02
      1.8203770340584490e-03 -5.7327440165680102e-02
      -1.1062043327425636e-02 -3.0019348455065251e-02
      -1.2644135790917378e-02 1.9216690801740755e-02
      3.1180524409212805e-03 -1.1210924863156680e-02
      3.8789852276233132e-03 -2.4370244920877100e-02
      5.6586426393795700e-02 -5.7111354868643799e-02
      2.8851587306480450e-02 -4.6949123151742312e-03
      -4.1927253965922022e-03 -3.6314402968204013e-02
      -9.0046485026264861e-03 4.8545948881179458e-03
      -4.9818300871243407e-02 5.2661734681049191e-02
      -1.3422456030971920e-02 -1.0206808121736128e-02
      4.0459309782475028e-02 4.7125106179849600e-02
      -5.9710485297922403e-02 -1.3885244023375529e-02
      -2.1187600063780079e-02 -6.0293463392301298e-03
      -3.5608881305849410e-02 -1.5440618100213403e-02
      4.1071065987375907e-02 3.4732388257946618e-02
      -2.9861837674218229e-02 -4.2733180677409076e-02
      -2.7129388293936654e-02 -4.3163335666958035e-03
      2.5374233211538005e-02 2.3160843172003146e-03
      1.4634604883482050e-03 2.5902822530975679e-02
      -1.8021366373744184e-03 -6.6512752584287696e-02
      -1.8505256594863196e-04 -2.6880291591015775e-02
      -1.0392604711205635e-03 1.2025050711347534e-02
      -2.9415268630087377e-03 -1.5315676985542120e-03
      -2.8831508786663134e-03 -1.9649870524280993e-02
      6.4676481311312692e-02 -6.7985128510582193e-02
      2.3315876162789073e-02 2.9730439674598465e-03
      3.6492223616661351e-03 -2.1685655622170386e-02
      -7.3233232628069499e-04 -1.5758306229401496e-03
      -5.3081809712285481e-02 5.5543957927884961e-02
      -3.7835240315066678e-03 -1.7145486366474476e-04
      3.9144466008075363e-02 5.0114001813254934e-02
      -7.0971181262315192e-02 -5.7587061749114331e-03
      -1.4240022777930414e-02 1.2334367187560925e-03
      -2.6260963213946428e-02 -6.8051682807173958e-03
      3.9300793680234571e-02 1.4825424673413823e-02
      -5.9246900329732724e-03 -1.5343786102161224e-02
      -1.4900777180320844e-02 -1.6772767837315069e-03
      1.0698923098744357e-02 9.4558772574297506e-04
      -2.5654471211101299e-05 1.3136515995253674e-02
      -1.6201560887863945e-03 -3.2279189080441612e-02
      5.5570933829719314e-04 -1.3276661040687775e-02
      8.2455937937337754e-04 3.5006610864264133e-03
      -2.3800968904692460e-03 1.3216978233446825e-03
      -2.4885390698272886e-03 -8.0662105774117112e-03
      3.0327634901714903e-02 -3.0010623955301140e-02
      1.1823077707187667e-02 1.7224207284777240e-03
      6.9457347004857177e-04 -1.1783513576159805e-02
      9.5218463214711288e-04 -8.2724875149191638e-04
      -2.1818616681033711e-02 2.2745520908661863e-02
      -4.6890593152546298e-04 -2.5948407047954720e-04
      1.6491967060220897e-02 2.1049946881330318e-02
      -3.3566077893172071e-02 -2.5427158508456223e-03
      -4.6399366086553231e-03 1.3326033055168622e-03
      -1.5232174422794616e-02 -4.1087588373888853e-03
      1.6246632553698018e-02 7.5015436766189139e-03
      -8.5463736788747122e-02 -2.9204925669927797e-02
      -2.9060688354451313e-02 -1.1335227582918777e-02
      3.0901311609332124e-02 -7.2809618512731551e-03
      1.1221711359222748e-02 2.5808888560641546e-02
      4.5077539669547929e-03 -3.7735234864616059e-02
      -1.1294361623148305e-02 -2.4677560186755678e-02
      -1.1519938828180084e-02 1.6976313887390571e-02
      2.6604423413495600e-03 -8.9018591867655213e-03
      2.9887300711965198e-03 -2.1586720305204136e-02
      3.4854730598607449e-02 -3.7186424657531914e-02
      2.4467884385436643e-02 -6.3524838873617959e-03
      -2.9208419106873510e-03 -2.9702525672049118e-02
      -1.0344463266215980e-02 4.5191046211034806e-03
      -2.9910529550637669e-02 3.1278424541185283e-02
      -1.2251107041745739e-02 -9.8896933513061887e-03
      2.8020559528950859e-02 2.8446133573751718e-02
      -3.8303953875109750e-02 -1.3070358687079878e-02
      -1.8530466424885029e-02 -5.5373114464189049e-03
      -2.9569801116088285e-02 -1.5202760967343297e-02
      2.9293620283809486e-02 2.6579680627756699e-02
      1.0432114877959822e-01 1.2244820764986916e-02
      1.2817973926405173e-02 9.3010415938261891e-03
      -1.0178281098541369e-02 8.8136853440363445e-03
      -1.0387383759151393e-02 -4.8297223251780406e-03
      -6.1439823362370105e-03 -1.2191375222100120e-02
      9.8692515031843751e-03 5.0363384347220331e-03
      1.1201803176866202e-02 -9.7099771743942957e-03
      -3.9214395849271081e-03 9.4073211339088213e-03
      -7.1505718346505315e-03 5.9236296636091621e-03
      7.2129786011352320e-03 -9.5982022244072394e-03
      -6.8878843575041811e-03 8.6073937527465540e-03
      5.4981942846965342e-03 1.5120184444228269e-02
      1.0126687888637213e-02 -7.3673294322992751e-03
      1.1489665733608732e-02 -9.8991340879504321e-03
      9.8139926691363823e-03 1.0128684425834325e-02
      -9.0577319599935389e-03 -1.0880738718932031e-02
      -1.6444921285585491e-02 1.0142607847812605e-02
      8.0049591155559978e-03 7.3818180275067296e-03
      1.1222099530621555e-02 8.9177859986904230e-03
      -1.2046757375202052e-02 -1.7005283131562021e-02
      3.2090483573918847e-03 1.7666871552506479e-02
      3.9966000410298240e-03 -2.1899898660444842e-03
      -8.9611375291539976e-03 -3.8604393206888338e-03
      4.0984518539504411e-03 -7.0388161822140466e-03
      3.8966441577798511e-03 1.8051169188082722e-02
      -3.6944798630103178e-03 7.6829066847538619e-03
      -3.0478901857035733e-03 1.2057431586336076e-03
      2.1632436806918237e-03 -4.8419382080922687e-03
      3.2616050167218955e-03 3.1472797324567383e-03
      -1.6644534736866209e-02 1.7531234538571389e-02
      -5.4747923491335016e-03 -4.3541891506539325e-03
      -2.8200058058010851e-03 3.6476805698614874e-03
      -4.8782621001810583e-03 4.6336002028098556e-03
      1.7770128062828634e-02 -1.7904046250059959e-02
      -4.3895236272933711e-03 -4.6426296462687162e-03
      -1.4531442078609487e-02 -1.6882244283563809e-02
      1.7145720415672801e-02 -2.0622247859353481e-03
      1.2388504839776508e-03 -5.2089670236703557e-03
      4.4440209549687117e-03 -6.6440848659759404e-04
      -1.6145762165537966e-02 -1.1935828486407216e-03
      3.7669387549341106e-02 -6.4944039284071855e-04
      5.0535610160247378e-03 1.0195001523634090e-03
      1.2294612270527399e-03 9.5481207808000099e-04
      -1.1795587273700245e-03 -1.9250397566803459e-03
      -9.3483472619434538e-04 -6.5798764596321146e-03
      9.5429290539478543e-04 5.5987516617260003e-04
      1.6240901800221781e-03 -3.8245301285939333e-03
      9.7940427522963153e-04 -3.5359282236197166e-04
      9.4594611776817637e-05 1.7934964869144030e-03
      6.5791613751047641e-03 -7.8024318968900799e-03
      -2.8456143088341473e-03 1.2208156429617512e-03
      -8.1502423174924211e-04 -1.8676557897703399e-04
      -1.3844533314495187e-04 -4.6377679366177199e-04
      -3.6336872298539419e-03 5.0620465204421310e-03
      2.1176222546938424e-03 -2.8034216614317489e-04
      -1.1877074489907128e-04 2.8183779848583259e-03
      -7.3911597056486138e-03 2.7477386512960622e-03
      2.7233275904795626e-03 -3.6342337073498707e-04
      6.6049993203948169e-03 3.0811336982004577e-03
      -8.0442642303053889e-04 4.2726511964484137e-03
      5.1699773971241501e-02 1.2693620268911577e-03
      9.2784653738484501e-03 4.3881284873257195e-03
      1.0071856475380341e-04 4.2030946160065180e-04
      -2.9508068642249237e-03 -4.0993353227678688e-03
      -1.1504408080564436e-03 -5.5307685750074801e-03
      1.2157660863177213e-03 4.1354063642707597e-03
      2.9383793600202398e-03 -3.9291530399206444e-03
      -1.2690297973329567e-03 2.5335690086982802e-03
      -3.9509515400785338e-04 5.2096004047079269e-03
      6.6743298009784924e-03 -4.6224382670163894e-03
      -4.2104126205475675e-03 3.8819204292913978e-04
      1.4754747412606178e-04 2.2470188017810872e-03
      2.0711641072745728e-03 -1.9292819743356605e-03
      -2.7310444096212607e-03 3.7372926759779092e-03
      1.9627186164154556e-03 2.6195338845975582e-03
      -1.6253409862535232e-03 3.4235901357756492e-03
      -6.2639361554986559e-03 3.1371274159550625e-03
      4.8461218529216926e-03 1.8469598524655092e-03
      9.9651721678446752e-03 2.7110317124035455e-03
      -2.4330837143229818e-03 1.8647513422094832e-03
      -4.1459082418167308e-02 -1.3409657551336393e-02
      -5.0587605835564530e-03 -7.7703490711210250e-03
      1.3036724605708157e-02 -5.4355397012661386e-03
      7.2694189806980702e-03 8.7570723087617743e-03
      2.0120136754212961e-03 -2.3021631158771514e-02
